SVM-light Version V6.02
2 # kernel type
3 # kernel parameter -d 
1 # kernel parameter -g 
1 # kernel parameter -s 
1 # kernel parameter -r 
empty# kernel parameter -u 
20 # highest feature index 
14658 # number of training documents 
12224 # number of support vectors plus 1 
0.20016551 # threshold b, each following line is a SV (starting with alpha*y)
-0.79098835343490081495332333361148 10:1 #
-0.78410025552984574659376448835246 15:1 #
-0.79098835343490081495332333361148 20:1 #
-0.79098835343490081495332333361148 11:1 #
-0.79098835343490081495332333361148 12:1 #
2.3729650603047023338376675383188 12:1 #
2.3729650603047023338376675383188 1:1 #
2.3729650603047023338376675383188 11:1 #
-0.79098835343490081495332333361148 1:1 #
2.3729650603047023338376675383188 20:1 #
2.3729650603047023338376675383188 15:1 #
-0.79098835343490081495332333361148 1:1 #
-0.79098835343490081495332333361148 5:1 #
-0.79098835343490081495332333361148 12:1 #
2.3729650603047023338376675383188 10:1 #
-0.79098835343490081495332333361148 12:1 #
2.3729650603047023338376675383188 5:1 #
-0.79098835343490081495332333361148 10:1 #
-0.79098835343490081495332333361148 11:1 #
-0.79098835343490081495332333361148 20:1 #
-0.79098835343490081495332333361148 11:1 #
-0.79098835343490081495332333361148 10:1 #
-0.79098835343490081495332333361148 11:1 #
-0.79098835343490081495332333361148 10:1 #
-0.79098835343490081495332333361148 5:1 #
-0.64907436743098723130884764032089 12:1 #
-0.79098835343490081495332333361148 1:1 #
2.3729650603047023338376675383188 12:1 #
-0.79098835343490081495332333361148 5:1 #
2.3729650603047023338376675383188 11:1 #
-0.79098835343490081495332333361148 5:1 #
2.3729650603047023338376675383188 5:1 #
-0.79098835343490081495332333361148 11:1 #
-0.79098835343490081495332333361148 5:1 #
-0.79098835343490081495332333361148 11:1 #
-0.79098835343490081495332333361148 5:1 #
-0.79098835343490081495332333361148 11:1 #
2.3660769623988278098636328650173 11:1 #
-0.79098835343490081495332333361148 5:1 #
2.332296872766113970953938405728 5:1 #
-0.79098835343490081495332333361148 11:1 #
-0.79098835343490081495332333361148 5:1 #
-0.79098835343490081495332333361148 11:1 #
-0.79098835343490081495332333361148 5:1 #
-0.79098835343490081495332333361148 11:1 #
2.3729650603047023338376675383188 11:1 #
-0.79098835343490081495332333361148 5:1 #
2.3729650603047023338376675383188 5:1 #
-0.79098835343490081495332333361148 11:1 #
-0.79098835343490081495332333361148 5:1 #
-0.79098835343490081495332333361148 11:1 #
-0.79098835343490081495332333361148 5:1 #
-0.79098835343490081495332333361148 11:1 #
2.3717348246017144752784133743262 11:1 #
-0.79098835343490081495332333361148 5:1 #
2.3729650603047023338376675383188 5:1 #
-0.79098835343490081495332333361148 11:1 #
-0.79098835343490081495332333361148 5:1 #
-0.79098835343490081495332333361148 11:1 #
-0.79098835343490081495332333361148 5:1 #
-0.79098835343490081495332333361148 11:1 #
2.3729650603047023338376675383188 11:1 #
-0.79098835343490081495332333361148 5:1 #
2.3729650603047023338376675383188 5:1 #
-0.79098835343490081495332333361148 11:1 #
-0.79098835343490081495332333361148 5:1 #
-0.79098835343490081495332333361148 11:1 #
-0.79098835343490081495332333361148 5:1 #
-0.79098835343490081495332333361148 11:1 #
2.3729650603047023338376675383188 11:1 #
-0.79098835343490081495332333361148 5:1 #
2.3729650603047023338376675383188 5:1 #
-0.79098835343490081495332333361148 11:1 #
-0.79098835343490081495332333361148 5:1 #
-0.79098835343490081495332333361148 11:1 #
-0.79098835343490081495332333361148 5:1 #
-0.79098835343490081495332333361148 11:1 #
2.3729650603047023338376675383188 11:1 #
-0.79098835343490081495332333361148 5:1 #
2.3729650603047023338376675383188 5:1 #
-0.79098835343490081495332333361148 11:1 #
-0.79098835343490081495332333361148 5:1 #
-0.79098835343490081495332333361148 11:1 #
-0.79098835343490081495332333361148 5:1 #
-0.79098835343490081495332333361148 11:1 #
2.3729650603047023338376675383188 11:1 #
-0.79098835343490081495332333361148 5:1 #
2.3729650603047023338376675383188 5:1 #
-0.79098835343490081495332333361148 11:1 #
-0.79098835343490081495332333361148 5:1 #
-0.79098835343490081495332333361148 11:1 #
-0.79098835343490081495332333361148 5:1 #
-0.79098835343490081495332333361148 11:1 #
2.3729650603047023338376675383188 11:1 #
-0.79098835343490081495332333361148 5:1 #
2.3729650603047023338376675383188 5:1 #
-0.79098835343490081495332333361148 11:1 #
-0.79098835343490081495332333361148 5:1 #
-0.79098835343490081495332333361148 11:1 #
-0.79098835343490081495332333361148 5:1 #
-0.79098835343490081495332333361148 11:1 #
2.3729650603047023338376675383188 11:1 #
-0.79098835343490081495332333361148 5:1 #
2.3729650603047023338376675383188 5:1 #
-0.79098835343490081495332333361148 11:1 #
-0.79098835343490081495332333361148 5:1 #
-0.79098835343490081495332333361148 11:1 #
-0.79098835343490081495332333361148 5:1 #
-0.79098835343490081495332333361148 11:1 #
2.3729650603047023338376675383188 11:1 #
-0.79098835343490081495332333361148 5:1 #
2.3729650603047023338376675383188 5:1 #
-0.79098835343490081495332333361148 11:1 #
-0.79098835343490081495332333361148 5:1 #
-0.79098835343490081495332333361148 11:1 #
-0.79098835343490081495332333361148 5:1 #
-0.79098835343490081495332333361148 11:1 #
2.3729650603047023338376675383188 11:1 #
-0.79098835343490081495332333361148 5:1 #
2.3729650603047023338376675383188 5:1 #
-0.79098835343490081495332333361148 11:1 #
-0.79098835343490081495332333361148 5:1 #
-0.79098835343490081495332333361148 11:1 #
-0.79098835343490081495332333361148 5:1 #
-0.79098835343490081495332333361148 11:1 #
2.3729650603047023338376675383188 11:1 #
-0.79098835343490081495332333361148 5:1 #
2.3729650603047023338376675383188 5:1 #
-0.79098835343490081495332333361148 11:1 #
-0.79098835343490081495332333361148 5:1 #
-0.79098835343490081495332333361148 11:1 #
-0.79098835343490081495332333361148 5:1 #
-0.79098835343490081495332333361148 11:1 #
2.3729650603047023338376675383188 11:1 #
-0.79098835343490081495332333361148 5:1 #
2.3729650603047023338376675383188 5:1 #
-0.79098835343490081495332333361148 11:1 #
-0.79098835343490081495332333361148 5:1 #
-0.79098835343490081495332333361148 11:1 #
-0.79098835343490081495332333361148 5:1 #
-0.79098835343490081495332333361148 11:1 #
2.3729650603047023338376675383188 11:1 #
-0.79098835343490081495332333361148 5:1 #
2.3729650603047023338376675383188 5:1 #
-0.79098835343490081495332333361148 11:1 #
-0.79098835343490081495332333361148 5:1 #
-0.79098835343490081495332333361148 11:1 #
-0.79098835343490081495332333361148 5:1 #
-0.79098835343490081495332333361148 16:1 #
-0.79098835343490081495332333361148 14:1 #
-0.79098835343490081495332333361148 3:1 #
-0.79098835343490081495332333361148 5:1 #
-0.79098835343490081495332333361148 17:1 #
0.95821692385770473876505093357991 20:1 #
1.1584097665245220998286868052674 1:1 #
0.76291610104157514538059103870182 11:1 #
2.3729650603047023338376675383188 13:1 #
-0.79098835343490081495332333361148 1:1 #
2.3729650603047023338376675383188 17:1 #
-0.79098835343490081495332333361148 13:1 #
2.3729650603047023338376675383188 16:1 #
-0.79098835343490081495332333361148 11:1 #
-0.79098835343490081495332333361148 20:1 #
2.3729650603047023338376675383188 3:1 #
2.3729650603047023338376675383188 17:1 #
-0.79098835343490081495332333361148 1:1 #
2.3729650603047023338376675383188 14:1 #
-0.79098835343490081495332333361148 13:1 #
2.3729650603047023338376675383188 5:1 #
-0.79098835343490081495332333361148 20:1 #
-0.79098835343490081495332333361148 5:1 #
-0.79098835343490081495332333361148 20:1 #
2.3729650603047023338376675383188 1:1 #
-0.79098835343490081495332333361148 3:1 #
2.3729650603047023338376675383188 20:1 #
-0.79098835343490081495332333361148 1:1 #
-0.79098835343490081495332333361148 1:1 #
-0.74315171308015637308130862948019 3:1 #
-0.79098835343490081495332333361148 16:1 #
-0.79098835343490081495332333361148 1:1 #
2.3679935643659923982795589836314 1:1 #
-0.79098835343490081495332333361148 16:1 #
-0.79098835343490081495332333361148 1:1 #
-0.79098835343490081495332333361148 3:1 #
-0.79098835343490081495332333361148 16:1 #
-0.79098835343490081495332333361148 20:1 #
2.3729650603047023338376675383188 16:1 #
-0.79098835343490081495332333361148 17:1 #
-0.79098835343490081495332333361148 16:1 #
-0.79098835343490081495332333361148 16:1 #
-0.79098835343490081495332333361148 20:1 #
-0.79098835343490081495332333361148 14:1 #
2.3729650603047023338376675383188 3:1 #
-0.79098835343490081495332333361148 16:1 #
2.3729650603047023338376675383188 16:1 #
-0.79098835343490081495332333361148 3:1 #
-0.79098835343490081495332333361148 16:1 #
-0.79098835343490081495332333361148 3:1 #
-0.79098835343490081495332333361148 16:1 #
-0.79098835343490081495332333361148 3:1 #
2.3729650603047023338376675383188 3:1 #
-0.79098835343490081495332333361148 16:1 #
2.3729650603047023338376675383188 16:1 #
-0.79098835343490081495332333361148 3:1 #
-0.79098835343490081495332333361148 16:1 #
-0.79098835343490081495332333361148 3:1 #
-0.79098835343490081495332333361148 16:1 #
-0.79098835343490081495332333361148 3:1 #
2.3729650603047023338376675383188 3:1 #
-0.79098835343490081495332333361148 16:1 #
2.3729650603047023338376675383188 16:1 #
-0.79098835343490081495332333361148 3:1 #
-0.79098835343490081495332333361148 16:1 #
-0.79098835343490081495332333361148 3:1 #
-0.79098835343490081495332333361148 16:1 #
-0.79098835343490081495332333361148 3:1 #
2.3729650603047023338376675383188 3:1 #
-0.79098835343490081495332333361148 16:1 #
2.3729650603047023338376675383188 16:1 #
-0.79098835343490081495332333361148 3:1 #
-0.79098835343490081495332333361148 16:1 #
-0.79098835343490081495332333361148 3:1 #
-0.79098835343490081495332333361148 16:1 #
-0.79098835343490081495332333361148 3:1 #
2.3729650603047023338376675383188 3:1 #
-0.79098835343490081495332333361148 16:1 #
2.3729650603047023338376675383188 16:1 #
-0.79098835343490081495332333361148 3:1 #
-0.79098835343490081495332333361148 16:1 #
-0.79098835343490081495332333361148 3:1 #
-0.79098835343490081495332333361148 16:1 #
-0.79098835343490081495332333361148 3:1 #
2.3729650603047023338376675383188 3:1 #
-0.79098835343490081495332333361148 16:1 #
2.3729650603047023338376675383188 16:1 #
-0.79098835343490081495332333361148 3:1 #
-0.79098835343490081495332333361148 16:1 #
-0.79098835343490081495332333361148 3:1 #
-0.79098835343490081495332333361148 16:1 #
-0.79098835343490081495332333361148 3:1 #
2.3729650603047023338376675383188 3:1 #
-0.79098835343490081495332333361148 16:1 #
2.3729650603047023338376675383188 16:1 #
-0.79098835343490081495332333361148 3:1 #
-0.79098835343490081495332333361148 16:1 #
-0.79098835343490081495332333361148 3:1 #
-0.79098835343490081495332333361148 16:1 #
-0.79098835343490081495332333361148 3:1 #
2.3729650603047023338376675383188 3:1 #
-0.79098835343490081495332333361148 16:1 #
2.3729650603047023338376675383188 16:1 #
-0.79098835343490081495332333361148 3:1 #
-0.79098835343490081495332333361148 16:1 #
-0.79098835343490081495332333361148 3:1 #
-0.79098835343490081495332333361148 16:1 #
-0.79098835343490081495332333361148 3:1 #
2.3729650603047023338376675383188 3:1 #
-0.79098835343490081495332333361148 16:1 #
2.3729650603047023338376675383188 16:1 #
-0.79098835343490081495332333361148 3:1 #
-0.79098835343490081495332333361148 16:1 #
-0.79098835343490081495332333361148 3:1 #
-0.79098835343490081495332333361148 16:1 #
-0.79098835343490081495332333361148 3:1 #
2.3729650603047023338376675383188 3:1 #
-0.79098835343490081495332333361148 16:1 #
2.3729650603047023338376675383188 16:1 #
-0.79098835343490081495332333361148 3:1 #
-0.79098835343490081495332333361148 16:1 #
-0.79098835343490081495332333361148 3:1 #
-0.79098835343490081495332333361148 16:1 #
-0.79098835343490081495332333361148 3:1 #
2.3729650603047023338376675383188 3:1 #
-0.79098835343490081495332333361148 16:1 #
2.3729650603047023338376675383188 16:1 #
-0.79098835343490081495332333361148 3:1 #
-0.79098835343490081495332333361148 16:1 #
-0.79098835343490081495332333361148 3:1 #
-0.79098835343490081495332333361148 16:1 #
-0.79098835343490081495332333361148 3:1 #
2.3729650603047023338376675383188 3:1 #
-0.79098835343490081495332333361148 16:1 #
2.3729650603047023338376675383188 16:1 #
-0.79098835343490081495332333361148 3:1 #
-0.79098835343490081495332333361148 4:1 #
-0.79098835343490081495332333361148 16:1 #
-0.79098835343490081495332333361148 20:1 #
-0.79098835343490081495332333361148 12:1 #
0.79374285769613450725046277511865 1:1 #
2.3729650603047023338376675383188 13:1 #
0.67166976324356642003010620101122 11:1 #
0.9292187721191735860770677390974 5:1 #
2.3729650603047023338376675383188 4:1 #
-0.79098835343490081495332333361148 11:1 #
-0.79098835343490081495332333361148 5:1 #
-0.79098835343490081495332333361148 1:1 #
-0.79098835343490081495332333361148 3:1 #
-0.79098835343490081495332333361148 1:1 #
-0.79098835343490081495332333361148 3:1 #
2.3729650603047023338376675383188 3:1 #
-0.79098835343490081495332333361148 1:1 #
2.3729650603047023338376675383188 1:1 #
-0.79098835343490081495332333361148 3:1 #
-0.79098835343490081495332333361148 1:1 #
-0.79098835343490081495332333361148 3:1 #
-0.79098835343490081495332333361148 1:1 #
-0.79098835343490081495332333361148 3:1 #
2.3729650603047023338376675383188 3:1 #
-0.79098835343490081495332333361148 1:1 #
2.3729650603047023338376675383188 1:1 #
-0.79098835343490081495332333361148 3:1 #
-0.79098835343490081495332333361148 1:1 #
-0.79098835343490081495332333361148 3:1 #
-0.79098835343490081495332333361148 1:1 #
-0.79098835343490081495332333361148 3:1 #
2.3729650603047023338376675383188 3:1 #
-0.79098835343490081495332333361148 1:1 #
2.3729650603047023338376675383188 1:1 #
-0.79098835343490081495332333361148 3:1 #
-0.79098835343490081495332333361148 1:1 #
-0.79098835343490081495332333361148 3:1 #
-0.79098835343490081495332333361148 1:1 #
-0.79098835343490081495332333361148 3:1 #
2.3729650603047023338376675383188 3:1 #
-0.79098835343490081495332333361148 1:1 #
2.3729650603047023338376675383188 1:1 #
-0.79098835343490081495332333361148 3:1 #
-0.79098835343490081495332333361148 1:1 #
-0.79098835343490081495332333361148 3:1 #
-0.79098835343490081495332333361148 1:1 #
-0.79098835343490081495332333361148 3:1 #
2.3729650603047023338376675383188 3:1 #
-0.79098835343490081495332333361148 1:1 #
2.3729650603047023338376675383188 1:1 #
-0.79098835343490081495332333361148 3:1 #
-0.79098835343490081495332333361148 1:1 #
-0.79098835343490081495332333361148 3:1 #
-0.79098835343490081495332333361148 1:1 #
-0.79098835343490081495332333361148 3:1 #
2.3729650603047023338376675383188 3:1 #
-0.79098835343490081495332333361148 1:1 #
2.3729650603047023338376675383188 1:1 #
-0.79098835343490081495332333361148 3:1 #
-0.79098835343490081495332333361148 1:1 #
-0.79098835343490081495332333361148 3:1 #
-0.79098835343490081495332333361148 1:1 #
-0.79098835343490081495332333361148 3:1 #
2.3729650603047023338376675383188 3:1 #
-0.79098835343490081495332333361148 1:1 #
2.3729650603047023338376675383188 1:1 #
-0.79098835343490081495332333361148 3:1 #
-0.79098835343490081495332333361148 1:1 #
-0.79098835343490081495332333361148 3:1 #
-0.79098835343490081495332333361148 1:1 #
-0.79098835343490081495332333361148 3:1 #
2.3729650603047023338376675383188 3:1 #
-0.79098835343490081495332333361148 1:1 #
2.3729650603047023338376675383188 1:1 #
-0.79098835343490081495332333361148 3:1 #
-0.79098835343490081495332333361148 1:1 #
-0.79098835343490081495332333361148 3:1 #
-0.79098835343490081495332333361148 1:1 #
-0.79098835343490081495332333361148 3:1 #
2.3729650603047023338376675383188 3:1 #
-0.79098835343490081495332333361148 1:1 #
2.3729650603047023338376675383188 1:1 #
-0.79098835343490081495332333361148 3:1 #
-0.79098835343490081495332333361148 1:1 #
-0.79098835343490081495332333361148 3:1 #
-0.79098835343490081495332333361148 1:1 #
-0.79098835343490081495332333361148 3:1 #
2.3729650603047023338376675383188 3:1 #
-0.79098835343490081495332333361148 1:1 #
2.3729650603047023338376675383188 1:1 #
-0.79098835343490081495332333361148 3:1 #
-0.79098835343490081495332333361148 1:1 #
-0.79098835343490081495332333361148 3:1 #
-0.79098835343490081495332333361148 1:1 #
-0.79098835343490081495332333361148 3:1 #
2.3729650603047023338376675383188 3:1 #
-0.79098835343490081495332333361148 1:1 #
2.3729650603047023338376675383188 1:1 #
-0.79098835343490081495332333361148 3:1 #
-0.79098835343490081495332333361148 1:1 #
-0.79098835343490081495332333361148 3:1 #
-0.79098835343490081495332333361148 1:1 #
-0.79098835343490081495332333361148 3:1 #
2.3729650603047023338376675383188 3:1 #
-0.79098835343490081495332333361148 1:1 #
2.3729650603047023338376675383188 1:1 #
-0.79098835343490081495332333361148 3:1 #
-0.79098835343490081495332333361148 1:1 #
-0.79098835343490081495332333361148 3:1 #
-0.79098835343490081495332333361148 1:1 #
-0.79098835343490081495332333361148 3:1 #
2.3729650603047023338376675383188 3:1 #
-0.79098835343490081495332333361148 1:1 #
2.3729650603047023338376675383188 1:1 #
-0.79098835343490081495332333361148 3:1 #
-0.79098835343490081495332333361148 1:1 #
-0.79098835343490081495332333361148 3:1 #
-0.79098835343490081495332333361148 1:1 #
-0.79098835343490081495332333361148 3:1 #
2.3729650603047023338376675383188 3:1 #
-0.79098835343490081495332333361148 1:1 #
2.3729650603047023338376675383188 1:1 #
-0.79098835343490081495332333361148 3:1 #
-0.79098835343490081495332333361148 1:1 #
-0.79098835343490081495332333361148 3:1 #
-0.79098835343490081495332333361148 1:1 #
-0.79098835343490081495332333361148 3:1 #
2.3729650603047023338376675383188 3:1 #
-0.79098835343490081495332333361148 1:1 #
2.3729650603047023338376675383188 1:1 #
-0.79098835343490081495332333361148 3:1 #
-0.79098835343490081495332333361148 1:1 #
-0.79098835343490081495332333361148 3:1 #
-0.79098835343490081495332333361148 1:1 #
-0.79098835343490081495332333361148 3:1 #
2.3729650603047023338376675383188 3:1 #
-0.79098835343490081495332333361148 1:1 #
-0.79098835343490081495332333361148 14:1 #
-0.79098835343490081495332333361148 6:1 #
-0.79098835343490081495332333361148 5:1 #
-0.79098835343490081495332333361148 17:1 #
0.64801826647979199336191413749475 11:1 #
2.3729650603047023338376675383188 12:1 #
1.2341645518426784811083507520379 19:1 #
0.75848669617122554953425606072415 20:1 #
-0.79098835343490081495332333361148 12:1 #
-0.79098835343490081495332333361148 19:1 #
2.3729650603047023338376675383188 6:1 #
-0.79098835343490081495332333361148 11:1 #
-0.79098835343490081495332333361148 5:1 #
-0.79098835343490081495332333361148 3:1 #
2.3729650603047023338376675383188 1:1 #
-0.79098835343490081495332333361148 13:1 #
-0.79098835343490081495332333361148 1:1 #
-0.79098835343490081495332333361148 13:1 #
2.3729650603047023338376675383188 13:1 #
-0.79098835343490081495332333361148 1:1 #
-0.79098835343490081495332333361148 13:1 #
-0.79098835343490081495332333361148 1:1 #
2.3729650603047023338376675383188 1:1 #
-0.79098835343490081495332333361148 13:1 #
-0.79098835343490081495332333361148 1:1 #
-0.79098835343490081495332333361148 13:1 #
2.3729650603047023338376675383188 13:1 #
-0.79098835343490081495332333361148 1:1 #
-0.79098835343490081495332333361148 13:1 #
-0.79098835343490081495332333361148 1:1 #
2.3729650603047023338376675383188 1:1 #
-0.79098835343490081495332333361148 13:1 #
-0.79098835343490081495332333361148 1:1 #
-0.79098835343490081495332333361148 13:1 #
2.3729650603047023338376675383188 13:1 #
-0.79098835343490081495332333361148 1:1 #
-0.79098835343490081495332333361148 13:1 #
-0.79098835343490081495332333361148 1:1 #
2.3729650603047023338376675383188 1:1 #
-0.79098835343490081495332333361148 13:1 #
-0.79098835343490081495332333361148 1:1 #
-0.79098835343490081495332333361148 13:1 #
2.3729650603047023338376675383188 13:1 #
-0.79098835343490081495332333361148 1:1 #
-0.79098835343490081495332333361148 13:1 #
-0.79098835343490081495332333361148 1:1 #
2.3729650603047023338376675383188 1:1 #
-0.79098835343490081495332333361148 13:1 #
-0.79098835343490081495332333361148 1:1 #
-0.79098835343490081495332333361148 13:1 #
2.3729650603047023338376675383188 13:1 #
-0.79098835343490081495332333361148 1:1 #
-0.79098835343490081495332333361148 13:1 #
-0.79098835343490081495332333361148 1:1 #
2.3729650603047023338376675383188 1:1 #
-0.79098835343490081495332333361148 13:1 #
-0.79098835343490081495332333361148 1:1 #
-0.79098835343490081495332333361148 13:1 #
2.3729650603047023338376675383188 13:1 #
-0.79098835343490081495332333361148 1:1 #
-0.79098835343490081495332333361148 13:1 #
-0.79098835343490081495332333361148 1:1 #
2.3729650603047023338376675383188 1:1 #
-0.79098835343490081495332333361148 13:1 #
-0.79098835343490081495332333361148 1:1 #
-0.79098835343490081495332333361148 13:1 #
2.3729650603047023338376675383188 13:1 #
-0.79098835343490081495332333361148 1:1 #
-0.79098835343490081495332333361148 13:1 #
-0.79098835343490081495332333361148 1:1 #
2.3729650603047023338376675383188 1:1 #
-0.79098835343490081495332333361148 13:1 #
-0.79098835343490081495332333361148 1:1 #
-0.79098835343490081495332333361148 13:1 #
2.3729650603047023338376675383188 13:1 #
-0.79098835343490081495332333361148 1:1 #
-0.79098835343490081495332333361148 13:1 #
-0.79098835343490081495332333361148 1:1 #
2.3729650603047023338376675383188 1:1 #
-0.79098835343490081495332333361148 13:1 #
-0.79098835343490081495332333361148 1:1 #
-0.79098835343490081495332333361148 13:1 #
2.3729650603047023338376675383188 13:1 #
-0.79098835343490081495332333361148 1:1 #
-0.79098835343490081495332333361148 13:1 #
-0.79098835343490081495332333361148 1:1 #
2.3729650603047023338376675383188 1:1 #
-0.79098835343490081495332333361148 13:1 #
-0.79098835343490081495332333361148 1:1 #
-0.79098835343490081495332333361148 13:1 #
2.3729650603047023338376675383188 13:1 #
-0.79098835343490081495332333361148 1:1 #
-0.79098835343490081495332333361148 13:1 #
-0.79098835343490081495332333361148 1:1 #
2.3729650603047023338376675383188 1:1 #
-0.79098835343490081495332333361148 13:1 #
-0.79098835343490081495332333361148 1:1 #
-0.79098835343490081495332333361148 13:1 #
2.3729650603047023338376675383188 13:1 #
-0.79098835343490081495332333361148 1:1 #
-0.79098835343490081495332333361148 13:1 #
-0.79098835343490081495332333361148 1:1 #
2.3729650603047023338376675383188 1:1 #
-0.79098835343490081495332333361148 13:1 #
-0.79098835343490081495332333361148 1:1 #
-0.79098835343490081495332333361148 13:1 #
2.3729650603047023338376675383188 13:1 #
-0.79098835343490081495332333361148 1:1 #
-0.79098835343490081495332333361148 13:1 #
-0.79098835343490081495332333361148 1:1 #
2.3729650603047023338376675383188 1:1 #
-0.79098835343490081495332333361148 13:1 #
-0.79098835343490081495332333361148 1:1 #
-0.79098835343490081495332333361148 13:1 #
2.3729650603047023338376675383188 13:1 #
-0.79098835343490081495332333361148 1:1 #
-0.79098835343490081495332333361148 13:1 #
-0.79098835343490081495332333361148 1:1 #
2.3729650603047023338376675383188 1:1 #
-0.79098835343490081495332333361148 13:1 #
-0.79098835343490081495332333361148 1:1 #
-0.79098835343490081495332333361148 13:1 #
2.3729650603047023338376675383188 13:1 #
-0.79098835343490081495332333361148 1:1 #
-0.79098835343490081495332333361148 13:1 #
-0.79098835343490081495332333361148 1:1 #
2.3729650603047023338376675383188 1:1 #
-0.79098835343490081495332333361148 13:1 #
-0.79098835343490081495332333361148 1:1 #
-0.79098835343490081495332333361148 13:1 #
2.3729650603047023338376675383188 13:1 #
-0.79098835343490081495332333361148 1:1 #
-0.79098835343490081495332333361148 13:1 #
-0.79098835343490081495332333361148 1:1 #
2.3729650603047023338376675383188 1:1 #
-0.79098835343490081495332333361148 13:1 #
-0.79098835343490081495332333361148 1:1 #
-0.79098835343490081495332333361148 13:1 #
2.3729650603047023338376675383188 13:1 #
-0.79098835343490081495332333361148 1:1 #
-0.79098835343490081495332333361148 4:1 #
-0.79098835343490081495332333361148 17:1 #
-0.79098835343490081495332333361148 19:1 #
0.72683127687115078874313667256502 5:1 #
0.75261727695729896403520342573756 11:1 #
2.3729650603047023338376675383188 13:1 #
0.54754456213546010001635977459955 6:1 #
-0.79098835343490081495332333361148 11:1 #
-0.79098835343490081495332333361148 5:1 #
-0.74926526903115586719650309532881 13:1 #
-0.79098835343490081495332333361148 6:1 #
2.3729650603047023338376675383188 19:1 #
-0.79098835343490081495332333361148 4:1 #
2.3729650603047023338376675383188 17:1 #
-0.79098835343490081495332333361148 19:1 #
-0.79098835343490081495332333361148 17:1 #
-0.79098835343490081495332333361148 1:1 #
2.3729650603047023338376675383188 1:1 #
-0.79098835343490081495332333361148 17:1 #
-0.79098835343490081495332333361148 1:1 #
-0.79098835343490081495332333361148 17:1 #
2.3729650603047023338376675383188 17:1 #
-0.79098835343490081495332333361148 1:1 #
-0.79098835343490081495332333361148 17:1 #
-0.79098835343490081495332333361148 1:1 #
2.3729650603047023338376675383188 1:1 #
-0.79098835343490081495332333361148 17:1 #
-0.79098835343490081495332333361148 1:1 #
-0.79098835343490081495332333361148 17:1 #
2.3729650603047023338376675383188 17:1 #
-0.79098835343490081495332333361148 1:1 #
-0.79098835343490081495332333361148 17:1 #
-0.79098835343490081495332333361148 1:1 #
2.3729650603047023338376675383188 1:1 #
-0.79098835343490081495332333361148 17:1 #
-0.79098835343490081495332333361148 1:1 #
-0.79098835343490081495332333361148 17:1 #
2.3729650603047023338376675383188 17:1 #
-0.79098835343490081495332333361148 1:1 #
-0.79098835343490081495332333361148 17:1 #
-0.79098835343490081495332333361148 1:1 #
2.3729650603047023338376675383188 1:1 #
-0.79098835343490081495332333361148 17:1 #
-0.79098835343490081495332333361148 1:1 #
-0.79098835343490081495332333361148 17:1 #
2.3729650603047023338376675383188 17:1 #
-0.79098835343490081495332333361148 1:1 #
-0.79098835343490081495332333361148 17:1 #
-0.79098835343490081495332333361148 1:1 #
2.3729650603047023338376675383188 1:1 #
-0.79098835343490081495332333361148 17:1 #
-0.79098835343490081495332333361148 1:1 #
-0.79098835343490081495332333361148 17:1 #
2.3729650603047023338376675383188 17:1 #
-0.79098835343490081495332333361148 1:1 #
-0.79098835343490081495332333361148 17:1 #
-0.79098835343490081495332333361148 1:1 #
2.3729650603047023338376675383188 1:1 #
-0.79098835343490081495332333361148 17:1 #
-0.79098835343490081495332333361148 1:1 #
-0.79098835343490081495332333361148 17:1 #
2.3729650603047023338376675383188 17:1 #
-0.79098835343490081495332333361148 1:1 #
-0.79098835343490081495332333361148 17:1 #
-0.79098835343490081495332333361148 1:1 #
2.3729650603047023338376675383188 1:1 #
-0.79098835343490081495332333361148 17:1 #
-0.79098835343490081495332333361148 1:1 #
-0.79098835343490081495332333361148 17:1 #
2.3729650603047023338376675383188 17:1 #
-0.79098835343490081495332333361148 1:1 #
-0.79098835343490081495332333361148 17:1 #
-0.79098835343490081495332333361148 1:1 #
2.3729650603047023338376675383188 1:1 #
-0.79098835343490081495332333361148 17:1 #
-0.79098835343490081495332333361148 1:1 #
-0.79098835343490081495332333361148 17:1 #
2.3729650603047023338376675383188 17:1 #
-0.79098835343490081495332333361148 1:1 #
-0.79098835343490081495332333361148 17:1 #
-0.79098835343490081495332333361148 1:1 #
2.3729650603047023338376675383188 1:1 #
-0.79098835343490081495332333361148 17:1 #
-0.79098835343490081495332333361148 1:1 #
-0.79098835343490081495332333361148 17:1 #
2.3729650603047023338376675383188 17:1 #
-0.79098835343490081495332333361148 1:1 #
-0.79098835343490081495332333361148 17:1 #
-0.79098835343490081495332333361148 1:1 #
2.3729650603047023338376675383188 1:1 #
-0.79098835343490081495332333361148 17:1 #
-0.79098835343490081495332333361148 1:1 #
-0.79098835343490081495332333361148 17:1 #
2.3729650603047023338376675383188 17:1 #
-0.79098835343490081495332333361148 1:1 #
-0.79098835343490081495332333361148 17:1 #
-0.79098835343490081495332333361148 1:1 #
2.3729650603047023338376675383188 1:1 #
-0.79098835343490081495332333361148 17:1 #
-0.79098835343490081495332333361148 1:1 #
-0.79098835343490081495332333361148 17:1 #
2.3729650603047023338376675383188 17:1 #
-0.79098835343490081495332333361148 1:1 #
-0.79098835343490081495332333361148 17:1 #
-0.79098835343490081495332333361148 1:1 #
2.3729650603047023338376675383188 1:1 #
-0.79098835343490081495332333361148 17:1 #
-0.79098835343490081495332333361148 1:1 #
-0.79098835343490081495332333361148 17:1 #
2.3729650603047023338376675383188 17:1 #
-0.79098835343490081495332333361148 1:1 #
-0.79098835343490081495332333361148 17:1 #
-0.79098835343490081495332333361148 1:1 #
2.3729650603047023338376675383188 1:1 #
-0.79098835343490081495332333361148 17:1 #
-0.79098835343490081495332333361148 1:1 #
-0.79098835343490081495332333361148 17:1 #
2.3729650603047023338376675383188 17:1 #
-0.79098835343490081495332333361148 1:1 #
-0.79098835343490081495332333361148 17:1 #
-0.79098835343490081495332333361148 1:1 #
2.3729650603047023338376675383188 1:1 #
-0.79098835343490081495332333361148 17:1 #
-0.79098835343490081495332333361148 1:1 #
-0.79098835343490081495332333361148 17:1 #
2.3729650603047023338376675383188 17:1 #
-0.79098835343490081495332333361148 1:1 #
-0.79098835343490081495332333361148 17:1 #
-0.79098835343490081495332333361148 1:1 #
2.3729650603047023338376675383188 1:1 #
-0.79098835343490081495332333361148 17:1 #
-0.79098835343490081495332333361148 1:1 #
-0.79098835343490081495332333361148 17:1 #
2.3729650603047023338376675383188 17:1 #
-0.79098835343490081495332333361148 1:1 #
-0.79098835343490081495332333361148 17:1 #
-0.79098835343490081495332333361148 1:1 #
2.3729650603047023338376675383188 1:1 #
-0.79098835343490081495332333361148 17:1 #
-0.79098835343490081495332333361148 1:1 #
-0.79098835343490081495332333361148 17:1 #
-0.79098835343490081495332333361148 3:1 #
-0.79098835343490081495332333361148 1:1 #
-0.79098835343490081495332333361148 17:1 #
-0.79098835343490081495332333361148 20:1 #
1.1892664251120621532464838310261 5:1 #
2.3729650603047023338376675383188 4:1 #
0.96767968223720357556771887175273 6:1 #
2.3729650603047023338376675383188 17:1 #
-0.79098835343490081495332333361148 5:1 #
-0.79098835343490081495332333361148 4:1 #
2.2085886326893264808290950895753 20:1 #
-0.79098835343490081495332333361148 6:1 #
-0.79098835343490081495332333361148 5:1 #
2.3729650603047023338376675383188 5:1 #
-0.79098835343490081495332333361148 17:1 #
-0.79098835343490081495332333361148 5:1 #
-0.79098835343490081495332333361148 17:1 #
2.3729650603047023338376675383188 17:1 #
-0.79098835343490081495332333361148 5:1 #
-0.79098835343490081495332333361148 17:1 #
-0.79098835343490081495332333361148 5:1 #
2.3729650603047023338376675383188 5:1 #
-0.79098835343490081495332333361148 17:1 #
-0.79098835343490081495332333361148 5:1 #
-0.79098835343490081495332333361148 17:1 #
2.3729650603047023338376675383188 17:1 #
-0.79098835343490081495332333361148 5:1 #
-0.79098835343490081495332333361148 17:1 #
-0.79098835343490081495332333361148 5:1 #
2.3729650603047023338376675383188 5:1 #
-0.79098835343490081495332333361148 17:1 #
-0.79098835343490081495332333361148 5:1 #
-0.79098835343490081495332333361148 17:1 #
2.3729650603047023338376675383188 17:1 #
-0.79098835343490081495332333361148 5:1 #
-0.79098835343490081495332333361148 17:1 #
-0.79098835343490081495332333361148 5:1 #
2.3729650603047023338376675383188 5:1 #
-0.79098835343490081495332333361148 17:1 #
-0.79098835343490081495332333361148 5:1 #
-0.79098835343490081495332333361148 17:1 #
2.3729650603047023338376675383188 17:1 #
-0.79098835343490081495332333361148 5:1 #
-0.79098835343490081495332333361148 17:1 #
-0.79098835343490081495332333361148 5:1 #
2.3729650603047023338376675383188 5:1 #
-0.79098835343490081495332333361148 17:1 #
-0.79098835343490081495332333361148 5:1 #
-0.79098835343490081495332333361148 17:1 #
2.3729650603047023338376675383188 17:1 #
-0.79098835343490081495332333361148 5:1 #
-0.79098835343490081495332333361148 17:1 #
-0.79098835343490081495332333361148 5:1 #
2.3729650603047023338376675383188 5:1 #
-0.79098835343490081495332333361148 17:1 #
-0.79098835343490081495332333361148 5:1 #
-0.79098835343490081495332333361148 17:1 #
2.3729650603047023338376675383188 17:1 #
-0.79098835343490081495332333361148 5:1 #
-0.79098835343490081495332333361148 17:1 #
-0.79098835343490081495332333361148 5:1 #
2.3729650603047023338376675383188 5:1 #
-0.79098835343490081495332333361148 17:1 #
-0.79098835343490081495332333361148 5:1 #
-0.79098835343490081495332333361148 17:1 #
2.3729650603047023338376675383188 17:1 #
-0.79098835343490081495332333361148 5:1 #
-0.79098835343490081495332333361148 17:1 #
-0.79098835343490081495332333361148 5:1 #
2.3729650603047023338376675383188 5:1 #
-0.79098835343490081495332333361148 17:1 #
-0.79098835343490081495332333361148 5:1 #
-0.79098835343490081495332333361148 17:1 #
2.3729650603047023338376675383188 17:1 #
-0.79098835343490081495332333361148 5:1 #
-0.79098835343490081495332333361148 17:1 #
-0.79098835343490081495332333361148 5:1 #
2.3729650603047023338376675383188 5:1 #
-0.79098835343490081495332333361148 17:1 #
-0.79098835343490081495332333361148 5:1 #
-0.79098835343490081495332333361148 17:1 #
2.3729650603047023338376675383188 17:1 #
-0.79098835343490081495332333361148 5:1 #
-0.79098835343490081495332333361148 17:1 #
-0.79098835343490081495332333361148 5:1 #
2.3729650603047023338376675383188 5:1 #
-0.79098835343490081495332333361148 17:1 #
-0.79098835343490081495332333361148 5:1 #
-0.79098835343490081495332333361148 17:1 #
2.3729650603047023338376675383188 17:1 #
-0.79098835343490081495332333361148 5:1 #
-0.79098835343490081495332333361148 17:1 #
-0.79098835343490081495332333361148 5:1 #
2.3729650603047023338376675383188 5:1 #
-0.79098835343490081495332333361148 17:1 #
-0.79098835343490081495332333361148 5:1 #
-0.79098835343490081495332333361148 17:1 #
2.3729650603047023338376675383188 17:1 #
-0.79098835343490081495332333361148 5:1 #
-0.79098835343490081495332333361148 17:1 #
-0.79098835343490081495332333361148 5:1 #
2.3729650603047023338376675383188 5:1 #
-0.79098835343490081495332333361148 17:1 #
-0.79098835343490081495332333361148 5:1 #
-0.79098835343490081495332333361148 17:1 #
2.3729650603047023338376675383188 17:1 #
-0.79098835343490081495332333361148 5:1 #
-0.79098835343490081495332333361148 17:1 #
-0.79098835343490081495332333361148 5:1 #
2.3729650603047023338376675383188 5:1 #
-0.79098835343490081495332333361148 17:1 #
-0.79098835343490081495332333361148 5:1 #
-0.79098835343490081495332333361148 17:1 #
2.3729650603047023338376675383188 17:1 #
-0.79098835343490081495332333361148 5:1 #
-0.79098835343490081495332333361148 17:1 #
-0.79098835343490081495332333361148 5:1 #
2.3729650603047023338376675383188 5:1 #
-0.79098835343490081495332333361148 17:1 #
-0.79098835343490081495332333361148 5:1 #
-0.79098835343490081495332333361148 17:1 #
2.3729650603047023338376675383188 17:1 #
-0.79098835343490081495332333361148 5:1 #
-0.79098835343490081495332333361148 17:1 #
-0.79098835343490081495332333361148 5:1 #
2.3729650603047023338376675383188 5:1 #
-0.79098835343490081495332333361148 17:1 #
-0.79098835343490081495332333361148 5:1 #
-0.79098835343490081495332333361148 17:1 #
2.3729650603047023338376675383188 17:1 #
-0.79098835343490081495332333361148 5:1 #
-0.79098835343490081495332333361148 17:1 #
-0.79098835343490081495332333361148 5:1 #
2.3729650603047023338376675383188 5:1 #
-0.79098835343490081495332333361148 17:1 #
-0.79098835343490081495332333361148 5:1 #
-0.79098835343490081495332333361148 17:1 #
2.3729650603047023338376675383188 17:1 #
-0.79098835343490081495332333361148 5:1 #
-0.79098835343490081495332333361148 17:1 #
-0.79098835343490081495332333361148 5:1 #
-0.79098835343490081495332333361148 6:1 #
-0.79098835343490081495332333361148 17:1 #
-0.73792848957901457929153821169166 9:1 #
-0.79098835343490081495332333361148 15:1 #
1.5751067959203164381420947393053 18:1 #
2.3729650603047023338376675383188 13:1 #
-0.79098835343490081495332333361148 13:1 #
-0.79098835343490081495332333361148 18:1 #
2.3729650603047023338376675383188 9:1 #
2.3729650603047023338376675383188 5:1 #
-0.79098835343490081495332333361148 18:1 #
-0.79098835343490081495332333361148 13:1 #
-0.79098835343490081495332333361148 17:1 #
2.3729650603047023338376675383188 17:1 #
-0.79098835343490081495332333361148 1:1 #
2.3729650603047023338376675383188 1:1 #
-0.79098835343490081495332333361148 17:1 #
-0.79098835343490081495332333361148 1:1 #
-0.79098835343490081495332333361148 17:1 #
-0.79098835343490081495332333361148 1:1 #
-0.79098835343490081495332333361148 17:1 #
2.3729650603047023338376675383188 17:1 #
-0.79098835343490081495332333361148 1:1 #
2.3729650603047023338376675383188 1:1 #
-0.79098835343490081495332333361148 17:1 #
-0.79098835343490081495332333361148 1:1 #
-0.79098835343490081495332333361148 17:1 #
-0.79098835343490081495332333361148 1:1 #
-0.79098835343490081495332333361148 17:1 #
2.3729650603047023338376675383188 17:1 #
-0.79098835343490081495332333361148 1:1 #
2.3729650603047023338376675383188 1:1 #
-0.79098835343490081495332333361148 17:1 #
-0.79098835343490081495332333361148 1:1 #
-0.79098835343490081495332333361148 17:1 #
-0.79098835343490081495332333361148 1:1 #
-0.79098835343490081495332333361148 17:1 #
2.3729650603047023338376675383188 17:1 #
-0.79098835343490081495332333361148 1:1 #
2.3729650603047023338376675383188 1:1 #
-0.79098835343490081495332333361148 17:1 #
-0.79098835343490081495332333361148 1:1 #
-0.79098835343490081495332333361148 17:1 #
-0.79098835343490081495332333361148 1:1 #
-0.79098835343490081495332333361148 17:1 #
2.3729650603047023338376675383188 17:1 #
-0.79098835343490081495332333361148 1:1 #
2.3729650603047023338376675383188 1:1 #
-0.79098835343490081495332333361148 17:1 #
-0.79098835343490081495332333361148 1:1 #
-0.79098835343490081495332333361148 17:1 #
-0.79098835343490081495332333361148 1:1 #
-0.79098835343490081495332333361148 17:1 #
2.3729650603047023338376675383188 17:1 #
-0.79098835343490081495332333361148 1:1 #
2.3729650603047023338376675383188 1:1 #
-0.79098835343490081495332333361148 17:1 #
-0.79098835343490081495332333361148 1:1 #
-0.79098835343490081495332333361148 17:1 #
-0.79098835343490081495332333361148 1:1 #
-0.79098835343490081495332333361148 17:1 #
2.3729650603047023338376675383188 17:1 #
-0.79098835343490081495332333361148 1:1 #
2.3729650603047023338376675383188 1:1 #
-0.79098835343490081495332333361148 17:1 #
-0.79098835343490081495332333361148 1:1 #
-0.79098835343490081495332333361148 17:1 #
-0.79098835343490081495332333361148 1:1 #
-0.79098835343490081495332333361148 17:1 #
2.3729650603047023338376675383188 17:1 #
-0.79098835343490081495332333361148 1:1 #
2.3729650603047023338376675383188 1:1 #
-0.79098835343490081495332333361148 17:1 #
-0.79098835343490081495332333361148 1:1 #
-0.79098835343490081495332333361148 17:1 #
-0.79098835343490081495332333361148 1:1 #
-0.79098835343490081495332333361148 17:1 #
2.3729650603047023338376675383188 17:1 #
-0.79098835343490081495332333361148 1:1 #
2.3729650603047023338376675383188 1:1 #
-0.79098835343490081495332333361148 17:1 #
-0.79098835343490081495332333361148 1:1 #
-0.79098835343490081495332333361148 17:1 #
-0.79098835343490081495332333361148 1:1 #
-0.79098835343490081495332333361148 17:1 #
2.3729650603047023338376675383188 17:1 #
-0.79098835343490081495332333361148 1:1 #
2.3729650603047023338376675383188 1:1 #
-0.79098835343490081495332333361148 17:1 #
-0.79098835343490081495332333361148 1:1 #
-0.79098835343490081495332333361148 17:1 #
-0.79098835343490081495332333361148 1:1 #
-0.79098835343490081495332333361148 17:1 #
2.3729650603047023338376675383188 17:1 #
-0.79098835343490081495332333361148 1:1 #
2.3729650603047023338376675383188 1:1 #
-0.79098835343490081495332333361148 17:1 #
-0.79098835343490081495332333361148 1:1 #
-0.79098835343490081495332333361148 17:1 #
-0.79098835343490081495332333361148 1:1 #
-0.79098835343490081495332333361148 17:1 #
2.3729650603047023338376675383188 17:1 #
-0.79098835343490081495332333361148 1:1 #
2.3729650603047023338376675383188 1:1 #
-0.79098835343490081495332333361148 17:1 #
-0.79098835343490081495332333361148 1:1 #
-0.79098835343490081495332333361148 17:1 #
-0.79098835343490081495332333361148 1:1 #
-0.79098835343490081495332333361148 17:1 #
2.3729650603047023338376675383188 17:1 #
-0.79098835343490081495332333361148 1:1 #
2.3729650603047023338376675383188 1:1 #
-0.79098835343490081495332333361148 17:1 #
-0.79098835343490081495332333361148 1:1 #
-0.79098835343490081495332333361148 17:1 #
-0.79098835343490081495332333361148 1:1 #
-0.79098835343490081495332333361148 17:1 #
2.3729650603047023338376675383188 17:1 #
-0.79098835343490081495332333361148 1:1 #
2.3729650603047023338376675383188 1:1 #
-0.79098835343490081495332333361148 17:1 #
-0.79098835343490081495332333361148 1:1 #
-0.79098835343490081495332333361148 17:1 #
-0.79098835343490081495332333361148 1:1 #
-0.79098835343490081495332333361148 17:1 #
2.3729650603047023338376675383188 17:1 #
-0.79098835343490081495332333361148 1:1 #
2.3729650603047023338376675383188 1:1 #
-0.79098835343490081495332333361148 17:1 #
-0.79098835343490081495332333361148 1:1 #
-0.79098835343490081495332333361148 17:1 #
-0.79098835343490081495332333361148 1:1 #
-0.79098835343490081495332333361148 17:1 #
2.3729650603047023338376675383188 17:1 #
-0.79098835343490081495332333361148 1:1 #
2.3729650603047023338376675383188 1:1 #
-0.79098835343490081495332333361148 17:1 #
-0.79098835343490081495332333361148 1:1 #
-0.79098835343490081495332333361148 17:1 #
-0.79098835343490081495332333361148 1:1 #
-0.79098835343490081495332333361148 17:1 #
-0.79098835343490081495332333361148 4:1 #
-0.79098835343490081495332333361148 20:1 #
-0.79098835343490081495332333361148 3:1 #
-0.79098835343490081495332333361148 17:1 #
-0.79098835343490081495332333361148 19:1 #
2.3729650603047023338376675383188 7:1 #
1.0902181006856754841294332436519 5:1 #
2.3729650603047023338376675383188 10:1 #
2.3729650603047023338376675383188 16:1 #
2.3729650603047023338376675383188 17:1 #
-0.79098835343490081495332333361148 5:1 #
-0.79098835343490081495332333361148 1:1 #
-0.79098835343490081495332333361148 16:1 #
-0.79098835343490081495332333361148 10:1 #
-0.79098835343490081495332333361148 19:1 #
-0.74727993229525724316886226006318 7:1 #
2.3729650603047023338376675383188 4:1 #
-0.79098835343490081495332333361148 20:1 #
2.3729650603047023338376675383188 19:1 #
-0.79098835343490081495332333361148 4:1 #
-0.79098835343490081495332333361148 19:1 #
-0.79098835343490081495332333361148 17:1 #
-0.79098835343490081495332333361148 19:1 #
-0.79098835343490081495332333361148 17:1 #
2.3729650603047023338376675383188 17:1 #
-0.79098835343490081495332333361148 19:1 #
2.2869164421344660986790131573798 19:1 #
-0.79098835343490081495332333361148 17:1 #
-0.79098835343490081495332333361148 19:1 #
-0.79098835343490081495332333361148 17:1 #
-0.79098835343490081495332333361148 19:1 #
-0.79098835343490081495332333361148 17:1 #
2.3729650603047023338376675383188 17:1 #
-0.79098835343490081495332333361148 19:1 #
2.3729650603047023338376675383188 19:1 #
-0.79098835343490081495332333361148 17:1 #
-0.79098835343490081495332333361148 19:1 #
-0.79098835343490081495332333361148 17:1 #
-0.79098835343490081495332333361148 19:1 #
-0.79098835343490081495332333361148 17:1 #
2.3729650603047023338376675383188 17:1 #
-0.79098835343490081495332333361148 19:1 #
2.3587112119022086709207997046178 19:1 #
-0.79098835343490081495332333361148 17:1 #
-0.79098835343490081495332333361148 19:1 #
-0.79098835343490081495332333361148 17:1 #
-0.79098835343490081495332333361148 19:1 #
-0.79098835343490081495332333361148 17:1 #
2.3729650603047023338376675383188 17:1 #
-0.79098835343490081495332333361148 19:1 #
2.3729650603047023338376675383188 19:1 #
-0.79098835343490081495332333361148 17:1 #
-0.79098835343490081495332333361148 19:1 #
-0.79098835343490081495332333361148 17:1 #
-0.79098835343490081495332333361148 19:1 #
-0.79098835343490081495332333361148 17:1 #
2.3729650603047023338376675383188 17:1 #
-0.79098835343490081495332333361148 19:1 #
2.3729650603047023338376675383188 19:1 #
-0.79098835343490081495332333361148 17:1 #
-0.79098835343490081495332333361148 19:1 #
-0.79098835343490081495332333361148 17:1 #
-0.79098835343490081495332333361148 19:1 #
-0.79098835343490081495332333361148 17:1 #
2.3729650603047023338376675383188 17:1 #
-0.79098835343490081495332333361148 19:1 #
2.3729650603047023338376675383188 19:1 #
-0.79098835343490081495332333361148 17:1 #
-0.79098835343490081495332333361148 19:1 #
-0.79098835343490081495332333361148 17:1 #
-0.79098835343490081495332333361148 19:1 #
-0.79098835343490081495332333361148 17:1 #
2.3729650603047023338376675383188 17:1 #
-0.79098835343490081495332333361148 19:1 #
2.3729650603047023338376675383188 19:1 #
-0.79098835343490081495332333361148 17:1 #
-0.79098835343490081495332333361148 19:1 #
-0.79098835343490081495332333361148 17:1 #
-0.79098835343490081495332333361148 19:1 #
-0.79098835343490081495332333361148 17:1 #
2.3729650603047023338376675383188 17:1 #
-0.79098835343490081495332333361148 19:1 #
2.3729650603047023338376675383188 19:1 #
-0.79098835343490081495332333361148 17:1 #
-0.79098835343490081495332333361148 19:1 #
-0.79098835343490081495332333361148 17:1 #
-0.79098835343490081495332333361148 19:1 #
-0.79098835343490081495332333361148 17:1 #
2.3729650603047023338376675383188 17:1 #
-0.79098835343490081495332333361148 19:1 #
2.3729650603047023338376675383188 19:1 #
-0.79098835343490081495332333361148 17:1 #
-0.79098835343490081495332333361148 19:1 #
-0.79098835343490081495332333361148 17:1 #
-0.79098835343490081495332333361148 19:1 #
-0.79098835343490081495332333361148 17:1 #
2.3729650603047023338376675383188 17:1 #
-0.79098835343490081495332333361148 19:1 #
2.3729650603047023338376675383188 19:1 #
-0.79098835343490081495332333361148 17:1 #
-0.79098835343490081495332333361148 19:1 #
-0.79098835343490081495332333361148 17:1 #
-0.79098835343490081495332333361148 19:1 #
-0.79098835343490081495332333361148 17:1 #
2.3729650603047023338376675383188 17:1 #
-0.79098835343490081495332333361148 19:1 #
2.3729650603047023338376675383188 19:1 #
-0.79098835343490081495332333361148 17:1 #
-0.79098835343490081495332333361148 19:1 #
-0.79098835343490081495332333361148 17:1 #
-0.79098835343490081495332333361148 19:1 #
-0.79098835343490081495332333361148 17:1 #
2.3729650603047023338376675383188 17:1 #
-0.79098835343490081495332333361148 19:1 #
2.3729650603047023338376675383188 19:1 #
-0.79098835343490081495332333361148 17:1 #
-0.79098835343490081495332333361148 19:1 #
-0.79098835343490081495332333361148 17:1 #
-0.79098835343490081495332333361148 19:1 #
-0.79098835343490081495332333361148 17:1 #
2.3729650603047023338376675383188 17:1 #
-0.79098835343490081495332333361148 19:1 #
2.3729650603047023338376675383188 19:1 #
-0.79098835343490081495332333361148 17:1 #
-0.79098835343490081495332333361148 19:1 #
-0.79098835343490081495332333361148 17:1 #
-0.79098835343490081495332333361148 19:1 #
-0.79098835343490081495332333361148 17:1 #
2.3729650603047023338376675383188 17:1 #
-0.79098835343490081495332333361148 19:1 #
2.3729650603047023338376675383188 19:1 #
-0.79098835343490081495332333361148 17:1 #
-0.79098835343490081495332333361148 19:1 #
-0.79098835343490081495332333361148 17:1 #
-0.79098835343490081495332333361148 19:1 #
-0.79098835343490081495332333361148 17:1 #
2.3729650603047023338376675383188 17:1 #
-0.79098835343490081495332333361148 19:1 #
2.3729650603047023338376675383188 19:1 #
-0.79098835343490081495332333361148 17:1 #
-0.79098835343490081495332333361148 19:1 #
-0.79098835343490081495332333361148 17:1 #
-0.79098835343490081495332333361148 19:1 #
-0.79098835343490081495332333361148 17:1 #
-0.79098835343490081495332333361148 15:1 #
-0.79098835343490081495332333361148 16:1 #
-0.79098835343490081495332333361148 3:1 #
-0.74511510138976522199527607881464 17:1 #
1.185100744659899119071155837446 5:1 #
2.3729650603047023338376675383188 20:1 #
2.3729650603047023338376675383188 19:1 #
2.3729650603047023338376675383188 17:1 #
-0.79098835343490081495332333361148 5:1 #
-0.79098835343490081495332333361148 20:1 #
2.3729650603047023338376675383188 3:1 #
-0.79098835343490081495332333361148 19:1 #
2.3729650603047023338376675383188 16:1 #
-0.79098835343490081495332333361148 5:1 #
-0.79098835343490081495332333361148 20:1 #
2.3729650603047023338376675383188 20:1 #
-0.79098835343490081495332333361148 19:1 #
2.3729650603047023338376675383188 19:1 #
-0.79098835343490081495332333361148 20:1 #
-0.79098835343490081495332333361148 19:1 #
-0.79098835343490081495332333361148 20:1 #
-0.79098835343490081495332333361148 19:1 #
-0.79098835343490081495332333361148 20:1 #
2.3729650603047023338376675383188 20:1 #
-0.79098835343490081495332333361148 19:1 #
2.3729650603047023338376675383188 19:1 #
-0.79098835343490081495332333361148 20:1 #
-0.79098835343490081495332333361148 19:1 #
-0.79098835343490081495332333361148 20:1 #
-0.79098835343490081495332333361148 19:1 #
-0.79098835343490081495332333361148 20:1 #
2.3729650603047023338376675383188 20:1 #
-0.79098835343490081495332333361148 19:1 #
2.3729650603047023338376675383188 19:1 #
-0.79098835343490081495332333361148 20:1 #
-0.79098835343490081495332333361148 19:1 #
-0.79098835343490081495332333361148 20:1 #
-0.79098835343490081495332333361148 19:1 #
-0.79098835343490081495332333361148 20:1 #
2.3729650603047023338376675383188 20:1 #
-0.79098835343490081495332333361148 19:1 #
2.3729650603047023338376675383188 19:1 #
-0.79098835343490081495332333361148 20:1 #
-0.79098835343490081495332333361148 19:1 #
-0.79098835343490081495332333361148 20:1 #
-0.79098835343490081495332333361148 19:1 #
-0.79098835343490081495332333361148 20:1 #
2.3729650603047023338376675383188 20:1 #
-0.79098835343490081495332333361148 19:1 #
2.3729650603047023338376675383188 19:1 #
-0.79098835343490081495332333361148 20:1 #
-0.79098835343490081495332333361148 19:1 #
-0.79098835343490081495332333361148 20:1 #
-0.79098835343490081495332333361148 19:1 #
-0.79098835343490081495332333361148 20:1 #
2.3729650603047023338376675383188 20:1 #
-0.79098835343490081495332333361148 19:1 #
2.3729650603047023338376675383188 19:1 #
-0.79098835343490081495332333361148 20:1 #
-0.79098835343490081495332333361148 19:1 #
-0.79098835343490081495332333361148 20:1 #
-0.79098835343490081495332333361148 19:1 #
-0.79098835343490081495332333361148 20:1 #
2.3729650603047023338376675383188 20:1 #
-0.79098835343490081495332333361148 19:1 #
2.3729650603047023338376675383188 19:1 #
-0.79098835343490081495332333361148 20:1 #
-0.79098835343490081495332333361148 19:1 #
-0.79098835343490081495332333361148 20:1 #
-0.79098835343490081495332333361148 19:1 #
-0.79098835343490081495332333361148 20:1 #
2.3729650603047023338376675383188 20:1 #
-0.79098835343490081495332333361148 19:1 #
2.3729650603047023338376675383188 19:1 #
-0.79098835343490081495332333361148 20:1 #
-0.79098835343490081495332333361148 19:1 #
-0.79098835343490081495332333361148 20:1 #
-0.79098835343490081495332333361148 19:1 #
-0.79098835343490081495332333361148 20:1 #
2.3729650603047023338376675383188 20:1 #
-0.79098835343490081495332333361148 19:1 #
2.3729650603047023338376675383188 19:1 #
-0.79098835343490081495332333361148 20:1 #
-0.79098835343490081495332333361148 19:1 #
-0.79098835343490081495332333361148 20:1 #
-0.79098835343490081495332333361148 19:1 #
-0.79098835343490081495332333361148 20:1 #
2.3729650603047023338376675383188 20:1 #
-0.79098835343490081495332333361148 19:1 #
2.3729650603047023338376675383188 19:1 #
-0.79098835343490081495332333361148 20:1 #
-0.79098835343490081495332333361148 19:1 #
-0.79098835343490081495332333361148 20:1 #
-0.79098835343490081495332333361148 19:1 #
-0.79098835343490081495332333361148 20:1 #
2.3729650603047023338376675383188 20:1 #
-0.79098835343490081495332333361148 19:1 #
2.3729650603047023338376675383188 19:1 #
-0.79098835343490081495332333361148 20:1 #
-0.79098835343490081495332333361148 19:1 #
-0.79098835343490081495332333361148 20:1 #
-0.79098835343490081495332333361148 19:1 #
-0.79098835343490081495332333361148 20:1 #
2.3729650603047023338376675383188 20:1 #
-0.79098835343490081495332333361148 19:1 #
2.3729650603047023338376675383188 19:1 #
-0.79098835343490081495332333361148 20:1 #
-0.79098835343490081495332333361148 19:1 #
-0.79098835343490081495332333361148 20:1 #
-0.79098835343490081495332333361148 19:1 #
-0.79098835343490081495332333361148 20:1 #
2.3729650603047023338376675383188 20:1 #
-0.79098835343490081495332333361148 19:1 #
2.3729650603047023338376675383188 19:1 #
-0.79098835343490081495332333361148 20:1 #
-0.79098835343490081495332333361148 19:1 #
-0.79098835343490081495332333361148 20:1 #
-0.79098835343490081495332333361148 19:1 #
-0.79098835343490081495332333361148 20:1 #
2.3729650603047023338376675383188 20:1 #
-0.79098835343490081495332333361148 19:1 #
2.3729650603047023338376675383188 19:1 #
-0.79098835343490081495332333361148 20:1 #
-0.79098835343490081495332333361148 19:1 #
-0.79098835343490081495332333361148 20:1 #
-0.79098835343490081495332333361148 19:1 #
-0.79098835343490081495332333361148 20:1 #
2.3729650603047023338376675383188 20:1 #
-0.79098835343490081495332333361148 19:1 #
2.3729650603047023338376675383188 19:1 #
-0.79098835343490081495332333361148 20:1 #
-0.79098835343490081495332333361148 19:1 #
-0.79098835343490081495332333361148 20:1 #
-0.79098835343490081495332333361148 19:1 #
-0.79098835343490081495332333361148 20:1 #
2.3729650603047023338376675383188 20:1 #
-0.79098835343490081495332333361148 19:1 #
2.3729650603047023338376675383188 19:1 #
-0.79098835343490081495332333361148 20:1 #
-0.79098835343490081495332333361148 19:1 #
-0.79098835343490081495332333361148 20:1 #
-0.79098835343490081495332333361148 19:1 #
-0.79098835343490081495332333361148 7:1 #
-0.79098835343490081495332333361148 3:1 #
-0.79098835343490081495332333361148 15:1 #
-0.79098835343490081495332333361148 20:1 #
2.3729650603047023338376675383188 5:1 #
-0.79098835343490081495332333361148 19:1 #
-0.79098835343490081495332333361148 16:1 #
2.3729650603047023338376675383188 15:1 #
-0.79098835343490081495332333361148 5:1 #
2.3729650603047023338376675383188 20:1 #
-0.79098835343490081495332333361148 19:1 #
-0.79098835343490081495332333361148 17:1 #
-0.79098835343490081495332333361148 19:1 #
2.3729650603047023338376675383188 19:1 #
-0.79098835343490081495332333361148 17:1 #
2.3729650603047023338376675383188 17:1 #
-0.79098835343490081495332333361148 19:1 #
-0.79098835343490081495332333361148 17:1 #
-0.79098835343490081495332333361148 19:1 #
-0.79098835343490081495332333361148 17:1 #
-0.79098835343490081495332333361148 19:1 #
2.3729650603047023338376675383188 19:1 #
-0.79098835343490081495332333361148 17:1 #
2.3729650603047023338376675383188 17:1 #
-0.79098835343490081495332333361148 19:1 #
-0.79098835343490081495332333361148 17:1 #
-0.79098835343490081495332333361148 19:1 #
-0.79098835343490081495332333361148 17:1 #
-0.79098835343490081495332333361148 19:1 #
2.3729650603047023338376675383188 19:1 #
-0.79098835343490081495332333361148 17:1 #
2.3729650603047023338376675383188 17:1 #
-0.79098835343490081495332333361148 19:1 #
-0.79098835343490081495332333361148 17:1 #
-0.79098835343490081495332333361148 19:1 #
-0.79098835343490081495332333361148 17:1 #
-0.79098835343490081495332333361148 19:1 #
2.3729650603047023338376675383188 19:1 #
-0.79098835343490081495332333361148 17:1 #
2.3729650603047023338376675383188 17:1 #
-0.79098835343490081495332333361148 19:1 #
-0.79098835343490081495332333361148 17:1 #
-0.79098835343490081495332333361148 19:1 #
-0.79098835343490081495332333361148 17:1 #
-0.79098835343490081495332333361148 19:1 #
2.3729650603047023338376675383188 19:1 #
-0.79098835343490081495332333361148 17:1 #
2.3729650603047023338376675383188 17:1 #
-0.79098835343490081495332333361148 19:1 #
-0.79098835343490081495332333361148 17:1 #
-0.79098835343490081495332333361148 19:1 #
-0.79098835343490081495332333361148 17:1 #
-0.79098835343490081495332333361148 19:1 #
2.3729650603047023338376675383188 19:1 #
-0.79098835343490081495332333361148 17:1 #
2.3729650603047023338376675383188 17:1 #
-0.79098835343490081495332333361148 19:1 #
-0.79098835343490081495332333361148 17:1 #
-0.79098835343490081495332333361148 19:1 #
-0.79098835343490081495332333361148 17:1 #
-0.79098835343490081495332333361148 19:1 #
2.3729650603047023338376675383188 19:1 #
-0.79098835343490081495332333361148 17:1 #
2.3729650603047023338376675383188 17:1 #
-0.79098835343490081495332333361148 19:1 #
-0.79098835343490081495332333361148 17:1 #
-0.79098835343490081495332333361148 19:1 #
-0.79098835343490081495332333361148 17:1 #
-0.79098835343490081495332333361148 19:1 #
2.3729650603047023338376675383188 19:1 #
-0.79098835343490081495332333361148 17:1 #
2.3729650603047023338376675383188 17:1 #
-0.79098835343490081495332333361148 19:1 #
-0.79098835343490081495332333361148 17:1 #
-0.79098835343490081495332333361148 19:1 #
-0.79098835343490081495332333361148 17:1 #
-0.79098835343490081495332333361148 19:1 #
2.3729650603047023338376675383188 19:1 #
-0.79098835343490081495332333361148 17:1 #
2.3729650603047023338376675383188 17:1 #
-0.79098835343490081495332333361148 19:1 #
-0.79098835343490081495332333361148 17:1 #
-0.79098835343490081495332333361148 19:1 #
-0.79098835343490081495332333361148 17:1 #
-0.79098835343490081495332333361148 19:1 #
2.3729650603047023338376675383188 19:1 #
-0.79098835343490081495332333361148 17:1 #
2.3729650603047023338376675383188 17:1 #
-0.79098835343490081495332333361148 19:1 #
-0.79098835343490081495332333361148 17:1 #
-0.79098835343490081495332333361148 19:1 #
-0.79098835343490081495332333361148 17:1 #
-0.79098835343490081495332333361148 19:1 #
2.3729650603047023338376675383188 19:1 #
-0.79098835343490081495332333361148 17:1 #
2.3729650603047023338376675383188 17:1 #
-0.79098835343490081495332333361148 19:1 #
-0.79098835343490081495332333361148 17:1 #
-0.79098835343490081495332333361148 19:1 #
-0.79098835343490081495332333361148 17:1 #
-0.79098835343490081495332333361148 19:1 #
2.3729650603047023338376675383188 19:1 #
-0.79098835343490081495332333361148 17:1 #
2.3729650603047023338376675383188 17:1 #
-0.79098835343490081495332333361148 19:1 #
-0.79098835343490081495332333361148 17:1 #
-0.79098835343490081495332333361148 19:1 #
-0.79098835343490081495332333361148 17:1 #
-0.79098835343490081495332333361148 19:1 #
2.3729650603047023338376675383188 19:1 #
-0.79098835343490081495332333361148 17:1 #
2.3729650603047023338376675383188 17:1 #
-0.79098835343490081495332333361148 19:1 #
-0.79098835343490081495332333361148 17:1 #
-0.79098835343490081495332333361148 19:1 #
-0.79098835343490081495332333361148 17:1 #
-0.79098835343490081495332333361148 19:1 #
2.3729650603047023338376675383188 19:1 #
-0.79098835343490081495332333361148 17:1 #
2.3729650603047023338376675383188 17:1 #
-0.79098835343490081495332333361148 19:1 #
-0.79098835343490081495332333361148 17:1 #
-0.79098835343490081495332333361148 19:1 #
-0.79098835343490081495332333361148 17:1 #
-0.79098835343490081495332333361148 19:1 #
2.3729650603047023338376675383188 19:1 #
-0.79098835343490081495332333361148 17:1 #
2.3729650603047023338376675383188 17:1 #
-0.79098835343490081495332333361148 19:1 #
-0.79098835343490081495332333361148 17:1 #
-0.79098835343490081495332333361148 19:1 #
-0.79098835343490081495332333361148 17:1 #
-0.79098835343490081495332333361148 19:1 #
2.3729650603047023338376675383188 19:1 #
-0.79098835343490081495332333361148 17:1 #
2.3729650603047023338376675383188 17:1 #
-0.79098835343490081495332333361148 19:1 #
-0.79098835343490081495332333361148 17:1 #
-0.79098835343490081495332333361148 10:1 #
-0.50767092472247299372867246347596 4:1 #
-0.6802766181038339965425620903261 13:1 #
-0.79098835343490081495332333361148 1:1 #
-0.79098835343490081495332333361148 6:1 #
-0.79098835343490081495332333361148 5:1 #
-0.79098835343490081495332333361148 20:1 #
2.3729650603047023338376675383188 1:1 #
-0.79098835343490081495332333361148 16:1 #
-0.79098835343490081495332333361148 5:1 #
2.3729650603047023338376675383188 10:1 #
-0.79098835343490081495332333361148 19:1 #
-0.79098835343490081495332333361148 10:1 #
-0.79098835343490081495332333361148 19:1 #
2.3729650603047023338376675383188 19:1 #
-0.79098835343490081495332333361148 20:1 #
-0.79098835343490081495332333361148 19:1 #
-0.79098835343490081495332333361148 20:1 #
-0.79098835343490081495332333361148 19:1 #
-0.79098835343490081495332333361148 20:1 #
-0.79098835343490081495332333361148 19:1 #
-0.79098835343490081495332333361148 20:1 #
2.3729650603047023338376675383188 20:1 #
-0.79098835343490081495332333361148 17:1 #
-0.79098835343490081495332333361148 20:1 #
-0.79098835343490081495332333361148 17:1 #
2.3729650603047023338376675383188 17:1 #
-0.79098835343490081495332333361148 20:1 #
-0.79098835343490081495332333361148 17:1 #
-0.79098835343490081495332333361148 20:1 #
2.3729650603047023338376675383188 20:1 #
-0.79098835343490081495332333361148 17:1 #
-0.79098835343490081495332333361148 20:1 #
-0.79098835343490081495332333361148 17:1 #
2.3729650603047023338376675383188 17:1 #
-0.79098835343490081495332333361148 20:1 #
-0.79098835343490081495332333361148 17:1 #
-0.79098835343490081495332333361148 20:1 #
2.3729650603047023338376675383188 20:1 #
-0.79098835343490081495332333361148 17:1 #
-0.79098835343490081495332333361148 20:1 #
-0.79098835343490081495332333361148 17:1 #
2.3729650603047023338376675383188 17:1 #
-0.79098835343490081495332333361148 20:1 #
-0.79098835343490081495332333361148 17:1 #
-0.79098835343490081495332333361148 20:1 #
2.3729650603047023338376675383188 20:1 #
-0.79098835343490081495332333361148 17:1 #
-0.79098835343490081495332333361148 20:1 #
-0.79098835343490081495332333361148 17:1 #
2.3729650603047023338376675383188 17:1 #
-0.79098835343490081495332333361148 20:1 #
-0.79098835343490081495332333361148 17:1 #
-0.79098835343490081495332333361148 20:1 #
2.3729650603047023338376675383188 20:1 #
-0.79098835343490081495332333361148 17:1 #
-0.79098835343490081495332333361148 20:1 #
-0.79098835343490081495332333361148 17:1 #
2.3729650603047023338376675383188 17:1 #
-0.79098835343490081495332333361148 20:1 #
-0.79098835343490081495332333361148 17:1 #
-0.79098835343490081495332333361148 20:1 #
2.3729650603047023338376675383188 20:1 #
-0.79098835343490081495332333361148 17:1 #
-0.79098835343490081495332333361148 20:1 #
-0.79098835343490081495332333361148 17:1 #
2.3729650603047023338376675383188 17:1 #
-0.79098835343490081495332333361148 20:1 #
-0.79098835343490081495332333361148 17:1 #
-0.79098835343490081495332333361148 20:1 #
2.3729650603047023338376675383188 20:1 #
-0.79098835343490081495332333361148 17:1 #
-0.79098835343490081495332333361148 20:1 #
-0.79098835343490081495332333361148 17:1 #
2.3729650603047023338376675383188 17:1 #
-0.79098835343490081495332333361148 20:1 #
-0.79098835343490081495332333361148 17:1 #
-0.79098835343490081495332333361148 20:1 #
2.3729650603047023338376675383188 20:1 #
-0.79098835343490081495332333361148 17:1 #
-0.79098835343490081495332333361148 20:1 #
-0.79098835343490081495332333361148 17:1 #
2.3729650603047023338376675383188 17:1 #
-0.79098835343490081495332333361148 20:1 #
-0.79098835343490081495332333361148 17:1 #
-0.79098835343490081495332333361148 20:1 #
2.3729650603047023338376675383188 20:1 #
-0.79098835343490081495332333361148 17:1 #
-0.79098835343490081495332333361148 20:1 #
-0.79098835343490081495332333361148 17:1 #
2.3729650603047023338376675383188 17:1 #
-0.79098835343490081495332333361148 20:1 #
-0.79098835343490081495332333361148 17:1 #
-0.79098835343490081495332333361148 20:1 #
2.3729650603047023338376675383188 20:1 #
-0.79098835343490081495332333361148 17:1 #
-0.79098835343490081495332333361148 20:1 #
-0.79098835343490081495332333361148 17:1 #
2.3729650603047023338376675383188 17:1 #
-0.79098835343490081495332333361148 20:1 #
-0.79098835343490081495332333361148 17:1 #
-0.79098835343490081495332333361148 20:1 #
2.3729650603047023338376675383188 20:1 #
-0.79098835343490081495332333361148 17:1 #
-0.79098835343490081495332333361148 20:1 #
-0.79098835343490081495332333361148 17:1 #
2.3729650603047023338376675383188 17:1 #
-0.79098835343490081495332333361148 20:1 #
-0.79098835343490081495332333361148 17:1 #
-0.79098835343490081495332333361148 20:1 #
2.3729650603047023338376675383188 20:1 #
-0.79098835343490081495332333361148 17:1 #
-0.79098835343490081495332333361148 20:1 #
-0.79098835343490081495332333361148 17:1 #
2.3729650603047023338376675383188 17:1 #
-0.79098835343490081495332333361148 20:1 #
-0.79098835343490081495332333361148 17:1 #
-0.79098835343490081495332333361148 20:1 #
2.3729650603047023338376675383188 20:1 #
-0.79098835343490081495332333361148 17:1 #
-0.79098835343490081495332333361148 20:1 #
-0.79098835343490081495332333361148 17:1 #
2.3729650603047023338376675383188 17:1 #
-0.79098835343490081495332333361148 20:1 #
-0.79098835343490081495332333361148 17:1 #
-0.79098835343490081495332333361148 20:1 #
2.3729650603047023338376675383188 20:1 #
-0.79098835343490081495332333361148 17:1 #
-0.79098835343490081495332333361148 20:1 #
-0.79098835343490081495332333361148 17:1 #
2.3729650603047023338376675383188 17:1 #
-0.79098835343490081495332333361148 20:1 #
-0.79098835343490081495332333361148 17:1 #
-0.79098835343490081495332333361148 20:1 #
2.3729650603047023338376675383188 20:1 #
-0.79098835343490081495332333361148 17:1 #
-0.79098835343490081495332333361148 20:1 #
-0.65628325540612042487964572501369 15:1 #
-0.79098835343490081495332333361148 13:1 #
-0.79098835343490081495332333361148 1:1 #
-0.79098835343490081495332333361148 11:1 #
-0.79098835343490081495332333361148 5:1 #
2.3729650603047023338376675383188 19:1 #
2.3729650603047023338376675383188 16:1 #
-0.79098835343490081495332333361148 16:1 #
-0.79098835343490081495332333361148 19:1 #
-0.79098835343490081495332333361148 16:1 #
-0.79098835343490081495332333361148 19:1 #
2.3729650603047023338376675383188 11:1 #
-0.79098835343490081495332333361148 17:1 #
-0.79098835343490081495332333361148 20:1 #
-0.79098835343490081495332333361148 13:1 #
-0.79098835343490081495332333361148 20:1 #
-0.79098835343490081495332333361148 5:1 #
2.3729650603047023338376675383188 20:1 #
-0.79098835343490081495332333361148 11:1 #
-0.79098835343490081495332333361148 20:1 #
-0.79098835343490081495332333361148 20:1 #
2.3729650603047023338376675383188 17:1 #
-0.79098835343490081495332333361148 11:1 #
-0.79098835343490081495332333361148 17:1 #
-0.79098835343490081495332333361148 11:1 #
2.3729650603047023338376675383188 11:1 #
-0.79098835343490081495332333361148 17:1 #
-0.79098835343490081495332333361148 11:1 #
-0.79098835343490081495332333361148 17:1 #
2.3729650603047023338376675383188 17:1 #
-0.79098835343490081495332333361148 11:1 #
-0.79098835343490081495332333361148 17:1 #
-0.79098835343490081495332333361148 11:1 #
2.3729650603047023338376675383188 11:1 #
-0.79098835343490081495332333361148 17:1 #
-0.79098835343490081495332333361148 11:1 #
-0.79098835343490081495332333361148 17:1 #
2.3729650603047023338376675383188 17:1 #
-0.79098835343490081495332333361148 11:1 #
-0.79098835343490081495332333361148 17:1 #
-0.79098835343490081495332333361148 11:1 #
2.3729650603047023338376675383188 11:1 #
-0.79098835343490081495332333361148 17:1 #
-0.79098835343490081495332333361148 11:1 #
-0.79098835343490081495332333361148 17:1 #
2.3729650603047023338376675383188 17:1 #
-0.79098835343490081495332333361148 11:1 #
-0.79098835343490081495332333361148 17:1 #
-0.79098835343490081495332333361148 11:1 #
2.3729650603047023338376675383188 11:1 #
-0.79098835343490081495332333361148 17:1 #
-0.79098835343490081495332333361148 11:1 #
-0.79098835343490081495332333361148 17:1 #
2.3729650603047023338376675383188 17:1 #
-0.79098835343490081495332333361148 11:1 #
-0.79098835343490081495332333361148 17:1 #
-0.79098835343490081495332333361148 11:1 #
2.3729650603047023338376675383188 11:1 #
-0.79098835343490081495332333361148 17:1 #
-0.79098835343490081495332333361148 11:1 #
-0.79098835343490081495332333361148 17:1 #
2.3729650603047023338376675383188 17:1 #
-0.79098835343490081495332333361148 11:1 #
-0.79098835343490081495332333361148 17:1 #
-0.79098835343490081495332333361148 11:1 #
2.3729650603047023338376675383188 11:1 #
-0.79098835343490081495332333361148 17:1 #
-0.79098835343490081495332333361148 11:1 #
-0.79098835343490081495332333361148 17:1 #
2.3729650603047023338376675383188 17:1 #
-0.79098835343490081495332333361148 11:1 #
-0.79098835343490081495332333361148 17:1 #
-0.79098835343490081495332333361148 11:1 #
2.3729650603047023338376675383188 11:1 #
-0.79098835343490081495332333361148 17:1 #
-0.79098835343490081495332333361148 11:1 #
-0.79098835343490081495332333361148 17:1 #
2.3729650603047023338376675383188 17:1 #
-0.79098835343490081495332333361148 11:1 #
-0.79098835343490081495332333361148 17:1 #
-0.79098835343490081495332333361148 11:1 #
2.3729650603047023338376675383188 11:1 #
-0.79098835343490081495332333361148 17:1 #
-0.79098835343490081495332333361148 11:1 #
-0.79098835343490081495332333361148 17:1 #
2.3729650603047023338376675383188 17:1 #
-0.79098835343490081495332333361148 11:1 #
-0.79098835343490081495332333361148 17:1 #
-0.79098835343490081495332333361148 11:1 #
2.3729650603047023338376675383188 11:1 #
-0.79098835343490081495332333361148 17:1 #
-0.79098835343490081495332333361148 11:1 #
-0.79098835343490081495332333361148 17:1 #
2.3729650603047023338376675383188 17:1 #
-0.79098835343490081495332333361148 11:1 #
-0.79098835343490081495332333361148 17:1 #
-0.79098835343490081495332333361148 11:1 #
2.3729650603047023338376675383188 11:1 #
-0.79098835343490081495332333361148 17:1 #
-0.79098835343490081495332333361148 11:1 #
-0.79098835343490081495332333361148 17:1 #
2.3729650603047023338376675383188 17:1 #
-0.79098835343490081495332333361148 11:1 #
-0.79098835343490081495332333361148 17:1 #
-0.79098835343490081495332333361148 11:1 #
2.3729650603047023338376675383188 11:1 #
-0.79098835343490081495332333361148 17:1 #
-0.79098835343490081495332333361148 11:1 #
-0.79098835343490081495332333361148 17:1 #
2.3729650603047023338376675383188 17:1 #
-0.79098835343490081495332333361148 11:1 #
-0.79098835343490081495332333361148 17:1 #
-0.79098835343490081495332333361148 11:1 #
2.3729650603047023338376675383188 11:1 #
-0.79098835343490081495332333361148 17:1 #
-0.79098835343490081495332333361148 11:1 #
-0.79098835343490081495332333361148 17:1 #
2.3729650603047023338376675383188 17:1 #
-0.79098835343490081495332333361148 11:1 #
-0.79098835343490081495332333361148 17:1 #
-0.79098835343490081495332333361148 11:1 #
2.3729650603047023338376675383188 11:1 #
-0.79098835343490081495332333361148 17:1 #
-0.79098835343490081495332333361148 11:1 #
-0.79098835343490081495332333361148 17:1 #
2.3729650603047023338376675383188 17:1 #
-0.79098835343490081495332333361148 11:1 #
-0.79098835343490081495332333361148 17:1 #
-0.79098835343490081495332333361148 11:1 #
2.3729650603047023338376675383188 11:1 #
-0.79098835343490081495332333361148 17:1 #
-0.79098835343490081495332333361148 11:1 #
-0.79098835343490081495332333361148 17:1 #
2.3729650603047023338376675383188 17:1 #
-0.79098835343490081495332333361148 11:1 #
-0.79098835343490081495332333361148 17:1 #
-0.79098835343490081495332333361148 11:1 #
-0.79098835343490081495332333361148 6:1 #
-0.79098835343490081495332333361148 1:1 #
-0.35976906337350877951308802948915 14:1 #
-0.43329016195370578801160377224733 15:1 #
2.3729650603047023338376675383188 11:1 #
-0.79098835343490081495332333361148 16:1 #
-0.79098835343490081495332333361148 17:1 #
-0.79098835343490081495332333361148 15:1 #
-0.79098835343490081495332333361148 1:1 #
2.3729650603047023338376675383188 15:1 #
-0.79098835343490081495332333361148 1:1 #
2.3729650603047023338376675383188 1:1 #
-0.79098835343490081495332333361148 19:1 #
2.3729650603047023338376675383188 19:1 #
-0.79098835343490081495332333361148 1:1 #
-0.79098835343490081495332333361148 19:1 #
-0.79098835343490081495332333361148 1:1 #
-0.79098835343490081495332333361148 19:1 #
-0.79098835343490081495332333361148 1:1 #
2.3729650603047023338376675383188 1:1 #
-0.79098835343490081495332333361148 19:1 #
2.3729650603047023338376675383188 19:1 #
-0.79098835343490081495332333361148 1:1 #
-0.79098835343490081495332333361148 19:1 #
-0.79098835343490081495332333361148 1:1 #
-0.79098835343490081495332333361148 19:1 #
-0.79098835343490081495332333361148 1:1 #
2.3729650603047023338376675383188 1:1 #
-0.79098835343490081495332333361148 19:1 #
2.3729650603047023338376675383188 19:1 #
-0.79098835343490081495332333361148 1:1 #
-0.79098835343490081495332333361148 19:1 #
-0.79098835343490081495332333361148 1:1 #
-0.79098835343490081495332333361148 19:1 #
-0.79098835343490081495332333361148 1:1 #
2.3729650603047023338376675383188 1:1 #
-0.79098835343490081495332333361148 19:1 #
2.3729650603047023338376675383188 19:1 #
-0.79098835343490081495332333361148 1:1 #
-0.79098835343490081495332333361148 19:1 #
-0.79098835343490081495332333361148 1:1 #
-0.79098835343490081495332333361148 19:1 #
-0.79098835343490081495332333361148 1:1 #
2.3729650603047023338376675383188 1:1 #
-0.79098835343490081495332333361148 19:1 #
2.3729650603047023338376675383188 19:1 #
-0.79098835343490081495332333361148 1:1 #
-0.79098835343490081495332333361148 19:1 #
-0.79098835343490081495332333361148 1:1 #
-0.79098835343490081495332333361148 19:1 #
-0.79098835343490081495332333361148 1:1 #
2.3729650603047023338376675383188 1:1 #
-0.79098835343490081495332333361148 19:1 #
2.3729650603047023338376675383188 19:1 #
-0.79098835343490081495332333361148 1:1 #
-0.79098835343490081495332333361148 19:1 #
-0.79098835343490081495332333361148 1:1 #
-0.79098835343490081495332333361148 19:1 #
-0.79098835343490081495332333361148 1:1 #
2.3729650603047023338376675383188 1:1 #
-0.79098835343490081495332333361148 19:1 #
2.3729650603047023338376675383188 19:1 #
-0.79098835343490081495332333361148 1:1 #
-0.79098835343490081495332333361148 19:1 #
-0.79098835343490081495332333361148 1:1 #
-0.79098835343490081495332333361148 19:1 #
-0.79098835343490081495332333361148 1:1 #
2.3729650603047023338376675383188 1:1 #
-0.79098835343490081495332333361148 19:1 #
2.3729650603047023338376675383188 19:1 #
-0.79098835343490081495332333361148 1:1 #
-0.79098835343490081495332333361148 19:1 #
-0.79098835343490081495332333361148 1:1 #
-0.79098835343490081495332333361148 19:1 #
-0.79098835343490081495332333361148 1:1 #
2.3729650603047023338376675383188 1:1 #
-0.79098835343490081495332333361148 19:1 #
2.3729650603047023338376675383188 19:1 #
-0.79098835343490081495332333361148 1:1 #
-0.79098835343490081495332333361148 19:1 #
-0.79098835343490081495332333361148 1:1 #
-0.79098835343490081495332333361148 19:1 #
-0.79098835343490081495332333361148 1:1 #
2.3729650603047023338376675383188 1:1 #
-0.79098835343490081495332333361148 19:1 #
2.3729650603047023338376675383188 19:1 #
-0.79098835343490081495332333361148 1:1 #
-0.79098835343490081495332333361148 19:1 #
-0.79098835343490081495332333361148 1:1 #
-0.79098835343490081495332333361148 19:1 #
-0.79098835343490081495332333361148 1:1 #
2.3729650603047023338376675383188 1:1 #
-0.79098835343490081495332333361148 19:1 #
2.3729650603047023338376675383188 19:1 #
-0.79098835343490081495332333361148 1:1 #
-0.79098835343490081495332333361148 19:1 #
-0.79098835343490081495332333361148 1:1 #
-0.79098835343490081495332333361148 19:1 #
-0.79098835343490081495332333361148 1:1 #
2.3729650603047023338376675383188 1:1 #
-0.79098835343490081495332333361148 19:1 #
2.3729650603047023338376675383188 19:1 #
-0.79098835343490081495332333361148 1:1 #
-0.79098835343490081495332333361148 19:1 #
-0.79098835343490081495332333361148 1:1 #
-0.79098835343490081495332333361148 19:1 #
-0.79098835343490081495332333361148 1:1 #
2.3729650603047023338376675383188 1:1 #
-0.79098835343490081495332333361148 19:1 #
2.3729650603047023338376675383188 19:1 #
-0.79098835343490081495332333361148 1:1 #
-0.79098835343490081495332333361148 19:1 #
-0.79098835343490081495332333361148 1:1 #
-0.79098835343490081495332333361148 19:1 #
-0.79098835343490081495332333361148 1:1 #
2.3729650603047023338376675383188 1:1 #
-0.79098835343490081495332333361148 19:1 #
2.3729650603047023338376675383188 19:1 #
-0.79098835343490081495332333361148 1:1 #
-0.79098835343490081495332333361148 19:1 #
-0.79098835343490081495332333361148 1:1 #
-0.79098835343490081495332333361148 19:1 #
-0.79098835343490081495332333361148 1:1 #
2.3729650603047023338376675383188 1:1 #
-0.79098835343490081495332333361148 19:1 #
2.3729650603047023338376675383188 19:1 #
-0.79098835343490081495332333361148 1:1 #
-0.79098835343490081495332333361148 19:1 #
-0.79098835343490081495332333361148 1:1 #
-0.79098835343490081495332333361148 19:1 #
-0.79098835343490081495332333361148 1:1 #
2.3729650603047023338376675383188 1:1 #
-0.79098835343490081495332333361148 19:1 #
2.3729650603047023338376675383188 19:1 #
-0.79098835343490081495332333361148 1:1 #
-0.79098835343490081495332333361148 19:1 #
-0.79098835343490081495332333361148 1:1 #
-0.79098835343490081495332333361148 19:1 #
-0.79098835343490081495332333361148 9:1 #
-0.79098835343490081495332333361148 4:1 #
-0.79098835343490081495332333361148 15:1 #
-0.79098835343490081495332333361148 11:1 #
-0.79098835343490081495332333361148 14:1 #
1.2622026419292644572323069951381 6:1 #
1.3317236666878780049216857150896 19:1 #
0.51180845951521480863277702155756 1:1 #
2.3729650603047023338376675383188 13:1 #
2.3729650603047023338376675383188 14:1 #
-0.79098835343490081495332333361148 19:1 #
-0.79098835343490081495332333361148 1:1 #
-0.79098835343490081495332333361148 13:1 #
2.3729650603047023338376675383188 4:1 #
-0.79098835343490081495332333361148 6:1 #
-0.79098835343490081495332333361148 15:1 #
-0.79098835343490081495332333361148 4:1 #
-0.79098835343490081495332333361148 17:1 #
2.3729650603047023338376675383188 17:1 #
-0.79098835343490081495332333361148 11:1 #
-0.79098835343490081495332333361148 17:1 #
-0.79098835343490081495332333361148 5:1 #
-0.79098835343490081495332333361148 9:1 #
2.3729650603047023338376675383188 5:1 #
-0.79098835343490081495332333361148 17:1 #
-0.79098835343490081495332333361148 17:1 #
2.3729650603047023338376675383188 7:1 #
-0.79098835343490081495332333361148 5:1 #
-0.79098835343490081495332333361148 19:1 #
-0.79098835343490081495332333361148 7:1 #
-0.79098835343490081495332333361148 5:1 #
-0.79098835343490081495332333361148 5:1 #
2.3729650603047023338376675383188 5:1 #
-0.79098835343490081495332333361148 7:1 #
-0.79098835343490081495332333361148 5:1 #
-0.79098835343490081495332333361148 7:1 #
2.3729650603047023338376675383188 7:1 #
-0.79098835343490081495332333361148 5:1 #
-0.79098835343490081495332333361148 7:1 #
-0.79098835343490081495332333361148 5:1 #
2.3729650603047023338376675383188 5:1 #
-0.79098835343490081495332333361148 7:1 #
-0.79098835343490081495332333361148 5:1 #
-0.79098835343490081495332333361148 7:1 #
2.3729650603047023338376675383188 7:1 #
-0.79098835343490081495332333361148 5:1 #
-0.79098835343490081495332333361148 7:1 #
-0.79098835343490081495332333361148 5:1 #
2.3729650603047023338376675383188 5:1 #
-0.79098835343490081495332333361148 7:1 #
-0.79098835343490081495332333361148 5:1 #
-0.79098835343490081495332333361148 7:1 #
2.3729650603047023338376675383188 7:1 #
-0.79098835343490081495332333361148 5:1 #
-0.79098835343490081495332333361148 7:1 #
-0.79098835343490081495332333361148 5:1 #
2.3729650603047023338376675383188 5:1 #
-0.79098835343490081495332333361148 7:1 #
-0.79098835343490081495332333361148 5:1 #
-0.79098835343490081495332333361148 7:1 #
2.3729650603047023338376675383188 7:1 #
-0.79098835343490081495332333361148 5:1 #
-0.79098835343490081495332333361148 7:1 #
-0.79098835343490081495332333361148 5:1 #
2.3729650603047023338376675383188 5:1 #
-0.79098835343490081495332333361148 7:1 #
-0.79098835343490081495332333361148 5:1 #
-0.79098835343490081495332333361148 7:1 #
2.3729650603047023338376675383188 7:1 #
-0.79098835343490081495332333361148 5:1 #
-0.79098835343490081495332333361148 7:1 #
-0.79098835343490081495332333361148 5:1 #
2.3729650603047023338376675383188 5:1 #
-0.79098835343490081495332333361148 7:1 #
-0.79098835343490081495332333361148 5:1 #
-0.79098835343490081495332333361148 7:1 #
2.3729650603047023338376675383188 7:1 #
-0.79098835343490081495332333361148 5:1 #
-0.79098835343490081495332333361148 7:1 #
-0.79098835343490081495332333361148 5:1 #
2.3729650603047023338376675383188 5:1 #
-0.79098835343490081495332333361148 7:1 #
-0.79098835343490081495332333361148 5:1 #
-0.79098835343490081495332333361148 7:1 #
2.3729650603047023338376675383188 7:1 #
-0.79098835343490081495332333361148 5:1 #
-0.79098835343490081495332333361148 7:1 #
-0.79098835343490081495332333361148 5:1 #
2.3729650603047023338376675383188 5:1 #
-0.79098835343490081495332333361148 7:1 #
-0.79098835343490081495332333361148 5:1 #
-0.79098835343490081495332333361148 7:1 #
2.3729650603047023338376675383188 7:1 #
-0.79098835343490081495332333361148 5:1 #
-0.79098835343490081495332333361148 7:1 #
-0.79098835343490081495332333361148 5:1 #
2.3729650603047023338376675383188 5:1 #
-0.79098835343490081495332333361148 7:1 #
-0.79098835343490081495332333361148 5:1 #
-0.79098835343490081495332333361148 7:1 #
2.3729650603047023338376675383188 7:1 #
-0.79098835343490081495332333361148 5:1 #
-0.79098835343490081495332333361148 7:1 #
-0.79098835343490081495332333361148 5:1 #
2.3729650603047023338376675383188 5:1 #
-0.79098835343490081495332333361148 7:1 #
-0.79098835343490081495332333361148 5:1 #
-0.79098835343490081495332333361148 7:1 #
2.3729650603047023338376675383188 7:1 #
-0.79098835343490081495332333361148 5:1 #
-0.79098835343490081495332333361148 7:1 #
-0.79098835343490081495332333361148 5:1 #
2.3729650603047023338376675383188 5:1 #
-0.79098835343490081495332333361148 7:1 #
-0.79098835343490081495332333361148 5:1 #
-0.79098835343490081495332333361148 7:1 #
2.3729650603047023338376675383188 7:1 #
-0.79098835343490081495332333361148 5:1 #
-0.79098835343490081495332333361148 7:1 #
-0.79098835343490081495332333361148 5:1 #
2.3729650603047023338376675383188 5:1 #
-0.79098835343490081495332333361148 7:1 #
-0.79098835343490081495332333361148 5:1 #
-0.79098835343490081495332333361148 7:1 #
2.3729650603047023338376675383188 7:1 #
-0.79098835343490081495332333361148 5:1 #
-0.79098835343490081495332333361148 7:1 #
-0.79098835343490081495332333361148 5:1 #
2.3729650603047023338376675383188 5:1 #
-0.79098835343490081495332333361148 7:1 #
-0.79098835343490081495332333361148 5:1 #
-0.79098835343490081495332333361148 7:1 #
2.3729650603047023338376675383188 7:1 #
-0.79098835343490081495332333361148 5:1 #
-0.79098835343490081495332333361148 7:1 #
-0.79098835343490081495332333361148 5:1 #
2.3729650603047023338376675383188 5:1 #
-0.79098835343490081495332333361148 7:1 #
-0.79098835343490081495332333361148 5:1 #
-0.79098835343490081495332333361148 7:1 #
2.3729650603047023338376675383188 7:1 #
-0.79098835343490081495332333361148 5:1 #
-0.79098835343490081495332333361148 7:1 #
-0.79098835343490081495332333361148 7:1 #
-0.79098835343490081495332333361148 4:1 #
-0.79098835343490081495332333361148 5:1 #
-0.79098835343490081495332333361148 1:1 #
0.90713487492967082026495972968405 11:1 #
2.3729650603047023338376675383188 9:1 #
1.2680482567965425388933908834588 20:1 #
-0.79098835343490081495332333361148 9:1 #
-0.79098835343490081495332333361148 11:1 #
2.3729650603047023338376675383188 1:1 #
-0.79098835343490081495332333361148 20:1 #
2.3729650603047023338376675383188 5:1 #
-0.79098835343490081495332333361148 9:1 #
2.3729650603047023338376675383188 9:1 #
-0.79098835343490081495332333361148 11:1 #
2.3729650603047023338376675383188 11:1 #
-0.79098835343490081495332333361148 9:1 #
-0.79098835343490081495332333361148 11:1 #
-0.79098835343490081495332333361148 9:1 #
-0.79098835343490081495332333361148 11:1 #
-0.79098835343490081495332333361148 9:1 #
2.3729650603047023338376675383188 9:1 #
-0.79098835343490081495332333361148 11:1 #
2.3729650603047023338376675383188 11:1 #
-0.79098835343490081495332333361148 9:1 #
-0.79098835343490081495332333361148 11:1 #
-0.79098835343490081495332333361148 9:1 #
-0.79098835343490081495332333361148 11:1 #
-0.79098835343490081495332333361148 9:1 #
2.3729650603047023338376675383188 9:1 #
-0.79098835343490081495332333361148 11:1 #
2.3729650603047023338376675383188 11:1 #
-0.79098835343490081495332333361148 9:1 #
-0.79098835343490081495332333361148 11:1 #
-0.79098835343490081495332333361148 9:1 #
-0.79098835343490081495332333361148 11:1 #
-0.79098835343490081495332333361148 9:1 #
2.3729650603047023338376675383188 9:1 #
-0.79098835343490081495332333361148 11:1 #
2.3729650603047023338376675383188 11:1 #
-0.79098835343490081495332333361148 9:1 #
-0.79098835343490081495332333361148 11:1 #
-0.79098835343490081495332333361148 9:1 #
-0.79098835343490081495332333361148 11:1 #
-0.79098835343490081495332333361148 9:1 #
2.3729650603047023338376675383188 9:1 #
-0.79098835343490081495332333361148 11:1 #
2.3729650603047023338376675383188 11:1 #
-0.79098835343490081495332333361148 9:1 #
-0.79098835343490081495332333361148 11:1 #
-0.79098835343490081495332333361148 9:1 #
-0.79098835343490081495332333361148 11:1 #
-0.79098835343490081495332333361148 9:1 #
2.3729650603047023338376675383188 9:1 #
-0.79098835343490081495332333361148 11:1 #
2.3729650603047023338376675383188 11:1 #
-0.79098835343490081495332333361148 9:1 #
-0.79098835343490081495332333361148 11:1 #
-0.79098835343490081495332333361148 9:1 #
-0.79098835343490081495332333361148 11:1 #
-0.79098835343490081495332333361148 9:1 #
2.3729650603047023338376675383188 9:1 #
-0.79098835343490081495332333361148 11:1 #
2.3729650603047023338376675383188 11:1 #
-0.79098835343490081495332333361148 9:1 #
-0.79098835343490081495332333361148 11:1 #
-0.79098835343490081495332333361148 9:1 #
-0.79098835343490081495332333361148 11:1 #
-0.79098835343490081495332333361148 9:1 #
2.3729650603047023338376675383188 9:1 #
-0.79098835343490081495332333361148 11:1 #
2.3729650603047023338376675383188 11:1 #
-0.79098835343490081495332333361148 9:1 #
-0.79098835343490081495332333361148 11:1 #
-0.79098835343490081495332333361148 9:1 #
-0.79098835343490081495332333361148 11:1 #
-0.79098835343490081495332333361148 9:1 #
2.3729650603047023338376675383188 9:1 #
-0.79098835343490081495332333361148 11:1 #
2.3729650603047023338376675383188 11:1 #
-0.79098835343490081495332333361148 9:1 #
-0.79098835343490081495332333361148 11:1 #
-0.79098835343490081495332333361148 9:1 #
-0.79098835343490081495332333361148 11:1 #
-0.79098835343490081495332333361148 9:1 #
2.3729650603047023338376675383188 9:1 #
-0.79098835343490081495332333361148 11:1 #
2.3729650603047023338376675383188 11:1 #
-0.79098835343490081495332333361148 9:1 #
-0.79098835343490081495332333361148 11:1 #
-0.79098835343490081495332333361148 9:1 #
-0.79098835343490081495332333361148 11:1 #
-0.79098835343490081495332333361148 9:1 #
2.3729650603047023338376675383188 9:1 #
-0.79098835343490081495332333361148 11:1 #
2.3729650603047023338376675383188 11:1 #
-0.79098835343490081495332333361148 9:1 #
-0.79098835343490081495332333361148 11:1 #
-0.79098835343490081495332333361148 9:1 #
-0.79098835343490081495332333361148 11:1 #
-0.79098835343490081495332333361148 9:1 #
2.3729650603047023338376675383188 9:1 #
-0.79098835343490081495332333361148 11:1 #
2.3729650603047023338376675383188 11:1 #
-0.79098835343490081495332333361148 9:1 #
-0.79098835343490081495332333361148 11:1 #
-0.79098835343490081495332333361148 9:1 #
-0.79098835343490081495332333361148 11:1 #
-0.79098835343490081495332333361148 9:1 #
2.3729650603047023338376675383188 9:1 #
-0.79098835343490081495332333361148 11:1 #
2.3729650603047023338376675383188 11:1 #
-0.79098835343490081495332333361148 9:1 #
-0.79098835343490081495332333361148 11:1 #
-0.79098835343490081495332333361148 9:1 #
-0.79098835343490081495332333361148 11:1 #
-0.79098835343490081495332333361148 9:1 #
2.3729650603047023338376675383188 9:1 #
-0.79098835343490081495332333361148 11:1 #
2.3729650603047023338376675383188 11:1 #
-0.79098835343490081495332333361148 9:1 #
-0.79098835343490081495332333361148 11:1 #
-0.79098835343490081495332333361148 9:1 #
-0.79098835343490081495332333361148 11:1 #
-0.79098835343490081495332333361148 9:1 #
2.3729650603047023338376675383188 9:1 #
-0.79098835343490081495332333361148 11:1 #
2.3729650603047023338376675383188 11:1 #
-0.79098835343490081495332333361148 9:1 #
-0.79098835343490081495332333361148 11:1 #
-0.79098835343490081495332333361148 9:1 #
-0.79098835343490081495332333361148 11:1 #
-0.79098835343490081495332333361148 9:1 #
2.3729650603047023338376675383188 9:1 #
-0.79098835343490081495332333361148 11:1 #
2.3729650603047023338376675383188 11:1 #
-0.79098835343490081495332333361148 9:1 #
-0.79098835343490081495332333361148 11:1 #
-0.79098835343490081495332333361148 9:1 #
-0.79098835343490081495332333361148 11:1 #
-0.79098835343490081495332333361148 10:1 #
-0.79098835343490081495332333361148 4:1 #
-0.79098835343490081495332333361148 1:1 #
-0.79098835343490081495332333361148 8:1 #
2.3729650603047023338376675383188 6:1 #
2.3729650603047023338376675383188 16:1 #
2.3729650603047023338376675383188 20:1 #
2.3729650603047023338376675383188 13:1 #
2.3729650603047023338376675383188 11:1 #
-0.79098835343490081495332333361148 11:1 #
2.3729650603047023338376675383188 8:1 #
-0.79098835343490081495332333361148 20:1 #
-0.79098835343490081495332333361148 6:1 #
-0.79098835343490081495332333361148 13:1 #
2.3729650603047023338376675383188 13:1 #
-0.79098835343490081495332333361148 16:1 #
-0.79098835343490081495332333361148 13:1 #
-0.79040198002704920021699308563257 9:1 #
-0.79098835343490081495332333361148 8:1 #
2.3729650603047023338376675383188 9:1 #
-0.79098835343490081495332333361148 13:1 #
-0.79098835343490081495332333361148 13:1 #
-0.79098835343490081495332333361148 8:1 #
2.3729650603047023338376675383188 13:1 #
-0.79098835343490081495332333361148 13:1 #
-0.79098835343490081495332333361148 9:1 #
-0.79098835343490081495332333361148 11:1 #
2.3729650603047023338376675383188 11:1 #
-0.79098835343490081495332333361148 9:1 #
-0.79098835343490081495332333361148 11:1 #
-0.79098835343490081495332333361148 9:1 #
2.3729650603047023338376675383188 9:1 #
-0.79098835343490081495332333361148 11:1 #
-0.79098835343490081495332333361148 9:1 #
-0.79098835343490081495332333361148 11:1 #
2.3729650603047023338376675383188 11:1 #
-0.79098835343490081495332333361148 9:1 #
-0.79098835343490081495332333361148 11:1 #
-0.79098835343490081495332333361148 9:1 #
2.3729650603047023338376675383188 9:1 #
-0.79098835343490081495332333361148 11:1 #
-0.79098835343490081495332333361148 9:1 #
-0.79098835343490081495332333361148 11:1 #
2.3729650603047023338376675383188 11:1 #
-0.79098835343490081495332333361148 9:1 #
-0.79098835343490081495332333361148 11:1 #
-0.79098835343490081495332333361148 9:1 #
2.3729650603047023338376675383188 9:1 #
-0.79098835343490081495332333361148 11:1 #
-0.79098835343490081495332333361148 9:1 #
-0.79098835343490081495332333361148 11:1 #
2.3729650603047023338376675383188 11:1 #
-0.79098835343490081495332333361148 9:1 #
-0.79098835343490081495332333361148 11:1 #
-0.79098835343490081495332333361148 9:1 #
2.3729650603047023338376675383188 9:1 #
-0.79098835343490081495332333361148 11:1 #
-0.79098835343490081495332333361148 9:1 #
-0.79098835343490081495332333361148 11:1 #
2.3729650603047023338376675383188 11:1 #
-0.79098835343490081495332333361148 9:1 #
-0.79098835343490081495332333361148 11:1 #
-0.79098835343490081495332333361148 9:1 #
2.3729650603047023338376675383188 9:1 #
-0.79098835343490081495332333361148 11:1 #
-0.79098835343490081495332333361148 9:1 #
-0.79098835343490081495332333361148 11:1 #
2.3729650603047023338376675383188 11:1 #
-0.79098835343490081495332333361148 9:1 #
-0.79098835343490081495332333361148 11:1 #
-0.79098835343490081495332333361148 9:1 #
2.3729650603047023338376675383188 9:1 #
-0.79098835343490081495332333361148 11:1 #
-0.79098835343490081495332333361148 9:1 #
-0.79098835343490081495332333361148 11:1 #
2.3729650603047023338376675383188 11:1 #
-0.79098835343490081495332333361148 9:1 #
-0.79098835343490081495332333361148 11:1 #
-0.79098835343490081495332333361148 9:1 #
2.3729650603047023338376675383188 9:1 #
-0.79098835343490081495332333361148 11:1 #
-0.79098835343490081495332333361148 9:1 #
-0.79098835343490081495332333361148 11:1 #
2.3729650603047023338376675383188 11:1 #
-0.79098835343490081495332333361148 9:1 #
-0.79098835343490081495332333361148 11:1 #
-0.79098835343490081495332333361148 9:1 #
2.3729650603047023338376675383188 9:1 #
-0.79098835343490081495332333361148 11:1 #
-0.79098835343490081495332333361148 9:1 #
-0.79098835343490081495332333361148 11:1 #
2.3729650603047023338376675383188 11:1 #
-0.79098835343490081495332333361148 9:1 #
-0.79098835343490081495332333361148 11:1 #
-0.79098835343490081495332333361148 9:1 #
2.3729650603047023338376675383188 9:1 #
-0.79098835343490081495332333361148 11:1 #
-0.79098835343490081495332333361148 9:1 #
-0.79098835343490081495332333361148 11:1 #
2.3729650603047023338376675383188 11:1 #
-0.79098835343490081495332333361148 9:1 #
-0.79098835343490081495332333361148 11:1 #
-0.79098835343490081495332333361148 9:1 #
2.3729650603047023338376675383188 9:1 #
-0.79098835343490081495332333361148 11:1 #
-0.79098835343490081495332333361148 9:1 #
-0.79098835343490081495332333361148 11:1 #
2.3729650603047023338376675383188 11:1 #
-0.79098835343490081495332333361148 9:1 #
-0.79098835343490081495332333361148 11:1 #
-0.79098835343490081495332333361148 9:1 #
2.3729650603047023338376675383188 9:1 #
-0.79098835343490081495332333361148 11:1 #
-0.79098835343490081495332333361148 9:1 #
-0.79098835343490081495332333361148 11:1 #
2.3729650603047023338376675383188 11:1 #
-0.79098835343490081495332333361148 9:1 #
-0.79098835343490081495332333361148 11:1 #
-0.79098835343490081495332333361148 9:1 #
2.3729650603047023338376675383188 9:1 #
-0.79098835343490081495332333361148 11:1 #
-0.79098835343490081495332333361148 9:1 #
-0.79098835343490081495332333361148 11:1 #
2.3729650603047023338376675383188 11:1 #
-0.79098835343490081495332333361148 9:1 #
-0.79098835343490081495332333361148 11:1 #
-0.79098835343490081495332333361148 1:1 #
-0.79098835343490081495332333361148 12:1 #
-0.79098835343490081495332333361148 5:1 #
-0.79098835343490081495332333361148 16:1 #
-0.79098835343490081495332333361148 20:1 #
-0.79098835343490081495332333361148 11:1 #
-0.79098835343490081495332333361148 6:1 #
2.3729650603047023338376675383188 6:1 #
-0.79098835343490081495332333361148 16:1 #
-0.79098835343490081495332333361148 6:1 #
-0.79098835343490081495332333361148 12:1 #
-0.79098835343490081495332333361148 6:1 #
-0.79098835343490081495332333361148 13:1 #
2.3729650603047023338376675383188 12:1 #
-0.79098835343490081495332333361148 12:1 #
-0.79098835343490081495332333361148 13:1 #
-0.79098835343490081495332333361148 12:1 #
-0.79098835343490081495332333361148 13:1 #
-0.79098835343490081495332333361148 12:1 #
2.3729650603047023338376675383188 13:1 #
-0.79098835343490081495332333361148 13:1 #
2.3729650603047023338376675383188 12:1 #
-0.79098835343490081495332333361148 12:1 #
-0.79098835343490081495332333361148 13:1 #
-0.79098835343490081495332333361148 12:1 #
-0.79098835343490081495332333361148 13:1 #
2.3729650603047023338376675383188 13:1 #
-0.79098835343490081495332333361148 12:1 #
-0.79098835343490081495332333361148 13:1 #
2.3729650603047023338376675383188 12:1 #
-0.79098835343490081495332333361148 12:1 #
-0.79098835343490081495332333361148 13:1 #
-0.79098835343490081495332333361148 12:1 #
-0.79098835343490081495332333361148 13:1 #
2.3729650603047023338376675383188 13:1 #
-0.79098835343490081495332333361148 12:1 #
-0.79098835343490081495332333361148 13:1 #
2.3729650603047023338376675383188 12:1 #
-0.79098835343490081495332333361148 12:1 #
-0.79098835343490081495332333361148 13:1 #
-0.79098835343490081495332333361148 12:1 #
-0.79098835343490081495332333361148 13:1 #
2.3729650603047023338376675383188 13:1 #
-0.79098835343490081495332333361148 12:1 #
-0.79098835343490081495332333361148 13:1 #
2.3729650603047023338376675383188 12:1 #
-0.79098835343490081495332333361148 12:1 #
-0.79098835343490081495332333361148 13:1 #
-0.79098835343490081495332333361148 12:1 #
-0.79098835343490081495332333361148 13:1 #
2.3729650603047023338376675383188 13:1 #
-0.79098835343490081495332333361148 12:1 #
-0.79098835343490081495332333361148 13:1 #
2.3729650603047023338376675383188 12:1 #
-0.79098835343490081495332333361148 12:1 #
-0.79098835343490081495332333361148 13:1 #
-0.79098835343490081495332333361148 12:1 #
-0.79098835343490081495332333361148 13:1 #
2.3729650603047023338376675383188 13:1 #
-0.79098835343490081495332333361148 12:1 #
-0.79098835343490081495332333361148 13:1 #
2.3729650603047023338376675383188 12:1 #
-0.79098835343490081495332333361148 12:1 #
-0.79098835343490081495332333361148 13:1 #
-0.79098835343490081495332333361148 12:1 #
-0.79098835343490081495332333361148 13:1 #
2.3729650603047023338376675383188 13:1 #
-0.79098835343490081495332333361148 12:1 #
-0.79098835343490081495332333361148 13:1 #
2.3729650603047023338376675383188 12:1 #
-0.79098835343490081495332333361148 12:1 #
-0.79098835343490081495332333361148 13:1 #
-0.79098835343490081495332333361148 12:1 #
-0.79098835343490081495332333361148 13:1 #
2.3729650603047023338376675383188 13:1 #
-0.79098835343490081495332333361148 12:1 #
-0.79098835343490081495332333361148 13:1 #
2.3729650603047023338376675383188 12:1 #
-0.79098835343490081495332333361148 12:1 #
-0.79098835343490081495332333361148 13:1 #
-0.79098835343490081495332333361148 12:1 #
-0.79098835343490081495332333361148 13:1 #
2.3729650603047023338376675383188 13:1 #
-0.79098835343490081495332333361148 12:1 #
-0.79098835343490081495332333361148 13:1 #
2.3729650603047023338376675383188 12:1 #
-0.79098835343490081495332333361148 12:1 #
-0.79098835343490081495332333361148 13:1 #
-0.79098835343490081495332333361148 12:1 #
-0.79098835343490081495332333361148 13:1 #
2.3729650603047023338376675383188 13:1 #
-0.79098835343490081495332333361148 12:1 #
-0.79098835343490081495332333361148 13:1 #
2.3729650603047023338376675383188 12:1 #
-0.79098835343490081495332333361148 12:1 #
-0.79098835343490081495332333361148 13:1 #
-0.79098835343490081495332333361148 12:1 #
-0.79098835343490081495332333361148 13:1 #
2.3729650603047023338376675383188 13:1 #
-0.79098835343490081495332333361148 12:1 #
-0.79098835343490081495332333361148 13:1 #
2.3729650603047023338376675383188 12:1 #
-0.79098835343490081495332333361148 12:1 #
-0.79098835343490081495332333361148 13:1 #
-0.79098835343490081495332333361148 12:1 #
-0.79098835343490081495332333361148 13:1 #
2.3729650603047023338376675383188 13:1 #
-0.79098835343490081495332333361148 12:1 #
-0.79098835343490081495332333361148 13:1 #
2.3729650603047023338376675383188 12:1 #
-0.79098835343490081495332333361148 12:1 #
-0.79098835343490081495332333361148 13:1 #
-0.79098835343490081495332333361148 12:1 #
-0.79098835343490081495332333361148 5:1 #
-0.79098835343490081495332333361148 9:1 #
-0.79098835343490081495332333361148 7:1 #
-0.79098835343490081495332333361148 8:1 #
-0.79098835343490081495332333361148 19:1 #
2.3729650603047023338376675383188 8:1 #
-0.79098835343490081495332333361148 16:1 #
2.3729650603047023338376675383188 19:1 #
-0.79098835343490081495332333361148 13:1 #
-0.79098835343490081495332333361148 20:1 #
2.3729650603047023338376675383188 9:1 #
-0.79098835343490081495332333361148 6:1 #
-0.79098835343490081495332333361148 12:1 #
-0.79098835343490081495332333361148 9:1 #
-0.79098835343490081495332333361148 6:1 #
-0.79098835343490081495332333361148 9:1 #
2.3146323093153267080879231798463 6:1 #
-0.79098835343490081495332333361148 6:1 #
2.3729650603047023338376675383188 12:1 #
-0.79098835343490081495332333361148 16:1 #
2.3729650603047023338376675383188 16:1 #
-0.79098835343490081495332333361148 12:1 #
-0.79098835343490081495332333361148 16:1 #
-0.79098835343490081495332333361148 12:1 #
