SVM-light Version V6.02
0 # kernel type
3 # kernel parameter -d 
1 # kernel parameter -g 
1 # kernel parameter -s 
1 # kernel parameter -r 
empty# kernel parameter -u 
20 # highest feature index 
14658 # number of training documents 
10655 # number of support vectors plus 1 
0.50015232 # threshold b, each following line is a SV (starting with alpha*y)
-1 10:1 #
-1 15:1 #
-1 20:1 #
-1 11:1 #
-1 12:1 #
2 12:1 #
2 1:1 #
2 5:1 #
-1 5:1 #
-1 1:1 #
2 20:1 #
2 15:1 #
-1 12:1 #
2 10:1 #
-1 20:1 #
-1 15:1 #
2 11:1 #
-1 11:1 #
-1 1:1 #
-1 5:1 #
-1 20:1 #
-1 15:1 #
2 15:1 #
2 20:1 #
-1 10:1 #
-1 10:1 #
2 10:1 #
-1 15:1 #
-1 20:1 #
-1 10:1 #
-1 10:1 #
2 10:1 #
-1 20:1 #
-1 15:1 #
2 20:1 #
2 15:1 #
-1 10:1 #
-1 10:1 #
2 10:1 #
-1 10:1 #
-1 10:1 #
2 10:1 #
-1 10:1 #
-1 10:1 #
2 10:1 #
-1 10:1 #
-1 10:1 #
2 10:1 #
-1 10:1 #
-1 10:1 #
2 10:1 #
-1 10:1 #
-1 10:1 #
2 10:1 #
-1 10:1 #
-1 10:1 #
2 10:1 #
-1 10:1 #
-1 10:1 #
2 10:1 #
-1 10:1 #
-1 10:1 #
2 10:1 #
-1 10:1 #
-1 10:1 #
2 10:1 #
-1 10:1 #
-1 10:1 #
2 10:1 #
-1 10:1 #
-1 10:1 #
2 10:1 #
-1 10:1 #
-1 10:1 #
2 10:1 #
-1 10:1 #
-1 10:1 #
2 10:1 #
-1 10:1 #
-1 10:1 #
2 10:1 #
-1 10:1 #
-1 10:1 #
2 10:1 #
-1 10:1 #
-1 10:1 #
2 10:1 #
-1 10:1 #
-1 10:1 #
2 10:1 #
-1 10:1 #
-1 10:1 #
2 10:1 #
-1 10:1 #
-1 10:1 #
2 10:1 #
-1 10:1 #
-1 10:1 #
2 10:1 #
-1 10:1 #
-1 10:1 #
2 10:1 #
-1 10:1 #
-1 10:1 #
2 10:1 #
-1 10:1 #
-1 10:1 #
2 10:1 #
-1 10:1 #
-1 10:1 #
2 10:1 #
-1 10:1 #
-1 10:1 #
2 10:1 #
-1 10:1 #
2 17:1 #
2 20:1 #
2 1:1 #
-1 10:1 #
2 10:1 #
-1 10:1 #
-1 10:1 #
2 10:1 #
-1 10:1 #
-1 10:1 #
2 10:1 #
-1 10:1 #
-1 17:1 #
-1 1:1 #
-1 15:1 #
2 10:1 #
-1 10:1 #
2 13:1 #
2 11:1 #
-1 20:1 #
-1 10:1 #
2 10:1 #
-1 11:1 #
-1 1:1 #
2 10:1 #
-1 10:1 #
-1 10:1 #
-1 10:1 #
-1 20:1 #
2 10:1 #
-1 10:1 #
-1 13:1 #
-1 10:1 #
-1 13:1 #
-1 10:1 #
-1 1:1 #
2 10:1 #
-1 10:1 #
-1 13:1 #
-1 10:1 #
-1 17:1 #
-1 11:1 #
2 10:1 #
-1 10:1 #
-1 10:1 #
-1 20:1 #
2 10:1 #
-1 10:1 #
-1 10:1 #
2 10:1 #
-1 10:1 #
-1 10:1 #
2 10:1 #
-1 10:1 #
-1 10:1 #
2 10:1 #
-1 10:1 #
-1 10:1 #
2 10:1 #
-1 10:1 #
-1 10:1 #
2 10:1 #
-1 10:1 #
-1 10:1 #
2 10:1 #
-1 10:1 #
-1 10:1 #
2 10:1 #
-1 10:1 #
-1 10:1 #
2 10:1 #
-1 10:1 #
-1 10:1 #
2 10:1 #
-1 10:1 #
-1 10:1 #
2 10:1 #
-1 10:1 #
-1 10:1 #
2 10:1 #
-1 10:1 #
-1 10:1 #
2 10:1 #
-1 10:1 #
-1 10:1 #
2 10:1 #
-1 10:1 #
-1 10:1 #
2 10:1 #
-1 10:1 #
-1 10:1 #
2 10:1 #
-1 10:1 #
-1 10:1 #
2 10:1 #
-1 10:1 #
-1 10:1 #
2 10:1 #
-1 10:1 #
-1 10:1 #
2 10:1 #
-1 10:1 #
-1 10:1 #
2 10:1 #
-1 10:1 #
-1 10:1 #
2 10:1 #
-1 10:1 #
-1 10:1 #
2 10:1 #
-1 4:1 #
-1 16:1 #
-1 20:1 #
2 10:1 #
-1 10:1 #
-1 10:1 #
2 10:1 #
-1 10:1 #
-1 10:1 #
2 10:1 #
-1 10:1 #
-1 10:1 #
2 10:1 #
-1 10:1 #
-1 10:1 #
2 10:1 #
-1 10:1 #
-1 10:1 #
2 10:1 #
-1 10:1 #
-1 10:1 #
-1 10:1 #
-1 10:1 #
2 10:1 #
-1 10:1 #
-1 10:1 #
2 16:1 #
2 4:1 #
-1 17:1 #
2 1:1 #
-1 5:1 #
-1 12:1 #
-1 20:1 #
2 12:1 #
2 5:1 #
2 13:1 #
2 20:1 #
-0.49984768372215737652908273958019 10:1 #
-1 12:1 #
-1 16:1 #
2 11:1 #
2 6:1 #
-1 6:1 #
-1 11:1 #
-1 1:1 #
-1 4:1 #
2 16:1 #
-1 16:1 #
-1 16:1 #
2 12:1 #
2 7:1 #
2 18:1 #
-1 7:1 #
-1 12:1 #
-1 18:1 #
2 16:1 #
-1 16:1 #
-1 18:1 #
2 17:1 #
2 3:1 #
-1 17:1 #
-1 3:1 #
-1 17:1 #
-1 3:1 #
-1 17:1 #
2 17:1 #
2 18:1 #
2 15:1 #
2 8:1 #
2 9:1 #
-1 17:1 #
-1 6:1 #
-1 11:1 #
-1 17:1 #
2 19:1 #
-1 19:1 #
2 17:1 #
-1 17:1 #
2 3:1 #
2 14:1 #
-1 14:1 #
-0.50025400738962755298189222230576 3:1 #
-1 17:1 #
2 17:1 #
-1 17:1 #
2 20:1 #
-1 20:1 #
-1 17:1 #
-1 20:1 #
2 17:1 #
-1 17:1 #
2 20:1 #
-1 20:1 #
-1 17:1 #
-1 20:1 #
2 17:1 #
-1 17:1 #
2 20:1 #
-1 20:1 #
-1 17:1 #
-1 20:1 #
2 17:1 #
-1 17:1 #
2 20:1 #
-1 20:1 #
-1 17:1 #
-1 20:1 #
2 17:1 #
-1 17:1 #
2 20:1 #
-1 20:1 #
-1 17:1 #
-1 20:1 #
2 17:1 #
-1 17:1 #
2 20:1 #
-1 20:1 #
-1 17:1 #
-1 20:1 #
2 17:1 #
-1 17:1 #
2 20:1 #
-1 20:1 #
-1 17:1 #
-1 20:1 #
2 17:1 #
-1 17:1 #
2 20:1 #
-1 20:1 #
-1 17:1 #
-1 20:1 #
2 17:1 #
-1 14:1 #
-1 12:1 #
-1 6:1 #
-1 5:1 #
-1 17:1 #
2 11:1 #
2 19:1 #
2 20:1 #
-1 11:1 #
-1 19:1 #
-1 20:1 #
-1 19:1 #
-1 11:1 #
-1 20:1 #
-1 11:1 #
2 20:1 #
2 11:1 #
-1 20:1 #
-1 11:1 #
-1 20:1 #
-1 11:1 #
2 20:1 #
2 11:1 #
-1 20:1 #
-1 11:1 #
-1 20:1 #
-1 11:1 #
2 20:1 #
2 11:1 #
-1 20:1 #
-1 11:1 #
-1 20:1 #
-1 11:1 #
2 20:1 #
2 11:1 #
-1 20:1 #
-1 11:1 #
-1 20:1 #
-1 11:1 #
2 20:1 #
2 11:1 #
-1 20:1 #
-1 11:1 #
-1 20:1 #
-1 11:1 #
2 20:1 #
2 11:1 #
-1 20:1 #
-1 11:1 #
-1 20:1 #
-1 11:1 #
2 20:1 #
2 11:1 #
-1 20:1 #
-1 11:1 #
-1 20:1 #
-1 11:1 #
2 20:1 #
2 11:1 #
-1 20:1 #
-1 11:1 #
-1 20:1 #
-1 11:1 #
2 20:1 #
2 11:1 #
-1 20:1 #
-1 11:1 #
-1 20:1 #
-1 11:1 #
2 20:1 #
2 11:1 #
-1 20:1 #
-1 11:1 #
-1 20:1 #
-1 11:1 #
2 20:1 #
2 11:1 #
-1 20:1 #
-1 11:1 #
-1 20:1 #
-1 11:1 #
2 20:1 #
2 11:1 #
-1 20:1 #
-1 11:1 #
-1 20:1 #
-1 11:1 #
2 20:1 #
2 11:1 #
-1 20:1 #
-1 11:1 #
-1 20:1 #
-1 11:1 #
2 20:1 #
2 11:1 #
-1 20:1 #
-1 11:1 #
-1 20:1 #
-1 11:1 #
2 20:1 #
2 11:1 #
-1 20:1 #
-1 11:1 #
-1 20:1 #
-1 11:1 #
2 20:1 #
2 11:1 #
-1 20:1 #
-1 11:1 #
-1 20:1 #
-1 11:1 #
2 20:1 #
2 11:1 #
-1 20:1 #
-1 11:1 #
-1 20:1 #
-1 11:1 #
2 20:1 #
2 11:1 #
-1 20:1 #
-1 11:1 #
-1 20:1 #
-1 11:1 #
2 20:1 #
2 11:1 #
-1 20:1 #
-1 11:1 #
-1 20:1 #
-1 4:1 #
-1 17:1 #
-1 19:1 #
2 5:1 #
2 11:1 #
2 13:1 #
2 6:1 #
-1 11:1 #
-1 13:1 #
-1 5:1 #
2 4:1 #
2 17:1 #
-1 17:1 #
2 20:1 #
2 19:1 #
-1 19:1 #
-1 13:1 #
2 13:1 #
-1 19:1 #
-1 13:1 #
2 19:1 #
-1 19:1 #
-1 13:1 #
2 13:1 #
-1 19:1 #
-1 13:1 #
2 19:1 #
-1 19:1 #
-1 13:1 #
2 13:1 #
-1 19:1 #
-1 13:1 #
2 19:1 #
-1 19:1 #
-1 13:1 #
2 13:1 #
-1 19:1 #
-1 13:1 #
2 19:1 #
-1 19:1 #
-1 13:1 #
2 13:1 #
-1 19:1 #
-1 13:1 #
2 19:1 #
-1 19:1 #
-1 13:1 #
2 13:1 #
-1 19:1 #
-1 13:1 #
2 19:1 #
-1 19:1 #
-1 13:1 #
2 13:1 #
-1 19:1 #
-1 13:1 #
2 19:1 #
-1 19:1 #
-1 13:1 #
2 13:1 #
-1 19:1 #
-1 13:1 #
2 19:1 #
-1 19:1 #
-1 13:1 #
2 13:1 #
-1 19:1 #
-1 13:1 #
2 19:1 #
-1 19:1 #
-1 13:1 #
2 13:1 #
-1 19:1 #
-1 13:1 #
2 19:1 #
-1 19:1 #
-1 13:1 #
2 13:1 #
-1 19:1 #
-1 13:1 #
2 19:1 #
-1 19:1 #
-1 13:1 #
2 13:1 #
-1 19:1 #
-1 13:1 #
2 19:1 #
-1 19:1 #
-1 13:1 #
2 13:1 #
-1 19:1 #
-1 13:1 #
2 19:1 #
-1 19:1 #
-1 13:1 #
2 13:1 #
-1 19:1 #
-1 13:1 #
2 19:1 #
-1 19:1 #
-1 13:1 #
2 13:1 #
-1 19:1 #
-1 13:1 #
2 19:1 #
-1 19:1 #
-1 13:1 #
2 13:1 #
-1 19:1 #
-1 3:1 #
-1 1:1 #
-1 17:1 #
-1 20:1 #
2 5:1 #
2 4:1 #
2 6:1 #
-1 6:1 #
-1 5:1 #
-1 4:1 #
-1 6:1 #
-1 13:1 #
2 1:1 #
-1 6:1 #
2 17:1 #
2 6:1 #
-1 6:1 #
-1 6:1 #
2 11:1 #
2 6:1 #
-1 6:1 #
2 19:1 #
-1 6:1 #
2 6:1 #
-1 6:1 #
-1 6:1 #
2 6:1 #
-1 6:1 #
-1 6:1 #
2 6:1 #
-1 6:1 #
2 6:1 #
-1 7:1 #
-1 13:1 #
-1 6:1 #
2 13:1 #
2 6:1 #
-1 13:1 #
2 20:1 #
-1 20:1 #
-1 6:1 #
-1 11:1 #
-1 20:1 #
2 11:1 #
-1 11:1 #
2 20:1 #
-1 20:1 #
-1 11:1 #
-1 20:1 #
2 11:1 #
-1 11:1 #
2 20:1 #
-1 20:1 #
-1 11:1 #
-1 20:1 #
2 11:1 #
-1 11:1 #
2 20:1 #
-1 20:1 #
-1 11:1 #
-1 20:1 #
2 11:1 #
-1 11:1 #
2 20:1 #
-1 20:1 #
-1 11:1 #
-1 20:1 #
2 11:1 #
-1 11:1 #
2 20:1 #
-1 20:1 #
-1 11:1 #
-1 20:1 #
2 11:1 #
-1 11:1 #
2 20:1 #
-1 20:1 #
-1 11:1 #
-1 20:1 #
2 11:1 #
-1 11:1 #
2 20:1 #
-1 20:1 #
-1 11:1 #
-1 20:1 #
2 11:1 #
-1 11:1 #
2 20:1 #
-1 20:1 #
-1 11:1 #
-1 20:1 #
2 11:1 #
-1 11:1 #
2 20:1 #
-1 20:1 #
-1 11:1 #
-1 20:1 #
2 11:1 #
-1 11:1 #
2 20:1 #
-1 20:1 #
-1 11:1 #
-1 20:1 #
2 11:1 #
-1 11:1 #
2 20:1 #
-1 20:1 #
-1 11:1 #
-1 20:1 #
2 11:1 #
-1 11:1 #
2 20:1 #
-1 20:1 #
-1 11:1 #
-1 20:1 #
2 11:1 #
-1 11:1 #
2 20:1 #
-1 20:1 #
-1 11:1 #
-1 20:1 #
2 11:1 #
-1 11:1 #
2 20:1 #
-1 20:1 #
-1 11:1 #
-1 20:1 #
2 11:1 #
-1 11:1 #
2 20:1 #
-1 20:1 #
-1 11:1 #
-1 20:1 #
2 11:1 #
-1 11:1 #
2 20:1 #
-1 20:1 #
-1 6:1 #
-1 17:1 #
-1 9:1 #
-1 15:1 #
2 13:1 #
2 12:1 #
2 20:1 #
-1 13:1 #
-1 12:1 #
-1 20:1 #
-1 11:1 #
-1 6:1 #
2 11:1 #
-1 11:1 #
-1 19:1 #
-1 16:1 #
-1 5:1 #
2 6:1 #
-1 13:1 #
-1 5:1 #
-1 11:1 #
-1 19:1 #
-1 4:1 #
-1 18:1 #
-1 6:1 #
-1 6:1 #
-1 4:1 #
-1 6:1 #
-1 18:1 #
2 6:1 #
-1 15:1 #
-1 9:1 #
-1 20:1 #
-1 13:1 #
-1 1:1 #
-1 11:1 #
-1 13:1 #
-1 12:1 #
-1 6:1 #
-1 8:1 #
-1 20:1 #
-1 6:1 #
-1 8:1 #
-1 20:1 #
2 6:1 #
-1 6:1 #
-1 11:1 #
-1 6:1 #
2 6:1 #
-1 6:1 #
-1 6:1 #
2 6:1 #
-1 6:1 #
-1 6:1 #
2 6:1 #
-1 6:1 #
-1 6:1 #
2 19:1 #
-1 4:1 #
-1 8:1 #
-1 6:1 #
2 4:1 #
-1 4:1 #
2 6:1 #
-1 6:1 #
-1 4:1 #
-1 13:1 #
2 4:1 #
-1 4:1 #
2 13:1 #
2 6:1 #
-1 12:1 #
-1 8:1 #
-1 4:1 #
2 12:1 #
-0.99781200161057870268166425375966 8:1 #
2 4:1 #
-1 4:1 #
2 8:1 #
-1 8:1 #
-1 4:1 #
2 4:1 #
2 8:1 #
-1 8:1 #
2 8:1 #
-1 8:1 #
-1 8:1 #
2 8:1 #
-1 8:1 #
-1 8:1 #
2 8:1 #
-1 8:1 #
-1 8:1 #
2 8:1 #
-1 8:1 #
-1 8:1 #
2 8:1 #
-1 8:1 #
-1 8:1 #
2 8:1 #
-1 8:1 #
-1 8:1 #
2 8:1 #
-1 8:1 #
-1 8:1 #
2 8:1 #
-1 8:1 #
-1 8:1 #
2 8:1 #
-1 8:1 #
-1 8:1 #
2 8:1 #
-1 8:1 #
-1 8:1 #
2 8:1 #
-1 8:1 #
-1 8:1 #
2 7:1 #
2 5:1 #
-1 8:1 #
2 8:1 #
-1 8:1 #
2 8:1 #
-1 4:1 #
-1 13:1 #
-1 19:1 #
-1 6:1 #
-1 7:1 #
-1 8:1 #
2 8:1 #
-1 7:1 #
-1 12:1 #
-1 8:1 #
-1 8:1 #
-1 19:1 #
-1 6:1 #
-1 5:1 #
2 8:1 #
-1 8:1 #
-1 8:1 #
-1 5:1 #
2 8:1 #
-1 8:1 #
-1 8:1 #
2 8:1 #
-1 8:1 #
-1 8:1 #
2 8:1 #
-1 8:1 #
-1 8:1 #
2 8:1 #
-1 8:1 #
-1 8:1 #
2 8:1 #
-1 8:1 #
-1 8:1 #
2 8:1 #
-1 8:1 #
-1 8:1 #
2 8:1 #
-1 8:1 #
-1 8:1 #
2 8:1 #
-1 8:1 #
-1 8:1 #
2 8:1 #
-1 8:1 #
-1 8:1 #
2 8:1 #
-1 8:1 #
-1 8:1 #
2 8:1 #
-1 8:1 #
-0.50244200577905451243765355684445 8:1 #
2 8:1 #
-1 8:1 #
-1 8:1 #
2 8:1 #
-1 8:1 #
-1 8:1 #
2 8:1 #
-1 8:1 #
-1 8:1 #
2 8:1 #
-1 8:1 #
-1 8:1 #
2 8:1 #
-1 8:1 #
-1 8:1 #
2 8:1 #
-1 8:1 #
-1 8:1 #
2 8:1 #
-1 8:1 #
-1 8:1 #
2 8:1 #
-1 8:1 #
-1 8:1 #
2 8:1 #
-1 8:1 #
-1 8:1 #
2 8:1 #
-1 8:1 #
-1 8:1 #
2 8:1 #
-1 8:1 #
-1 8:1 #
2 8:1 #
-1 8:1 #
-1 8:1 #
2 8:1 #
-1 8:1 #
-1 8:1 #
2 8:1 #
-1 8:1 #
-1 8:1 #
2 8:1 #
-1 8:1 #
-1 8:1 #
2 8:1 #
-1 8:1 #
-1 8:1 #
2 8:1 #
-1 8:1 #
-1 8:1 #
2 8:1 #
-1 8:1 #
-1 8:1 #
2 8:1 #
-1 8:1 #
-1 8:1 #
2 8:1 #
-1 8:1 #
-1 8:1 #
2 8:1 #
-1 8:1 #
-1 8:1 #
2 8:1 #
-1 8:1 #
-1 8:1 #
2 8:1 #
-1 8:1 #
-1 8:1 #
2 8:1 #
-1 8:1 #
-1 8:1 #
2 16:1 #
-1 16:1 #
2 12:1 #
2 7:1 #
-1 3:1 #
-1 15:1 #
-1 8:1 #
2 17:1 #
2 3:1 #
2 15:1 #
-1 17:1 #
-1 15:1 #
-1 3:1 #
-1 16:1 #
-1 12:1 #
-1 7:1 #
2 19:1 #
-1 19:1 #
2 6:1 #
2 1:1 #
-1 1:1 #
2 16:1 #
2 3:1 #
-1 16:1 #
-1 1:1 #
-1 16:1 #
-1 3:1 #
2 1:1 #
-1 1:1 #
-1 3:1 #
2 14:1 #
-1 14:1 #
2 5:1 #
-1 5:1 #
-1 14:1 #
-1 5:1 #
2 14:1 #
-1 14:1 #
2 5:1 #
-1 5:1 #
-1 14:1 #
-1 5:1 #
2 14:1 #
-1 14:1 #
2 5:1 #
-1 5:1 #
-1 14:1 #
-1 5:1 #
2 14:1 #
-1 14:1 #
2 5:1 #
-1 5:1 #
-1 14:1 #
-1 5:1 #
2 14:1 #
-1 14:1 #
2 5:1 #
-1 5:1 #
-1 14:1 #
-1 5:1 #
2 14:1 #
-1 14:1 #
2 5:1 #
-1 5:1 #
-1 14:1 #
-1 5:1 #
2 14:1 #
-1 14:1 #
2 5:1 #
-1 5:1 #
-1 14:1 #
-1 5:1 #
2 14:1 #
-1 14:1 #
2 5:1 #
-1 5:1 #
-1 14:1 #
-1 5:1 #
2 14:1 #
-1 14:1 #
2 5:1 #
-1 5:1 #
-1 14:1 #
-1 7:1 #
-1 3:1 #
-1 15:1 #
2 16:1 #
2 20:1 #
2 5:1 #
2 19:1 #
-1 19:1 #
2 3:1 #
2 15:1 #
-1 5:1 #
-1 20:1 #
-1 19:1 #
-1 3:1 #
-1 20:1 #
-1 5:1 #
2 3:1 #
-1 17:1 #
-1 19:1 #
-1 3:1 #
-1 1:1 #
-1 15:1 #
-1 3:1 #
-1 15:1 #
2 3:1 #
-1 3:1 #
2 15:1 #
-1 15:1 #
-1 3:1 #
-1 15:1 #
2 3:1 #
-1 3:1 #
2 15:1 #
-1 3:1 #
2 3:1 #
-1 3:1 #
-1 3:1 #
2 3:1 #
-1 3:1 #
-1 3:1 #
2 3:1 #
-1 3:1 #
-1 3:1 #
2 3:1 #
-1 3:1 #
-1 3:1 #
2 3:1 #
-1 3:1 #
-1 3:1 #
2 3:1 #
-1 3:1 #
-1 3:1 #
2 3:1 #
-1 3:1 #
-1 3:1 #
2 3:1 #
-1 3:1 #
-1 3:1 #
2 3:1 #
-1 3:1 #
-1 3:1 #
2 3:1 #
-1 3:1 #
-1 3:1 #
2 3:1 #
-1 3:1 #
-1 3:1 #
2 3:1 #
-1 3:1 #
-1 3:1 #
2 3:1 #
-1 3:1 #
-1 3:1 #
2 3:1 #
-1 3:1 #
-1 3:1 #
2 3:1 #
-1 3:1 #
-1 3:1 #
2 3:1 #
-1 3:1 #
-1 3:1 #
2 3:1 #
-1 3:1 #
-1 3:1 #
2 3:1 #
-1 3:1 #
-1 3:1 #
2 3:1 #
-1 3:1 #
-1 3:1 #
2 3:1 #
-1 3:1 #
-1 3:1 #
2 3:1 #
-1 3:1 #
-1 3:1 #
2 3:1 #
-1 3:1 #
-1 3:1 #
2 3:1 #
-1 3:1 #
-1 3:1 #
2 3:1 #
-1 3:1 #
-1 3:1 #
2 3:1 #
-1 3:1 #
-1 3:1 #
2 3:1 #
-1 3:1 #
2 3:1 #
2 3:1 #
-1 3:1 #
-1 3:1 #
2 3:1 #
-1 3:1 #
-1 3:1 #
2 3:1 #
-1 3:1 #
-1 3:1 #
2 3:1 #
-1 3:1 #
-1 3:1 #
2 3:1 #
-1 3:1 #
-1 3:1 #
2 3:1 #
-1 3:1 #
-1 3:1 #
2 3:1 #
-1 3:1 #
-1 3:1 #
2 3:1 #
-1 3:1 #
-1 3:1 #
2 3:1 #
-1 3:1 #
-1 3:1 #
2 3:1 #
-1 3:1 #
-1 3:1 #
2 3:1 #
-1 3:1 #
-1 3:1 #
2 3:1 #
-1 3:1 #
-1 3:1 #
2 3:1 #
-1 3:1 #
-1 3:1 #
2 3:1 #
-1 3:1 #
-1 3:1 #
2 3:1 #
-1 3:1 #
-1 3:1 #
2 3:1 #
-1 3:1 #
-1 3:1 #
2 3:1 #
-1 3:1 #
-1 3:1 #
2 3:1 #
-1 3:1 #
-1 3:1 #
2 3:1 #
-1 3:1 #
-1 3:1 #
2 3:1 #
-1 3:1 #
-1 3:1 #
2 3:1 #
-1 3:1 #
-1 3:1 #
2 3:1 #
-1 3:1 #
-1 3:1 #
2 3:1 #
-1 3:1 #
-1 3:1 #
2 3:1 #
-1 3:1 #
-1 3:1 #
2 3:1 #
-1 3:1 #
-1 3:1 #
2 3:1 #
-1 3:1 #
-1 3:1 #
2 3:1 #
-1 3:1 #
-1 3:1 #
2 3:1 #
-1 3:1 #
-1 3:1 #
2 3:1 #
-1 3:1 #
-1 3:1 #
2 3:1 #
-1 3:1 #
-1 3:1 #
2 3:1 #
-1 3:1 #
-1 3:1 #
2 3:1 #
-1 3:1 #
-1 3:1 #
2 3:1 #
-1 3:1 #
-1 3:1 #
2 3:1 #
-1 3:1 #
-1 3:1 #
-1 3:1 #
2 3:1 #
-1 3:1 #
-1 3:1 #
2 3:1 #
-1 3:1 #
-1 3:1 #
2 3:1 #
-1 3:1 #
-1 3:1 #
2 3:1 #
-1 3:1 #
-1 3:1 #
2 3:1 #
-1 3:1 #
-1 3:1 #
2 3:1 #
-1 3:1 #
-1 3:1 #
2 3:1 #
-1 3:1 #
-1 3:1 #
2 3:1 #
-1 3:1 #
-1 3:1 #
2 3:1 #
-1 3:1 #
-1 3:1 #
2 3:1 #
-1 3:1 #
-1 3:1 #
2 3:1 #
-1 3:1 #
-1 3:1 #
2 3:1 #
-1 3:1 #
-1 3:1 #
2 3:1 #
-1 3:1 #
-1 3:1 #
2 3:1 #
-1 3:1 #
-1 3:1 #
2 3:1 #
-1 3:1 #
-1 3:1 #
2 3:1 #
-1 3:1 #
-1 3:1 #
2 3:1 #
-1 3:1 #
-1 3:1 #
2 3:1 #
-1 3:1 #
-1 3:1 #
2 3:1 #
-1 3:1 #
-1 3:1 #
2 3:1 #
-1 3:1 #
-1 3:1 #
2 3:1 #
-1 3:1 #
-1 3:1 #
2 3:1 #
-1 3:1 #
-1 3:1 #
2 3:1 #
-1 3:1 #
-1 3:1 #
2 3:1 #
-1 3:1 #
-1 3:1 #
2 3:1 #
-1 3:1 #
-1 3:1 #
2 3:1 #
-1 3:1 #
-1 3:1 #
2 3:1 #
-1 3:1 #
-1 3:1 #
2 3:1 #
-1 3:1 #
-1 3:1 #
2 3:1 #
-1 3:1 #
-1 3:1 #
2 3:1 #
-1 3:1 #
-1 3:1 #
2 3:1 #
-1 3:1 #
-1 3:1 #
2 3:1 #
-1 3:1 #
-1 3:1 #
2 3:1 #
-1 3:1 #
-1 3:1 #
-1 3:1 #
2 3:1 #
-1 3:1 #
-1 3:1 #
2 3:1 #
-1 3:1 #
-1 3:1 #
2 3:1 #
-1 3:1 #
-1 3:1 #
2 3:1 #
-1 3:1 #
-1 3:1 #
2 3:1 #
-1 3:1 #
-1 3:1 #
2 3:1 #
-1 3:1 #
-1 3:1 #
2 3:1 #
-1 3:1 #
-1 3:1 #
2 3:1 #
-1 3:1 #
-1 3:1 #
2 3:1 #
-1 3:1 #
-1 3:1 #
2 3:1 #
-1 3:1 #
-1 3:1 #
2 3:1 #
-1 3:1 #
-1 3:1 #
2 3:1 #
-1 3:1 #
-1 3:1 #
2 3:1 #
-1 3:1 #
-1 3:1 #
-1 15:1 #
2 17:1 #
-1 6:1 #
-1 16:1 #
2 15:1 #
-1 15:1 #
-1 5:1 #
-1 15:1 #
-1 12:1 #
-1 3:1 #
2 15:1 #
-1 15:1 #
-1 16:1 #
2 3:1 #
-1 15:1 #
2 15:1 #
-1 15:1 #
-1 3:1 #
-1 15:1 #
-1 6:1 #
2 15:1 #
-1 15:1 #
-1 3:1 #
-1 15:1 #
2 3:1 #
2 15:1 #
-1 3:1 #
-1 15:1 #
-1 3:1 #
-1 15:1 #
2 17:1 #
2 15:1 #
-1 15:1 #
-1 15:1 #
2 15:1 #
-1 15:1 #
-1 15:1 #
2 15:1 #
-1 15:1 #
-1 15:1 #
2 15:1 #
-1 15:1 #
-1 15:1 #
2 15:1 #
-1 15:1 #
-1 15:1 #
2 15:1 #
-1 15:1 #
-1 15:1 #
2 15:1 #
-1 15:1 #
-1 9:1 #
-1 4:1 #
-1 15:1 #
-1 11:1 #
-1 14:1 #
2 15:1 #
2 17:1 #
-1 15:1 #
2 15:1 #
-1 15:1 #
-1 15:1 #
2 15:1 #
-1 15:1 #
-1 15:1 #
2 15:1 #
-1 15:1 #
-1 15:1 #
2 15:1 #
-1 15:1 #
-1 15:1 #
2 15:1 #
-1 15:1 #
-1 15:1 #
2 15:1 #
-1 15:1 #
-1 15:1 #
2 15:1 #
-1 15:1 #
-1 15:1 #
2 15:1 #
-1 15:1 #
-1 15:1 #
2 15:1 #
-1 15:1 #
-1 15:1 #
2 15:1 #
-1 15:1 #
-1 15:1 #
2 15:1 #
-1 15:1 #
-1 15:1 #
2 15:1 #
-1 15:1 #
-1 15:1 #
2 15:1 #
-1 15:1 #
-1 15:1 #
2 15:1 #
-1 15:1 #
-1 15:1 #
2 15:1 #
-1 15:1 #
-1 15:1 #
2 15:1 #
-1 15:1 #
-1 15:1 #
2 15:1 #
-1 15:1 #
-1 15:1 #
2 15:1 #
-1 15:1 #
-1 15:1 #
2 15:1 #
-1 15:1 #
-1 15:1 #
2 15:1 #
-1 15:1 #
-1 15:1 #
2 15:1 #
-1 15:1 #
-1 15:1 #
2 15:1 #
-1 15:1 #
-1 15:1 #
2 15:1 #
-1 15:1 #
-1 15:1 #
2 15:1 #
-1 15:1 #
-1 15:1 #
2 15:1 #
-1 15:1 #
-1 15:1 #
2 15:1 #
-1 15:1 #
-1 15:1 #
2 15:1 #
-1 15:1 #
-1 15:1 #
2 15:1 #
-1 15:1 #
-1 15:1 #
2 15:1 #
-1 15:1 #
-1 15:1 #
2 15:1 #
-1 15:1 #
-1 15:1 #
2 15:1 #
-1 15:1 #
-1 15:1 #
2 15:1 #
-1 15:1 #
-1 15:1 #
2 15:1 #
-1 15:1 #
-1 15:1 #
-1 15:1 #
2 15:1 #
2 15:1 #
-1 15:1 #
-1 15:1 #
2 15:1 #
-1 15:1 #
-1 15:1 #
2 15:1 #
-1 15:1 #
-1 15:1 #
2 15:1 #
-1 15:1 #
-1 15:1 #
2 15:1 #
-1 15:1 #
-1 15:1 #
2 15:1 #
-1 15:1 #
-1 15:1 #
2 15:1 #
-1 15:1 #
-1 15:1 #
2 15:1 #
-1 15:1 #
-1 15:1 #
2 15:1 #
-1 15:1 #
-1 15:1 #
2 15:1 #
-1 15:1 #
-1 15:1 #
2 15:1 #
-1 15:1 #
-1 15:1 #
2 15:1 #
-1 15:1 #
-1 15:1 #
2 15:1 #
-1 15:1 #
-1 15:1 #
2 15:1 #
-1 15:1 #
-1 15:1 #
2 15:1 #
-1 15:1 #
-1 15:1 #
2 15:1 #
-1 15:1 #
-1 15:1 #
2 15:1 #
-1 15:1 #
-1 15:1 #
2 15:1 #
-1 15:1 #
-1 15:1 #
2 15:1 #
-1 15:1 #
-1 15:1 #
2 15:1 #
-1 15:1 #
-1 15:1 #
2 15:1 #
-1 15:1 #
-1 15:1 #
2 15:1 #
-1 15:1 #
-1 15:1 #
2 15:1 #
-1 15:1 #
-1 15:1 #
2 15:1 #
-1 15:1 #
-1 15:1 #
2 15:1 #
-1 15:1 #
-1 15:1 #
2 15:1 #
-1 15:1 #
-1 15:1 #
2 15:1 #
-1 15:1 #
-1 15:1 #
2 15:1 #
-1 15:1 #
-1 15:1 #
2 15:1 #
-1 15:1 #
-1 15:1 #
2 15:1 #
-1 15:1 #
-1 15:1 #
2 15:1 #
-1 15:1 #
-1 15:1 #
2 15:1 #
-1 15:1 #
-1 15:1 #
2 15:1 #
-1 15:1 #
-1 15:1 #
2 15:1 #
-1 15:1 #
2 15:1 #
-1 15:1 #
-1 15:1 #
2 15:1 #
-1 15:1 #
-1 15:1 #
2 15:1 #
-1 15:1 #
-1 15:1 #
2 15:1 #
-1 15:1 #
-1 15:1 #
2 15:1 #
-1 15:1 #
-1 15:1 #
2 15:1 #
-1 15:1 #
-1 15:1 #
2 15:1 #
-1 15:1 #
-1 15:1 #
2 15:1 #
-1 15:1 #
-1 15:1 #
2 15:1 #
-1 15:1 #
-1 15:1 #
2 15:1 #
-1 15:1 #
-1 15:1 #
2 15:1 #
-1 15:1 #
-1 15:1 #
2 15:1 #
-1 15:1 #
-1 15:1 #
2 15:1 #
-1 15:1 #
-1 15:1 #
2 15:1 #
-1 15:1 #
-1 15:1 #
2 15:1 #
-1 15:1 #
-1 15:1 #
2 15:1 #
-1 15:1 #
-1 15:1 #
2 15:1 #
-1 15:1 #
-1 15:1 #
2 15:1 #
-1 15:1 #
-1 15:1 #
2 15:1 #
-1 15:1 #
-1 15:1 #
2 15:1 #
-1 15:1 #
-1 15:1 #
2 15:1 #
-1 15:1 #
-1 15:1 #
2 15:1 #
-1 15:1 #
-1 15:1 #
2 15:1 #
-1 15:1 #
-1 15:1 #
2 15:1 #
-1 15:1 #
-1 15:1 #
2 15:1 #
-1 15:1 #
-1 15:1 #
2 15:1 #
-1 15:1 #
-1 15:1 #
2 15:1 #
-1 15:1 #
-1 15:1 #
2 15:1 #
-1 15:1 #
-1 15:1 #
2 15:1 #
-1 15:1 #
-1 15:1 #
2 15:1 #
-1 15:1 #
-1 15:1 #
2 15:1 #
-1 15:1 #
-1 15:1 #
2 15:1 #
-1 15:1 #
-1 15:1 #
2 15:1 #
-1 15:1 #
-1 15:1 #
2 15:1 #
-1 15:1 #
-1 15:1 #
-1 15:1 #
2 15:1 #
-1 15:1 #
-1 15:1 #
2 15:1 #
-1 15:1 #
-1 15:1 #
2 15:1 #
-1 15:1 #
-1 15:1 #
2 15:1 #
-1 15:1 #
-1 15:1 #
2 15:1 #
-1 15:1 #
-1 15:1 #
2 15:1 #
-1 15:1 #
-1 15:1 #
2 15:1 #
-1 15:1 #
-1 15:1 #
2 15:1 #
-1 15:1 #
-1 15:1 #
2 15:1 #
-1 15:1 #
-1 15:1 #
2 15:1 #
-1 15:1 #
-1 15:1 #
2 15:1 #
-1 15:1 #
-1 15:1 #
2 15:1 #
-1 15:1 #
-1 15:1 #
2 15:1 #
-1 15:1 #
-1 15:1 #
2 15:1 #
-1 15:1 #
-1 15:1 #
2 15:1 #
-1 15:1 #
-1 15:1 #
2 15:1 #
-1 15:1 #
-1 15:1 #
2 15:1 #
-1 15:1 #
-1 15:1 #
2 15:1 #
-1 15:1 #
-1 15:1 #
2 15:1 #
-1 15:1 #
-1 15:1 #
2 15:1 #
-1 15:1 #
-1 15:1 #
2 15:1 #
-1 15:1 #
-1 15:1 #
2 15:1 #
-1 15:1 #
-1 15:1 #
2 15:1 #
-1 15:1 #
-1 15:1 #
2 15:1 #
-1 15:1 #
-1 15:1 #
2 15:1 #
-1 15:1 #
-1 15:1 #
2 15:1 #
-1 15:1 #
-1 15:1 #
2 15:1 #
-1 15:1 #
-1 15:1 #
2 15:1 #
-1 15:1 #
-1 15:1 #
2 15:1 #
-1 15:1 #
-1 15:1 #
2 15:1 #
-1 15:1 #
-1 15:1 #
2 15:1 #
-1 15:1 #
-1 15:1 #
2 15:1 #
-1 15:1 #
-1 15:1 #
2 15:1 #
-1 15:1 #
-1 15:1 #
-1 15:1 #
2 15:1 #
-1 15:1 #
-1 15:1 #
-1 15:1 #
-1 17:1 #
2 4:1 #
-1 17:1 #
2 9:1 #
-1 15:1 #
2 14:1 #
-1 17:1 #
2 15:1 #
-1 15:1 #
2 11:1 #
-1 15:1 #
2 19:1 #
-1 17:1 #
2 15:1 #
2 16:1 #
2 6:1 #
-1 16:1 #
2 12:1 #
-1 12:1 #
-1 16:1 #
-1 12:1 #
-1 6:1 #
2 16:1 #
-1 16:1 #
-1 6:1 #
2 7:1 #
2 1:1 #
-1 1:1 #
-1 7:1 #
-1 1:1 #
-1 7:1 #
-1 9:1 #
-1 14:1 #
2 6:1 #
-1 6:1 #
-1 6:1 #
-1 15:1 #
2 18:1 #
2 5:1 #
-1 5:1 #
-1 18:1 #
2 1:1 #
-1 1:1 #
2 7:1 #
-1 7:1 #
-1 1:1 #
-1 7:1 #
2 1:1 #
-1 1:1 #
2 12:1 #
-1 12:1 #
-1 1:1 #
-1 12:1 #
2 1:1 #
-1 1:1 #
2 12:1 #
-1 12:1 #
-1 1:1 #
-1 12:1 #
2 1:1 #
-1 1:1 #
2 12:1 #
-1 12:1 #
-1 1:1 #
-1 12:1 #
2 1:1 #
-1 1:1 #
2 12:1 #
-1 12:1 #
-1 1:1 #
-1 12:1 #
2 1:1 #
-1 1:1 #
2 12:1 #
-1 12:1 #
-1 1:1 #
-1 12:1 #
2 1:1 #
-1 1:1 #
2 12:1 #
-1 12:1 #
-1 1:1 #
-1 12:1 #
2 1:1 #
-1 1:1 #
2 12:1 #
-1 12:1 #
-1 1:1 #
-1 12:1 #
2 1:1 #
-1 1:1 #
2 12:1 #
-1 12:1 #
-1 1:1 #
-1 12:1 #
2 1:1 #
-1 1:1 #
2 12:1 #
-1 12:1 #
-1 1:1 #
-1 12:1 #
2 1:1 #
-1 1:1 #
2 12:1 #
-1 1:1 #
-1 17:1 #
-1 6:1 #
-1 4:1 #
2 16:1 #
2 20:1 #
2 13:1 #
2 11:1 #
-1 12:1 #
-1 13:1 #
-1 16:1 #
-1 11:1 #
-1 20:1 #
-1 13:1 #
2 6:1 #
2 13:1 #
-1 16:1 #
-1 1:1 #
2 1:1 #
-1 16:1 #
-1 1:1 #
2 16:1 #
-1 16:1 #
-1 1:1 #
2 1:1 #
-1 16:1 #
-1 1:1 #
2 16:1 #
-1 16:1 #
-1 1:1 #
2 1:1 #
-1 16:1 #
-1 1:1 #
2 16:1 #
-1 16:1 #
-1 1:1 #
2 1:1 #
-1 16:1 #
-1 1:1 #
2 16:1 #
-1 16:1 #
-1 1:1 #
2 1:1 #
-1 16:1 #
-1 1:1 #
2 16:1 #
-1 16:1 #
-1 1:1 #
2 1:1 #
-1 16:1 #
-1 1:1 #
2 16:1 #
-1 16:1 #
-1 1:1 #
2 1:1 #
-1 16:1 #
-1 1:1 #
2 16:1 #
-1 16:1 #
-1 1:1 #
2 1:1 #
-1 16:1 #
-1 1:1 #
2 16:1 #
-1 16:1 #
-1 1:1 #
2 1:1 #
-1 16:1 #
-1 1:1 #
2 16:1 #
-1 16:1 #
-1 1:1 #
2 1:1 #
-1 16:1 #
-1 1:1 #
2 16:1 #
-1 16:1 #
-1 1:1 #
2 1:1 #
-1 16:1 #
-1 1:1 #
2 16:1 #
-1 16:1 #
-1 1:1 #
2 1:1 #
-1 16:1 #
-1 1:1 #
2 16:1 #
-1 16:1 #
-1 1:1 #
2 1:1 #
-1 16:1 #
-1 1:1 #
2 16:1 #
-1 16:1 #
-1 1:1 #
2 1:1 #
-1 16:1 #
-1 1:1 #
2 16:1 #
-1 16:1 #
-1 1:1 #
2 1:1 #
-1 16:1 #
-1 1:1 #
2 16:1 #
-1 16:1 #
-1 1:1 #
2 1:1 #
-1 16:1 #
-1 1:1 #
2 16:1 #
-1 16:1 #
-1 1:1 #
2 1:1 #
-1 16:1 #
-1 1:1 #
2 16:1 #
-1 16:1 #
-1 1:1 #
2 1:1 #
-1 16:1 #
-1 1:1 #
2 16:1 #
-1 16:1 #
-1 1:1 #
2 1:1 #
-1 16:1 #
-1 1:1 #
2 16:1 #
-1 12:1 #
-1 15:1 #
-1 5:1 #
-1 20:1 #
-1 7:1 #
2 6:1 #
-1 16:1 #
-1 6:1 #
-1 11:1 #
-1 13:1 #
2 20:1 #
-1 6:1 #
2 15:1 #
-1 11:1 #
-1 6:1 #
-1 11:1 #
-1 1:1 #
2 11:1 #
2 1:1 #
-1 11:1 #
-1 1:1 #
-1 11:1 #
-1 1:1 #
2 11:1 #
2 1:1 #
-1 11:1 #
-1 1:1 #
-1 11:1 #
-1 1:1 #
2 11:1 #
2 1:1 #
-1 11:1 #
-1 1:1 #
-1 11:1 #
-1 1:1 #
2 11:1 #
2 1:1 #
-1 11:1 #
-1 1:1 #
-1 11:1 #
-1 1:1 #
2 11:1 #
2 1:1 #
-1 11:1 #
-1 1:1 #
-1 11:1 #
-1 1:1 #
2 11:1 #
2 1:1 #
-1 11:1 #
-1 1:1 #
-1 11:1 #
-1 1:1 #
2 11:1 #
2 1:1 #
-1 11:1 #
-1 1:1 #
-1 11:1 #
-1 1:1 #
2 11:1 #
2 1:1 #
-1 11:1 #
-1 1:1 #
-1 11:1 #
-1 1:1 #
2 11:1 #
2 1:1 #
-1 11:1 #
-1 1:1 #
-1 11:1 #
-1 1:1 #
2 11:1 #
2 1:1 #
-1 11:1 #
-1 1:1 #
-1 11:1 #
-1 1:1 #
2 11:1 #
2 1:1 #
-1 11:1 #
-1 1:1 #
-1 11:1 #
-1 1:1 #
2 11:1 #
2 1:1 #
-1 11:1 #
-1 1:1 #
-1 11:1 #
-1 1:1 #
2 11:1 #
2 1:1 #
-1 11:1 #
-1 1:1 #
-1 11:1 #
-1 1:1 #
2 11:1 #
2 1:1 #
-1 11:1 #
-1 1:1 #
-1 11:1 #
-1 1:1 #
2 11:1 #
2 1:1 #
-1 11:1 #
-1 1:1 #
-1 11:1 #
-1 1:1 #
2 11:1 #
2 1:1 #
-1 11:1 #
-1 1:1 #
-1 11:1 #
-1 1:1 #
2 11:1 #
2 1:1 #
-1 11:1 #
-1 1:1 #
-1 11:1 #
-1 1:1 #
2 11:1 #
2 1:1 #
-1 11:1 #
-1 1:1 #
-1 11:1 #
-1 1:1 #
2 11:1 #
2 1:1 #
-1 11:1 #
-1 13:1 #
2 19:1 #
-1 15:1 #
-1 12:1 #
2 5:1 #
-1 20:1 #
-1 1:1 #
2 12:1 #
-1 16:1 #
-1 6:1 #
-1 5:1 #
2 6:1 #
-1 6:1 #
-1 1:1 #
2 5:1 #
-1 5:1 #
2 1:1 #
-1 20:1 #
-1 5:1 #
-1 7:1 #
-1 20:1 #
2 7:1 #
2 20:1 #
-1 20:1 #
-1 7:1 #
2 5:1 #
2 9:1 #
2 16:1 #
-1 7:1 #
2 7:1 #
-1 7:1 #
2 20:1 #
-1 7:1 #
2 7:1 #
-1 7:1 #
-1 7:1 #
2 7:1 #
-1 7:1 #
-1 7:1 #
2 7:1 #
-1 7:1 #
-1 7:1 #
2 7:1 #
-1 7:1 #
-1 7:1 #
2 7:1 #
-1 7:1 #
-1 7:1 #
2 7:1 #
-1 7:1 #
-1 7:1 #
2 7:1 #
-1 7:1 #
-1 7:1 #
2 7:1 #
-1 7:1 #
-1 7:1 #
2 7:1 #
-1 7:1 #
-1 7:1 #
2 7:1 #
-1 7:1 #
-1 7:1 #
2 7:1 #
-1 7:1 #
-1 7:1 #
2 7:1 #
-1 7:1 #
-1 7:1 #
2 7:1 #
-1 7:1 #
-1 7:1 #
2 7:1 #
-1 7:1 #
-1 7:1 #
2 7:1 #
-1 7:1 #
-1 7:1 #
2 7:1 #
-1 7:1 #
-1 7:1 #
2 7:1 #
-1 7:1 #
-1 7:1 #
2 7:1 #
-1 7:1 #
-1 7:1 #
2 7:1 #
-1 7:1 #
-1 7:1 #
2 7:1 #
-1 7:1 #
-1 7:1 #
2 7:1 #
-1 7:1 #
-1 7:1 #
2 7:1 #
-1 7:1 #
-1 7:1 #
2 7:1 #
-1 7:1 #
-1 7:1 #
-1 7:1 #
2 7:1 #
2 7:1 #
-1 7:1 #
-1 7:1 #
2 7:1 #
-1 7:1 #
-1 7:1 #
2 7:1 #
-1 7:1 #
-1 7:1 #
2 7:1 #
-1 7:1 #
-1 7:1 #
2 7:1 #
-1 7:1 #
-1 7:1 #
2 7:1 #
-1 7:1 #
-1 7:1 #
2 7:1 #
-1 7:1 #
-1 7:1 #
2 7:1 #
-1 7:1 #
-1 7:1 #
2 7:1 #
-1 7:1 #
-1 7:1 #
2 7:1 #
-1 7:1 #
-1 7:1 #
2 7:1 #
-1 7:1 #
-1 7:1 #
2 7:1 #
-1 7:1 #
-1 7:1 #
2 7:1 #
-1 7:1 #
-1 7:1 #
2 7:1 #
-1 7:1 #
-1 7:1 #
2 7:1 #
-1 7:1 #
-1 7:1 #
2 7:1 #
-1 7:1 #
-1 7:1 #
2 7:1 #
-1 7:1 #
-1 7:1 #
2 7:1 #
-1 7:1 #
-1 7:1 #
2 7:1 #
-1 7:1 #
-1 7:1 #
2 7:1 #
-1 7:1 #
-1 7:1 #
2 7:1 #
-1 7:1 #
-1 7:1 #
2 7:1 #
-1 7:1 #
-1 7:1 #
2 7:1 #
-1 7:1 #
-1 7:1 #
2 7:1 #
-1 7:1 #
-1 7:1 #
2 7:1 #
-1 7:1 #
-1 7:1 #
2 7:1 #
-1 7:1 #
-1 7:1 #
2 7:1 #
-1 7:1 #
-1 7:1 #
2 7:1 #
-1 7:1 #
-1 7:1 #
2 7:1 #
-1 7:1 #
-1 7:1 #
2 7:1 #
-1 7:1 #
-1 7:1 #
2 7:1 #
-1 7:1 #
-1 7:1 #
2 7:1 #
-1 7:1 #
-1 7:1 #
2 7:1 #
-1 7:1 #
-1 7:1 #
-1 7:1 #
2 7:1 #
2 7:1 #
-1 7:1 #
-1 7:1 #
2 7:1 #
-1 7:1 #
-1 7:1 #
2 7:1 #
-1 7:1 #
-1 7:1 #
2 7:1 #
-1 7:1 #
-1 7:1 #
2 7:1 #
-1 7:1 #
-1 7:1 #
2 7:1 #
-1 7:1 #
-1 7:1 #
2 7:1 #
-1 7:1 #
-1 7:1 #
2 7:1 #
-1 7:1 #
-1 7:1 #
2 7:1 #
-1 7:1 #
-1 7:1 #
2 7:1 #
-1 7:1 #
-1 7:1 #
2 7:1 #
-1 7:1 #
-1 7:1 #
2 7:1 #
-0.50348153642336679336466431777808 7:1 #
-1 7:1 #
2 7:1 #
-1 7:1 #
-1 7:1 #
2 7:1 #
-1 7:1 #
-1 7:1 #
2 7:1 #
-1 7:1 #
-1 7:1 #
2 7:1 #
-1 7:1 #
-1 7:1 #
2 7:1 #
-1 7:1 #
-1 7:1 #
2 7:1 #
-1 7:1 #
-1 7:1 #
2 7:1 #
-1 7:1 #
-1 7:1 #
2 7:1 #
-1 7:1 #
-1 7:1 #
2 7:1 #
-1 7:1 #
-1 7:1 #
2 7:1 #
-1 7:1 #
-1 7:1 #
2 7:1 #
-1 7:1 #
-1 7:1 #
2 7:1 #
-1 7:1 #
-1 7:1 #
2 7:1 #
-1 7:1 #
-1 7:1 #
2 7:1 #
-1 7:1 #
-1 7:1 #
2 7:1 #
-1 7:1 #
-1 7:1 #
2 7:1 #
-1 7:1 #
-1 7:1 #
2 7:1 #
-1 7:1 #
-1 7:1 #
2 7:1 #
-1 7:1 #
-1 7:1 #
2 7:1 #
-1 7:1 #
-1 7:1 #
2 7:1 #
-1 7:1 #
-1 7:1 #
2 7:1 #
-1 7:1 #
-1 7:1 #
-1 7:1 #
2 7:1 #
-1 7:1 #
-1 7:1 #
2 7:1 #
-1 7:1 #
-1 7:1 #
2 7:1 #
-1 7:1 #
-1 7:1 #
2 7:1 #
-1 7:1 #
-1 7:1 #
2 7:1 #
-1 7:1 #
-1 7:1 #
2 7:1 #
-1 7:1 #
-1 7:1 #
2 7:1 #
-1 7:1 #
-1 7:1 #
2 7:1 #
-1 7:1 #
-1 7:1 #
2 7:1 #
-1 7:1 #
-1 7:1 #
2 7:1 #
-1 7:1 #
-1 7:1 #
2 7:1 #
-1 7:1 #
-1 7:1 #
2 7:1 #
-1 7:1 #
-1 7:1 #
2 7:1 #
-1 7:1 #
-1 7:1 #
2 7:1 #
-1 7:1 #
-1 7:1 #
2 7:1 #
-1 7:1 #
-1 7:1 #
2 7:1 #
-1 7:1 #
-1 7:1 #
2 7:1 #
-1 7:1 #
-1 7:1 #
2 7:1 #
-1 7:1 #
-1 7:1 #
2 7:1 #
-1 7:1 #
-1 7:1 #
2 7:1 #
-1 7:1 #
-1 7:1 #
2 7:1 #
-1 7:1 #
-1 7:1 #
2 7:1 #
-1 7:1 #
-1 7:1 #
2 7:1 #
-1 7:1 #
-1 7:1 #
2 7:1 #
-1 7:1 #
-1 7:1 #
2 7:1 #
-1 7:1 #
-1 7:1 #
2 7:1 #
-1 7:1 #
-1 7:1 #
2 7:1 #
-1 7:1 #
-1 7:1 #
2 7:1 #
-1 7:1 #
-1 7:1 #
2 7:1 #
-1 7:1 #
-1 7:1 #
2 7:1 #
-1 7:1 #
-1 7:1 #
2 7:1 #
-1 7:1 #
-1 7:1 #
2 7:1 #
-1 7:1 #
-1 7:1 #
2 7:1 #
-1 7:1 #
-1 7:1 #
2 7:1 #
-1 7:1 #
-1 7:1 #
-1 7:1 #
2 7:1 #
-1 7:1 #
-1 7:1 #
2 7:1 #
-1 7:1 #
-1 7:1 #
2 7:1 #
-1 7:1 #
-1 7:1 #
2 7:1 #
-1 7:1 #
-1 7:1 #
2 7:1 #
-1 7:1 #
-1 7:1 #
2 7:1 #
-1 7:1 #
-1 7:1 #
2 7:1 #
-1 7:1 #
-1 7:1 #
2 7:1 #
-1 7:1 #
-1 7:1 #
2 7:1 #
-1 7:1 #
-1 7:1 #
2 7:1 #
-1 7:1 #
-1 7:1 #
2 7:1 #
-1 7:1 #
-1 7:1 #
2 7:1 #
-1 7:1 #
-1 7:1 #
2 7:1 #
-1 16:1 #
-1 19:1 #
-1 9:1 #
-1 7:1 #
-1 16:1 #
-1 9:1 #
-1 5:1 #
2 7:1 #
-1 18:1 #
-1 20:1 #
-1 7:1 #
-1 5:1 #
-1 12:1 #
-1 19:1 #
-0.99636614729879102725362827186473 7:1 #
-1 1:1 #
-1 5:1 #
-1 19:1 #
-1 20:1 #
2 7:1 #
-1 7:1 #
-1 19:1 #
2 6:1 #
-1 9:1 #
2 19:1 #
-1 19:1 #
2 9:1 #
-1 9:1 #
2 17:1 #
-1 20:1 #
-1 9:1 #
2 20:1 #
-1 20:1 #
2 9:1 #
-1 9:1 #
-1 9:1 #
2 12:1 #
-1 9:1 #
2 9:1 #
-1 9:1 #
-1 9:1 #
2 9:1 #
-1 9:1 #
-1 9:1 #
2 9:1 #
-1 19:1 #
2 9:1 #
-1 9:1 #
-1 6:1 #
2 19:1 #
-1 19:1 #
2 1:1 #
-1 17:1 #
2 14:1 #
-1 14:1 #
2 18:1 #
-1 12:1 #
-1 14:1 #
2 5:1 #
2 14:1 #
-1 14:1 #
-1 9:1 #
-1 12:1 #
-1 15:1 #
-1 5:1 #
2 18:1 #
2 16:1 #
2 1:1 #
2 11:1 #
-1 16:1 #
-1 1:1 #
2 15:1 #
-1 15:1 #
-1 18:1 #
2 16:1 #
-1 11:1 #
-1 18:1 #
2 11:1 #
-1 11:1 #
-1 18:1 #
-1 19:1 #
2 18:1 #
-1 18:1 #
-1 16:1 #
-1 18:1 #
-1 14:1 #
2 18:1 #
-1 18:1 #
-1 6:1 #
-1 18:1 #
2 18:1 #
-1 11:1 #
-1 18:1 #
2 11:1 #
-1 11:1 #
-1 18:1 #
2 18:1 #
-1 11:1 #
-1 18:1 #
2 11:1 #
-1 11:1 #
-1 18:1 #
2 18:1 #
-1 11:1 #
-1 18:1 #
2 11:1 #
-1 11:1 #
-1 18:1 #
2 18:1 #
-1 11:1 #
-1 18:1 #
2 11:1 #
-1 11:1 #
-1 18:1 #
2 18:1 #
-1 11:1 #
-1 18:1 #
2 11:1 #
-1 11:1 #
-1 18:1 #
2 18:1 #
-1 11:1 #
-1 18:1 #
2 11:1 #
-1 11:1 #
-1 18:1 #
2 18:1 #
-1 11:1 #
-1 18:1 #
2 11:1 #
-1 11:1 #
-1 18:1 #
2 18:1 #
-1 11:1 #
-1 18:1 #
2 11:1 #
-1 11:1 #
-1 18:1 #
2 18:1 #
-1 11:1 #
-1 18:1 #
2 11:1 #
-1 11:1 #
-1 18:1 #
2 18:1 #
-1 11:1 #
-1 18:1 #
2 11:1 #
-1 11:1 #
-1 18:1 #
2 18:1 #
-1 11:1 #
-1 18:1 #
2 11:1 #
-1 11:1 #
-1 18:1 #
2 18:1 #
-1 11:1 #
-1 18:1 #
2 11:1 #
-1 11:1 #
-1 18:1 #
2 18:1 #
-1 11:1 #
-1 18:1 #
2 11:1 #
-1 11:1 #
-1 18:1 #
2 18:1 #
-1 11:1 #
-1 18:1 #
2 11:1 #
-1 11:1 #
-1 18:1 #
2 18:1 #
-1 6:1 #
-1 17:1 #
-1 11:1 #
-1 16:1 #
2 11:1 #
-1 11:1 #
-1 11:1 #
-1 18:1 #
-1 1:1 #
-1 18:1 #
2 11:1 #
-1 5:1 #
2 18:1 #
-1 18:1 #
-1 16:1 #
-1 11:1 #
2 18:1 #
-1 18:1 #
-1 11:1 #
-1 18:1 #
-1 1:1 #
2 11:1 #
-1 11:1 #
-1 1:1 #
-1 11:1 #
2 11:1 #
2 18:1 #
-1 11:1 #
-1 18:1 #
-1 11:1 #
-1 18:1 #
2 11:1 #
2 18:1 #
-1 11:1 #
-1 18:1 #
-1 11:1 #
-1 18:1 #
2 11:1 #
2 18:1 #
-1 11:1 #
-1 18:1 #
-1 11:1 #
-1 18:1 #
2 11:1 #
2 18:1 #
-1 11:1 #
-1 18:1 #
-1 11:1 #
-1 18:1 #
2 11:1 #
2 18:1 #
-1 11:1 #
-1 18:1 #
-1 11:1 #
-1 18:1 #
2 11:1 #
2 18:1 #
-1 11:1 #
-1 18:1 #
-1 11:1 #
-1 18:1 #
2 11:1 #
2 18:1 #
-1 11:1 #
-1 18:1 #
-1 11:1 #
-1 18:1 #
2 11:1 #
2 18:1 #
-1 11:1 #
-1 18:1 #
-1 11:1 #
-1 18:1 #
2 11:1 #
2 18:1 #
-1 11:1 #
-1 18:1 #
-1 11:1 #
-1 18:1 #
2 11:1 #
2 18:1 #
-1 11:1 #
-1 18:1 #
-1 11:1 #
-1 18:1 #
2 11:1 #
2 18:1 #
-1 11:1 #
-1 18:1 #
-1 11:1 #
-1 18:1 #
2 11:1 #
2 18:1 #
-1 11:1 #
-1 18:1 #
-1 11:1 #
-1 18:1 #
2 11:1 #
2 18:1 #
-1 11:1 #
-1 18:1 #
-1 11:1 #
-1 18:1 #
2 11:1 #
2 18:1 #
-1 11:1 #
-1 18:1 #
-1 11:1 #
-1 11:1 #
-1 11:1 #
-1 11:1 #
-1 11:1 #
2 18:1 #
-1 18:1 #
2 11:1 #
-1 11:1 #
-1 18:1 #
2 18:1 #
-1 11:1 #
-1 18:1 #
2 11:1 #
-1 11:1 #
-1 18:1 #
2 18:1 #
-1 11:1 #
-1 18:1 #
2 11:1 #
-1 11:1 #
-1 18:1 #
2 18:1 #
-1 11:1 #
-1 18:1 #
2 11:1 #
-1 11:1 #
-1 18:1 #
2 18:1 #
-1 11:1 #
-1 18:1 #
2 11:1 #
-1 11:1 #
-1 18:1 #
2 18:1 #
-1 11:1 #
-1 18:1 #
2 11:1 #
-1 11:1 #
-1 18:1 #
2 18:1 #
-1 11:1 #
-1 18:1 #
2 11:1 #
-1 11:1 #
-1 18:1 #
2 18:1 #
-1 11:1 #
-1 18:1 #
2 11:1 #
-1 11:1 #
-1 18:1 #
2 18:1 #
-1 11:1 #
-1 18:1 #
2 11:1 #
-1 11:1 #
-1 18:1 #
2 18:1 #
-1 11:1 #
-1 18:1 #
2 11:1 #
-1 11:1 #
-1 18:1 #
2 18:1 #
-1 11:1 #
-1 18:1 #
2 11:1 #
-1 11:1 #
-1 18:1 #
2 18:1 #
-1 11:1 #
-1 18:1 #
2 11:1 #
-1 11:1 #
-1 18:1 #
2 18:1 #
-1 11:1 #
-1 18:1 #
2 11:1 #
-1 11:1 #
-1 18:1 #
2 18:1 #
-1 11:1 #
-1 18:1 #
2 11:1 #
-1 11:1 #
-1 18:1 #
2 18:1 #
-1 11:1 #
-1 18:1 #
2 11:1 #
-1 18:1 #
-1 11:1 #
-1 11:1 #
2 11:1 #
-1 11:1 #
2 11:1 #
-1 18:1 #
-1 11:1 #
-1 18:1 #
2 11:1 #
-1 11:1 #
-1 18:1 #
-1 11:1 #
2 11:1 #
-1 11:1 #
-1 11:1 #
2 11:1 #
-1 11:1 #
-1 11:1 #
2 11:1 #
-1 11:1 #
-1 11:1 #
2 11:1 #
-1 11:1 #
-1 11:1 #
2 11:1 #
-1 11:1 #
-1 11:1 #
2 11:1 #
-1 11:1 #
-1 11:1 #
2 11:1 #
-1 11:1 #
-1 11:1 #
2 11:1 #
-1 11:1 #
-1 11:1 #
2 11:1 #
-1 11:1 #
-1 11:1 #
2 11:1 #
-1 11:1 #
-1 11:1 #
2 11:1 #
-1 11:1 #
-1 11:1 #
2 11:1 #
-1 11:1 #
-1 11:1 #
2 11:1 #
-1 11:1 #
-1 11:1 #
2 11:1 #
-1 11:1 #
-1 11:1 #
2 11:1 #
-1 11:1 #
-1 11:1 #
2 11:1 #
-1 11:1 #
-1 11:1 #
2 11:1 #
-1 11:1 #
-1 11:1 #
2 11:1 #
-1 11:1 #
-1 11:1 #
2 11:1 #
-1 11:1 #
-1 11:1 #
2 11:1 #
-1 11:1 #
-1 11:1 #
2 11:1 #
-1 11:1 #
-1 11:1 #
2 11:1 #
-1 11:1 #
-1 11:1 #
2 11:1 #
-1 11:1 #
-1 11:1 #
2 11:1 #
-1 11:1 #
-1 11:1 #
2 11:1 #
-1 11:1 #
-1 11:1 #
2 11:1 #
-1 11:1 #
-1 11:1 #
2 11:1 #
-1 11:1 #
-1 11:1 #
2 11:1 #
-1 11:1 #
-1 11:1 #
2 11:1 #
-1 11:1 #
-1 11:1 #
2 11:1 #
-1 11:1 #
-1 11:1 #
2 11:1 #
-1 11:1 #
-1 11:1 #
2 11:1 #
-1 11:1 #
-1 11:1 #
2 11:1 #
-1 11:1 #
-1 11:1 #
2 11:1 #
-1 11:1 #
-1 11:1 #
2 11:1 #
-1 11:1 #
-1 11:1 #
2 11:1 #
-1 11:1 #
-1 11:1 #
2 11:1 #
-1 11:1 #
-1 11:1 #
2 11:1 #
-1 11:1 #
-1 11:1 #
2 11:1 #
-1 11:1 #
-1 11:1 #
2 11:1 #
-1 11:1 #
-1 11:1 #
2 11:1 #
-1 11:1 #
-1 11:1 #
2 11:1 #
-1 11:1 #
-1 11:1 #
2 11:1 #
-1 11:1 #
-1 11:1 #
2 11:1 #
-1 11:1 #
-1 11:1 #
2 11:1 #
-1 11:1 #
-1 11:1 #
2 11:1 #
-1 11:1 #
-1 11:1 #
2 11:1 #
-1 11:1 #
-1 11:1 #
2 11:1 #
-1 11:1 #
-1 11:1 #
2 11:1 #
-1 11:1 #
-1 11:1 #
2 11:1 #
-1 11:1 #
-1 11:1 #
2 11:1 #
-1 11:1 #
-1 11:1 #
2 11:1 #
-1 11:1 #
-1 11:1 #
2 11:1 #
-1 11:1 #
-1 11:1 #
2 11:1 #
-1 11:1 #
-1 11:1 #
2 11:1 #
-1 11:1 #
-1 11:1 #
2 11:1 #
-1 11:1 #
-1 11:1 #
2 11:1 #
-1 11:1 #
-1 11:1 #
2 11:1 #
-1 11:1 #
-1 11:1 #
1.5004650763819171732649238037993 11:1 #
-1 11:1 #
-1 11:1 #
2 11:1 #
-1 11:1 #
-1 11:1 #
2 11:1 #
-1 11:1 #
-1 11:1 #
2 11:1 #
-1 11:1 #
-1 11:1 #
2 11:1 #
-1 11:1 #
-1 11:1 #
2 11:1 #
-1 11:1 #
2 6:1 #
2 19:1 #
-1 11:1 #
-1 16:1 #
-1 9:1 #
-1 4:1 #
-1 1:1 #
2 11:1 #
-1 11:1 #
2 9:1 #
-1 11:1 #
2 16:1 #
-1 20:1 #
-1 14:1 #
2 11:1 #
-1 11:1 #
2 1:1 #
2 14:1 #
-1 11:1 #
2 20:1 #
2 11:1 #
-1 11:1 #
2 4:1 #
-1 11:1 #
-1 11:1 #
2 11:1 #
-1 11:1 #
-1 11:1 #
2 11:1 #
-1 11:1 #
-1 11:1 #
2 11:1 #
-1 11:1 #
-1 11:1 #
2 11:1 #
-1 11:1 #
-1 11:1 #
2 11:1 #
-1 11:1 #
-1 11:1 #
2 11:1 #
-1 11:1 #
-1 11:1 #
2 11:1 #
-1 11:1 #
-1 11:1 #
2 11:1 #
-1 11:1 #
-1 11:1 #
2 11:1 #
-1 11:1 #
-1 11:1 #
2 11:1 #
-1 11:1 #
-1 11:1 #
2 11:1 #
-1 11:1 #
-1 11:1 #
2 11:1 #
-1 11:1 #
-1 11:1 #
2 11:1 #
-1 11:1 #
-1 11:1 #
2 11:1 #
-1 11:1 #
-1 11:1 #
2 11:1 #
-1 11:1 #
-1 11:1 #
2 11:1 #
-1 11:1 #
-1 11:1 #
2 11:1 #
-1 11:1 #
-1 11:1 #
2 11:1 #
-1 11:1 #
-1 11:1 #
2 11:1 #
-1 11:1 #
-1 11:1 #
2 11:1 #
-1 11:1 #
-1 11:1 #
2 11:1 #
-1 11:1 #
-1 11:1 #
2 11:1 #
-1 11:1 #
-1 11:1 #
2 11:1 #
-1 11:1 #
-1 11:1 #
2 11:1 #
-1 11:1 #
-1 11:1 #
2 11:1 #
-1 11:1 #
-1 11:1 #
2 11:1 #
-1 11:1 #
-1 11:1 #
2 11:1 #
-1 11:1 #
-1 11:1 #
2 11:1 #
-1 11:1 #
-1 11:1 #
2 11:1 #
-1 11:1 #
-1 11:1 #
2 11:1 #
-1 11:1 #
-1 11:1 #
2 11:1 #
-1 11:1 #
-1 11:1 #
2 11:1 #
-1 11:1 #
-1 11:1 #
2 11:1 #
-1 11:1 #
-1 11:1 #
2 11:1 #
-1 11:1 #
-1 11:1 #
2 11:1 #
-1 11:1 #
-1 11:1 #
2 11:1 #
-1 11:1 #
-1 11:1 #
2 11:1 #
-1 11:1 #
-1 11:1 #
2 11:1 #
-1 11:1 #
-1 11:1 #
2 11:1 #
-1 11:1 #
2 11:1 #
-1 11:1 #
-1 11:1 #
2 11:1 #
-1 11:1 #
-1 11:1 #
2 11:1 #
-1 11:1 #
-1 11:1 #
2 11:1 #
-1 11:1 #
-1 11:1 #
2 11:1 #
-1 11:1 #
-1 11:1 #
-1 11:1 #
-1 19:1 #
2 11:1 #
-1 14:1 #
-1 6:1 #
-1 9:1 #
2 11:1 #
-1 1:1 #
-1 19:1 #
-1 11:1 #
-1 16:1 #
-1 4:1 #
-1 11:1 #
-1 20:1 #
2 11:1 #
-1 11:1 #
2 11:1 #
-1 11:1 #
-1 11:1 #
2 11:1 #
-1 11:1 #
-1 11:1 #
2 11:1 #
-1 11:1 #
-1 11:1 #
2 11:1 #
-1 11:1 #
-1 11:1 #
2 11:1 #
-1 11:1 #
-1 11:1 #
2 11:1 #
-1 11:1 #
-1 11:1 #
2 11:1 #
-1 11:1 #
-1 11:1 #
2 11:1 #
-1 11:1 #
-1 11:1 #
2 11:1 #
-1 11:1 #
-1 11:1 #
2 11:1 #
-1 11:1 #
-1 11:1 #
2 11:1 #
-1 11:1 #
-1 11:1 #
2 11:1 #
-1 11:1 #
-1 11:1 #
2 11:1 #
-1 11:1 #
-1 11:1 #
2 11:1 #
-1 11:1 #
-1 11:1 #
2 11:1 #
-1 11:1 #
-1 11:1 #
2 11:1 #
-1 11:1 #
-1 11:1 #
2 11:1 #
-1 11:1 #
-1 11:1 #
2 11:1 #
-1 11:1 #
-1 11:1 #
2 11:1 #
-1 11:1 #
-1 11:1 #
2 11:1 #
-1 11:1 #
-1 11:1 #
2 11:1 #
-1 11:1 #
-1 11:1 #
2 11:1 #
-1 11:1 #
-1 11:1 #
2 11:1 #
-1 11:1 #
-1 11:1 #
2 11:1 #
-1 11:1 #
-1 11:1 #
2 11:1 #
-1 11:1 #
-1 11:1 #
-1 11:1 #
2 11:1 #
2 11:1 #
-1 11:1 #
-1 11:1 #
2 11:1 #
-1 11:1 #
-1 11:1 #
2 11:1 #
-1 11:1 #
-1 11:1 #
2 11:1 #
-1 11:1 #
-1 11:1 #
2 11:1 #
-1 11:1 #
-1 11:1 #
2 11:1 #
-1 11:1 #
-1 11:1 #
2 11:1 #
-1 11:1 #
-1 11:1 #
2 11:1 #
-1 11:1 #
-1 11:1 #
2 11:1 #
-1 11:1 #
-1 11:1 #
2 11:1 #
-1 11:1 #
-1 11:1 #
2 11:1 #
-1 11:1 #
-1 11:1 #
2 11:1 #
-1 11:1 #
-1 11:1 #
2 11:1 #
-1 11:1 #
-1 11:1 #
2 11:1 #
-1 11:1 #
-1 11:1 #
2 11:1 #
-1 11:1 #
-1 11:1 #
2 11:1 #
-1 11:1 #
-1 11:1 #
2 11:1 #
-1 11:1 #
-1 11:1 #
2 11:1 #
-1 11:1 #
-1 11:1 #
2 11:1 #
-1 11:1 #
-1 11:1 #
2 11:1 #
-1 11:1 #
-1 11:1 #
2 11:1 #
-1 11:1 #
-1 11:1 #
2 11:1 #
-1 11:1 #
-1 11:1 #
2 11:1 #
-1 11:1 #
-1 11:1 #
2 11:1 #
-1 11:1 #
-1 11:1 #
2 11:1 #
-1 11:1 #
-1 11:1 #
2 11:1 #
-1 11:1 #
-1 11:1 #
2 11:1 #
-1 11:1 #
-1 11:1 #
2 11:1 #
-1 11:1 #
-1 11:1 #
2 11:1 #
-1 11:1 #
-1 11:1 #
2 11:1 #
-1 11:1 #
-1 11:1 #
2 11:1 #
-1 11:1 #
-1 11:1 #
2 11:1 #
-1 11:1 #
-1 11:1 #
2 11:1 #
-1 11:1 #
-1 11:1 #
2 11:1 #
-1 11:1 #
2 11:1 #
-1 11:1 #
-1 11:1 #
2 11:1 #
-1 11:1 #
-1 11:1 #
2 11:1 #
-1 11:1 #
-1 11:1 #
2 11:1 #
-1 11:1 #
-1 11:1 #
2 11:1 #
-1 11:1 #
-1 11:1 #
2 11:1 #
-1 11:1 #
-1 11:1 #
2 11:1 #
-1 11:1 #
-1 11:1 #
2 11:1 #
-1 11:1 #
-1 11:1 #
2 11:1 #
-1 11:1 #
-1 11:1 #
2 11:1 #
-1 11:1 #
-1 11:1 #
2 11:1 #
-1 11:1 #
-1 11:1 #
2 11:1 #
-1 11:1 #
-1 11:1 #
2 11:1 #
-1 11:1 #
-1 11:1 #
2 11:1 #
-1 11:1 #
-1 11:1 #
2 11:1 #
-1 11:1 #
-1 11:1 #
2 11:1 #
-1 11:1 #
-1 11:1 #
2 11:1 #
-1 11:1 #
-1 11:1 #
2 11:1 #
-1 11:1 #
-1 11:1 #
2 11:1 #
-1 11:1 #
-1 11:1 #
2 11:1 #
-1 11:1 #
-1 11:1 #
2 11:1 #
-1 11:1 #
-1 11:1 #
2 11:1 #
-1 11:1 #
-1 11:1 #
2 11:1 #
-1 11:1 #
-1 11:1 #
2 11:1 #
-1 11:1 #
-1 11:1 #
2 11:1 #
-1 11:1 #
-1 11:1 #
2 11:1 #
-1 11:1 #
-1 11:1 #
2 11:1 #
-1 11:1 #
-1 11:1 #
2 11:1 #
-1 11:1 #
-1 11:1 #
2 11:1 #
-1 11:1 #
-1 11:1 #
2 11:1 #
-1 11:1 #
-1 11:1 #
2 11:1 #
-1 11:1 #
-1 11:1 #
2 11:1 #
-1 11:1 #
-1 11:1 #
2 11:1 #
-1 11:1 #
-1 11:1 #
2 11:1 #
-1 11:1 #
-1 11:1 #
-1 11:1 #
2 11:1 #
-1 11:1 #
-1 11:1 #
2 11:1 #
-1 11:1 #
-1 11:1 #
2 11:1 #
-1 11:1 #
-1 11:1 #
2 11:1 #
-1 11:1 #
-1 11:1 #
2 11:1 #
-1 11:1 #
-1 11:1 #
2 11:1 #
-1 11:1 #
-1 11:1 #
2 11:1 #
-1 11:1 #
-1 11:1 #
2 11:1 #
-1 11:1 #
-1 11:1 #
2 11:1 #
-1 11:1 #
-1 11:1 #
2 11:1 #
-1 11:1 #
-1 11:1 #
2 11:1 #
-1 11:1 #
-1 11:1 #
2 11:1 #
-1 11:1 #
-1 11:1 #
2 11:1 #
-1 11:1 #
-1 11:1 #
2 11:1 #
-1 11:1 #
-1 11:1 #
2 11:1 #
-1 11:1 #
-1 11:1 #
2 11:1 #
-1 11:1 #
-1 11:1 #
2 11:1 #
-1 11:1 #
-1 11:1 #
-1 11:1 #
2 11:1 #
-1 11:1 #
-1 11:1 #
2 11:1 #
-1 11:1 #
-1 11:1 #
2 11:1 #
-1 11:1 #
-1 11:1 #
2 11:1 #
-1 11:1 #
-1 11:1 #
2 11:1 #
-1 11:1 #
-1 11:1 #
2 11:1 #
-1 11:1 #
-1 11:1 #
2 11:1 #
-1 11:1 #
-1 11:1 #
2 11:1 #
-1 11:1 #
-1 11:1 #
2 11:1 #
-1 11:1 #
-1 11:1 #
2 11:1 #
-1 11:1 #
-1 11:1 #
2 11:1 #
-1 11:1 #
-1 11:1 #
2 11:1 #
-1 11:1 #
-1 11:1 #
2 11:1 #
-1 11:1 #
-1 11:1 #
2 11:1 #
-1 11:1 #
-1 11:1 #
2 11:1 #
-1 11:1 #
-1 11:1 #
2 11:1 #
-1 11:1 #
-1 11:1 #
2 11:1 #
-1 11:1 #
-1 11:1 #
2 11:1 #
-1 11:1 #
-1 11:1 #
2 11:1 #
-1 11:1 #
-1 11:1 #
2 11:1 #
-1 11:1 #
-1 11:1 #
2 11:1 #
-1 11:1 #
-1 11:1 #
2 11:1 #
-1 11:1 #
-1 11:1 #
2 11:1 #
-1 11:1 #
-1 11:1 #
2 11:1 #
-1 11:1 #
-1 11:1 #
2 11:1 #
-1 11:1 #
-1 11:1 #
2 11:1 #
-1 11:1 #
-1 11:1 #
2 11:1 #
-1 11:1 #
-1 11:1 #
2 11:1 #
-1 11:1 #
-1 11:1 #
2 11:1 #
-1 11:1 #
-1 11:1 #
2 11:1 #
-1 11:1 #
-1 11:1 #
2 11:1 #
-1 11:1 #
-1 11:1 #
2 11:1 #
-1 11:1 #
-1 11:1 #
2 11:1 #
-1 11:1 #
-1 11:1 #
2 11:1 #
-1 11:1 #
-1 11:1 #
2 11:1 #
-1 11:1 #
-1 11:1 #
2 11:1 #
-1 11:1 #
-1 11:1 #
2 11:1 #
-1 11:1 #
-1 11:1 #
2 11:1 #
-1 11:1 #
-1 11:1 #
2 11:1 #
-1 11:1 #
-1 11:1 #
2 11:1 #
-1 11:1 #
-1 11:1 #
2 11:1 #
-1 11:1 #
-1 11:1 #
2 11:1 #
-1 11:1 #
-1 11:1 #
2 11:1 #
-1 11:1 #
-1 11:1 #
2 11:1 #
-1 11:1 #
-1 11:1 #
2 11:1 #
-1 11:1 #
-1 11:1 #
2 11:1 #
-1 11:1 #
-1 11:1 #
2 11:1 #
-1 11:1 #
-1 11:1 #
2 11:1 #
-1 11:1 #
-1 11:1 #
-1 11:1 #
-1 11:1 #
2 11:1 #
-1 11:1 #
-1 11:1 #
2 11:1 #
-1 11:1 #
-1 11:1 #
2 11:1 #
-1 11:1 #
-1 11:1 #
2 11:1 #
-1 11:1 #
2 11:1 #
-1 11:1 #
2 11:1 #
-1 11:1 #
2 19:1 #
2 6:1 #
-1 19:1 #
2 17:1 #
-1 17:1 #
2 12:1 #
-1 6:1 #
-1 17:1 #
-1 6:1 #
2 17:1 #
-1 17:1 #
2 6:1 #
-1 6:1 #
-1 17:1 #
-1 6:1 #
2 17:1 #
-1 17:1 #
2 6:1 #
-1 6:1 #
-1 17:1 #
-1 6:1 #
2 17:1 #
-1 17:1 #
2 6:1 #
-1 6:1 #
-1 17:1 #
-1 6:1 #
2 17:1 #
-1 17:1 #
2 6:1 #
-1 6:1 #
-1 17:1 #
-1 6:1 #
2 17:1 #
-1 17:1 #
2 6:1 #
-1 6:1 #
-1 17:1 #
-1 6:1 #
2 17:1 #
-1 17:1 #
2 6:1 #
-1 6:1 #
-1 17:1 #
-1 6:1 #
2 17:1 #
-1 17:1 #
2 6:1 #
-1 6:1 #
-1 17:1 #
-1 6:1 #
2 17:1 #
-1 17:1 #
2 6:1 #
-1 6:1 #
-1 17:1 #
-1 6:1 #
2 17:1 #
-1 17:1 #
2 6:1 #
-1 6:1 #
-1 17:1 #
-1 6:1 #
2 17:1 #
-1 17:1 #
2 6:1 #
-1 6:1 #
-1 17:1 #
-1 6:1 #
2 17:1 #
-1 17:1 #
2 6:1 #
-1 6:1 #
-1 17:1 #
-1 6:1 #
2 17:1 #
-1 17:1 #
2 6:1 #
-1 6:1 #
-1 17:1 #
-1 6:1 #
2 17:1 #
-1 17:1 #
2 6:1 #
-1 6:1 #
-1 17:1 #
-1 6:1 #
2 17:1 #
-1 17:1 #
-1 14:1 #
-1 20:1 #
-1 4:1 #
-1 17:1 #
-1 7:1 #
2 1:1 #
2 13:1 #
-1 13:1 #
2 4:1 #
-1 1:1 #
2 14:1 #
-1 4:1 #
2 20:1 #
-1 14:1 #
-1 13:1 #
-1 20:1 #
-1 4:1 #
-1 14:1 #
-1 1:1 #
-1 20:1 #
2 4:1 #
-1 4:1 #
2 20:1 #
-1 20:1 #
-1 4:1 #
-1 20:1 #
2 4:1 #
-1 4:1 #
2 20:1 #
-1 19:1 #
-1 4:1 #
-1 19:1 #
2 4:1 #
-1 4:1 #
2 14:1 #
-1 14:1 #
-1 4:1 #
-1 14:1 #
2 4:1 #
-1 4:1 #
2 14:1 #
-1 4:1 #
2 4:1 #
-1 4:1 #
-1 4:1 #
-1 4:1 #
2 4:1 #
-1 4:1 #
-1 4:1 #
2 4:1 #
2 4:1 #
-1 4:1 #
2 19:1 #
-1 14:1 #
-1 12:1 #
-1 20:1 #
-1 4:1 #
-1 12:1 #
2 4:1 #
-1 4:1 #
-1 4:1 #
2 4:1 #
-1 4:1 #
-1 4:1 #
2 4:1 #
-1 4:1 #
-1 4:1 #
2 4:1 #
-1 4:1 #
-1 4:1 #
2 4:1 #
-1 4:1 #
-1 4:1 #
2 4:1 #
-1 4:1 #
-1 4:1 #
2 4:1 #
-1 4:1 #
-1 4:1 #
2 4:1 #
-1 4:1 #
-1 4:1 #
2 4:1 #
-1 4:1 #
-1 4:1 #
2 4:1 #
-1 4:1 #
-1 4:1 #
2 4:1 #
-1 4:1 #
-1 4:1 #
2 4:1 #
-1 4:1 #
-1 4:1 #
2 4:1 #
-1 4:1 #
-1 4:1 #
2 4:1 #
-1 4:1 #
-1 4:1 #
2 4:1 #
-1 4:1 #
-1 4:1 #
2 4:1 #
-1 4:1 #
-1 4:1 #
2 4:1 #
-1 4:1 #
-1 4:1 #
2 4:1 #
-1 4:1 #
-1 4:1 #
2 4:1 #
-1 4:1 #
-1 4:1 #
-1 4:1 #
-1 6:1 #
-1 13:1 #
-1 17:1 #
2 19:1 #
2 4:1 #
-1 4:1 #
2 4:1 #
-1 4:1 #
-1 4:1 #
-1 19:1 #
2 13:1 #
-1 19:1 #
2 17:1 #
-1 16:1 #
2 6:1 #
-1 9:1 #
2 16:1 #
-1 16:1 #
2 9:1 #
-1 9:1 #
2 12:1 #
-1 19:1 #
-1 12:1 #
2 20:1 #
-1 20:1 #
-1 12:1 #
-1 20:1 #
-1 9:1 #
2 9:1 #
-1 16:1 #
2 16:1 #
-1 9:1 #
-1 16:1 #
-1 16:1 #
2 16:1 #
-1 16:1 #
-1 16:1 #
2 16:1 #
-1 16:1 #
-1 16:1 #
2 16:1 #
2 12:1 #
-1 6:1 #
-1 12:1 #
2 9:1 #
2 20:1 #
-1 9:1 #
-1 20:1 #
-1 12:1 #
-1 9:1 #
2 6:1 #
-1 6:1 #
2 12:1 #
-1 12:1 #
-1 6:1 #
-1 12:1 #
2 6:1 #
-1 6:1 #
2 12:1 #
-1 12:1 #
-1 6:1 #
-1 12:1 #
2 6:1 #
-1 6:1 #
2 12:1 #
-1 12:1 #
-1 6:1 #
-1 12:1 #
2 6:1 #
-1 6:1 #
2 12:1 #
-1 12:1 #
-1 6:1 #
-1 12:1 #
2 6:1 #
-1 6:1 #
2 12:1 #
-1 12:1 #
-1 6:1 #
-1 12:1 #
2 6:1 #
-1 6:1 #
2 12:1 #
-1 12:1 #
-1 6:1 #
-1 12:1 #
2 6:1 #
-1 6:1 #
2 12:1 #
-1 12:1 #
-1 6:1 #
-1 12:1 #
2 6:1 #
-1 6:1 #
2 12:1 #
-1 12:1 #
-1 6:1 #
-1 12:1 #
2 6:1 #
-1 6:1 #
2 12:1 #
-1 12:1 #
-1 6:1 #
-1 12:1 #
2 6:1 #
-1 6:1 #
2 12:1 #
-1 12:1 #
-1 6:1 #
-1 12:1 #
2 6:1 #
-1 6:1 #
-1 17:1 #
-1 4:1 #
-1 16:1 #
-1 3:1 #
-1 12:1 #
2 5:1 #
2 20:1 #
2 13:1 #
2 1:1 #
2 6:1 #
-1 13:1 #
2 12:1 #
2 4:1 #
-1 1:1 #
-1 5:1 #
-1 12:1 #
2 9:1 #
-1 9:1 #
2 14:1 #
-1 14:1 #
2 18:1 #
-1 18:1 #
2 16:1 #
-1 16:1 #
2 15:1 #
-1 15:1 #
-1 16:1 #
-1 15:1 #
2 16:1 #
-1 16:1 #
2 15:1 #
-1 15:1 #
-1 16:1 #
-1 15:1 #
2 16:1 #
-1 16:1 #
2 15:1 #
-1 15:1 #
-1 16:1 #
-1 15:1 #
2 16:1 #
-1 16:1 #
2 15:1 #
-1 15:1 #
-1 16:1 #
-1 15:1 #
2 16:1 #
-1 16:1 #
2 15:1 #
-1 15:1 #
-1 16:1 #
-1 15:1 #
2 16:1 #
-1 16:1 #
2 15:1 #
-1 15:1 #
-1 16:1 #
-1 15:1 #
2 16:1 #
-1 16:1 #
2 15:1 #
-1 15:1 #
-1 16:1 #
-1 15:1 #
2 16:1 #
-1 16:1 #
2 15:1 #
-1 15:1 #
-1 16:1 #
-1 15:1 #
2 16:1 #
-1 16:1 #
2 15:1 #
-1 15:1 #
-1 16:1 #
-1 15:1 #
2 16:1 #
-1 16:1 #
2 15:1 #
-1 15:1 #
-1 16:1 #
-1 15:1 #
2 16:1 #
-1 16:1 #
2 15:1 #
-1 15:1 #
-1 16:1 #
-1 15:1 #
2 16:1 #
-1 16:1 #
2 15:1 #
-1 15:1 #
-1 16:1 #
-1 15:1 #
2 16:1 #
-1 16:1 #
2 15:1 #
-1 15:1 #
-1 16:1 #
-1 15:1 #
2 16:1 #
-1 16:1 #
2 15:1 #
-1 15:1 #
-1 16:1 #
-1 15:1 #
2 16:1 #
-1 16:1 #
2 15:1 #
-1 15:1 #
-1 16:1 #
-1 15:1 #
2 16:1 #
-1 16:1 #
2 15:1 #
-1 15:1 #
-1 16:1 #
-1 15:1 #
2 16:1 #
-1 16:1 #
2 15:1 #
-1 15:1 #
-1 16:1 #
-1 15:1 #
2 16:1 #
-1 16:1 #
2 15:1 #
-1 15:1 #
-1 16:1 #
-1 15:1 #
2 16:1 #
-1 16:1 #
2 15:1 #
-1 15:1 #
-1 16:1 #
-1 15:1 #
2 16:1 #
-1 16:1 #
2 15:1 #
-1 15:1 #
-1 16:1 #
-1 15:1 #
2 16:1 #
-1 16:1 #
2 15:1 #
-1 15:1 #
-1 16:1 #
-1 15:1 #
2 16:1 #
-1 16:1 #
2 15:1 #
-1 15:1 #
-1 16:1 #
-1 15:1 #
2 16:1 #
-1 16:1 #
2 15:1 #
-1 15:1 #
-1 16:1 #
-1 17:1 #
-1 4:1 #
-1 15:1 #
-1 12:1 #
-1 13:1 #
2 1:1 #
2 9:1 #
2 16:1 #
-1 9:1 #
-1 16:1 #
2 15:1 #
-1 18:1 #
-1 14:1 #
2 14:1 #
-1 6:1 #
-1 14:1 #
-1 15:1 #
-1 14:1 #
2 14:1 #
-1 15:1 #
-1 14:1 #
2 15:1 #
-1 15:1 #
-1 14:1 #
2 14:1 #
-1 15:1 #
-1 14:1 #
2 15:1 #
-1 15:1 #
-1 14:1 #
2 14:1 #
-1 15:1 #
-1 14:1 #
2 15:1 #
-1 15:1 #
-1 14:1 #
2 14:1 #
-1 15:1 #
-1 14:1 #
2 15:1 #
-1 15:1 #
-1 14:1 #
2 14:1 #
-1 15:1 #
-1 14:1 #
2 15:1 #
-1 15:1 #
-1 14:1 #
2 14:1 #
-1 15:1 #
-1 14:1 #
2 15:1 #
-1 15:1 #
-1 14:1 #
2 14:1 #
-1 15:1 #
-1 14:1 #
2 15:1 #
-1 15:1 #
-1 14:1 #
2 14:1 #
-1 15:1 #
-1 14:1 #
2 15:1 #
-1 15:1 #
-1 14:1 #
2 14:1 #
-1 15:1 #
-1 14:1 #
2 15:1 #
-1 15:1 #
-1 14:1 #
2 14:1 #
-1 15:1 #
-1 14:1 #
2 15:1 #
-1 15:1 #
-1 14:1 #
2 14:1 #
-1 15:1 #
-1 14:1 #
2 15:1 #
-1 15:1 #
-1 14:1 #
2 14:1 #
-1 15:1 #
-1 14:1 #
2 15:1 #
-1 15:1 #
-1 14:1 #
2 14:1 #
-1 15:1 #
-1 14:1 #
2 15:1 #
-1 15:1 #
-1 14:1 #
2 14:1 #
-1 15:1 #
-1 14:1 #
2 15:1 #
-1 15:1 #
-1 14:1 #
2 14:1 #
-1 15:1 #
-1 14:1 #
2 15:1 #
-1 15:1 #
-1 1:1 #
-1 5:1 #
-1 14:1 #
-1 13:1 #
2 9:1 #
2 16:1 #
-1 9:1 #
-1 16:1 #
2 14:1 #
-1 9:1 #
-1 14:1 #
-1 16:1 #
-1 14:1 #
2 16:1 #
2 14:1 #
-1 16:1 #
-1 14:1 #
-1 16:1 #
2 16:1 #
-1 14:1 #
2 14:1 #
-1 16:1 #
-1 14:1 #
-1 16:1 #
2 16:1 #
-1 14:1 #
2 14:1 #
-1 16:1 #
-1 14:1 #
-1 16:1 #
2 16:1 #
-1 14:1 #
2 14:1 #
-1 16:1 #
-1 14:1 #
-1 16:1 #
2 16:1 #
-1 14:1 #
2 14:1 #
-1 16:1 #
-1 14:1 #
-1 16:1 #
2 16:1 #
-1 14:1 #
2 14:1 #
-1 16:1 #
-1 14:1 #
-1 16:1 #
2 16:1 #
-1 14:1 #
2 14:1 #
-1 16:1 #
-1 14:1 #
-1 16:1 #
2 16:1 #
-1 14:1 #
2 14:1 #
-1 16:1 #
-1 14:1 #
-1 16:1 #
2 16:1 #
-1 14:1 #
2 14:1 #
-1 16:1 #
-1 14:1 #
-1 16:1 #
2 16:1 #
-1 14:1 #
2 14:1 #
-1 16:1 #
-1 14:1 #
-1 16:1 #
2 16:1 #
-1 14:1 #
2 14:1 #
-1 16:1 #
-1 14:1 #
-1 16:1 #
2 16:1 #
-1 14:1 #
2 14:1 #
-1 16:1 #
-1 14:1 #
-1 16:1 #
2 16:1 #
-1 14:1 #
2 14:1 #
-1 16:1 #
-1 14:1 #
-1 16:1 #
2 16:1 #
-1 14:1 #
2 14:1 #
-1 16:1 #
-1 14:1 #
-1 16:1 #
2 16:1 #
-1 14:1 #
2 14:1 #
-1 16:1 #
-1 14:1 #
-1 16:1 #
2 16:1 #
-1 14:1 #
2 14:1 #
-1 16:1 #
-1 14:1 #
-1 16:1 #
-1 13:1 #
-1 15:1 #
2 18:1 #
2 16:1 #
-1 16:1 #
-1 18:1 #
2 15:1 #
-1 9:1 #
-1 18:1 #
2 9:1 #
2 18:1 #
-1 9:1 #
-1 18:1 #
-1 9:1 #
2 9:1 #
-1 18:1 #
2 18:1 #
-1 9:1 #
-1 18:1 #
-1 9:1 #
2 9:1 #
-1 18:1 #
2 18:1 #
-1 9:1 #
-1 18:1 #
-1 9:1 #
2 9:1 #
-1 18:1 #
2 18:1 #
-1 9:1 #
-1 18:1 #
-1 9:1 #
2 9:1 #
-1 18:1 #
2 18:1 #
-1 9:1 #
-1 18:1 #
-1 9:1 #
2 9:1 #
-1 18:1 #
2 18:1 #
-1 9:1 #
-1 18:1 #
-1 9:1 #
2 9:1 #
-1 18:1 #
2 18:1 #
-1 9:1 #
-1 18:1 #
-1 9:1 #
2 9:1 #
-1 18:1 #
2 18:1 #
-1 9:1 #
-1 18:1 #
-1 9:1 #
2 9:1 #
-1 18:1 #
2 18:1 #
-1 9:1 #
-1 18:1 #
-1 9:1 #
2 9:1 #
-1 18:1 #
2 18:1 #
-1 9:1 #
-1 18:1 #
-1 9:1 #
2 9:1 #
-1 18:1 #
2 18:1 #
-1 9:1 #
-1 18:1 #
-1 9:1 #
2 9:1 #
-1 18:1 #
2 18:1 #
-1 9:1 #
-1 18:1 #
-1 9:1 #
2 9:1 #
-1 18:1 #
2 18:1 #
-1 9:1 #
-1 18:1 #
-1 9:1 #
2 9:1 #
-1 18:1 #
2 18:1 #
-1 9:1 #
-1 18:1 #
-1 9:1 #
2 9:1 #
-1 18:1 #
2 18:1 #
-1 9:1 #
-1 18:1 #
-1 9:1 #
2 9:1 #
-1 18:1 #
2 18:1 #
-1 9:1 #
-1 18:1 #
-1 9:1 #
2 9:1 #
-1 16:1 #
-1 15:1 #
2 9:1 #
2 16:1 #
-1 9:1 #
-1 18:1 #
2 18:1 #
-1 15:1 #
-1 18:1 #
-1 6:1 #
-1 20:1 #
2 15:1 #
-1 15:1 #
-1 14:1 #
-1 15:1 #
-1 20:1 #
2 15:1 #
-1 15:1 #
2 14:1 #
-1 6:1 #
-1 15:1 #
-1 18:1 #
2 15:1 #
-1 15:1 #
-1 18:1 #
-1 15:1 #
2 18:1 #
-1 18:1 #
2 15:1 #
-1 15:1 #
-1 18:1 #
-1 15:1 #
2 18:1 #
-1 18:1 #
2 15:1 #
-1 15:1 #
-1 18:1 #
-1 15:1 #
2 18:1 #
-1 18:1 #
2 15:1 #
-1 15:1 #
-1 18:1 #
-1 9:1 #
-1 15:1 #
-1 9:1 #
2 15:1 #
-1 15:1 #
-1 9:1 #
2 9:1 #
-1 15:1 #
-1 9:1 #
2 15:1 #
-1 15:1 #
-1 9:1 #
-1 15:1 #
2 9:1 #
-1 9:1 #
2 15:1 #
-1 15:1 #
-1 9:1 #
-1 15:1 #
2 9:1 #
-1 9:1 #
2 15:1 #
-1 15:1 #
-1 9:1 #
-1 15:1 #
2 9:1 #
-1 9:1 #
2 15:1 #
-1 15:1 #
-1 9:1 #
-1 15:1 #
2 9:1 #
-1 9:1 #
2 15:1 #
-1 15:1 #
-1 9:1 #
-1 15:1 #
2 9:1 #
-1 9:1 #
2 15:1 #
-1 15:1 #
-1 9:1 #
-1 15:1 #
2 9:1 #
-1 9:1 #
2 15:1 #
-1 15:1 #
-1 9:1 #
-1 15:1 #
2 9:1 #
-1 9:1 #
2 15:1 #
-1 15:1 #
-1 9:1 #
-1 15:1 #
2 9:1 #
-1 9:1 #
2 15:1 #
-1 15:1 #
-1 9:1 #
-1 15:1 #
2 9:1 #
-1 9:1 #
2 15:1 #
-1 15:1 #
-1 9:1 #
-1 20:1 #
-1 16:1 #
-1 5:1 #
-1 14:1 #
2 18:1 #
-1 15:1 #
-1 16:1 #
2 15:1 #
-1 18:1 #
-0.49999999999999822364316059974954 14:1 #
2 16:1 #
-1 16:1 #
2 18:1 #
-1 16:1 #
-1 18:1 #
-1 20:1 #
2 16:1 #
-1 16:1 #
2 9:1 #
-1 16:1 #
-1 15:1 #
2 16:1 #
-1 16:1 #
-1 15:1 #
2 15:1 #
-1 15:1 #
-1 15:1 #
2 16:1 #
2 15:1 #
-1 15:1 #
2 14:1 #
-1 16:1 #
2 17:1 #
-1 14:1 #
2 13:1 #
2 12:1 #
-1 15:1 #
2 5:1 #
-1 9:1 #
2 20:1 #
-1 9:1 #
2 6:1 #
-1 16:1 #
2 9:1 #
-1 9:1 #
2 19:1 #
-1 9:1 #
2 1:1 #
-1 14:1 #
-1 16:1 #
2 9:1 #
-1 9:1 #
2 16:1 #
-1 16:1 #
-1 9:1 #
-1 16:1 #
2 9:1 #
-1 9:1 #
2 16:1 #
-1 16:1 #
-1 9:1 #
-1 16:1 #
2 16:1 #
-1 16:1 #
-1 15:1 #
-1 16:1 #
2 15:1 #
-1 15:1 #
2 16:1 #
-1 16:1 #
-1 15:1 #
2 15:1 #
-1 15:1 #
-1 15:1 #
2 4:1 #
-1 15:1 #
2 15:1 #
-1 15:1 #
-1 15:1 #
2 15:1 #
-1 15:1 #
-1 15:1 #
2 15:1 #
-1 15:1 #
2 15:1 #
-1 12:1 #
2 14:1 #
-1 14:1 #
-1 5:1 #
-1 20:1 #
-1 13:1 #
2 5:1 #
-1 9:1 #
2 20:1 #
-1 20:1 #
-1 19:1 #
-1 20:1 #
-1 16:1 #
-1 19:1 #
-1 1:1 #
-1 15:1 #
-1 5:1 #
-1 6:1 #
-1 14:1 #
-1 6:1 #
-1 16:1 #
-1 1:1 #
-1 5:1 #
-1 17:1 #
-1 4:1 #
-1 5:1 #
-1 4:1 #
-1 17:1 #
2 5:1 #
2 17:1 #
-1 5:1 #
-1 5:1 #
2 12:1 #
-1 5:1 #
2 5:1 #
-1 5:1 #
-1 5:1 #
2 5:1 #
-1 5:1 #
2 5:1 #
-1 5:1 #
-1 5:1 #
2 5:1 #
-1 5:1 #
-1 5:1 #
2 5:1 #
-1 12:1 #
2 6:1 #
-1 6:1 #
2 19:1 #
-1 17:1 #
-1 6:1 #
2 9:1 #
-1 9:1 #
2 6:1 #
-1 6:1 #
-1 9:1 #
-1 6:1 #
2 9:1 #
-1 9:1 #
2 6:1 #
-1 6:1 #
-1 9:1 #
-1 6:1 #
2 9:1 #
-1 9:1 #
2 6:1 #
-1 6:1 #
-1 9:1 #
-1 6:1 #
2 9:1 #
-1 9:1 #
2 6:1 #
-1 6:1 #
-1 9:1 #
-1 6:1 #
2 9:1 #
-1 9:1 #
2 6:1 #
-1 6:1 #
-1 9:1 #
-1 6:1 #
2 9:1 #
-1 9:1 #
2 6:1 #
-1 6:1 #
-1 9:1 #
-1 6:1 #
2 9:1 #
-1 9:1 #
2 6:1 #
-1 6:1 #
-1 9:1 #
-1 6:1 #
2 9:1 #
-1 9:1 #
2 6:1 #
-1 6:1 #
-1 9:1 #
-1 6:1 #
2 9:1 #
-1 9:1 #
2 6:1 #
-1 6:1 #
-1 9:1 #
-1 6:1 #
2 17:1 #
-1 17:1 #
2 6:1 #
-1 6:1 #
-1 17:1 #
-1 6:1 #
2 17:1 #
-1 17:1 #
2 6:1 #
-1 6:1 #
-1 17:1 #
-1 6:1 #
2 17:1 #
-1 17:1 #
2 6:1 #
-1 6:1 #
-1 17:1 #
-1 6:1 #
2 17:1 #
-1 17:1 #
2 6:1 #
-1 6:1 #
-1 17:1 #
-1 6:1 #
2 17:1 #
-1 17:1 #
2 6:1 #
-1 6:1 #
-1 17:1 #
-1 6:1 #
2 17:1 #
-1 17:1 #
2 6:1 #
-1 6:1 #
-1 17:1 #
-1 6:1 #
-1 14:1 #
-1 17:1 #
-1 1:1 #
-1 16:1 #
2 9:1 #
2 13:1 #
2 20:1 #
-1 9:1 #
2 17:1 #
2 1:1 #
-1 13:1 #
2 16:1 #
-1 20:1 #
-1 5:1 #
2 4:1 #
-1 4:1 #
2 5:1 #
-1 5:1 #
-1 4:1 #
-1 5:1 #
2 4:1 #
-1 4:1 #
2 5:1 #
-1 5:1 #
-1 4:1 #
-1 5:1 #
2 4:1 #
-1 4:1 #
2 5:1 #
-1 5:1 #
-1 4:1 #
-1 5:1 #
2 4:1 #
-1 4:1 #
2 5:1 #
-1 5:1 #
-1 4:1 #
-1 5:1 #
2 4:1 #
-1 4:1 #
2 5:1 #
-1 5:1 #
-1 4:1 #
-1 5:1 #
2 4:1 #
-1 4:1 #
2 5:1 #
-1 5:1 #
-1 4:1 #
-1 5:1 #
2 4:1 #
-1 4:1 #
2 5:1 #
-1 5:1 #
-1 4:1 #
-1 5:1 #
2 4:1 #
-1 4:1 #
2 5:1 #
-1 5:1 #
-1 4:1 #
-1 5:1 #
2 4:1 #
-1 4:1 #
2 5:1 #
-1 5:1 #
-1 4:1 #
-1 5:1 #
2 4:1 #
-1 4:1 #
2 5:1 #
-1 5:1 #
-1 4:1 #
-1 5:1 #
2 4:1 #
-1 4:1 #
2 5:1 #
-1 5:1 #
-1 4:1 #
-1 5:1 #
2 4:1 #
-1 4:1 #
2 5:1 #
-1 5:1 #
-1 4:1 #
-1 5:1 #
2 4:1 #
-1 4:1 #
2 5:1 #
-1 5:1 #
-1 4:1 #
-1 5:1 #
2 4:1 #
-1 4:1 #
2 5:1 #
-1 5:1 #
-1 4:1 #
-1 5:1 #
2 4:1 #
-1 4:1 #
2 5:1 #
-1 5:1 #
-1 4:1 #
-1 5:1 #
2 4:1 #
-1 4:1 #
2 5:1 #
-1 5:1 #
-1 4:1 #
-1 5:1 #
2 4:1 #
-1 4:1 #
-1 4:1 #
-1 1:1 #
-1 13:1 #
2 5:1 #
2 6:1 #
2 13:1 #
-1 5:1 #
-1 6:1 #
2 6:1 #
-1 6:1 #
2 4:1 #
-1 4:1 #
-1 6:1 #
-1 4:1 #
2 6:1 #
-1 6:1 #
2 4:1 #
-1 4:1 #
-1 6:1 #
-1 4:1 #
2 6:1 #
-1 6:1 #
2 4:1 #
-1 4:1 #
-1 6:1 #
-1 4:1 #
2 6:1 #
-1 6:1 #
2 4:1 #
-1 4:1 #
-1 6:1 #
-1 4:1 #
2 6:1 #
-1 6:1 #
2 4:1 #
-1 4:1 #
-1 6:1 #
-1 4:1 #
2 6:1 #
-1 6:1 #
2 4:1 #
-1 4:1 #
-1 6:1 #
-1 4:1 #
2 6:1 #
-1 6:1 #
2 4:1 #
-1 4:1 #
-1 6:1 #
-1 4:1 #
2 6:1 #
-1 6:1 #
2 4:1 #
-1 4:1 #
-1 6:1 #
-1 4:1 #
2 6:1 #
-1 6:1 #
2 4:1 #
-1 4:1 #
-1 6:1 #
-1 4:1 #
2 6:1 #
-1 6:1 #
2 4:1 #
-1 4:1 #
-1 6:1 #
-1 4:1 #
2 6:1 #
-1 6:1 #
2 4:1 #
-1 4:1 #
-1 6:1 #
-1 4:1 #
2 6:1 #
-1 6:1 #
2 4:1 #
-1 4:1 #
-1 6:1 #
-1 4:1 #
2 6:1 #
-1 6:1 #
2 4:1 #
-1 4:1 #
-1 6:1 #
-1 4:1 #
2 6:1 #
-1 6:1 #
2 4:1 #
-1 4:1 #
-1 6:1 #
-1 4:1 #
2 6:1 #
-1 6:1 #
2 4:1 #
-1 4:1 #
-1 6:1 #
-1 4:1 #
2 6:1 #
-1 6:1 #
2 4:1 #
-1 4:1 #
-1 6:1 #
-1 4:1 #
2 6:1 #
-1 6:1 #
2 4:1 #
-1 4:1 #
-1 6:1 #
-1 4:1 #
2 6:1 #
-1 6:1 #
2 4:1 #
-1 4:1 #
-1 6:1 #
-1 4:1 #
2 6:1 #
-1 6:1 #
2 4:1 #
-1 4:1 #
-1 6:1 #
-1 12:1 #
-1 4:1 #
-1 17:1 #
2 20:1 #
2 16:1 #
2 6:1 #
-1 16:1 #
-1 6:1 #
-1 20:1 #
2 6:1 #
-1 6:1 #
2 20:1 #
-1 20:1 #
-1 6:1 #
-1 20:1 #
2 6:1 #
-1 6:1 #
2 20:1 #
-1 20:1 #
-1 6:1 #
-1 20:1 #
2 6:1 #
-1 6:1 #
2 20:1 #
-1 20:1 #
-1 6:1 #
-1 20:1 #
2 6:1 #
-1 6:1 #
2 20:1 #
-1 20:1 #
-1 6:1 #
-1 20:1 #
2 6:1 #
-1 6:1 #
2 20:1 #
-1 20:1 #
-1 6:1 #
-1 20:1 #
2 6:1 #
-1 6:1 #
2 20:1 #
-1 20:1 #
-1 6:1 #
-1 20:1 #
2 6:1 #
-1 6:1 #
2 20:1 #
-1 20:1 #
-1 6:1 #
-1 20:1 #
2 6:1 #
-1 6:1 #
2 20:1 #
-1 20:1 #
-1 6:1 #
-1 20:1 #
2 6:1 #
-1 6:1 #
2 20:1 #
-1 20:1 #
-1 6:1 #
-1 20:1 #
2 6:1 #
-1 6:1 #
2 20:1 #
-1 20:1 #
-1 6:1 #
-1 20:1 #
2 6:1 #
-1 6:1 #
2 20:1 #
-1 20:1 #
-1 6:1 #
-1 20:1 #
2 6:1 #
-1 6:1 #
2 20:1 #
-1 20:1 #
-1 6:1 #
-1 20:1 #
2 6:1 #
-1 6:1 #
2 20:1 #
-1 20:1 #
-1 6:1 #
-1 20:1 #
2 6:1 #
-1 6:1 #
2 20:1 #
-1 20:1 #
-1 6:1 #
-1 20:1 #
2 6:1 #
-1 6:1 #
2 20:1 #
-1 20:1 #
-1 6:1 #
-1 20:1 #
2 6:1 #
-1 6:1 #
2 20:1 #
-1 20:1 #
-1 6:1 #
-1 20:1 #
2 6:1 #
-1 6:1 #
2 20:1 #
-1 20:1 #
-1 6:1 #
-1 20:1 #
2 6:1 #
-1 6:1 #
2 20:1 #
-1 20:1 #
-1 6:1 #
-1 20:1 #
2 6:1 #
-1 6:1 #
2 20:1 #
-1 20:1 #
-1 6:1 #
-1 20:1 #
2 6:1 #
-1 6:1 #
2 20:1 #
-1 20:1 #
-1 6:1 #
-1 20:1 #
2 6:1 #
-1 6:1 #
2 20:1 #
-1 20:1 #
-1 6:1 #
-1 20:1 #
2 6:1 #
-1 6:1 #
2 20:1 #
-1 20:1 #
-1 6:1 #
-1 20:1 #
2 6:1 #
-1 6:1 #
2 20:1 #
-1 20:1 #
-1 6:1 #
-1 20:1 #
2 6:1 #
-1 6:1 #
2 20:1 #
-1 20:1 #
-1 6:1 #
-1 20:1 #
2 6:1 #
-1 6:1 #
2 20:1 #
-1 17:1 #
-1 12:1 #
2 20:1 #
2 6:1 #
2 16:1 #
-1 16:1 #
2 17:1 #
-1 6:1 #
-1 20:1 #
2 4:1 #
2 15:1 #
-1 4:1 #
2 9:1 #
-1 9:1 #
-1 4:1 #
-1 9:1 #
2 4:1 #
-1 4:1 #
2 9:1 #
-1 9:1 #
-1 4:1 #
-1 9:1 #
2 4:1 #
-1 4:1 #
2 9:1 #
-1 9:1 #
-1 4:1 #
-1 9:1 #
2 4:1 #
-1 4:1 #
2 9:1 #
-1 9:1 #
-1 4:1 #
-1 9:1 #
2 4:1 #
-1 4:1 #
2 9:1 #
-1 9:1 #
-1 4:1 #
-1 9:1 #
2 4:1 #
-1 4:1 #
2 9:1 #
-1 9:1 #
-1 4:1 #
-1 9:1 #
2 4:1 #
-1 4:1 #
2 9:1 #
-1 9:1 #
-1 4:1 #
-1 9:1 #
2 4:1 #
-1 4:1 #
2 9:1 #
-1 9:1 #
-1 4:1 #
-1 9:1 #
2 4:1 #
-1 4:1 #
2 9:1 #
-1 9:1 #
-1 4:1 #
-1 9:1 #
2 4:1 #
-1 4:1 #
2 9:1 #
-1 9:1 #
-1 4:1 #
-1 9:1 #
2 4:1 #
-1 4:1 #
2 9:1 #
-1 9:1 #
-1 4:1 #
-1 9:1 #
2 4:1 #
-1 4:1 #
2 9:1 #
-1 9:1 #
-1 4:1 #
-1 9:1 #
2 4:1 #
-1 4:1 #
2 9:1 #
-1 9:1 #
-1 4:1 #
-1 9:1 #
2 4:1 #
-1 4:1 #
2 9:1 #
-1 9:1 #
-1 4:1 #
-1 9:1 #
2 4:1 #
-1 4:1 #
2 9:1 #
-1 9:1 #
-1 4:1 #
-1 9:1 #
2 4:1 #
-1 4:1 #
2 9:1 #
-1 9:1 #
-1 4:1 #
-1 9:1 #
2 4:1 #
-1 4:1 #
2 9:1 #
-1 1:1 #
-1 15:1 #
-1 5:1 #
-1 19:1 #
-1 20:1 #
2 16:1 #
2 6:1 #
-1 16:1 #
-1 6:1 #
-1 9:1 #
-1 4:1 #
-1 9:1 #
2 4:1 #
-1 4:1 #
2 9:1 #
-1 9:1 #
-1 4:1 #
-1 9:1 #
2 4:1 #
-1 4:1 #
2 9:1 #
-1 9:1 #
-1 4:1 #
-1 9:1 #
2 4:1 #
-1 4:1 #
2 9:1 #
-1 9:1 #
-1 4:1 #
-1 9:1 #
2 4:1 #
-1 4:1 #
-1 9:1 #
-1 4:1 #
2 9:1 #
-1 9:1 #
2 4:1 #
-1 4:1 #
-1 9:1 #
-1 4:1 #
2 9:1 #
-1 9:1 #
2 4:1 #
-1 4:1 #
-1 9:1 #
-1 4:1 #
2 9:1 #
-1 9:1 #
2 4:1 #
-1 4:1 #
-1 9:1 #
-1 4:1 #
2 9:1 #
-1 9:1 #
2 4:1 #
-1 4:1 #
-1 9:1 #
-1 4:1 #
2 9:1 #
-1 9:1 #
2 4:1 #
-1 4:1 #
-1 9:1 #
-1 4:1 #
2 9:1 #
-1 9:1 #
2 4:1 #
-1 4:1 #
-1 9:1 #
-1 4:1 #
2 9:1 #
-1 9:1 #
2 4:1 #
-1 4:1 #
-1 9:1 #
-1 4:1 #
2 9:1 #
-1 9:1 #
2 4:1 #
-1 4:1 #
-1 9:1 #
-1 4:1 #
2 9:1 #
-1 9:1 #
2 4:1 #
-1 4:1 #
-1 9:1 #
-1 4:1 #
2 9:1 #
-1 9:1 #
2 4:1 #
-1 4:1 #
-1 9:1 #
-1 4:1 #
2 9:1 #
-1 9:1 #
2 4:1 #
-1 4:1 #
-1 9:1 #
-1 4:1 #
2 9:1 #
-1 9:1 #
2 4:1 #
-1 4:1 #
-1 9:1 #
-1 4:1 #
-1 19:1 #
-1 4:1 #
-1 17:1 #
-1 15:1 #
-1 6:1 #
2 9:1 #
-1 16:1 #
2 4:1 #
-1 9:1 #
-1 9:1 #
-1 6:1 #
2 9:1 #
-1 9:1 #
-1 13:1 #
-1 9:1 #
-1 4:1 #
2 9:1 #
-1 9:1 #
2 4:1 #
-1 4:1 #
-1 9:1 #
-1 4:1 #
2 9:1 #
-1 9:1 #
2 4:1 #
-1 4:1 #
-1 9:1 #
-1 4:1 #
2 9:1 #
-1 9:1 #
2 4:1 #
-1 4:1 #
-1 9:1 #
-1 4:1 #
2 9:1 #
-1 9:1 #
2 4:1 #
-1 4:1 #
-1 9:1 #
-1 4:1 #
2 9:1 #
-1 9:1 #
2 4:1 #
-1 4:1 #
-1 9:1 #
-1 4:1 #
2 9:1 #
-1 9:1 #
2 4:1 #
-1 4:1 #
-1 9:1 #
-1 4:1 #
2 9:1 #
-1 9:1 #
2 4:1 #
-1 4:1 #
-1 9:1 #
-1 4:1 #
2 9:1 #
-1 9:1 #
2 4:1 #
-1 4:1 #
-1 9:1 #
-1 4:1 #
2 9:1 #
-1 9:1 #
2 4:1 #
-1 4:1 #
-1 9:1 #
-1 4:1 #
2 9:1 #
-1 9:1 #
-1 20:1 #
2 4:1 #
-1 4:1 #
-1 19:1 #
-1 20:1 #
-1 16:1 #
-1 4:1 #
-1 9:1 #
-1 6:1 #
2 9:1 #
-1 9:1 #
-1 16:1 #
-1 20:1 #
2 4:1 #
-1 16:1 #
-1 13:1 #
-1 6:1 #
-1 9:1 #
-1 4:1 #
-1 6:1 #
2 9:1 #
-1 9:1 #
-1 4:1 #
-1 17:1 #
2 4:1 #
-1 4:1 #
-1 20:1 #
-1 4:1 #
-1 9:1 #
2 4:1 #
-1 4:1 #
2 9:1 #
-1 9:1 #
-1 4:1 #
-1 9:1 #
2 4:1 #
-1 5:1 #
-1 19:1 #
-1 4:1 #
-1 4:1 #
2 4:1 #
-1 4:1 #
-1 4:1 #
1.9999999999999997779553950749687 4:1 #
-1 4:1 #
2 4:1 #
-1 4:1 #
-1 4:1 #
-1 20:1 #
-1 4:1 #
2 4:1 #
-1 4:1 #
2 4:1 #
-1 4:1 #
-1 4:1 #
-1 4:1 #
2 12:1 #
-0.50025400738963599067687937349547 4:1 #
2 19:1 #
2 20:1 #
-1 13:1 #
2 17:1 #
2 13:1 #
2 5:1 #
-1 5:1 #
2 6:1 #
-1 17:1 #
2 19:1 #
-1 19:1 #
2 16:1 #
-1 16:1 #
-1 19:1 #
-1 16:1 #
2 19:1 #
-1 19:1 #
2 16:1 #
-1 16:1 #
-1 19:1 #
-1 16:1 #
2 19:1 #
-1 19:1 #
2 16:1 #
-1 16:1 #
-1 19:1 #
-1 16:1 #
2 19:1 #
-1 19:1 #
2 16:1 #
-1 16:1 #
-1 19:1 #
-1 16:1 #
2 19:1 #
-1 19:1 #
2 16:1 #
-0.49984768372216092924276154008112 16:1 #
-1 19:1 #
-1 16:1 #
2 19:1 #
-1 19:1 #
2 16:1 #
-1 16:1 #
-1 19:1 #
-1 16:1 #
2 19:1 #
-1 19:1 #
2 16:1 #
-1 16:1 #
-1 19:1 #
-1 16:1 #
2 19:1 #
-1 19:1 #
2 16:1 #
-1 16:1 #
-1 19:1 #
-1 16:1 #
2 19:1 #
-1 19:1 #
2 16:1 #
-1 16:1 #
-1 19:1 #
-1 16:1 #
2 19:1 #
-1 19:1 #
2 16:1 #
-1 16:1 #
-1 19:1 #
-1 16:1 #
2 19:1 #
-1 19:1 #
2 16:1 #
-1 16:1 #
-1 19:1 #
-1 16:1 #
2 19:1 #
-1 19:1 #
2 16:1 #
-1 16:1 #
-1 19:1 #
-1 12:1 #
-1 16:1 #
-1 1:1 #
2 19:1 #
-1 19:1 #
2 15:1 #
-1 15:1 #
-1 19:1 #
2 16:1 #
-1 6:1 #
2 19:1 #
-1 19:1 #
-1 19:1 #
-1 15:1 #
2 19:1 #
-1 19:1 #
2 15:1 #
-1 15:1 #
-1 19:1 #
-1 15:1 #
2 19:1 #
-1 19:1 #
2 15:1 #
-1 15:1 #
-1 19:1 #
-1 15:1 #
2 19:1 #
-1 19:1 #
2 15:1 #
-1 15:1 #
-1 19:1 #
-1 15:1 #
2 19:1 #
-1 19:1 #
2 15:1 #
-1 15:1 #
-1 19:1 #
-1 15:1 #
2 19:1 #
-1 19:1 #
2 15:1 #
-1 15:1 #
-1 19:1 #
-1 15:1 #
2 19:1 #
-1 19:1 #
2 15:1 #
-1 15:1 #
-1 19:1 #
-1 15:1 #
2 19:1 #
-1 19:1 #
2 15:1 #
-1 15:1 #
-1 19:1 #
-1 15:1 #
2 19:1 #
-1 19:1 #
2 15:1 #
-1 15:1 #
-1 19:1 #
-1 15:1 #
2 19:1 #
-1 19:1 #
2 15:1 #
-1 15:1 #
-1 19:1 #
-1 15:1 #
2 19:1 #
-1 19:1 #
2 15:1 #
-1 15:1 #
-1 19:1 #
-1 15:1 #
2 19:1 #
-1 19:1 #
2 15:1 #
-1 15:1 #
-1 19:1 #
-1 15:1 #
2 19:1 #
-1 19:1 #
2 15:1 #
-1 15:1 #
-1 19:1 #
-1 15:1 #
2 19:1 #
-1 19:1 #
2 15:1 #
-1 20:1 #
-1 19:1 #
-1 16:1 #
-1 13:1 #
2 19:1 #
-1 19:1 #
-1 15:1 #
-1 19:1 #
2 19:1 #
-1 15:1 #
-1 16:1 #
2 15:1 #
-1 19:1 #
-1 6:1 #
2 16:1 #
-1 16:1 #
-1 16:1 #
-1 15:1 #
2 16:1 #
-1 1:1 #
-1 15:1 #
-1 16:1 #
2 16:1 #
-1 16:1 #
-1 16:1 #
-1 16:1 #
2 16:1 #
-1 16:1 #
-1 16:1 #
2 16:1 #
-1 16:1 #
-1 16:1 #
2 16:1 #
-1 16:1 #
-1 16:1 #
2 16:1 #
-1 16:1 #
-1 16:1 #
2 16:1 #
-1 16:1 #
-1 16:1 #
2 16:1 #
-1 16:1 #
-1 16:1 #
2 16:1 #
-1 16:1 #
-1 16:1 #
2 16:1 #
-1 16:1 #
-1 16:1 #
2 16:1 #
-1 16:1 #
-1 16:1 #
2 16:1 #
-1 16:1 #
-1 16:1 #
2 16:1 #
-1 16:1 #
-1 16:1 #
2 16:1 #
-1 16:1 #
-1 16:1 #
2 16:1 #
-1 16:1 #
-1 16:1 #
2 16:1 #
-1 16:1 #
-1 16:1 #
2 16:1 #
-1 16:1 #
-1 16:1 #
2 16:1 #
-1 16:1 #
-1 16:1 #
2 16:1 #
-1 16:1 #
-1 16:1 #
2 16:1 #
-1 16:1 #
-1 16:1 #
2 16:1 #
-1 16:1 #
-1 16:1 #
2 16:1 #
-1 16:1 #
-1 16:1 #
2 16:1 #
-1 16:1 #
-1 16:1 #
2 16:1 #
-1 16:1 #
-1 16:1 #
2 16:1 #
-1 16:1 #
-1 16:1 #
2 16:1 #
-1 16:1 #
-1 16:1 #
2 16:1 #
-1 16:1 #
-1 16:1 #
2 16:1 #
-1 16:1 #
-1 16:1 #
2 16:1 #
-1 16:1 #
-1 16:1 #
2 16:1 #
-1 16:1 #
-1 16:1 #
2 16:1 #
-1 16:1 #
-1 16:1 #
2 16:1 #
-1 16:1 #
-1 16:1 #
2 16:1 #
-1 16:1 #
-1 16:1 #
2 16:1 #
-1 16:1 #
-1 16:1 #
-1 19:1 #
-1 15:1 #
-1 16:1 #
2 16:1 #
-1 16:1 #
2 16:1 #
-1 16:1 #
-1 16:1 #
2 16:1 #
-1 16:1 #
2 17:1 #
-1 16:1 #
2 6:1 #
2 20:1 #
-1 16:1 #
2 1:1 #
2 16:1 #
-1 16:1 #
2 15:1 #
2 12:1 #
-1 16:1 #
2 19:1 #
2 16:1 #
-1 16:1 #
2 13:1 #
-1 16:1 #
2 16:1 #
-1 16:1 #
-1 16:1 #
2 16:1 #
-1 16:1 #
-1 16:1 #
2 16:1 #
2 5:1 #
-1 16:1 #
-1 1:1 #
2 16:1 #
-1 16:1 #
2 1:1 #
-1 1:1 #
-1 16:1 #
-1 1:1 #
2 16:1 #
-1 16:1 #
2 1:1 #
-1 1:1 #
-1 16:1 #
-1 1:1 #
2 16:1 #
-1 16:1 #
2 1:1 #
-1 1:1 #
-1 16:1 #
-1 1:1 #
2 16:1 #
-1 16:1 #
-1 19:1 #
-1 12:1 #
-1 17:1 #
-1 13:1 #
-1 19:1 #
-1 6:1 #
-1 20:1 #
-1 15:1 #
-1 5:1 #
-1 16:1 #
2 16:1 #
-1 5:1 #
-1 16:1 #
-1 13:1 #
-1 16:1 #
-1 6:1 #
2 16:1 #
-1 16:1 #
-1 12:1 #
-1 16:1 #
-1 20:1 #
-1 17:1 #
2 16:1 #
-1 16:1 #
2 16:1 #
-1 16:1 #
-1 16:1 #
2 16:1 #
-1 16:1 #
-1 16:1 #
2 16:1 #
-1 16:1 #
-1 16:1 #
2 16:1 #
-1 16:1 #
-1 16:1 #
2 16:1 #
-1 16:1 #
-1 5:1 #
2 16:1 #
-1 16:1 #
-1 16:1 #
2 16:1 #
-1 16:1 #
-1 16:1 #
2 16:1 #
-1 16:1 #
-1 16:1 #
2 16:1 #
-1 16:1 #
-1 16:1 #
2 16:1 #
-1 16:1 #
-1 16:1 #
2 16:1 #
-1 16:1 #
-1 16:1 #
2 16:1 #
-1 16:1 #
-1 16:1 #
-1 16:1 #
2 19:1 #
2 1:1 #
-1 20:1 #
2 20:1 #
-1 20:1 #
2 12:1 #
-1 20:1 #
2 17:1 #
-1 16:1 #
-1 20:1 #
2 6:1 #
2 20:1 #
-1 20:1 #
-1 20:1 #
2 20:1 #
-1 20:1 #
-1 20:1 #
2 20:1 #
-1 20:1 #
-1 20:1 #
2 20:1 #
-1 20:1 #
-1 20:1 #
2 20:1 #
-1 20:1 #
-1 20:1 #
2 20:1 #
-1 20:1 #
-1 20:1 #
2 20:1 #
-1 20:1 #
-1 20:1 #
2 20:1 #
-1 20:1 #
-1 20:1 #
2 20:1 #
-1 20:1 #
-1 20:1 #
2 20:1 #
-1 20:1 #
-1 20:1 #
2 20:1 #
-1 20:1 #
-1 20:1 #
2 20:1 #
-1 20:1 #
-1 20:1 #
2 20:1 #
-1 20:1 #
-1 20:1 #
2 20:1 #
-1 20:1 #
-1 20:1 #
2 20:1 #
-1 20:1 #
-1 20:1 #
2 20:1 #
-1 20:1 #
-1 20:1 #
2 20:1 #
-1 20:1 #
-1 20:1 #
2 20:1 #
-1 20:1 #
-1 20:1 #
2 20:1 #
-1 20:1 #
-1 20:1 #
2 20:1 #
-1 20:1 #
-1 20:1 #
2 20:1 #
-1 20:1 #
-1 20:1 #
2 20:1 #
-1 20:1 #
-1 20:1 #
2 20:1 #
-1 20:1 #
-1 20:1 #
2 20:1 #
-1 20:1 #
-1 20:1 #
2 20:1 #
-1 20:1 #
-1 20:1 #
2 20:1 #
-1 20:1 #
-1 20:1 #
2 20:1 #
-1 20:1 #
-1 20:1 #
2 20:1 #
-1 20:1 #
-1 20:1 #
2 20:1 #
-1 20:1 #
2 5:1 #
2 13:1 #
-1 20:1 #
2 20:1 #
-1 20:1 #
-1 20:1 #
2 20:1 #
-1 20:1 #
-1 20:1 #
-1 20:1 #
2 20:1 #
-1 19:1 #
-1 17:1 #
-1 20:1 #
-1 20:1 #
-1 19:1 #
2 20:1 #
-1 20:1 #
-1 12:1 #
-1 20:1 #
-1 13:1 #
-1 5:1 #
2 20:1 #
-1 20:1 #
-1 20:1 #
-1 13:1 #
-1 6:1 #
-1 1:1 #
2 20:1 #
-1 20:1 #
-1 20:1 #
-1 1:1 #
2 20:1 #
-1 6:1 #
2 20:1 #
-1 20:1 #
-1 20:1 #
2 20:1 #
-1 20:1 #
-1 20:1 #
2 20:1 #
-1 20:1 #
-1 20:1 #
2 20:1 #
-1 20:1 #
-1 20:1 #
2 20:1 #
-1 20:1 #
-1 20:1 #
2 20:1 #
-1 20:1 #
-1 20:1 #
2 20:1 #
-1 20:1 #
-1 20:1 #
2 20:1 #
-1 20:1 #
-1 20:1 #
2 20:1 #
-1 20:1 #
-1 20:1 #
2 20:1 #
-1 20:1 #
-1 20:1 #
2 20:1 #
-1 20:1 #
-1 20:1 #
2 20:1 #
-1 20:1 #
-1 20:1 #
2 20:1 #
-1 20:1 #
-1 20:1 #
2 20:1 #
-1 20:1 #
-1 20:1 #
2 20:1 #
-1 20:1 #
-1 20:1 #
2 20:1 #
-1 20:1 #
-1 20:1 #
2 20:1 #
-1 20:1 #
-1 20:1 #
2 20:1 #
-1 20:1 #
-1 20:1 #
2 20:1 #
-1 20:1 #
-1 20:1 #
2 20:1 #
-1 20:1 #
-1 20:1 #
2 20:1 #
-1 20:1 #
-1 20:1 #
2 20:1 #
-1 20:1 #
-1 20:1 #
2 20:1 #
-1 20:1 #
-1 20:1 #
2 20:1 #
-1 20:1 #
-1 20:1 #
2 20:1 #
-1 13:1 #
-1 17:1 #
-1 5:1 #
2 20:1 #
-1 20:1 #
-1 20:1 #
2 20:1 #
-1 20:1 #
-1 20:1 #
2 20:1 #
-1 20:1 #
-1 20:1 #
2 20:1 #
-1 20:1 #
-1 20:1 #
2 20:1 #
-1 20:1 #
-1 20:1 #
2 20:1 #
-1 20:1 #
-1 20:1 #
2 20:1 #
-1 20:1 #
-1 20:1 #
2 20:1 #
-1 20:1 #
-1 20:1 #
2 20:1 #
-1 20:1 #
-1 20:1 #
2 20:1 #
-1 20:1 #
-1 20:1 #
2 20:1 #
-1 20:1 #
-1 20:1 #
2 20:1 #
-1 20:1 #
-1 20:1 #
2 20:1 #
-1 20:1 #
-1 20:1 #
2 20:1 #
-1 20:1 #
-1 20:1 #
2 20:1 #
-1 20:1 #
-1 20:1 #
2 20:1 #
-1 20:1 #
-1 20:1 #
2 20:1 #
-1 20:1 #
-1 20:1 #
2 20:1 #
-1 20:1 #
-1 20:1 #
2 20:1 #
-1 20:1 #
-1 20:1 #
2 20:1 #
-1 20:1 #
-1 20:1 #
2 20:1 #
-1 20:1 #
-1 20:1 #
2 20:1 #
-1 20:1 #
-1 20:1 #
2 20:1 #
-1 20:1 #
-1 20:1 #
2 20:1 #
-1 20:1 #
-1 20:1 #
2 20:1 #
-1 20:1 #
-1 20:1 #
2 20:1 #
-1 20:1 #
-1 20:1 #
2 20:1 #
-1 20:1 #
-1 20:1 #
2 20:1 #
-1 20:1 #
-1 20:1 #
2 20:1 #
-1 20:1 #
-1 20:1 #
2 20:1 #
-1 20:1 #
-1 20:1 #
2 20:1 #
-1 20:1 #
-1 20:1 #
2 20:1 #
-1 20:1 #
-1 20:1 #
2 20:1 #
-1 20:1 #
-1 20:1 #
2 20:1 #
1.500465076381914064640454853361 20:1 #
-1 17:1 #
2 20:1 #
-1 20:1 #
-1 20:1 #
-1 20:1 #
2 20:1 #
-1 20:1 #
-1 20:1 #
2 20:1 #
-1 20:1 #
-1 20:1 #
2 20:1 #
-1 20:1 #
-1 20:1 #
2 20:1 #
-1 20:1 #
-1 20:1 #
2 20:1 #
-1 20:1 #
-1 20:1 #
2 20:1 #
-1 20:1 #
-1 20:1 #
2 20:1 #
-1 20:1 #
-1 20:1 #
-1 20:1 #
-1 20:1 #
-1 20:1 #
2 20:1 #
-1 12:1 #
-1 20:1 #
-1 13:1 #
-1 5:1 #
2 15:1 #
2 13:1 #
2 17:1 #
2 5:1 #
-1 17:1 #
2 6:1 #
2 17:1 #
-1 6:1 #
2 12:1 #
-1 12:1 #
-1 6:1 #
2 19:1 #
-1 19:1 #
-1 17:1 #
2 6:1 #
-1 6:1 #
-1 17:1 #
-1 12:1 #
-1 15:1 #
2 17:1 #
-1 17:1 #
2 13:1 #
2 1:1 #
-1 1:1 #
2 12:1 #
-1 12:1 #
-1 19:1 #
-1 12:1 #
2 19:1 #
-1 19:1 #
2 12:1 #
-1 12:1 #
-1 19:1 #
-1 12:1 #
2 19:1 #
-1 19:1 #
2 12:1 #
-1 12:1 #
-1 19:1 #
-1 12:1 #
2 19:1 #
-1 19:1 #
2 12:1 #
-1 12:1 #
-1 19:1 #
-1 12:1 #
2 19:1 #
-1 19:1 #
2 12:1 #
-1 12:1 #
-1 19:1 #
-1 12:1 #
2 19:1 #
-1 19:1 #
2 12:1 #
-1 12:1 #
-1 19:1 #
-1 12:1 #
2 19:1 #
-1 19:1 #
2 12:1 #
-1 12:1 #
-1 19:1 #
-1 12:1 #
2 19:1 #
-1 19:1 #
2 12:1 #
-1 12:1 #
-1 19:1 #
-1 12:1 #
2 19:1 #
-0.49984768372215426790461378914188 9:1 #
-1 17:1 #
-1 12:1 #
-1 19:1 #
-1 17:1 #
-1 1:1 #
2 17:1 #
-1 17:1 #
-1 5:1 #
2 12:1 #
-1 12:1 #
-1 19:1 #
-1 12:1 #
2 19:1 #
-1 19:1 #
2 12:1 #
-1 12:1 #
-1 19:1 #
-1 12:1 #
2 19:1 #
-1 19:1 #
2 12:1 #
-1 12:1 #
-1 19:1 #
-1 12:1 #
2 19:1 #
-1 19:1 #
2 12:1 #
-1 12:1 #
-1 19:1 #
-1 12:1 #
2 19:1 #
-1 19:1 #
2 12:1 #
-1 12:1 #
-1 19:1 #
-1 12:1 #
2 19:1 #
-1 19:1 #
2 12:1 #
-1 12:1 #
-1 19:1 #
-1 12:1 #
2 19:1 #
-1 19:1 #
2 12:1 #
-1 12:1 #
-1 19:1 #
-1 12:1 #
2 19:1 #
-1 19:1 #
2 12:1 #
-1 12:1 #
-1 19:1 #
-1 12:1 #
2 19:1 #
-1 19:1 #
2 12:1 #
-1 12:1 #
-1 19:1 #
-1 12:1 #
2 19:1 #
-1 19:1 #
2 12:1 #
-1 12:1 #
-1 19:1 #
-1 12:1 #
2 19:1 #
-1 19:1 #
2 12:1 #
-1 12:1 #
-1 19:1 #
-1 12:1 #
2 19:1 #
-1 19:1 #
2 12:1 #
-1 12:1 #
-1 19:1 #
-1 12:1 #
2 19:1 #
-1 19:1 #
2 12:1 #
-1 12:1 #
-1 19:1 #
-1 12:1 #
2 19:1 #
-1 19:1 #
2 12:1 #
-1 12:1 #
-1 19:1 #
-1 12:1 #
2 19:1 #
-1 19:1 #
2 12:1 #
-1 12:1 #
-1 19:1 #
-1 12:1 #
2 19:1 #
-1 19:1 #
2 12:1 #
-1 12:1 #
-1 19:1 #
-1 12:1 #
2 19:1 #
-1 19:1 #
2 12:1 #
-1 12:1 #
-1 19:1 #
-1 12:1 #
2 19:1 #
-1 19:1 #
2 12:1 #
-1 12:1 #
-1 19:1 #
-1 12:1 #
2 19:1 #
-1 19:1 #
2 12:1 #
-1 12:1 #
-1 19:1 #
-1 12:1 #
-1 12:1 #
-1 19:1 #
-1 1:1 #
2 19:1 #
-1 19:1 #
2 12:1 #
-1 12:1 #
-1 19:1 #
-1 12:1 #
2 19:1 #
-1 19:1 #
2 12:1 #
-1 12:1 #
-1 19:1 #
-1 12:1 #
2 19:1 #
-1 19:1 #
2 1:1 #
-1 1:1 #
-1 19:1 #
-1 1:1 #
-1 15:1 #
2 19:1 #
-1 19:1 #
2 5:1 #
-1 5:1 #
-1 19:1 #
-1 5:1 #
-1 6:1 #
2 5:1 #
-1 5:1 #
2 6:1 #
-1 6:1 #
-1 5:1 #
-1 6:1 #
2 5:1 #
-1 5:1 #
2 6:1 #
-1 6:1 #
-1 5:1 #
-1 6:1 #
2 5:1 #
-1 5:1 #
2 6:1 #
-1 6:1 #
-1 5:1 #
-1 6:1 #
2 5:1 #
-1 5:1 #
2 6:1 #
-1 6:1 #
-1 5:1 #
-1 6:1 #
2 5:1 #
-1 5:1 #
2 6:1 #
-1 6:1 #
-1 5:1 #
-1 6:1 #
2 5:1 #
-1 5:1 #
2 6:1 #
-1 6:1 #
-1 5:1 #
-1 6:1 #
2 5:1 #
-1 5:1 #
2 6:1 #
-1 6:1 #
-1 5:1 #
-1 6:1 #
2 5:1 #
-1 5:1 #
2 6:1 #
-1 6:1 #
-1 5:1 #
-1 6:1 #
2 5:1 #
-1 5:1 #
2 6:1 #
-1 6:1 #
-1 5:1 #
-1 6:1 #
2 5:1 #
-1 5:1 #
2 6:1 #
-1 6:1 #
-1 5:1 #
-1 6:1 #
2 5:1 #
-1 5:1 #
2 6:1 #
-1 6:1 #
-1 5:1 #
-1 6:1 #
2 5:1 #
-1 5:1 #
2 6:1 #
-1 6:1 #
-1 5:1 #
-1 6:1 #
2 5:1 #
-1 5:1 #
2 6:1 #
-1 6:1 #
-1 5:1 #
-1 6:1 #
2 5:1 #
-1 5:1 #
2 6:1 #
-1 6:1 #
-1 5:1 #
2 6:1 #
-1 6:1 #
2 5:1 #
-1 5:1 #
-1 6:1 #
-1 5:1 #
2 6:1 #
-1 6:1 #
2 5:1 #
-1 5:1 #
-1 6:1 #
-1 5:1 #
2 6:1 #
-1 6:1 #
2 5:1 #
-1 5:1 #
-1 6:1 #
-1 5:1 #
2 6:1 #
-1 6:1 #
2 5:1 #
-1 5:1 #
-1 6:1 #
-1 5:1 #
2 6:1 #
-1 6:1 #
2 5:1 #
-1 6:1 #
-1 17:1 #
2 6:1 #
-1 6:1 #
-1 13:1 #
-1 6:1 #
-1 13:1 #
2 6:1 #
-1 6:1 #
-1 6:1 #
2 6:1 #
-1 6:1 #
-1 6:1 #
2 6:1 #
-1 6:1 #
-1 6:1 #
2 6:1 #
-1 6:1 #
-1 6:1 #
2 6:1 #
-1 6:1 #
-1 6:1 #
2 6:1 #
-1 6:1 #
-1 6:1 #
-1 6:1 #
2 6:1 #
-1 6:1 #
-1 6:1 #
2 6:1 #
-1 6:1 #
-1 6:1 #
2 6:1 #
-1 6:1 #
-1 6:1 #
2 6:1 #
-1 6:1 #
-1 6:1 #
2 6:1 #
-1 6:1 #
-1 6:1 #
2 6:1 #
-1 6:1 #
-1 6:1 #
2 6:1 #
-1 6:1 #
-1 6:1 #
2 6:1 #
-1 6:1 #
-1 6:1 #
2 6:1 #
-1 6:1 #
-1 6:1 #
2 6:1 #
-1 6:1 #
-1 6:1 #
2 6:1 #
-1 6:1 #
-1 6:1 #
2 6:1 #
-1 6:1 #
-1 6:1 #
2 6:1 #
-1 6:1 #
-1 6:1 #
2 6:1 #
-1 6:1 #
-1 6:1 #
-1 13:1 #
-1 1:1 #
2 5:1 #
2 6:1 #
-1 6:1 #
-1 6:1 #
2 6:1 #
-1 6:1 #
-1 6:1 #
2 6:1 #
-1 6:1 #
-1 6:1 #
2 6:1 #
-1 6:1 #
-1 6:1 #
2 6:1 #
-1 6:1 #
-1 6:1 #
2 6:1 #
-1 6:1 #
-1 6:1 #
2 6:1 #
-1 6:1 #
-1 6:1 #
2 6:1 #
-1 6:1 #
-1 6:1 #
-1 17:1 #
2 6:1 #
-1 6:1 #
-1 6:1 #
1.5004650763819125103282203781419 6:1 #
-1 5:1 #
2 12:1 #
-1 5:1 #
2 17:1 #
2 13:1 #
2 19:1 #
-1 5:1 #
2 1:1 #
-1 5:1 #
2 1:1 #
-1 1:1 #
2 5:1 #
-1 12:1 #
-1 1:1 #
2 12:1 #
2 1:1 #
-1 17:1 #
-1 1:1 #
2 17:1 #
-1 17:1 #
-1 1:1 #
2 1:1 #
-1 17:1 #
-1 1:1 #
2 17:1 #
-1 17:1 #
-1 1:1 #
2 1:1 #
-1 17:1 #
-1 1:1 #
2 17:1 #
-1 17:1 #
-1 1:1 #
2 1:1 #
-1 17:1 #
-1 1:1 #
2 17:1 #
-1 17:1 #
-1 1:1 #
2 1:1 #
-1 17:1 #
-1 1:1 #
2 17:1 #
-1 17:1 #
-1 1:1 #
2 1:1 #
-1 17:1 #
-1 1:1 #
2 17:1 #
-1 17:1 #
-1 1:1 #
2 1:1 #
-1 17:1 #
-1 1:1 #
2 17:1 #
-1 17:1 #
-1 1:1 #
2 1:1 #
-1 17:1 #
-1 1:1 #
2 17:1 #
-1 17:1 #
-1 1:1 #
2 1:1 #
-1 17:1 #
-1 1:1 #
2 17:1 #
-1 17:1 #
-1 1:1 #
2 1:1 #
-1 17:1 #
-1 1:1 #
2 17:1 #
-1 17:1 #
-1 1:1 #
2 1:1 #
-1 17:1 #
-1 1:1 #
2 17:1 #
-1 17:1 #
-1 1:1 #
2 1:1 #
-1 17:1 #
-1 1:1 #
2 17:1 #
-1 19:1 #
-1 13:1 #
-1 17:1 #
2 5:1 #
2 1:1 #
-1 1:1 #
-1 12:1 #
2 19:1 #
-1 19:1 #
-1 12:1 #
-1 19:1 #
2 12:1 #
-1 12:1 #
-1 1:1 #
-1 12:1 #
-1 17:1 #
2 12:1 #
-1 12:1 #
2 12:1 #
-1 12:1 #
-1 12:1 #
2 12:1 #
-1 12:1 #
-1 12:1 #
2 12:1 #
-1 12:1 #
-1 12:1 #
2 12:1 #
-1 12:1 #
-1 12:1 #
2 12:1 #
-1 12:1 #
-1 12:1 #
2 12:1 #
-1 12:1 #
-1 12:1 #
2 12:1 #
-1 12:1 #
-1 12:1 #
2 12:1 #
-1 12:1 #
-1 12:1 #
2 12:1 #
-1 12:1 #
-1 12:1 #
2 12:1 #
-1 12:1 #
-1 12:1 #
2 12:1 #
-1 12:1 #
-1 12:1 #
2 12:1 #
-1 12:1 #
-1 12:1 #
2 12:1 #
-1 12:1 #
-1 12:1 #
2 12:1 #
-1 12:1 #
-1 12:1 #
2 12:1 #
-1 12:1 #
-1 12:1 #
2 12:1 #
-1 12:1 #
-1 12:1 #
2 12:1 #
-1 12:1 #
-1 12:1 #
2 12:1 #
-1 12:1 #
-1 12:1 #
2 12:1 #
-1 12:1 #
-1 12:1 #
2 12:1 #
-1 12:1 #
-1 12:1 #
2 12:1 #
-1 12:1 #
-1 12:1 #
2 12:1 #
-1 12:1 #
-1 12:1 #
2 12:1 #
-1 12:1 #
-1 12:1 #
2 12:1 #
-1 12:1 #
-1 12:1 #
2 12:1 #
-1 12:1 #
-1 12:1 #
2 12:1 #
-1 12:1 #
-1 12:1 #
2 12:1 #
-1 12:1 #
-1 12:1 #
2 12:1 #
-1 12:1 #
-1 12:1 #
2 12:1 #
-1 12:1 #
-1 12:1 #
-1 1:1 #
-1 12:1 #
2 12:1 #
-1 12:1 #
-1 12:1 #
2 12:1 #
-1 12:1 #
-1 12:1 #
2 12:1 #
-1 12:1 #
-1 12:1 #
2 12:1 #
-1 12:1 #
-1 12:1 #
2 12:1 #
-1 12:1 #
-1 12:1 #
2 12:1 #
-1 12:1 #
-1 12:1 #
2 12:1 #
-1 12:1 #
-1 12:1 #
2 12:1 #
-1 12:1 #
-1 12:1 #
2 12:1 #
-1 12:1 #
-1 12:1 #
2 12:1 #
-1 12:1 #
-1 12:1 #
2 12:1 #
-1 12:1 #
-1 12:1 #
2 12:1 #
-1 12:1 #
-1 12:1 #
2 12:1 #
-1 12:1 #
-1 12:1 #
2 12:1 #
-1 12:1 #
-1 12:1 #
2 12:1 #
-1 12:1 #
-1 12:1 #
2 12:1 #
-1 12:1 #
-1 12:1 #
2 12:1 #
-1 12:1 #
-1 12:1 #
2 12:1 #
-1 12:1 #
-1 12:1 #
2 12:1 #
-1 12:1 #
-1 12:1 #
2 12:1 #
-1 12:1 #
-1 12:1 #
2 12:1 #
-1 12:1 #
-1 12:1 #
2 12:1 #
-1 12:1 #
-1 12:1 #
2 12:1 #
-1 12:1 #
-1 12:1 #
2 12:1 #
-1 12:1 #
-1 12:1 #
2 12:1 #
-1 12:1 #
-1 12:1 #
2 12:1 #
-1 12:1 #
-1 12:1 #
2 12:1 #
-1 12:1 #
-1 12:1 #
2 12:1 #
-1 12:1 #
-1 12:1 #
2 12:1 #
-1 12:1 #
-1 12:1 #
2 12:1 #
-1 12:1 #
-1 12:1 #
2 12:1 #
-1 12:1 #
-1 12:1 #
2 12:1 #
-1 12:1 #
-1 12:1 #
2 12:1 #
-1 12:1 #
-1 12:1 #
2 12:1 #
-1 12:1 #
-1 12:1 #
2 12:1 #
-1 12:1 #
-1 12:1 #
2 12:1 #
-1 12:1 #
-1 12:1 #
2 12:1 #
-1 12:1 #
-1 12:1 #
2 12:1 #
-1 1:1 #
2 12:1 #
-1 12:1 #
-1 12:1 #
-1 12:1 #
1.9999999999999995559107901499374 12:1 #
-1 12:1 #
2 12:1 #
-1 12:1 #
-1 12:1 #
-1 5:1 #
-1 5:1 #
2 1:1 #
-1 5:1 #
2 17:1 #
-1 12:1 #
2 19:1 #
-1 19:1 #
-1 5:1 #
-1 19:1 #
2 13:1 #
-1 13:1 #
2 19:1 #
-1 19:1 #
-1 13:1 #
-1 19:1 #
-1 19:1 #
-1 13:1 #
2 19:1 #
-1 5:1 #
-1 19:1 #
2 19:1 #
-1 19:1 #
-1 19:1 #
2 19:1 #
-1 19:1 #
-1 19:1 #
2 19:1 #
-1 19:1 #
-1 19:1 #
2 19:1 #
-1 19:1 #
-1 19:1 #
2 19:1 #
-1 19:1 #
-1 19:1 #
2 19:1 #
-1 19:1 #
-1 19:1 #
2 19:1 #
-1 19:1 #
-1 19:1 #
2 19:1 #
-1 19:1 #
-1 19:1 #
2 19:1 #
-1 19:1 #
-1 19:1 #
2 19:1 #
-1 19:1 #
-1 19:1 #
2 19:1 #
-1 19:1 #
-1 19:1 #
2 19:1 #
-1 19:1 #
-1 19:1 #
2 19:1 #
-1 19:1 #
-1 19:1 #
2 19:1 #
-1 19:1 #
-1 19:1 #
2 19:1 #
-1 19:1 #
-1 19:1 #
2 19:1 #
-1 19:1 #
-1 19:1 #
2 19:1 #
-1 19:1 #
-1 19:1 #
2 19:1 #
-1 19:1 #
-1 19:1 #
2 19:1 #
-1 19:1 #
-1 19:1 #
2 19:1 #
-1 19:1 #
-1 19:1 #
2 19:1 #
-1 19:1 #
-1 19:1 #
2 19:1 #
-1 19:1 #
-1 19:1 #
2 19:1 #
-1 19:1 #
-1 19:1 #
2 19:1 #
-1 19:1 #
-1 19:1 #
2 19:1 #
-1 19:1 #
-1 19:1 #
2 19:1 #
-1 19:1 #
-1 19:1 #
2 19:1 #
-1 19:1 #
-1 19:1 #
2 19:1 #
-1 19:1 #
-1 19:1 #
2 19:1 #
-1 19:1 #
-1 19:1 #
2 19:1 #
-1 19:1 #
-1 19:1 #
2 19:1 #
-1 19:1 #
-1 19:1 #
2 19:1 #
-1 19:1 #
-1 19:1 #
2 19:1 #
-1 19:1 #
-1 19:1 #
2 19:1 #
-1 19:1 #
-1 19:1 #
2 19:1 #
-1 19:1 #
-1 19:1 #
2 19:1 #
-1 19:1 #
-1 19:1 #
2 19:1 #
-1 19:1 #
-1 19:1 #
2 19:1 #
-1 19:1 #
-1 19:1 #
2 19:1 #
-1 19:1 #
-1 19:1 #
2 19:1 #
-1 19:1 #
-1 19:1 #
2 19:1 #
-1 19:1 #
-1 19:1 #
2 19:1 #
-1 19:1 #
-1 19:1 #
2 19:1 #
-1 19:1 #
-1 19:1 #
2 19:1 #
-1 19:1 #
-1 19:1 #
2 19:1 #
-1 19:1 #
-1 19:1 #
2 19:1 #
-1 19:1 #
-1 19:1 #
2 19:1 #
-1 19:1 #
-1 19:1 #
2 19:1 #
-1 19:1 #
-1 19:1 #
2 19:1 #
-1 19:1 #
-1 5:1 #
2 19:1 #
-1 19:1 #
-1 19:1 #
2 19:1 #
-1 19:1 #
-1 19:1 #
-1 19:1 #
-1 17:1 #
2 13:1 #
-1 1:1 #
2 5:1 #
2 19:1 #
-1 17:1 #
-1 19:1 #
-1 5:1 #
-1 19:1 #
-1 5:1 #
2 19:1 #
-1 19:1 #
2 5:1 #
-1 5:1 #
-1 19:1 #
2 19:1 #
-1 5:1 #
2 5:1 #
-1 19:1 #
-1 5:1 #
-1 19:1 #
2 19:1 #
-1 5:1 #
2 5:1 #
-1 19:1 #
-1 5:1 #
-1 19:1 #
2 19:1 #
-1 5:1 #
2 5:1 #
-1 5:1 #
-1 5:1 #
2 5:1 #
-1 5:1 #
-1 5:1 #
2 5:1 #
-1 5:1 #
-1 5:1 #
2 5:1 #
-1 19:1 #
2 1:1 #
-1 13:1 #
2 17:1 #
-1 5:1 #
2 13:1 #
-1 13:1 #
2 5:1 #
-1 5:1 #
-1 13:1 #
-1 5:1 #
2 13:1 #
-1 13:1 #
2 5:1 #
-1 5:1 #
-1 13:1 #
-1 5:1 #
2 13:1 #
-1 13:1 #
2 5:1 #
-1 5:1 #
-1 13:1 #
-1 5:1 #
2 13:1 #
-1 13:1 #
2 5:1 #
-1 5:1 #
-1 13:1 #
-1 5:1 #
2 13:1 #
-1 13:1 #
2 5:1 #
-1 5:1 #
-1 13:1 #
-1 5:1 #
2 13:1 #
-1 13:1 #
2 5:1 #
-1 5:1 #
-1 13:1 #
-1 5:1 #
2 13:1 #
-1 13:1 #
2 5:1 #
-1 5:1 #
-1 13:1 #
-1 5:1 #
2 13:1 #
-1 13:1 #
2 5:1 #
-1 5:1 #
-1 13:1 #
-1 5:1 #
2 13:1 #
-1 13:1 #
2 5:1 #
-1 5:1 #
-1 13:1 #
-1 5:1 #
2 13:1 #
-1 13:1 #
2 5:1 #
-1 5:1 #
-1 13:1 #
-1 5:1 #
2 13:1 #
-1 13:1 #
2 5:1 #
-1 5:1 #
-1 13:1 #
-1 5:1 #
2 13:1 #
-1 13:1 #
2 5:1 #
-1 5:1 #
-1 13:1 #
-1 5:1 #
2 13:1 #
-1 13:1 #
2 5:1 #
-1 5:1 #
-1 13:1 #
-1 13:1 #
-1 5:1 #
2 5:1 #
-1 5:1 #
2 13:1 #
-1 13:1 #
2 5:1 #
-1 19:1 #
-1 5:1 #
2 13:1 #
-1 13:1 #
-1 5:1 #
-1 13:1 #
-1 5:1 #
-1 13:1 #
2 13:1 #
-1 13:1 #
2 13:1 #
-1 13:1 #
-1 13:1 #
2 13:1 #
-1 13:1 #
-1 13:1 #
2 13:1 #
-1 13:1 #
-1 13:1 #
2 13:1 #
-1 13:1 #
-1 13:1 #
2 13:1 #
-1 13:1 #
-1 13:1 #
2 13:1 #
-1 13:1 #
-1 13:1 #
2 13:1 #
-1 13:1 #
-1 13:1 #
2 13:1 #
-1 13:1 #
-1 13:1 #
2 13:1 #
-1 13:1 #
-1 13:1 #
2 13:1 #
-1 13:1 #
-1 13:1 #
2 13:1 #
-1 13:1 #
-1 13:1 #
2 13:1 #
-1 13:1 #
-1 13:1 #
2 13:1 #
-1 13:1 #
-1 13:1 #
2 13:1 #
-1 13:1 #
-1 13:1 #
2 13:1 #
-1 13:1 #
-1 13:1 #
2 13:1 #
-1 13:1 #
-1 13:1 #
2 13:1 #
-1 13:1 #
-1 13:1 #
2 13:1 #
-1 13:1 #
-1 13:1 #
2 13:1 #
-1 13:1 #
-1 13:1 #
2 13:1 #
-1 13:1 #
-1 13:1 #
2 13:1 #
-1 13:1 #
-1 13:1 #
2 13:1 #
-1 13:1 #
-1 13:1 #
2 13:1 #
-1 13:1 #
-1 13:1 #
2 13:1 #
-1 13:1 #
-1 13:1 #
2 13:1 #
-1 13:1 #
-1 13:1 #
2 13:1 #
-1 13:1 #
-1 13:1 #
2 13:1 #
-1 13:1 #
-1 13:1 #
2 13:1 #
-1 13:1 #
-1 13:1 #
2 13:1 #
-1 13:1 #
-1 13:1 #
2 13:1 #
-1 13:1 #
-1 5:1 #
2 13:1 #
-1 13:1 #
-1 13:1 #
-1 13:1 #
-1 13:1 #
-1 17:1 #
2 5:1 #
-1 1:1 #
2 13:1 #
-1 17:1 #
2 19:1 #
-1 19:1 #
-1 5:1 #
-1 19:1 #
-1 1:1 #
2 5:1 #
-1 5:1 #
2 19:1 #
-1 5:1 #
-1 13:1 #
2 5:1 #
-1 5:1 #
2 13:1 #
-1 5:1 #
-1 5:1 #
-1 13:1 #
2 5:1 #
-1 5:1 #
-1 19:1 #
-1 5:1 #
-1 19:1 #
2 5:1 #
-1 5:1 #
-1 5:1 #
2 5:1 #
-1 5:1 #
-1 5:1 #
2 5:1 #
-1 5:1 #
-1 5:1 #
2 5:1 #
-1 5:1 #
-1 5:1 #
2 5:1 #
-1 5:1 #
-1 5:1 #
2 5:1 #
-1 5:1 #
-1 5:1 #
2 5:1 #
-1 5:1 #
-1 5:1 #
2 5:1 #
-1 5:1 #
-1 5:1 #
2 5:1 #
-1 5:1 #
-1 5:1 #
2 5:1 #
-1 5:1 #
-1 5:1 #
2 5:1 #
-1 5:1 #
-1 5:1 #
2 5:1 #
-1 5:1 #
-1 5:1 #
2 5:1 #
-1 5:1 #
-1 5:1 #
2 5:1 #
-1 5:1 #
-1 5:1 #
2 5:1 #
-1 5:1 #
-1 5:1 #
2 5:1 #
-1 5:1 #
-1 5:1 #
2 5:1 #
-1 5:1 #
-1 5:1 #
2 5:1 #
-1 5:1 #
-1 5:1 #
2 5:1 #
-1 5:1 #
-1 5:1 #
2 5:1 #
-1 5:1 #
-1 5:1 #
2 5:1 #
-1 5:1 #
-1 5:1 #
2 5:1 #
-1 5:1 #
-1 5:1 #
2 5:1 #
-1 5:1 #
-1 5:1 #
2 5:1 #
-1 5:1 #
-1 5:1 #
2 5:1 #
-1 13:1 #
-1 5:1 #
2 5:1 #
-1 5:1 #
-1 5:1 #
-1 5:1 #
2 5:1 #
-1 5:1 #
-1 5:1 #
2 5:1 #
-1 5:1 #
-1 5:1 #
2 5:1 #
-1 5:1 #
-1 5:1 #
2 5:1 #
-1 5:1 #
-1 5:1 #
2 5:1 #
-1 5:1 #
-1 5:1 #
2 5:1 #
-1 5:1 #
-1 5:1 #
2 5:1 #
-1 5:1 #
-1 5:1 #
2 5:1 #
-1 5:1 #
-1 5:1 #
2 5:1 #
-1 5:1 #
-1 5:1 #
2 5:1 #
-1 5:1 #
-1 5:1 #
2 5:1 #
-1 5:1 #
-1 5:1 #
2 5:1 #
-1 5:1 #
-1 5:1 #
2 5:1 #
-1 5:1 #
-1 5:1 #
2 5:1 #
-1 5:1 #
-1 5:1 #
2 5:1 #
-1 5:1 #
-1 5:1 #
2 5:1 #
-1 5:1 #
-1 5:1 #
2 5:1 #
-1 5:1 #
-1 5:1 #
2 5:1 #
-1 5:1 #
-1 5:1 #
2 5:1 #
-1 5:1 #
-1 5:1 #
2 5:1 #
-1 5:1 #
-1 5:1 #
2 5:1 #
-1 5:1 #
-1 5:1 #
2 5:1 #
-1 5:1 #
-1 5:1 #
2 5:1 #
-1 5:1 #
-1 5:1 #
2 5:1 #
-1 5:1 #
-1 5:1 #
2 5:1 #
-1 5:1 #
-1 5:1 #
2 5:1 #
-1 5:1 #
-1 5:1 #
2 5:1 #
-1 5:1 #
-1 5:1 #
2 5:1 #
-1 5:1 #
-1 5:1 #
2 5:1 #
-1 5:1 #
-1 5:1 #
2 5:1 #
-1 5:1 #
-1 5:1 #
2 5:1 #
-1 5:1 #
-1 5:1 #
2 5:1 #
-1 5:1 #
-1 5:1 #
2 5:1 #
-1 5:1 #
2 5:1 #
-1 5:1 #
-1 5:1 #
2 5:1 #
-1 5:1 #
-1 5:1 #
2 5:1 #
-1 5:1 #
-1 5:1 #
2 5:1 #
-1 5:1 #
-1 5:1 #
2 5:1 #
-1 5:1 #
-1 5:1 #
2 5:1 #
-1 5:1 #
-1 5:1 #
2 5:1 #
-1 5:1 #
-1 5:1 #
2 5:1 #
-1 5:1 #
-1 5:1 #
2 5:1 #
-1 5:1 #
-1 5:1 #
2 5:1 #
-1 5:1 #
-1 5:1 #
2 5:1 #
-1 5:1 #
-1 5:1 #
2 5:1 #
-1 5:1 #
-1 5:1 #
2 5:1 #
-1 5:1 #
-1 5:1 #
2 5:1 #
-1 5:1 #
-1 5:1 #
2 5:1 #
-1 5:1 #
-1 5:1 #
2 5:1 #
-1 5:1 #
-1 5:1 #
2 5:1 #
-1 5:1 #
-1 5:1 #
2 5:1 #
-1 5:1 #
-1 5:1 #
2 5:1 #
-1 5:1 #
-1 5:1 #
2 5:1 #
-1 5:1 #
-1 5:1 #
2 5:1 #
-1 5:1 #
-1 5:1 #
2 5:1 #
-1 5:1 #
-1 5:1 #
2 5:1 #
-1 5:1 #
-1 5:1 #
2 5:1 #
-1 5:1 #
-1 5:1 #
2 5:1 #
-1 5:1 #
-1 5:1 #
2 5:1 #
-1 5:1 #
-1 5:1 #
2 5:1 #
-1 5:1 #
-1 5:1 #
2 5:1 #
-1 5:1 #
-1 5:1 #
2 5:1 #
-1 5:1 #
-1 5:1 #
2 5:1 #
-1 5:1 #
-1 5:1 #
2 5:1 #
-1 5:1 #
-1 5:1 #
2 5:1 #
-1 5:1 #
-1 5:1 #
2 5:1 #
-1 5:1 #
-1 5:1 #
2 5:1 #
-1 5:1 #
-1 13:1 #
-1 5:1 #
2 5:1 #
-1 5:1 #
2 5:1 #
-1 5:1 #
-1 5:1 #
2 5:1 #
-1 5:1 #
-1 5:1 #
2 5:1 #
-1 5:1 #
-1 5:1 #
2 5:1 #
-1 5:1 #
-1 5:1 #
2 5:1 #
-1 5:1 #
-1 5:1 #
2 5:1 #
-1 5:1 #
-1 5:1 #
2 5:1 #
-1 5:1 #
-1 5:1 #
2 5:1 #
-1 5:1 #
-1 5:1 #
2 5:1 #
-1 5:1 #
-1 5:1 #
2 5:1 #
-1 5:1 #
-1 5:1 #
2 5:1 #
-1 5:1 #
-1 5:1 #
2 5:1 #
-1 5:1 #
-1 5:1 #
2 5:1 #
-1 5:1 #
-1 5:1 #
2 5:1 #
-1 5:1 #
-1 5:1 #
2 5:1 #
-1 5:1 #
-1 5:1 #
2 5:1 #
-1 5:1 #
-1 5:1 #
2 5:1 #
-1 5:1 #
-1 5:1 #
2 5:1 #
-1 5:1 #
-1 5:1 #
2 5:1 #
-1 5:1 #
-1 5:1 #
2 5:1 #
-1 5:1 #
-1 5:1 #
2 5:1 #
-1 5:1 #
-1 5:1 #
2 5:1 #
-1 5:1 #
-1 5:1 #
2 5:1 #
-1 5:1 #
-1 5:1 #
2 5:1 #
-1 5:1 #
-1 5:1 #
2 5:1 #
-1 5:1 #
-1 5:1 #
2 5:1 #
-1 5:1 #
-1 5:1 #
2 5:1 #
-1 5:1 #
-1 5:1 #
2 5:1 #
-1 5:1 #
-1 5:1 #
2 5:1 #
-1 5:1 #
-1 5:1 #
2 5:1 #
-1 5:1 #
-1 5:1 #
2 5:1 #
-1 5:1 #
-1 5:1 #
2 5:1 #
-1 5:1 #
-1 5:1 #
2 5:1 #
-1 5:1 #
-1 13:1 #
-1 5:1 #
2 5:1 #
-1 5:1 #
2 5:1 #
-1 5:1 #
-1 5:1 #
2 5:1 #
-1 5:1 #
-1 5:1 #
2 5:1 #
-1 5:1 #
-1 5:1 #
2 5:1 #
-1 5:1 #
-1 5:1 #
2 5:1 #
-1 5:1 #
-1 5:1 #
2 5:1 #
-1 5:1 #
-1 5:1 #
2 5:1 #
-1 5:1 #
-1 5:1 #
2 5:1 #
-1 5:1 #
-1 5:1 #
2 5:1 #
-1 5:1 #
-1 5:1 #
2 5:1 #
-1 5:1 #
-1 5:1 #
2 5:1 #
-1 5:1 #
-1 5:1 #
2 5:1 #
-1 5:1 #
-1 5:1 #
2 5:1 #
-1 5:1 #
-1 5:1 #
2 5:1 #
-1 5:1 #
-1 5:1 #
2 5:1 #
-1 5:1 #
-1 5:1 #
2 5:1 #
-1 5:1 #
-1 5:1 #
2 5:1 #
-1 5:1 #
-1 5:1 #
2 5:1 #
-1 5:1 #
-1 5:1 #
2 5:1 #
-1 5:1 #
-1 5:1 #
2 5:1 #
-1 5:1 #
-1 5:1 #
2 5:1 #
-1 5:1 #
-1 5:1 #
2 5:1 #
-1 5:1 #
-1 5:1 #
2 5:1 #
-1 5:1 #
-1 5:1 #
2 5:1 #
-1 5:1 #
-1 5:1 #
2 5:1 #
-1 5:1 #
-1 5:1 #
2 5:1 #
-1 5:1 #
-1 5:1 #
2 5:1 #
-1 5:1 #
-1 5:1 #
-1 5:1 #
2 5:1 #
-1 5:1 #
-1 5:1 #
2 5:1 #
-1 5:1 #
-1 5:1 #
2 5:1 #
-1 5:1 #
-1 5:1 #
-1 5:1 #
2 5:1 #
-1 5:1 #
-1 5:1 #
2 5:1 #
-1 5:1 #
-1 5:1 #
2 5:1 #
-1 5:1 #
-1 5:1 #
2 5:1 #
-1 5:1 #
-1 5:1 #
2 5:1 #
-1 5:1 #
-1 5:1 #
2 5:1 #
-1 5:1 #
-1 5:1 #
2 5:1 #
-1 5:1 #
-1 5:1 #
2 5:1 #
-1 5:1 #
-1 5:1 #
2 5:1 #
-1 5:1 #
-1 5:1 #
2 5:1 #
-1 5:1 #
-1 5:1 #
2 5:1 #
-1 5:1 #
2 5:1 #
-1 5:1 #
-1 5:1 #
2 5:1 #
-1 5:1 #
-1 5:1 #
2 5:1 #
-1 5:1 #
-1 5:1 #
2 5:1 #
-1 5:1 #
-1 5:1 #
2 5:1 #
-1 5:1 #
-1 5:1 #
2 5:1 #
-1 5:1 #
-1 5:1 #
2 5:1 #
-1 5:1 #
-1 5:1 #
2 5:1 #
-1 5:1 #
-1 5:1 #
2 5:1 #
-1 5:1 #
-1 5:1 #
2 5:1 #
-1 5:1 #
-1 5:1 #
2 5:1 #
-1 5:1 #
-1 5:1 #
2 5:1 #
-1 5:1 #
-1 5:1 #
2 5:1 #
-1 5:1 #
-1 5:1 #
2 5:1 #
-1 5:1 #
-1 5:1 #
2 5:1 #
-1 5:1 #
-1 5:1 #
2 5:1 #
-1 5:1 #
-1 5:1 #
2 5:1 #
-1 5:1 #
-1 5:1 #
2 5:1 #
-1 5:1 #
-1 5:1 #
2 5:1 #
-1 5:1 #
-1 5:1 #
2 5:1 #
-1 5:1 #
-1 5:1 #
2 5:1 #
-1 5:1 #
-1 5:1 #
2 5:1 #
-1 5:1 #
-1 5:1 #
2 5:1 #
-1 5:1 #
-1 5:1 #
2 5:1 #
-1 5:1 #
-1 5:1 #
2 5:1 #
-1 5:1 #
-1 5:1 #
2 5:1 #
-1 5:1 #
-1 5:1 #
2 5:1 #
-1 5:1 #
-1 5:1 #
2 5:1 #
-1 5:1 #
-1 5:1 #
2 5:1 #
-1 5:1 #
-1 5:1 #
2 5:1 #
-1 5:1 #
-1 5:1 #
2 5:1 #
-1 5:1 #
-1 5:1 #
2 5:1 #
-1 5:1 #
-1 5:1 #
2 5:1 #
-1 5:1 #
-1 5:1 #
2 5:1 #
-1 5:1 #
-1 5:1 #
2 5:1 #
-1 5:1 #
-1 5:1 #
2 5:1 #
-1 5:1 #
-1 5:1 #
2 5:1 #
-1 5:1 #
-1 5:1 #
2 5:1 #
-1 5:1 #
-1 5:1 #
2 5:1 #
-1 5:1 #
-1 5:1 #
2 5:1 #
-1 5:1 #
-1 5:1 #
2 5:1 #
-1 5:1 #
-1 5:1 #
2 5:1 #
-1 5:1 #
-1 5:1 #
2 5:1 #
-1 5:1 #
-1 5:1 #
2 5:1 #
-1 5:1 #
-1 5:1 #
2 5:1 #
-1 5:1 #
-1 5:1 #
2 5:1 #
-1 5:1 #
-1 5:1 #
2 5:1 #
-1 5:1 #
-1 5:1 #
2 5:1 #
-1 5:1 #
-1 5:1 #
2 5:1 #
-1 5:1 #
-1 5:1 #
2 5:1 #
-1 5:1 #
-1 5:1 #
2 5:1 #
-1 5:1 #
-1 5:1 #
2 5:1 #
-1 5:1 #
-1 5:1 #
2 5:1 #
-1 5:1 #
-1 5:1 #
2 5:1 #
-1 5:1 #
-1 5:1 #
2 5:1 #
-1 5:1 #
-1 5:1 #
2 5:1 #
-1 5:1 #
-1 5:1 #
2 5:1 #
-1 5:1 #
-1 13:1 #
-1 5:1 #
-1 5:1 #
2 5:1 #
-1 5:1 #
-1 5:1 #
2 5:1 #
-1 5:1 #
2 13:1 #
-1 5:1 #
2 1:1 #
2 17:1 #
-1 5:1 #
2 5:1 #
-1 5:1 #
2 19:1 #
2 5:1 #
-1 5:1 #
2 13:1 #
-1 5:1 #
-1 5:1 #
2 5:1 #
-1 5:1 #
-1 5:1 #
2 5:1 #
-1 5:1 #
-1 5:1 #
2 5:1 #
-1 5:1 #
-1 5:1 #
2 5:1 #
-1 5:1 #
-1 5:1 #
2 5:1 #
-1 5:1 #
-1 5:1 #
2 5:1 #
-1 5:1 #
-1 5:1 #
2 5:1 #
-1 5:1 #
-1 5:1 #
2 5:1 #
-1 5:1 #
-1 5:1 #
2 5:1 #
-1 5:1 #
-1 5:1 #
2 5:1 #
-1 5:1 #
-1 5:1 #
2 5:1 #
-1 5:1 #
-1 5:1 #
2 5:1 #
-1 5:1 #
-1 5:1 #
2 5:1 #
-1 5:1 #
-1 5:1 #
2 5:1 #
-1 5:1 #
-1 5:1 #
2 5:1 #
-1 5:1 #
-1 5:1 #
2 5:1 #
-1 5:1 #
-1 5:1 #
2 5:1 #
-1 5:1 #
-1 5:1 #
2 5:1 #
-1 5:1 #
-1 5:1 #
2 5:1 #
-1 5:1 #
-1 5:1 #
2 5:1 #
-1 5:1 #
-1 5:1 #
2 5:1 #
-1 5:1 #
-1 5:1 #
2 5:1 #
-1 5:1 #
-1 5:1 #
2 5:1 #
-1 5:1 #
-1 5:1 #
2 5:1 #
-1 5:1 #
-1 5:1 #
2 5:1 #
-1 5:1 #
-1 5:1 #
2 5:1 #
-1 5:1 #
-1 5:1 #
2 5:1 #
-1 5:1 #
-1 5:1 #
2 5:1 #
-1 5:1 #
-1 5:1 #
2 5:1 #
-1 5:1 #
-1 5:1 #
2 5:1 #
-1 5:1 #
-1 5:1 #
2 5:1 #
-1 5:1 #
-1 5:1 #
2 5:1 #
-1 5:1 #
-1 5:1 #
2 5:1 #
-1 5:1 #
-1 5:1 #
2 5:1 #
-1 5:1 #
-1 5:1 #
2 5:1 #
-1 5:1 #
-1 5:1 #
2 5:1 #
-1 5:1 #
-1 5:1 #
2 5:1 #
-1 5:1 #
-1 5:1 #
2 5:1 #
-1 5:1 #
-1 5:1 #
2 5:1 #
-1 5:1 #
-1 5:1 #
2 5:1 #
-0.50025400738963932134595324896509 5:1 #
-1 5:1 #
2 5:1 #
-1 5:1 #
2 5:1 #
-1 17:1 #
-1 5:1 #
-1 1:1 #
-1 5:1 #
-1 19:1 #
2 5:1 #
-1 5:1 #
2 17:1 #
-1 17:1 #
-1 5:1 #
-1 17:1 #
2 5:1 #
-1 5:1 #
-1 19:1 #
-1 5:1 #
2 17:1 #
-1 17:1 #
2 5:1 #
-1 5:1 #
-1 17:1 #
-1 5:1 #
-1 17:1 #
2 17:1 #
-1 5:1 #
2 5:1 #
-1 17:1 #
-1 5:1 #
-1 17:1 #
2 17:1 #
-1 5:1 #
2 5:1 #
-1 17:1 #
-1 5:1 #
-1 17:1 #
2 17:1 #
-1 5:1 #
2 5:1 #
-1 17:1 #
-1 5:1 #
-1 17:1 #
2 17:1 #
-1 5:1 #
2 5:1 #
-1 17:1 #
-1 5:1 #
-1 17:1 #
2 17:1 #
-1 5:1 #
2 5:1 #
-1 17:1 #
-1 5:1 #
-1 17:1 #
2 17:1 #
-1 5:1 #
2 5:1 #
-1 17:1 #
-1 5:1 #
-1 17:1 #
2 17:1 #
-1 5:1 #
2 5:1 #
-1 17:1 #
-1 5:1 #
-1 17:1 #
2 17:1 #
-1 5:1 #
2 5:1 #
-1 17:1 #
-1 5:1 #
-1 17:1 #
2 17:1 #
-1 5:1 #
2 5:1 #
-1 17:1 #
-1 5:1 #
-1 17:1 #
2 17:1 #
-1 5:1 #
2 5:1 #
-1 17:1 #
-1 5:1 #
-1 17:1 #
2 17:1 #
-1 5:1 #
2 5:1 #
-1 17:1 #
-1 5:1 #
-1 17:1 #
2 17:1 #
-1 5:1 #
2 5:1 #
-1 17:1 #
-1 5:1 #
-1 17:1 #
2 17:1 #
-1 5:1 #
2 5:1 #
-1 17:1 #
-1 13:1 #
2 17:1 #
-1 5:1 #
-1 17:1 #
-1 5:1 #
2 5:1 #
-1 1:1 #
2 17:1 #
-1 5:1 #
-1 17:1 #
2 5:1 #
-1 5:1 #
-1 17:1 #
2 17:1 #
-1 5:1 #
-1 17:1 #
2 5:1 #
-1 5:1 #
-1 17:1 #
-1 5:1 #
-1 17:1 #
-1 5:1 #
2 5:1 #
-1 17:1 #
-1 5:1 #
2 5:1 #
-1 5:1 #
-1 5:1 #
2 5:1 #
-1 5:1 #
-1 5:1 #
2 5:1 #
-1 5:1 #
-1 5:1 #
2 5:1 #
-1 5:1 #
-1 5:1 #
2 5:1 #
-1 5:1 #
-1 5:1 #
2 5:1 #
-1 5:1 #
-1 5:1 #
2 5:1 #
-1 5:1 #
-1 5:1 #
2 5:1 #
-1 5:1 #
-1 5:1 #
2 5:1 #
-1 5:1 #
-1 5:1 #
2 5:1 #
-1 5:1 #
-1 5:1 #
2 5:1 #
-1 5:1 #
-1 5:1 #
2 5:1 #
-1 5:1 #
-1 5:1 #
2 5:1 #
-1 5:1 #
-1 5:1 #
2 5:1 #
-1 5:1 #
-1 5:1 #
2 5:1 #
-1 5:1 #
-1 5:1 #
2 5:1 #
-1 5:1 #
-1 5:1 #
2 5:1 #
-1 5:1 #
-1 5:1 #
2 5:1 #
-1 5:1 #
-1 5:1 #
2 5:1 #
-1 5:1 #
-1 5:1 #
2 5:1 #
-1 5:1 #
-1 5:1 #
2 5:1 #
-1 5:1 #
-1 5:1 #
2 5:1 #
-1 5:1 #
-1 5:1 #
2 5:1 #
-1 5:1 #
-1 5:1 #
2 5:1 #
-1 5:1 #
-1 5:1 #
2 5:1 #
-1 5:1 #
-1 5:1 #
2 5:1 #
-1 19:1 #
-1 5:1 #
2 5:1 #
-1 5:1 #
-1 5:1 #
2 5:1 #
-1 5:1 #
-1 5:1 #
2 5:1 #
-1 5:1 #
-1 5:1 #
2 5:1 #
-1 5:1 #
-1 5:1 #
2 5:1 #
-1 5:1 #
-1 5:1 #
2 5:1 #
-1 5:1 #
-1 5:1 #
2 5:1 #
-1 5:1 #
-1 5:1 #
2 5:1 #
-1 5:1 #
-1 5:1 #
2 5:1 #
-1 5:1 #
-1 5:1 #
2 5:1 #
-1 5:1 #
-1 5:1 #
2 5:1 #
-1 5:1 #
-1 5:1 #
2 5:1 #
-1 5:1 #
-1 5:1 #
2 5:1 #
-1 5:1 #
-1 5:1 #
2 5:1 #
-1 5:1 #
-1 5:1 #
2 5:1 #
-1 5:1 #
-1 5:1 #
2 5:1 #
-1 5:1 #
-1 5:1 #
2 5:1 #
-1 5:1 #
-1 5:1 #
2 5:1 #
-1 5:1 #
-1 5:1 #
2 5:1 #
-1 5:1 #
-1 5:1 #
2 5:1 #
-1 5:1 #
-1 5:1 #
2 5:1 #
-1 5:1 #
-1 5:1 #
2 5:1 #
-1 5:1 #
-1 5:1 #
2 5:1 #
-1 5:1 #
-1 5:1 #
2 5:1 #
-1 5:1 #
-1 5:1 #
2 5:1 #
-1 5:1 #
-1 5:1 #
2 5:1 #
-1 5:1 #
-1 5:1 #
2 5:1 #
-1 5:1 #
-1 5:1 #
2 5:1 #
-1 5:1 #
-1 5:1 #
2 5:1 #
-1 5:1 #
-1 5:1 #
2 5:1 #
-1 5:1 #
-1 5:1 #
2 5:1 #
-1 5:1 #
-1 5:1 #
2 5:1 #
2 5:1 #
-1 5:1 #
-1 5:1 #
-1 1:1 #
-1 5:1 #
-1 13:1 #
2 5:1 #
-1 5:1 #
-1 5:1 #
2 5:1 #
-1 5:1 #
-1 5:1 #
-1 5:1 #
2 19:1 #
2 13:1 #
-1 19:1 #
2 17:1 #
2 1:1 #
2 19:1 #
-1 19:1 #
-1 17:1 #
-1 1:1 #
-1 13:1 #
2 13:1 #
-1 19:1 #
2 19:1 #
-1 13:1 #
-1 19:1 #
-1 13:1 #
2 19:1 #
-1 19:1 #
-1 19:1 #
2 19:1 #
-1 19:1 #
-1 19:1 #
2 19:1 #
-1 19:1 #
-1 19:1 #
2 19:1 #
-1 19:1 #
-1 19:1 #
2 19:1 #
-1 19:1 #
-1 19:1 #
2 19:1 #
-1 19:1 #
-1 19:1 #
2 19:1 #
-1 19:1 #
-1 19:1 #
2 19:1 #
-1 19:1 #
-1 19:1 #
2 19:1 #
-1 19:1 #
-1 19:1 #
2 19:1 #
-1 19:1 #
-1 19:1 #
2 19:1 #
-1 19:1 #
-1 19:1 #
2 19:1 #
-1 19:1 #
-1 19:1 #
2 19:1 #
-1 19:1 #
-1 19:1 #
2 19:1 #
-1 19:1 #
-1 19:1 #
2 19:1 #
-1 19:1 #
-1 19:1 #
2 19:1 #
-1 19:1 #
-1 19:1 #
2 19:1 #
-1 19:1 #
-1 19:1 #
2 19:1 #
-1 19:1 #
-1 19:1 #
2 19:1 #
-1 19:1 #
-1 19:1 #
2 19:1 #
-1 19:1 #
-1 19:1 #
2 19:1 #
-1 19:1 #
-1 19:1 #
2 19:1 #
-1 19:1 #
-1 19:1 #
2 19:1 #
-1 19:1 #
-1 19:1 #
2 19:1 #
-1 19:1 #
-1 19:1 #
2 19:1 #
-1 19:1 #
-1 19:1 #
2 19:1 #
-1 19:1 #
-1 17:1 #
-1 19:1 #
2 19:1 #
-1 19:1 #
-1 19:1 #
2 19:1 #
-1 19:1 #
-1 19:1 #
2 19:1 #
-1 19:1 #
-1 19:1 #
2 19:1 #
-1 19:1 #
-1 19:1 #
2 19:1 #
-1 19:1 #
-1 19:1 #
2 19:1 #
-1 19:1 #
-1 19:1 #
2 19:1 #
-1 19:1 #
-1 19:1 #
2 19:1 #
-1 19:1 #
-1 19:1 #
2 19:1 #
-1 19:1 #
-1 19:1 #
2 19:1 #
-1 19:1 #
-1 19:1 #
2 19:1 #
-1 19:1 #
-1 19:1 #
2 19:1 #
-1 19:1 #
-1 19:1 #
2 19:1 #
-1 19:1 #
-1 19:1 #
2 19:1 #
-1 19:1 #
-1 19:1 #
2 19:1 #
-1 19:1 #
-1 19:1 #
2 19:1 #
-1 19:1 #
-1 19:1 #
2 19:1 #
-1 19:1 #
-1 19:1 #
2 19:1 #
-1 19:1 #
-1 19:1 #
2 19:1 #
-1 19:1 #
-1 19:1 #
2 19:1 #
-1 19:1 #
-1 19:1 #
2 19:1 #
-1 19:1 #
-1 19:1 #
2 19:1 #
-1 19:1 #
-1 19:1 #
2 19:1 #
-1 19:1 #
-1 19:1 #
2 19:1 #
-1 19:1 #
-1 19:1 #
2 19:1 #
-1 19:1 #
-1 19:1 #
2 19:1 #
-1 19:1 #
-1 19:1 #
2 19:1 #
-1 19:1 #
-1 19:1 #
2 19:1 #
-1 19:1 #
-1 19:1 #
2 19:1 #
-1 19:1 #
-1 19:1 #
2 19:1 #
-1 19:1 #
-1 19:1 #
2 19:1 #
-1 19:1 #
-1 19:1 #
2 19:1 #
-1 19:1 #
-1 19:1 #
2 19:1 #
-1 19:1 #
-1 19:1 #
-1 13:1 #
2 19:1 #
-1 19:1 #
-1 19:1 #
2 19:1 #
-1 19:1 #
-1 19:1 #
2 19:1 #
-1 19:1 #
-1 19:1 #
2 19:1 #
-1 19:1 #
-1 19:1 #
2 19:1 #
-1 19:1 #
-1 19:1 #
2 19:1 #
-1 19:1 #
-1 19:1 #
2 19:1 #
-1 19:1 #
-1 19:1 #
2 19:1 #
-1 19:1 #
-1 19:1 #
2 19:1 #
-1 19:1 #
-1 19:1 #
2 19:1 #
-1 19:1 #
-1 19:1 #
2 19:1 #
-1 19:1 #
-1 19:1 #
2 19:1 #
-1 19:1 #
-1 19:1 #
2 19:1 #
-1 19:1 #
-1 19:1 #
2 19:1 #
-1 19:1 #
-1 19:1 #
2 19:1 #
-1 19:1 #
-1 19:1 #
2 19:1 #
-1 19:1 #
-1 19:1 #
2 19:1 #
-1 19:1 #
-1 19:1 #
2 19:1 #
-1 19:1 #
-1 19:1 #
2 19:1 #
-1 19:1 #
-1 19:1 #
2 19:1 #
-1 19:1 #
-1 19:1 #
2 19:1 #
-1 19:1 #
-1 19:1 #
2 19:1 #
-1 19:1 #
-1 19:1 #
2 19:1 #
-1 19:1 #
-1 19:1 #
2 19:1 #
-1 19:1 #
-1 19:1 #
2 19:1 #
-1 19:1 #
-1 19:1 #
2 19:1 #
-1 19:1 #
-1 19:1 #
2 19:1 #
-1 19:1 #
-1 19:1 #
2 19:1 #
-1 19:1 #
-1 19:1 #
2 19:1 #
-1 19:1 #
-1 19:1 #
2 19:1 #
-1 19:1 #
-1 19:1 #
2 19:1 #
-1 19:1 #
-1 19:1 #
2 19:1 #
-1 19:1 #
-1 19:1 #
2 19:1 #
-1 19:1 #
-1 19:1 #
2 19:1 #
-1 1:1 #
0.78046625981178996411813386657741 19:1 #
-1 19:1 #
-1 19:1 #
-1 19:1 #
2 19:1 #
-1 19:1 #
-1 19:1 #
2 19:1 #
-1 19:1 #
-1 19:1 #
2 19:1 #
-1 19:1 #
-1 19:1 #
2 19:1 #
-1 19:1 #
-1 19:1 #
2 19:1 #
-1 19:1 #
-1 19:1 #
2 19:1 #
-1 19:1 #
-1 19:1 #
2 19:1 #
-1 19:1 #
-1 19:1 #
2 19:1 #
-1 19:1 #
-1 19:1 #
2 19:1 #
-1 19:1 #
-1 19:1 #
2 19:1 #
-1 19:1 #
-1 19:1 #
2 19:1 #
-1 19:1 #
-1 19:1 #
2 19:1 #
-1 19:1 #
-1 19:1 #
2 19:1 #
-1 19:1 #
-1 19:1 #
2 19:1 #
-1 19:1 #
-1 19:1 #
2 19:1 #
-1 19:1 #
-1 19:1 #
2 19:1 #
-1 19:1 #
-1 19:1 #
2 19:1 #
-1 19:1 #
-1 19:1 #
2 19:1 #
-1 19:1 #
-1 19:1 #
2 19:1 #
-1 19:1 #
-1 19:1 #
-1 19:1 #
1.7192797327985744892941966099897 19:1 #
-1 1:1 #
2 13:1 #
2 1:1 #
-1 1:1 #
2 17:1 #
2 1:1 #
-1 1:1 #
-1 1:1 #
-1 1:1 #
2 1:1 #
-1 1:1 #
-1 1:1 #
2 1:1 #
-1 1:1 #
-1 1:1 #
2 1:1 #
-1 1:1 #
-1 1:1 #
2 1:1 #
-1 1:1 #
-1 1:1 #
2 1:1 #
-1 1:1 #
-1 1:1 #
2 1:1 #
-1 1:1 #
-1 1:1 #
2 1:1 #
-1 1:1 #
-1 1:1 #
2 1:1 #
-1 1:1 #
-1 1:1 #
2 1:1 #
-1 1:1 #
-1 1:1 #
2 1:1 #
-1 1:1 #
-1 1:1 #
2 1:1 #
-1 1:1 #
-1 1:1 #
2 1:1 #
-1 1:1 #
-1 1:1 #
2 1:1 #
-1 1:1 #
-1 1:1 #
2 1:1 #
-1 1:1 #
-1 1:1 #
2 1:1 #
-1 1:1 #
-1 1:1 #
2 1:1 #
-1 1:1 #
2 1:1 #
-1 1:1 #
-1 1:1 #
2 1:1 #
-1 1:1 #
-1 1:1 #
2 1:1 #
-1 1:1 #
-1 1:1 #
2 1:1 #
-1 1:1 #
-1 1:1 #
2 1:1 #
-1 1:1 #
-1 1:1 #
2 1:1 #
-1 1:1 #
-1 1:1 #
2 1:1 #
-1 1:1 #
-1 1:1 #
2 1:1 #
-1 1:1 #
-1 1:1 #
2 1:1 #
-1 1:1 #
-1 1:1 #
2 1:1 #
-1 1:1 #
-1 1:1 #
2 1:1 #
-1 1:1 #
-1 1:1 #
2 1:1 #
-1 1:1 #
-1 1:1 #
2 1:1 #
-1 1:1 #
-1 1:1 #
2 1:1 #
-1 1:1 #
-1 1:1 #
2 1:1 #
-1 1:1 #
-1 1:1 #
2 1:1 #
-1 1:1 #
-1 1:1 #
2 1:1 #
-1 1:1 #
-1 1:1 #
2 1:1 #
-1 1:1 #
-1 1:1 #
2 1:1 #
-1 1:1 #
-1 1:1 #
2 1:1 #
-1 1:1 #
-1 1:1 #
2 1:1 #
-1 1:1 #
-1 1:1 #
2 1:1 #
-1 1:1 #
-1 1:1 #
2 1:1 #
-1 1:1 #
-1 1:1 #
2 1:1 #
-1 1:1 #
-1 1:1 #
2 1:1 #
-1 1:1 #
-1 1:1 #
2 1:1 #
-1 1:1 #
-1 1:1 #
2 1:1 #
-1 1:1 #
-1 1:1 #
2 1:1 #
-1 1:1 #
-1 1:1 #
2 1:1 #
-1 1:1 #
-1 1:1 #
2 1:1 #
-1 1:1 #
-1 1:1 #
2 1:1 #
-1 1:1 #
-1 1:1 #
2 1:1 #
-1 1:1 #
-1 1:1 #
2 1:1 #
-1 1:1 #
-1 1:1 #
2 1:1 #
-1 1:1 #
-1 1:1 #
2 1:1 #
-1 1:1 #
-1 1:1 #
2 1:1 #
-1 1:1 #
-1 1:1 #
2 1:1 #
-1 1:1 #
-1 1:1 #
2 1:1 #
-1 1:1 #
-1 1:1 #
2 1:1 #
-1 1:1 #
-1 1:1 #
2 1:1 #
-1 1:1 #
-1 1:1 #
2 1:1 #
-1 1:1 #
-1 1:1 #
2 1:1 #
-1 1:1 #
-1 1:1 #
-1 1:1 #
2 1:1 #
-1 1:1 #
-1 1:1 #
2 1:1 #
-1 1:1 #
-1 1:1 #
2 1:1 #
-1 1:1 #
-1 1:1 #
2 1:1 #
-1 1:1 #
-1 1:1 #
2 1:1 #
-1 1:1 #
-1 1:1 #
2 1:1 #
-1 1:1 #
-1 1:1 #
2 1:1 #
-1 1:1 #
-1 1:1 #
2 1:1 #
-1 1:1 #
-1 1:1 #
2 1:1 #
-1 1:1 #
-1 1:1 #
2 1:1 #
-1 1:1 #
-1 1:1 #
2 1:1 #
-1 1:1 #
-1 1:1 #
2 1:1 #
-1 1:1 #
-1 1:1 #
2 1:1 #
-1 1:1 #
-1 1:1 #
2 1:1 #
-1 1:1 #
-1 1:1 #
2 1:1 #
-1 1:1 #
-1 1:1 #
2 1:1 #
-1 1:1 #
-1 1:1 #
2 1:1 #
-1 1:1 #
-1 1:1 #
2 1:1 #
-1 1:1 #
-1 1:1 #
2 1:1 #
-1 1:1 #
-1 1:1 #
2 1:1 #
-1 1:1 #
-1 1:1 #
2 1:1 #
-1 1:1 #
-1 1:1 #
2 1:1 #
-1 1:1 #
-1 1:1 #
2 1:1 #
-1 1:1 #
-1 1:1 #
2 1:1 #
-1 1:1 #
-1 1:1 #
2 1:1 #
-1 1:1 #
-1 1:1 #
2 1:1 #
-1 1:1 #
-1 1:1 #
2 1:1 #
-1 1:1 #
-1 1:1 #
2 1:1 #
-1 1:1 #
-1 1:1 #
2 1:1 #
-1 1:1 #
-1 1:1 #
2 1:1 #
-1 1:1 #
-1 1:1 #
2 1:1 #
-1 1:1 #
-1 1:1 #
2 1:1 #
-1 1:1 #
-1 1:1 #
2 1:1 #
-1 1:1 #
-1 1:1 #
2 1:1 #
-1 1:1 #
-1 1:1 #
2 1:1 #
-1 1:1 #
-1 1:1 #
2 1:1 #
-1 1:1 #
-1 1:1 #
2 1:1 #
-1 1:1 #
-1 1:1 #
2 1:1 #
-1 1:1 #
-1 1:1 #
2 1:1 #
-1 1:1 #
-1 1:1 #
2 1:1 #
-1 1:1 #
-1 1:1 #
2 1:1 #
-1 1:1 #
-1 1:1 #
2 1:1 #
-1 1:1 #
-1 1:1 #
2 1:1 #
-1 1:1 #
-1 1:1 #
2 1:1 #
-1 1:1 #
-1 1:1 #
2 1:1 #
-1 1:1 #
-1 1:1 #
2 1:1 #
-1 1:1 #
-1 1:1 #
2 1:1 #
-1 1:1 #
-1 1:1 #
2 1:1 #
-1 1:1 #
-1 1:1 #
2 1:1 #
-1 1:1 #
-1 1:1 #
2 1:1 #
-1 1:1 #
-1 1:1 #
2 1:1 #
-1 1:1 #
-1 1:1 #
2 1:1 #
-1 1:1 #
-1 1:1 #
2 1:1 #
-1 1:1 #
-1 1:1 #
2 1:1 #
-1 1:1 #
-1 1:1 #
2 1:1 #
-1 1:1 #
-1 1:1 #
2 1:1 #
-1 1:1 #
2 1:1 #
-1 1:1 #
-1 1:1 #
-1 1:1 #
2 1:1 #
-1 1:1 #
-1 1:1 #
2 1:1 #
-1 1:1 #
-1 1:1 #
2 1:1 #
2 1:1 #
-1 13:1 #
-1 1:1 #
-1 17:1 #
2 1:1 #
-1 1:1 #
-1 1:1 #
-1 1:1 #
2 1:1 #
-1 1:1 #
-1 1:1 #
2 1:1 #
-1 1:1 #
-1 1:1 #
2 1:1 #
-1 1:1 #
-1 1:1 #
2 1:1 #
-1 1:1 #
-1 1:1 #
2 1:1 #
-1 1:1 #
-1 1:1 #
2 1:1 #
-1 1:1 #
-1 1:1 #
2 1:1 #
-1 1:1 #
-1 1:1 #
2 1:1 #
-1 1:1 #
-1 1:1 #
2 1:1 #
-1 1:1 #
-1 1:1 #
2 1:1 #
-1 1:1 #
-1 1:1 #
2 1:1 #
-1 1:1 #
-1 1:1 #
2 1:1 #
-1 1:1 #
-1 1:1 #
2 1:1 #
-1 1:1 #
-1 1:1 #
2 1:1 #
-1 1:1 #
-1 1:1 #
2 1:1 #
-1 1:1 #
-1 1:1 #
2 1:1 #
-1 1:1 #
-1 1:1 #
2 1:1 #
-1 1:1 #
-1 1:1 #
2 1:1 #
-1 1:1 #
-1 1:1 #
2 1:1 #
-1 1:1 #
-1 1:1 #
2 1:1 #
-1 1:1 #
-1 1:1 #
2 1:1 #
-1 1:1 #
-1 1:1 #
2 1:1 #
-1 1:1 #
-1 1:1 #
2 1:1 #
-1 1:1 #
-1 1:1 #
2 1:1 #
-1 1:1 #
-1 1:1 #
2 1:1 #
-1 1:1 #
-1 1:1 #
2 1:1 #
-1 1:1 #
-1 1:1 #
2 1:1 #
-1 1:1 #
-1 1:1 #
2 1:1 #
-1 1:1 #
-1 1:1 #
2 1:1 #
-1 1:1 #
-1 13:1 #
-1 17:1 #
-0.49984768372215626630605811442365 12:1 #
-1 1:1 #
2 1:1 #
-1 1:1 #
-1 1:1 #
2 1:1 #
-1 1:1 #
-1 1:1 #
2 1:1 #
-1 1:1 #
-1 1:1 #
2 1:1 #
-1 1:1 #
-1 1:1 #
2 1:1 #
-1 1:1 #
-1 1:1 #
2 1:1 #
-1 1:1 #
-1 1:1 #
2 1:1 #
-1 1:1 #
-1 1:1 #
2 1:1 #
-1 1:1 #
-1 1:1 #
2 1:1 #
-1 1:1 #
-1 1:1 #
2 1:1 #
-1 1:1 #
-1 1:1 #
2 1:1 #
-1 1:1 #
-1 1:1 #
2 1:1 #
-1 1:1 #
-1 1:1 #
2 1:1 #
-1 1:1 #
-1 1:1 #
2 1:1 #
-1 1:1 #
-1 1:1 #
2 1:1 #
-1 1:1 #
-1 1:1 #
2 1:1 #
-1 1:1 #
-1 1:1 #
2 1:1 #
-1 1:1 #
-1 1:1 #
2 1:1 #
-1 1:1 #
-1 1:1 #
2 1:1 #
-1 1:1 #
-1 1:1 #
2 1:1 #
-1 1:1 #
-1 1:1 #
2 1:1 #
-1 1:1 #
-1 1:1 #
2 1:1 #
-1 1:1 #
-1 1:1 #
2 1:1 #
-1 1:1 #
-1 1:1 #
2 1:1 #
-1 1:1 #
-1 1:1 #
2 1:1 #
-1 1:1 #
-1 1:1 #
2 1:1 #
-1 1:1 #
-1 1:1 #
2 1:1 #
-1 1:1 #
-1 1:1 #
2 1:1 #
-1 1:1 #
-1 1:1 #
2 1:1 #
-1 1:1 #
-1 1:1 #
2 1:1 #
-1 1:1 #
-1 1:1 #
2 1:1 #
-1 1:1 #
-1 1:1 #
2 1:1 #
-1 1:1 #
-1 1:1 #
2 1:1 #
-1 1:1 #
-1 1:1 #
-1 17:1 #
-0.49984768372215737652908273958019 2:1 #
2 1:1 #
-1 1:1 #
2 1:1 #
-1 1:1 #
-1 1:1 #
-1 1:1 #
-1 1:1 #
2 13:1 #
-1 16:1 #
2 1:1 #
-1 1:1 #
2 17:1 #
2 1:1 #
-1 1:1 #
-1 1:1 #
-1 1:1 #
2 1:1 #
-1 1:1 #
-1 1:1 #
2 1:1 #
-1 1:1 #
-1 1:1 #
2 1:1 #
-1 1:1 #
-1 1:1 #
2 1:1 #
-1 1:1 #
-1 1:1 #
2 1:1 #
-1 1:1 #
-1 1:1 #
2 1:1 #
-1 1:1 #
-1 1:1 #
2 1:1 #
-1 1:1 #
-1 1:1 #
2 1:1 #
-1 1:1 #
-1 1:1 #
2 1:1 #
-1 1:1 #
-1 1:1 #
2 1:1 #
-1 1:1 #
-1 1:1 #
2 1:1 #
-1 1:1 #
-1 1:1 #
2 1:1 #
-1 1:1 #
-1 1:1 #
2 1:1 #
-1 1:1 #
-1 1:1 #
2 1:1 #
-1 1:1 #
-1 1:1 #
2 1:1 #
-1 1:1 #
-1 1:1 #
2 1:1 #
-1 1:1 #
-1 1:1 #
2 1:1 #
-1 1:1 #
-1 1:1 #
2 1:1 #
-1 1:1 #
-1 1:1 #
2 1:1 #
-1 1:1 #
-1 1:1 #
2 1:1 #
-1 1:1 #
-1 1:1 #
2 1:1 #
-1 1:1 #
-1 1:1 #
2 1:1 #
-1 1:1 #
-1 1:1 #
2 1:1 #
-1 1:1 #
-1 1:1 #
2 1:1 #
-1 1:1 #
-1 1:1 #
2 1:1 #
-1 1:1 #
-1 1:1 #
2 1:1 #
-1 1:1 #
-1 1:1 #
2 1:1 #
-1 1:1 #
-1 1:1 #
2 1:1 #
-1 1:1 #
-1 1:1 #
2 1:1 #
-1 1:1 #
-1 1:1 #
2 1:1 #
-1 1:1 #
-1 1:1 #
2 1:1 #
-1 1:1 #
-1 1:1 #
2 1:1 #
-1 1:1 #
-1 1:1 #
2 1:1 #
-1 1:1 #
-1 1:1 #
2 1:1 #
-1 1:1 #
-1 1:1 #
2 1:1 #
-1 1:1 #
-1 1:1 #
2 1:1 #
-1 1:1 #
-1 1:1 #
2 1:1 #
-1 1:1 #
-1 1:1 #
2 1:1 #
-1 1:1 #
-1 1:1 #
2 1:1 #
-1 1:1 #
-1 1:1 #
2 1:1 #
-1 1:1 #
-1 1:1 #
2 1:1 #
-1 1:1 #
-1 1:1 #
2 1:1 #
-1 1:1 #
-1 1:1 #
2 1:1 #
-1 1:1 #
-1 1:1 #
2 1:1 #
-1 1:1 #
2 1:1 #
-1 1:1 #
-1 1:1 #
-1 13:1 #
2 1:1 #
-1 1:1 #
2 1:1 #
-1 1:1 #
-1 1:1 #
2 1:1 #
-1 1:1 #
-1 1:1 #
2 1:1 #
-1 1:1 #
-1 1:1 #
2 1:1 #
-1 1:1 #
-1 1:1 #
2 1:1 #
-1 1:1 #
-1 1:1 #
2 1:1 #
-1 1:1 #
-1 1:1 #
2 1:1 #
-1 1:1 #
-1 1:1 #
2 1:1 #
-1 1:1 #
-1 1:1 #
2 1:1 #
-1 1:1 #
-1 1:1 #
2 1:1 #
-1 1:1 #
-1 1:1 #
2 1:1 #
-1 1:1 #
-1 1:1 #
2 1:1 #
-1 1:1 #
-1 1:1 #
2 1:1 #
-1 1:1 #
-1 1:1 #
2 1:1 #
-1 1:1 #
-1 1:1 #
2 1:1 #
-1 1:1 #
-1 1:1 #
2 1:1 #
-1 1:1 #
-1 1:1 #
2 1:1 #
-1 1:1 #
-1 1:1 #
2 1:1 #
-1 1:1 #
-1 1:1 #
2 1:1 #
-1 1:1 #
-1 1:1 #
2 1:1 #
-1 1:1 #
-1 1:1 #
2 1:1 #
-1 1:1 #
-1 1:1 #
2 1:1 #
-1 1:1 #
-1 1:1 #
2 1:1 #
-1 1:1 #
-1 1:1 #
2 1:1 #
-1 1:1 #
-1 1:1 #
2 1:1 #
-1 1:1 #
-1 1:1 #
2 1:1 #
-1 1:1 #
-1 1:1 #
2 1:1 #
-1 1:1 #
-1 1:1 #
2 1:1 #
-1 1:1 #
-1 1:1 #
2 1:1 #
-1 1:1 #
-1 1:1 #
2 1:1 #
-1 1:1 #
-1 1:1 #
2 1:1 #
-1 1:1 #
-1 1:1 #
2 1:1 #
-1 1:1 #
-1 1:1 #
-1 13:1 #
-1 17:1 #
-1 1:1 #
2 1:1 #
-1 1:1 #
2 1:1 #
-1 1:1 #
-1 1:1 #
-1 1:1 #
2 13:1 #
-1 13:1 #
2 17:1 #
-1 17:1 #
-1 17:1 #
2 13:1 #
-1 13:1 #
2 17:1 #
-1 13:1 #
-1 17:1 #
2 13:1 #
-1 13:1 #
2 17:1 #
-1 17:1 #
-1 13:1 #
-1 17:1 #
2 13:1 #
-1 13:1 #
-1 13:1 #
2 13:1 #
-1 13:1 #
-1 13:1 #
2 13:1 #
-1 13:1 #
-1 13:1 #
2 13:1 #
-1 13:1 #
-1 13:1 #
2 13:1 #
-1 13:1 #
-1 13:1 #
2 13:1 #
-1 13:1 #
-1 13:1 #
2 13:1 #
-1 13:1 #
-1 13:1 #
2 13:1 #
-1 13:1 #
-1 13:1 #
2 13:1 #
-1 13:1 #
-1 13:1 #
2 13:1 #
-1 13:1 #
-1 13:1 #
2 13:1 #
-1 13:1 #
-1 13:1 #
2 13:1 #
-1 13:1 #
-1 13:1 #
2 13:1 #
-1 13:1 #
-1 13:1 #
2 13:1 #
-1 13:1 #
-1 13:1 #
2 13:1 #
-1 13:1 #
-1 13:1 #
2 13:1 #
-1 13:1 #
-1 13:1 #
2 13:1 #
-1 13:1 #
-1 13:1 #
2 13:1 #
-1 13:1 #
-1 13:1 #
2 13:1 #
-1 13:1 #
-1 13:1 #
2 13:1 #
-1 13:1 #
-1 13:1 #
2 13:1 #
-1 13:1 #
-1 13:1 #
2 13:1 #
-1 13:1 #
-1 13:1 #
2 13:1 #
-1 13:1 #
-1 13:1 #
2 13:1 #
-1 13:1 #
-1 13:1 #
2 13:1 #
-1 13:1 #
-1 13:1 #
2 13:1 #
-1 13:1 #
-1 13:1 #
2 13:1 #
-1 13:1 #
-1 13:1 #
2 13:1 #
-1 13:1 #
-1 13:1 #
2 13:1 #
-1 13:1 #
-1 13:1 #
2 13:1 #
-1 13:1 #
-1 13:1 #
2 13:1 #
-1 13:1 #
-1 13:1 #
2 13:1 #
-1 13:1 #
-1 13:1 #
2 13:1 #
-1 13:1 #
-1 13:1 #
2 13:1 #
-1 13:1 #
-1 13:1 #
2 13:1 #
-1 13:1 #
-1 13:1 #
2 13:1 #
-1 13:1 #
-1 13:1 #
2 13:1 #
-1 13:1 #
-1 13:1 #
2 13:1 #
-1 13:1 #
-1 13:1 #
2 13:1 #
-1 13:1 #
-1 13:1 #
2 13:1 #
-1 13:1 #
-1 13:1 #
2 13:1 #
-1 13:1 #
-1 13:1 #
2 13:1 #
-1 13:1 #
-1 13:1 #
2 13:1 #
-1 13:1 #
-1 13:1 #
2 13:1 #
-1 13:1 #
-1 13:1 #
2 13:1 #
-1 13:1 #
-1 13:1 #
2 13:1 #
-1 13:1 #
-1 13:1 #
2 13:1 #
-1 13:1 #
-1 13:1 #
2 13:1 #
-1 13:1 #
-1 13:1 #
2 13:1 #
-1 13:1 #
-1 13:1 #
2 13:1 #
-1 13:1 #
-1 13:1 #
2 13:1 #
-1 13:1 #
-1 13:1 #
2 13:1 #
-1 13:1 #
-1 13:1 #
2 13:1 #
-1 13:1 #
-1 13:1 #
2 13:1 #
-1 17:1 #
-1 13:1 #
2 13:1 #
-1 13:1 #
-1 13:1 #
2 13:1 #
-1 13:1 #
-1 13:1 #
-1 13:1 #
2 13:1 #
-1 13:1 #
-1 13:1 #
2 17:1 #
-0.50025400738963665681069414858939 13:1 #
-1 17:1 #
-1 17:1 #
2 17:1 #
-1 17:1 #
-1 17:1 #
2 17:1 #
-1 17:1 #
-1 17:1 #
2 17:1 #
-1 17:1 #
-1 17:1 #
2 17:1 #
-1 17:1 #
-1 17:1 #
2 17:1 #
-1 17:1 #
-1 17:1 #
2 17:1 #
-1 17:1 #
-1 17:1 #
2 17:1 #
-1 17:1 #
-1 17:1 #
2 17:1 #
-1 17:1 #
-1 17:1 #
2 17:1 #
-1 17:1 #
-1 17:1 #
2 17:1 #
-1 17:1 #
-1 17:1 #
2 17:1 #
-1 17:1 #
-1 17:1 #
2 17:1 #
-1 17:1 #
-1 17:1 #
2 17:1 #
-1 17:1 #
-1 17:1 #
2 17:1 #
-1 17:1 #
-1 17:1 #
2 17:1 #
-1 17:1 #
-1 17:1 #
2 17:1 #
-1 17:1 #
-1 17:1 #
2 17:1 #
-1 17:1 #
-1 17:1 #
2 17:1 #
-1 17:1 #
-1 17:1 #
2 17:1 #
-1 17:1 #
-1 17:1 #
2 17:1 #
-1 17:1 #
-1 17:1 #
2 17:1 #
-1 17:1 #
-1 17:1 #
2 17:1 #
-1 17:1 #
-1 17:1 #
2 17:1 #
-1 17:1 #
-1 17:1 #
2 17:1 #
-1 17:1 #
-1 17:1 #
2 17:1 #
-1 17:1 #
-1 17:1 #
2 17:1 #
-1 17:1 #
-1 17:1 #
2 17:1 #
-1 17:1 #
-1 17:1 #
2 17:1 #
-1 17:1 #
-1 17:1 #
2 17:1 #
-1 17:1 #
-1 17:1 #
2 17:1 #
-1 17:1 #
-1 17:1 #
2 17:1 #
-1 17:1 #
-1 17:1 #
2 17:1 #
-1 17:1 #
-1 17:1 #
2 17:1 #
-1 17:1 #
-1 17:1 #
2 17:1 #
-1 17:1 #
-1 17:1 #
2 17:1 #
-1 17:1 #
-1 17:1 #
2 17:1 #
-1 17:1 #
-1 17:1 #
2 17:1 #
-1 17:1 #
-1 17:1 #
2 17:1 #
-1 17:1 #
-1 17:1 #
2 17:1 #
-1 17:1 #
-1 17:1 #
2 17:1 #
-1 17:1 #
-1 17:1 #
2 17:1 #
-1 17:1 #
-1 17:1 #
2 17:1 #
-1 17:1 #
-1 17:1 #
2 17:1 #
-1 17:1 #
-1 17:1 #
2 17:1 #
-1 17:1 #
-1 17:1 #
2 17:1 #
-1 17:1 #
-1 17:1 #
2 17:1 #
-1 17:1 #
-1 17:1 #
2 17:1 #
-1 17:1 #
-1 17:1 #
2 17:1 #
-1 17:1 #
-1 17:1 #
2 17:1 #
-1 17:1 #
-1 17:1 #
2 17:1 #
-1 17:1 #
-1 17:1 #
2 17:1 #
-1 17:1 #
-1 17:1 #
2 17:1 #
-1 17:1 #
-1 17:1 #
2 17:1 #
-1 17:1 #
-1 17:1 #
2 17:1 #
-1 17:1 #
-1 17:1 #
2 17:1 #
-1 17:1 #
-1 17:1 #
2 17:1 #
-1 17:1 #
-1 17:1 #
2 17:1 #
-1 17:1 #
-1 17:1 #
2 17:1 #
-1 17:1 #
-1 17:1 #
2 17:1 #
-1 17:1 #
-1 17:1 #
2 17:1 #
-1 17:1 #
-1 17:1 #
2 17:1 #
-1 17:1 #
-1 17:1 #
2 17:1 #
-1 17:1 #
-1 17:1 #
2 17:1 #
-1 17:1 #
-1 17:1 #
2 17:1 #
-1 17:1 #
-1 17:1 #
2 17:1 #
-1 17:1 #
-1 17:1 #
2 17:1 #
-1 17:1 #
-1 17:1 #
2 17:1 #
-1 17:1 #
-1 17:1 #
-1 17:1 #
2 17:1 #
-1 17:1 #
-1 17:1 #
2 17:1 #
-1 17:1 #
-1 17:1 #
2 17:1 #
2 17:1 #
-1 17:1 #
-1 17:1 #
2 17:1 #
-1 17:1 #
-1 17:1 #
2 17:1 #
-1 17:1 #
-1 17:1 #
2 17:1 #
-1 17:1 #
-1 17:1 #
2 17:1 #
-1 17:1 #
-1 17:1 #
2 17:1 #
-1 17:1 #
-1 17:1 #
2 17:1 #
-1 17:1 #
-1 17:1 #
2 17:1 #
-1 17:1 #
-1 17:1 #
2 17:1 #
-1 17:1 #
-1 17:1 #
2 17:1 #
-1 17:1 #
-1 17:1 #
2 17:1 #
-1 17:1 #
-1 17:1 #
2 17:1 #
-1 17:1 #
-1 17:1 #
2 17:1 #
-1 17:1 #
-1 17:1 #
2 17:1 #
-1 17:1 #
-1 17:1 #
2 17:1 #
-1 17:1 #
-1 17:1 #
2 17:1 #
-1 17:1 #
-1 17:1 #
2 17:1 #
-1 17:1 #
-1 17:1 #
2 17:1 #
-1 17:1 #
-1 17:1 #
2 17:1 #
-1 17:1 #
-1 17:1 #
2 17:1 #
-1 17:1 #
-1 17:1 #
2 17:1 #
-1 17:1 #
-1 17:1 #
2 17:1 #
-1 17:1 #
-1 17:1 #
2 17:1 #
-1 17:1 #
-1 17:1 #
2 17:1 #
-1 17:1 #
-1 17:1 #
2 17:1 #
-1 17:1 #
-1 17:1 #
2 17:1 #
-1 17:1 #
-1 17:1 #
2 17:1 #
-1 17:1 #
-1 17:1 #
2 17:1 #
-1 17:1 #
-1 17:1 #
2 17:1 #
-1 17:1 #
-1 17:1 #
2 17:1 #
-1 17:1 #
-1 17:1 #
2 17:1 #
-1 17:1 #
-0.99636614729879058316441842180211 17:1 #
-1 17:1 #
2 17:1 #
-1 17:1 #
2 17:1 #
-1 17:1 #
-1 17:1 #
2 17:1 #
-1 17:1 #
-1 17:1 #
2 17:1 #
-1 17:1 #
-1 17:1 #
2 17:1 #
-1 17:1 #
-1 17:1 #
2 17:1 #
-1 17:1 #
-1 17:1 #
2 17:1 #
-1 17:1 #
-1 17:1 #
2 17:1 #
-1 17:1 #
-1 17:1 #
2 17:1 #
-1 17:1 #
-1 17:1 #
2 17:1 #
-1 17:1 #
-1 17:1 #
2 17:1 #
-1 17:1 #
-1 17:1 #
2 17:1 #
-1 17:1 #
-1 17:1 #
2 17:1 #
-1 17:1 #
-1 17:1 #
2 17:1 #
-1 17:1 #
-1 17:1 #
2 17:1 #
-1 17:1 #
-1 17:1 #
2 17:1 #
-1 17:1 #
-1 17:1 #
2 17:1 #
-1 17:1 #
-1 17:1 #
2 17:1 #
-1 17:1 #
-1 17:1 #
2 17:1 #
-1 17:1 #
-1 17:1 #
2 17:1 #
-1 17:1 #
-1 17:1 #
2 17:1 #
-1 17:1 #
-1 17:1 #
2 17:1 #
-1 17:1 #
-1 17:1 #
2 17:1 #
-1 17:1 #
-1 17:1 #
2 17:1 #
-1 17:1 #
-1 17:1 #
2 17:1 #
-1 17:1 #
-1 17:1 #
2 17:1 #
-1 17:1 #
-1 17:1 #
2 17:1 #
-1 17:1 #
-1 17:1 #
2 17:1 #
-1 17:1 #
-1 17:1 #
2 17:1 #
-1 17:1 #
-1 17:1 #
2 17:1 #
-1 17:1 #
-1 17:1 #
2 17:1 #
-1 17:1 #
-1 17:1 #
2 17:1 #
-1 17:1 #
-1 17:1 #
2 17:1 #
-1 17:1 #
-1 17:1 #
2 17:1 #
-1 17:1 #
-1 17:1 #
2 17:1 #
-1 17:1 #
-1 17:1 #
-1 17:1 #
2 17:1 #
-1 17:1 #
-1 17:1 #
2 17:1 #
-1 17:1 #
2 17:1 #
-1 17:1 #
-1 17:1 #
1.9999999999999991118215802998748 17:1 #
-1 17:1 #
2 17:1 #
-1 17:1 #
-1 17:1 #
-1 17:1 #
-0.44647952150146891225901413235988 17:1 #
-0.50000000000000466293670342565747 1:1 #
-0.49953492361808771171638454688946 15:1 #
0.49937492057154769797833182565228 18:1 #
-0.057779410628186922416205106856069 17:1 #
