SVM-light Version V6.02
2 # kernel type
3 # kernel parameter -d 
1 # kernel parameter -g 
1 # kernel parameter -s 
1 # kernel parameter -r 
empty# kernel parameter -u 
20 # highest feature index 
14658 # number of training documents 
10720 # number of support vectors plus 1 
0.50014555 # threshold b, each following line is a SV (starting with alpha*y)
-0.78554099767936380604993473752984 10:1 #
-0.79098835343490081495332333361148 15:1 #
-0.79098835343490081495332333361148 20:1 #
-0.79098835343490081495332333361148 11:1 #
-0.79098835343490081495332333361148 12:1 #
1.581976706869801629906646667223 12:1 #
1.581976706869801629906646667223 5:1 #
1.581976706869801629906646667223 11:1 #
-0.79098835343490081495332333361148 5:1 #
1.581976706869801629906646667223 20:1 #
1.581976706869801629906646667223 15:1 #
-0.79098835343490081495332333361148 5:1 #
-0.79098835343490081495332333361148 12:1 #
1.581976706869801629906646667223 10:1 #
-0.79098835343490081495332333361148 12:1 #
-0.63125368730146780293921437987592 10:1 #
-0.79098835343490081495332333361148 5:1 #
-0.79098835343490081495332333361148 11:1 #
-0.79098835343490081495332333361148 10:1 #
1.581976706869801629906646667223 5:1 #
-0.79098835343490081495332333361148 15:1 #
-0.79098835343490081495332333361148 11:1 #
1.581976706869801629906646667223 10:1 #
-0.79098835343490081495332333361148 5:1 #
1.581976706869801629906646667223 11:1 #
-0.79098835343490081495332333361148 10:1 #
1.581976706869801629906646667223 1:1 #
-0.79098835343490081495332333361148 5:1 #
-0.79098835343490081495332333361148 10:1 #
1.581976706869801629906646667223 5:1 #
-0.79098835343490081495332333361148 1:1 #
1.581976706869801629906646667223 10:1 #
-0.79098835343490081495332333361148 5:1 #
1.581976706869801629906646667223 15:1 #
-0.79098835343490081495332333361148 5:1 #
-0.79098835343490081495332333361148 20:1 #
1.581976706869801629906646667223 5:1 #
-0.79098835343490081495332333361148 20:1 #
-0.79098835343490081495332333361148 5:1 #
-0.79098835343490081495332333361148 1:1 #
-0.79098835343490081495332333361148 11:1 #
1.581976706869801629906646667223 12:1 #
-0.79098835343490081495332333361148 12:1 #
-0.79098835343490081495332333361148 5:1 #
-0.79098835343490081495332333361148 15:1 #
-0.79098835343490081495332333361148 12:1 #
1.581976706869801629906646667223 12:1 #
-0.79098835343490081495332333361148 15:1 #
-0.79098835343490081495332333361148 12:1 #
-0.79098835343490081495332333361148 10:1 #
-0.79098835343490081495332333361148 12:1 #
1.581976706869801629906646667223 5:1 #
-0.79098835343490081495332333361148 10:1 #
1.581976706869801629906646667223 10:1 #
-0.79098835343490081495332333361148 5:1 #
-0.79098835343490081495332333361148 10:1 #
-0.79098835343490081495332333361148 5:1 #
1.581976706869801629906646667223 5:1 #
-0.79098835343490081495332333361148 10:1 #
1.581976706869801629906646667223 10:1 #
-0.79098835343490081495332333361148 5:1 #
-0.79098835343490081495332333361148 10:1 #
-0.79098835343490081495332333361148 5:1 #
1.581976706869801629906646667223 5:1 #
-0.79098835343490081495332333361148 10:1 #
1.581976706869801629906646667223 10:1 #
-0.79098835343490081495332333361148 5:1 #
-0.79098835343490081495332333361148 10:1 #
-0.79098835343490081495332333361148 5:1 #
1.581976706869801629906646667223 5:1 #
-0.79098835343490081495332333361148 10:1 #
1.581976706869801629906646667223 10:1 #
-0.79098835343490081495332333361148 5:1 #
-0.79098835343490081495332333361148 10:1 #
-0.79098835343490081495332333361148 5:1 #
1.581976706869801629906646667223 5:1 #
-0.79098835343490081495332333361148 10:1 #
1.581976706869801629906646667223 10:1 #
-0.79098835343490081495332333361148 5:1 #
-0.79098835343490081495332333361148 10:1 #
-0.79098835343490081495332333361148 5:1 #
1.581976706869801629906646667223 5:1 #
-0.79098835343490081495332333361148 10:1 #
1.581976706869801629906646667223 10:1 #
-0.79098835343490081495332333361148 5:1 #
-0.79098835343490081495332333361148 10:1 #
-0.79098835343490081495332333361148 5:1 #
1.581976706869801629906646667223 5:1 #
-0.79098835343490081495332333361148 10:1 #
1.581976706869801629906646667223 10:1 #
-0.79098835343490081495332333361148 5:1 #
-0.79098835343490081495332333361148 10:1 #
-0.79098835343490081495332333361148 5:1 #
1.581976706869801629906646667223 5:1 #
-0.79098835343490081495332333361148 10:1 #
1.581976706869801629906646667223 10:1 #
-0.79098835343490081495332333361148 5:1 #
-0.79098835343490081495332333361148 10:1 #
-0.79098835343490081495332333361148 5:1 #
1.581976706869801629906646667223 5:1 #
-0.79098835343490081495332333361148 10:1 #
1.581976706869801629906646667223 10:1 #
-0.79098835343490081495332333361148 5:1 #
-0.79098835343490081495332333361148 10:1 #
-0.79098835343490081495332333361148 5:1 #
1.581976706869801629906646667223 5:1 #
-0.79098835343490081495332333361148 10:1 #
1.581976706869801629906646667223 10:1 #
-0.79098835343490081495332333361148 5:1 #
-0.79098835343490081495332333361148 10:1 #
-0.79098835343490081495332333361148 5:1 #
1.581976706869801629906646667223 5:1 #
-0.79098835343490081495332333361148 10:1 #
1.581976706869801629906646667223 10:1 #
-0.79098835343490081495332333361148 5:1 #
-0.79098835343490081495332333361148 10:1 #
-0.79098835343490081495332333361148 5:1 #
1.581976706869801629906646667223 5:1 #
-0.79098835343490081495332333361148 10:1 #
1.581976706869801629906646667223 10:1 #
-0.79098835343490081495332333361148 5:1 #
-0.79098835343490081495332333361148 10:1 #
-0.79098835343490081495332333361148 5:1 #
1.581976706869801629906646667223 5:1 #
-0.79098835343490081495332333361148 10:1 #
1.581976706869801629906646667223 10:1 #
-0.79098835343490081495332333361148 5:1 #
-0.79098835343490081495332333361148 10:1 #
-0.79098835343490081495332333361148 5:1 #
1.581976706869801629906646667223 5:1 #
-0.79098835343490081495332333361148 10:1 #
1.581976706869801629906646667223 10:1 #
-0.79098835343490081495332333361148 5:1 #
-0.79098835343490081495332333361148 10:1 #
-0.79098835343490081495332333361148 5:1 #
1.581976706869801629906646667223 5:1 #
-0.79098835343490081495332333361148 10:1 #
1.581976706869801629906646667223 10:1 #
-0.79098835343490081495332333361148 5:1 #
-0.79098835343490081495332333361148 16:1 #
-0.79098835343490081495332333361148 14:1 #
-0.79098835343490081495332333361148 3:1 #
-0.79098835343490081495332333361148 5:1 #
-0.79098835343490081495332333361148 17:1 #
0.98875641649867618276914527086774 20:1 #
1.581976706869801629906646667223 1:1 #
0.98873062040479786638513814978069 11:1 #
1.581976706869801629906646667223 13:1 #
-0.79098835343490081495332333361148 20:1 #
-0.79098835343490081495332333361148 11:1 #
1.581976706869801629906646667223 17:1 #
1.581976706869801629906646667223 5:1 #
-0.79098835343490081495332333361148 1:1 #
1.581976706869801629906646667223 16:1 #
-0.79098835343490081495332333361148 10:1 #
-0.79098835343490081495332333361148 13:1 #
1.581976706869801629906646667223 3:1 #
-0.79098835343490081495332333361148 5:1 #
-0.78980667569283147244618703552987 3:1 #
1.581976706869801629906646667223 14:1 #
-0.79098835343490081495332333361148 20:1 #
1.581976706869801629906646667223 20:1 #
-0.79098835343490081495332333361148 5:1 #
-0.79098835343490081495332333361148 20:1 #
-0.78884935606043682376764536456903 13:1 #
-0.79098835343490081495332333361148 11:1 #
-0.79098835343490081495332333361148 1:1 #
1.581976706869801629906646667223 1:1 #
1.581976706869801629906646667223 5:1 #
-0.79098835343490081495332333361148 20:1 #
1.581976706869801629906646667223 20:1 #
-0.50984133847002643946666466945317 17:1 #
-0.79098835343490081495332333361148 20:1 #
1.581976706869801629906646667223 13:1 #
-0.79098835343490081495332333361148 5:1 #
-0.79098835343490081495332333361148 1:1 #
-0.79098835343490081495332333361148 13:1 #
-0.79098835343490081495332333361148 5:1 #
1.581976706869801629906646667223 5:1 #
-0.79098835343490081495332333361148 1:1 #
-0.79098835343490081495332333361148 5:1 #
-0.79098835343490081495332333361148 13:1 #
-0.79098835343490081495332333361148 5:1 #
1.581976706869801629906646667223 13:1 #
1.581976706869801629906646667223 5:1 #
-0.79098835343490081495332333361148 13:1 #
-0.79098835343490081495332333361148 5:1 #
-0.79098835343490081495332333361148 13:1 #
-0.79098835343490081495332333361148 5:1 #
1.581976706869801629906646667223 13:1 #
1.581976706869801629906646667223 5:1 #
-0.79098835343490081495332333361148 13:1 #
-0.79098835343490081495332333361148 5:1 #
-0.79098835343490081495332333361148 13:1 #
-0.79098835343490081495332333361148 5:1 #
1.581976706869801629906646667223 13:1 #
1.581976706869801629906646667223 5:1 #
-0.79098835343490081495332333361148 13:1 #
-0.79098835343490081495332333361148 5:1 #
-0.79098835343490081495332333361148 13:1 #
-0.79098835343490081495332333361148 5:1 #
1.581976706869801629906646667223 13:1 #
1.581976706869801629906646667223 5:1 #
-0.79098835343490081495332333361148 13:1 #
-0.79098835343490081495332333361148 5:1 #
-0.79098835343490081495332333361148 13:1 #
-0.79098835343490081495332333361148 5:1 #
1.581976706869801629906646667223 13:1 #
1.581976706869801629906646667223 5:1 #
-0.79098835343490081495332333361148 13:1 #
-0.79098835343490081495332333361148 5:1 #
-0.79098835343490081495332333361148 13:1 #
-0.79098835343490081495332333361148 5:1 #
1.581976706869801629906646667223 13:1 #
1.581976706869801629906646667223 5:1 #
-0.79098835343490081495332333361148 13:1 #
-0.79098835343490081495332333361148 5:1 #
-0.79098835343490081495332333361148 13:1 #
-0.79098835343490081495332333361148 5:1 #
1.581976706869801629906646667223 13:1 #
1.581976706869801629906646667223 5:1 #
-0.79098835343490081495332333361148 13:1 #
-0.79098835343490081495332333361148 5:1 #
-0.79098835343490081495332333361148 13:1 #
-0.79098835343490081495332333361148 5:1 #
1.581976706869801629906646667223 13:1 #
1.581976706869801629906646667223 5:1 #
-0.79098835343490081495332333361148 13:1 #
-0.79098835343490081495332333361148 5:1 #
-0.79098835343490081495332333361148 13:1 #
-0.79098835343490081495332333361148 5:1 #
1.581976706869801629906646667223 13:1 #
1.581976706869801629906646667223 5:1 #
-0.79098835343490081495332333361148 13:1 #
-0.79098835343490081495332333361148 5:1 #
-0.79098835343490081495332333361148 13:1 #
-0.79098835343490081495332333361148 5:1 #
1.581976706869801629906646667223 13:1 #
1.581976706869801629906646667223 5:1 #
-0.79098835343490081495332333361148 13:1 #
-0.79098835343490081495332333361148 5:1 #
-0.79098835343490081495332333361148 13:1 #
-0.79098835343490081495332333361148 5:1 #
1.581976706869801629906646667223 13:1 #
1.581976706869801629906646667223 5:1 #
-0.79098835343490081495332333361148 13:1 #
-0.79098835343490081495332333361148 5:1 #
-0.79098835343490081495332333361148 13:1 #
-0.79098835343490081495332333361148 5:1 #
1.581976706869801629906646667223 13:1 #
1.581976706869801629906646667223 5:1 #
-0.79098835343490081495332333361148 13:1 #
-0.79098835343490081495332333361148 5:1 #
-0.79098835343490081495332333361148 13:1 #
-0.79098835343490081495332333361148 5:1 #
1.581976706869801629906646667223 13:1 #
1.581976706869801629906646667223 5:1 #
-0.79098835343490081495332333361148 13:1 #
-0.79098835343490081495332333361148 5:1 #
-0.79098835343490081495332333361148 13:1 #
-0.79098835343490081495332333361148 5:1 #
1.581976706869801629906646667223 13:1 #
1.581976706869801629906646667223 5:1 #
-0.79098835343490081495332333361148 13:1 #
-0.79098835343490081495332333361148 5:1 #
-0.79098835343490081495332333361148 13:1 #
-0.79098835343490081495332333361148 5:1 #
1.581976706869801629906646667223 13:1 #
1.581976706869801629906646667223 5:1 #
-0.79098835343490081495332333361148 13:1 #
-0.79098835343490081495332333361148 5:1 #
-0.79098835343490081495332333361148 13:1 #
-0.79098835343490081495332333361148 5:1 #
1.581976706869801629906646667223 13:1 #
1.581976706869801629906646667223 5:1 #
-0.79098835343490081495332333361148 13:1 #
-0.79098835343490081495332333361148 5:1 #
-0.79098835343490081495332333361148 13:1 #
-0.79098835343490081495332333361148 4:1 #
-0.79098835343490081495332333361148 16:1 #
-0.79098835343490081495332333361148 20:1 #
-0.79098835343490081495332333361148 12:1 #
-0.79098835343490081495332333361148 5:1 #
1.581976706869801629906646667223 1:1 #
1.581976706869801629906646667223 13:1 #
1.2008898470752700227137665933697 11:1 #
-0.79098835343490081495332333361148 11:1 #
-0.79098835343490081495332333361148 1:1 #
1.581976706869801629906646667223 12:1 #
-0.79098835343490081495332333361148 13:1 #
1.581976706869801629906646667223 4:1 #
-0.79098835343490081495332333361148 11:1 #
1.581976706869801629906646667223 20:1 #
-0.79098835343490081495332333361148 1:1 #
1.581976706869801629906646667223 1:1 #
-0.79098835343490081495332333361148 20:1 #
1.581976706869801629906646667223 11:1 #
-0.79098835343490081495332333361148 4:1 #
-0.79098835343490081495332333361148 11:1 #
-0.79098835343490081495332333361148 11:1 #
1.581976706869801629906646667223 5:1 #
-0.79098835343490081495332333361148 20:1 #
1.581976706869801629906646667223 20:1 #
-0.79098835343490081495332333361148 5:1 #
-0.79098835343490081495332333361148 20:1 #
-0.79098835343490081495332333361148 5:1 #
1.581976706869801629906646667223 5:1 #
-0.79098835343490081495332333361148 20:1 #
1.581976706869801629906646667223 20:1 #
-0.79098835343490081495332333361148 5:1 #
-0.79098835343490081495332333361148 20:1 #
-0.79098835343490081495332333361148 5:1 #
1.581976706869801629906646667223 5:1 #
-0.79098835343490081495332333361148 20:1 #
1.581976706869801629906646667223 20:1 #
-0.79098835343490081495332333361148 5:1 #
-0.79098835343490081495332333361148 20:1 #
-0.79098835343490081495332333361148 5:1 #
1.581976706869801629906646667223 5:1 #
-0.79098835343490081495332333361148 20:1 #
1.581976706869801629906646667223 20:1 #
-0.79098835343490081495332333361148 5:1 #
-0.79098835343490081495332333361148 20:1 #
-0.79098835343490081495332333361148 5:1 #
1.581976706869801629906646667223 5:1 #
-0.79098835343490081495332333361148 20:1 #
1.581976706869801629906646667223 20:1 #
-0.79098835343490081495332333361148 5:1 #
-0.79098835343490081495332333361148 20:1 #
-0.79098835343490081495332333361148 5:1 #
1.581976706869801629906646667223 5:1 #
-0.79098835343490081495332333361148 20:1 #
1.581976706869801629906646667223 20:1 #
-0.79098835343490081495332333361148 5:1 #
-0.79098835343490081495332333361148 20:1 #
-0.79098835343490081495332333361148 5:1 #
1.581976706869801629906646667223 5:1 #
-0.79098835343490081495332333361148 20:1 #
1.581976706869801629906646667223 20:1 #
-0.79098835343490081495332333361148 5:1 #
-0.79098835343490081495332333361148 20:1 #
-0.79098835343490081495332333361148 5:1 #
1.581976706869801629906646667223 5:1 #
-0.79098835343490081495332333361148 20:1 #
1.581976706869801629906646667223 20:1 #
-0.79098835343490081495332333361148 5:1 #
-0.79098835343490081495332333361148 20:1 #
-0.79098835343490081495332333361148 5:1 #
1.581976706869801629906646667223 5:1 #
-0.79098835343490081495332333361148 20:1 #
1.581976706869801629906646667223 20:1 #
-0.79098835343490081495332333361148 5:1 #
-0.79098835343490081495332333361148 20:1 #
-0.79098835343490081495332333361148 5:1 #
1.581976706869801629906646667223 5:1 #
-0.79098835343490081495332333361148 20:1 #
1.581976706869801629906646667223 20:1 #
-0.79098835343490081495332333361148 5:1 #
-0.79098835343490081495332333361148 20:1 #
-0.79098835343490081495332333361148 5:1 #
1.581976706869801629906646667223 5:1 #
-0.79098835343490081495332333361148 20:1 #
1.581976706869801629906646667223 20:1 #
-0.79098835343490081495332333361148 5:1 #
-0.79098835343490081495332333361148 20:1 #
-0.79098835343490081495332333361148 5:1 #
1.581976706869801629906646667223 5:1 #
-0.79098835343490081495332333361148 20:1 #
1.581976706869801629906646667223 20:1 #
-0.79098835343490081495332333361148 5:1 #
-0.79098835343490081495332333361148 20:1 #
-0.79098835343490081495332333361148 5:1 #
1.581976706869801629906646667223 5:1 #
-0.79098835343490081495332333361148 20:1 #
1.581976706869801629906646667223 20:1 #
-0.79098835343490081495332333361148 5:1 #
-0.79098835343490081495332333361148 20:1 #
-0.79098835343490081495332333361148 5:1 #
1.581976706869801629906646667223 5:1 #
-0.79098835343490081495332333361148 20:1 #
1.581976706869801629906646667223 20:1 #
-0.79098835343490081495332333361148 5:1 #
-0.79098835343490081495332333361148 20:1 #
-0.79098835343490081495332333361148 5:1 #
1.581976706869801629906646667223 5:1 #
-0.79098835343490081495332333361148 20:1 #
1.581976706869801629906646667223 20:1 #
-0.79098835343490081495332333361148 5:1 #
-0.79098835343490081495332333361148 20:1 #
-0.79098835343490081495332333361148 5:1 #
1.581976706869801629906646667223 5:1 #
-0.79098835343490081495332333361148 20:1 #
1.581976706869801629906646667223 20:1 #
-0.79098835343490081495332333361148 5:1 #
-0.79098835343490081495332333361148 20:1 #
-0.79098835343490081495332333361148 5:1 #
1.581976706869801629906646667223 5:1 #
-0.79098835343490081495332333361148 20:1 #
1.581976706869801629906646667223 20:1 #
-0.79098835343490081495332333361148 5:1 #
-0.79098835343490081495332333361148 20:1 #
-0.79098835343490081495332333361148 5:1 #
1.581976706869801629906646667223 5:1 #
-0.79098835343490081495332333361148 20:1 #
1.581976706869801629906646667223 20:1 #
-0.79098835343490081495332333361148 5:1 #
-0.79098835343490081495332333361148 20:1 #
-0.79098835343490081495332333361148 5:1 #
1.581976706869801629906646667223 5:1 #
-0.79098835343490081495332333361148 20:1 #
1.581976706869801629906646667223 20:1 #
-0.79098835343490081495332333361148 5:1 #
-0.79098835343490081495332333361148 20:1 #
-0.79098835343490081495332333361148 5:1 #
1.581976706869801629906646667223 5:1 #
-0.79098835343490081495332333361148 20:1 #
1.581976706869801629906646667223 20:1 #
-0.79098835343490081495332333361148 5:1 #
-0.79098835343490081495332333361148 20:1 #
-0.79098835343490081495332333361148 5:1 #
1.581976706869801629906646667223 5:1 #
-0.79098835343490081495332333361148 20:1 #
1.581976706869801629906646667223 20:1 #
-0.79098835343490081495332333361148 5:1 #
-0.79098835343490081495332333361148 20:1 #
-0.79098835343490081495332333361148 5:1 #
1.581976706869801629906646667223 5:1 #
-0.79098835343490081495332333361148 20:1 #
1.581976706869801629906646667223 20:1 #
-0.79098835343490081495332333361148 5:1 #
-0.79098835343490081495332333361148 20:1 #
-0.79098835343490081495332333361148 5:1 #
1.581976706869801629906646667223 5:1 #
-0.79098835343490081495332333361148 20:1 #
1.581976706869801629906646667223 20:1 #
-0.79098835343490081495332333361148 5:1 #
-0.79098835343490081495332333361148 14:1 #
-0.79098835343490081495332333361148 6:1 #
-0.79098835343490081495332333361148 5:1 #
0.46527332344050015278114074135374 11:1 #
1.581976706869801629906646667223 12:1 #
1.581976706869801629906646667223 19:1 #
0.30664766444228680475347914580198 20:1 #
1.581976706869801629906646667223 17:1 #
-0.79098835343490081495332333361148 17:1 #
-0.79098835343490081495332333361148 11:1 #
1.581976706869801629906646667223 14:1 #
-0.79098835343490081495332333361148 19:1 #
1.581976706869801629906646667223 6:1 #
-0.79098835343490081495332333361148 20:1 #
1.581976706869801629906646667223 11:1 #
-0.79098835343490081495332333361148 13:1 #
-0.79098835343490081495332333361148 20:1 #
1.581976706869801629906646667223 5:1 #
-0.79098835343490081495332333361148 17:1 #
1.581976706869801629906646667223 17:1 #
-0.79098835343490081495332333361148 5:1 #
-0.79098835343490081495332333361148 17:1 #
-0.79098835343490081495332333361148 5:1 #
-0.78842461764971427662374026112957 17:1 #
1.581976706869801629906646667223 5:1 #
1.581976706869801629906646667223 17:1 #
-0.79098835343490081495332333361148 5:1 #
1.581976706869801629906646667223 13:1 #
-0.79098835343490081495332333361148 19:1 #
1.581976706869801629906646667223 19:1 #
-0.79098835343490081495332333361148 13:1 #
-0.79098835343490081495332333361148 11:1 #
-0.79098835343490081495332333361148 13:1 #
1.581976706869801629906646667223 13:1 #
-0.79098835343490081495332333361148 11:1 #
-0.79098835343490081495332333361148 13:1 #
1.581976706869801629906646667223 11:1 #
-0.79098835343490081495332333361148 11:1 #
-0.79098835343490081495332333361148 13:1 #
1.581976706869801629906646667223 13:1 #
-0.79098835343490081495332333361148 11:1 #
-0.79098835343490081495332333361148 13:1 #
1.581976706869801629906646667223 11:1 #
-0.79098835343490081495332333361148 11:1 #
-0.79098835343490081495332333361148 13:1 #
1.581976706869801629906646667223 13:1 #
-0.79098835343490081495332333361148 11:1 #
-0.79098835343490081495332333361148 13:1 #
1.581976706869801629906646667223 11:1 #
-0.79098835343490081495332333361148 11:1 #
-0.79098835343490081495332333361148 13:1 #
1.581976706869801629906646667223 13:1 #
-0.79098835343490081495332333361148 11:1 #
-0.79098835343490081495332333361148 13:1 #
1.581976706869801629906646667223 11:1 #
-0.79098835343490081495332333361148 11:1 #
-0.79098835343490081495332333361148 13:1 #
1.581976706869801629906646667223 13:1 #
-0.79098835343490081495332333361148 11:1 #
-0.79098835343490081495332333361148 13:1 #
1.581976706869801629906646667223 11:1 #
-0.79098835343490081495332333361148 11:1 #
-0.79098835343490081495332333361148 13:1 #
1.581976706869801629906646667223 13:1 #
-0.79098835343490081495332333361148 11:1 #
-0.79098835343490081495332333361148 13:1 #
1.581976706869801629906646667223 11:1 #
-0.79098835343490081495332333361148 11:1 #
-0.79098835343490081495332333361148 13:1 #
1.581976706869801629906646667223 13:1 #
-0.79098835343490081495332333361148 11:1 #
-0.79098835343490081495332333361148 13:1 #
1.581976706869801629906646667223 11:1 #
-0.79098835343490081495332333361148 11:1 #
-0.79098835343490081495332333361148 13:1 #
1.581976706869801629906646667223 13:1 #
-0.79098835343490081495332333361148 11:1 #
-0.79098835343490081495332333361148 13:1 #
1.581976706869801629906646667223 11:1 #
-0.79098835343490081495332333361148 11:1 #
-0.79098835343490081495332333361148 13:1 #
1.581976706869801629906646667223 13:1 #
-0.79098835343490081495332333361148 11:1 #
-0.79098835343490081495332333361148 13:1 #
1.581976706869801629906646667223 11:1 #
-0.79098835343490081495332333361148 11:1 #
-0.79098835343490081495332333361148 13:1 #
1.581976706869801629906646667223 13:1 #
-0.79098835343490081495332333361148 11:1 #
-0.79098835343490081495332333361148 13:1 #
1.581976706869801629906646667223 11:1 #
-0.79098835343490081495332333361148 11:1 #
-0.79098835343490081495332333361148 13:1 #
1.581976706869801629906646667223 13:1 #
-0.79098835343490081495332333361148 11:1 #
-0.79098835343490081495332333361148 13:1 #
1.581976706869801629906646667223 11:1 #
-0.79098835343490081495332333361148 11:1 #
-0.79098835343490081495332333361148 13:1 #
1.581976706869801629906646667223 13:1 #
-0.79098835343490081495332333361148 11:1 #
-0.79098835343490081495332333361148 13:1 #
1.581976706869801629906646667223 11:1 #
-0.79098835343490081495332333361148 11:1 #
-0.79098835343490081495332333361148 13:1 #
1.581976706869801629906646667223 13:1 #
-0.79098835343490081495332333361148 11:1 #
-0.79098835343490081495332333361148 13:1 #
1.581976706869801629906646667223 11:1 #
-0.79098835343490081495332333361148 11:1 #
-0.79098835343490081495332333361148 13:1 #
1.581976706869801629906646667223 13:1 #
-0.79098835343490081495332333361148 11:1 #
-0.79098835343490081495332333361148 13:1 #
1.581976706869801629906646667223 11:1 #
-0.79098835343490081495332333361148 11:1 #
-0.79098835343490081495332333361148 13:1 #
1.581976706869801629906646667223 13:1 #
-0.79098835343490081495332333361148 11:1 #
-0.79098835343490081495332333361148 13:1 #
1.581976706869801629906646667223 11:1 #
-0.79098835343490081495332333361148 11:1 #
-0.79098835343490081495332333361148 13:1 #
1.581976706869801629906646667223 13:1 #
-0.79098835343490081495332333361148 11:1 #
-0.79098835343490081495332333361148 13:1 #
1.581976706869801629906646667223 11:1 #
-0.79098835343490081495332333361148 11:1 #
-0.79098835343490081495332333361148 13:1 #
1.581976706869801629906646667223 13:1 #
-0.79098835343490081495332333361148 11:1 #
-0.79098835343490081495332333361148 13:1 #
1.581976706869801629906646667223 11:1 #
-0.79098835343490081495332333361148 11:1 #
-0.79098835343490081495332333361148 4:1 #
-0.79098835343490081495332333361148 17:1 #
-0.79098835343490081495332333361148 19:1 #
1.581976706869801629906646667223 5:1 #
1.2457189471648542067327980475966 11:1 #
0.56362528380344945055924199550645 6:1 #
1.581976706869801629906646667223 4:1 #
-0.79098835343490081495332333361148 13:1 #
-0.79098835343490081495332333361148 11:1 #
-0.79098835343490081495332333361148 6:1 #
-0.79098835343490081495332333361148 6:1 #
-0.79098835343490081495332333361148 11:1 #
1.581976706869801629906646667223 13:1 #
-0.79098835343490081495332333361148 6:1 #
1.581976706869801629906646667223 6:1 #
-0.79098835343490081495332333361148 13:1 #
-0.79098835343490081495332333361148 6:1 #
-0.79098835343490081495332333361148 13:1 #
1.581976706869801629906646667223 13:1 #
-0.79098835343490081495332333361148 6:1 #
1.5555128418838242154720319376793 6:1 #
-0.79098835343490081495332333361148 13:1 #
-0.79098835343490081495332333361148 6:1 #
-0.79098835343490081495332333361148 13:1 #
1.581976706869801629906646667223 13:1 #
-0.79098835343490081495332333361148 6:1 #
1.581976706869801629906646667223 6:1 #
-0.79098835343490081495332333361148 13:1 #
-0.79098835343490081495332333361148 6:1 #
-0.79098835343490081495332333361148 13:1 #
1.581976706869801629906646667223 13:1 #
-0.79098835343490081495332333361148 6:1 #
1.581976706869801629906646667223 6:1 #
-0.79098835343490081495332333361148 13:1 #
-0.79098835343490081495332333361148 6:1 #
-0.79098835343490081495332333361148 13:1 #
1.581976706869801629906646667223 13:1 #
-0.79098835343490081495332333361148 6:1 #
1.581976706869801629906646667223 6:1 #
-0.79098835343490081495332333361148 13:1 #
-0.79098835343490081495332333361148 6:1 #
-0.79098835343490081495332333361148 13:1 #
1.581976706869801629906646667223 13:1 #
-0.79098835343490081495332333361148 6:1 #
1.581976706869801629906646667223 6:1 #
-0.79098835343490081495332333361148 13:1 #
-0.79098835343490081495332333361148 6:1 #
-0.79098835343490081495332333361148 13:1 #
1.581976706869801629906646667223 13:1 #
-0.79098835343490081495332333361148 6:1 #
1.581976706869801629906646667223 6:1 #
-0.79098835343490081495332333361148 13:1 #
-0.79098835343490081495332333361148 6:1 #
-0.79098835343490081495332333361148 13:1 #
1.581976706869801629906646667223 13:1 #
-0.79098835343490081495332333361148 6:1 #
1.581976706869801629906646667223 6:1 #
-0.79098835343490081495332333361148 13:1 #
-0.79098835343490081495332333361148 6:1 #
-0.79098835343490081495332333361148 13:1 #
1.581976706869801629906646667223 13:1 #
-0.79098835343490081495332333361148 6:1 #
1.581976706869801629906646667223 6:1 #
-0.79098835343490081495332333361148 13:1 #
-0.79098835343490081495332333361148 6:1 #
-0.79098835343490081495332333361148 13:1 #
1.581976706869801629906646667223 13:1 #
-0.79098835343490081495332333361148 6:1 #
1.581976706869801629906646667223 6:1 #
-0.79098835343490081495332333361148 13:1 #
-0.79098835343490081495332333361148 6:1 #
-0.79098835343490081495332333361148 13:1 #
1.581976706869801629906646667223 13:1 #
-0.79098835343490081495332333361148 6:1 #
1.581976706869801629906646667223 6:1 #
-0.79098835343490081495332333361148 13:1 #
-0.79098835343490081495332333361148 6:1 #
-0.79098835343490081495332333361148 13:1 #
1.581976706869801629906646667223 13:1 #
-0.79098835343490081495332333361148 6:1 #
1.581976706869801629906646667223 6:1 #
-0.79098835343490081495332333361148 13:1 #
-0.79098835343490081495332333361148 6:1 #
-0.79098835343490081495332333361148 13:1 #
1.581976706869801629906646667223 13:1 #
-0.79098835343490081495332333361148 6:1 #
1.581976706869801629906646667223 6:1 #
-0.79098835343490081495332333361148 13:1 #
-0.79098835343490081495332333361148 6:1 #
-0.79098835343490081495332333361148 13:1 #
1.581976706869801629906646667223 13:1 #
-0.79098835343490081495332333361148 6:1 #
1.581976706869801629906646667223 6:1 #
-0.79098835343490081495332333361148 13:1 #
-0.79098835343490081495332333361148 6:1 #
-0.79098835343490081495332333361148 13:1 #
1.581976706869801629906646667223 13:1 #
-0.79098835343490081495332333361148 6:1 #
1.581976706869801629906646667223 6:1 #
-0.79098835343490081495332333361148 13:1 #
-0.79098835343490081495332333361148 6:1 #
-0.79098835343490081495332333361148 13:1 #
1.581976706869801629906646667223 13:1 #
-0.79098835343490081495332333361148 6:1 #
1.581976706869801629906646667223 6:1 #
-0.79098835343490081495332333361148 13:1 #
-0.79098835343490081495332333361148 6:1 #
-0.79098835343490081495332333361148 13:1 #
1.581976706869801629906646667223 13:1 #
-0.79098835343490081495332333361148 6:1 #
1.581976706869801629906646667223 6:1 #
-0.79098835343490081495332333361148 13:1 #
-0.79098835343490081495332333361148 6:1 #
-0.79098835343490081495332333361148 13:1 #
1.581976706869801629906646667223 13:1 #
-0.79098835343490081495332333361148 6:1 #
1.581976706869801629906646667223 6:1 #
-0.79098835343490081495332333361148 13:1 #
-0.79098835343490081495332333361148 6:1 #
-0.79098835343490081495332333361148 13:1 #
1.581976706869801629906646667223 13:1 #
-0.79098835343490081495332333361148 6:1 #
1.581976706869801629906646667223 6:1 #
-0.79098835343490081495332333361148 13:1 #
-0.79098835343490081495332333361148 6:1 #
-0.79098835343490081495332333361148 13:1 #
1.581976706869801629906646667223 13:1 #
-0.79098835343490081495332333361148 6:1 #
1.581976706869801629906646667223 6:1 #
-0.79098835343490081495332333361148 13:1 #
-0.79098835343490081495332333361148 6:1 #
-0.79098835343490081495332333361148 13:1 #
1.581976706869801629906646667223 13:1 #
-0.79098835343490081495332333361148 6:1 #
1.581976706869801629906646667223 6:1 #
-0.79098835343490081495332333361148 13:1 #
-0.79098835343490081495332333361148 6:1 #
-0.79098835343490081495332333361148 13:1 #
1.581976706869801629906646667223 13:1 #
-0.79098835343490081495332333361148 6:1 #
1.581976706869801629906646667223 6:1 #
-0.79098835343490081495332333361148 13:1 #
-0.79098835343490081495332333361148 6:1 #
-0.79098835343490081495332333361148 13:1 #
1.581976706869801629906646667223 13:1 #
-0.79098835343490081495332333361148 6:1 #
1.581976706869801629906646667223 6:1 #
-0.79098835343490081495332333361148 13:1 #
-0.79098835343490081495332333361148 6:1 #
-0.79098835343490081495332333361148 13:1 #
1.581976706869801629906646667223 13:1 #
-0.79098835343490081495332333361148 6:1 #
1.581976706869801629906646667223 6:1 #
-0.79098835343490081495332333361148 13:1 #
-0.79098835343490081495332333361148 6:1 #
-0.79098835343490081495332333361148 3:1 #
-0.79098835343490081495332333361148 1:1 #
-0.79098835343490081495332333361148 17:1 #
-0.79098835343490081495332333361148 20:1 #
1.581976706869801629906646667223 5:1 #
1.581976706869801629906646667223 4:1 #
1.4600248978391874299376240742276 6:1 #
-0.79098835343490081495332333361148 6:1 #
1.581976706869801629906646667223 3:1 #
-0.79098835343490081495332333361148 5:1 #
1.581976706869801629906646667223 20:1 #
-0.79098835343490081495332333361148 4:1 #
1.581976706869801629906646667223 17:1 #
-0.79098835343490081495332333361148 13:1 #
1.581976706869801629906646667223 13:1 #
-0.79098835343490081495332333361148 17:1 #
-0.79098835343490081495332333361148 13:1 #
-0.79098835343490081495332333361148 17:1 #
1.581976706869801629906646667223 17:1 #
-0.79098835343490081495332333361148 13:1 #
1.581976706869801629906646667223 13:1 #
-0.79098835343490081495332333361148 17:1 #
-0.79098835343490081495332333361148 13:1 #
-0.79098835343490081495332333361148 17:1 #
1.581976706869801629906646667223 17:1 #
-0.79098835343490081495332333361148 13:1 #
1.581976706869801629906646667223 13:1 #
-0.79098835343490081495332333361148 17:1 #
-0.79098835343490081495332333361148 13:1 #
-0.79098835343490081495332333361148 17:1 #
1.581976706869801629906646667223 17:1 #
-0.79098835343490081495332333361148 13:1 #
1.581976706869801629906646667223 13:1 #
-0.79098835343490081495332333361148 17:1 #
-0.79098835343490081495332333361148 13:1 #
-0.79098835343490081495332333361148 17:1 #
1.581976706869801629906646667223 17:1 #
-0.79098835343490081495332333361148 13:1 #
1.581976706869801629906646667223 13:1 #
-0.79098835343490081495332333361148 17:1 #
-0.79098835343490081495332333361148 13:1 #
-0.79098835343490081495332333361148 17:1 #
1.581976706869801629906646667223 17:1 #
-0.79098835343490081495332333361148 13:1 #
1.581976706869801629906646667223 13:1 #
-0.79098835343490081495332333361148 17:1 #
-0.79098835343490081495332333361148 13:1 #
-0.79098835343490081495332333361148 17:1 #
1.581976706869801629906646667223 17:1 #
-0.79098835343490081495332333361148 13:1 #
1.581976706869801629906646667223 13:1 #
-0.79098835343490081495332333361148 17:1 #
-0.79098835343490081495332333361148 13:1 #
-0.79098835343490081495332333361148 17:1 #
1.581976706869801629906646667223 17:1 #
-0.79098835343490081495332333361148 13:1 #
1.581976706869801629906646667223 13:1 #
-0.79098835343490081495332333361148 17:1 #
-0.79098835343490081495332333361148 13:1 #
-0.79098835343490081495332333361148 17:1 #
1.581976706869801629906646667223 17:1 #
-0.79098835343490081495332333361148 13:1 #
1.581976706869801629906646667223 13:1 #
-0.79098835343490081495332333361148 17:1 #
-0.79098835343490081495332333361148 13:1 #
-0.79098835343490081495332333361148 17:1 #
1.581976706869801629906646667223 17:1 #
-0.79098835343490081495332333361148 13:1 #
1.581976706869801629906646667223 13:1 #
-0.79098835343490081495332333361148 17:1 #
-0.79098835343490081495332333361148 13:1 #
-0.79098835343490081495332333361148 17:1 #
1.581976706869801629906646667223 17:1 #
-0.79098835343490081495332333361148 13:1 #
1.581976706869801629906646667223 13:1 #
-0.79098835343490081495332333361148 17:1 #
-0.79098835343490081495332333361148 13:1 #
-0.79098835343490081495332333361148 17:1 #
1.581976706869801629906646667223 17:1 #
-0.79098835343490081495332333361148 13:1 #
1.581976706869801629906646667223 13:1 #
-0.79098835343490081495332333361148 17:1 #
-0.79098835343490081495332333361148 13:1 #
-0.79098835343490081495332333361148 17:1 #
1.581976706869801629906646667223 17:1 #
-0.79098835343490081495332333361148 13:1 #
1.581976706869801629906646667223 13:1 #
-0.79098835343490081495332333361148 17:1 #
-0.79098835343490081495332333361148 13:1 #
-0.79098835343490081495332333361148 17:1 #
1.581976706869801629906646667223 17:1 #
-0.79098835343490081495332333361148 13:1 #
1.581976706869801629906646667223 13:1 #
-0.79098835343490081495332333361148 17:1 #
-0.79098835343490081495332333361148 13:1 #
-0.79098835343490081495332333361148 17:1 #
1.581976706869801629906646667223 17:1 #
-0.79098835343490081495332333361148 13:1 #
1.581976706869801629906646667223 13:1 #
-0.79098835343490081495332333361148 17:1 #
-0.79098835343490081495332333361148 13:1 #
-0.79098835343490081495332333361148 17:1 #
1.581976706869801629906646667223 17:1 #
-0.79098835343490081495332333361148 13:1 #
1.581976706869801629906646667223 13:1 #
-0.79098835343490081495332333361148 17:1 #
-0.79098835343490081495332333361148 13:1 #
-0.79098835343490081495332333361148 17:1 #
1.581976706869801629906646667223 17:1 #
-0.79098835343490081495332333361148 13:1 #
1.581976706869801629906646667223 13:1 #
-0.79098835343490081495332333361148 17:1 #
-0.79098835343490081495332333361148 13:1 #
-0.79098835343490081495332333361148 17:1 #
1.581976706869801629906646667223 17:1 #
-0.79098835343490081495332333361148 13:1 #
1.581976706869801629906646667223 13:1 #
-0.79098835343490081495332333361148 17:1 #
-0.79098835343490081495332333361148 13:1 #
-0.79098835343490081495332333361148 17:1 #
1.581976706869801629906646667223 17:1 #
-0.79098835343490081495332333361148 13:1 #
1.581976706869801629906646667223 13:1 #
-0.79098835343490081495332333361148 17:1 #
-0.79098835343490081495332333361148 13:1 #
-0.79098835343490081495332333361148 17:1 #
1.581976706869801629906646667223 17:1 #
-0.79098835343490081495332333361148 13:1 #
1.581976706869801629906646667223 13:1 #
-0.79098835343490081495332333361148 17:1 #
-0.79098835343490081495332333361148 13:1 #
-0.79098835343490081495332333361148 17:1 #
1.581976706869801629906646667223 17:1 #
-0.79098835343490081495332333361148 13:1 #
1.581976706869801629906646667223 13:1 #
-0.79098835343490081495332333361148 17:1 #
-0.79098835343490081495332333361148 13:1 #
-0.79098835343490081495332333361148 17:1 #
1.581976706869801629906646667223 17:1 #
-0.79098835343490081495332333361148 13:1 #
1.581976706869801629906646667223 13:1 #
-0.79098835343490081495332333361148 17:1 #
-0.79098835343490081495332333361148 13:1 #
-0.79098835343490081495332333361148 17:1 #
1.581976706869801629906646667223 17:1 #
-0.79098835343490081495332333361148 13:1 #
1.581976706869801629906646667223 13:1 #
-0.79098835343490081495332333361148 17:1 #
-0.79098835343490081495332333361148 13:1 #
-0.79098835343490081495332333361148 17:1 #
1.581976706869801629906646667223 17:1 #
-0.79098835343490081495332333361148 13:1 #
1.581976706869801629906646667223 13:1 #
-0.79098835343490081495332333361148 17:1 #
-0.79098835343490081495332333361148 13:1 #
-0.79098835343490081495332333361148 17:1 #
1.581976706869801629906646667223 17:1 #
-0.79098835343490081495332333361148 13:1 #
-0.79098835343490081495332333361148 6:1 #
-0.79098835343490081495332333361148 17:1 #
-0.77101481401483096256299631932052 9:1 #
-0.77101481401483118460760124435183 15:1 #
1.5420204714845009430490563318017 18:1 #
1.581976706869801629906646667223 13:1 #
-0.79098835343490081495332333361148 13:1 #
-0.79098835343490081495332333361148 18:1 #
1.581976706869801629906646667223 15:1 #
1.581976706869801629906646667223 9:1 #
-0.79098835343490081495332333361148 18:1 #
-0.79098835343490081495332333361148 13:1 #
1.581976706869801629906646667223 13:1 #
-0.79098835343490081495332333361148 17:1 #
1.581976706869801629906646667223 17:1 #
-0.79098835343490081495332333361148 13:1 #
-0.79098835343490081495332333361148 19:1 #
1.581976706869801629906646667223 19:1 #
-0.79098835343490081495332333361148 13:1 #
1.581976706869801629906646667223 13:1 #
-0.79098835343490081495332333361148 19:1 #
-0.79098835343490081495332333361148 13:1 #
-0.79098835343490081495332333361148 19:1 #
1.581976706869801629906646667223 19:1 #
-0.79098835343490081495332333361148 13:1 #
1.581976706869801629906646667223 13:1 #
-0.79098835343490081495332333361148 19:1 #
-0.79098835343490081495332333361148 13:1 #
-0.79098835343490081495332333361148 19:1 #
1.581976706869801629906646667223 19:1 #
-0.79098835343490081495332333361148 13:1 #
1.581976706869801629906646667223 13:1 #
-0.79098835343490081495332333361148 19:1 #
-0.79098835343490081495332333361148 13:1 #
-0.79098835343490081495332333361148 19:1 #
1.581976706869801629906646667223 19:1 #
-0.79098835343490081495332333361148 13:1 #
1.581976706869801629906646667223 13:1 #
-0.79098835343490081495332333361148 19:1 #
-0.79098835343490081495332333361148 13:1 #
-0.79098835343490081495332333361148 19:1 #
1.581976706869801629906646667223 19:1 #
-0.79098835343490081495332333361148 13:1 #
1.581976706869801629906646667223 13:1 #
-0.79098835343490081495332333361148 19:1 #
-0.79098835343490081495332333361148 13:1 #
-0.79098835343490081495332333361148 19:1 #
1.581976706869801629906646667223 19:1 #
-0.79098835343490081495332333361148 13:1 #
1.581976706869801629906646667223 13:1 #
-0.79098835343490081495332333361148 19:1 #
-0.79098835343490081495332333361148 13:1 #
-0.79098835343490081495332333361148 19:1 #
1.581976706869801629906646667223 19:1 #
-0.79098835343490081495332333361148 13:1 #
1.581976706869801629906646667223 13:1 #
-0.79098835343490081495332333361148 19:1 #
-0.79098835343490081495332333361148 13:1 #
-0.79098835343490081495332333361148 19:1 #
1.581976706869801629906646667223 19:1 #
-0.79098835343490081495332333361148 13:1 #
1.581976706869801629906646667223 13:1 #
-0.79098835343490081495332333361148 19:1 #
-0.79098835343490081495332333361148 13:1 #
-0.79098835343490081495332333361148 19:1 #
1.581976706869801629906646667223 19:1 #
-0.79098835343490081495332333361148 13:1 #
1.581976706869801629906646667223 13:1 #
-0.79098835343490081495332333361148 19:1 #
-0.79098835343490081495332333361148 13:1 #
-0.79098835343490081495332333361148 19:1 #
1.581976706869801629906646667223 19:1 #
-0.79098835343490081495332333361148 13:1 #
1.581976706869801629906646667223 13:1 #
-0.79098835343490081495332333361148 19:1 #
-0.79098835343490081495332333361148 13:1 #
-0.79098835343490081495332333361148 19:1 #
1.581976706869801629906646667223 19:1 #
-0.79098835343490081495332333361148 13:1 #
1.581976706869801629906646667223 13:1 #
-0.79098835343490081495332333361148 19:1 #
-0.79098835343490081495332333361148 13:1 #
-0.79098835343490081495332333361148 19:1 #
1.581976706869801629906646667223 19:1 #
-0.79098835343490081495332333361148 13:1 #
1.581976706869801629906646667223 13:1 #
-0.79098835343490081495332333361148 19:1 #
-0.79098835343490081495332333361148 13:1 #
-0.79098835343490081495332333361148 19:1 #
1.581976706869801629906646667223 19:1 #
-0.79098835343490081495332333361148 13:1 #
1.581976706869801629906646667223 13:1 #
-0.79098835343490081495332333361148 19:1 #
-0.79098835343490081495332333361148 13:1 #
-0.79098835343490081495332333361148 19:1 #
1.581976706869801629906646667223 19:1 #
-0.79098835343490081495332333361148 13:1 #
1.581976706869801629906646667223 13:1 #
-0.79098835343490081495332333361148 19:1 #
-0.79098835343490081495332333361148 13:1 #
-0.79098835343490081495332333361148 19:1 #
1.581976706869801629906646667223 19:1 #
-0.79098835343490081495332333361148 13:1 #
1.581976706869801629906646667223 13:1 #
-0.79098835343490081495332333361148 19:1 #
-0.79098835343490081495332333361148 13:1 #
-0.79098835343490081495332333361148 19:1 #
1.581976706869801629906646667223 19:1 #
-0.79098835343490081495332333361148 13:1 #
1.581976706869801629906646667223 13:1 #
-0.79098835343490081495332333361148 19:1 #
-0.79098835343490081495332333361148 13:1 #
-0.79098835343490081495332333361148 19:1 #
1.581976706869801629906646667223 19:1 #
-0.79098835343490081495332333361148 13:1 #
1.581976706869801629906646667223 13:1 #
-0.79098835343490081495332333361148 19:1 #
-0.79098835343490081495332333361148 13:1 #
-0.79098835343490081495332333361148 19:1 #
1.581976706869801629906646667223 19:1 #
-0.79098835343490081495332333361148 13:1 #
1.581976706869801629906646667223 13:1 #
-0.79098835343490081495332333361148 19:1 #
-0.79098835343490081495332333361148 13:1 #
-0.79098835343490081495332333361148 19:1 #
1.581976706869801629906646667223 19:1 #
-0.79098835343490081495332333361148 13:1 #
1.581976706869801629906646667223 13:1 #
-0.79098835343490081495332333361148 19:1 #
-0.79098835343490081495332333361148 13:1 #
-0.79098835343490081495332333361148 19:1 #
1.581976706869801629906646667223 19:1 #
-0.79098835343490081495332333361148 13:1 #
1.581976706869801629906646667223 13:1 #
-0.79098835343490081495332333361148 19:1 #
-0.79098835343490081495332333361148 13:1 #
-0.79098835343490081495332333361148 19:1 #
1.581976706869801629906646667223 19:1 #
-0.79098835343490081495332333361148 13:1 #
1.581976706869801629906646667223 13:1 #
-0.79098835343490081495332333361148 19:1 #
-0.79098835343490081495332333361148 13:1 #
-0.79098835343490081495332333361148 19:1 #
1.581976706869801629906646667223 19:1 #
-0.79098835343490081495332333361148 13:1 #
1.581976706869801629906646667223 13:1 #
-0.79098835343490081495332333361148 19:1 #
-0.79098835343490081495332333361148 13:1 #
-0.79098835343490081495332333361148 19:1 #
1.581976706869801629906646667223 19:1 #
-0.79098835343490081495332333361148 13:1 #
1.581976706869801629906646667223 13:1 #
-0.79098835343490081495332333361148 19:1 #
-0.79098835343490081495332333361148 13:1 #
-0.79098835343490081495332333361148 19:1 #
1.581976706869801629906646667223 19:1 #
-0.79098835343490081495332333361148 13:1 #
-0.79098835343490081495332333361148 4:1 #
-0.79098835343490081495332333361148 20:1 #
-0.79098835343490081495332333361148 3:1 #
-0.79098835343490081495332333361148 17:1 #
-0.79098835343490081495332333361148 19:1 #
1.581976706869801629906646667223 7:1 #
1.581976706869801629906646667223 5:1 #
1.581976706869801629906646667223 10:1 #
1.581976706869801629906646667223 16:1 #
-0.79098835343490081495332333361148 5:1 #
-0.79098835343490081495332333361148 16:1 #
-0.79098835343490081495332333361148 16:1 #
-0.79098835343490081495332333361148 7:1 #
-0.79098835343490081495332333361148 10:1 #
-0.79098835343490081495332333361148 5:1 #
-0.79098835343490081495332333361148 10:1 #
-0.79098835343490081495332333361148 16:1 #
-0.79098835343490081495332333361148 7:1 #
-0.79098835343490081495332333361148 10:1 #
1.581976706869801629906646667223 10:1 #
-0.79098835343490081495332333361148 5:1 #
1.581976706869801629906646667223 5:1 #
-0.79098835343490081495332333361148 10:1 #
-0.79098835343490081495332333361148 5:1 #
-0.79098835343490081495332333361148 10:1 #
1.581976706869801629906646667223 10:1 #
-0.79098835343490081495332333361148 5:1 #
1.581976706869801629906646667223 5:1 #
-0.79098835343490081495332333361148 10:1 #
-0.79098835343490081495332333361148 5:1 #
-0.79098835343490081495332333361148 10:1 #
1.581976706869801629906646667223 10:1 #
-0.79098835343490081495332333361148 5:1 #
1.581976706869801629906646667223 5:1 #
-0.79098835343490081495332333361148 10:1 #
-0.79098835343490081495332333361148 5:1 #
-0.79098835343490081495332333361148 10:1 #
1.581976706869801629906646667223 10:1 #
-0.79098835343490081495332333361148 5:1 #
1.581976706869801629906646667223 5:1 #
-0.79098835343490081495332333361148 10:1 #
-0.79098835343490081495332333361148 5:1 #
-0.79098835343490081495332333361148 10:1 #
1.581976706869801629906646667223 10:1 #
-0.79098835343490081495332333361148 5:1 #
1.581976706869801629906646667223 5:1 #
-0.79098835343490081495332333361148 10:1 #
-0.79098835343490081495332333361148 5:1 #
-0.79098835343490081495332333361148 10:1 #
1.581976706869801629906646667223 10:1 #
-0.79098835343490081495332333361148 5:1 #
1.581976706869801629906646667223 5:1 #
-0.79098835343490081495332333361148 10:1 #
-0.79098835343490081495332333361148 5:1 #
-0.79098835343490081495332333361148 10:1 #
1.581976706869801629906646667223 10:1 #
-0.79098835343490081495332333361148 5:1 #
1.581976706869801629906646667223 5:1 #
-0.79098835343490081495332333361148 10:1 #
-0.79098835343490081495332333361148 5:1 #
-0.79098835343490081495332333361148 10:1 #
1.581976706869801629906646667223 10:1 #
-0.79098835343490081495332333361148 5:1 #
1.581976706869801629906646667223 5:1 #
-0.79098835343490081495332333361148 10:1 #
-0.79098835343490081495332333361148 5:1 #
-0.79098835343490081495332333361148 10:1 #
1.581976706869801629906646667223 10:1 #
-0.79098835343490081495332333361148 5:1 #
1.581976706869801629906646667223 5:1 #
-0.79098835343490081495332333361148 10:1 #
-0.79098835343490081495332333361148 5:1 #
-0.79098835343490081495332333361148 10:1 #
1.581976706869801629906646667223 10:1 #
-0.79098835343490081495332333361148 5:1 #
1.581976706869801629906646667223 5:1 #
-0.79098835343490081495332333361148 10:1 #
-0.79098835343490081495332333361148 5:1 #
-0.79098835343490081495332333361148 10:1 #
1.581976706869801629906646667223 10:1 #
-0.79098835343490081495332333361148 5:1 #
1.581976706869801629906646667223 5:1 #
-0.79098835343490081495332333361148 10:1 #
-0.79098835343490081495332333361148 5:1 #
-0.79098835343490081495332333361148 10:1 #
1.581976706869801629906646667223 10:1 #
-0.79098835343490081495332333361148 5:1 #
1.581976706869801629906646667223 5:1 #
-0.79098835343490081495332333361148 10:1 #
-0.79098835343490081495332333361148 5:1 #
-0.79098835343490081495332333361148 10:1 #
1.581976706869801629906646667223 10:1 #
-0.79098835343490081495332333361148 5:1 #
1.581976706869801629906646667223 5:1 #
-0.79098835343490081495332333361148 10:1 #
-0.79098835343490081495332333361148 5:1 #
-0.79098835343490081495332333361148 10:1 #
1.581976706869801629906646667223 10:1 #
-0.79098835343490081495332333361148 5:1 #
1.581976706869801629906646667223 5:1 #
-0.79098835343490081495332333361148 10:1 #
-0.79098835343490081495332333361148 5:1 #
-0.79098835343490081495332333361148 10:1 #
1.581976706869801629906646667223 10:1 #
-0.79098835343490081495332333361148 5:1 #
1.581976706869801629906646667223 5:1 #
-0.79098835343490081495332333361148 10:1 #
-0.79098835343490081495332333361148 5:1 #
-0.79098835343490081495332333361148 10:1 #
1.581976706869801629906646667223 10:1 #
-0.79098835343490081495332333361148 5:1 #
1.581976706869801629906646667223 5:1 #
-0.79098835343490081495332333361148 10:1 #
-0.79098835343490081495332333361148 5:1 #
-0.79098835343490081495332333361148 10:1 #
1.581976706869801629906646667223 10:1 #
-0.79098835343490081495332333361148 5:1 #
1.581976706869801629906646667223 5:1 #
-0.79098835343490081495332333361148 10:1 #
-0.79098835343490081495332333361148 5:1 #
-0.79098835343490081495332333361148 10:1 #
1.581976706869801629906646667223 10:1 #
-0.79098835343490081495332333361148 5:1 #
1.581976706869801629906646667223 5:1 #
-0.79098835343490081495332333361148 10:1 #
-0.79098835343490081495332333361148 5:1 #
-0.79098835343490081495332333361148 10:1 #
1.581976706869801629906646667223 10:1 #
-0.79098835343490081495332333361148 5:1 #
1.581976706869801629906646667223 5:1 #
-0.79098835343490081495332333361148 10:1 #
-0.79098835343490081495332333361148 5:1 #
-0.79098835343490081495332333361148 10:1 #
1.581976706869801629906646667223 10:1 #
-0.79098835343490081495332333361148 5:1 #
1.581976706869801629906646667223 5:1 #
-0.79098835343490081495332333361148 10:1 #
-0.79098835343490081495332333361148 5:1 #
-0.79098835343490081495332333361148 10:1 #
1.581976706869801629906646667223 10:1 #
-0.79098835343490081495332333361148 5:1 #
1.581976706869801629906646667223 5:1 #
-0.79098835343490081495332333361148 10:1 #
-0.79098835343490081495332333361148 5:1 #
-0.79098835343490081495332333361148 10:1 #
1.581976706869801629906646667223 10:1 #
-0.79098835343490081495332333361148 5:1 #
1.581976706869801629906646667223 5:1 #
-0.79098835343490081495332333361148 10:1 #
-0.79098835343490081495332333361148 5:1 #
-0.79098835343490081495332333361148 10:1 #
1.581976706869801629906646667223 10:1 #
-0.79098835343490081495332333361148 5:1 #
1.581976706869801629906646667223 5:1 #
-0.79098835343490081495332333361148 10:1 #
-0.79098835343490081495332333361148 5:1 #
-0.79098835343490081495332333361148 10:1 #
-0.79098835343490081495332333361148 15:1 #
-0.79098835343490081495332333361148 16:1 #
-0.79098835343490081495332333361148 3:1 #
-0.79098835343490081495332333361148 17:1 #
1.581976706869801629906646667223 5:1 #
1.581976706869801629906646667223 20:1 #
1.581976706869801629906646667223 19:1 #
-0.79098835343490081495332333361148 19:1 #
1.581976706869801629906646667223 3:1 #
-0.79098835343490081495332333361148 20:1 #
-0.79098835343490081495332333361148 5:1 #
-0.79098835343490081495332333361148 20:1 #
1.581976706869801629906646667223 17:1 #
-0.79098835343490081495332333361148 3:1 #
-0.79098835343490081495332333361148 17:1 #
1.581976706869801629906646667223 10:1 #
1.581976706869801629906646667223 16:1 #
-0.79098835343490081495332333361148 19:1 #
1.581976706869801629906646667223 19:1 #
-0.79098835343490081495332333361148 5:1 #
1.581976706869801629906646667223 5:1 #
-0.79098835343490081495332333361148 19:1 #
-0.79098835343490081495332333361148 5:1 #
-0.79098835343490081495332333361148 19:1 #
1.581976706869801629906646667223 19:1 #
-0.79098835343490081495332333361148 5:1 #
1.581976706869801629906646667223 5:1 #
-0.79098835343490081495332333361148 19:1 #
-0.79098835343490081495332333361148 5:1 #
-0.79098835343490081495332333361148 19:1 #
1.581976706869801629906646667223 19:1 #
-0.79098835343490081495332333361148 5:1 #
1.581976706869801629906646667223 5:1 #
-0.79098835343490081495332333361148 19:1 #
-0.79098835343490081495332333361148 5:1 #
-0.79098835343490081495332333361148 19:1 #
1.581976706869801629906646667223 19:1 #
-0.79098835343490081495332333361148 5:1 #
1.581976706869801629906646667223 5:1 #
-0.79098835343490081495332333361148 19:1 #
-0.79098835343490081495332333361148 5:1 #
-0.79098835343490081495332333361148 19:1 #
1.581976706869801629906646667223 19:1 #
-0.79098835343490081495332333361148 5:1 #
1.581976706869801629906646667223 5:1 #
-0.79098835343490081495332333361148 19:1 #
-0.79098835343490081495332333361148 5:1 #
-0.79098835343490081495332333361148 19:1 #
1.581976706869801629906646667223 19:1 #
-0.79098835343490081495332333361148 5:1 #
1.581976706869801629906646667223 5:1 #
-0.79098835343490081495332333361148 19:1 #
-0.79098835343490081495332333361148 5:1 #
-0.79098835343490081495332333361148 19:1 #
1.581976706869801629906646667223 19:1 #
-0.79098835343490081495332333361148 5:1 #
1.581976706869801629906646667223 5:1 #
-0.79098835343490081495332333361148 19:1 #
-0.79098835343490081495332333361148 5:1 #
-0.79098835343490081495332333361148 19:1 #
1.581976706869801629906646667223 19:1 #
-0.79098835343490081495332333361148 5:1 #
1.581976706869801629906646667223 5:1 #
-0.79098835343490081495332333361148 19:1 #
-0.79098835343490081495332333361148 5:1 #
-0.79098835343490081495332333361148 19:1 #
1.581976706869801629906646667223 19:1 #
-0.79098835343490081495332333361148 5:1 #
1.581976706869801629906646667223 5:1 #
-0.79098835343490081495332333361148 19:1 #
-0.79098835343490081495332333361148 5:1 #
-0.79098835343490081495332333361148 19:1 #
1.581976706869801629906646667223 19:1 #
-0.79098835343490081495332333361148 5:1 #
1.581976706869801629906646667223 5:1 #
-0.79098835343490081495332333361148 19:1 #
-0.79098835343490081495332333361148 5:1 #
-0.79098835343490081495332333361148 19:1 #
1.581976706869801629906646667223 19:1 #
-0.79098835343490081495332333361148 5:1 #
1.581976706869801629906646667223 5:1 #
-0.79098835343490081495332333361148 19:1 #
-0.79098835343490081495332333361148 5:1 #
-0.79098835343490081495332333361148 19:1 #
1.581976706869801629906646667223 19:1 #
-0.79098835343490081495332333361148 5:1 #
1.581976706869801629906646667223 5:1 #
-0.79098835343490081495332333361148 19:1 #
-0.79098835343490081495332333361148 5:1 #
-0.79098835343490081495332333361148 19:1 #
1.581976706869801629906646667223 19:1 #
-0.79098835343490081495332333361148 5:1 #
1.581976706869801629906646667223 5:1 #
-0.79098835343490081495332333361148 19:1 #
-0.79098835343490081495332333361148 5:1 #
-0.79098835343490081495332333361148 19:1 #
1.581976706869801629906646667223 19:1 #
-0.79098835343490081495332333361148 5:1 #
1.581976706869801629906646667223 5:1 #
-0.79098835343490081495332333361148 19:1 #
-0.79098835343490081495332333361148 5:1 #
-0.79098835343490081495332333361148 19:1 #
1.581976706869801629906646667223 19:1 #
-0.79098835343490081495332333361148 5:1 #
1.581976706869801629906646667223 5:1 #
-0.79098835343490081495332333361148 19:1 #
-0.79098835343490081495332333361148 5:1 #
-0.79098835343490081495332333361148 19:1 #
1.581976706869801629906646667223 19:1 #
-0.79098835343490081495332333361148 5:1 #
1.581976706869801629906646667223 5:1 #
-0.79098835343490081495332333361148 19:1 #
-0.79098835343490081495332333361148 5:1 #
-0.79098835343490081495332333361148 19:1 #
1.581976706869801629906646667223 19:1 #
-0.79098835343490081495332333361148 5:1 #
1.581976706869801629906646667223 5:1 #
-0.79098835343490081495332333361148 19:1 #
-0.79098835343490081495332333361148 5:1 #
-0.79098835343490081495332333361148 19:1 #
1.581976706869801629906646667223 19:1 #
-0.79098835343490081495332333361148 5:1 #
1.581976706869801629906646667223 5:1 #
-0.79098835343490081495332333361148 19:1 #
-0.79098835343490081495332333361148 5:1 #
-0.79098835343490081495332333361148 19:1 #
1.581976706869801629906646667223 19:1 #
-0.79098835343490081495332333361148 5:1 #
1.581976706869801629906646667223 5:1 #
-0.79098835343490081495332333361148 19:1 #
-0.79098835343490081495332333361148 5:1 #
-0.79098835343490081495332333361148 19:1 #
1.581976706869801629906646667223 19:1 #
-0.79098835343490081495332333361148 5:1 #
1.581976706869801629906646667223 5:1 #
-0.79098835343490081495332333361148 19:1 #
-0.79098835343490081495332333361148 5:1 #
-0.79098835343490081495332333361148 19:1 #
1.581976706869801629906646667223 19:1 #
-0.79098835343490081495332333361148 5:1 #
1.581976706869801629906646667223 5:1 #
-0.79098835343490081495332333361148 19:1 #
-0.79098835343490081495332333361148 5:1 #
-0.79098835343490081495332333361148 19:1 #
1.581976706869801629906646667223 19:1 #
-0.79098835343490081495332333361148 5:1 #
1.581976706869801629906646667223 5:1 #
-0.79098835343490081495332333361148 19:1 #
-0.79098835343490081495332333361148 5:1 #
-0.79098835343490081495332333361148 19:1 #
1.581976706869801629906646667223 19:1 #
-0.79098835343490081495332333361148 5:1 #
1.581976706869801629906646667223 5:1 #
-0.79098835343490081495332333361148 19:1 #
-0.79098835343490081495332333361148 5:1 #
-0.79098835343490081495332333361148 19:1 #
1.581976706869801629906646667223 19:1 #
-0.79098835343490081495332333361148 5:1 #
1.581976706869801629906646667223 5:1 #
-0.79098835343490081495332333361148 19:1 #
-0.79098835343490081495332333361148 7:1 #
-0.79098835343490081495332333361148 3:1 #
-0.79098835343490081495332333361148 15:1 #
-0.79098835343490081495332333361148 20:1 #
1.581976706869801629906646667223 16:1 #
1.581976706869801629906646667223 5:1 #
1.581976706869801629906646667223 20:1 #
1.581976706869801629906646667223 3:1 #
-0.79098835343490081495332333361148 5:1 #
1.581976706869801629906646667223 15:1 #
-0.79098835343490081495332333361148 16:1 #
-0.79098835343490081495332333361148 5:1 #
1.581976706869801629906646667223 13:1 #
-0.79098835343490081495332333361148 16:1 #
1.581976706869801629906646667223 7:1 #
-0.79098835343490081495332333361148 13:1 #
-0.79098835343490081495332333361148 7:1 #
-0.79098835343490081495332333361148 16:1 #
1.581976706869801629906646667223 16:1 #
-0.79098835343490081495332333361148 7:1 #
1.581976706869801629906646667223 7:1 #
-0.79098835343490081495332333361148 16:1 #
-0.79098835343490081495332333361148 7:1 #
-0.79098835343490081495332333361148 16:1 #
1.581976706869801629906646667223 16:1 #
-0.79098835343490081495332333361148 7:1 #
1.581976706869801629906646667223 7:1 #
-0.79098835343490081495332333361148 16:1 #
-0.79098835343490081495332333361148 7:1 #
-0.79098835343490081495332333361148 16:1 #
1.581976706869801629906646667223 16:1 #
-0.79098835343490081495332333361148 7:1 #
1.581976706869801629906646667223 7:1 #
-0.79098835343490081495332333361148 16:1 #
-0.79098835343490081495332333361148 7:1 #
-0.79098835343490081495332333361148 16:1 #
1.581976706869801629906646667223 16:1 #
-0.79098835343490081495332333361148 7:1 #
1.581976706869801629906646667223 7:1 #
-0.79098835343490081495332333361148 16:1 #
-0.79098835343490081495332333361148 7:1 #
-0.79098835343490081495332333361148 16:1 #
1.581976706869801629906646667223 16:1 #
-0.79098835343490081495332333361148 7:1 #
1.581976706869801629906646667223 7:1 #
-0.79098835343490081495332333361148 16:1 #
-0.79098835343490081495332333361148 7:1 #
-0.79098835343490081495332333361148 16:1 #
1.581976706869801629906646667223 16:1 #
-0.79098835343490081495332333361148 7:1 #
1.581976706869801629906646667223 7:1 #
-0.79098835343490081495332333361148 16:1 #
-0.79098835343490081495332333361148 7:1 #
-0.79098835343490081495332333361148 16:1 #
1.581976706869801629906646667223 16:1 #
-0.79098835343490081495332333361148 7:1 #
1.581976706869801629906646667223 7:1 #
-0.79098835343490081495332333361148 16:1 #
-0.79098835343490081495332333361148 7:1 #
-0.79098835343490081495332333361148 16:1 #
1.581976706869801629906646667223 16:1 #
-0.79098835343490081495332333361148 7:1 #
1.581976706869801629906646667223 7:1 #
-0.79098835343490081495332333361148 16:1 #
-0.79098835343490081495332333361148 7:1 #
-0.79098835343490081495332333361148 16:1 #
1.581976706869801629906646667223 16:1 #
-0.79098835343490081495332333361148 7:1 #
1.581976706869801629906646667223 7:1 #
-0.79098835343490081495332333361148 16:1 #
-0.79098835343490081495332333361148 7:1 #
-0.79098835343490081495332333361148 16:1 #
1.581976706869801629906646667223 16:1 #
-0.79098835343490081495332333361148 7:1 #
1.581976706869801629906646667223 7:1 #
-0.79098835343490081495332333361148 16:1 #
-0.79098835343490081495332333361148 7:1 #
-0.79098835343490081495332333361148 16:1 #
1.581976706869801629906646667223 16:1 #
-0.79098835343490081495332333361148 7:1 #
1.581976706869801629906646667223 7:1 #
-0.79098835343490081495332333361148 16:1 #
-0.79098835343490081495332333361148 7:1 #
-0.79098835343490081495332333361148 16:1 #
1.581976706869801629906646667223 16:1 #
-0.79098835343490081495332333361148 7:1 #
1.581976706869801629906646667223 7:1 #
-0.79098835343490081495332333361148 16:1 #
-0.79098835343490081495332333361148 7:1 #
-0.79098835343490081495332333361148 16:1 #
1.581976706869801629906646667223 16:1 #
-0.79098835343490081495332333361148 7:1 #
1.581976706869801629906646667223 7:1 #
-0.79098835343490081495332333361148 16:1 #
-0.79098835343490081495332333361148 7:1 #
-0.79098835343490081495332333361148 16:1 #
1.581976706869801629906646667223 16:1 #
-0.79098835343490081495332333361148 7:1 #
1.581976706869801629906646667223 7:1 #
-0.79098835343490081495332333361148 16:1 #
-0.79098835343490081495332333361148 7:1 #
-0.79098835343490081495332333361148 16:1 #
1.581976706869801629906646667223 16:1 #
-0.79098835343490081495332333361148 7:1 #
1.581976706869801629906646667223 7:1 #
-0.79098835343490081495332333361148 16:1 #
-0.79098835343490081495332333361148 7:1 #
-0.79098835343490081495332333361148 16:1 #
1.581976706869801629906646667223 16:1 #
-0.79098835343490081495332333361148 7:1 #
1.581976706869801629906646667223 7:1 #
-0.79098835343490081495332333361148 16:1 #
-0.79098835343490081495332333361148 7:1 #
-0.79098835343490081495332333361148 16:1 #
1.581976706869801629906646667223 16:1 #
-0.79098835343490081495332333361148 7:1 #
1.581976706869801629906646667223 7:1 #
-0.79098835343490081495332333361148 16:1 #
-0.79098835343490081495332333361148 7:1 #
-0.79098835343490081495332333361148 16:1 #
1.581976706869801629906646667223 16:1 #
-0.79098835343490081495332333361148 7:1 #
1.581976706869801629906646667223 7:1 #
-0.79098835343490081495332333361148 16:1 #
-0.79098835343490081495332333361148 7:1 #
-0.79098835343490081495332333361148 16:1 #
1.581976706869801629906646667223 16:1 #
-0.79098835343490081495332333361148 7:1 #
1.581976706869801629906646667223 7:1 #
-0.79098835343490081495332333361148 16:1 #
-0.79098835343490081495332333361148 7:1 #
-0.79098835343490081495332333361148 16:1 #
1.581976706869801629906646667223 16:1 #
-0.79098835343490081495332333361148 7:1 #
1.581976706869801629906646667223 7:1 #
-0.79098835343490081495332333361148 16:1 #
-0.79098835343490081495332333361148 7:1 #
-0.79098835343490081495332333361148 16:1 #
1.581976706869801629906646667223 16:1 #
-0.79098835343490081495332333361148 7:1 #
1.581976706869801629906646667223 7:1 #
-0.79098835343490081495332333361148 16:1 #
-0.79098835343490081495332333361148 7:1 #
-0.79098835343490081495332333361148 16:1 #
1.581976706869801629906646667223 16:1 #
-0.79098835343490081495332333361148 7:1 #
1.581976706869801629906646667223 7:1 #
-0.79098835343490081495332333361148 16:1 #
-0.79098835343490081495332333361148 7:1 #
-0.79098835343490081495332333361148 16:1 #
1.581976706869801629906646667223 16:1 #
-0.79098835343490081495332333361148 7:1 #
1.581976706869801629906646667223 7:1 #
-0.79098835343490081495332333361148 16:1 #
-0.79098835343490081495332333361148 7:1 #
-0.76575284861405390479660582059296 10:1 #
-0.79098835343490081495332333361148 4:1 #
-0.40818063317533748168841611914104 13:1 #
-0.46706450010461242339232512676972 1:1 #
-0.79098835343490081495332333361148 6:1 #
1.581976706869801629906646667223 19:1 #
-0.79098835343490081495332333361148 19:1 #
-0.79098835343490081495332333361148 19:1 #
1.581976706869801629906646667223 6:1 #
-0.79098835343490081495332333361148 16:1 #
1.581976706869801629906646667223 4:1 #
-0.79098835343490081495332333361148 20:1 #
-0.79098835343490081495332333361148 5:1 #
-0.79098835343490081495332333361148 10:1 #
-0.79098835343490081495332333361148 5:1 #
1.581976706869801629906646667223 10:1 #
1.581976706869801629906646667223 5:1 #
-0.79098835343490081495332333361148 10:1 #
-0.79098835343490081495332333361148 5:1 #
-0.79098835343490081495332333361148 10:1 #
-0.79098835343490081495332333361148 5:1 #
1.581976706869801629906646667223 10:1 #
1.581976706869801629906646667223 5:1 #
-0.36150741447489226354505831295683 10:1 #
-0.79098835343490081495332333361148 5:1 #
-0.79098835343490081495332333361148 10:1 #
-0.79098835343490081495332333361148 5:1 #
1.581976706869801629906646667223 10:1 #
1.581976706869801629906646667223 5:1 #
-0.79098835343490081495332333361148 10:1 #
-0.79098835343490081495332333361148 5:1 #
-0.79098835343490081495332333361148 10:1 #
-0.79098835343490081495332333361148 5:1 #
1.581976706869801629906646667223 10:1 #
1.581976706869801629906646667223 5:1 #
-0.79098835343490081495332333361148 10:1 #
-0.79098835343490081495332333361148 5:1 #
-0.79098835343490081495332333361148 10:1 #
-0.79098835343490081495332333361148 5:1 #
1.581976706869801629906646667223 10:1 #
1.581976706869801629906646667223 5:1 #
-0.79098835343490081495332333361148 10:1 #
-0.79098835343490081495332333361148 5:1 #
-0.79098835343490081495332333361148 10:1 #
-0.79098835343490081495332333361148 5:1 #
1.581976706869801629906646667223 10:1 #
1.581976706869801629906646667223 5:1 #
-0.79098835343490081495332333361148 10:1 #
-0.79098835343490081495332333361148 5:1 #
-0.79098835343490081495332333361148 10:1 #
-0.79098835343490081495332333361148 5:1 #
1.581976706869801629906646667223 10:1 #
1.581976706869801629906646667223 5:1 #
-0.79098835343490081495332333361148 10:1 #
-0.79098835343490081495332333361148 5:1 #
-0.79098835343490081495332333361148 10:1 #
-0.79098835343490081495332333361148 5:1 #
1.581976706869801629906646667223 10:1 #
1.581976706869801629906646667223 5:1 #
-0.79098835343490081495332333361148 10:1 #
-0.79098835343490081495332333361148 5:1 #
-0.79098835343490081495332333361148 10:1 #
-0.79098835343490081495332333361148 5:1 #
1.581976706869801629906646667223 10:1 #
1.581976706869801629906646667223 5:1 #
-0.79098835343490081495332333361148 10:1 #
-0.79098835343490081495332333361148 5:1 #
-0.79098835343490081495332333361148 10:1 #
-0.79098835343490081495332333361148 5:1 #
1.581976706869801629906646667223 10:1 #
1.581976706869801629906646667223 5:1 #
-0.79098835343490081495332333361148 10:1 #
-0.79098835343490081495332333361148 5:1 #
-0.79098835343490081495332333361148 10:1 #
-0.79098835343490081495332333361148 5:1 #
1.581976706869801629906646667223 10:1 #
1.581976706869801629906646667223 5:1 #
-0.79098835343490081495332333361148 10:1 #
-0.79098835343490081495332333361148 5:1 #
-0.79098835343490081495332333361148 10:1 #
-0.79098835343490081495332333361148 5:1 #
1.581976706869801629906646667223 10:1 #
1.581976706869801629906646667223 5:1 #
-0.79098835343490081495332333361148 10:1 #
-0.79098835343490081495332333361148 5:1 #
-0.79098835343490081495332333361148 10:1 #
-0.79098835343490081495332333361148 5:1 #
1.581976706869801629906646667223 10:1 #
1.581976706869801629906646667223 5:1 #
-0.79098835343490081495332333361148 10:1 #
-0.79098835343490081495332333361148 5:1 #
-0.79098835343490081495332333361148 10:1 #
-0.79098835343490081495332333361148 5:1 #
1.581976706869801629906646667223 10:1 #
1.581976706869801629906646667223 5:1 #
-0.79098835343490081495332333361148 10:1 #
-0.79098835343490081495332333361148 5:1 #
-0.79098835343490081495332333361148 10:1 #
-0.79098835343490081495332333361148 5:1 #
1.581976706869801629906646667223 10:1 #
1.581976706869801629906646667223 5:1 #
-0.79098835343490081495332333361148 10:1 #
-0.79098835343490081495332333361148 5:1 #
-0.79098835343490081495332333361148 10:1 #
-0.79098835343490081495332333361148 5:1 #
1.581976706869801629906646667223 10:1 #
1.581976706869801629906646667223 5:1 #
-0.79098835343490081495332333361148 10:1 #
-0.79098835343490081495332333361148 5:1 #
-0.78443976389942904337004847548087 10:1 #
-0.79098835343490081495332333361148 5:1 #
1.581976706869801629906646667223 10:1 #
1.581976706869801629906646667223 5:1 #
-0.79098835343490081495332333361148 10:1 #
-0.79098835343490081495332333361148 5:1 #
-0.79098835343490081495332333361148 10:1 #
-0.79098835343490081495332333361148 5:1 #
1.581976706869801629906646667223 10:1 #
1.581976706869801629906646667223 5:1 #
-0.79098835343490081495332333361148 10:1 #
-0.79098835343490081495332333361148 5:1 #
-0.79098835343490081495332333361148 10:1 #
-0.79098835343490081495332333361148 5:1 #
1.581976706869801629906646667223 10:1 #
1.581976706869801629906646667223 5:1 #
-0.79098835343490081495332333361148 10:1 #
-0.79098835343490081495332333361148 5:1 #
-0.79098835343490081495332333361148 15:1 #
-0.79098835343490081495332333361148 13:1 #
-0.79098835343490081495332333361148 1:1 #
-0.79098835343490081495332333361148 11:1 #
1.581976706869801629906646667223 5:1 #
1.581976706869801629906646667223 16:1 #
1.581976706869801629906646667223 8:1 #
-0.79098835343490081495332333361148 5:1 #
-0.79098835343490081495332333361148 8:1 #
-0.59325499617823274078887152427342 8:1 #
1.581976706869801629906646667223 1:1 #
1.581976706869801629906646667223 11:1 #
-0.79098835343490081495332333361148 16:1 #
1.581976706869801629906646667223 13:1 #
-0.79098835343490081495332333361148 10:1 #
-0.79098835343490081495332333361148 13:1 #
1.581976706869801629906646667223 10:1 #
1.581976706869801629906646667223 16:1 #
-0.79098835343490081495332333361148 7:1 #
1.581976706869801629906646667223 7:1 #
-0.79098835343490081495332333361148 16:1 #
-0.79098835343490081495332333361148 7:1 #
-0.79098835343490081495332333361148 16:1 #
1.581976706869801629906646667223 16:1 #
-0.79098835343490081495332333361148 7:1 #
1.581976706869801629906646667223 7:1 #
-0.79098835343490081495332333361148 16:1 #
-0.79098835343490081495332333361148 7:1 #
-0.79098835343490081495332333361148 16:1 #
1.581976706869801629906646667223 16:1 #
-0.79098835343490081495332333361148 7:1 #
1.581976706869801629906646667223 7:1 #
-0.79098835343490081495332333361148 16:1 #
-0.79098835343490081495332333361148 7:1 #
-0.79098835343490081495332333361148 16:1 #
1.581976706869801629906646667223 16:1 #
-0.79098835343490081495332333361148 7:1 #
1.581976706869801629906646667223 7:1 #
-0.79098835343490081495332333361148 16:1 #
-0.79098835343490081495332333361148 7:1 #
-0.79098835343490081495332333361148 16:1 #
1.581976706869801629906646667223 16:1 #
-0.79098835343490081495332333361148 7:1 #
1.581976706869801629906646667223 7:1 #
-0.79098835343490081495332333361148 16:1 #
-0.79098835343490081495332333361148 7:1 #
-0.79098835343490081495332333361148 16:1 #
1.581976706869801629906646667223 16:1 #
-0.79098835343490081495332333361148 7:1 #
1.581976706869801629906646667223 7:1 #
-0.79098835343490081495332333361148 16:1 #
-0.79098835343490081495332333361148 7:1 #
-0.79098835343490081495332333361148 16:1 #
1.581976706869801629906646667223 16:1 #
-0.79098835343490081495332333361148 7:1 #
1.581976706869801629906646667223 7:1 #
-0.79098835343490081495332333361148 16:1 #
-0.79098835343490081495332333361148 7:1 #
-0.79098835343490081495332333361148 16:1 #
1.581976706869801629906646667223 16:1 #
-0.79098835343490081495332333361148 7:1 #
1.581976706869801629906646667223 7:1 #
-0.79098835343490081495332333361148 16:1 #
-0.79098835343490081495332333361148 7:1 #
-0.79098835343490081495332333361148 16:1 #
1.581976706869801629906646667223 16:1 #
-0.79098835343490081495332333361148 7:1 #
1.581976706869801629906646667223 7:1 #
-0.79098835343490081495332333361148 16:1 #
-0.79098835343490081495332333361148 7:1 #
-0.79098835343490081495332333361148 16:1 #
1.581976706869801629906646667223 16:1 #
-0.79098835343490081495332333361148 7:1 #
1.581976706869801629906646667223 7:1 #
-0.79098835343490081495332333361148 16:1 #
-0.79098835343490081495332333361148 7:1 #
-0.79098835343490081495332333361148 16:1 #
1.581976706869801629906646667223 16:1 #
-0.79098835343490081495332333361148 7:1 #
1.581976706869801629906646667223 7:1 #
-0.79098835343490081495332333361148 16:1 #
-0.79098835343490081495332333361148 7:1 #
-0.79098835343490081495332333361148 16:1 #
1.581976706869801629906646667223 16:1 #
-0.79098835343490081495332333361148 7:1 #
1.581976706869801629906646667223 7:1 #
-0.79098835343490081495332333361148 16:1 #
-0.79098835343490081495332333361148 7:1 #
-0.79098835343490081495332333361148 16:1 #
1.581976706869801629906646667223 16:1 #
-0.79098835343490081495332333361148 7:1 #
1.581976706869801629906646667223 7:1 #
-0.79098835343490081495332333361148 16:1 #
-0.79098835343490081495332333361148 7:1 #
-0.79098835343490081495332333361148 16:1 #
1.581976706869801629906646667223 16:1 #
-0.79098835343490081495332333361148 7:1 #
1.581976706869801629906646667223 7:1 #
-0.79098835343490081495332333361148 16:1 #
-0.79098835343490081495332333361148 7:1 #
-0.79098835343490081495332333361148 16:1 #
1.581976706869801629906646667223 16:1 #
-0.79098835343490081495332333361148 7:1 #
1.581976706869801629906646667223 7:1 #
-0.79098835343490081495332333361148 16:1 #
-0.79098835343490081495332333361148 7:1 #
-0.79098835343490081495332333361148 16:1 #
1.581976706869801629906646667223 16:1 #
-0.79098835343490081495332333361148 7:1 #
1.581976706869801629906646667223 7:1 #
-0.79098835343490081495332333361148 16:1 #
-0.79098835343490081495332333361148 7:1 #
-0.79098835343490081495332333361148 16:1 #
1.581976706869801629906646667223 16:1 #
-0.79098835343490081495332333361148 7:1 #
1.581976706869801629906646667223 7:1 #
-0.79098835343490081495332333361148 16:1 #
-0.79098835343490081495332333361148 7:1 #
-0.79098835343490081495332333361148 16:1 #
1.581976706869801629906646667223 16:1 #
-0.79098835343490081495332333361148 7:1 #
1.581976706869801629906646667223 7:1 #
-0.79098835343490081495332333361148 16:1 #
-0.79098835343490081495332333361148 7:1 #
-0.79098835343490081495332333361148 16:1 #
1.581976706869801629906646667223 16:1 #
-0.79098835343490081495332333361148 7:1 #
1.581976706869801629906646667223 7:1 #
-0.79098835343490081495332333361148 16:1 #
-0.79098835343490081495332333361148 7:1 #
-0.79098835343490081495332333361148 16:1 #
1.581976706869801629906646667223 16:1 #
-0.79098835343490081495332333361148 7:1 #
1.581976706869801629906646667223 7:1 #
-0.79098835343490081495332333361148 16:1 #
-0.79098835343490081495332333361148 7:1 #
-0.79098835343490081495332333361148 16:1 #
1.581976706869801629906646667223 16:1 #
-0.79098835343490081495332333361148 7:1 #
1.581976706869801629906646667223 7:1 #
-0.79098835343490081495332333361148 16:1 #
-0.79098835343490081495332333361148 7:1 #
-0.79098835343490081495332333361148 16:1 #
1.581976706869801629906646667223 16:1 #
-0.79098835343490081495332333361148 7:1 #
1.581976706869801629906646667223 7:1 #
-0.79098835343490081495332333361148 16:1 #
-0.79098835343490081495332333361148 7:1 #
-0.79098835343490081495332333361148 16:1 #
1.581976706869801629906646667223 16:1 #
-0.79098835343490081495332333361148 7:1 #
1.581976706869801629906646667223 7:1 #
-0.79098835343490081495332333361148 16:1 #
-0.79098835343490081495332333361148 7:1 #
-0.79098835343490081495332333361148 16:1 #
-0.79098835343490081495332333361148 6:1 #
-0.16207148653335134991237964641186 1:1 #
-0.79098835343490081495332333361148 11:1 #
-0.35656870409613627970202287542634 14:1 #
-0.37653871774377500880603975019767 15:1 #
-0.79098835343490081495332333361148 8:1 #
1.581976706869801629906646667223 15:1 #
-0.79098835343490081495332333361148 11:1 #
1.581976706869801629906646667223 11:1 #
-0.79098835343490081495332333361148 15:1 #
-0.79098835343490081495332333361148 11:1 #
-0.79098835343490081495332333361148 16:1 #
1.581976706869801629906646667223 16:1 #
-0.79098835343490081495332333361148 11:1 #
1.581976706869801629906646667223 11:1 #
-0.79098835343490081495332333361148 16:1 #
-0.79098835343490081495332333361148 11:1 #
-0.79098835343490081495332333361148 16:1 #
1.581976706869801629906646667223 16:1 #
-0.79098835343490081495332333361148 11:1 #
1.581976706869801629906646667223 11:1 #
-0.79098835343490081495332333361148 16:1 #
-0.79098835343490081495332333361148 11:1 #
-0.79098835343490081495332333361148 16:1 #
1.581976706869801629906646667223 16:1 #
-0.79098835343490081495332333361148 11:1 #
1.581976706869801629906646667223 11:1 #
-0.79098835343490081495332333361148 16:1 #
-0.79098835343490081495332333361148 11:1 #
-0.79098835343490081495332333361148 16:1 #
1.581976706869801629906646667223 16:1 #
-0.79098835343490081495332333361148 11:1 #
1.581976706869801629906646667223 11:1 #
-0.79098835343490081495332333361148 16:1 #
-0.79098835343490081495332333361148 11:1 #
-0.79098835343490081495332333361148 16:1 #
1.581976706869801629906646667223 16:1 #
-0.79098835343490081495332333361148 11:1 #
1.581976706869801629906646667223 11:1 #
-0.79098835343490081495332333361148 16:1 #
-0.79098835343490081495332333361148 11:1 #
-0.79098835343490081495332333361148 16:1 #
1.581976706869801629906646667223 16:1 #
-0.79098835343490081495332333361148 11:1 #
1.581976706869801629906646667223 11:1 #
-0.79098835343490081495332333361148 16:1 #
-0.79098835343490081495332333361148 11:1 #
-0.79098835343490081495332333361148 16:1 #
1.581976706869801629906646667223 16:1 #
-0.79098835343490081495332333361148 11:1 #
1.581976706869801629906646667223 11:1 #
-0.79098835343490081495332333361148 16:1 #
-0.79098835343490081495332333361148 11:1 #
-0.79098835343490081495332333361148 16:1 #
1.581976706869801629906646667223 16:1 #
-0.79098835343490081495332333361148 11:1 #
1.581976706869801629906646667223 11:1 #
-0.79098835343490081495332333361148 16:1 #
-0.79098835343490081495332333361148 11:1 #
-0.79098835343490081495332333361148 16:1 #
1.581976706869801629906646667223 16:1 #
-0.79098835343490081495332333361148 11:1 #
1.581976706869801629906646667223 11:1 #
-0.79098835343490081495332333361148 16:1 #
-0.79098835343490081495332333361148 11:1 #
-0.79098835343490081495332333361148 16:1 #
1.581976706869801629906646667223 16:1 #
-0.79098835343490081495332333361148 11:1 #
1.581976706869801629906646667223 11:1 #
-0.79098835343490081495332333361148 16:1 #
-0.79098835343490081495332333361148 11:1 #
-0.79098835343490081495332333361148 16:1 #
1.581976706869801629906646667223 16:1 #
-0.79098835343490081495332333361148 11:1 #
1.581976706869801629906646667223 11:1 #
-0.79098835343490081495332333361148 16:1 #
-0.79098835343490081495332333361148 11:1 #
-0.79098835343490081495332333361148 16:1 #
1.581976706869801629906646667223 16:1 #
-0.79098835343490081495332333361148 11:1 #
1.581976706869801629906646667223 11:1 #
-0.79098835343490081495332333361148 16:1 #
-0.79098835343490081495332333361148 11:1 #
-0.79098835343490081495332333361148 16:1 #
1.581976706869801629906646667223 16:1 #
-0.79098835343490081495332333361148 11:1 #
1.581976706869801629906646667223 11:1 #
-0.79098835343490081495332333361148 16:1 #
-0.79098835343490081495332333361148 11:1 #
-0.79098835343490081495332333361148 16:1 #
1.581976706869801629906646667223 16:1 #
-0.79098835343490081495332333361148 11:1 #
1.581976706869801629906646667223 11:1 #
-0.79098835343490081495332333361148 16:1 #
-0.79098835343490081495332333361148 11:1 #
-0.79098835343490081495332333361148 16:1 #
1.581976706869801629906646667223 16:1 #
-0.79098835343490081495332333361148 11:1 #
1.581976706869801629906646667223 11:1 #
-0.79098835343490081495332333361148 16:1 #
-0.79098835343490081495332333361148 11:1 #
-0.79098835343490081495332333361148 16:1 #
1.581976706869801629906646667223 16:1 #
-0.79098835343490081495332333361148 11:1 #
1.581976706869801629906646667223 11:1 #
-0.79098835343490081495332333361148 16:1 #
-0.79098835343490081495332333361148 11:1 #
-0.79098835343490081495332333361148 16:1 #
1.581976706869801629906646667223 16:1 #
-0.79098835343490081495332333361148 11:1 #
1.581976706869801629906646667223 11:1 #
-0.79098835343490081495332333361148 16:1 #
-0.79098835343490081495332333361148 11:1 #
-0.79098835343490081495332333361148 16:1 #
1.581976706869801629906646667223 16:1 #
-0.79098835343490081495332333361148 11:1 #
1.581976706869801629906646667223 11:1 #
-0.79098835343490081495332333361148 16:1 #
-0.79098835343490081495332333361148 11:1 #
-0.79098835343490081495332333361148 16:1 #
1.581976706869801629906646667223 16:1 #
-0.79098835343490081495332333361148 11:1 #
1.581976706869801629906646667223 11:1 #
-0.79098835343490081495332333361148 16:1 #
-0.79098835343490081495332333361148 11:1 #
-0.79098835343490081495332333361148 16:1 #
1.581976706869801629906646667223 16:1 #
-0.79098835343490081495332333361148 11:1 #
1.581976706869801629906646667223 11:1 #
-0.79098835343490081495332333361148 16:1 #
-0.79098835343490081495332333361148 11:1 #
-0.79098835343490081495332333361148 16:1 #
1.581976706869801629906646667223 16:1 #
-0.79098835343490081495332333361148 11:1 #
1.581976706869801629906646667223 11:1 #
-0.79098835343490081495332333361148 16:1 #
-0.79098835343490081495332333361148 11:1 #
-0.79098835343490081495332333361148 16:1 #
1.581976706869801629906646667223 16:1 #
-0.79098835343490081495332333361148 11:1 #
1.581976706869801629906646667223 11:1 #
-0.79098835343490081495332333361148 16:1 #
-0.79098835343490081495332333361148 11:1 #
-0.79098835343490081495332333361148 16:1 #
1.581976706869801629906646667223 16:1 #
-0.79098835343490081495332333361148 11:1 #
1.581976706869801629906646667223 11:1 #
-0.79098835343490081495332333361148 16:1 #
-0.79098835343490081495332333361148 11:1 #
-0.79098835343490081495332333361148 16:1 #
1.581976706869801629906646667223 16:1 #
-0.79098835343490081495332333361148 11:1 #
1.581976706869801629906646667223 11:1 #
-0.79098835343490081495332333361148 16:1 #
-0.79098835343490081495332333361148 11:1 #
-0.79098835343490081495332333361148 9:1 #
-0.79098835343490081495332333361148 4:1 #
-0.79098835343490081495332333361148 15:1 #
-0.79098835343490081495332333361148 14:1 #
0.5103974638482673409356493721134 6:1 #
1.581976706869801629906646667223 11:1 #
1.581976706869801629906646667223 19:1 #
1.581976706869801629906646667223 1:1 #
1.581976706869801629906646667223 13:1 #
-0.79098835343490081495332333361148 11:1 #
-0.79098835343490081495332333361148 1:1 #
-0.79098835343490081495332333361148 6:1 #
-0.79098835343490081495332333361148 19:1 #
1.581976706869801629906646667223 14:1 #
1.581976706869801629906646667223 15:1 #
-0.25335192472749129555253944090509 14:1 #
-0.79098835343490081495332333361148 15:1 #
-0.79098835343490081495332333361148 14:1 #
-0.79098835343490081495332333361148 7:1 #
1.581976706869801629906646667223 14:1 #
-0.79098835343490081495332333361148 5:1 #
-0.79098835343490081495332333361148 14:1 #
-0.79098835343490081495332333361148 5:1 #
1.581976706869801629906646667223 5:1 #
-0.79098835343490081495332333361148 14:1 #
1.581976706869801629906646667223 14:1 #
-0.79098835343490081495332333361148 5:1 #
-0.79098835343490081495332333361148 14:1 #
-0.79098835343490081495332333361148 5:1 #
1.581976706869801629906646667223 5:1 #
-0.79098835343490081495332333361148 14:1 #
1.581976706869801629906646667223 14:1 #
-0.79098835343490081495332333361148 5:1 #
-0.79098835343490081495332333361148 14:1 #
-0.79098835343490081495332333361148 5:1 #
1.581976706869801629906646667223 5:1 #
-0.79098835343490081495332333361148 14:1 #
1.581976706869801629906646667223 14:1 #
-0.79098835343490081495332333361148 5:1 #
-0.79098835343490081495332333361148 14:1 #
-0.79098835343490081495332333361148 5:1 #
1.581976706869801629906646667223 5:1 #
-0.79098835343490081495332333361148 14:1 #
1.581976706869801629906646667223 14:1 #
-0.79098835343490081495332333361148 5:1 #
-0.79098835343490081495332333361148 14:1 #
-0.79098835343490081495332333361148 5:1 #
1.581976706869801629906646667223 5:1 #
-0.79098835343490081495332333361148 14:1 #
1.581976706869801629906646667223 14:1 #
-0.79098835343490081495332333361148 5:1 #
-0.79098835343490081495332333361148 14:1 #
-0.79098835343490081495332333361148 5:1 #
1.581976706869801629906646667223 5:1 #
-0.79098835343490081495332333361148 14:1 #
1.581976706869801629906646667223 14:1 #
-0.79098835343490081495332333361148 5:1 #
-0.79098835343490081495332333361148 14:1 #
-0.79098835343490081495332333361148 5:1 #
1.581976706869801629906646667223 5:1 #
-0.79098835343490081495332333361148 14:1 #
1.581976706869801629906646667223 14:1 #
-0.79098835343490081495332333361148 5:1 #
-0.79098835343490081495332333361148 14:1 #
-0.79098835343490081495332333361148 5:1 #
1.581976706869801629906646667223 5:1 #
-0.79098835343490081495332333361148 14:1 #
1.581976706869801629906646667223 14:1 #
-0.79098835343490081495332333361148 5:1 #
-0.79098835343490081495332333361148 14:1 #
-0.79098835343490081495332333361148 5:1 #
1.581976706869801629906646667223 5:1 #
-0.79098835343490081495332333361148 14:1 #
1.581976706869801629906646667223 14:1 #
-0.79098835343490081495332333361148 5:1 #
-0.79098835343490081495332333361148 14:1 #
-0.79098835343490081495332333361148 5:1 #
1.581976706869801629906646667223 5:1 #
-0.79098835343490081495332333361148 14:1 #
1.581976706869801629906646667223 14:1 #
-0.79098835343490081495332333361148 5:1 #
-0.79098835343490081495332333361148 14:1 #
-0.79098835343490081495332333361148 5:1 #
1.581976706869801629906646667223 5:1 #
-0.79098835343490081495332333361148 14:1 #
1.581976706869801629906646667223 14:1 #
-0.79098835343490081495332333361148 5:1 #
-0.79098835343490081495332333361148 14:1 #
-0.79098835343490081495332333361148 5:1 #
1.581976706869801629906646667223 5:1 #
-0.79098835343490081495332333361148 14:1 #
1.581976706869801629906646667223 14:1 #
-0.79098835343490081495332333361148 5:1 #
-0.79098835343490081495332333361148 14:1 #
-0.79098835343490081495332333361148 5:1 #
1.581976706869801629906646667223 5:1 #
-0.79098835343490081495332333361148 14:1 #
1.581976706869801629906646667223 14:1 #
-0.79098835343490081495332333361148 5:1 #
-0.79098835343490081495332333361148 14:1 #
-0.79098835343490081495332333361148 5:1 #
1.581976706869801629906646667223 5:1 #
-0.79098835343490081495332333361148 14:1 #
1.581976706869801629906646667223 14:1 #
-0.79098835343490081495332333361148 5:1 #
-0.79098835343490081495332333361148 14:1 #
-0.79098835343490081495332333361148 5:1 #
1.581976706869801629906646667223 5:1 #
-0.79098835343490081495332333361148 14:1 #
1.581976706869801629906646667223 14:1 #
-0.79098835343490081495332333361148 5:1 #
-0.79098835343490081495332333361148 14:1 #
-0.79098835343490081495332333361148 5:1 #
1.581976706869801629906646667223 5:1 #
-0.79098835343490081495332333361148 14:1 #
1.581976706869801629906646667223 14:1 #
-0.79098835343490081495332333361148 5:1 #
-0.79098835343490081495332333361148 14:1 #
-0.79098835343490081495332333361148 5:1 #
1.581976706869801629906646667223 5:1 #
-0.79098835343490081495332333361148 14:1 #
1.581976706869801629906646667223 14:1 #
-0.79098835343490081495332333361148 5:1 #
-0.79098835343490081495332333361148 14:1 #
-0.79098835343490081495332333361148 5:1 #
1.581976706869801629906646667223 5:1 #
-0.79098835343490081495332333361148 14:1 #
1.581976706869801629906646667223 14:1 #
-0.79098835343490081495332333361148 5:1 #
-0.79098835343490081495332333361148 14:1 #
-0.79098835343490081495332333361148 5:1 #
1.581976706869801629906646667223 5:1 #
-0.79098835343490081495332333361148 14:1 #
1.581976706869801629906646667223 14:1 #
-0.79098835343490081495332333361148 5:1 #
-0.79098835343490081495332333361148 14:1 #
-0.79098835343490081495332333361148 5:1 #
1.581976706869801629906646667223 5:1 #
-0.79098835343490081495332333361148 14:1 #
1.581976706869801629906646667223 14:1 #
-0.79098835343490081495332333361148 5:1 #
-0.79098835343490081495332333361148 14:1 #
-0.79098835343490081495332333361148 5:1 #
1.581976706869801629906646667223 5:1 #
-0.79098835343490081495332333361148 14:1 #
1.581976706869801629906646667223 14:1 #
-0.79098835343490081495332333361148 5:1 #
-0.79098835343490081495332333361148 14:1 #
-0.79098835343490081495332333361148 5:1 #
1.581976706869801629906646667223 5:1 #
-0.79098835343490081495332333361148 14:1 #
1.581976706869801629906646667223 14:1 #
-0.79098835343490081495332333361148 5:1 #
-0.79098835343490081495332333361148 14:1 #
-0.79098835343490081495332333361148 7:1 #
-0.79098835343490081495332333361148 4:1 #
-0.79098835343490081495332333361148 5:1 #
-0.79098835343490081495332333361148 1:1 #
1.581976706869801629906646667223 11:1 #
1.581976706869801629906646667223 9:1 #
1.4051338633172278935745680428226 20:1 #
-0.79098835343490081495332333361148 20:1 #
1.581976706869801629906646667223 4:1 #
-0.79098835343490081495332333361148 11:1 #
1.581976706869801629906646667223 7:1 #
-0.79098835343490081495332333361148 9:1 #
1.581976706869801629906646667223 5:1 #
-0.79098835343490081495332333361148 7:1 #
1.581976706869801629906646667223 7:1 #
-0.79098835343490081495332333361148 4:1 #
-0.79098835343490081495332333361148 7:1 #
-0.79098835343490081495332333361148 20:1 #
-0.79098835343490081495332333361148 7:1 #
1.581976706869801629906646667223 7:1 #
-0.79098835343490081495332333361148 14:1 #
-0.79098835343490081495332333361148 7:1 #
-0.79098835343490081495332333361148 9:1 #
1.581976706869801629906646667223 9:1 #
-0.79098835343490081495332333361148 20:1 #
1.581976706869801629906646667223 20:1 #
-0.79098835343490081495332333361148 9:1 #
-0.79098835343490081495332333361148 20:1 #
-0.79098835343490081495332333361148 9:1 #
1.581976706869801629906646667223 9:1 #
-0.79098835343490081495332333361148 20:1 #
1.581976706869801629906646667223 20:1 #
-0.79098835343490081495332333361148 9:1 #
-0.79098835343490081495332333361148 20:1 #
-0.79098835343490081495332333361148 9:1 #
1.581976706869801629906646667223 9:1 #
-0.79098835343490081495332333361148 20:1 #
1.581976706869801629906646667223 20:1 #
-0.79098835343490081495332333361148 9:1 #
-0.79098835343490081495332333361148 20:1 #
-0.79098835343490081495332333361148 9:1 #
1.581976706869801629906646667223 9:1 #
-0.79098835343490081495332333361148 20:1 #
1.581976706869801629906646667223 20:1 #
-0.79098835343490081495332333361148 9:1 #
-0.79098835343490081495332333361148 20:1 #
-0.79098835343490081495332333361148 9:1 #
1.581976706869801629906646667223 9:1 #
-0.79098835343490081495332333361148 20:1 #
1.581976706869801629906646667223 20:1 #
-0.79098835343490081495332333361148 9:1 #
-0.79098835343490081495332333361148 20:1 #
-0.79098835343490081495332333361148 9:1 #
1.581976706869801629906646667223 9:1 #
-0.79098835343490081495332333361148 20:1 #
1.581976706869801629906646667223 20:1 #
-0.79098835343490081495332333361148 9:1 #
-0.79098835343490081495332333361148 20:1 #
-0.79098835343490081495332333361148 9:1 #
1.581976706869801629906646667223 9:1 #
-0.79098835343490081495332333361148 20:1 #
1.581976706869801629906646667223 20:1 #
-0.79098835343490081495332333361148 9:1 #
-0.79098835343490081495332333361148 20:1 #
-0.79098835343490081495332333361148 9:1 #
1.581976706869801629906646667223 9:1 #
-0.79098835343490081495332333361148 20:1 #
1.581976706869801629906646667223 20:1 #
-0.79098835343490081495332333361148 9:1 #
-0.79098835343490081495332333361148 20:1 #
-0.79098835343490081495332333361148 9:1 #
1.581976706869801629906646667223 9:1 #
-0.79098835343490081495332333361148 20:1 #
1.581976706869801629906646667223 20:1 #
-0.79098835343490081495332333361148 9:1 #
-0.79098835343490081495332333361148 20:1 #
-0.79098835343490081495332333361148 9:1 #
1.581976706869801629906646667223 9:1 #
-0.79098835343490081495332333361148 20:1 #
1.581976706869801629906646667223 20:1 #
-0.79098835343490081495332333361148 9:1 #
-0.79098835343490081495332333361148 20:1 #
-0.79098835343490081495332333361148 9:1 #
1.581976706869801629906646667223 9:1 #
-0.79098835343490081495332333361148 20:1 #
1.581976706869801629906646667223 20:1 #
-0.79098835343490081495332333361148 9:1 #
-0.79098835343490081495332333361148 20:1 #
-0.79098835343490081495332333361148 9:1 #
1.581976706869801629906646667223 9:1 #
-0.79098835343490081495332333361148 20:1 #
1.581976706869801629906646667223 20:1 #
-0.79098835343490081495332333361148 9:1 #
-0.79098835343490081495332333361148 20:1 #
-0.79098835343490081495332333361148 9:1 #
1.581976706869801629906646667223 9:1 #
-0.79098835343490081495332333361148 20:1 #
1.581976706869801629906646667223 20:1 #
-0.79098835343490081495332333361148 9:1 #
-0.79098835343490081495332333361148 20:1 #
-0.79098835343490081495332333361148 9:1 #
1.581976706869801629906646667223 9:1 #
-0.79098835343490081495332333361148 20:1 #
1.581976706869801629906646667223 20:1 #
-0.79098835343490081495332333361148 9:1 #
-0.79098835343490081495332333361148 20:1 #
-0.79098835343490081495332333361148 9:1 #
1.581976706869801629906646667223 9:1 #
-0.79098835343490081495332333361148 20:1 #
1.581976706869801629906646667223 20:1 #
-0.79098835343490081495332333361148 9:1 #
-0.79098835343490081495332333361148 20:1 #
-0.79098835343490081495332333361148 9:1 #
1.581976706869801629906646667223 9:1 #
-0.79098835343490081495332333361148 20:1 #
1.581976706869801629906646667223 20:1 #
-0.79098835343490081495332333361148 9:1 #
-0.79098835343490081495332333361148 20:1 #
-0.79098835343490081495332333361148 9:1 #
1.581976706869801629906646667223 9:1 #
-0.79098835343490081495332333361148 20:1 #
1.581976706869801629906646667223 20:1 #
-0.79098835343490081495332333361148 9:1 #
-0.79098835343490081495332333361148 20:1 #
-0.79098835343490081495332333361148 9:1 #
1.581976706869801629906646667223 9:1 #
-0.79098835343490081495332333361148 20:1 #
1.581976706869801629906646667223 20:1 #
-0.79098835343490081495332333361148 13:1 #
-0.79098835343490081495332333361148 10:1 #
-0.79098835343490081495332333361148 4:1 #
-0.79098835343490081495332333361148 1:1 #
-0.79098835343490081495332333361148 8:1 #
1.581976706869801629906646667223 6:1 #
1.581976706869801629906646667223 16:1 #
1.581976706869801629906646667223 20:1 #
1.581976706869801629906646667223 11:1 #
-0.79098835343490081495332333361148 20:1 #
1.581976706869801629906646667223 1:1 #
-0.79098835343490081495332333361148 16:1 #
-0.79098835343490081495332333361148 11:1 #
1.581976706869801629906646667223 8:1 #
1.581976706869801629906646667223 4:1 #
-0.79098835343490081495332333361148 6:1 #
1.581976706869801629906646667223 13:1 #
-0.79098835343490081495332333361148 9:1 #
-0.79098835343490081495332333361148 5:1 #
-0.79098835343490081495332333361148 9:1 #
1.581976706869801629906646667223 9:1 #
-0.79098835343490081495332333361148 8:1 #
-0.37914308937892127193691749198479 9:1 #
1.581976706869801629906646667223 14:1 #
-0.79098835343490081495332333361148 14:1 #
-0.79098835343490081495332333361148 7:1 #
1.581976706869801629906646667223 7:1 #
-0.79098835343490081495332333361148 14:1 #
-0.79098835343490081495332333361148 7:1 #
1.581976706869801629906646667223 14:1 #
-0.79098835343490081495332333361148 14:1 #
-0.79098835343490081495332333361148 7:1 #
1.581976706869801629906646667223 7:1 #
-0.79098835343490081495332333361148 14:1 #
-0.79098835343490081495332333361148 7:1 #
1.581976706869801629906646667223 14:1 #
-0.79098835343490081495332333361148 14:1 #
-0.79098835343490081495332333361148 7:1 #
1.581976706869801629906646667223 7:1 #
-0.79098835343490081495332333361148 14:1 #
-0.79098835343490081495332333361148 7:1 #
1.581976706869801629906646667223 14:1 #
-0.79098835343490081495332333361148 14:1 #
-0.79098835343490081495332333361148 7:1 #
1.581976706869801629906646667223 7:1 #
-0.79098835343490081495332333361148 14:1 #
-0.79098835343490081495332333361148 7:1 #
1.581976706869801629906646667223 14:1 #
-0.79098835343490081495332333361148 14:1 #
-0.79098835343490081495332333361148 7:1 #
1.581976706869801629906646667223 7:1 #
-0.79098835343490081495332333361148 14:1 #
-0.79098835343490081495332333361148 7:1 #
1.581976706869801629906646667223 14:1 #
-0.79098835343490081495332333361148 14:1 #
-0.79098835343490081495332333361148 7:1 #
1.581976706869801629906646667223 7:1 #
-0.79098835343490081495332333361148 14:1 #
-0.79098835343490081495332333361148 7:1 #
1.581976706869801629906646667223 14:1 #
-0.79098835343490081495332333361148 14:1 #
-0.79098835343490081495332333361148 7:1 #
1.581976706869801629906646667223 7:1 #
-0.79098835343490081495332333361148 14:1 #
-0.79098835343490081495332333361148 7:1 #
1.581976706869801629906646667223 14:1 #
-0.79098835343490081495332333361148 14:1 #
-0.79098835343490081495332333361148 7:1 #
1.581976706869801629906646667223 7:1 #
-0.79098835343490081495332333361148 14:1 #
-0.79098835343490081495332333361148 7:1 #
1.581976706869801629906646667223 14:1 #
-0.79098835343490081495332333361148 14:1 #
-0.79098835343490081495332333361148 7:1 #
1.581976706869801629906646667223 7:1 #
-0.79098835343490081495332333361148 14:1 #
-0.79098835343490081495332333361148 7:1 #
1.581976706869801629906646667223 14:1 #
-0.79098835343490081495332333361148 14:1 #
-0.79098835343490081495332333361148 7:1 #
1.581976706869801629906646667223 7:1 #
-0.79098835343490081495332333361148 14:1 #
-0.79098835343490081495332333361148 7:1 #
1.581976706869801629906646667223 14:1 #
-0.79098835343490081495332333361148 14:1 #
-0.79098835343490081495332333361148 7:1 #
1.581976706869801629906646667223 7:1 #
-0.79098835343490081495332333361148 14:1 #
-0.79098835343490081495332333361148 7:1 #
1.581976706869801629906646667223 14:1 #
-0.79098835343490081495332333361148 14:1 #
-0.79098835343490081495332333361148 7:1 #
1.581976706869801629906646667223 7:1 #
-0.79098835343490081495332333361148 14:1 #
-0.79098835343490081495332333361148 7:1 #
1.581976706869801629906646667223 14:1 #
-0.79098835343490081495332333361148 14:1 #
-0.79098835343490081495332333361148 7:1 #
1.581976706869801629906646667223 7:1 #
-0.79098835343490081495332333361148 14:1 #
-0.79098835343490081495332333361148 7:1 #
1.581976706869801629906646667223 14:1 #
-0.79098835343490081495332333361148 14:1 #
-0.79098835343490081495332333361148 7:1 #
1.581976706869801629906646667223 7:1 #
-0.79098835343490081495332333361148 14:1 #
-0.79098835343490081495332333361148 7:1 #
1.581976706869801629906646667223 14:1 #
-0.79098835343490081495332333361148 14:1 #
-0.79098835343490081495332333361148 7:1 #
1.581976706869801629906646667223 7:1 #
-0.79098835343490081495332333361148 14:1 #
-0.79098835343490081495332333361148 7:1 #
1.581976706869801629906646667223 14:1 #
-0.79098835343490081495332333361148 14:1 #
-0.79098835343490081495332333361148 7:1 #
1.581976706869801629906646667223 7:1 #
-0.79098835343490081495332333361148 14:1 #
-0.79098835343490081495332333361148 7:1 #
1.581976706869801629906646667223 14:1 #
-0.79098835343490081495332333361148 14:1 #
-0.79098835343490081495332333361148 7:1 #
1.581976706869801629906646667223 7:1 #
-0.79098835343490081495332333361148 14:1 #
-0.79098835343490081495332333361148 7:1 #
1.581976706869801629906646667223 14:1 #
-0.79098835343490081495332333361148 14:1 #
-0.79098835343490081495332333361148 7:1 #
1.581976706869801629906646667223 7:1 #
-0.79098835343490081495332333361148 14:1 #
-0.777993336010609159991702199477 1:1 #
-0.71107945493323243546512912871549 12:1 #
-0.53114719013103550704357758149854 5:1 #
-0.79098835343490081495332333361148 16:1 #
-0.79098835343490081495332333361148 6:1 #
1.581976706869801629906646667223 16:1 #
-0.79098835343490081495332333361148 11:1 #
-0.79098835343490081495332333361148 13:1 #
-0.79098835343490081495332333361148 20:1 #
-0.79098835343490081495332333361148 7:1 #
1.581976706869801629906646667223 14:1 #
-0.79098835343490081495332333361148 19:1 #
-0.79098835343490081495332333361148 14:1 #
-0.79098835343490081495332333361148 19:1 #
1.581976706869801629906646667223 19:1 #
-0.79098835343490081495332333361148 14:1 #
1.581976706869801629906646667223 14:1 #
-0.79098835343490081495332333361148 19:1 #
-0.79098835343490081495332333361148 14:1 #
-0.79098835343490081495332333361148 19:1 #
1.581976706869801629906646667223 19:1 #
-0.79098835343490081495332333361148 14:1 #
1.581976706869801629906646667223 14:1 #
-0.79098835343490081495332333361148 19:1 #
-0.79098835343490081495332333361148 14:1 #
-0.79098835343490081495332333361148 19:1 #
1.581976706869801629906646667223 19:1 #
-0.79098835343490081495332333361148 14:1 #
1.581976706869801629906646667223 14:1 #
-0.79098835343490081495332333361148 19:1 #
-0.79098835343490081495332333361148 14:1 #
-0.79098835343490081495332333361148 19:1 #
