SVM-light Version V6.02
2 # kernel type
3 # kernel parameter -d 
10 # kernel parameter -g 
1 # kernel parameter -s 
1 # kernel parameter -r 
empty# kernel parameter -u 
20 # highest feature index 
14658 # number of training documents 
13927 # number of support vectors plus 1 
0.52326529 # threshold b, each following line is a SV (starting with alpha*y)
-0.42233024396634838426578539838374 1:0.047425874 2:0.01798621 3:0.01798621 4:0.006692851 5:0.047425874 6:0.047425874 7:0.01798621 8:0.006692851 9:0.01798621 10:0.26894143 11:0.5 12:0.047425874 13:0.99995458 14:0.11920292 15:0.006692851 16:0.01798621 17:0.047425874 18:0.01798621 19:0.047425874 20:0.7310586 #
-0.45790789571054107964798163266096 1:0.7310586 2:0.26894143 3:0.7310586 4:0.26894143 5:0.11920292 6:0.7310586 7:0.5 8:0.11920292 9:0.5 10:0.11920292 11:0.26894143 12:0.7310586 13:0.5 14:0.11920292 15:0.11920292 16:0.95257413 17:0.88079709 18:0.047425874 19:0.5 20:0.11920292 #
-0.57795128390724692657443029020214 1:0.26894143 2:0.5 3:0.11920292 4:0.047425874 5:0.047425874 6:0.11920292 7:0.26894143 8:0.01798621 9:0.99330717 10:0.5 11:0.11920292 12:0.26894143 13:0.11920292 14:0.88079709 15:0.01798621 16:0.11920292 17:0.5 18:0.98201376 19:0.99752736 20:0.11920292 #
-0.38205656179625668844579422511742 1:0.047425874 2:0.047425874 3:0.01798621 4:0.01798621 5:0.5 6:0.26894143 7:0.11920292 8:0.006692851 9:0.01798621 10:0.7310586 11:0.98201376 12:0.047425874 13:0.99752736 14:0.26894143 15:0.01798621 16:0.11920292 17:0.11920292 18:0.047425874 19:0.26894143 20:0.5 #
-0.4750780118560887221867972129985 1:0.11920292 2:0.5 3:0.95257413 4:0.26894143 5:0.01798621 6:0.7310586 7:0.5 8:0.11920292 9:0.88079709 10:0.26894143 11:0.047425874 12:0.95257413 13:0.7310586 14:0.26894143 15:0.5 16:0.5 17:0.5 18:0.5 19:0.11920292 20:0.11920292 #
1.298777366021553358876872152905 1:0.11920292 2:0.01798621 3:0.99330717 4:0.11920292 5:0.0024726233 6:0.01798621 7:0.01798621 8:0.006692851 9:0.047425874 10:0.006692851 11:0.0024726233 12:0.01798621 13:0.006692851 14:0.00091105117 15:0.99752736 16:0.5 17:0.98201376 18:0.00091105117 19:0.0024726233 20:0.006692851 #
1.4442055994470999191747750955983 1:0.99908894 2:0.006692851 3:0.006692851 4:0.0024726233 5:0.01798621 6:0.006692851 7:0.006692851 8:0.047425874 9:0.0024726233 10:0.01798621 11:0.006692851 12:0.006692851 13:0.5 14:0.0024726233 15:0.006692851 16:0.5 17:0.11920292 18:0.00091105117 19:0.0024726233 20:0.5 #
1.470640376535069071550765329448 1:0.95257413 2:0.006692851 3:0.006692851 4:0.006692851 5:0.01798621 6:0.01798621 7:0.006692851 8:0.95257413 9:0.006692851 10:0.11920292 11:0.95257413 12:0.01798621 13:0.7310586 14:0.95257413 15:0.006692851 16:0.047425874 17:0.047425874 18:0.01798621 19:0.047425874 20:0.11920292 #
1.2939862259512333597655242556357 1:0.01798621 2:0.047425874 3:0.0024726233 4:0.0024726233 5:0.006692851 6:0.01798621 7:0.0024726233 8:0.0024726233 9:0.01798621 10:0.5 11:0.98201376 12:0.006692851 13:0.98201376 14:0.99330717 15:0.0024726233 16:0.01798621 17:0.26894143 18:0.88079709 19:0.5 20:0.11920292 #
1.6296632701435564971603753292584 1:0.11920292 2:0.006692851 3:0.006692851 4:0.0024726233 5:0.01798621 6:0.006692851 7:0.006692851 8:0.0024726233 9:0.006692851 10:0.7310586 11:0.99330717 12:0.006692851 13:0.95257413 14:0.5 15:0.006692851 16:0.26894143 17:0.5 18:0.006692851 19:0.01798621 20:0.88079709 #
-0.54599177067011395170226251138956 1:0.11920292 2:0.11920292 3:0.01798621 4:0.006692851 5:0.047425874 6:0.047425874 7:0.01798621 8:0.01798621 9:0.01798621 10:0.88079709 11:0.98201376 12:0.11920292 13:0.95257413 14:0.5 15:0.11920292 16:0.11920292 17:0.7310586 18:0.01798621 19:0.047425874 20:0.7310586 #
-1.0763290335900246308398209293955 1:0.99752736 2:0.11920292 3:0.11920292 4:0.01798621 5:0.047425874 6:0.11920292 7:0.047425874 8:0.047425874 9:0.01798621 10:0.047425874 11:0.11920292 12:0.11920292 13:0.5 14:0.01798621 15:0.11920292 16:0.26894143 17:0.11920292 18:0.01798621 19:0.01798621 20:0.26894143 #
-0.45838331015440453297671297150373 1:0.11920292 2:0.01798621 3:0.047425874 4:0.047425874 5:0.047425874 6:0.047425874 7:0.01798621 8:0.006692851 9:0.01798621 10:0.98201376 11:0.95257413 12:0.01798621 13:0.95257413 14:0.7310586 15:0.01798621 16:0.11920292 17:0.5 18:0.26894143 19:0.11920292 20:0.88079709 #
1.2980761570999257425995665471419 1:0.26894143 2:0.7310586 3:0.11920292 4:0.047425874 5:0.047425874 6:0.11920292 7:0.11920292 8:0.047425874 9:0.98201376 10:0.26894143 11:0.11920292 12:0.11920292 13:0.11920292 14:0.95257413 15:0.047425874 16:0.26894143 17:0.11920292 18:0.88079709 19:0.99752736 20:0.11920292 #
2 1:0.006692851 2:0.01798621 3:0.00091105117 4:0.00091105117 5:0.006692851 6:0.01798621 7:0.0024726233 8:0.00091105117 9:0.00091105117 10:0.5 11:0.99752736 12:0.01798621 13:0.99330717 14:0.11920292 15:0.00091105117 16:0.01798621 17:0.047425874 18:0.0024726233 19:0.006692851 20:0.5 #
2 1:0.047425874 2:0.11920292 3:0.01798621 4:0.0024726233 5:0.01798621 6:0.047425874 7:0.006692851 8:0.01798621 9:0.006692851 10:0.5 11:0.95257413 12:0.01798621 13:0.99987662 14:0.11920292 15:0.006692851 16:0.01798621 17:0.11920292 18:0.01798621 19:0.11920292 20:0.26894143 #
-2 1:0.047425874 2:0.01798621 3:0.006692851 4:0.0024726233 5:0.01798621 6:0.047425874 7:0.01798621 8:0.006692851 9:0.01798621 10:0.5 11:0.88079709 12:0.01798621 13:0.99995458 14:0.11920292 15:0.006692851 16:0.01798621 17:0.047425874 18:0.01798621 19:0.047425874 20:0.26894143 #
-2 1:0.01798621 2:0.01798621 3:0.0024726233 4:0.00091105117 5:0.006692851 6:0.01798621 7:0.006692851 8:0.00091105117 9:0.0024726233 10:0.7310586 11:0.99330717 12:0.006692851 13:0.99966466 14:0.11920292 15:0.0024726233 16:0.006692851 17:0.01798621 18:0.006692851 19:0.006692851 20:0.5 #
-0.71673984106573940255913157670875 1:0.11920292 2:0.0024726233 3:0.00091105117 4:0.00091105117 5:0.006692851 6:0.006692851 7:0.0024726233 8:0.00091105117 9:0.0024726233 10:0.7310586 11:0.99752736 12:0.0024726233 13:0.99330717 14:0.11920292 15:0.0024726233 16:0.01798621 17:0.01798621 18:0.006692851 19:0.01798621 20:0.26894143 #
2 1:0.26894143 2:0.047425874 3:0.01798621 4:0.01798621 5:0.047425874 6:0.047425874 7:0.01798621 8:0.11920292 9:0.01798621 10:0.88079709 11:0.95257413 12:0.047425874 13:0.95257413 14:0.95257413 15:0.01798621 16:0.047425874 17:0.5 18:0.11920292 19:0.26894143 20:0.88079709 #
1.0782695816347092065967672169791 1:0.26894143 2:0.11920292 3:0.006692851 4:0.006692851 5:0.01798621 6:0.006692851 7:0.006692851 8:0.11920292 9:0.006692851 10:0.7310586 11:0.98201376 12:0.047425874 13:0.7310586 14:0.7310586 15:0.11920292 16:0.01798621 17:0.7310586 18:0.006692851 19:0.11920292 20:0.88079709 #
0.78364829284355908001202806190122 1:0.5 2:0.006692851 3:0.006692851 4:0.006692851 5:0.01798621 6:0.01798621 7:0.006692851 8:0.006692851 9:0.006692851 10:0.88079709 11:0.95257413 12:0.006692851 13:0.88079709 14:0.88079709 15:0.006692851 16:0.11920292 17:0.26894143 18:0.26894143 19:0.11920292 20:0.98201376 #
-2 1:0.5 2:0.047425874 3:0.047425874 4:0.01798621 5:0.11920292 6:0.11920292 7:0.047425874 8:0.047425874 9:0.047425874 10:0.7310586 11:0.95257413 12:0.047425874 13:0.98201376 14:0.95257413 15:0.047425874 16:0.11920292 17:0.5 18:0.11920292 19:0.26894143 20:0.88079709 #
-2 1:0.5 2:0.01798621 3:0.01798621 4:0.01798621 5:0.01798621 6:0.01798621 7:0.006692851 8:0.26894143 9:0.047425874 10:0.88079709 11:0.95257413 12:0.01798621 13:0.7310586 14:0.98201376 15:0.006692851 16:0.047425874 17:0.5 18:0.26894143 19:0.11920292 20:0.95257413 #
-1.6282459681601906265058232747833 1:0.5 2:0.047425874 3:0.047425874 4:0.01798621 5:0.11920292 6:0.11920292 7:0.11920292 8:0.01798621 9:0.047425874 10:0.88079709 11:0.95257413 12:0.047425874 13:0.88079709 14:0.7310586 15:0.047425874 16:0.11920292 17:0.26894143 18:0.11920292 19:0.26894143 20:0.7310586 #
2 1:0.047425874 2:0.0024726233 3:0.0024726233 4:0.00091105117 5:0.006692851 6:0.0024726233 7:0.00091105117 8:0.006692851 9:0.00091105117 10:0.7310586 11:0.99752736 12:0.0024726233 13:0.98201376 14:0.047425874 15:0.00091105117 16:0.047425874 17:0.01798621 18:0.0024726233 19:0.006692851 20:0.5 #
2 1:0.01798621 2:0.006692851 3:0.0024726233 4:0.00091105117 5:0.01798621 6:0.006692851 7:0.0024726233 8:0.00091105117 9:0.0024726233 10:0.95257413 11:0.99752736 12:0.0024726233 13:0.7310586 14:0.11920292 15:0.0024726233 16:0.0024726233 17:0.01798621 18:0.01798621 19:0.01798621 20:0.5 #
2 1:0.0024726233 2:0.00091105117 3:0.00033535014 4:0.00033535014 5:0.0024726233 6:0.0024726233 7:0.00091105117 8:0.00033535014 9:0.00091105117 10:0.95257413 11:0.99752736 12:0.00091105117 13:0.99330717 14:0.26894143 15:0.00091105117 16:0.00091105117 17:0.006692851 18:0.0024726233 19:0.006692851 20:0.11920292 #
-0.52000892424836708816116015441366 1:0.01798621 2:0.01798621 3:0.047425874 4:0.0024726233 5:0.006692851 6:0.006692851 7:0.0024726233 8:0.006692851 9:0.0024726233 10:0.95257413 11:0.99752736 12:0.047425874 13:0.7310586 14:0.047425874 15:0.0024726233 16:0.01798621 17:0.047425874 18:0.006692851 19:0.01798621 20:0.5 #
-0.080786115595611746043047673992987 1:0.006692851 2:0.0024726233 3:0.00091105117 4:0.00091105117 5:0.006692851 6:0.0024726233 7:0.0024726233 8:0.00091105117 9:0.0024726233 10:0.95257413 11:0.99752736 12:0.0024726233 13:0.95257413 14:0.11920292 15:0.0024726233 16:0.0024726233 17:0.006692851 18:0.006692851 19:0.006692851 20:0.26894143 #
-1.1673497292136922887095806800062 1:0.0024726233 2:0.00091105117 3:0.0024726233 4:0.00033535014 5:0.0024726233 6:0.006692851 7:0.00091105117 8:0.00033535014 9:0.00091105117 10:0.99330717 11:0.98201376 12:0.00091105117 13:0.99752736 14:0.26894143 15:0.01798621 16:0.00091105117 17:0.006692851 18:0.0024726233 19:0.11920292 20:0.26894143 #
1.347241179943826416831598180579 1:0.5 2:0.01798621 3:0.01798621 4:0.11920292 5:0.047425874 6:0.047425874 7:0.11920292 8:0.11920292 9:0.01798621 10:0.7310586 11:0.95257413 12:0.01798621 13:0.88079709 14:0.95257413 15:0.01798621 16:0.11920292 17:0.5 18:0.047425874 19:0.5 20:0.88079709 #
-0.46962057898066555949867506569717 1:0.5 2:0.7310586 3:0.7310586 4:0.5 5:0.01798621 6:0.88079709 7:0.26894143 8:0.5 9:0.5 10:0.01798621 11:0.047425874 12:0.88079709 13:0.11920292 14:0.01798621 15:0.88079709 16:0.5 17:0.5 18:0.88079709 19:0.047425874 20:0.11920292 #
0.43304693498780871818709670151293 1:0.5 2:0.01798621 3:0.006692851 4:0.006692851 5:0.047425874 6:0.01798621 7:0.047425874 8:0.006692851 9:0.006692851 10:0.88079709 11:0.98201376 12:0.01798621 13:0.7310586 14:0.7310586 15:0.006692851 16:0.11920292 17:0.26894143 18:0.01798621 19:0.26894143 20:0.88079709 #
-0.50485016620791978159132895598304 1:0.11920292 2:0.01798621 3:0.01798621 4:0.006692851 5:0.01798621 6:0.047425874 7:0.006692851 8:0.006692851 9:0.006692851 10:0.98201376 11:0.88079709 12:0.047425874 13:0.88079709 14:0.88079709 15:0.047425874 16:0.047425874 17:0.5 18:0.01798621 19:0.5 20:0.95257413 #
-2 1:0.5 2:0.01798621 3:0.006692851 4:0.006692851 5:0.047425874 6:0.01798621 7:0.01798621 8:0.006692851 9:0.006692851 10:0.88079709 11:0.98201376 12:0.01798621 13:0.7310586 14:0.5 15:0.01798621 16:0.01798621 17:0.11920292 18:0.01798621 19:0.11920292 20:0.95257413 #
-0.91615796410705108154814979570801 1:0.11920292 2:0.01798621 3:0.01798621 4:0.006692851 5:0.047425874 6:0.11920292 7:0.01798621 8:0.006692851 9:0.047425874 10:0.98201376 11:0.88079709 12:0.01798621 13:0.7310586 14:0.88079709 15:0.11920292 16:0.11920292 17:0.5 18:0.01798621 19:0.5 20:0.88079709 #
2 1:0.26894143 2:0.01798621 3:0.0024726233 4:0.0024726233 5:0.006692851 6:0.01798621 7:0.006692851 8:0.006692851 9:0.0024726233 10:0.88079709 11:0.99330717 12:0.006692851 13:0.98201376 14:0.11920292 15:0.01798621 16:0.26894143 17:0.11920292 18:0.006692851 19:0.01798621 20:0.5 #
2 1:0.047425874 2:0.0024726233 3:0.00091105117 4:0.00091105117 5:0.006692851 6:0.0024726233 7:0.0024726233 8:0.00091105117 9:0.0024726233 10:0.98201376 11:0.98201376 12:0.0024726233 13:0.99752736 14:0.5 15:0.0024726233 16:0.0024726233 17:0.01798621 18:0.006692851 19:0.006692851 20:0.7310586 #
-0.05014052619164840324250675962503 1:0.01798621 2:0.006692851 3:0.0024726233 4:0.0024726233 5:0.01798621 6:0.006692851 7:0.0024726233 8:0.0024726233 9:0.0024726233 10:0.99908894 11:0.95257413 12:0.006692851 13:0.7310586 14:0.26894143 15:0.006692851 16:0.006692851 17:0.047425874 18:0.006692851 19:0.047425874 20:0.5 #
-0.89009447545897901754585745948134 1:0.01798621 2:0.006692851 3:0.0024726233 4:0.0024726233 5:0.047425874 6:0.006692851 7:0.0024726233 8:0.0024726233 9:0.0024726233 10:0.99330717 11:0.98201376 12:0.006692851 13:0.95257413 14:0.5 15:0.01798621 16:0.01798621 17:0.047425874 18:0.11920292 19:0.11920292 20:0.7310586 #
2 1:0.26894143 2:0.01798621 3:0.006692851 4:0.006692851 5:0.047425874 6:0.01798621 7:0.006692851 8:0.006692851 9:0.006692851 10:0.95257413 11:0.99330717 12:0.01798621 13:0.7310586 14:0.5 15:0.01798621 16:0.01798621 17:0.11920292 18:0.01798621 19:0.047425874 20:0.88079709 #
1.9165821649314265240349186569802 1:0.5 2:0.01798621 3:0.01798621 4:0.006692851 5:0.047425874 6:0.047425874 7:0.01798621 8:0.01798621 9:0.01798621 10:0.88079709 11:0.98201376 12:0.01798621 13:0.98201376 14:0.5 15:0.01798621 16:0.11920292 17:0.26894143 18:0.047425874 19:0.11920292 20:0.88079709 #
1.250922382759325879320044805354 1:0.7310586 2:0.006692851 3:0.006692851 4:0.0024726233 5:0.047425874 6:0.006692851 7:0.006692851 8:0.01798621 9:0.006692851 10:0.98201376 11:0.95257413 12:0.006692851 13:0.5 14:0.5 15:0.006692851 16:0.047425874 17:0.11920292 18:0.01798621 19:0.047425874 20:0.95257413 #
-2 1:0.11920292 2:0.006692851 3:0.0024726233 4:0.0024726233 5:0.01798621 6:0.006692851 7:0.0024726233 8:0.0024726233 9:0.0024726233 10:0.98201376 11:0.95257413 12:0.006692851 13:0.7310586 14:0.5 15:0.01798621 16:0.006692851 17:0.11920292 18:0.047425874 19:0.11920292 20:0.98201376 #
-1.4608049024160090212376417184714 1:0.26894143 2:0.01798621 3:0.11920292 4:0.01798621 5:0.047425874 6:0.047425874 7:0.01798621 8:0.01798621 9:0.01798621 10:0.95257413 11:0.98201376 12:0.01798621 13:0.95257413 14:0.5 15:0.047425874 16:0.11920292 17:0.11920292 18:0.047425874 19:0.11920292 20:0.88079709 #
-2 1:0.88079709 2:0.006692851 3:0.0024726233 4:0.0024726233 5:0.01798621 6:0.006692851 7:0.006692851 8:0.0024726233 9:0.0024726233 10:0.95257413 11:0.98201376 12:0.006692851 13:0.5 14:0.7310586 15:0.006692851 16:0.01798621 17:0.047425874 18:0.006692851 19:0.01798621 20:0.95257413 #
1.940986340184527314534079778241 1:0.26894143 2:0.047425874 3:0.01798621 4:0.01798621 5:0.11920292 6:0.26894143 7:0.047425874 8:0.01798621 9:0.047425874 10:0.98201376 11:0.88079709 12:0.047425874 13:0.7310586 14:0.7310586 15:0.01798621 16:0.11920292 17:0.7310586 18:0.047425874 19:0.5 20:0.88079709 #
2 1:0.047425874 2:0.01798621 3:0.01798621 4:0.01798621 5:0.11920292 6:0.26894143 7:0.01798621 8:0.006692851 9:0.11920292 10:0.95257413 11:0.95257413 12:0.01798621 13:0.7310586 14:0.88079709 15:0.006692851 16:0.01798621 17:0.26894143 18:0.047425874 19:0.7310586 20:0.95257413 #
2 1:0.11920292 2:0.006692851 3:0.0024726233 4:0.0024726233 5:0.01798621 6:0.047425874 7:0.01798621 8:0.00091105117 9:0.006692851 10:0.88079709 11:0.99330717 12:0.006692851 13:0.95257413 14:0.7310586 15:0.0024726233 16:0.006692851 17:0.047425874 18:0.006692851 19:0.26894143 20:0.7310586 #
-2 1:0.11920292 2:0.006692851 3:0.01798621 4:0.0024726233 5:0.01798621 6:0.01798621 7:0.006692851 8:0.0024726233 9:0.006692851 10:0.98201376 11:0.99330717 12:0.01798621 13:0.7310586 14:0.88079709 15:0.006692851 16:0.01798621 17:0.047425874 18:0.01798621 19:0.26894143 20:0.7310586 #
-0.36885586271907244704237882615416 1:0.01798621 2:0.006692851 3:0.0024726233 4:0.0024726233 5:0.01798621 6:0.006692851 7:0.0024726233 8:0.00091105117 9:0.0024726233 10:0.88079709 11:0.99330717 12:0.006692851 13:0.98201376 14:0.7310586 15:0.0024726233 16:0.006692851 17:0.047425874 18:0.006692851 19:0.01798621 20:0.5 #
-2 1:0.01798621 2:0.0024726233 3:0.0024726233 4:0.0024726233 5:0.01798621 6:0.0024726233 7:0.0024726233 8:0.00091105117 9:0.0024726233 10:0.99908894 11:0.88079709 12:0.0024726233 13:0.88079709 14:0.7310586 15:0.0024726233 16:0.006692851 17:0.01798621 18:0.006692851 19:0.11920292 20:0.7310586 #
1.0235642037300445306158280800446 1:0.88079709 2:0.006692851 3:0.006692851 4:0.0024726233 5:0.01798621 6:0.01798621 7:0.006692851 8:0.047425874 9:0.006692851 10:0.88079709 11:0.98201376 12:0.006692851 13:0.5 14:0.88079709 15:0.006692851 16:0.11920292 17:0.11920292 18:0.006692851 19:0.01798621 20:0.95257413 #
-0.2897440068665234069733571686811 1:0.5 2:0.26894143 3:0.7310586 4:0.7310586 5:0.26894143 6:0.5 7:0.7310586 8:0.5 9:0.26894143 10:0.5 11:0.5 12:0.26894143 13:0.5 14:0.5 15:0.5 16:0.7310586 17:0.7310586 18:0.11920292 19:0.26894143 20:0.5 #
0.46918806257143186311253657549969 1:0.95257413 2:0.01798621 3:0.047425874 4:0.047425874 5:0.26894143 6:0.01798621 7:0.047425874 8:0.7310586 9:0.11920292 10:0.7310586 11:0.88079709 12:0.047425874 13:0.5 14:0.7310586 15:0.047425874 16:0.26894143 17:0.5 18:0.01798621 19:0.11920292 20:0.88079709 #
-2 1:0.88079709 2:0.006692851 3:0.01798621 4:0.006692851 5:0.047425874 6:0.01798621 7:0.006692851 8:0.11920292 9:0.006692851 10:0.95257413 11:0.7310586 12:0.01798621 13:0.5 14:0.95257413 15:0.006692851 16:0.047425874 17:0.11920292 18:0.01798621 19:0.11920292 20:0.98201376 #
-2 1:0.98201376 2:0.006692851 3:0.006692851 4:0.006692851 5:0.01798621 6:0.01798621 7:0.006692851 8:0.11920292 9:0.006692851 10:0.88079709 11:0.7310586 12:0.01798621 13:0.5 14:0.7310586 15:0.006692851 16:0.11920292 17:0.26894143 18:0.01798621 19:0.01798621 20:0.98201376 #
-0.6878742319273859484596300717385 1:0.047425874 2:0.01798621 3:0.01798621 4:0.01798621 5:0.01798621 6:0.01798621 7:0.006692851 8:0.0024726233 9:0.01798621 10:0.98201376 11:0.95257413 12:0.047425874 13:0.7310586 14:0.88079709 15:0.006692851 16:0.047425874 17:0.26894143 18:0.01798621 19:0.88079709 20:0.95257413 #
2 1:0.047425874 2:0.006692851 3:0.0024726233 4:0.0024726233 5:0.01798621 6:0.006692851 7:0.006692851 8:0.006692851 9:0.006692851 10:0.88079709 11:0.99330717 12:0.006692851 13:0.7310586 14:0.7310586 15:0.047425874 16:0.01798621 17:0.01798621 18:0.11920292 19:0.26894143 20:0.7310586 #
2 1:0.01798621 2:0.0024726233 3:0.00091105117 4:0.00091105117 5:0.006692851 6:0.0024726233 7:0.00091105117 8:0.01798621 9:0.0024726233 10:0.99752736 11:0.95257413 12:0.0024726233 13:0.88079709 14:0.98201376 15:0.00091105117 16:0.0024726233 17:0.047425874 18:0.006692851 19:0.047425874 20:0.5 #
2 1:0.047425874 2:0.006692851 3:0.0024726233 4:0.0024726233 5:0.01798621 6:0.006692851 7:0.0024726233 8:0.006692851 9:0.006692851 10:0.95257413 11:0.98201376 12:0.006692851 13:0.7310586 14:0.99330717 15:0.0024726233 16:0.006692851 17:0.01798621 18:0.047425874 19:0.26894143 20:0.88079709 #
-2 1:0.01798621 2:0.006692851 3:0.0024726233 4:0.00091105117 5:0.01798621 6:0.006692851 7:0.0024726233 8:0.0024726233 9:0.01798621 10:0.95257413 11:0.98201376 12:0.0024726233 13:0.88079709 14:0.99330717 15:0.0024726233 16:0.006692851 17:0.01798621 18:0.01798621 19:0.11920292 20:0.7310586 #
-0.54682562626927344595628710521851 1:0.047425874 2:0.01798621 3:0.0024726233 4:0.0024726233 5:0.006692851 6:0.006692851 7:0.0024726233 8:0.006692851 9:0.006692851 10:0.99330717 11:0.98201376 12:0.006692851 13:0.7310586 14:0.98201376 15:0.01798621 16:0.006692851 17:0.01798621 18:0.01798621 19:0.047425874 20:0.5 #
2 1:0.047425874 2:0.006692851 3:0.0024726233 4:0.0024726233 5:0.01798621 6:0.006692851 7:0.0024726233 8:0.0024726233 9:0.0024726233 10:0.95257413 11:0.98201376 12:0.006692851 13:0.7310586 14:0.88079709 15:0.0024726233 16:0.006692851 17:0.01798621 18:0.006692851 19:0.047425874 20:0.95257413 #
1.8939437451821283797670503190602 1:0.7310586 2:0.006692851 3:0.006692851 4:0.01798621 5:0.01798621 6:0.047425874 7:0.01798621 8:0.047425874 9:0.006692851 10:0.95257413 11:0.7310586 12:0.01798621 13:0.5 14:0.88079709 15:0.047425874 16:0.047425874 17:0.047425874 18:0.01798621 19:0.11920292 20:0.99330717 #
1.0010505493734780380066240468295 1:0.98201376 2:0.006692851 3:0.047425874 4:0.0024726233 5:0.01798621 6:0.006692851 7:0.006692851 8:0.047425874 9:0.006692851 10:0.7310586 11:0.88079709 12:0.006692851 13:0.5 14:0.7310586 15:0.006692851 16:0.047425874 17:0.11920292 18:0.047425874 19:0.047425874 20:0.95257413 #
0.9360753039476733539103747716581 1:0.88079709 2:0.0024726233 3:0.0024726233 4:0.00091105117 5:0.006692851 6:0.01798621 7:0.0024726233 8:0.11920292 9:0.01798621 10:0.95257413 11:0.88079709 12:0.0024726233 13:0.7310586 14:0.88079709 15:0.0024726233 16:0.006692851 17:0.047425874 18:0.0024726233 19:0.01798621 20:0.98201376 #
-2 1:0.5 2:0.11920292 3:0.047425874 4:0.01798621 5:0.047425874 6:0.047425874 7:0.047425874 8:0.047425874 9:0.01798621 10:0.88079709 11:0.95257413 12:0.047425874 13:0.5 14:0.95257413 15:0.11920292 16:0.11920292 17:0.11920292 18:0.26894143 19:0.11920292 20:0.88079709 #
-0.58673095351881565662210959999356 1:0.11920292 2:0.047425874 3:0.047425874 4:0.01798621 5:0.047425874 6:0.11920292 7:0.047425874 8:0.01798621 9:0.047425874 10:0.5 11:0.88079709 12:0.047425874 13:0.99987662 14:0.26894143 15:0.01798621 16:0.047425874 17:0.11920292 18:0.047425874 19:0.11920292 20:0.5 #
-1.3719185229487249610969001878402 1:0.95257413 2:0.01798621 3:0.006692851 4:0.006692851 5:0.047425874 6:0.01798621 7:0.006692851 8:0.01798621 9:0.006692851 10:0.95257413 11:0.98201376 12:0.01798621 13:0.5 14:0.7310586 15:0.047425874 16:0.047425874 17:0.047425874 18:0.01798621 19:0.26894143 20:0.7310586 #
2 1:0.047425874 2:0.006692851 3:0.006692851 4:0.006692851 5:0.01798621 6:0.01798621 7:0.006692851 8:0.01798621 9:0.006692851 10:0.95257413 11:0.99330717 12:0.006692851 13:0.7310586 14:0.95257413 15:0.006692851 16:0.01798621 17:0.047425874 18:0.01798621 19:0.047425874 20:0.88079709 #
0.98226938155107457184556096763117 1:0.11920292 2:0.0024726233 3:0.006692851 4:0.006692851 5:0.006692851 6:0.01798621 7:0.0024726233 8:0.006692851 9:0.0024726233 10:0.98201376 11:0.95257413 12:0.0024726233 13:0.7310586 14:0.98201376 15:0.006692851 16:0.006692851 17:0.01798621 18:0.01798621 19:0.11920292 20:0.88079709 #
-2 1:0.01798621 2:0.006692851 3:0.0024726233 4:0.0024726233 5:0.01798621 6:0.006692851 7:0.0024726233 8:0.0024726233 9:0.006692851 10:0.98201376 11:0.98201376 12:0.006692851 13:0.7310586 14:0.95257413 15:0.0024726233 16:0.006692851 17:0.01798621 18:0.01798621 19:0.11920292 20:0.95257413 #
-2 1:0.11920292 2:0.006692851 3:0.0024726233 4:0.0024726233 5:0.01798621 6:0.006692851 7:0.0024726233 8:0.0024726233 9:0.006692851 10:0.88079709 11:0.99330717 12:0.006692851 13:0.7310586 14:0.95257413 15:0.006692851 16:0.006692851 17:0.01798621 18:0.11920292 19:0.047425874 20:0.95257413 #
2 1:0.047425874 2:0.006692851 3:0.0024726233 4:0.0024726233 5:0.01798621 6:0.006692851 7:0.0024726233 8:0.0024726233 9:0.006692851 10:0.98201376 11:0.88079709 12:0.006692851 13:0.5 14:0.95257413 15:0.0024726233 16:0.006692851 17:0.11920292 18:0.11920292 19:0.95257413 20:0.98201376 #
2 1:0.11920292 2:0.01798621 3:0.11920292 4:0.0024726233 5:0.01798621 6:0.006692851 7:0.006692851 8:0.01798621 9:0.01798621 10:0.98201376 11:0.98201376 12:0.047425874 13:0.88079709 14:0.26894143 15:0.11920292 16:0.01798621 17:0.047425874 18:0.006692851 19:0.047425874 20:0.88079709 #
1.9397594047196875521876791026443 1:0.11920292 2:0.047425874 3:0.01798621 4:0.01798621 5:0.11920292 6:0.047425874 7:0.01798621 8:0.01798621 9:0.047425874 10:0.95257413 11:0.95257413 12:0.047425874 13:0.5 14:0.88079709 15:0.01798621 16:0.26894143 17:0.5 18:0.11920292 19:0.7310586 20:0.95257413 #
-1.8812619793661047307153921792633 1:0.047425874 2:0.0024726233 3:0.006692851 4:0.00091105117 5:0.006692851 6:0.006692851 7:0.0024726233 8:0.00091105117 9:0.0024726233 10:0.95257413 11:0.99330717 12:0.0024726233 13:0.98201376 14:0.26894143 15:0.0024726233 16:0.006692851 17:0.01798621 18:0.01798621 19:0.01798621 20:0.88079709 #
-1.0338408431647843066514269594336 1:0.11920292 2:0.047425874 3:0.047425874 4:0.047425874 5:0.047425874 6:0.11920292 7:0.047425874 8:0.047425874 9:0.01798621 10:0.88079709 11:0.95257413 12:0.047425874 13:0.5 14:0.95257413 15:0.01798621 16:0.047425874 17:0.11920292 18:0.047425874 19:0.7310586 20:0.95257413 #
-1.5668005351962344118277314919396 1:0.11920292 2:0.01798621 3:0.047425874 4:0.006692851 5:0.01798621 6:0.047425874 7:0.006692851 8:0.006692851 9:0.01798621 10:0.98201376 11:0.88079709 12:0.047425874 13:0.26894143 14:0.98201376 15:0.006692851 16:0.047425874 17:0.26894143 18:0.047425874 19:0.88079709 20:0.95257413 #
-0.25039974771548478837956963616307 1:0.5 2:0.26894143 3:0.95257413 4:0.88079709 5:0.047425874 6:0.7310586 7:0.5 8:0.26894143 9:0.11920292 10:0.26894143 11:0.26894143 12:0.26894143 13:0.11920292 14:0.047425874 15:0.88079709 16:0.7310586 17:0.7310586 18:0.01798621 19:0.11920292 20:0.26894143 #
2 1:0.01798621 2:0.006692851 3:0.0024726233 4:0.0024726233 5:0.01798621 6:0.006692851 7:0.006692851 8:0.0024726233 9:0.006692851 10:0.95257413 11:0.95257413 12:0.006692851 13:0.7310586 14:0.99330717 15:0.006692851 16:0.006692851 17:0.047425874 18:0.11920292 19:0.11920292 20:0.98201376 #
-2 1:0.01798621 2:0.006692851 3:0.0024726233 4:0.0024726233 5:0.01798621 6:0.006692851 7:0.006692851 8:0.0024726233 9:0.006692851 10:0.99330717 11:0.98201376 12:0.006692851 13:0.7310586 14:0.95257413 15:0.006692851 16:0.006692851 17:0.047425874 18:0.01798621 19:0.11920292 20:0.88079709 #
-2 1:0.01798621 2:0.006692851 3:0.0024726233 4:0.0024726233 5:0.01798621 6:0.006692851 7:0.006692851 8:0.0024726233 9:0.006692851 10:0.98201376 11:0.99330717 12:0.006692851 13:0.7310586 14:0.88079709 15:0.006692851 16:0.006692851 17:0.01798621 18:0.01798621 19:0.047425874 20:0.88079709 #
-2 1:0.047425874 2:0.0024726233 3:0.006692851 4:0.00091105117 5:0.01798621 6:0.006692851 7:0.0024726233 8:0.00091105117 9:0.0024726233 10:0.95257413 11:0.99330717 12:0.0024726233 13:0.5 14:0.88079709 15:0.047425874 16:0.006692851 17:0.01798621 18:0.047425874 19:0.047425874 20:0.88079709 #
2 1:0.006692851 2:0.00091105117 3:0.00033535014 4:0.00033535014 5:0.0024726233 6:0.00091105117 7:0.00091105117 8:0.00033535014 9:0.00091105117 10:0.99752736 11:0.98201376 12:0.00091105117 13:0.99752736 14:0.047425874 15:0.00091105117 16:0.00091105117 17:0.006692851 18:0.00091105117 19:0.006692851 20:0.88079709 #
2 1:0.11920292 2:0.006692851 3:0.0024726233 4:0.0024726233 5:0.01798621 6:0.006692851 7:0.0024726233 8:0.006692851 9:0.0024726233 10:0.98201376 11:0.99330717 12:0.006692851 13:0.88079709 14:0.5 15:0.01798621 16:0.006692851 17:0.01798621 18:0.11920292 19:0.01798621 20:0.88079709 #
2 1:0.047425874 2:0.0024726233 3:0.0024726233 4:0.00091105117 5:0.01798621 6:0.006692851 7:0.0024726233 8:0.00091105117 9:0.0024726233 10:0.98201376 11:0.99330717 12:0.0024726233 13:0.88079709 14:0.11920292 15:0.0024726233 16:0.006692851 17:0.01798621 18:0.006692851 19:0.01798621 20:0.95257413 #
-1.2727790105979914780931494533434 1:0.047425874 2:0.006692851 3:0.047425874 4:0.0024726233 5:0.01798621 6:0.01798621 7:0.0024726233 8:0.0024726233 9:0.006692851 10:0.98201376 11:0.95257413 12:0.006692851 13:0.99330717 14:0.047425874 15:0.0024726233 16:0.01798621 17:0.047425874 18:0.01798621 19:0.047425874 20:0.98201376 #
1.3607242116001601051067382286419 1:0.11920292 2:0.00091105117 3:0.00091105117 4:0.00033535014 5:0.0024726233 6:0.00091105117 7:0.0024726233 8:0.26894143 9:0.00091105117 10:0.95257413 11:0.99330717 12:0.00091105117 13:0.88079709 14:0.047425874 15:0.00091105117 16:0.006692851 17:0.006692851 18:0.00091105117 19:0.0024726233 20:0.98201376 #
-0.053325121503270622724812710657716 1:0.047425874 2:0.0024726233 3:0.00091105117 4:0.00091105117 5:0.006692851 6:0.01798621 7:0.0024726233 8:0.00091105117 9:0.0024726233 10:0.98201376 11:0.95257413 12:0.0024726233 13:0.88079709 14:0.047425874 15:0.0024726233 16:0.0024726233 17:0.047425874 18:0.0024726233 19:0.047425874 20:0.99330717 #
2 1:0.01798621 2:0.0024726233 3:0.0024726233 4:0.0024726233 5:0.01798621 6:0.006692851 7:0.0024726233 8:0.00091105117 9:0.0024726233 10:0.99330717 11:0.98201376 12:0.0024726233 13:0.5 14:0.95257413 15:0.0024726233 16:0.006692851 17:0.01798621 18:0.006692851 19:0.047425874 20:0.88079709 #
2 1:0.047425874 2:0.006692851 3:0.0024726233 4:0.0024726233 5:0.01798621 6:0.006692851 7:0.006692851 8:0.11920292 9:0.006692851 10:0.95257413 11:0.99330717 12:0.006692851 13:0.5 14:0.95257413 15:0.006692851 16:0.006692851 17:0.01798621 18:0.01798621 19:0.11920292 20:0.7310586 #
1.3869947678129810331171256621019 1:0.11920292 2:0.006692851 3:0.0024726233 4:0.0024726233 5:0.01798621 6:0.047425874 7:0.0024726233 8:0.01798621 9:0.0024726233 10:0.95257413 11:0.99330717 12:0.006692851 13:0.5 14:0.88079709 15:0.0024726233 16:0.006692851 17:0.01798621 18:0.006692851 19:0.11920292 20:0.88079709 #
-2 1:0.11920292 2:0.006692851 3:0.0024726233 4:0.0024726233 5:0.047425874 6:0.006692851 7:0.0024726233 8:0.0024726233 9:0.006692851 10:0.88079709 11:0.99330717 12:0.0024726233 13:0.5 14:0.88079709 15:0.01798621 16:0.006692851 17:0.01798621 18:0.006692851 19:0.26894143 20:0.88079709 #
-2 1:0.01798621 2:0.006692851 3:0.0024726233 4:0.0024726233 5:0.01798621 6:0.006692851 7:0.0024726233 8:0.0024726233 9:0.006692851 10:0.95257413 11:0.98201376 12:0.006692851 13:0.5 14:0.98201376 15:0.0024726233 16:0.006692851 17:0.047425874 18:0.11920292 19:0.26894143 20:0.95257413 #
2 1:0.26894143 2:0.006692851 3:0.0024726233 4:0.0024726233 5:0.01798621 6:0.006692851 7:0.0024726233 8:0.0024726233 9:0.0024726233 10:0.98201376 11:0.88079709 12:0.006692851 13:0.98201376 14:0.11920292 15:0.006692851 16:0.006692851 17:0.047425874 18:0.006692851 19:0.01798621 20:0.99330717 #
-2 1:0.26894143 2:0.006692851 3:0.0024726233 4:0.0024726233 5:0.01798621 6:0.01798621 7:0.006692851 8:0.0024726233 9:0.0024726233 10:0.98201376 11:0.88079709 12:0.006692851 13:0.98201376 14:0.047425874 15:0.006692851 16:0.01798621 17:0.11920292 18:0.006692851 19:0.01798621 20:0.99330717 #
-0.20374355305112443192960824944748 1:0.006692851 2:0.006692851 3:0.00091105117 4:0.00091105117 5:0.006692851 6:0.0024726233 7:0.0024726233 8:0.00091105117 9:0.0024726233 10:0.88079709 11:0.99752736 12:0.0024726233 13:0.98201376 14:0.047425874 15:0.0024726233 16:0.01798621 17:0.01798621 18:0.0024726233 19:0.006692851 20:0.88079709 #
0.67585845952199286035266823091661 1:0.11920292 2:0.006692851 3:0.0024726233 4:0.0024726233 5:0.01798621 6:0.006692851 7:0.006692851 8:0.0024726233 9:0.01798621 10:0.98201376 11:0.98201376 12:0.006692851 13:0.7310586 14:0.7310586 15:0.006692851 16:0.01798621 17:0.047425874 18:0.98201376 19:0.5 20:0.88079709 #
2 1:0.006692851 2:0.00091105117 3:0.00091105117 4:0.00033535014 5:0.006692851 6:0.00091105117 7:0.00091105117 8:0.00033535014 9:0.00091105117 10:0.99752736 11:0.88079709 12:0.00091105117 13:0.5 14:0.88079709 15:0.006692851 16:0.0024726233 17:0.006692851 18:0.0024726233 19:0.26894143 20:0.98201376 #
0.31570972140033376485135363509471 1:0.7310586 2:0.006692851 3:0.01798621 4:0.006692851 5:0.01798621 6:0.01798621 7:0.006692851 8:0.95257413 9:0.006692851 10:0.88079709 11:0.88079709 12:0.047425874 13:0.7310586 14:0.7310586 15:0.006692851 16:0.11920292 17:0.11920292 18:0.047425874 19:0.11920292 20:0.88079709 #
-2 1:0.006692851 2:0.0024726233 3:0.00091105117 4:0.00091105117 5:0.006692851 6:0.006692851 7:0.00091105117 8:0.00091105117 9:0.0024726233 10:0.98201376 11:0.99330717 12:0.0024726233 13:0.26894143 14:0.95257413 15:0.00091105117 16:0.0024726233 17:0.006692851 18:0.006692851 19:0.047425874 20:0.88079709 #
-2 1:0.01798621 2:0.0024726233 3:0.0024726233 4:0.0024726233 5:0.01798621 6:0.0024726233 7:0.0024726233 8:0.00091105117 9:0.0024726233 10:0.99752736 11:0.88079709 12:0.0024726233 13:0.26894143 14:0.98201376 15:0.0024726233 16:0.006692851 17:0.01798621 18:0.01798621 19:0.11920292 20:0.7310586 #
2 1:0.047425874 2:0.006692851 3:0.0024726233 4:0.0024726233 5:0.01798621 6:0.006692851 7:0.0024726233 8:0.0024726233 9:0.0024726233 10:0.99752736 11:0.88079709 12:0.006692851 13:0.5 14:0.5 15:0.0024726233 16:0.006692851 17:0.047425874 18:0.006692851 19:0.26894143 20:0.98201376 #
-2 1:0.01798621 2:0.006692851 3:0.0024726233 4:0.0024726233 5:0.01798621 6:0.01798621 7:0.0024726233 8:0.0024726233 9:0.0024726233 10:0.99752736 11:0.95257413 12:0.01798621 13:0.5 14:0.5 15:0.0024726233 16:0.006692851 17:0.047425874 18:0.006692851 19:0.26894143 20:0.95257413 #
-1.8485105979800353637187981803436 1:0.26894143 2:0.006692851 3:0.0024726233 4:0.0024726233 5:0.01798621 6:0.006692851 7:0.006692851 8:0.0024726233 9:0.0024726233 10:0.88079709 11:0.99330717 12:0.006692851 13:0.7310586 14:0.11920292 15:0.0024726233 16:0.006692851 17:0.047425874 18:0.006692851 19:0.01798621 20:0.88079709 #
-2 1:0.26894143 2:0.0024726233 3:0.0024726233 4:0.00091105117 5:0.01798621 6:0.0024726233 7:0.0024726233 8:0.0024726233 9:0.0024726233 10:0.98201376 11:0.88079709 12:0.0024726233 13:0.7310586 14:0.047425874 15:0.0024726233 16:0.006692851 17:0.01798621 18:0.0024726233 19:0.006692851 20:0.99752736 #
1.7032213900184969279649749296368 1:0.006692851 2:0.0024726233 3:0.00091105117 4:0.00091105117 5:0.006692851 6:0.0024726233 7:0.0024726233 8:0.00091105117 9:0.006692851 10:0.95257413 11:0.95257413 12:0.0024726233 13:0.26894143 14:0.99908894 15:0.0024726233 16:0.0024726233 17:0.006692851 18:0.01798621 19:0.11920292 20:0.88079709 #
1.3383306037829956203211168030975 1:0.047425874 2:0.006692851 3:0.0024726233 4:0.0024726233 5:0.047425874 6:0.006692851 7:0.0024726233 8:0.0024726233 9:0.0024726233 10:0.98201376 11:0.95257413 12:0.006692851 13:0.26894143 14:0.95257413 15:0.0024726233 16:0.006692851 17:0.047425874 18:0.11920292 19:0.11920292 20:0.98201376 #
0.87833454401659272203772843568004 1:0.11920292 2:0.01798621 3:0.00091105117 4:0.00091105117 5:0.006692851 6:0.0024726233 7:0.00091105117 8:0.0024726233 9:0.00091105117 10:0.98201376 11:0.98201376 12:0.0024726233 13:0.26894143 14:0.95257413 15:0.00091105117 16:0.0024726233 17:0.006692851 18:0.047425874 19:0.01798621 20:0.95257413 #
-2 1:0.047425874 2:0.006692851 3:0.0024726233 4:0.0024726233 5:0.01798621 6:0.006692851 7:0.0024726233 8:0.0024726233 9:0.006692851 10:0.88079709 11:0.98201376 12:0.006692851 13:0.26894143 14:0.99752736 15:0.0024726233 16:0.006692851 17:0.01798621 18:0.047425874 19:0.26894143 20:0.95257413 #
-2 1:0.26894143 2:0.0024726233 3:0.0024726233 4:0.0024726233 5:0.01798621 6:0.006692851 7:0.0024726233 8:0.0024726233 9:0.0024726233 10:0.98201376 11:0.95257413 12:0.006692851 13:0.26894143 14:0.95257413 15:0.01798621 16:0.006692851 17:0.047425874 18:0.006692851 19:0.047425874 20:0.98201376 #
2 1:0.26894143 2:0.01798621 3:0.00091105117 4:0.00091105117 5:0.006692851 6:0.0024726233 7:0.0024726233 8:0.0024726233 9:0.00091105117 10:0.88079709 11:0.99330717 12:0.0024726233 13:0.7310586 14:0.26894143 15:0.0024726233 16:0.0024726233 17:0.11920292 18:0.0024726233 19:0.01798621 20:0.98201376 #
2 1:0.26894143 2:0.006692851 3:0.0024726233 4:0.0024726233 5:0.01798621 6:0.006692851 7:0.006692851 8:0.006692851 9:0.0024726233 10:0.98201376 11:0.95257413 12:0.006692851 13:0.5 14:0.11920292 15:0.006692851 16:0.01798621 17:0.047425874 18:0.006692851 19:0.047425874 20:0.99330717 #
2 1:0.5 2:0.0024726233 3:0.0024726233 4:0.0024726233 5:0.01798621 6:0.006692851 7:0.0024726233 8:0.0024726233 9:0.0024726233 10:0.95257413 11:0.88079709 12:0.006692851 13:0.7310586 14:0.047425874 15:0.0024726233 16:0.006692851 17:0.01798621 18:0.0024726233 19:0.01798621 20:0.99752736 #
-1.7533574233198705449865428818157 1:0.5 2:0.0024726233 3:0.0024726233 4:0.0024726233 5:0.01798621 6:0.006692851 7:0.0024726233 8:0.0024726233 9:0.0024726233 10:0.98201376 11:0.98201376 12:0.006692851 13:0.7310586 14:0.26894143 15:0.0024726233 16:0.006692851 17:0.11920292 18:0.006692851 19:0.01798621 20:0.95257413 #
-2 1:0.5 2:0.006692851 3:0.006692851 4:0.0024726233 5:0.047425874 6:0.006692851 7:0.006692851 8:0.006692851 9:0.006692851 10:0.98201376 11:0.95257413 12:0.006692851 13:0.7310586 14:0.26894143 15:0.006692851 16:0.047425874 17:0.047425874 18:0.006692851 19:0.047425874 20:0.98201376 #
-2 1:0.11920292 2:0.006692851 3:0.0024726233 4:0.01798621 5:0.01798621 6:0.006692851 7:0.006692851 8:0.0024726233 9:0.0024726233 10:0.95257413 11:0.99330717 12:0.006692851 13:0.5 14:0.26894143 15:0.006692851 16:0.047425874 17:0.11920292 18:0.006692851 19:0.01798621 20:0.95257413 #
1.907156378389717854560103660333 1:0.01798621 2:0.00091105117 3:0.00033535014 4:0.00033535014 5:0.0024726233 6:0.00091105117 7:0.00091105117 8:0.00033535014 9:0.00091105117 10:0.95257413 11:0.99752736 12:0.00091105117 13:0.11920292 14:0.88079709 15:0.00091105117 16:0.0024726233 17:0.006692851 18:0.0024726233 19:0.11920292 20:0.7310586 #
0.086330240377549549712909993104404 1:0.26894143 2:0.0024726233 3:0.00091105117 4:0.00091105117 5:0.006692851 6:0.0024726233 7:0.0024726233 8:0.0024726233 9:0.0024726233 10:0.88079709 11:0.98201376 12:0.0024726233 13:0.26894143 14:0.98201376 15:0.0024726233 16:0.006692851 17:0.01798621 18:0.006692851 19:0.047425874 20:0.95257413 #
2 1:0.01798621 2:0.00091105117 3:0.00091105117 4:0.00091105117 5:0.006692851 6:0.00091105117 7:0.00091105117 8:0.00091105117 9:0.0024726233 10:0.99330717 11:0.88079709 12:0.00091105117 13:0.11920292 14:0.99908894 15:0.00091105117 16:0.0024726233 17:0.006692851 18:0.01798621 19:0.11920292 20:0.7310586 #
-2 1:0.006692851 2:0.0024726233 3:0.00091105117 4:0.00091105117 5:0.006692851 6:0.0024726233 7:0.00091105117 8:0.00033535014 9:0.006692851 10:0.99330717 11:0.99330717 12:0.0024726233 13:0.26894143 14:0.88079709 15:0.00091105117 16:0.0024726233 17:0.047425874 18:0.047425874 19:0.047425874 20:0.88079709 #
-2 1:0.047425874 2:0.01798621 3:0.006692851 4:0.006692851 5:0.047425874 6:0.01798621 7:0.006692851 8:0.006692851 9:0.01798621 10:0.98201376 11:0.7310586 12:0.01798621 13:0.26894143 14:0.98201376 15:0.01798621 16:0.01798621 17:0.047425874 18:0.047425874 19:0.11920292 20:0.98201376 #
2 1:0.047425874 2:0.006692851 3:0.0024726233 4:0.00091105117 5:0.01798621 6:0.006692851 7:0.0024726233 8:0.00091105117 9:0.0024726233 10:0.95257413 11:0.99330717 12:0.0024726233 13:0.5 14:0.5 15:0.0024726233 16:0.006692851 17:0.01798621 18:0.006692851 19:0.01798621 20:0.98201376 #
2 1:0.11920292 2:0.006692851 3:0.0024726233 4:0.0024726233 5:0.01798621 6:0.006692851 7:0.0024726233 8:0.047425874 9:0.0024726233 10:0.95257413 11:0.98201376 12:0.006692851 13:0.95257413 14:0.11920292 15:0.0024726233 16:0.006692851 17:0.01798621 18:0.01798621 19:0.01798621 20:0.98201376 #
-2 1:0.047425874 2:0.0024726233 3:0.0024726233 4:0.00091105117 5:0.01798621 6:0.006692851 7:0.0024726233 8:0.00091105117 9:0.0024726233 10:0.95257413 11:0.99330717 12:0.0024726233 13:0.88079709 14:0.5 15:0.0024726233 16:0.006692851 17:0.01798621 18:0.006692851 19:0.01798621 20:0.95257413 #
-0.30025908704912562807720632918063 1:0.5 2:0.11920292 3:0.7310586 4:0.99330717 5:0.01798621 6:0.5 7:0.5 8:0.5 9:0.11920292 10:0.11920292 11:0.11920292 12:0.11920292 13:0.11920292 14:0.26894143 15:0.26894143 16:0.7310586 17:0.5 18:0.01798621 19:0.5 20:0.11920292 #
-2 1:0.047425874 2:0.0024726233 3:0.0024726233 4:0.00091105117 5:0.01798621 6:0.006692851 7:0.0024726233 8:0.00091105117 9:0.0024726233 10:0.99330717 11:0.98201376 12:0.0024726233 13:0.5 14:0.5 15:0.0024726233 16:0.006692851 17:0.047425874 18:0.006692851 19:0.01798621 20:0.88079709 #
1.3190523000280645060655615452561 1:0.047425874 2:0.0024726233 3:0.0024726233 4:0.006692851 5:0.006692851 6:0.01798621 7:0.0024726233 8:0.006692851 9:0.01798621 10:0.95257413 11:0.98201376 12:0.0024726233 13:0.26894143 14:0.95257413 15:0.01798621 16:0.0024726233 17:0.047425874 18:0.26894143 19:0.01798621 20:0.95257413 #
0.92277336257583042478103152461699 1:0.047425874 2:0.0024726233 3:0.0024726233 4:0.00091105117 5:0.01798621 6:0.0024726233 7:0.0024726233 8:0.006692851 9:0.0024726233 10:0.99330717 11:0.88079709 12:0.0024726233 13:0.26894143 14:0.98201376 15:0.0024726233 16:0.006692851 17:0.01798621 18:0.11920292 19:0.26894143 20:0.95257413 #
2 1:0.11920292 2:0.006692851 3:0.006692851 4:0.006692851 5:0.01798621 6:0.006692851 7:0.006692851 8:0.01798621 9:0.01798621 10:0.98201376 11:0.88079709 12:0.006692851 13:0.26894143 14:0.99752736 15:0.006692851 16:0.01798621 17:0.047425874 18:0.047425874 19:0.26894143 20:0.95257413 #
2 1:0.11920292 2:0.0024726233 3:0.00091105117 4:0.00091105117 5:0.006692851 6:0.0024726233 7:0.006692851 8:0.00091105117 9:0.00091105117 10:0.95257413 11:0.99330717 12:0.0024726233 13:0.7310586 14:0.5 15:0.01798621 16:0.006692851 17:0.11920292 18:0.047425874 19:0.006692851 20:0.95257413 #
2 1:0.01798621 2:0.0024726233 3:0.0024726233 4:0.0024726233 5:0.01798621 6:0.0024726233 7:0.0024726233 8:0.00091105117 9:0.0024726233 10:0.99330717 11:0.88079709 12:0.0024726233 13:0.95257413 14:0.7310586 15:0.0024726233 16:0.006692851 17:0.047425874 18:0.006692851 19:0.01798621 20:0.98201376 #
1.8197283579402097064559029604425 1:0.047425874 2:0.006692851 3:0.0024726233 4:0.00091105117 5:0.01798621 6:0.006692851 7:0.0024726233 8:0.00091105117 9:0.0024726233 10:0.95257413 11:0.99330717 12:0.0024726233 13:0.88079709 14:0.7310586 15:0.0024726233 16:0.006692851 17:0.01798621 18:0.006692851 19:0.01798621 20:0.88079709 #
-2 1:0.047425874 2:0.006692851 3:0.0024726233 4:0.0024726233 5:0.01798621 6:0.006692851 7:0.0024726233 8:0.0024726233 9:0.0024726233 10:0.98201376 11:0.98201376 12:0.006692851 13:0.88079709 14:0.5 15:0.01798621 16:0.01798621 17:0.11920292 18:0.006692851 19:0.01798621 20:0.95257413 #
-1.8976651534240862595481758035021 1:0.047425874 2:0.006692851 3:0.006692851 4:0.006692851 5:0.01798621 6:0.01798621 7:0.006692851 8:0.006692851 9:0.006692851 10:0.99330717 11:0.7310586 12:0.006692851 13:0.88079709 14:0.98201376 15:0.006692851 16:0.01798621 17:0.047425874 18:0.01798621 19:0.047425874 20:0.98201376 #
-1.5889057119342515633775292371865 1:0.006692851 2:0.006692851 3:0.0024726233 4:0.0024726233 5:0.006692851 6:0.006692851 7:0.0024726233 8:0.0024726233 9:0.01798621 10:0.88079709 11:0.88079709 12:0.0024726233 13:0.5 14:0.99908894 15:0.0024726233 16:0.006692851 17:0.01798621 18:0.11920292 19:0.98201376 20:0.7310586 #
0.705055131079108221570095338393 1:0.047425874 2:0.0024726233 3:0.0024726233 4:0.00091105117 5:0.01798621 6:0.0024726233 7:0.0024726233 8:0.00091105117 9:0.0024726233 10:0.99330717 11:0.98201376 12:0.0024726233 13:0.26894143 14:0.95257413 15:0.26894143 16:0.006692851 17:0.01798621 18:0.047425874 19:0.047425874 20:0.88079709 #
1.2812990008076599046660248859553 1:0.01798621 2:0.0024726233 3:0.0024726233 4:0.00091105117 5:0.006692851 6:0.0024726233 7:0.0024726233 8:0.0024726233 9:0.006692851 10:0.7310586 11:0.95257413 12:0.0024726233 13:0.26894143 14:0.99908894 15:0.0024726233 16:0.006692851 17:0.01798621 18:0.11920292 19:0.26894143 20:0.88079709 #
2 1:0.047425874 2:0.0024726233 3:0.00091105117 4:0.00091105117 5:0.006692851 6:0.0024726233 7:0.0024726233 8:0.00091105117 9:0.0024726233 10:0.98201376 11:0.95257413 12:0.0024726233 13:0.26894143 14:0.7310586 15:0.047425874 16:0.006692851 17:0.01798621 18:0.006692851 19:0.047425874 20:0.99330717 #
-1.1607627708268621891107841292978 1:0.11920292 2:0.006692851 3:0.047425874 4:0.006692851 5:0.01798621 6:0.11920292 7:0.006692851 8:0.01798621 9:0.01798621 10:0.99330717 11:0.88079709 12:0.006692851 13:0.26894143 14:0.7310586 15:0.047425874 16:0.01798621 17:0.11920292 18:0.006692851 19:0.01798621 20:0.98201376 #
-2 1:0.01798621 2:0.00091105117 3:0.006692851 4:0.0024726233 5:0.006692851 6:0.0024726233 7:0.00091105117 8:0.006692851 9:0.00091105117 10:0.99752736 11:0.88079709 12:0.00091105117 13:0.26894143 14:0.5 15:0.00091105117 16:0.047425874 17:0.047425874 18:0.00091105117 19:0.006692851 20:0.99330717 #
-0.35000548212107834844530884765845 1:0.006692851 2:0.01798621 3:0.88079709 4:0.99966466 5:0.00033535014 6:0.01798621 7:0.5 8:0.047425874 9:0.11920292 10:0.00091105117 11:0.006692851 12:0.047425874 13:0.00091105117 14:0.0024726233 15:0.0024726233 16:0.11920292 17:0.006692851 18:0.00033535014 19:0.5 20:0.00091105117 #
2 1:0.01798621 2:0.006692851 3:0.0024726233 4:0.0024726233 5:0.01798621 6:0.006692851 7:0.006692851 8:0.006692851 9:0.006692851 10:0.95257413 11:0.98201376 12:0.006692851 13:0.5 14:0.98201376 15:0.006692851 16:0.006692851 17:0.01798621 18:0.047425874 19:0.7310586 20:0.7310586 #
2 1:0.01798621 2:0.006692851 3:0.0024726233 4:0.0024726233 5:0.01798621 6:0.006692851 7:0.0024726233 8:0.0024726233 9:0.0024726233 10:0.98201376 11:0.98201376 12:0.006692851 13:0.95257413 14:0.88079709 15:0.0024726233 16:0.006692851 17:0.01798621 18:0.01798621 19:0.047425874 20:0.95257413 #
2 1:0.11920292 2:0.047425874 3:0.047425874 4:0.047425874 5:0.11920292 6:0.047425874 7:0.047425874 8:0.047425874 9:0.047425874 10:0.7310586 11:0.95257413 12:0.047425874 13:0.5 14:0.98201376 15:0.047425874 16:0.11920292 17:0.26894143 18:0.11920292 19:0.88079709 20:0.7310586 #
-2 1:0.11920292 2:0.006692851 3:0.11920292 4:0.0024726233 5:0.01798621 6:0.01798621 7:0.0024726233 8:0.006692851 9:0.006692851 10:0.95257413 11:0.98201376 12:0.006692851 13:0.95257413 14:0.95257413 15:0.0024726233 16:0.006692851 17:0.01798621 18:0.01798621 19:0.26894143 20:0.95257413 #
-2 1:0.01798621 2:0.00091105117 3:0.00091105117 4:0.00033535014 5:0.0024726233 6:0.00091105117 7:0.00091105117 8:0.01798621 9:0.00091105117 10:0.7310586 11:0.99330717 12:0.00091105117 13:0.88079709 14:0.99330717 15:0.00091105117 16:0.0024726233 17:0.01798621 18:0.006692851 19:0.01798621 20:0.95257413 #
-2 1:0.047425874 2:0.11920292 3:0.047425874 4:0.006692851 5:0.01798621 6:0.01798621 7:0.006692851 8:0.01798621 9:0.01798621 10:0.7310586 11:0.99330717 12:0.01798621 13:0.5 14:0.95257413 15:0.01798621 16:0.047425874 17:0.11920292 18:0.11920292 19:0.11920292 20:0.88079709 #
2 1:0.11920292 2:0.0024726233 3:0.00091105117 4:0.00091105117 5:0.006692851 6:0.0024726233 7:0.00091105117 8:0.00091105117 9:0.00091105117 10:0.99752736 11:0.88079709 12:0.0024726233 13:0.26894143 14:0.5 15:0.0024726233 16:0.0024726233 17:0.01798621 18:0.0024726233 19:0.006692851 20:0.98201376 #
1.6255383427528349304935773034231 1:0.11920292 2:0.0024726233 3:0.0024726233 4:0.00091105117 5:0.01798621 6:0.006692851 7:0.0024726233 8:0.00091105117 9:0.0024726233 10:0.98201376 11:0.98201376 12:0.0024726233 13:0.26894143 14:0.5 15:0.0024726233 16:0.006692851 17:0.047425874 18:0.047425874 19:0.01798621 20:0.95257413 #
2 1:0.01798621 2:0.006692851 3:0.01798621 4:0.11920292 5:0.01798621 6:0.006692851 7:0.006692851 8:0.0024726233 9:0.006692851 10:0.98201376 11:0.98201376 12:0.006692851 13:0.26894143 14:0.26894143 15:0.11920292 16:0.01798621 17:0.047425874 18:0.006692851 19:0.01798621 20:0.88079709 #
-1.5075693710665947211424509077915 1:0.047425874 2:0.0024726233 3:0.0024726233 4:0.0024726233 5:0.006692851 6:0.0024726233 7:0.0024726233 8:0.0024726233 9:0.0024726233 10:0.95257413 11:0.99330717 12:0.0024726233 13:0.26894143 14:0.26894143 15:0.26894143 16:0.0024726233 17:0.006692851 18:0.006692851 19:0.006692851 20:0.88079709 #
-2 1:0.11920292 2:0.01798621 3:0.01798621 4:0.01798621 5:0.047425874 6:0.01798621 7:0.01798621 8:0.01798621 9:0.006692851 10:0.99330717 11:0.98201376 12:0.01798621 13:0.26894143 14:0.11920292 15:0.01798621 16:0.01798621 17:0.11920292 18:0.01798621 19:0.047425874 20:0.95257413 #
2 1:0.047425874 2:0.006692851 3:0.0024726233 4:0.0024726233 5:0.01798621 6:0.006692851 7:0.0024726233 8:0.0024726233 9:0.0024726233 10:0.7310586 11:0.99752736 12:0.006692851 13:0.88079709 14:0.95257413 15:0.0024726233 16:0.006692851 17:0.01798621 18:0.01798621 19:0.047425874 20:0.7310586 #
1.3145411104508128996570803792565 1:0.11920292 2:0.01798621 3:0.006692851 4:0.006692851 5:0.047425874 6:0.01798621 7:0.006692851 8:0.047425874 9:0.01798621 10:0.7310586 11:0.98201376 12:0.01798621 13:0.88079709 14:0.98201376 15:0.006692851 16:0.047425874 17:0.047425874 18:0.047425874 19:0.11920292 20:0.88079709 #
2 1:0.11920292 2:0.01798621 3:0.01798621 4:0.01798621 5:0.11920292 6:0.047425874 7:0.01798621 8:0.01798621 9:0.047425874 10:0.98201376 11:0.88079709 12:0.01798621 13:0.5 14:0.95257413 15:0.01798621 16:0.047425874 17:0.11920292 18:0.11920292 19:0.5 20:0.95257413 #
-1.9937245778468009049788634001743 1:0.11920292 2:0.047425874 3:0.11920292 4:0.01798621 5:0.047425874 6:0.047425874 7:0.01798621 8:0.01798621 9:0.047425874 10:0.95257413 11:0.88079709 12:0.047425874 13:0.5 14:0.99330717 15:0.01798621 16:0.11920292 17:0.11920292 18:0.11920292 19:0.5 20:0.95257413 #
-1.0874317522879959341253197635524 1:0.006692851 2:0.0024726233 3:0.00091105117 4:0.00091105117 5:0.006692851 6:0.0024726233 7:0.0024726233 8:0.00091105117 9:0.0024726233 10:0.95257413 11:0.99330717 12:0.0024726233 13:0.5 14:0.88079709 15:0.0024726233 16:0.0024726233 17:0.01798621 18:0.006692851 19:0.5 20:0.7310586 #
-2 1:0.11920292 2:0.0024726233 3:0.0024726233 4:0.0024726233 5:0.01798621 6:0.0024726233 7:0.0024726233 8:0.0024726233 9:0.01798621 10:0.98201376 11:0.7310586 12:0.0024726233 13:0.26894143 14:0.99330717 15:0.047425874 16:0.006692851 17:0.01798621 18:0.01798621 19:0.5 20:0.95257413 #
2 1:0.11920292 2:0.0024726233 3:0.00091105117 4:0.00033535014 5:0.006692851 6:0.0024726233 7:0.00091105117 8:0.0024726233 9:0.00091105117 10:0.98201376 11:0.99330717 12:0.00091105117 13:0.26894143 14:0.26894143 15:0.00091105117 16:0.006692851 17:0.01798621 18:0.0024726233 19:0.006692851 20:0.88079709 #
2 1:0.047425874 2:0.0024726233 3:0.00091105117 4:0.00091105117 5:0.006692851 6:0.0024726233 7:0.0024726233 8:0.00091105117 9:0.0024726233 10:0.88079709 11:0.99752736 12:0.0024726233 13:0.26894143 14:0.26894143 15:0.0024726233 16:0.0024726233 17:0.006692851 18:0.006692851 19:0.047425874 20:0.88079709 #
2 1:0.047425874 2:0.0024726233 3:0.0024726233 4:0.00091105117 5:0.01798621 6:0.0024726233 7:0.0024726233 8:0.00091105117 9:0.00091105117 10:0.95257413 11:0.95257413 12:0.0024726233 13:0.26894143 14:0.01798621 15:0.0024726233 16:0.006692851 17:0.047425874 18:0.0024726233 19:0.006692851 20:0.99752736 #
-0.22226085286918262351463226877968 1:0.01798621 2:0.0024726233 3:0.00091105117 4:0.00091105117 5:0.006692851 6:0.0024726233 7:0.00091105117 8:0.00091105117 9:0.006692851 10:0.99752736 11:0.98201376 12:0.0024726233 13:0.26894143 14:0.11920292 15:0.0024726233 16:0.0024726233 17:0.01798621 18:0.0024726233 19:0.01798621 20:0.98201376 #
2 1:0.11920292 2:0.0024726233 3:0.00091105117 4:0.00091105117 5:0.006692851 6:0.0024726233 7:0.0024726233 8:0.006692851 9:0.01798621 10:0.98201376 11:0.88079709 12:0.0024726233 13:0.26894143 14:0.99330717 15:0.006692851 16:0.006692851 17:0.01798621 18:0.047425874 19:0.5 20:0.98201376 #
2 1:0.01798621 2:0.0024726233 3:0.0024726233 4:0.0024726233 5:0.01798621 6:0.006692851 7:0.0024726233 8:0.0024726233 9:0.0024726233 10:0.95257413 11:0.7310586 12:0.0024726233 13:0.5 14:0.88079709 15:0.0024726233 16:0.006692851 17:0.047425874 18:0.006692851 19:0.047425874 20:0.99752736 #
2 1:0.047425874 2:0.0024726233 3:0.0024726233 4:0.00091105117 5:0.01798621 6:0.26894143 7:0.0024726233 8:0.00091105117 9:0.0024726233 10:0.99330717 11:0.95257413 12:0.0024726233 13:0.7310586 14:0.5 15:0.0024726233 16:0.006692851 17:0.01798621 18:0.11920292 19:0.047425874 20:0.99330717 #
-2 1:0.26894143 2:0.006692851 3:0.006692851 4:0.006692851 5:0.047425874 6:0.006692851 7:0.006692851 8:0.006692851 9:0.006692851 10:0.99330717 11:0.7310586 12:0.006692851 13:0.26894143 14:0.5 15:0.006692851 16:0.01798621 17:0.047425874 18:0.006692851 19:0.047425874 20:0.99330717 #
-1.8158263908640752681833419046598 1:0.01798621 2:0.0024726233 3:0.0024726233 4:0.0024726233 5:0.01798621 6:0.0024726233 7:0.0024726233 8:0.00091105117 9:0.0024726233 10:0.99752736 11:0.88079709 12:0.0024726233 13:0.11920292 14:0.5 15:0.0024726233 16:0.006692851 17:0.047425874 18:0.006692851 19:0.01798621 20:0.98201376 #
-1.5245881201928648263077548108413 1:0.01798621 2:0.01798621 3:0.00091105117 4:0.00091105117 5:0.006692851 6:0.006692851 7:0.0024726233 8:0.00091105117 9:0.0024726233 10:0.99330717 11:0.88079709 12:0.006692851 13:0.11920292 14:0.88079709 15:0.0024726233 16:0.0024726233 17:0.047425874 18:0.11920292 19:0.7310586 20:0.98201376 #
2 1:0.006692851 2:0.00091105117 3:0.00091105117 4:0.00091105117 5:0.006692851 6:0.0024726233 7:0.00091105117 8:0.00091105117 9:0.00091105117 10:0.99908894 11:0.7310586 12:0.0024726233 13:0.5 14:0.11920292 15:0.00091105117 16:0.0024726233 17:0.01798621 18:0.0024726233 19:0.006692851 20:0.95257413 #
2 1:0.01798621 2:0.0024726233 3:0.00091105117 4:0.00091105117 5:0.006692851 6:0.0024726233 7:0.0024726233 8:0.00091105117 9:0.0024726233 10:0.88079709 11:0.99330717 12:0.0024726233 13:0.26894143 14:0.047425874 15:0.0024726233 16:0.006692851 17:0.26894143 18:0.0024726233 19:0.01798621 20:0.99330717 #
-0.41054356942559117049640349250694 1:0.047425874 2:0.11920292 3:0.5 4:0.88079709 5:0.01798621 6:0.047425874 7:0.047425874 8:0.01798621 9:0.047425874 10:0.006692851 11:0.006692851 12:0.26894143 13:0.01798621 14:0.0024726233 15:0.11920292 16:0.95257413 17:0.99752736 18:0.0024726233 19:0.006692851 20:0.01798621 #
-1.1386680555230095368557385882013 1:0.01798621 2:0.00091105117 3:0.00091105117 4:0.00091105117 5:0.006692851 6:0.0024726233 7:0.00091105117 8:0.00033535014 9:0.00091105117 10:0.99752736 11:0.7310586 12:0.00091105117 13:0.5 14:0.047425874 15:0.00091105117 16:0.0024726233 17:0.01798621 18:0.00091105117 19:0.01798621 20:0.99330717 #
-0.48323987700570814052269952298957 1:0.01798621 2:0.0024726233 3:0.00091105117 4:0.00091105117 5:0.006692851 6:0.0024726233 7:0.00091105117 8:0.00091105117 9:0.00091105117 10:0.99752736 11:0.7310586 12:0.0024726233 13:0.26894143 14:0.01798621 15:0.0024726233 16:0.0024726233 17:0.047425874 18:0.01798621 19:0.006692851 20:0.99330717 #
-0.1925028961558776507967394309162 1:0.11920292 2:0.5 3:0.5 4:0.88079709 5:0.01798621 6:0.5 7:0.95257413 8:0.11920292 9:0.11920292 10:0.047425874 11:0.01798621 12:0.95257413 13:0.047425874 14:0.01798621 15:0.047425874 16:0.7310586 17:0.88079709 18:0.01798621 19:0.11920292 20:0.047425874 #
2 1:0.01798621 2:0.0024726233 3:0.0024726233 4:0.00091105117 5:0.006692851 6:0.0024726233 7:0.0024726233 8:0.00091105117 9:0.006692851 10:0.99330717 11:0.88079709 12:0.0024726233 13:0.26894143 14:0.99330717 15:0.0024726233 16:0.006692851 17:0.01798621 18:0.11920292 19:0.88079709 20:0.95257413 #
1.9906782418860189398657212223043 1:0.26894143 2:0.006692851 3:0.047425874 4:0.11920292 5:0.01798621 6:0.01798621 7:0.01798621 8:0.047425874 9:0.047425874 10:0.95257413 11:0.98201376 12:0.01798621 13:0.11920292 14:0.7310586 15:0.11920292 16:0.047425874 17:0.11920292 18:0.11920292 19:0.88079709 20:0.88079709 #
1.1214332049624167186863132883445 1:0.5 2:0.01798621 3:0.01798621 4:0.01798621 5:0.047425874 6:0.047425874 7:0.01798621 8:0.11920292 9:0.01798621 10:0.95257413 11:0.88079709 12:0.047425874 13:0.5 14:0.95257413 15:0.01798621 16:0.11920292 17:0.5 18:0.26894143 19:0.26894143 20:0.95257413 #
-2 1:0.047425874 2:0.11920292 3:0.01798621 4:0.047425874 5:0.01798621 6:0.047425874 7:0.01798621 8:0.01798621 9:0.006692851 10:0.99752736 11:0.88079709 12:0.01798621 13:0.5 14:0.7310586 15:0.006692851 16:0.01798621 17:0.047425874 18:0.006692851 19:0.047425874 20:0.95257413 #
-2 1:0.26894143 2:0.006692851 3:0.0024726233 4:0.0024726233 5:0.01798621 6:0.11920292 7:0.006692851 8:0.0024726233 9:0.006692851 10:0.95257413 11:0.99330717 12:0.006692851 13:0.7310586 14:0.5 15:0.11920292 16:0.006692851 17:0.047425874 18:0.11920292 19:0.11920292 20:0.88079709 #
-1.3504397544984798607003995130071 1:0.11920292 2:0.006692851 3:0.01798621 4:0.0024726233 5:0.26894143 6:0.047425874 7:0.0024726233 8:0.0024726233 9:0.0024726233 10:0.99330717 11:0.88079709 12:0.006692851 13:0.5 14:0.88079709 15:0.0024726233 16:0.11920292 17:0.047425874 18:0.006692851 19:0.01798621 20:0.98201376 #
2 1:0.0024726233 2:0.00091105117 3:0.01798621 4:0.00033535014 5:0.0024726233 6:0.0024726233 7:0.00033535014 8:0.00012339458 9:0.00033535014 10:0.99908894 11:0.7310586 12:0.00091105117 13:0.26894143 14:0.01798621 15:0.00033535014 16:0.00091105117 17:0.01798621 18:0.00091105117 19:0.0024726233 20:0.98201376 #
2 1:0.047425874 2:0.0024726233 3:0.00091105117 4:0.00091105117 5:0.006692851 6:0.0024726233 7:0.0024726233 8:0.00091105117 9:0.00091105117 10:0.95257413 11:0.88079709 12:0.0024726233 13:0.11920292 14:0.11920292 15:0.0024726233 16:0.006692851 17:0.047425874 18:0.0024726233 19:0.006692851 20:0.99752736 #
2 1:0.047425874 2:0.0024726233 3:0.00091105117 4:0.00091105117 5:0.01798621 6:0.0024726233 7:0.0024726233 8:0.00091105117 9:0.00091105117 10:0.95257413 11:0.98201376 12:0.0024726233 13:0.11920292 14:0.047425874 15:0.0024726233 16:0.006692851 17:0.047425874 18:0.11920292 19:0.006692851 20:0.99330717 #
-0.13839206867750633578317831506865 1:0.5 2:0.7310586 3:0.5 4:0.5 5:0.11920292 6:0.5 7:0.5 8:0.5 9:0.26894143 10:0.26894143 11:0.5 12:0.5 13:0.26894143 14:0.11920292 15:0.5 16:0.5 17:0.7310586 18:0.047425874 19:0.26894143 20:0.5 #
-0.0069011868193425175699307061449872 1:0.01798621 2:0.99330717 3:0.26894143 4:0.11920292 5:0.00091105117 6:0.98201376 7:0.7310586 8:0.006692851 9:0.047425874 10:0.0024726233 11:0.0024726233 12:0.99330717 13:0.006692851 14:0.00091105117 15:0.006692851 16:0.047425874 17:0.11920292 18:0.0024726233 19:0.006692851 20:0.006692851 #
1.7091413263315196058300671211327 1:0.26894143 2:0.047425874 3:0.006692851 4:0.11920292 5:0.01798621 6:0.01798621 7:0.01798621 8:0.01798621 9:0.006692851 10:0.98201376 11:0.95257413 12:0.047425874 13:0.5 14:0.5 15:0.11920292 16:0.047425874 17:0.11920292 18:0.006692851 19:0.11920292 20:0.95257413 #
0.66699034020019631885389799208497 1:0.26894143 2:0.0024726233 3:0.0024726233 4:0.0024726233 5:0.047425874 6:0.006692851 7:0.0024726233 8:0.0024726233 9:0.0024726233 10:0.99330717 11:0.95257413 12:0.006692851 13:0.7310586 14:0.7310586 15:0.0024726233 16:0.01798621 17:0.047425874 18:0.006692851 19:0.26894143 20:0.98201376 #
1.6207302148809250574856832827209 1:0.11920292 2:0.006692851 3:0.0024726233 4:0.0024726233 5:0.01798621 6:0.006692851 7:0.0024726233 8:0.0024726233 9:0.0024726233 10:0.98201376 11:0.99330717 12:0.006692851 13:0.5 14:0.5 15:0.0024726233 16:0.006692851 17:0.01798621 18:0.006692851 19:0.01798621 20:0.88079709 #
-2 1:0.047425874 2:0.006692851 3:0.0024726233 4:0.0024726233 5:0.01798621 6:0.006692851 7:0.0024726233 8:0.0024726233 9:0.0024726233 10:0.99330717 11:0.98201376 12:0.006692851 13:0.5 14:0.5 15:0.006692851 16:0.006692851 17:0.047425874 18:0.047425874 19:0.047425874 20:0.95257413 #
-2 1:0.047425874 2:0.006692851 3:0.0024726233 4:0.0024726233 5:0.01798621 6:0.006692851 7:0.006692851 8:0.0024726233 9:0.0024726233 10:0.7310586 11:0.99330717 12:0.006692851 13:0.26894143 14:0.26894143 15:0.006692851 16:0.01798621 17:0.047425874 18:0.006692851 19:0.01798621 20:0.98201376 #
-2 1:0.047425874 2:0.006692851 3:0.006692851 4:0.0024726233 5:0.01798621 6:0.006692851 7:0.01798621 8:0.0024726233 9:0.006692851 10:0.7310586 11:0.99752736 12:0.006692851 13:0.7310586 14:0.7310586 15:0.006692851 16:0.006692851 17:0.11920292 18:0.11920292 19:0.01798621 20:0.7310586 #
2 1:0.01798621 2:0.0024726233 3:0.0024726233 4:0.00091105117 5:0.01798621 6:0.0024726233 7:0.0024726233 8:0.00091105117 9:0.0024726233 10:0.98201376 11:0.5 12:0.0024726233 13:0.11920292 14:0.11920292 15:0.0024726233 16:0.006692851 17:0.047425874 18:0.0024726233 19:0.01798621 20:0.99908894 #
2 1:0.26894143 2:0.0024726233 3:0.00091105117 4:0.00091105117 5:0.047425874 6:0.0024726233 7:0.0024726233 8:0.00091105117 9:0.00091105117 10:0.98201376 11:0.5 12:0.0024726233 13:0.11920292 14:0.01798621 15:0.0024726233 16:0.006692851 17:0.01798621 18:0.0024726233 19:0.006692851 20:0.99752736 #
2 1:0.26894143 2:0.00091105117 3:0.00033535014 4:0.00033535014 5:0.0024726233 6:0.00091105117 7:0.00033535014 8:0.00033535014 9:0.00033535014 10:0.99908894 11:0.7310586 12:0.00091105117 13:0.26894143 14:0.01798621 15:0.00091105117 16:0.00091105117 17:0.006692851 18:0.00091105117 19:0.0024726233 20:0.98201376 #
-0.98802162364864143384579620033037 1:0.26894143 2:0.0024726233 3:0.0024726233 4:0.00091105117 5:0.006692851 6:0.0024726233 7:0.0024726233 8:0.00091105117 9:0.00091105117 10:0.99752736 11:0.7310586 12:0.0024726233 13:0.11920292 14:0.047425874 15:0.0024726233 16:0.006692851 17:0.01798621 18:0.0024726233 19:0.006692851 20:0.99330717 #
-1.5830770828294931096280606652726 1:0.26894143 2:0.0024726233 3:0.00091105117 4:0.00091105117 5:0.006692851 6:0.0024726233 7:0.0024726233 8:0.00091105117 9:0.00091105117 10:0.99752736 11:0.5 12:0.0024726233 13:0.11920292 14:0.047425874 15:0.0024726233 16:0.006692851 17:0.047425874 18:0.0024726233 19:0.006692851 20:0.99330717 #
-1.5030361659424562592590746135102 1:0.01798621 2:0.00091105117 3:0.00091105117 4:0.00091105117 5:0.006692851 6:0.00091105117 7:0.00091105117 8:0.00033535014 9:0.00091105117 10:0.98201376 11:0.5 12:0.00091105117 13:0.047425874 14:0.11920292 15:0.00091105117 16:0.0024726233 17:0.01798621 18:0.00091105117 19:0.01798621 20:0.99908894 #
0.6377301965606272382558472600067 1:0.047425874 2:0.006692851 3:0.0024726233 4:0.00091105117 5:0.01798621 6:0.006692851 7:0.0024726233 8:0.00091105117 9:0.0024726233 10:0.7310586 11:0.99752736 12:0.006692851 13:0.5 14:0.5 15:0.0024726233 16:0.006692851 17:0.01798621 18:0.006692851 19:0.01798621 20:0.88079709 #
2 1:0.047425874 2:0.006692851 3:0.006692851 4:0.0024726233 5:0.01798621 6:0.11920292 7:0.006692851 8:0.0024726233 9:0.01798621 10:0.98201376 11:0.98201376 12:0.01798621 13:0.5 14:0.5 15:0.006692851 16:0.01798621 17:0.11920292 18:0.26894143 19:0.11920292 20:0.98201376 #
-2 1:0.006692851 2:0.0024726233 3:0.00091105117 4:0.00091105117 5:0.006692851 6:0.0024726233 7:0.00091105117 8:0.00033535014 9:0.00091105117 10:0.88079709 11:0.99752736 12:0.0024726233 13:0.26894143 14:0.26894143 15:0.00091105117 16:0.0024726233 17:0.006692851 18:0.0024726233 19:0.006692851 20:0.7310586 #
-1.2360647888267553007324295322178 1:0.01798621 2:0.0024726233 3:0.00091105117 4:0.00091105117 5:0.006692851 6:0.0024726233 7:0.00091105117 8:0.00091105117 9:0.00091105117 10:0.98201376 11:0.99752736 12:0.0024726233 13:0.11920292 14:0.26894143 15:0.0024726233 16:0.0024726233 17:0.006692851 18:0.006692851 19:0.006692851 20:0.7310586 #
2 1:0.006692851 2:0.00091105117 3:0.00033535014 4:0.00033535014 5:0.0024726233 6:0.00091105117 7:0.00033535014 8:0.00033535014 9:0.00033535014 10:0.98201376 11:0.99752736 12:0.00091105117 13:0.26894143 14:0.01798621 15:0.00033535014 16:0.00091105117 17:0.01798621 18:0.00091105117 19:0.0024726233 20:0.5 #
2 1:0.5 2:0.006692851 3:0.0024726233 4:0.0024726233 5:0.01798621 6:0.006692851 7:0.006692851 8:0.006692851 9:0.0024726233 10:0.95257413 11:0.7310586 12:0.006692851 13:0.11920292 14:0.11920292 15:0.006692851 16:0.01798621 17:0.047425874 18:0.0024726233 19:0.01798621 20:0.99752736 #
2 1:0.047425874 2:0.00033535014 3:0.00033535014 4:0.00033535014 5:0.0024726233 6:0.00033535014 7:0.00033535014 8:0.00033535014 9:0.00033535014 10:0.99330717 11:0.26894143 12:0.0024726233 13:0.047425874 14:0.01798621 15:0.00033535014 16:0.00091105117 17:0.006692851 18:0.00033535014 19:0.0024726233 20:0.99908894 #
-0.61999338709899221022681103931973 1:0.047425874 2:0.00091105117 3:0.00091105117 4:0.00091105117 5:0.006692851 6:0.00091105117 7:0.00091105117 8:0.00033535014 9:0.00091105117 10:0.99908894 11:0.26894143 12:0.00091105117 13:0.11920292 14:0.01798621 15:0.00091105117 16:0.0024726233 17:0.006692851 18:0.00091105117 19:0.01798621 20:0.99330717 #
-0.14092089491958495472978540874465 1:0.5 2:0.26894143 3:0.7310586 4:0.88079709 5:0.26894143 6:0.5 7:0.7310586 8:0.5 9:0.5 10:0.5 11:0.26894143 12:0.5 13:0.26894143 14:0.26894143 15:0.5 16:0.5 17:0.5 18:0.26894143 19:0.5 20:0.26894143 #
-0.28686406965527982970698417375388 1:0.98201376 2:0.11920292 3:0.11920292 4:0.11920292 5:0.26894143 6:0.26894143 7:0.26894143 8:0.26894143 9:0.11920292 10:0.11920292 11:0.26894143 12:0.26894143 13:0.26894143 14:0.26894143 15:0.11920292 16:0.88079709 17:0.7310586 18:0.047425874 19:0.11920292 20:0.26894143 #
2 1:0.047425874 2:0.006692851 3:0.00091105117 4:0.00091105117 5:0.01798621 6:0.006692851 7:0.0024726233 8:0.0024726233 9:0.0024726233 10:0.7310586 11:0.99752736 12:0.0024726233 13:0.26894143 14:0.26894143 15:0.0024726233 16:0.006692851 17:0.01798621 18:0.006692851 19:0.01798621 20:0.7310586 #
-2 1:0.26894143 2:0.0024726233 3:0.00091105117 4:0.00091105117 5:0.01798621 6:0.0024726233 7:0.0024726233 8:0.00091105117 9:0.0024726233 10:0.88079709 11:0.99330717 12:0.0024726233 13:0.26894143 14:0.047425874 15:0.0024726233 16:0.006692851 17:0.01798621 18:0.006692851 19:0.006692851 20:0.98201376 #
-0.6837624226493270729321238832199 1:0.047425874 2:0.0024726233 3:0.00091105117 4:0.00091105117 5:0.006692851 6:0.0024726233 7:0.00091105117 8:0.00091105117 9:0.00091105117 10:0.7310586 11:0.99752736 12:0.0024726233 13:0.26894143 14:0.047425874 15:0.0024726233 16:0.0024726233 17:0.01798621 18:0.006692851 19:0.01798621 20:0.7310586 #
-1.629265763465167049517390296387 1:0.11920292 2:0.006692851 3:0.0024726233 4:0.01798621 5:0.01798621 6:0.11920292 7:0.006692851 8:0.0024726233 9:0.0024726233 10:0.88079709 11:0.99330717 12:0.006692851 13:0.5 14:0.26894143 15:0.0024726233 16:0.01798621 17:0.047425874 18:0.006692851 19:0.01798621 20:0.95257413 #
2 1:0.006692851 2:0.00033535014 3:0.00012339458 4:0.00012339458 5:0.0024726233 6:0.00033535014 7:0.00033535014 8:0.00012339458 9:0.00012339458 10:0.95257413 11:0.047425874 12:0.00033535014 13:0.11920292 14:0.0024726233 15:0.00033535014 16:0.00091105117 17:0.0024726233 18:0.00033535014 19:0.00091105117 20:0.99966466 #
2 1:0.11920292 2:0.00091105117 3:0.00091105117 4:0.00091105117 5:0.006692851 6:0.0024726233 7:0.00091105117 8:0.00091105117 9:0.00091105117 10:0.88079709 11:0.047425874 12:0.00091105117 13:0.047425874 14:0.006692851 15:0.00091105117 16:0.006692851 17:0.01798621 18:0.00091105117 19:0.006692851 20:0.99908894 #
1.1646640297675201480842588352971 1:0.01798621 2:0.006692851 3:0.0024726233 4:0.00091105117 5:0.01798621 6:0.006692851 7:0.0024726233 8:0.00091105117 9:0.0024726233 10:0.7310586 11:0.99752736 12:0.0024726233 13:0.5 14:0.95257413 15:0.0024726233 16:0.006692851 17:0.01798621 18:0.047425874 19:0.047425874 20:0.7310586 #
-0.19832821840479453179284519137582 1:0.047425874 2:0.00091105117 3:0.00091105117 4:0.00033535014 5:0.0024726233 6:0.0024726233 7:0.0024726233 8:0.0024726233 9:0.0024726233 10:0.95257413 11:0.11920292 12:0.0024726233 13:0.047425874 14:0.006692851 15:0.01798621 16:0.0024726233 17:0.01798621 18:0.00033535014 19:0.0024726233 20:0.99908894 #
2 1:0.11920292 2:0.0024726233 3:0.0024726233 4:0.0024726233 5:0.01798621 6:0.0024726233 7:0.0024726233 8:0.0024726233 9:0.006692851 10:0.99908894 11:0.26894143 12:0.0024726233 13:0.26894143 14:0.88079709 15:0.0024726233 16:0.006692851 17:0.01798621 18:0.006692851 19:0.5 20:0.95257413 #
-0.64881972495468809292162859492237 1:0.006692851 2:0.0024726233 3:0.00091105117 4:0.00091105117 5:0.006692851 6:0.0024726233 7:0.00091105117 8:0.00033535014 9:0.00091105117 10:0.88079709 11:0.99752736 12:0.0024726233 13:0.26894143 14:0.047425874 15:0.0024726233 16:0.0024726233 17:0.01798621 18:0.0024726233 19:0.006692851 20:0.26894143 #
-0.72902087118688452260784060854348 1:0.006692851 2:0.00091105117 3:0.00091105117 4:0.00091105117 5:0.006692851 6:0.00091105117 7:0.00091105117 8:0.00033535014 9:0.00091105117 10:0.99966466 11:0.88079709 12:0.00091105117 13:0.11920292 14:0.11920292 15:0.00091105117 16:0.0024726233 17:0.006692851 18:0.0024726233 19:0.006692851 20:0.26894143 #
-1.5016750449935176714433282540995 1:0.7310586 2:0.047425874 3:0.01798621 4:0.006692851 5:0.047425874 6:0.01798621 7:0.01798621 8:0.006692851 9:0.006692851 10:0.98201376 11:0.88079709 12:0.01798621 13:0.5 14:0.047425874 15:0.11920292 16:0.01798621 17:0.11920292 18:0.01798621 19:0.01798621 20:0.99330717 #
2 1:0.7310586 2:0.006692851 3:0.006692851 4:0.0024726233 5:0.01798621 6:0.01798621 7:0.006692851 8:0.01798621 9:0.006692851 10:0.95257413 11:0.98201376 12:0.006692851 13:0.95257413 14:0.26894143 15:0.006692851 16:0.01798621 17:0.047425874 18:0.01798621 19:0.047425874 20:0.95257413 #
-0.77308974819448583737369062873768 1:0.006692851 2:0.00033535014 3:0.00033535014 4:0.00033535014 5:0.0024726233 6:0.00091105117 7:0.0024726233 8:0.00012339458 9:0.00033535014 10:0.88079709 11:0.01798621 12:0.00033535014 13:0.01798621 14:0.0024726233 15:0.00033535014 16:0.00091105117 17:0.006692851 18:0.00033535014 19:0.0024726233 20:0.99966466 #
-2 1:0.7310586 2:0.0024726233 3:0.00091105117 4:0.00091105117 5:0.006692851 6:0.0024726233 7:0.0024726233 8:0.0024726233 9:0.0024726233 10:0.98201376 11:0.98201376 12:0.0024726233 13:0.98201376 14:0.26894143 15:0.0024726233 16:0.01798621 17:0.11920292 18:0.0024726233 19:0.006692851 20:0.95257413 #
-1.2537304449881396806176780955866 1:0.01798621 2:0.00091105117 3:0.00091105117 4:0.00091105117 5:0.006692851 6:0.0024726233 7:0.00091105117 8:0.00091105117 9:0.00091105117 10:0.88079709 11:0.047425874 12:0.0024726233 13:0.11920292 14:0.006692851 15:0.00091105117 16:0.0024726233 17:0.01798621 18:0.00091105117 19:0.006692851 20:0.99908894 #
2 1:0.00091105117 2:0.00091105117 3:0.00012339458 4:0.00012339458 5:0.0024726233 6:0.00091105117 7:0.00033535014 8:0.00012339458 9:0.00033535014 10:0.95257413 11:0.99908894 12:0.00033535014 13:0.26894143 14:0.01798621 15:0.00033535014 16:0.00033535014 17:0.0024726233 18:0.00091105117 19:0.0024726233 20:0.11920292 #
0.94884228777795265319383588575874 1:0.95257413 2:0.006692851 3:0.006692851 4:0.006692851 5:0.047425874 6:0.01798621 7:0.006692851 8:0.11920292 9:0.006692851 10:0.95257413 11:0.95257413 12:0.01798621 13:0.5 14:0.11920292 15:0.006692851 16:0.047425874 17:0.11920292 18:0.006692851 19:0.01798621 20:0.95257413 #
1.4529480157349063951244261261309 1:0.98201376 2:0.006692851 3:0.0024726233 4:0.0024726233 5:0.01798621 6:0.006692851 7:0.006692851 8:0.11920292 9:0.0024726233 10:0.88079709 11:0.7310586 12:0.006692851 13:0.5 14:0.11920292 15:0.047425874 16:0.047425874 17:0.11920292 18:0.0024726233 19:0.006692851 20:0.98201376 #
-1.5949644369291047230063895767671 1:0.006692851 2:0.0024726233 3:0.00091105117 4:0.00091105117 5:0.006692851 6:0.0024726233 7:0.00091105117 8:0.00091105117 9:0.0024726233 10:0.88079709 11:0.99752736 12:0.0024726233 13:0.26894143 14:0.047425874 15:0.0024726233 16:0.0024726233 17:0.006692851 18:0.006692851 19:0.006692851 20:0.11920292 #
-2 1:0.98201376 2:0.006692851 3:0.006692851 4:0.0024726233 5:0.01798621 6:0.006692851 7:0.006692851 8:0.01798621 9:0.0024726233 10:0.7310586 11:0.7310586 12:0.006692851 13:0.5 14:0.01798621 15:0.006692851 16:0.047425874 17:0.11920292 18:0.0024726233 19:0.01798621 20:0.99330717 #
-1.6753737240388222318188127246685 1:0.11920292 2:0.01798621 3:0.01798621 4:0.047425874 5:0.047425874 6:0.047425874 7:0.11920292 8:0.047425874 9:0.047425874 10:0.88079709 11:0.88079709 12:0.01798621 13:0.5 14:0.98201376 15:0.01798621 16:0.11920292 17:0.5 18:0.11920292 19:0.95257413 20:0.88079709 #
0.014837578218519940562170056352898 1:0.7310586 2:0.006692851 3:0.0024726233 4:0.0024726233 5:0.01798621 6:0.006692851 7:0.006692851 8:0.006692851 9:0.0024726233 10:0.95257413 11:0.98201376 12:0.006692851 13:0.98201376 14:0.11920292 15:0.006692851 16:0.01798621 17:0.11920292 18:0.006692851 19:0.01798621 20:0.98201376 #
2 1:0.7310586 2:0.006692851 3:0.0024726233 4:0.0024726233 5:0.01798621 6:0.006692851 7:0.006692851 8:0.0024726233 9:0.0024726233 10:0.98201376 11:0.95257413 12:0.006692851 13:0.88079709 14:0.11920292 15:0.006692851 16:0.01798621 17:0.047425874 18:0.006692851 19:0.01798621 20:0.98201376 #
1.4899952793364750203153334950912 1:0.5 2:0.006692851 3:0.0024726233 4:0.0024726233 5:0.01798621 6:0.006692851 7:0.0024726233 8:0.0024726233 9:0.0024726233 10:0.95257413 11:0.99330717 12:0.006692851 13:0.98201376 14:0.11920292 15:0.0024726233 16:0.006692851 17:0.01798621 18:0.006692851 19:0.01798621 20:0.88079709 #
-2 1:0.88079709 2:0.006692851 3:0.0024726233 4:0.0024726233 5:0.01798621 6:0.006692851 7:0.047425874 8:0.006692851 9:0.006692851 10:0.98201376 11:0.95257413 12:0.006692851 13:0.7310586 14:0.11920292 15:0.006692851 16:0.01798621 17:0.047425874 18:0.047425874 19:0.047425874 20:0.95257413 #
-1.1673690218183199185375542583643 1:0.88079709 2:0.0024726233 3:0.01798621 4:0.047425874 5:0.006692851 6:0.01798621 7:0.0024726233 8:0.01798621 9:0.0024726233 10:0.99752736 11:0.88079709 12:0.006692851 13:0.95257413 14:0.01798621 15:0.0024726233 16:0.047425874 17:0.047425874 18:0.0024726233 19:0.047425874 20:0.7310586 #
-0.44018479029690804615881916106446 1:0.26894143 2:0.0024726233 3:0.00091105117 4:0.00091105117 5:0.01798621 6:0.0024726233 7:0.0024726233 8:0.00091105117 9:0.00091105117 10:0.7310586 11:0.047425874 12:0.0024726233 13:0.047425874 14:0.006692851 15:0.006692851 16:0.006692851 17:0.047425874 18:0.00091105117 19:0.006692851 20:0.99908894 #
2 1:0.26894143 2:0.006692851 3:0.006692851 4:0.0024726233 5:0.01798621 6:0.006692851 7:0.01798621 8:0.006692851 9:0.006692851 10:0.98201376 11:0.7310586 12:0.006692851 13:0.26894143 14:0.95257413 15:0.006692851 16:0.01798621 17:0.5 18:0.047425874 19:0.7310586 20:0.98201376 #
1.4559139354823271705896559069515 1:0.5 2:0.006692851 3:0.0024726233 4:0.0024726233 5:0.01798621 6:0.006692851 7:0.0024726233 8:0.01798621 9:0.0024726233 10:0.7310586 11:0.99330717 12:0.006692851 13:0.5 14:0.11920292 15:0.0024726233 16:0.01798621 17:0.26894143 18:0.006692851 19:0.01798621 20:0.95257413 #
1.1315724299023457444235418734024 1:0.5 2:0.047425874 3:0.01798621 4:0.01798621 5:0.047425874 6:0.047425874 7:0.01798621 8:0.01798621 9:0.01798621 10:0.7310586 11:0.98201376 12:0.047425874 13:0.95257413 14:0.88079709 15:0.01798621 16:0.11920292 17:0.7310586 18:0.26894143 19:0.11920292 20:0.7310586 #
-1.416116073732110125504846109834 1:0.006692851 2:0.0024726233 3:0.00091105117 4:0.00091105117 5:0.006692851 6:0.0024726233 7:0.00091105117 8:0.00091105117 9:0.0024726233 10:0.98201376 11:0.95257413 12:0.0024726233 13:0.99752736 14:0.99330717 15:0.00091105117 16:0.0024726233 17:0.006692851 18:0.006692851 19:0.01798621 20:0.88079709 #
-0.67525601106880261959020117501495 1:0.01798621 2:0.006692851 3:0.0024726233 4:0.00091105117 5:0.006692851 6:0.006692851 7:0.0024726233 8:0.0024726233 9:0.006692851 10:0.88079709 11:0.88079709 12:0.006692851 13:0.99987662 14:0.98201376 15:0.0024726233 16:0.006692851 17:0.01798621 18:0.01798621 19:0.047425874 20:0.5 #
2 1:0.95257413 2:0.006692851 3:0.006692851 4:0.0024726233 5:0.01798621 6:0.006692851 7:0.006692851 8:0.01798621 9:0.006692851 10:0.88079709 11:0.95257413 12:0.006692851 13:0.7310586 14:0.11920292 15:0.006692851 16:0.047425874 17:0.26894143 18:0.006692851 19:0.01798621 20:0.98201376 #
2 1:0.95257413 2:0.006692851 3:0.006692851 4:0.0024726233 5:0.01798621 6:0.01798621 7:0.006692851 8:0.01798621 9:0.006692851 10:0.7310586 11:0.98201376 12:0.006692851 13:0.5 14:0.047425874 15:0.006692851 16:0.047425874 17:0.047425874 18:0.006692851 19:0.01798621 20:0.95257413 #
1.3792419613344326645432147415704 1:0.7310586 2:0.006692851 3:0.006692851 4:0.0024726233 5:0.047425874 6:0.006692851 7:0.006692851 8:0.006692851 9:0.006692851 10:0.88079709 11:0.7310586 12:0.006692851 13:0.7310586 14:0.11920292 15:0.006692851 16:0.01798621 17:0.047425874 18:0.006692851 19:0.26894143 20:0.99752736 #
-0.96289341830200125826877410872839 1:0.5 2:0.0024726233 3:0.006692851 4:0.0024726233 5:0.01798621 6:0.006692851 7:0.0024726233 8:0.01798621 9:0.01798621 10:0.7310586 11:0.88079709 12:0.006692851 13:0.5 14:0.01798621 15:0.0024726233 16:0.26894143 17:0.11920292 18:0.0024726233 19:0.006692851 20:0.99752736 #
-2 1:0.7310586 2:0.006692851 3:0.0024726233 4:0.006692851 5:0.01798621 6:0.006692851 7:0.006692851 8:0.006692851 9:0.0024726233 10:0.7310586 11:0.99330717 12:0.006692851 13:0.26894143 14:0.047425874 15:0.047425874 16:0.01798621 17:0.11920292 18:0.006692851 19:0.01798621 20:0.95257413 #
-2 1:0.7310586 2:0.01798621 3:0.047425874 4:0.047425874 5:0.047425874 6:0.11920292 7:0.047425874 8:0.26894143 9:0.01798621 10:0.88079709 11:0.88079709 12:0.11920292 13:0.5 14:0.11920292 15:0.01798621 16:0.11920292 17:0.11920292 18:0.01798621 19:0.11920292 20:0.98201376 #
1.6031230835216532248921339487424 1:0.26894143 2:0.11920292 3:0.006692851 4:0.006692851 5:0.26894143 6:0.01798621 7:0.047425874 8:0.006692851 9:0.01798621 10:0.95257413 11:0.95257413 12:0.047425874 13:0.7310586 14:0.98201376 15:0.006692851 16:0.01798621 17:0.11920292 18:0.26894143 19:0.11920292 20:0.7310586 #
-1.321770503473463698185241810279 1:0.11920292 2:0.26894143 3:0.01798621 4:0.01798621 5:0.01798621 6:0.01798621 7:0.006692851 8:0.006692851 9:0.01798621 10:0.88079709 11:0.98201376 12:0.01798621 13:0.88079709 14:0.95257413 15:0.047425874 16:0.01798621 17:0.11920292 18:0.11920292 19:0.11920292 20:0.88079709 #
-1.8621686553023313326349352792022 1:0.26894143 2:0.01798621 3:0.006692851 4:0.006692851 5:0.047425874 6:0.01798621 7:0.006692851 8:0.006692851 9:0.006692851 10:0.98201376 11:0.88079709 12:0.01798621 13:0.7310586 14:0.88079709 15:0.11920292 16:0.01798621 17:0.11920292 18:0.5 19:0.26894143 20:0.95257413 #
-1.5965960796435618718192017695401 1:0.26894143 2:0.047425874 3:0.047425874 4:0.01798621 5:0.11920292 6:0.047425874 7:0.047425874 8:0.01798621 9:0.047425874 10:0.95257413 11:0.95257413 12:0.047425874 13:0.7310586 14:0.7310586 15:0.047425874 16:0.26894143 17:0.7310586 18:0.047425874 19:0.11920292 20:0.88079709 #
2 1:0.5 2:0.0024726233 3:0.0024726233 4:0.00091105117 5:0.01798621 6:0.006692851 7:0.0024726233 8:0.0024726233 9:0.0024726233 10:0.88079709 11:0.99330717 12:0.0024726233 13:0.26894143 14:0.047425874 15:0.0024726233 16:0.006692851 17:0.047425874 18:0.006692851 19:0.01798621 20:0.98201376 #
2 1:0.7310586 2:0.006692851 3:0.0024726233 4:0.0024726233 5:0.01798621 6:0.006692851 7:0.006692851 8:0.11920292 9:0.0024726233 10:0.95257413 11:0.88079709 12:0.006692851 13:0.26894143 14:0.047425874 15:0.006692851 16:0.01798621 17:0.26894143 18:0.006692851 19:0.01798621 20:0.99330717 #
1.6453867106473298864699472687789 1:0.99330717 2:0.006692851 3:0.006692851 4:0.006692851 5:0.047425874 6:0.01798621 7:0.01798621 8:0.047425874 9:0.006692851 10:0.7310586 11:0.7310586 12:0.01798621 13:0.11920292 14:0.047425874 15:0.01798621 16:0.11920292 17:0.047425874 18:0.006692851 19:0.01798621 20:0.95257413 #
-2 1:0.047425874 2:0.0024726233 3:0.00091105117 4:0.00091105117 5:0.006692851 6:0.01798621 7:0.0024726233 8:0.006692851 9:0.00091105117 10:0.95257413 11:0.95257413 12:0.0024726233 13:0.98201376 14:0.047425874 15:0.0024726233 16:0.0024726233 17:0.047425874 18:0.0024726233 19:0.006692851 20:0.99330717 #
-2 1:0.7310586 2:0.006692851 3:0.0024726233 4:0.0024726233 5:0.01798621 6:0.006692851 7:0.006692851 8:0.006692851 9:0.0024726233 10:0.88079709 11:0.88079709 12:0.006692851 13:0.26894143 14:0.01798621 15:0.006692851 16:0.01798621 17:0.26894143 18:0.0024726233 19:0.01798621 20:0.99752736 #
-1.6794783858645334628789669295656 1:0.88079709 2:0.01798621 3:0.01798621 4:0.11920292 5:0.01798621 6:0.01798621 7:0.047425874 8:0.11920292 9:0.006692851 10:0.88079709 11:0.95257413 12:0.01798621 13:0.11920292 14:0.01798621 15:0.047425874 16:0.11920292 17:0.11920292 18:0.006692851 19:0.01798621 20:0.95257413 #
-1.9865305213899635550234279435244 1:0.5 2:0.0024726233 3:0.00091105117 4:0.00091105117 5:0.006692851 6:0.0024726233 7:0.0024726233 8:0.0024726233 9:0.00091105117 10:0.99330717 11:0.7310586 12:0.0024726233 13:0.047425874 14:0.01798621 15:0.0024726233 16:0.01798621 17:0.047425874 18:0.0024726233 19:0.006692851 20:0.99330717 #
2 1:0.11920292 2:0.006692851 3:0.0024726233 4:0.0024726233 5:0.01798621 6:0.006692851 7:0.047425874 8:0.0024726233 9:0.006692851 10:0.95257413 11:0.98201376 12:0.006692851 13:0.7310586 14:0.95257413 15:0.0024726233 16:0.047425874 17:0.11920292 18:0.7310586 19:0.26894143 20:0.88079709 #
1.0003112636664805989994420087896 1:0.26894143 2:0.0024726233 3:0.0024726233 4:0.00091105117 5:0.006692851 6:0.0024726233 7:0.0024726233 8:0.006692851 9:0.0024726233 10:0.7310586 11:0.99330717 12:0.0024726233 13:0.7310586 14:0.7310586 15:0.006692851 16:0.01798621 17:0.11920292 18:0.5 19:0.26894143 20:0.88079709 #
0.60359792327918371235284666909138 1:0.5 2:0.006692851 3:0.006692851 4:0.0024726233 5:0.047425874 6:0.006692851 7:0.006692851 8:0.006692851 9:0.01798621 10:0.95257413 11:0.98201376 12:0.006692851 13:0.7310586 14:0.88079709 15:0.006692851 16:0.01798621 17:0.11920292 18:0.7310586 19:0.26894143 20:0.88079709 #
-2 1:0.11920292 2:0.01798621 3:0.006692851 4:0.006692851 5:0.047425874 6:0.01798621 7:0.01798621 8:0.006692851 9:0.01798621 10:0.98201376 11:0.95257413 12:0.01798621 13:0.88079709 14:0.95257413 15:0.01798621 16:0.01798621 17:0.11920292 18:0.7310586 19:0.26894143 20:0.95257413 #
-2 1:0.047425874 2:0.01798621 3:0.0024726233 4:0.0024726233 5:0.006692851 6:0.01798621 7:0.0024726233 8:0.01798621 9:0.01798621 10:0.98201376 11:0.98201376 12:0.006692851 13:0.7310586 14:0.95257413 15:0.006692851 16:0.006692851 17:0.01798621 18:0.88079709 19:0.26894143 20:0.88079709 #
-2 1:0.11920292 2:0.00091105117 3:0.00091105117 4:0.00033535014 5:0.0024726233 6:0.0024726233 7:0.00091105117 8:0.00091105117 9:0.0024726233 10:0.98201376 11:0.88079709 12:0.00091105117 13:0.7310586 14:0.95257413 15:0.047425874 16:0.0024726233 17:0.047425874 18:0.99987662 19:0.26894143 20:0.88079709 #
1.5177661726267164254977615200914 1:0.88079709 2:0.00091105117 3:0.00091105117 4:0.00091105117 5:0.006692851 6:0.0024726233 7:0.00091105117 8:0.047425874 9:0.00091105117 10:0.7310586 11:0.99330717 12:0.0024726233 13:0.26894143 14:0.11920292 15:0.00091105117 16:0.01798621 17:0.01798621 18:0.006692851 19:0.006692851 20:0.88079709 #
2 1:0.11920292 2:0.006692851 3:0.0024726233 4:0.0024726233 5:0.01798621 6:0.006692851 7:0.006692851 8:0.006692851 9:0.0024726233 10:0.88079709 11:0.7310586 12:0.006692851 13:0.11920292 14:0.01798621 15:0.006692851 16:0.01798621 17:0.26894143 18:0.0024726233 19:0.01798621 20:0.99752736 #
2 1:0.01798621 2:0.01798621 3:0.006692851 4:0.006692851 5:0.006692851 6:0.0024726233 7:0.0024726233 8:0.00091105117 9:0.0024726233 10:0.99752736 11:0.5 12:0.01798621 13:0.26894143 14:0.99752736 15:0.00091105117 16:0.01798621 17:0.006692851 18:0.01798621 19:0.11920292 20:0.5 #
-0.77870191714904879454195452126442 1:0.11920292 2:0.0024726233 3:0.006692851 4:0.00091105117 5:0.006692851 6:0.0024726233 7:0.0024726233 8:0.0024726233 9:0.00091105117 10:0.98201376 11:0.7310586 12:0.0024726233 13:0.11920292 14:0.01798621 15:0.0024726233 16:0.01798621 17:0.26894143 18:0.0024726233 19:0.006692851 20:0.99752736 #
-0.84148258714801649205128342146054 1:0.26894143 2:0.0024726233 3:0.0024726233 4:0.0024726233 5:0.01798621 6:0.006692851 7:0.0024726233 8:0.0024726233 9:0.0024726233 10:0.88079709 11:0.7310586 12:0.006692851 13:0.047425874 14:0.01798621 15:0.0024726233 16:0.006692851 17:0.26894143 18:0.0024726233 19:0.006692851 20:0.99908894 #
-1.7757334883913458156712295021862 1:0.01798621 2:0.0024726233 3:0.0024726233 4:0.00091105117 5:0.006692851 6:0.0024726233 7:0.00091105117 8:0.00091105117 9:0.00091105117 10:0.99908894 11:0.7310586 12:0.0024726233 13:0.26894143 14:0.047425874 15:0.0024726233 16:0.006692851 17:0.5 18:0.0024726233 19:0.006692851 20:0.95257413 #
2 1:0.047425874 2:0.01798621 3:0.006692851 4:0.006692851 5:0.047425874 6:0.01798621 7:0.01798621 8:0.006692851 9:0.01798621 10:0.95257413 11:0.98201376 12:0.01798621 13:0.88079709 14:0.88079709 15:0.01798621 16:0.01798621 17:0.11920292 18:0.88079709 19:0.26894143 20:0.88079709 #
0.82797344253523896817625882249558 1:0.11920292 2:0.047425874 3:0.01798621 4:0.01798621 5:0.006692851 6:0.01798621 7:0.047425874 8:0.11920292 9:0.047425874 10:0.88079709 11:0.95257413 12:0.01798621 13:0.7310586 14:0.95257413 15:0.01798621 16:0.047425874 17:0.047425874 18:0.99752736 19:0.26894143 20:0.88079709 #
0.15654918148672836153423304494936 1:0.11920292 2:0.01798621 3:0.01798621 4:0.006692851 5:0.047425874 6:0.01798621 7:0.01798621 8:0.006692851 9:0.01798621 10:0.95257413 11:0.95257413 12:0.01798621 13:0.7310586 14:0.95257413 15:0.01798621 16:0.047425874 17:0.26894143 18:0.99752736 19:0.26894143 20:0.95257413 #
-1.5701672596375659818335179807036 1:0.047425874 2:0.006692851 3:0.0024726233 4:0.0024726233 5:0.01798621 6:0.01798621 7:0.006692851 8:0.0024726233 9:0.006692851 10:0.88079709 11:0.99330717 12:0.006692851 13:0.88079709 14:0.7310586 15:0.0024726233 16:0.01798621 17:0.047425874 18:0.99330717 19:0.047425874 20:0.7310586 #
-1.1355133245870083769091252179351 1:0.11920292 2:0.01798621 3:0.0024726233 4:0.006692851 5:0.01798621 6:0.01798621 7:0.0024726233 8:0.006692851 9:0.11920292 10:0.98201376 11:0.98201376 12:0.006692851 13:0.95257413 14:0.95257413 15:0.006692851 16:0.01798621 17:0.11920292 18:0.7310586 19:0.11920292 20:0.7310586 #
2 1:0.01798621 2:0.0024726233 3:0.0024726233 4:0.00091105117 5:0.01798621 6:0.0024726233 7:0.0024726233 8:0.00091105117 9:0.00091105117 10:0.99330717 11:0.7310586 12:0.0024726233 13:0.26894143 14:0.01798621 15:0.0024726233 16:0.006692851 17:0.7310586 18:0.0024726233 19:0.006692851 20:0.99752736 #
2 1:0.0024726233 2:0.00091105117 3:0.00012339458 4:0.00012339458 5:0.0024726233 6:0.00091105117 7:0.00033535014 8:0.00012339458 9:0.00033535014 10:0.5 11:0.99752736 12:0.00033535014 13:0.11920292 14:0.01798621 15:0.00033535014 16:0.00033535014 17:0.0024726233 18:0.00091105117 19:0.01798621 20:0.88079709 #
-1.6984255825294549691051315676305 1:0.047425874 2:0.0024726233 3:0.00091105117 4:0.00091105117 5:0.01798621 6:0.006692851 7:0.0024726233 8:0.00091105117 9:0.0024726233 10:0.7310586 11:0.99330717 12:0.0024726233 13:0.11920292 14:0.047425874 15:0.0024726233 16:0.006692851 17:0.01798621 18:0.006692851 19:0.01798621 20:0.98201376 #
-1.4605067532453934742164847193635 1:0.01798621 2:0.006692851 3:0.0024726233 4:0.00091105117 5:0.006692851 6:0.006692851 7:0.0024726233 8:0.00091105117 9:0.00091105117 10:0.88079709 11:0.98201376 12:0.0024726233 13:0.26894143 14:0.047425874 15:0.0024726233 16:0.01798621 17:0.7310586 18:0.0024726233 19:0.01798621 20:0.99330717 #
-0.15755995578782633348424724317738 1:0.047425874 2:0.0024726233 3:0.0024726233 4:0.0024726233 5:0.01798621 6:0.006692851 7:0.0024726233 8:0.0024726233 9:0.0024726233 10:0.88079709 11:0.7310586 12:0.0024726233 13:0.26894143 14:0.11920292 15:0.0024726233 16:0.006692851 17:0.047425874 18:0.0024726233 19:0.01798621 20:0.99908894 #
1.6700127919509608620529661493492 1:0.047425874 2:0.00091105117 3:0.00091105117 4:0.00033535014 5:0.0024726233 6:0.00091105117 7:0.00091105117 8:0.00091105117 9:0.00091105117 10:0.99752736 11:0.7310586 12:0.00091105117 13:0.98201376 14:0.98201376 15:0.00091105117 16:0.01798621 17:0.047425874 18:0.98201376 19:0.047425874 20:0.7310586 #
1.5822738678591634631231954699615 1:0.01798621 2:0.01798621 3:0.0024726233 4:0.0024726233 5:0.01798621 6:0.11920292 7:0.006692851 8:0.0024726233 9:0.047425874 10:0.99752736 11:0.7310586 12:0.047425874 13:0.98201376 14:0.7310586 15:0.006692851 16:0.01798621 17:0.047425874 18:0.7310586 19:0.01798621 20:0.88079709 #
0.72741166988441618990179904358229 1:0.047425874 2:0.006692851 3:0.006692851 4:0.006692851 5:0.01798621 6:0.006692851 7:0.006692851 8:0.006692851 9:0.01798621 10:0.95257413 11:0.7310586 12:0.006692851 13:0.5 14:0.99752736 15:0.006692851 16:0.01798621 17:0.01798621 18:0.98201376 19:0.5 20:0.88079709 #
-1.431034732896272476665444628452 1:0.5 2:0.006692851 3:0.006692851 4:0.0024726233 5:0.01798621 6:0.006692851 7:0.006692851 8:0.006692851 9:0.01798621 10:0.95257413 11:0.88079709 12:0.006692851 13:0.5 14:0.99752736 15:0.01798621 16:0.01798621 17:0.047425874 18:0.7310586 19:0.5 20:0.88079709 #
-2 1:0.11920292 2:0.006692851 3:0.0024726233 4:0.0024726233 5:0.006692851 6:0.006692851 7:0.0024726233 8:0.006692851 9:0.006692851 10:0.95257413 11:0.95257413 12:0.0024726233 13:0.5 14:0.99330717 15:0.006692851 16:0.006692851 17:0.01798621 18:0.99908894 19:0.7310586 20:0.7310586 #
-1.4077862666324438833953536232002 1:0.047425874 2:0.01798621 3:0.047425874 4:0.11920292 5:0.047425874 6:0.11920292 7:0.26894143 8:0.006692851 9:0.01798621 10:0.7310586 11:0.99330717 12:0.01798621 13:0.88079709 14:0.88079709 15:0.047425874 16:0.01798621 17:0.11920292 18:0.7310586 19:0.26894143 20:0.7310586 #
1.4001050215556802847061135253171 1:0.11920292 2:0.006692851 3:0.0024726233 4:0.0024726233 5:0.01798621 6:0.006692851 7:0.006692851 8:0.0024726233 9:0.0024726233 10:0.88079709 11:0.95257413 12:0.006692851 13:0.5 14:0.26894143 15:0.006692851 16:0.01798621 17:0.5 18:0.006692851 19:0.01798621 20:0.99752736 #
2 1:0.01798621 2:0.00091105117 3:0.00091105117 4:0.00091105117 5:0.006692851 6:0.0024726233 7:0.00091105117 8:0.00033535014 9:0.00091105117 10:0.99752736 11:0.5 12:0.00091105117 13:0.5 14:0.01798621 15:0.00091105117 16:0.0024726233 17:0.01798621 18:0.00091105117 19:0.006692851 20:0.99752736 #
1.9591309244371724052058425513678 1:0.047425874 2:0.0024726233 3:0.00091105117 4:0.00091105117 5:0.006692851 6:0.0024726233 7:0.0024726233 8:0.0024726233 9:0.0024726233 10:0.88079709 11:0.99330717 12:0.0024726233 13:0.11920292 14:0.5 15:0.0024726233 16:0.047425874 17:0.5 18:0.047425874 19:0.11920292 20:0.88079709 #
-2 1:0.01798621 2:0.0024726233 3:0.0024726233 4:0.0024726233 5:0.01798621 6:0.006692851 7:0.0024726233 8:0.00091105117 9:0.0024726233 10:0.99752736 11:0.5 12:0.0024726233 13:0.5 14:0.047425874 15:0.0024726233 16:0.006692851 17:0.047425874 18:0.0024726233 19:0.01798621 20:0.99330717 #
-0.092240423090851703102899250552582 1:0.006692851 2:0.00091105117 3:0.00091105117 4:0.00091105117 5:0.006692851 6:0.0024726233 7:0.00091105117 8:0.00091105117 9:0.00091105117 10:0.99966466 11:0.26894143 12:0.0024726233 13:0.5 14:0.047425874 15:0.0024726233 16:0.0024726233 17:0.01798621 18:0.0024726233 19:0.01798621 20:0.88079709 #
-0.96506645229439547151173428574111 1:0.26894143 2:0.11920292 3:0.01798621 4:0.01798621 5:0.047425874 6:0.11920292 7:0.11920292 8:0.047425874 9:0.047425874 10:0.88079709 11:0.98201376 12:0.047425874 13:0.5 14:0.26894143 15:0.11920292 16:0.11920292 17:0.5 18:0.047425874 19:0.11920292 20:0.95257413 #
2 1:0.047425874 2:0.0024726233 3:0.0024726233 4:0.0024726233 5:0.01798621 6:0.006692851 7:0.0024726233 8:0.0024726233 9:0.006692851 10:0.98201376 11:0.95257413 12:0.0024726233 13:0.5 14:0.99330717 15:0.0024726233 16:0.006692851 17:0.01798621 18:0.95257413 19:0.7310586 20:0.88079709 #
1.3703342293922067263167718920158 1:0.11920292 2:0.01798621 3:0.0024726233 4:0.006692851 5:0.006692851 6:0.01798621 7:0.006692851 8:0.11920292 9:0.047425874 10:0.95257413 11:0.88079709 12:0.006692851 13:0.5 14:0.99330717 15:0.006692851 16:0.01798621 17:0.047425874 18:0.99330717 19:0.98201376 20:0.7310586 #
0.73631885523952267380565217536059 1:0.26894143 2:0.006692851 3:0.0024726233 4:0.0024726233 5:0.006692851 6:0.006692851 7:0.0024726233 8:0.0024726233 9:0.006692851 10:0.88079709 11:0.88079709 12:0.0024726233 13:0.5 14:0.99908894 15:0.0024726233 16:0.006692851 17:0.01798621 18:0.98201376 19:0.5 20:0.88079709 #
-1.8493655522001068991500005722628 1:0.01798621 2:0.0024726233 3:0.00091105117 4:0.00033535014 5:0.0024726233 6:0.0024726233 7:0.00091105117 8:0.00091105117 9:0.006692851 10:0.95257413 11:0.98201376 12:0.0024726233 13:0.5 14:0.98201376 15:0.00091105117 16:0.0024726233 17:0.006692851 18:0.99752736 19:0.7310586 20:0.7310586 #
-2 1:0.11920292 2:0.0024726233 3:0.006692851 4:0.00091105117 5:0.01798621 6:0.006692851 7:0.006692851 8:0.00091105117 9:0.047425874 10:0.7310586 11:0.95257413 12:0.006692851 13:0.5 14:0.88079709 15:0.00091105117 16:0.047425874 17:0.047425874 18:0.99908894 19:0.99752736 20:0.7310586 #
-2 1:0.11920292 2:0.01798621 3:0.006692851 4:0.006692851 5:0.01798621 6:0.01798621 7:0.006692851 8:0.01798621 9:0.047425874 10:0.7310586 11:0.95257413 12:0.01798621 13:0.5 14:0.95257413 15:0.006692851 16:0.01798621 17:0.26894143 18:0.95257413 19:0.99330717 20:0.88079709 #
2 1:0.5 2:0.047425874 3:0.047425874 4:0.01798621 5:0.11920292 6:0.047425874 7:0.047425874 8:0.11920292 9:0.01798621 10:0.95257413 11:0.95257413 12:0.047425874 13:0.7310586 14:0.26894143 15:0.047425874 16:0.11920292 17:0.5 18:0.047425874 19:0.11920292 20:0.95257413 #
1.6828184483662953496718728274573 1:0.26894143 2:0.26894143 3:0.01798621 4:0.006692851 5:0.01798621 6:0.047425874 7:0.01798621 8:0.01798621 9:0.01798621 10:0.88079709 11:0.95257413 12:0.047425874 13:0.5 14:0.98201376 15:0.11920292 16:0.047425874 17:0.047425874 18:0.01798621 19:0.26894143 20:0.88079709 #
2 1:0.047425874 2:0.01798621 3:0.006692851 4:0.006692851 5:0.047425874 6:0.01798621 7:0.01798621 8:0.006692851 9:0.01798621 10:0.95257413 11:0.98201376 12:0.01798621 13:0.5 14:0.7310586 15:0.01798621 16:0.01798621 17:0.11920292 18:0.98201376 19:0.11920292 20:0.7310586 #
-1.9731494823288973083919017881271 1:0.5 2:0.006692851 3:0.006692851 4:0.0024726233 5:0.01798621 6:0.006692851 7:0.006692851 8:0.006692851 9:0.006692851 10:0.95257413 11:0.95257413 12:0.006692851 13:0.7310586 14:0.11920292 15:0.047425874 16:0.11920292 17:0.5 18:0.006692851 19:0.01798621 20:0.98201376 #
-2 1:0.11920292 2:0.01798621 3:0.006692851 4:0.006692851 5:0.047425874 6:0.01798621 7:0.006692851 8:0.006692851 9:0.01798621 10:0.7310586 11:0.99330717 12:0.01798621 13:0.5 14:0.7310586 15:0.006692851 16:0.01798621 17:0.047425874 18:0.98201376 19:0.11920292 20:0.7310586 #
-0.96311859424926260508925679459935 1:0.5 2:0.01798621 3:0.01798621 4:0.006692851 5:0.11920292 6:0.01798621 7:0.01798621 8:0.01798621 9:0.006692851 10:0.95257413 11:0.95257413 12:0.01798621 13:0.88079709 14:0.11920292 15:0.01798621 16:0.26894143 17:0.5 18:0.11920292 19:0.047425874 20:0.95257413 #
1.9757114385837422076974689844064 1:0.11920292 2:0.006692851 3:0.006692851 4:0.0024726233 5:0.01798621 6:0.006692851 7:0.006692851 8:0.01798621 9:0.047425874 10:0.7310586 11:0.95257413 12:0.006692851 13:0.7310586 14:0.88079709 15:0.006692851 16:0.047425874 17:0.11920292 18:0.98201376 19:0.99752736 20:0.7310586 #
1.2485233997840974318194184888853 1:0.047425874 2:0.006692851 3:0.0024726233 4:0.00091105117 5:0.01798621 6:0.006692851 7:0.0024726233 8:0.006692851 9:0.01798621 10:0.5 11:0.88079709 12:0.006692851 13:0.5 14:0.88079709 15:0.0024726233 16:0.01798621 17:0.047425874 18:0.99966466 19:0.99752736 20:0.88079709 #
1.2185974067799587583493803322199 1:0.047425874 2:0.01798621 3:0.01798621 4:0.006692851 5:0.01798621 6:0.01798621 7:0.01798621 8:0.006692851 9:0.01798621 10:0.7310586 11:0.95257413 12:0.01798621 13:0.7310586 14:0.99330717 15:0.047425874 16:0.01798621 17:0.26894143 18:0.88079709 19:0.88079709 20:0.7310586 #
-2 1:0.047425874 2:0.006692851 3:0.01798621 4:0.0024726233 5:0.006692851 6:0.047425874 7:0.006692851 8:0.0024726233 9:0.047425874 10:0.7310586 11:0.88079709 12:0.006692851 13:0.7310586 14:0.99330717 15:0.047425874 16:0.006692851 17:0.01798621 18:0.98201376 19:0.99330717 20:0.7310586 #
-1.1441678996864235173802626377437 1:0.047425874 2:0.006692851 3:0.006692851 4:0.006692851 5:0.01798621 6:0.01798621 7:0.006692851 8:0.0024726233 9:0.11920292 10:0.5 11:0.95257413 12:0.006692851 13:0.88079709 14:0.98201376 15:0.0024726233 16:0.01798621 17:0.01798621 18:0.88079709 19:0.99752736 20:0.7310586 #
-1.6265738801675380109656998683931 1:0.26894143 2:0.26894143 3:0.11920292 4:0.047425874 5:0.01798621 6:0.11920292 7:0.047425874 8:0.01798621 9:0.11920292 10:0.88079709 11:0.88079709 12:0.047425874 13:0.7310586 14:0.98201376 15:0.01798621 16:0.047425874 17:0.26894143 18:0.88079709 19:0.95257413 20:0.7310586 #
1.0727397229297686020998980893637 1:0.047425874 2:0.0024726233 3:0.00091105117 4:0.00091105117 5:0.006692851 6:0.0024726233 7:0.0024726233 8:0.0024726233 9:0.0024726233 10:0.5 11:0.99330717 12:0.0024726233 13:0.5 14:0.95257413 15:0.01798621 16:0.01798621 17:0.047425874 18:0.99908894 19:0.11920292 20:0.7310586 #
1.3373978200670926241855340776965 1:0.006692851 2:0.00091105117 3:0.00091105117 4:0.00091105117 5:0.0024726233 6:0.0024726233 7:0.00091105117 8:0.00091105117 9:0.0024726233 10:0.7310586 11:0.95257413 12:0.00091105117 13:0.5 14:0.95257413 15:0.0024726233 16:0.0024726233 17:0.01798621 18:0.99995458 19:0.047425874 20:0.88079709 #
1.0565438388911945200021591517725 1:0.01798621 2:0.006692851 3:0.0024726233 4:0.01798621 5:0.01798621 6:0.006692851 7:0.0024726233 8:0.006692851 9:0.006692851 10:0.7310586 11:0.98201376 12:0.006692851 13:0.5 14:0.95257413 15:0.0024726233 16:0.006692851 17:0.01798621 18:0.99966466 19:0.26894143 20:0.7310586 #
-2 1:0.047425874 2:0.006692851 3:0.0024726233 4:0.0024726233 5:0.01798621 6:0.006692851 7:0.01798621 8:0.0024726233 9:0.006692851 10:0.5 11:0.99330717 12:0.01798621 13:0.26894143 14:0.98201376 15:0.0024726233 16:0.006692851 17:0.11920292 18:0.98201376 19:0.26894143 20:0.88079709 #
-2 1:0.01798621 2:0.0024726233 3:0.00091105117 4:0.00091105117 5:0.006692851 6:0.01798621 7:0.006692851 8:0.006692851 9:0.0024726233 10:0.7310586 11:0.99330717 12:0.006692851 13:0.5 14:0.98201376 15:0.01798621 16:0.006692851 17:0.01798621 18:0.98201376 19:0.11920292 20:0.5 #
-1.0516369830327469969688536366448 1:0.01798621 2:0.0024726233 3:0.0024726233 4:0.0024726233 5:0.01798621 6:0.006692851 7:0.0024726233 8:0.0024726233 9:0.0024726233 10:0.99752736 11:0.88079709 12:0.0024726233 13:0.26894143 14:0.88079709 15:0.0024726233 16:0.006692851 17:0.01798621 18:0.99908894 19:0.11920292 20:0.88079709 #
0.66640636581188283926735493878368 1:0.11920292 2:0.006692851 3:0.0024726233 4:0.0024726233 5:0.01798621 6:0.006692851 7:0.006692851 8:0.006692851 9:0.01798621 10:0.88079709 11:0.95257413 12:0.006692851 13:0.88079709 14:0.95257413 15:0.0024726233 16:0.006692851 17:0.047425874 18:0.98201376 19:0.99330717 20:0.88079709 #
0.54514904353736237663241581685725 1:0.26894143 2:0.006692851 3:0.006692851 4:0.0024726233 5:0.006692851 6:0.006692851 7:0.006692851 8:0.26894143 9:0.11920292 10:0.5 11:0.88079709 12:0.006692851 13:0.11920292 14:0.88079709 15:0.0024726233 16:0.047425874 17:0.047425874 18:0.98201376 19:0.99908894 20:0.7310586 #
0.63381521226661008405756092543015 1:0.26894143 2:0.01798621 3:0.0024726233 4:0.0024726233 5:0.01798621 6:0.11920292 7:0.006692851 8:0.01798621 9:0.26894143 10:0.7310586 11:0.7310586 12:0.006692851 13:0.7310586 14:0.98201376 15:0.0024726233 16:0.047425874 17:0.01798621 18:0.95257413 19:0.99752736 20:0.7310586 #
-0.790379148675249720845670253766 1:0.11920292 2:0.006692851 3:0.006692851 4:0.01798621 5:0.01798621 6:0.006692851 7:0.01798621 8:0.047425874 9:0.006692851 10:0.99330717 11:0.5 12:0.006692851 13:0.5 14:0.047425874 15:0.006692851 16:0.047425874 17:0.88079709 18:0.006692851 19:0.01798621 20:0.99330717 #
-2 1:0.01798621 2:0.006692851 3:0.0024726233 4:0.0024726233 5:0.01798621 6:0.006692851 7:0.006692851 8:0.0024726233 9:0.047425874 10:0.88079709 11:0.88079709 12:0.006692851 13:0.26894143 14:0.99752736 15:0.0024726233 16:0.006692851 17:0.047425874 18:0.95257413 19:0.99330717 20:0.5 #
-1.0519503236632328224686716566794 1:0.99752736 2:0.0024726233 3:0.0024726233 4:0.0024726233 5:0.006692851 6:0.006692851 7:0.0024726233 8:0.006692851 9:0.0024726233 10:0.98201376 11:0.7310586 12:0.006692851 13:0.26894143 14:0.01798621 15:0.006692851 16:0.01798621 17:0.01798621 18:0.0024726233 19:0.047425874 20:0.7310586 #
2 1:0.01798621 2:0.006692851 3:0.0024726233 4:0.0024726233 5:0.01798621 6:0.006692851 7:0.0024726233 8:0.0024726233 9:0.006692851 10:0.98201376 11:0.99330717 12:0.006692851 13:0.5 14:0.95257413 15:0.0024726233 16:0.006692851 17:0.01798621 18:0.95257413 19:0.26894143 20:0.5 #
1.8161113320725421615975392342079 1:0.11920292 2:0.0024726233 3:0.00091105117 4:0.0024726233 5:0.047425874 6:0.0024726233 7:0.00091105117 8:0.00091105117 9:0.047425874 10:0.7310586 11:0.99330717 12:0.01798621 13:0.11920292 14:0.95257413 15:0.006692851 16:0.01798621 17:0.11920292 18:0.98201376 19:0.01798621 20:0.88079709 #
1.6066878019852199876993381622015 1:0.11920292 2:0.01798621 3:0.01798621 4:0.01798621 5:0.047425874 6:0.11920292 7:0.01798621 8:0.047425874 9:0.01798621 10:0.95257413 11:0.88079709 12:0.01798621 13:0.26894143 14:0.7310586 15:0.01798621 16:0.047425874 17:0.11920292 18:0.98201376 19:0.11920292 20:0.98201376 #
-2 1:0.006692851 2:0.0024726233 3:0.0024726233 4:0.00091105117 5:0.006692851 6:0.0024726233 7:0.0024726233 8:0.00091105117 9:0.0024726233 10:0.95257413 11:0.99330717 12:0.0024726233 13:0.26894143 14:0.88079709 15:0.00091105117 16:0.0024726233 17:0.01798621 18:0.88079709 19:0.11920292 20:0.88079709 #
