SVM-light Version V6.02
2 # kernel type
3 # kernel parameter -d 
10 # kernel parameter -g 
1 # kernel parameter -s 
1 # kernel parameter -r 
empty# kernel parameter -u 
20 # highest feature index 
14658 # number of training documents 
13996 # number of support vectors plus 1 
0.82248465 # threshold b, each following line is a SV (starting with alpha*y)
-0.15605906765144444969806158951542 1:0.047425874 2:0.01798621 3:0.01798621 4:0.006692851 5:0.047425874 6:0.047425874 7:0.01798621 8:0.006692851 9:0.01798621 10:0.26894143 11:0.5 12:0.047425874 13:0.99995458 14:0.11920292 15:0.006692851 16:0.01798621 17:0.047425874 18:0.01798621 19:0.047425874 20:0.7310586 #
-0.16974240975003584974700743259746 1:0.7310586 2:0.26894143 3:0.7310586 4:0.26894143 5:0.11920292 6:0.7310586 7:0.5 8:0.11920292 9:0.5 10:0.11920292 11:0.26894143 12:0.7310586 13:0.5 14:0.11920292 15:0.11920292 16:0.95257413 17:0.88079709 18:0.047425874 19:0.5 20:0.11920292 #
-0.220522670374776574853115107544 1:0.26894143 2:0.5 3:0.11920292 4:0.047425874 5:0.047425874 6:0.11920292 7:0.26894143 8:0.01798621 9:0.99330717 10:0.5 11:0.11920292 12:0.26894143 13:0.11920292 14:0.88079709 15:0.01798621 16:0.11920292 17:0.5 18:0.98201376 19:0.99752736 20:0.11920292 #
-0.14380735103989381040712203230214 1:0.047425874 2:0.047425874 3:0.01798621 4:0.01798621 5:0.5 6:0.26894143 7:0.11920292 8:0.006692851 9:0.01798621 10:0.7310586 11:0.98201376 12:0.047425874 13:0.99752736 14:0.26894143 15:0.01798621 16:0.11920292 17:0.11920292 18:0.047425874 19:0.26894143 20:0.5 #
-0.17690863693307459780790225067904 1:0.11920292 2:0.5 3:0.95257413 4:0.26894143 5:0.01798621 6:0.7310586 7:0.5 8:0.11920292 9:0.88079709 10:0.26894143 11:0.047425874 12:0.95257413 13:0.7310586 14:0.26894143 15:0.5 16:0.5 17:0.5 18:0.5 19:0.11920292 20:0.11920292 #
0.50000059384987294297530979747535 1:0.11920292 2:0.01798621 3:0.99330717 4:0.11920292 5:0.0024726233 6:0.01798621 7:0.01798621 8:0.006692851 9:0.047425874 10:0.006692851 11:0.0024726233 12:0.01798621 13:0.006692851 14:0.00091105117 15:0.99752736 16:0.5 17:0.98201376 18:0.00091105117 19:0.0024726233 20:0.006692851 #
0.50000059384987294297530979747535 1:0.99908894 2:0.006692851 3:0.006692851 4:0.0024726233 5:0.01798621 6:0.006692851 7:0.006692851 8:0.047425874 9:0.0024726233 10:0.01798621 11:0.006692851 12:0.006692851 13:0.5 14:0.0024726233 15:0.006692851 16:0.5 17:0.11920292 18:0.00091105117 19:0.0024726233 20:0.5 #
0.50000059384987294297530979747535 1:0.95257413 2:0.006692851 3:0.006692851 4:0.006692851 5:0.01798621 6:0.01798621 7:0.006692851 8:0.95257413 9:0.006692851 10:0.11920292 11:0.95257413 12:0.01798621 13:0.7310586 14:0.95257413 15:0.006692851 16:0.047425874 17:0.047425874 18:0.01798621 19:0.047425874 20:0.11920292 #
0.50000059384987294297530979747535 1:0.01798621 2:0.047425874 3:0.0024726233 4:0.0024726233 5:0.006692851 6:0.01798621 7:0.0024726233 8:0.0024726233 9:0.01798621 10:0.5 11:0.98201376 12:0.006692851 13:0.98201376 14:0.99330717 15:0.0024726233 16:0.01798621 17:0.26894143 18:0.88079709 19:0.5 20:0.11920292 #
0.50000059384987294297530979747535 1:0.11920292 2:0.006692851 3:0.006692851 4:0.0024726233 5:0.01798621 6:0.006692851 7:0.006692851 8:0.0024726233 9:0.006692851 10:0.7310586 11:0.99330717 12:0.006692851 13:0.95257413 14:0.5 15:0.006692851 16:0.26894143 17:0.5 18:0.006692851 19:0.01798621 20:0.88079709 #
-0.18895432007901905024915834019339 1:0.11920292 2:0.11920292 3:0.01798621 4:0.006692851 5:0.047425874 6:0.047425874 7:0.01798621 8:0.01798621 9:0.01798621 10:0.88079709 11:0.98201376 12:0.11920292 13:0.95257413 14:0.5 15:0.11920292 16:0.11920292 17:0.7310586 18:0.01798621 19:0.047425874 20:0.7310586 #
-0.37926479444240179805802881674026 1:0.99752736 2:0.11920292 3:0.11920292 4:0.01798621 5:0.047425874 6:0.11920292 7:0.047425874 8:0.047425874 9:0.01798621 10:0.047425874 11:0.11920292 12:0.11920292 13:0.5 14:0.01798621 15:0.11920292 16:0.26894143 17:0.11920292 18:0.01798621 19:0.01798621 20:0.26894143 #
-0.19811359132523057025032642286533 1:0.11920292 2:0.01798621 3:0.047425874 4:0.047425874 5:0.047425874 6:0.047425874 7:0.01798621 8:0.006692851 9:0.01798621 10:0.98201376 11:0.95257413 12:0.01798621 13:0.95257413 14:0.7310586 15:0.01798621 16:0.11920292 17:0.5 18:0.26894143 19:0.11920292 20:0.88079709 #
0.50000059384987294297530979747535 1:0.26894143 2:0.7310586 3:0.11920292 4:0.047425874 5:0.047425874 6:0.11920292 7:0.11920292 8:0.047425874 9:0.98201376 10:0.26894143 11:0.11920292 12:0.11920292 13:0.11920292 14:0.95257413 15:0.047425874 16:0.26894143 17:0.11920292 18:0.88079709 19:0.99752736 20:0.11920292 #
0.50000059384987294297530979747535 1:0.006692851 2:0.01798621 3:0.00091105117 4:0.00091105117 5:0.006692851 6:0.01798621 7:0.0024726233 8:0.00091105117 9:0.00091105117 10:0.5 11:0.99752736 12:0.01798621 13:0.99330717 14:0.11920292 15:0.00091105117 16:0.01798621 17:0.047425874 18:0.0024726233 19:0.006692851 20:0.5 #
0.50000059384987294297530979747535 1:0.047425874 2:0.11920292 3:0.01798621 4:0.0024726233 5:0.01798621 6:0.047425874 7:0.006692851 8:0.01798621 9:0.006692851 10:0.5 11:0.95257413 12:0.01798621 13:0.99987662 14:0.11920292 15:0.006692851 16:0.01798621 17:0.11920292 18:0.01798621 19:0.11920292 20:0.26894143 #
-0.50000059384987294297530979747535 1:0.047425874 2:0.01798621 3:0.006692851 4:0.0024726233 5:0.01798621 6:0.047425874 7:0.01798621 8:0.006692851 9:0.01798621 10:0.5 11:0.88079709 12:0.01798621 13:0.99995458 14:0.11920292 15:0.006692851 16:0.01798621 17:0.047425874 18:0.01798621 19:0.047425874 20:0.26894143 #
-0.50000059384987294297530979747535 1:0.01798621 2:0.01798621 3:0.0024726233 4:0.00091105117 5:0.006692851 6:0.01798621 7:0.006692851 8:0.00091105117 9:0.0024726233 10:0.7310586 11:0.99330717 12:0.006692851 13:0.99966466 14:0.11920292 15:0.0024726233 16:0.006692851 17:0.01798621 18:0.006692851 19:0.006692851 20:0.5 #
-0.13587987428342790385826788224222 1:0.11920292 2:0.047425874 3:0.047425874 4:0.01798621 5:0.047425874 6:0.11920292 7:0.047425874 8:0.01798621 9:0.047425874 10:0.5 11:0.88079709 12:0.047425874 13:0.99987662 14:0.26894143 15:0.01798621 16:0.047425874 17:0.11920292 18:0.047425874 19:0.11920292 20:0.5 #
0.50000059384987294297530979747535 1:0.26894143 2:0.047425874 3:0.01798621 4:0.01798621 5:0.047425874 6:0.047425874 7:0.01798621 8:0.11920292 9:0.01798621 10:0.88079709 11:0.95257413 12:0.047425874 13:0.95257413 14:0.95257413 15:0.01798621 16:0.047425874 17:0.5 18:0.11920292 19:0.26894143 20:0.88079709 #
0.50000059384987294297530979747535 1:0.26894143 2:0.11920292 3:0.006692851 4:0.006692851 5:0.01798621 6:0.006692851 7:0.006692851 8:0.11920292 9:0.006692851 10:0.7310586 11:0.98201376 12:0.047425874 13:0.7310586 14:0.7310586 15:0.11920292 16:0.01798621 17:0.7310586 18:0.006692851 19:0.11920292 20:0.88079709 #
0.50000059384987294297530979747535 1:0.5 2:0.006692851 3:0.006692851 4:0.006692851 5:0.01798621 6:0.01798621 7:0.006692851 8:0.006692851 9:0.006692851 10:0.88079709 11:0.95257413 12:0.006692851 13:0.88079709 14:0.88079709 15:0.006692851 16:0.11920292 17:0.26894143 18:0.26894143 19:0.11920292 20:0.98201376 #
-0.50000059384987294297530979747535 1:0.5 2:0.047425874 3:0.047425874 4:0.01798621 5:0.11920292 6:0.11920292 7:0.047425874 8:0.047425874 9:0.047425874 10:0.7310586 11:0.95257413 12:0.047425874 13:0.98201376 14:0.95257413 15:0.047425874 16:0.11920292 17:0.5 18:0.11920292 19:0.26894143 20:0.88079709 #
-0.50000059384987294297530979747535 1:0.5 2:0.01798621 3:0.01798621 4:0.01798621 5:0.01798621 6:0.01798621 7:0.006692851 8:0.26894143 9:0.047425874 10:0.88079709 11:0.95257413 12:0.01798621 13:0.7310586 14:0.98201376 15:0.006692851 16:0.047425874 17:0.5 18:0.26894143 19:0.11920292 20:0.95257413 #
-0.50000059384987294297530979747535 1:0.5 2:0.047425874 3:0.047425874 4:0.01798621 5:0.11920292 6:0.11920292 7:0.11920292 8:0.01798621 9:0.047425874 10:0.88079709 11:0.95257413 12:0.047425874 13:0.88079709 14:0.7310586 15:0.047425874 16:0.11920292 17:0.26894143 18:0.11920292 19:0.26894143 20:0.7310586 #
0.50000059384987294297530979747535 1:0.047425874 2:0.0024726233 3:0.0024726233 4:0.00091105117 5:0.006692851 6:0.0024726233 7:0.00091105117 8:0.006692851 9:0.00091105117 10:0.7310586 11:0.99752736 12:0.0024726233 13:0.98201376 14:0.047425874 15:0.00091105117 16:0.047425874 17:0.01798621 18:0.0024726233 19:0.006692851 20:0.5 #
0.50000059384987294297530979747535 1:0.01798621 2:0.006692851 3:0.0024726233 4:0.00091105117 5:0.01798621 6:0.006692851 7:0.0024726233 8:0.00091105117 9:0.0024726233 10:0.95257413 11:0.99752736 12:0.0024726233 13:0.7310586 14:0.11920292 15:0.0024726233 16:0.0024726233 17:0.01798621 18:0.01798621 19:0.01798621 20:0.5 #
0.50000059384987294297530979747535 1:0.26894143 2:0.01798621 3:0.0024726233 4:0.0024726233 5:0.006692851 6:0.01798621 7:0.006692851 8:0.006692851 9:0.0024726233 10:0.88079709 11:0.99330717 12:0.006692851 13:0.98201376 14:0.11920292 15:0.01798621 16:0.26894143 17:0.11920292 18:0.006692851 19:0.01798621 20:0.5 #
-0.11231469724301829105073124992487 1:0.01798621 2:0.01798621 3:0.047425874 4:0.0024726233 5:0.006692851 6:0.006692851 7:0.0024726233 8:0.006692851 9:0.0024726233 10:0.95257413 11:0.99752736 12:0.047425874 13:0.7310586 14:0.047425874 15:0.0024726233 16:0.01798621 17:0.047425874 18:0.006692851 19:0.01798621 20:0.5 #
-0.26760974089298789069246709004801 1:0.11920292 2:0.01798621 3:0.01798621 4:0.047425874 5:0.006692851 6:0.006692851 7:0.0024726233 8:0.01798621 9:0.0024726233 10:0.88079709 11:0.99330717 12:0.01798621 13:0.95257413 14:0.11920292 15:0.0024726233 16:0.047425874 17:0.11920292 18:0.11920292 19:0.01798621 20:0.5 #
-0.026878386197939078960938985574103 1:0.26894143 2:0.11920292 3:0.047425874 4:0.01798621 5:0.11920292 6:0.26894143 7:0.11920292 8:0.047425874 9:0.11920292 10:0.7310586 11:0.88079709 12:0.11920292 13:0.99908894 14:0.5 15:0.047425874 16:0.11920292 17:0.26894143 18:0.11920292 19:0.26894143 20:0.5 #
0.20687721244170773071680002885842 1:0.7310586 2:0.0024726233 3:0.0024726233 4:0.0024726233 5:0.006692851 6:0.0024726233 7:0.0024726233 8:0.11920292 9:0.0024726233 10:0.88079709 11:0.88079709 12:0.0024726233 13:0.88079709 14:0.98201376 15:0.01798621 16:0.01798621 17:0.26894143 18:0.26894143 19:0.047425874 20:0.95257413 #
-0.17714918848967298181662499700906 1:0.047425874 2:0.047425874 3:0.5 4:0.11920292 5:0.006692851 6:0.11920292 7:0.11920292 8:0.11920292 9:0.7310586 10:0.26894143 11:0.11920292 12:0.7310586 13:0.26894143 14:0.26894143 15:0.99752736 16:0.11920292 17:0.047425874 18:0.047425874 19:0.7310586 20:0.11920292 #
0.50000059384987294297530979747535 1:0.5 2:0.01798621 3:0.01798621 4:0.11920292 5:0.047425874 6:0.047425874 7:0.11920292 8:0.11920292 9:0.01798621 10:0.7310586 11:0.95257413 12:0.01798621 13:0.88079709 14:0.95257413 15:0.01798621 16:0.11920292 17:0.5 18:0.047425874 19:0.5 20:0.88079709 #
-0.50000059384987294297530979747535 1:0.5 2:0.01798621 3:0.006692851 4:0.006692851 5:0.047425874 6:0.01798621 7:0.01798621 8:0.006692851 9:0.006692851 10:0.88079709 11:0.98201376 12:0.01798621 13:0.7310586 14:0.5 15:0.01798621 16:0.01798621 17:0.11920292 18:0.01798621 19:0.11920292 20:0.95257413 #
-0.24752186310267643154503502955777 1:0.11920292 2:0.01798621 3:0.01798621 4:0.006692851 5:0.01798621 6:0.047425874 7:0.006692851 8:0.006692851 9:0.006692851 10:0.98201376 11:0.88079709 12:0.047425874 13:0.88079709 14:0.88079709 15:0.047425874 16:0.047425874 17:0.5 18:0.01798621 19:0.5 20:0.95257413 #
-0.50000059384987294297530979747535 1:0.5 2:0.047425874 3:0.047425874 4:0.01798621 5:0.11920292 6:0.047425874 7:0.047425874 8:0.047425874 9:0.047425874 10:0.98201376 11:0.88079709 12:0.047425874 13:0.7310586 14:0.5 15:0.047425874 16:0.11920292 17:0.26894143 18:0.047425874 19:0.26894143 20:0.88079709 #
0.50000059384987294297530979747535 1:0.047425874 2:0.0024726233 3:0.00091105117 4:0.00091105117 5:0.006692851 6:0.0024726233 7:0.0024726233 8:0.00091105117 9:0.0024726233 10:0.98201376 11:0.98201376 12:0.0024726233 13:0.99752736 14:0.5 15:0.0024726233 16:0.0024726233 17:0.01798621 18:0.006692851 19:0.006692851 20:0.7310586 #
0.50000059384987294297530979747535 1:0.0024726233 2:0.00091105117 3:0.00033535014 4:0.00033535014 5:0.0024726233 6:0.0024726233 7:0.00091105117 8:0.00033535014 9:0.00091105117 10:0.95257413 11:0.99752736 12:0.00091105117 13:0.99330717 14:0.26894143 15:0.00091105117 16:0.00091105117 17:0.006692851 18:0.0024726233 19:0.006692851 20:0.11920292 #
0.50000059384987294297530979747535 1:0.11920292 2:0.01798621 3:0.11920292 4:0.0024726233 5:0.01798621 6:0.006692851 7:0.006692851 8:0.01798621 9:0.01798621 10:0.98201376 11:0.98201376 12:0.047425874 13:0.88079709 14:0.26894143 15:0.11920292 16:0.01798621 17:0.047425874 18:0.006692851 19:0.047425874 20:0.88079709 #
-0.29052523483140646476385882124305 1:0.047425874 2:0.0024726233 3:0.006692851 4:0.00091105117 5:0.006692851 6:0.006692851 7:0.0024726233 8:0.00091105117 9:0.0024726233 10:0.95257413 11:0.99330717 12:0.0024726233 13:0.98201376 14:0.26894143 15:0.0024726233 16:0.006692851 17:0.01798621 18:0.01798621 19:0.01798621 20:0.88079709 #
-0.50000059384987294297530979747535 1:0.047425874 2:0.0024726233 3:0.0024726233 4:0.00091105117 5:0.01798621 6:0.006692851 7:0.0024726233 8:0.00091105117 9:0.0024726233 10:0.95257413 11:0.99330717 12:0.0024726233 13:0.88079709 14:0.5 15:0.0024726233 16:0.006692851 17:0.01798621 18:0.006692851 19:0.01798621 20:0.95257413 #
-0.50000059384987294297530979747535 1:0.047425874 2:0.006692851 3:0.0024726233 4:0.0024726233 5:0.01798621 6:0.006692851 7:0.0024726233 8:0.0024726233 9:0.0024726233 10:0.98201376 11:0.98201376 12:0.006692851 13:0.88079709 14:0.5 15:0.01798621 16:0.01798621 17:0.11920292 18:0.006692851 19:0.01798621 20:0.95257413 #
0.50000059384987294297530979747535 1:0.7310586 2:0.01798621 3:0.01798621 4:0.01798621 5:0.11920292 6:0.047425874 7:0.047425874 8:0.11920292 9:0.01798621 10:0.95257413 11:0.88079709 12:0.047425874 13:0.7310586 14:0.5 15:0.047425874 16:0.11920292 17:0.26894143 18:0.047425874 19:0.26894143 20:0.98201376 #
0.50000059384987294297530979747535 1:0.5 2:0.01798621 3:0.01798621 4:0.006692851 5:0.047425874 6:0.047425874 7:0.01798621 8:0.01798621 9:0.01798621 10:0.88079709 11:0.98201376 12:0.01798621 13:0.98201376 14:0.5 15:0.01798621 16:0.11920292 17:0.26894143 18:0.047425874 19:0.11920292 20:0.88079709 #
0.3890073948690138672112937001657 1:0.7310586 2:0.006692851 3:0.006692851 4:0.0024726233 5:0.047425874 6:0.006692851 7:0.006692851 8:0.01798621 9:0.006692851 10:0.98201376 11:0.95257413 12:0.006692851 13:0.5 14:0.5 15:0.006692851 16:0.047425874 17:0.11920292 18:0.01798621 19:0.047425874 20:0.95257413 #
-0.50000059384987294297530979747535 1:0.88079709 2:0.006692851 3:0.0024726233 4:0.0024726233 5:0.01798621 6:0.006692851 7:0.006692851 8:0.0024726233 9:0.0024726233 10:0.95257413 11:0.98201376 12:0.006692851 13:0.5 14:0.7310586 15:0.006692851 16:0.01798621 17:0.047425874 18:0.006692851 19:0.01798621 20:0.95257413 #
-0.22896014564731184681711795292358 1:0.0024726233 2:0.0024726233 3:0.00091105117 4:0.00033535014 5:0.0024726233 6:0.006692851 7:0.00091105117 8:0.00033535014 9:0.00091105117 10:0.98201376 11:0.88079709 12:0.0024726233 13:0.99995458 14:0.01798621 15:0.00091105117 16:0.0024726233 17:0.006692851 18:0.0024726233 19:0.0024726233 20:0.047425874 #
-0.17591072169505159172864239280898 1:0.5 2:0.5 3:0.26894143 4:0.26894143 5:0.11920292 6:0.26894143 7:0.88079709 8:0.26894143 9:0.11920292 10:0.5 11:0.5 12:0.5 13:0.7310586 14:0.11920292 15:0.11920292 16:0.5 17:0.95257413 18:0.047425874 19:0.11920292 20:0.26894143 #
0.50000059384987294297530979747535 1:0.11920292 2:0.0024726233 3:0.00091105117 4:0.00091105117 5:0.006692851 6:0.0024726233 7:0.006692851 8:0.00091105117 9:0.00091105117 10:0.95257413 11:0.99330717 12:0.0024726233 13:0.7310586 14:0.5 15:0.01798621 16:0.006692851 17:0.11920292 18:0.047425874 19:0.006692851 20:0.95257413 #
0.50000059384987294297530979747535 1:0.11920292 2:0.006692851 3:0.0024726233 4:0.0024726233 5:0.01798621 6:0.006692851 7:0.0024726233 8:0.006692851 9:0.0024726233 10:0.98201376 11:0.99330717 12:0.006692851 13:0.88079709 14:0.5 15:0.01798621 16:0.006692851 17:0.01798621 18:0.11920292 19:0.01798621 20:0.88079709 #
0.50000059384987294297530979747535 1:0.26894143 2:0.01798621 3:0.006692851 4:0.006692851 5:0.047425874 6:0.01798621 7:0.006692851 8:0.006692851 9:0.006692851 10:0.95257413 11:0.99330717 12:0.01798621 13:0.7310586 14:0.5 15:0.01798621 16:0.01798621 17:0.11920292 18:0.01798621 19:0.047425874 20:0.88079709 #
-0.50000059384987294297530979747535 1:0.26894143 2:0.006692851 3:0.0024726233 4:0.0024726233 5:0.01798621 6:0.11920292 7:0.006692851 8:0.0024726233 9:0.006692851 10:0.95257413 11:0.99330717 12:0.006692851 13:0.7310586 14:0.5 15:0.11920292 16:0.006692851 17:0.047425874 18:0.11920292 19:0.11920292 20:0.88079709 #
-0.50000059384987294297530979747535 1:0.26894143 2:0.01798621 3:0.11920292 4:0.01798621 5:0.047425874 6:0.047425874 7:0.01798621 8:0.01798621 9:0.01798621 10:0.95257413 11:0.98201376 12:0.01798621 13:0.95257413 14:0.5 15:0.047425874 16:0.11920292 17:0.11920292 18:0.047425874 19:0.11920292 20:0.88079709 #
-0.50000059384987294297530979747535 1:0.11920292 2:0.006692851 3:0.0024726233 4:0.0024726233 5:0.01798621 6:0.006692851 7:0.0024726233 8:0.0024726233 9:0.0024726233 10:0.98201376 11:0.95257413 12:0.006692851 13:0.7310586 14:0.5 15:0.01798621 16:0.006692851 17:0.11920292 18:0.047425874 19:0.11920292 20:0.98201376 #
0.073214114581574341045211440359708 1:0.88079709 2:0.006692851 3:0.006692851 4:0.0024726233 5:0.01798621 6:0.01798621 7:0.006692851 8:0.047425874 9:0.006692851 10:0.88079709 11:0.98201376 12:0.006692851 13:0.5 14:0.88079709 15:0.006692851 16:0.11920292 17:0.11920292 18:0.006692851 19:0.01798621 20:0.95257413 #
0.50000059384987294297530979747535 1:0.006692851 2:0.00091105117 3:0.00033535014 4:0.00033535014 5:0.0024726233 6:0.00091105117 7:0.00091105117 8:0.00033535014 9:0.00091105117 10:0.99752736 11:0.98201376 12:0.00091105117 13:0.99752736 14:0.047425874 15:0.00091105117 16:0.00091105117 17:0.006692851 18:0.00091105117 19:0.006692851 20:0.88079709 #
0.33698837377132834225434976360702 1:0.5 2:0.006692851 3:0.0024726233 4:0.0024726233 5:0.01798621 6:0.006692851 7:0.0024726233 8:0.006692851 9:0.006692851 10:0.98201376 11:0.98201376 12:0.006692851 13:0.5 14:0.98201376 15:0.0024726233 16:0.01798621 17:0.047425874 18:0.047425874 19:0.26894143 20:0.7310586 #
-0.50000059384987294297530979747535 1:0.88079709 2:0.006692851 3:0.01798621 4:0.006692851 5:0.047425874 6:0.01798621 7:0.006692851 8:0.11920292 9:0.006692851 10:0.95257413 11:0.7310586 12:0.01798621 13:0.5 14:0.95257413 15:0.006692851 16:0.047425874 17:0.11920292 18:0.01798621 19:0.11920292 20:0.98201376 #
-0.38386422941093167882087300313287 1:0.047425874 2:0.006692851 3:0.047425874 4:0.0024726233 5:0.01798621 6:0.01798621 7:0.0024726233 8:0.0024726233 9:0.006692851 10:0.98201376 11:0.95257413 12:0.006692851 13:0.99330717 14:0.047425874 15:0.0024726233 16:0.01798621 17:0.047425874 18:0.01798621 19:0.047425874 20:0.98201376 #
-0.50000059384987294297530979747535 1:0.047425874 2:0.0024726233 3:0.00091105117 4:0.00091105117 5:0.006692851 6:0.01798621 7:0.0024726233 8:0.006692851 9:0.00091105117 10:0.95257413 11:0.95257413 12:0.0024726233 13:0.98201376 14:0.047425874 15:0.0024726233 16:0.0024726233 17:0.047425874 18:0.0024726233 19:0.006692851 20:0.99330717 #
0.50000059384987294297530979747535 1:0.047425874 2:0.0024726233 3:0.0024726233 4:0.00091105117 5:0.01798621 6:0.26894143 7:0.0024726233 8:0.00091105117 9:0.0024726233 10:0.99330717 11:0.95257413 12:0.0024726233 13:0.7310586 14:0.5 15:0.0024726233 16:0.006692851 17:0.01798621 18:0.11920292 19:0.047425874 20:0.99330717 #
0.50000059384987294297530979747535 1:0.01798621 2:0.0024726233 3:0.0024726233 4:0.0024726233 5:0.01798621 6:0.0024726233 7:0.0024726233 8:0.00091105117 9:0.0024726233 10:0.99330717 11:0.88079709 12:0.0024726233 13:0.95257413 14:0.7310586 15:0.0024726233 16:0.006692851 17:0.047425874 18:0.006692851 19:0.01798621 20:0.98201376 #
0.50000059384987294297530979747535 1:0.26894143 2:0.0024726233 3:0.0024726233 4:0.0024726233 5:0.047425874 6:0.006692851 7:0.0024726233 8:0.0024726233 9:0.0024726233 10:0.99330717 11:0.95257413 12:0.006692851 13:0.7310586 14:0.7310586 15:0.0024726233 16:0.01798621 17:0.047425874 18:0.006692851 19:0.26894143 20:0.98201376 #
-0.50000059384987294297530979747535 1:0.01798621 2:0.0024726233 3:0.0024726233 4:0.0024726233 5:0.01798621 6:0.0024726233 7:0.0024726233 8:0.00091105117 9:0.0024726233 10:0.99908894 11:0.88079709 12:0.0024726233 13:0.88079709 14:0.7310586 15:0.0024726233 16:0.006692851 17:0.01798621 18:0.006692851 19:0.11920292 20:0.7310586 #
-0.50000059384987294297530979747535 1:0.01798621 2:0.006692851 3:0.0024726233 4:0.0024726233 5:0.01798621 6:0.006692851 7:0.006692851 8:0.0024726233 9:0.006692851 10:0.98201376 11:0.99330717 12:0.006692851 13:0.7310586 14:0.88079709 15:0.006692851 16:0.006692851 17:0.01798621 18:0.01798621 19:0.047425874 20:0.88079709 #
-0.50000059384987294297530979747535 1:0.047425874 2:0.01798621 3:0.006692851 4:0.0024726233 5:0.01798621 6:0.006692851 7:0.0024726233 8:0.0024726233 9:0.006692851 10:0.98201376 11:0.88079709 12:0.006692851 13:0.99752736 14:0.98201376 15:0.0024726233 16:0.006692851 17:0.01798621 18:0.01798621 19:0.047425874 20:0.88079709 #
0.50000059384987294297530979747535 1:0.11920292 2:0.006692851 3:0.0024726233 4:0.0024726233 5:0.01798621 6:0.006692851 7:0.0024726233 8:0.047425874 9:0.0024726233 10:0.95257413 11:0.98201376 12:0.006692851 13:0.95257413 14:0.11920292 15:0.0024726233 16:0.006692851 17:0.01798621 18:0.01798621 19:0.01798621 20:0.98201376 #
0.50000059384987294297530979747535 1:0.047425874 2:0.0024726233 3:0.0024726233 4:0.00091105117 5:0.01798621 6:0.006692851 7:0.0024726233 8:0.00091105117 9:0.0024726233 10:0.98201376 11:0.99330717 12:0.0024726233 13:0.88079709 14:0.11920292 15:0.0024726233 16:0.006692851 17:0.01798621 18:0.006692851 19:0.01798621 20:0.95257413 #
0.50000059384987294297530979747535 1:0.26894143 2:0.006692851 3:0.0024726233 4:0.0024726233 5:0.01798621 6:0.006692851 7:0.0024726233 8:0.0024726233 9:0.0024726233 10:0.98201376 11:0.88079709 12:0.006692851 13:0.98201376 14:0.11920292 15:0.006692851 16:0.006692851 17:0.047425874 18:0.006692851 19:0.01798621 20:0.99330717 #
-0.50000059384987294297530979747535 1:0.26894143 2:0.006692851 3:0.0024726233 4:0.0024726233 5:0.01798621 6:0.01798621 7:0.006692851 8:0.0024726233 9:0.0024726233 10:0.98201376 11:0.88079709 12:0.006692851 13:0.98201376 14:0.047425874 15:0.006692851 16:0.01798621 17:0.11920292 18:0.006692851 19:0.01798621 20:0.99330717 #
-0.13347182517394548528777420415281 1:0.88079709 2:0.7310586 3:0.5 4:0.95257413 5:0.01798621 6:0.88079709 7:0.7310586 8:0.5 9:0.26894143 10:0.047425874 11:0.047425874 12:0.26894143 13:0.047425874 14:0.006692851 15:0.7310586 16:0.7310586 17:0.7310586 18:0.01798621 19:0.01798621 20:0.11920292 #
-0.50000059384987294297530979747535 1:0.26894143 2:0.0024726233 3:0.0024726233 4:0.00091105117 5:0.01798621 6:0.0024726233 7:0.0024726233 8:0.0024726233 9:0.0024726233 10:0.98201376 11:0.88079709 12:0.0024726233 13:0.7310586 14:0.047425874 15:0.0024726233 16:0.006692851 17:0.01798621 18:0.0024726233 19:0.006692851 20:0.99752736 #
0.50000059384987294297530979747535 1:0.047425874 2:0.006692851 3:0.006692851 4:0.006692851 5:0.01798621 6:0.01798621 7:0.006692851 8:0.01798621 9:0.006692851 10:0.95257413 11:0.99330717 12:0.006692851 13:0.7310586 14:0.95257413 15:0.006692851 16:0.01798621 17:0.047425874 18:0.01798621 19:0.047425874 20:0.88079709 #
0.50000059384987294297530979747535 1:0.01798621 2:0.006692851 3:0.0024726233 4:0.0024726233 5:0.01798621 6:0.006692851 7:0.0024726233 8:0.0024726233 9:0.0024726233 10:0.98201376 11:0.98201376 12:0.006692851 13:0.95257413 14:0.88079709 15:0.0024726233 16:0.006692851 17:0.01798621 18:0.01798621 19:0.047425874 20:0.95257413 #
0.50000059384987294297530979747535 1:0.047425874 2:0.006692851 3:0.0024726233 4:0.0024726233 5:0.01798621 6:0.006692851 7:0.0024726233 8:0.0024726233 9:0.0024726233 10:0.95257413 11:0.98201376 12:0.006692851 13:0.7310586 14:0.88079709 15:0.0024726233 16:0.006692851 17:0.01798621 18:0.006692851 19:0.047425874 20:0.95257413 #
-0.50000059384987294297530979747535 1:0.01798621 2:0.006692851 3:0.0024726233 4:0.0024726233 5:0.01798621 6:0.006692851 7:0.0024726233 8:0.0024726233 9:0.006692851 10:0.98201376 11:0.98201376 12:0.006692851 13:0.7310586 14:0.95257413 15:0.0024726233 16:0.006692851 17:0.01798621 18:0.01798621 19:0.11920292 20:0.95257413 #
-0.50000059384987294297530979747535 1:0.11920292 2:0.006692851 3:0.0024726233 4:0.0024726233 5:0.01798621 6:0.006692851 7:0.0024726233 8:0.0024726233 9:0.006692851 10:0.88079709 11:0.99330717 12:0.006692851 13:0.7310586 14:0.95257413 15:0.006692851 16:0.006692851 17:0.01798621 18:0.11920292 19:0.047425874 20:0.95257413 #
-0.50000059384987294297530979747535 1:0.01798621 2:0.006692851 3:0.0024726233 4:0.0024726233 5:0.01798621 6:0.006692851 7:0.006692851 8:0.0024726233 9:0.006692851 10:0.99330717 11:0.98201376 12:0.006692851 13:0.7310586 14:0.95257413 15:0.006692851 16:0.006692851 17:0.047425874 18:0.01798621 19:0.11920292 20:0.88079709 #
0.50000059384987294297530979747535 1:0.5 2:0.0024726233 3:0.0024726233 4:0.0024726233 5:0.01798621 6:0.006692851 7:0.0024726233 8:0.0024726233 9:0.0024726233 10:0.95257413 11:0.88079709 12:0.006692851 13:0.7310586 14:0.047425874 15:0.0024726233 16:0.006692851 17:0.01798621 18:0.0024726233 19:0.01798621 20:0.99752736 #
0.50000059384987294297530979747535 1:0.26894143 2:0.006692851 3:0.0024726233 4:0.0024726233 5:0.01798621 6:0.006692851 7:0.006692851 8:0.006692851 9:0.0024726233 10:0.98201376 11:0.95257413 12:0.006692851 13:0.5 14:0.11920292 15:0.006692851 16:0.01798621 17:0.047425874 18:0.006692851 19:0.047425874 20:0.99330717 #
0.50000059384987294297530979747535 1:0.26894143 2:0.0024726233 3:0.0024726233 4:0.0024726233 5:0.01798621 6:0.006692851 7:0.0024726233 8:0.047425874 9:0.0024726233 10:0.99752736 11:0.7310586 12:0.006692851 13:0.7310586 14:0.26894143 15:0.0024726233 16:0.006692851 17:0.047425874 18:0.006692851 19:0.01798621 20:0.98201376 #
-0.50000059384987294297530979747535 1:0.5 2:0.006692851 3:0.006692851 4:0.0024726233 5:0.047425874 6:0.006692851 7:0.006692851 8:0.006692851 9:0.006692851 10:0.98201376 11:0.95257413 12:0.006692851 13:0.7310586 14:0.26894143 15:0.006692851 16:0.047425874 17:0.047425874 18:0.006692851 19:0.047425874 20:0.98201376 #
-0.50000059384987294297530979747535 1:0.5 2:0.0024726233 3:0.0024726233 4:0.0024726233 5:0.01798621 6:0.006692851 7:0.0024726233 8:0.0024726233 9:0.0024726233 10:0.98201376 11:0.98201376 12:0.006692851 13:0.7310586 14:0.26894143 15:0.0024726233 16:0.006692851 17:0.11920292 18:0.006692851 19:0.01798621 20:0.95257413 #
-0.50000059384987294297530979747535 1:0.11920292 2:0.006692851 3:0.0024726233 4:0.01798621 5:0.01798621 6:0.006692851 7:0.006692851 8:0.0024726233 9:0.0024726233 10:0.95257413 11:0.99330717 12:0.006692851 13:0.5 14:0.26894143 15:0.006692851 16:0.047425874 17:0.11920292 18:0.006692851 19:0.01798621 20:0.95257413 #
0.50000059384987294297530979747535 1:0.01798621 2:0.006692851 3:0.0024726233 4:0.0024726233 5:0.01798621 6:0.006692851 7:0.006692851 8:0.0024726233 9:0.006692851 10:0.95257413 11:0.95257413 12:0.006692851 13:0.7310586 14:0.99330717 15:0.006692851 16:0.006692851 17:0.047425874 18:0.11920292 19:0.11920292 20:0.98201376 #
0.50000059384987294297530979747535 1:0.11920292 2:0.0024726233 3:0.006692851 4:0.006692851 5:0.006692851 6:0.01798621 7:0.0024726233 8:0.006692851 9:0.0024726233 10:0.98201376 11:0.95257413 12:0.0024726233 13:0.7310586 14:0.98201376 15:0.006692851 16:0.006692851 17:0.01798621 18:0.01798621 19:0.11920292 20:0.88079709 #
0.50000059384987294297530979747535 1:0.047425874 2:0.006692851 3:0.0024726233 4:0.0024726233 5:0.01798621 6:0.006692851 7:0.0024726233 8:0.006692851 9:0.006692851 10:0.95257413 11:0.98201376 12:0.006692851 13:0.7310586 14:0.99330717 15:0.0024726233 16:0.006692851 17:0.01798621 18:0.047425874 19:0.26894143 20:0.88079709 #
-0.50000059384987294297530979747535 1:0.11920292 2:0.006692851 3:0.11920292 4:0.0024726233 5:0.01798621 6:0.01798621 7:0.0024726233 8:0.006692851 9:0.006692851 10:0.95257413 11:0.98201376 12:0.006692851 13:0.95257413 14:0.95257413 15:0.0024726233 16:0.006692851 17:0.01798621 18:0.01798621 19:0.26894143 20:0.95257413 #
-0.50000059384987294297530979747535 1:0.11920292 2:0.006692851 3:0.0024726233 4:0.0024726233 5:0.047425874 6:0.006692851 7:0.0024726233 8:0.0024726233 9:0.006692851 10:0.88079709 11:0.99330717 12:0.0024726233 13:0.5 14:0.88079709 15:0.01798621 16:0.006692851 17:0.01798621 18:0.006692851 19:0.26894143 20:0.88079709 #
-0.50000059384987294297530979747535 1:0.01798621 2:0.006692851 3:0.0024726233 4:0.0024726233 5:0.01798621 6:0.006692851 7:0.0024726233 8:0.0024726233 9:0.006692851 10:0.95257413 11:0.98201376 12:0.006692851 13:0.5 14:0.98201376 15:0.0024726233 16:0.006692851 17:0.047425874 18:0.11920292 19:0.26894143 20:0.95257413 #
0.50000059384987294297530979747535 1:0.26894143 2:0.01798621 3:0.00091105117 4:0.00091105117 5:0.006692851 6:0.0024726233 7:0.0024726233 8:0.0024726233 9:0.00091105117 10:0.88079709 11:0.99330717 12:0.0024726233 13:0.7310586 14:0.26894143 15:0.0024726233 16:0.0024726233 17:0.11920292 18:0.0024726233 19:0.01798621 20:0.98201376 #
0.50000059384987294297530979747535 1:0.7310586 2:0.006692851 3:0.006692851 4:0.0024726233 5:0.01798621 6:0.01798621 7:0.006692851 8:0.01798621 9:0.006692851 10:0.95257413 11:0.98201376 12:0.006692851 13:0.95257413 14:0.26894143 15:0.006692851 16:0.01798621 17:0.047425874 18:0.01798621 19:0.047425874 20:0.95257413 #
0.50000059384987294297530979747535 1:0.7310586 2:0.006692851 3:0.0024726233 4:0.0024726233 5:0.01798621 6:0.006692851 7:0.006692851 8:0.0024726233 9:0.0024726233 10:0.98201376 11:0.95257413 12:0.006692851 13:0.88079709 14:0.11920292 15:0.006692851 16:0.01798621 17:0.047425874 18:0.006692851 19:0.01798621 20:0.98201376 #
-0.50000059384987294297530979747535 1:0.7310586 2:0.0024726233 3:0.00091105117 4:0.00091105117 5:0.006692851 6:0.0024726233 7:0.0024726233 8:0.0024726233 9:0.0024726233 10:0.98201376 11:0.98201376 12:0.0024726233 13:0.98201376 14:0.26894143 15:0.0024726233 16:0.01798621 17:0.11920292 18:0.0024726233 19:0.006692851 20:0.95257413 #
-0.50000059384987294297530979747535 1:0.88079709 2:0.006692851 3:0.0024726233 4:0.0024726233 5:0.01798621 6:0.006692851 7:0.047425874 8:0.006692851 9:0.006692851 10:0.98201376 11:0.95257413 12:0.006692851 13:0.7310586 14:0.11920292 15:0.006692851 16:0.01798621 17:0.047425874 18:0.047425874 19:0.047425874 20:0.95257413 #
-0.50000059384987294297530979747535 1:0.88079709 2:0.0024726233 3:0.01798621 4:0.047425874 5:0.006692851 6:0.01798621 7:0.0024726233 8:0.01798621 9:0.0024726233 10:0.99752736 11:0.88079709 12:0.006692851 13:0.95257413 14:0.01798621 15:0.0024726233 16:0.047425874 17:0.047425874 18:0.0024726233 19:0.047425874 20:0.7310586 #
-0.47879854416582251497302991083416 1:0.047425874 2:0.006692851 3:0.0024726233 4:0.006692851 5:0.01798621 6:0.006692851 7:0.006692851 8:0.0024726233 9:0.0024726233 10:0.99330717 11:0.7310586 12:0.006692851 13:0.26894143 14:0.88079709 15:0.006692851 16:0.006692851 17:0.047425874 18:0.006692851 19:0.047425874 20:0.99330717 #
0.50000059384987294297530979747535 1:0.006692851 2:0.00091105117 3:0.00091105117 4:0.00033535014 5:0.006692851 6:0.00091105117 7:0.00091105117 8:0.00033535014 9:0.00091105117 10:0.99752736 11:0.88079709 12:0.00091105117 13:0.5 14:0.88079709 15:0.006692851 16:0.0024726233 17:0.006692851 18:0.0024726233 19:0.26894143 20:0.98201376 #
0.50000059384987294297530979747535 1:0.047425874 2:0.0024726233 3:0.0024726233 4:0.00091105117 5:0.01798621 6:0.0024726233 7:0.0024726233 8:0.006692851 9:0.0024726233 10:0.99330717 11:0.88079709 12:0.0024726233 13:0.26894143 14:0.98201376 15:0.0024726233 16:0.006692851 17:0.01798621 18:0.11920292 19:0.26894143 20:0.95257413 #
-0.50000059384987294297530979747535 1:0.047425874 2:0.006692851 3:0.0024726233 4:0.0024726233 5:0.01798621 6:0.006692851 7:0.0024726233 8:0.0024726233 9:0.006692851 10:0.88079709 11:0.98201376 12:0.006692851 13:0.26894143 14:0.99752736 15:0.0024726233 16:0.006692851 17:0.01798621 18:0.047425874 19:0.26894143 20:0.95257413 #
-0.50000059384987294297530979747535 1:0.047425874 2:0.01798621 3:0.006692851 4:0.006692851 5:0.047425874 6:0.01798621 7:0.006692851 8:0.006692851 9:0.01798621 10:0.98201376 11:0.7310586 12:0.01798621 13:0.26894143 14:0.98201376 15:0.01798621 16:0.01798621 17:0.047425874 18:0.047425874 19:0.11920292 20:0.98201376 #
-0.50000059384987294297530979747535 1:0.047425874 2:0.006692851 3:0.0024726233 4:0.0024726233 5:0.01798621 6:0.006692851 7:0.006692851 8:0.0024726233 9:0.006692851 10:0.98201376 11:0.7310586 12:0.006692851 13:0.26894143 14:0.88079709 15:0.006692851 16:0.006692851 17:0.047425874 18:0.006692851 19:0.11920292 20:0.99330717 #
0.50000059384987294297530979747535 1:0.95257413 2:0.006692851 3:0.006692851 4:0.0024726233 5:0.01798621 6:0.006692851 7:0.006692851 8:0.01798621 9:0.006692851 10:0.88079709 11:0.95257413 12:0.006692851 13:0.7310586 14:0.11920292 15:0.006692851 16:0.047425874 17:0.26894143 18:0.006692851 19:0.01798621 20:0.98201376 #
0.50000059384987294297530979747535 1:0.11920292 2:0.006692851 3:0.0024726233 4:0.0024726233 5:0.01798621 6:0.047425874 7:0.01798621 8:0.00091105117 9:0.006692851 10:0.88079709 11:0.99330717 12:0.006692851 13:0.95257413 14:0.7310586 15:0.0024726233 16:0.006692851 17:0.047425874 18:0.006692851 19:0.26894143 20:0.7310586 #
0.49635642497692333829917288312572 1:0.95257413 2:0.006692851 3:0.006692851 4:0.006692851 5:0.047425874 6:0.01798621 7:0.006692851 8:0.11920292 9:0.006692851 10:0.95257413 11:0.95257413 12:0.01798621 13:0.5 14:0.11920292 15:0.006692851 16:0.047425874 17:0.11920292 18:0.006692851 19:0.01798621 20:0.95257413 #
-0.50000059384987294297530979747535 1:0.11920292 2:0.006692851 3:0.01798621 4:0.0024726233 5:0.01798621 6:0.01798621 7:0.006692851 8:0.0024726233 9:0.006692851 10:0.98201376 11:0.99330717 12:0.01798621 13:0.7310586 14:0.88079709 15:0.006692851 16:0.01798621 17:0.047425874 18:0.01798621 19:0.26894143 20:0.7310586 #
-0.50000059384987294297530979747535 1:0.7310586 2:0.047425874 3:0.01798621 4:0.006692851 5:0.047425874 6:0.01798621 7:0.01798621 8:0.006692851 9:0.006692851 10:0.98201376 11:0.88079709 12:0.01798621 13:0.5 14:0.047425874 15:0.11920292 16:0.01798621 17:0.11920292 18:0.01798621 19:0.01798621 20:0.99330717 #
-0.35130244458064435741917463928985 1:0.26894143 2:0.006692851 3:0.0024726233 4:0.0024726233 5:0.01798621 6:0.006692851 7:0.006692851 8:0.01798621 9:0.0024726233 10:0.99752736 11:0.5 12:0.006692851 13:0.7310586 14:0.26894143 15:0.006692851 16:0.01798621 17:0.11920292 18:0.006692851 19:0.047425874 20:0.99330717 #
0.50000059384987294297530979747535 1:0.047425874 2:0.006692851 3:0.0024726233 4:0.0024726233 5:0.047425874 6:0.006692851 7:0.0024726233 8:0.0024726233 9:0.0024726233 10:0.98201376 11:0.95257413 12:0.006692851 13:0.26894143 14:0.95257413 15:0.0024726233 16:0.006692851 17:0.047425874 18:0.11920292 19:0.11920292 20:0.98201376 #
0.45497225787240863636995413799013 1:0.11920292 2:0.0024726233 3:0.0024726233 4:0.00091105117 5:0.01798621 6:0.0024726233 7:0.0024726233 8:0.00091105117 9:0.0024726233 10:0.99330717 11:0.95257413 12:0.0024726233 13:0.26894143 14:0.98201376 15:0.0024726233 16:0.006692851 17:0.01798621 18:0.006692851 19:0.11920292 20:0.98201376 #
0.50000059384987294297530979747535 1:0.006692851 2:0.0024726233 3:0.00091105117 4:0.00091105117 5:0.006692851 6:0.0024726233 7:0.0024726233 8:0.00091105117 9:0.006692851 10:0.95257413 11:0.95257413 12:0.0024726233 13:0.26894143 14:0.99908894 15:0.0024726233 16:0.0024726233 17:0.006692851 18:0.01798621 19:0.11920292 20:0.88079709 #
-0.50000059384987294297530979747535 1:0.006692851 2:0.0024726233 3:0.00091105117 4:0.00091105117 5:0.006692851 6:0.006692851 7:0.00091105117 8:0.00091105117 9:0.0024726233 10:0.98201376 11:0.99330717 12:0.0024726233 13:0.26894143 14:0.95257413 15:0.00091105117 16:0.0024726233 17:0.006692851 18:0.006692851 19:0.047425874 20:0.88079709 #
-0.50000059384987294297530979747535 1:0.006692851 2:0.0024726233 3:0.00091105117 4:0.00091105117 5:0.006692851 6:0.0024726233 7:0.00091105117 8:0.00033535014 9:0.006692851 10:0.99330717 11:0.99330717 12:0.0024726233 13:0.26894143 14:0.88079709 15:0.00091105117 16:0.0024726233 17:0.047425874 18:0.047425874 19:0.047425874 20:0.88079709 #
-0.50000059384987294297530979747535 1:0.26894143 2:0.0024726233 3:0.0024726233 4:0.0024726233 5:0.01798621 6:0.006692851 7:0.0024726233 8:0.0024726233 9:0.0024726233 10:0.98201376 11:0.95257413 12:0.006692851 13:0.26894143 14:0.95257413 15:0.01798621 16:0.006692851 17:0.047425874 18:0.006692851 19:0.047425874 20:0.98201376 #
0.50000059384987294297530979747535 1:0.01798621 2:0.0024726233 3:0.00091105117 4:0.00091105117 5:0.006692851 6:0.0024726233 7:0.00091105117 8:0.01798621 9:0.0024726233 10:0.99752736 11:0.95257413 12:0.0024726233 13:0.88079709 14:0.98201376 15:0.00091105117 16:0.0024726233 17:0.047425874 18:0.006692851 19:0.047425874 20:0.5 #
0.50000059384987294297530979747535 1:0.047425874 2:0.006692851 3:0.0024726233 4:0.0024726233 5:0.01798621 6:0.006692851 7:0.006692851 8:0.006692851 9:0.006692851 10:0.88079709 11:0.99330717 12:0.006692851 13:0.7310586 14:0.7310586 15:0.047425874 16:0.01798621 17:0.01798621 18:0.11920292 19:0.26894143 20:0.7310586 #
0.50000059384987294297530979747535 1:0.5 2:0.00091105117 3:0.00091105117 4:0.00033535014 5:0.006692851 6:0.0024726233 7:0.00091105117 8:0.00091105117 9:0.00091105117 10:0.95257413 11:0.88079709 12:0.00091105117 13:0.5 14:0.11920292 15:0.00091105117 16:0.006692851 17:0.26894143 18:0.00091105117 19:0.0024726233 20:0.99752736 #
-0.25152571231727338663120008277474 1:0.047425874 2:0.01798621 3:0.0024726233 4:0.0024726233 5:0.006692851 6:0.006692851 7:0.0024726233 8:0.006692851 9:0.006692851 10:0.99330717 11:0.98201376 12:0.006692851 13:0.7310586 14:0.98201376 15:0.01798621 16:0.006692851 17:0.01798621 18:0.01798621 19:0.047425874 20:0.5 #
-0.080963179154262765457872319529997 1:0.01798621 2:0.006692851 3:0.0024726233 4:0.0024726233 5:0.01798621 6:0.006692851 7:0.0024726233 8:0.00091105117 9:0.0024726233 10:0.88079709 11:0.99330717 12:0.006692851 13:0.98201376 14:0.7310586 15:0.0024726233 16:0.006692851 17:0.047425874 18:0.006692851 19:0.01798621 20:0.5 #
0.50000059384987294297530979747535 1:0.7310586 2:0.047425874 3:0.047425874 4:0.01798621 5:0.006692851 6:0.006692851 7:0.01798621 8:0.11920292 9:0.047425874 10:0.95257413 11:0.88079709 12:0.006692851 13:0.5 14:0.7310586 15:0.006692851 16:0.047425874 17:0.11920292 18:0.26894143 19:0.7310586 20:0.98201376 #
0.50000059384987294297530979747535 1:0.047425874 2:0.0024726233 3:0.00091105117 4:0.00091105117 5:0.006692851 6:0.0024726233 7:0.0024726233 8:0.00091105117 9:0.0024726233 10:0.98201376 11:0.95257413 12:0.0024726233 13:0.26894143 14:0.7310586 15:0.047425874 16:0.006692851 17:0.01798621 18:0.006692851 19:0.047425874 20:0.99330717 #
0.50000059384987294297530979747535 1:0.11920292 2:0.01798621 3:0.00091105117 4:0.00091105117 5:0.006692851 6:0.0024726233 7:0.00091105117 8:0.0024726233 9:0.00091105117 10:0.98201376 11:0.98201376 12:0.0024726233 13:0.26894143 14:0.95257413 15:0.00091105117 16:0.0024726233 17:0.006692851 18:0.047425874 19:0.01798621 20:0.95257413 #
0.50000059384987294297530979747535 1:0.006692851 2:0.00091105117 3:0.00033535014 4:0.00033535014 5:0.0024726233 6:0.00091105117 7:0.00033535014 8:0.00033535014 9:0.00033535014 10:0.88079709 11:0.98201376 12:0.00091105117 13:0.11920292 14:0.7310586 15:0.00033535014 16:0.00091105117 17:0.006692851 18:0.00091105117 19:0.0024726233 20:0.99752736 #
-0.50000059384987294297530979747535 1:0.11920292 2:0.006692851 3:0.047425874 4:0.006692851 5:0.01798621 6:0.11920292 7:0.006692851 8:0.01798621 9:0.01798621 10:0.99330717 11:0.88079709 12:0.006692851 13:0.26894143 14:0.7310586 15:0.047425874 16:0.01798621 17:0.11920292 18:0.006692851 19:0.01798621 20:0.98201376 #
-0.50000059384987294297530979747535 1:0.01798621 2:0.0024726233 3:0.0024726233 4:0.0024726233 5:0.01798621 6:0.0024726233 7:0.0024726233 8:0.00091105117 9:0.0024726233 10:0.99752736 11:0.88079709 12:0.0024726233 13:0.11920292 14:0.5 15:0.0024726233 16:0.006692851 17:0.047425874 18:0.006692851 19:0.01798621 20:0.98201376 #
-0.50000059384987294297530979747535 1:0.047425874 2:0.11920292 3:0.01798621 4:0.047425874 5:0.01798621 6:0.047425874 7:0.01798621 8:0.01798621 9:0.006692851 10:0.99752736 11:0.88079709 12:0.01798621 13:0.5 14:0.7310586 15:0.006692851 16:0.01798621 17:0.047425874 18:0.006692851 19:0.047425874 20:0.95257413 #
0.50000059384987294297530979747535 1:0.047425874 2:0.006692851 3:0.0024726233 4:0.0024726233 5:0.01798621 6:0.006692851 7:0.0024726233 8:0.0024726233 9:0.0024726233 10:0.7310586 11:0.99752736 12:0.006692851 13:0.88079709 14:0.95257413 15:0.0024726233 16:0.006692851 17:0.01798621 18:0.01798621 19:0.047425874 20:0.7310586 #
0.50000059384987294297530979747535 1:0.006692851 2:0.006692851 3:0.0024726233 4:0.00091105117 5:0.01798621 6:0.01798621 7:0.0024726233 8:0.00091105117 9:0.006692851 10:0.7310586 11:0.99330717 12:0.0024726233 13:0.5 14:0.98201376 15:0.0024726233 16:0.006692851 17:0.01798621 18:0.01798621 19:0.047425874 20:0.26894143 #
0.50000059384987294297530979747535 1:0.006692851 2:0.0024726233 3:0.047425874 4:0.00091105117 5:0.006692851 6:0.0024726233 7:0.0024726233 8:0.00091105117 9:0.0024726233 10:0.99330717 11:0.98201376 12:0.01798621 13:0.95257413 14:0.26894143 15:0.0024726233 16:0.006692851 17:0.5 18:0.0024726233 19:0.047425874 20:0.26894143 #
-0.50000059384987294297530979747535 1:0.01798621 2:0.00091105117 3:0.00091105117 4:0.00033535014 5:0.0024726233 6:0.00091105117 7:0.00091105117 8:0.01798621 9:0.00091105117 10:0.7310586 11:0.99330717 12:0.00091105117 13:0.88079709 14:0.99330717 15:0.00091105117 16:0.0024726233 17:0.01798621 18:0.006692851 19:0.01798621 20:0.95257413 #
-0.50000059384987294297530979747535 1:0.11920292 2:0.0024726233 3:0.00091105117 4:0.00091105117 5:0.006692851 6:0.0024726233 7:0.0024726233 8:0.00091105117 9:0.0024726233 10:0.7310586 11:0.99330717 12:0.0024726233 13:0.5 14:0.98201376 15:0.0024726233 16:0.006692851 17:0.01798621 18:0.01798621 19:0.047425874 20:0.26894143 #
-0.14810440842003422257100453407475 1:0.01798621 2:0.0024726233 3:0.00091105117 4:0.00091105117 5:0.047425874 6:0.0024726233 7:0.00091105117 8:0.00091105117 9:0.0024726233 10:0.7310586 11:0.99752736 12:0.0024726233 13:0.5 14:0.98201376 15:0.00091105117 16:0.006692851 17:0.006692851 18:0.006692851 19:0.01798621 20:0.11920292 #
0.50000059384987294297530979747535 1:0.11920292 2:0.0024726233 3:0.00091105117 4:0.00091105117 5:0.006692851 6:0.0024726233 7:0.00091105117 8:0.00091105117 9:0.00091105117 10:0.99752736 11:0.88079709 12:0.0024726233 13:0.26894143 14:0.5 15:0.0024726233 16:0.0024726233 17:0.01798621 18:0.0024726233 19:0.006692851 20:0.98201376 #
0.50000059384987294297530979747535 1:0.11920292 2:0.0024726233 3:0.0024726233 4:0.00091105117 5:0.01798621 6:0.006692851 7:0.0024726233 8:0.00091105117 9:0.0024726233 10:0.98201376 11:0.98201376 12:0.0024726233 13:0.26894143 14:0.5 15:0.0024726233 16:0.006692851 17:0.047425874 18:0.047425874 19:0.01798621 20:0.95257413 #
0.50000059384987294297530979747535 1:0.01798621 2:0.0024726233 3:0.0024726233 4:0.0024726233 5:0.01798621 6:0.006692851 7:0.0024726233 8:0.0024726233 9:0.0024726233 10:0.95257413 11:0.7310586 12:0.0024726233 13:0.5 14:0.88079709 15:0.0024726233 16:0.006692851 17:0.047425874 18:0.006692851 19:0.047425874 20:0.99752736 #
-0.50000059384987294297530979747535 1:0.01798621 2:0.00091105117 3:0.006692851 4:0.0024726233 5:0.006692851 6:0.0024726233 7:0.00091105117 8:0.006692851 9:0.00091105117 10:0.99752736 11:0.88079709 12:0.00091105117 13:0.26894143 14:0.5 15:0.00091105117 16:0.047425874 17:0.047425874 18:0.00091105117 19:0.006692851 20:0.99330717 #
-0.50000059384987294297530979747535 1:0.047425874 2:0.006692851 3:0.0024726233 4:0.0024726233 5:0.01798621 6:0.006692851 7:0.0024726233 8:0.0024726233 9:0.0024726233 10:0.99330717 11:0.98201376 12:0.006692851 13:0.5 14:0.5 15:0.006692851 16:0.006692851 17:0.047425874 18:0.047425874 19:0.047425874 20:0.95257413 #
-0.50000059384987294297530979747535 1:0.047425874 2:0.0024726233 3:0.0024726233 4:0.00091105117 5:0.01798621 6:0.006692851 7:0.0024726233 8:0.00091105117 9:0.0024726233 10:0.99330717 11:0.98201376 12:0.0024726233 13:0.5 14:0.5 15:0.0024726233 16:0.006692851 17:0.047425874 18:0.006692851 19:0.01798621 20:0.88079709 #
0.50000059384987294297530979747535 1:0.26894143 2:0.01798621 3:0.00091105117 4:0.00091105117 5:0.0024726233 6:0.006692851 7:0.0024726233 8:0.26894143 9:0.00091105117 10:0.7310586 11:0.99330717 12:0.0024726233 13:0.5 14:0.98201376 15:0.047425874 16:0.01798621 17:0.006692851 18:0.11920292 19:0.01798621 20:0.26894143 #
0.50000059384987294297530979747535 1:0.0024726233 2:0.00091105117 3:0.00033535014 4:0.00012339458 5:0.0024726233 6:0.00091105117 7:0.00033535014 8:0.00033535014 9:0.00091105117 10:0.5 11:0.99752736 12:0.00091105117 13:0.88079709 14:0.99752736 15:0.00033535014 16:0.00091105117 17:0.0024726233 18:0.006692851 19:0.01798621 20:0.11920292 #
0.50000059384987294297530979747535 1:0.11920292 2:0.0024726233 3:0.00091105117 4:0.00033535014 5:0.0024726233 6:0.00091105117 7:0.0024726233 8:0.00091105117 9:0.0024726233 10:0.7310586 11:0.99330717 12:0.00091105117 13:0.26894143 14:0.99752736 15:0.00091105117 16:0.006692851 17:0.006692851 18:0.11920292 19:0.11920292 20:0.5 #
-0.38166022723313103304221272082941 1:0.047425874 2:0.006692851 3:0.0024726233 4:0.00091105117 5:0.006692851 6:0.006692851 7:0.01798621 8:0.006692851 9:0.0024726233 10:0.5 11:0.99752736 12:0.0024726233 13:0.88079709 14:0.98201376 15:0.0024726233 16:0.006692851 17:0.01798621 18:0.01798621 19:0.047425874 20:0.26894143 #
-0.50000059384987294297530979747535 1:0.01798621 2:0.0024726233 3:0.0024726233 4:0.0024726233 5:0.006692851 6:0.0024726233 7:0.0024726233 8:0.0024726233 9:0.006692851 10:0.99330717 11:0.88079709 12:0.0024726233 13:0.26894143 14:0.99752736 15:0.0024726233 16:0.006692851 17:0.01798621 18:0.047425874 19:0.26894143 20:0.7310586 #
-0.50000059384987294297530979747535 1:0.98201376 2:0.01798621 3:0.006692851 4:0.006692851 5:0.01798621 6:0.01798621 7:0.01798621 8:0.11920292 9:0.006692851 10:0.88079709 11:0.88079709 12:0.01798621 13:0.5 14:0.047425874 15:0.01798621 16:0.11920292 17:0.5 18:0.006692851 19:0.047425874 20:0.95257413 #
0.50000059384987294297530979747535 1:0.047425874 2:0.006692851 3:0.0024726233 4:0.00091105117 5:0.01798621 6:0.006692851 7:0.0024726233 8:0.00091105117 9:0.0024726233 10:0.95257413 11:0.99330717 12:0.0024726233 13:0.5 14:0.5 15:0.0024726233 16:0.006692851 17:0.01798621 18:0.006692851 19:0.01798621 20:0.98201376 #
0.50000059384987294297530979747535 1:0.11920292 2:0.006692851 3:0.0024726233 4:0.0024726233 5:0.01798621 6:0.006692851 7:0.0024726233 8:0.0024726233 9:0.0024726233 10:0.98201376 11:0.99330717 12:0.006692851 13:0.5 14:0.5 15:0.0024726233 16:0.006692851 17:0.01798621 18:0.006692851 19:0.01798621 20:0.88079709 #
0.50000059384987294297530979747535 1:0.047425874 2:0.0024726233 3:0.00091105117 4:0.00091105117 5:0.006692851 6:0.0024726233 7:0.0024726233 8:0.00091105117 9:0.0024726233 10:0.88079709 11:0.99752736 12:0.0024726233 13:0.5 14:0.5 15:0.0024726233 16:0.0024726233 17:0.01798621 18:0.006692851 19:0.01798621 20:0.88079709 #
-0.50000059384987294297530979747535 1:0.11920292 2:0.006692851 3:0.0024726233 4:0.01798621 5:0.01798621 6:0.11920292 7:0.006692851 8:0.0024726233 9:0.0024726233 10:0.88079709 11:0.99330717 12:0.006692851 13:0.5 14:0.26894143 15:0.0024726233 16:0.01798621 17:0.047425874 18:0.006692851 19:0.01798621 20:0.95257413 #
-0.2938715408673928108918005364103 1:0.047425874 2:0.006692851 3:0.0024726233 4:0.0024726233 5:0.01798621 6:0.01798621 7:0.0024726233 8:0.0024726233 9:0.0024726233 10:0.95257413 11:0.99330717 12:0.006692851 13:0.5 14:0.26894143 15:0.0024726233 16:0.006692851 17:0.047425874 18:0.006692851 19:0.01798621 20:0.95257413 #
-0.1619360682587027422396630527146 1:0.01798621 2:0.11920292 3:0.95257413 4:0.99330717 5:0.0024726233 6:0.11920292 7:0.7310586 8:0.01798621 9:0.01798621 10:0.006692851 11:0.0024726233 12:0.99330717 13:0.006692851 14:0.0024726233 15:0.01798621 16:0.047425874 17:0.01798621 18:0.0024726233 19:0.006692851 20:0.006692851 #
0.50000059384987294297530979747535 1:0.01798621 2:0.00091105117 3:0.00091105117 4:0.00091105117 5:0.006692851 6:0.00091105117 7:0.00091105117 8:0.00091105117 9:0.0024726233 10:0.99330717 11:0.88079709 12:0.00091105117 13:0.11920292 14:0.99908894 15:0.00091105117 16:0.0024726233 17:0.006692851 18:0.01798621 19:0.11920292 20:0.7310586 #
0.50000059384987294297530979747535 1:0.95257413 2:0.006692851 3:0.006692851 4:0.0024726233 5:0.01798621 6:0.006692851 7:0.006692851 8:0.26894143 9:0.006692851 10:0.88079709 11:0.88079709 12:0.006692851 13:0.5 14:0.26894143 15:0.006692851 16:0.11920292 17:0.5 18:0.01798621 19:0.01798621 20:0.98201376 #
0.50000059384987294297530979747535 1:0.95257413 2:0.006692851 3:0.006692851 4:0.006692851 5:0.01798621 6:0.01798621 7:0.006692851 8:0.047425874 9:0.006692851 10:0.95257413 11:0.88079709 12:0.01798621 13:0.5 14:0.11920292 15:0.006692851 16:0.047425874 17:0.88079709 18:0.006692851 19:0.01798621 20:0.95257413 #
-0.50000059384987294297530979747535 1:0.047425874 2:0.0024726233 3:0.006692851 4:0.00091105117 5:0.01798621 6:0.006692851 7:0.0024726233 8:0.00091105117 9:0.0024726233 10:0.95257413 11:0.99330717 12:0.0024726233 13:0.5 14:0.88079709 15:0.047425874 16:0.006692851 17:0.01798621 18:0.047425874 19:0.047425874 20:0.88079709 #
-0.50000059384987294297530979747535 1:0.01798621 2:0.0024726233 3:0.0024726233 4:0.0024726233 5:0.01798621 6:0.0024726233 7:0.0024726233 8:0.00091105117 9:0.0024726233 10:0.99752736 11:0.88079709 12:0.0024726233 13:0.26894143 14:0.98201376 15:0.0024726233 16:0.006692851 17:0.01798621 18:0.01798621 19:0.11920292 20:0.7310586 #
-0.50000059384987294297530979747535 1:0.88079709 2:0.01798621 3:0.006692851 4:0.006692851 5:0.11920292 6:0.01798621 7:0.006692851 8:0.047425874 9:0.006692851 10:0.7310586 11:0.98201376 12:0.01798621 13:0.7310586 14:0.26894143 15:0.01798621 16:0.26894143 17:0.5 18:0.047425874 19:0.047425874 20:0.88079709 #
0.50000059384987294297530979747535 1:0.047425874 2:0.0024726233 3:0.00091105117 4:0.00091105117 5:0.006692851 6:0.0024726233 7:0.0024726233 8:0.00091105117 9:0.0024726233 10:0.88079709 11:0.99752736 12:0.0024726233 13:0.26894143 14:0.26894143 15:0.0024726233 16:0.0024726233 17:0.006692851 18:0.006692851 19:0.047425874 20:0.88079709 #
0.50000059384987294297530979747535 1:0.01798621 2:0.006692851 3:0.01798621 4:0.11920292 5:0.01798621 6:0.006692851 7:0.006692851 8:0.0024726233 9:0.006692851 10:0.98201376 11:0.98201376 12:0.006692851 13:0.26894143 14:0.26894143 15:0.11920292 16:0.01798621 17:0.047425874 18:0.006692851 19:0.01798621 20:0.88079709 #
0.50000059384987294297530979747535 1:0.006692851 2:0.00091105117 3:0.00091105117 4:0.00091105117 5:0.006692851 6:0.0024726233 7:0.00091105117 8:0.00091105117 9:0.00091105117 10:0.99908894 11:0.7310586 12:0.0024726233 13:0.5 14:0.11920292 15:0.00091105117 16:0.0024726233 17:0.01798621 18:0.0024726233 19:0.006692851 20:0.95257413 #
-0.35867483000276784155246900809288 1:0.01798621 2:0.0024726233 3:0.00091105117 4:0.00091105117 5:0.006692851 6:0.0024726233 7:0.00091105117 8:0.00091105117 9:0.00091105117 10:0.98201376 11:0.99752736 12:0.0024726233 13:0.11920292 14:0.26894143 15:0.0024726233 16:0.0024726233 17:0.006692851 18:0.006692851 19:0.006692851 20:0.7310586 #
-0.50000059384987294297530979747535 1:0.006692851 2:0.0024726233 3:0.00091105117 4:0.00091105117 5:0.006692851 6:0.0024726233 7:0.00091105117 8:0.00033535014 9:0.00091105117 10:0.88079709 11:0.99752736 12:0.0024726233 13:0.26894143 14:0.26894143 15:0.00091105117 16:0.0024726233 17:0.006692851 18:0.0024726233 19:0.006692851 20:0.7310586 #
-0.45471737012400431643399656422844 1:0.047425874 2:0.0024726233 3:0.0024726233 4:0.0024726233 5:0.006692851 6:0.0024726233 7:0.0024726233 8:0.0024726233 9:0.0024726233 10:0.95257413 11:0.99330717 12:0.0024726233 13:0.26894143 14:0.26894143 15:0.26894143 16:0.0024726233 17:0.006692851 18:0.006692851 19:0.006692851 20:0.88079709 #
0.50000059384987294297530979747535 1:0.047425874 2:0.006692851 3:0.0024726233 4:0.0024726233 5:0.01798621 6:0.006692851 7:0.006692851 8:0.11920292 9:0.006692851 10:0.95257413 11:0.99330717 12:0.006692851 13:0.5 14:0.95257413 15:0.006692851 16:0.006692851 17:0.01798621 18:0.01798621 19:0.11920292 20:0.7310586 #
0.50000059384987294297530979747535 1:0.01798621 2:0.0024726233 3:0.0024726233 4:0.0024726233 5:0.01798621 6:0.006692851 7:0.0024726233 8:0.00091105117 9:0.0024726233 10:0.99330717 11:0.98201376 12:0.0024726233 13:0.5 14:0.95257413 15:0.0024726233 16:0.006692851 17:0.01798621 18:0.006692851 19:0.047425874 20:0.88079709 #
0.50000059384987294297530979747535 1:0.11920292 2:0.006692851 3:0.0024726233 4:0.0024726233 5:0.01798621 6:0.006692851 7:0.006692851 8:0.006692851 9:0.006692851 10:0.88079709 11:0.99330717 12:0.006692851 13:0.5 14:0.95257413 15:0.006692851 16:0.006692851 17:0.047425874 18:0.01798621 19:0.11920292 20:0.7310586 #
-0.50000059384987294297530979747535 1:0.006692851 2:0.0024726233 3:0.006692851 4:0.00091105117 5:0.006692851 6:0.006692851 7:0.0024726233 8:0.00091105117 9:0.0024726233 10:0.98201376 11:0.99330717 12:0.0024726233 13:0.5 14:0.88079709 15:0.01798621 16:0.006692851 17:0.01798621 18:0.01798621 19:0.047425874 20:0.7310586 #
-0.50000059384987294297530979747535 1:0.01798621 2:0.0024726233 3:0.006692851 4:0.00091105117 5:0.006692851 6:0.0024726233 7:0.0024726233 8:0.00091105117 9:0.0024726233 10:0.99752736 11:0.98201376 12:0.0024726233 13:0.5 14:0.88079709 15:0.0024726233 16:0.01798621 17:0.047425874 18:0.006692851 19:0.047425874 20:0.7310586 #
-0.50000059384987294297530979747535 1:0.047425874 2:0.11920292 3:0.047425874 4:0.006692851 5:0.01798621 6:0.01798621 7:0.006692851 8:0.01798621 9:0.01798621 10:0.7310586 11:0.99330717 12:0.01798621 13:0.5 14:0.95257413 15:0.01798621 16:0.047425874 17:0.11920292 18:0.11920292 19:0.11920292 20:0.88079709 #
0.50000059384987294297530979747535 1:0.047425874 2:0.006692851 3:0.00091105117 4:0.00091105117 5:0.01798621 6:0.006692851 7:0.0024726233 8:0.0024726233 9:0.0024726233 10:0.7310586 11:0.99752736 12:0.0024726233 13:0.26894143 14:0.26894143 15:0.0024726233 16:0.006692851 17:0.01798621 18:0.006692851 19:0.01798621 20:0.7310586 #
0.50000059384987294297530979747535 1:0.11920292 2:0.0024726233 3:0.00091105117 4:0.00033535014 5:0.006692851 6:0.0024726233 7:0.00091105117 8:0.0024726233 9:0.00091105117 10:0.98201376 11:0.99330717 12:0.00091105117 13:0.26894143 14:0.26894143 15:0.00091105117 16:0.006692851 17:0.01798621 18:0.0024726233 19:0.006692851 20:0.88079709 #
0.50000059384987294297530979747535 1:0.006692851 2:0.00091105117 3:0.00033535014 4:0.00033535014 5:0.0024726233 6:0.00091105117 7:0.00033535014 8:0.00033535014 9:0.00033535014 10:0.98201376 11:0.99752736 12:0.00091105117 13:0.26894143 14:0.01798621 15:0.00033535014 16:0.00091105117 17:0.01798621 18:0.00091105117 19:0.0024726233 20:0.5 #
-0.50000059384987294297530979747535 1:0.26894143 2:0.0024726233 3:0.00091105117 4:0.00091105117 5:0.01798621 6:0.0024726233 7:0.0024726233 8:0.00091105117 9:0.0024726233 10:0.88079709 11:0.99330717 12:0.0024726233 13:0.26894143 14:0.047425874 15:0.0024726233 16:0.006692851 17:0.01798621 18:0.006692851 19:0.006692851 20:0.98201376 #
-0.41395625728646384677844594079943 1:0.11920292 2:0.0024726233 3:0.01798621 4:0.00091105117 5:0.006692851 6:0.006692851 7:0.006692851 8:0.00091105117 9:0.00091105117 10:0.99330717 11:0.7310586 12:0.006692851 13:0.26894143 14:0.01798621 15:0.0024726233 16:0.006692851 17:0.047425874 18:0.0024726233 19:0.006692851 20:0.99752736 #
-0.056657847837817770786372761904204 1:0.99330717 2:0.01798621 3:0.11920292 4:0.006692851 5:0.01798621 6:0.11920292 7:0.047425874 8:0.047425874 9:0.047425874 10:0.01798621 11:0.006692851 12:0.047425874 13:0.047425874 14:0.0024726233 15:0.006692851 16:0.98201376 17:0.95257413 18:0.0024726233 19:0.11920292 20:0.26894143 #
0.50000059384987294297530979747535 1:0.006692851 2:0.00091105117 3:0.00033535014 4:0.00033535014 5:0.0024726233 6:0.00091105117 7:0.00091105117 8:0.00033535014 9:0.0024726233 10:0.88079709 11:0.88079709 12:0.00091105117 13:0.5 14:0.99966466 15:0.00033535014 16:0.0024726233 17:0.006692851 18:0.01798621 19:0.11920292 20:0.7310586 #
0.29388735698567691745353158694343 1:0.01798621 2:0.006692851 3:0.0024726233 4:0.00091105117 5:0.01798621 6:0.006692851 7:0.0024726233 8:0.00091105117 9:0.0024726233 10:0.7310586 11:0.99330717 12:0.0024726233 13:0.5 14:0.95257413 15:0.0024726233 16:0.006692851 17:0.01798621 18:0.01798621 19:0.047425874 20:0.88079709 #
0.50000059384987294297530979747535 1:0.01798621 2:0.006692851 3:0.0024726233 4:0.00091105117 5:0.01798621 6:0.006692851 7:0.0024726233 8:0.00091105117 9:0.0024726233 10:0.7310586 11:0.99752736 12:0.0024726233 13:0.5 14:0.95257413 15:0.0024726233 16:0.006692851 17:0.01798621 18:0.047425874 19:0.047425874 20:0.7310586 #
-0.50000059384987294297530979747535 1:0.006692851 2:0.006692851 3:0.00091105117 4:0.00091105117 5:0.006692851 6:0.0024726233 7:0.0024726233 8:0.00091105117 9:0.0024726233 10:0.88079709 11:0.99330717 12:0.0024726233 13:0.5 14:0.98201376 15:0.0024726233 16:0.0024726233 17:0.006692851 18:0.047425874 19:0.11920292 20:0.5 #
-0.50000059384987294297530979747535 1:0.047425874 2:0.006692851 3:0.006692851 4:0.0024726233 5:0.01798621 6:0.006692851 7:0.01798621 8:0.0024726233 9:0.006692851 10:0.7310586 11:0.99752736 12:0.006692851 13:0.7310586 14:0.7310586 15:0.006692851 16:0.006692851 17:0.11920292 18:0.11920292 19:0.01798621 20:0.7310586 #
-0.12900937762189068624962828835123 1:0.006692851 2:0.0024726233 3:0.00091105117 4:0.00091105117 5:0.006692851 6:0.0024726233 7:0.00091105117 8:0.00033535014 9:0.00091105117 10:0.88079709 11:0.99752736 12:0.0024726233 13:0.26894143 14:0.047425874 15:0.0024726233 16:0.0024726233 17:0.01798621 18:0.0024726233 19:0.006692851 20:0.26894143 #
0.50000059384987294297530979747535 1:0.047425874 2:0.0024726233 3:0.0024726233 4:0.00091105117 5:0.01798621 6:0.0024726233 7:0.0024726233 8:0.00091105117 9:0.00091105117 10:0.95257413 11:0.95257413 12:0.0024726233 13:0.26894143 14:0.01798621 15:0.0024726233 16:0.006692851 17:0.047425874 18:0.0024726233 19:0.006692851 20:0.99752736 #
0.50000059384987294297530979747535 1:0.047425874 2:0.0024726233 3:0.00091105117 4:0.00091105117 5:0.006692851 6:0.0024726233 7:0.0024726233 8:0.00091105117 9:0.00091105117 10:0.95257413 11:0.88079709 12:0.0024726233 13:0.11920292 14:0.11920292 15:0.0024726233 16:0.006692851 17:0.047425874 18:0.0024726233 19:0.006692851 20:0.99752736 #
0.50000059384987294297530979747535 1:0.26894143 2:0.00091105117 3:0.00033535014 4:0.00033535014 5:0.0024726233 6:0.00091105117 7:0.00033535014 8:0.00033535014 9:0.00033535014 10:0.99908894 11:0.7310586 12:0.00091105117 13:0.26894143 14:0.01798621 15:0.00091105117 16:0.00091105117 17:0.006692851 18:0.00091105117 19:0.0024726233 20:0.98201376 #
-0.50000059384987294297530979747535 1:0.01798621 2:0.0024726233 3:0.00091105117 4:0.00091105117 5:0.006692851 6:0.0024726233 7:0.00091105117 8:0.00091105117 9:0.00091105117 10:0.99330717 11:0.95257413 12:0.0024726233 13:0.11920292 14:0.047425874 15:0.0024726233 16:0.0024726233 17:0.01798621 18:0.0024726233 19:0.006692851 20:0.99330717 #
0.50000059384987294297530979747535 1:0.00091105117 2:0.00091105117 3:0.00012339458 4:0.00012339458 5:0.0024726233 6:0.00091105117 7:0.00033535014 8:0.00012339458 9:0.00033535014 10:0.95257413 11:0.99908894 12:0.00033535014 13:0.26894143 14:0.01798621 15:0.00033535014 16:0.00033535014 17:0.0024726233 18:0.00091105117 19:0.0024726233 20:0.11920292 #
-0.051443113189995635925466643811887 1:0.26894143 2:0.5 3:0.88079709 4:0.98201376 5:0.01798621 6:0.7310586 7:0.5 8:0.26894143 9:0.7310586 10:0.01798621 11:0.01798621 12:0.5 13:0.01798621 14:0.01798621 15:0.26894143 16:0.88079709 17:0.88079709 18:0.01798621 19:0.11920292 20:0.047425874 #
-0.22287046736589521955806958430912 1:0.98201376 2:0.01798621 3:0.047425874 4:0.26894143 5:0.01798621 6:0.047425874 7:0.11920292 8:0.99330717 9:0.01798621 10:0.006692851 11:0.006692851 12:0.01798621 13:0.006692851 14:0.0024726233 15:0.01798621 16:0.7310586 17:0.26894143 18:0.0024726233 19:0.006692851 20:0.01798621 #
0.50000059384987294297530979747535 1:0.047425874 2:0.006692851 3:0.006692851 4:0.0024726233 5:0.01798621 6:0.11920292 7:0.006692851 8:0.0024726233 9:0.01798621 10:0.98201376 11:0.98201376 12:0.01798621 13:0.5 14:0.5 15:0.006692851 16:0.01798621 17:0.11920292 18:0.26894143 19:0.11920292 20:0.98201376 #
0.50000059384987294297530979747535 1:0.047425874 2:0.006692851 3:0.0024726233 4:0.0024726233 5:0.01798621 6:0.006692851 7:0.0024726233 8:0.0024726233 9:0.0024726233 10:0.99752736 11:0.88079709 12:0.006692851 13:0.5 14:0.5 15:0.0024726233 16:0.006692851 17:0.047425874 18:0.006692851 19:0.26894143 20:0.98201376 #
-0.45182599296619208040226567391073 1:0.006692851 2:0.0024726233 3:0.00091105117 4:0.00091105117 5:0.006692851 6:0.0024726233 7:0.00091105117 8:0.00091105117 9:0.0024726233 10:0.88079709 11:0.99752736 12:0.0024726233 13:0.26894143 14:0.047425874 15:0.0024726233 16:0.0024726233 17:0.006692851 18:0.006692851 19:0.006692851 20:0.11920292 #
-0.50000059384987294297530979747535 1:0.047425874 2:0.006692851 3:0.006692851 4:0.006692851 5:0.01798621 6:0.01798621 7:0.006692851 8:0.006692851 9:0.006692851 10:0.99330717 11:0.7310586 12:0.006692851 13:0.88079709 14:0.98201376 15:0.006692851 16:0.01798621 17:0.047425874 18:0.01798621 19:0.047425874 20:0.98201376 #
-0.28206575832429925387856428642408 1:0.006692851 2:0.0024726233 3:0.00091105117 4:0.00091105117 5:0.006692851 6:0.0024726233 7:0.00091105117 8:0.006692851 9:0.00091105117 10:0.7310586 11:0.99752736 12:0.0024726233 13:0.26894143 14:0.047425874 15:0.00091105117 16:0.0024726233 17:0.006692851 18:0.0024726233 19:0.006692851 20:0.7310586 #
0.50000059384987294297530979747535 1:0.01798621 2:0.006692851 3:0.006692851 4:0.11920292 5:0.01798621 6:0.006692851 7:0.01798621 8:0.0024726233 9:0.01798621 10:0.95257413 11:0.88079709 12:0.006692851 13:0.5 14:0.99908894 15:0.006692851 16:0.01798621 17:0.01798621 18:0.26894143 19:0.26894143 20:0.5 #
0.50000059384987294297530979747535 1:0.11920292 2:0.006692851 3:0.0024726233 4:0.0024726233 5:0.01798621 6:0.006692851 7:0.006692851 8:0.0024726233 9:0.0024726233 10:0.88079709 11:0.95257413 12:0.006692851 13:0.5 14:0.26894143 15:0.006692851 16:0.01798621 17:0.5 18:0.006692851 19:0.01798621 20:0.99752736 #
0.50000059384987294297530979747535 1:0.047425874 2:0.0024726233 3:0.00091105117 4:0.00091105117 5:0.01798621 6:0.0024726233 7:0.0024726233 8:0.00091105117 9:0.00091105117 10:0.95257413 11:0.98201376 12:0.0024726233 13:0.11920292 14:0.047425874 15:0.0024726233 16:0.006692851 17:0.047425874 18:0.11920292 19:0.006692851 20:0.99330717 #
-0.50000059384987294297530979747535 1:0.01798621 2:0.006692851 3:0.0024726233 4:0.0024726233 5:0.01798621 6:0.01798621 7:0.0024726233 8:0.0024726233 9:0.0024726233 10:0.99752736 11:0.95257413 12:0.01798621 13:0.5 14:0.5 15:0.0024726233 16:0.006692851 17:0.047425874 18:0.006692851 19:0.26894143 20:0.95257413 #
-0.50000059384987294297530979747535 1:0.26894143 2:0.006692851 3:0.006692851 4:0.006692851 5:0.047425874 6:0.006692851 7:0.006692851 8:0.006692851 9:0.006692851 10:0.99330717 11:0.7310586 12:0.006692851 13:0.26894143 14:0.5 15:0.006692851 16:0.01798621 17:0.047425874 18:0.006692851 19:0.047425874 20:0.99330717 #
-0.15540317649466520166789962331677 1:0.047425874 2:0.006692851 3:0.006692851 4:0.0024726233 5:0.047425874 6:0.01798621 7:0.006692851 8:0.0024726233 9:0.006692851 10:0.95257413 11:0.98201376 12:0.006692851 13:0.7310586 14:0.5 15:0.006692851 16:0.01798621 17:0.047425874 18:0.01798621 19:0.26894143 20:0.95257413 #
0.50000059384987294297530979747535 1:0.0024726233 2:0.00091105117 3:0.01798621 4:0.00033535014 5:0.0024726233 6:0.0024726233 7:0.00033535014 8:0.00012339458 9:0.00033535014 10:0.99908894 11:0.7310586 12:0.00091105117 13:0.26894143 14:0.01798621 15:0.00033535014 16:0.00091105117 17:0.01798621 18:0.00091105117 19:0.0024726233 20:0.98201376 #
0.50000059384987294297530979747535 1:0.01798621 2:0.0024726233 3:0.00091105117 4:0.00091105117 5:0.006692851 6:0.0024726233 7:0.0024726233 8:0.00091105117 9:0.0024726233 10:0.88079709 11:0.99330717 12:0.0024726233 13:0.26894143 14:0.047425874 15:0.0024726233 16:0.006692851 17:0.26894143 18:0.0024726233 19:0.01798621 20:0.99330717 #
0.50000059384987294297530979747535 1:0.0024726233 2:0.00091105117 3:0.00012339458 4:0.00012339458 5:0.0024726233 6:0.00091105117 7:0.00033535014 8:0.00012339458 9:0.00033535014 10:0.5 11:0.99752736 12:0.00033535014 13:0.11920292 14:0.01798621 15:0.00033535014 16:0.00033535014 17:0.0024726233 18:0.00091105117 19:0.01798621 20:0.88079709 #
-0.47237012717108095571916237531696 1:0.047425874 2:0.0024726233 3:0.00091105117 4:0.00091105117 5:0.01798621 6:0.006692851 7:0.0024726233 8:0.00091105117 9:0.0024726233 10:0.7310586 11:0.99330717 12:0.0024726233 13:0.11920292 14:0.047425874 15:0.0024726233 16:0.006692851 17:0.01798621 18:0.006692851 19:0.01798621 20:0.98201376 #
-0.48681311865605442212867615126015 1:0.01798621 2:0.0024726233 3:0.0024726233 4:0.00091105117 5:0.006692851 6:0.0024726233 7:0.00091105117 8:0.00091105117 9:0.00091105117 10:0.99908894 11:0.7310586 12:0.0024726233 13:0.26894143 14:0.047425874 15:0.0024726233 16:0.006692851 17:0.5 18:0.0024726233 19:0.006692851 20:0.95257413 #
-0.15865978294944499404905968731327 1:0.11920292 2:0.0024726233 3:0.006692851 4:0.00091105117 5:0.006692851 6:0.0024726233 7:0.0024726233 8:0.0024726233 9:0.00091105117 10:0.98201376 11:0.7310586 12:0.0024726233 13:0.11920292 14:0.01798621 15:0.0024726233 16:0.01798621 17:0.26894143 18:0.0024726233 19:0.006692851 20:0.99752736 #
0.50000059384987294297530979747535 1:0.047425874 2:0.006692851 3:0.0024726233 4:0.00091105117 5:0.01798621 6:0.006692851 7:0.0024726233 8:0.00091105117 9:0.0024726233 10:0.95257413 11:0.99330717 12:0.0024726233 13:0.88079709 14:0.7310586 15:0.0024726233 16:0.006692851 17:0.01798621 18:0.006692851 19:0.01798621 20:0.88079709 #
0.50000059384987294297530979747535 1:0.26894143 2:0.047425874 3:0.006692851 4:0.11920292 5:0.01798621 6:0.01798621 7:0.01798621 8:0.01798621 9:0.006692851 10:0.98201376 11:0.95257413 12:0.047425874 13:0.5 14:0.5 15:0.11920292 16:0.047425874 17:0.11920292 18:0.006692851 19:0.11920292 20:0.95257413 #
0.50000059384987294297530979747535 1:0.11920292 2:0.047425874 3:0.006692851 4:0.006692851 5:0.01798621 6:0.01798621 7:0.006692851 8:0.01798621 9:0.006692851 10:0.7310586 11:0.99330717 12:0.006692851 13:0.88079709 14:0.7310586 15:0.006692851 16:0.047425874 17:0.11920292 18:0.047425874 19:0.047425874 20:0.88079709 #
-0.34654373320917059020374040301249 1:0.26894143 2:0.11920292 3:0.01798621 4:0.01798621 5:0.047425874 6:0.11920292 7:0.11920292 8:0.047425874 9:0.047425874 10:0.88079709 11:0.98201376 12:0.047425874 13:0.5 14:0.26894143 15:0.11920292 16:0.11920292 17:0.5 18:0.047425874 19:0.11920292 20:0.95257413 #
-0.50000059384987294297530979747535 1:0.01798621 2:0.0024726233 3:0.00091105117 4:0.00091105117 5:0.006692851 6:0.0024726233 7:0.0024726233 8:0.00091105117 9:0.0024726233 10:0.95257413 11:0.99752736 12:0.0024726233 13:0.5 14:0.7310586 15:0.0024726233 16:0.0024726233 17:0.006692851 18:0.26894143 19:0.01798621 20:0.88079709 #
-0.50000059384987294297530979747535 1:0.11920292 2:0.006692851 3:0.0024726233 4:0.0024726233 5:0.01798621 6:0.006692851 7:0.0024726233 8:0.0024726233 9:0.0024726233 10:0.95257413 11:0.99330717 12:0.006692851 13:0.98201376 14:0.5 15:0.0024726233 16:0.006692851 17:0.047425874 18:0.006692851 19:0.11920292 20:0.95257413 #
0.50000059384987294297530979747535 1:0.11920292 2:0.006692851 3:0.0024726233 4:0.0024726233 5:0.01798621 6:0.006692851 7:0.006692851 8:0.006692851 9:0.0024726233 10:0.88079709 11:0.7310586 12:0.006692851 13:0.11920292 14:0.01798621 15:0.006692851 16:0.01798621 17:0.26894143 18:0.0024726233 19:0.01798621 20:0.99752736 #
0.50000059384987294297530979747535 1:0.01798621 2:0.0024726233 3:0.0024726233 4:0.00091105117 5:0.01798621 6:0.0024726233 7:0.0024726233 8:0.00091105117 9:0.00091105117 10:0.99330717 11:0.7310586 12:0.0024726233 13:0.26894143 14:0.01798621 15:0.0024726233 16:0.006692851 17:0.7310586 18:0.0024726233 19:0.006692851 20:0.99752736 #
0.50000059384987294297530979747535 1:0.01798621 2:0.0024726233 3:0.0024726233 4:0.00091105117 5:0.01798621 6:0.0024726233 7:0.0024726233 8:0.00091105117 9:0.0024726233 10:0.98201376 11:0.5 12:0.0024726233 13:0.11920292 14:0.11920292 15:0.0024726233 16:0.006692851 17:0.047425874 18:0.0024726233 19:0.01798621 20:0.99908894 #
-0.025084907274376875424559685257009 1:0.01798621 2:0.00091105117 3:0.00091105117 4:0.00091105117 5:0.006692851 6:0.0024726233 7:0.00091105117 8:0.00091105117 9:0.00091105117 10:0.99908894 11:0.5 12:0.0024726233 13:0.11920292 14:0.01798621 15:0.00091105117 16:0.0024726233 17:0.01798621 18:0.00091105117 19:0.006692851 20:0.99330717 #
-0.40133580204823782189293979172362 1:0.01798621 2:0.00091105117 3:0.00091105117 4:0.00091105117 5:0.006692851 6:0.00091105117 7:0.00091105117 8:0.00033535014 9:0.00091105117 10:0.98201376 11:0.5 12:0.00091105117 13:0.047425874 14:0.11920292 15:0.00091105117 16:0.0024726233 17:0.01798621 18:0.00091105117 19:0.01798621 20:0.99908894 #
-0.05714098631870726668902094047553 1:0.047425874 2:0.0024726233 3:0.0024726233 4:0.006692851 5:0.01798621 6:0.006692851 7:0.0024726233 8:0.00091105117 9:0.11920292 10:0.99330717 11:0.5 12:0.0024726233 13:0.26894143 14:0.047425874 15:0.0024726233 16:0.006692851 17:0.047425874 18:0.0024726233 19:0.01798621 20:0.99752736 #
0.50000059384987294297530979747535 1:0.5 2:0.047425874 3:0.047425874 4:0.01798621 5:0.11920292 6:0.047425874 7:0.047425874 8:0.11920292 9:0.01798621 10:0.95257413 11:0.95257413 12:0.047425874 13:0.7310586 14:0.26894143 15:0.047425874 16:0.11920292 17:0.5 18:0.047425874 19:0.11920292 20:0.95257413 #
0.50000059384987294297530979747535 1:0.11920292 2:0.00091105117 3:0.00091105117 4:0.00033535014 5:0.0024726233 6:0.00091105117 7:0.0024726233 8:0.26894143 9:0.00091105117 10:0.95257413 11:0.99330717 12:0.00091105117 13:0.88079709 14:0.047425874 15:0.00091105117 16:0.006692851 17:0.006692851 18:0.00091105117 19:0.0024726233 20:0.98201376 #
0.50000059384987294297530979747535 1:0.0024726233 2:0.00033535014 3:0.00012339458 4:0.00012339458 5:0.00091105117 6:0.00033535014 7:0.00033535014 8:0.00012339458 9:0.00033535014 10:0.5 11:0.99908894 12:0.00033535014 13:0.5 14:0.11920292 15:0.00033535014 16:0.00033535014 17:0.0024726233 18:0.00091105117 19:0.0024726233 20:0.5 #
-0.50000059384987294297530979747535 1:0.5 2:0.006692851 3:0.006692851 4:0.0024726233 5:0.01798621 6:0.006692851 7:0.006692851 8:0.006692851 9:0.006692851 10:0.95257413 11:0.95257413 12:0.006692851 13:0.7310586 14:0.11920292 15:0.047425874 16:0.11920292 17:0.5 18:0.006692851 19:0.01798621 20:0.98201376 #
-0.4380080147652778421729635738302 1:0.006692851 2:0.0024726233 3:0.00091105117 4:0.00091105117 5:0.006692851 6:0.0024726233 7:0.0024726233 8:0.00091105117 9:0.0024726233 10:0.26894143 11:0.99752736 12:0.0024726233 13:0.5 14:0.047425874 15:0.0024726233 16:0.0024726233 17:0.11920292 18:0.006692851 19:0.006692851 20:0.5 #
-0.41605173117477250999129978481506 1:0.01798621 2:0.006692851 3:0.0024726233 4:0.00091105117 5:0.006692851 6:0.006692851 7:0.0024726233 8:0.00091105117 9:0.00091105117 10:0.88079709 11:0.98201376 12:0.0024726233 13:0.26894143 14:0.047425874 15:0.0024726233 16:0.01798621 17:0.7310586 18:0.0024726233 19:0.01798621 20:0.99330717 #
0.50000059384987294297530979747535 1:0.047425874 2:0.00033535014 3:0.00033535014 4:0.00033535014 5:0.0024726233 6:0.00033535014 7:0.00033535014 8:0.00033535014 9:0.00033535014 10:0.99330717 11:0.26894143 12:0.0024726233 13:0.047425874 14:0.01798621 15:0.00033535014 16:0.00091105117 17:0.006692851 18:0.00033535014 19:0.0024726233 20:0.99908894 #
0.50000059384987294297530979747535 1:0.26894143 2:0.0024726233 3:0.00091105117 4:0.00091105117 5:0.047425874 6:0.0024726233 7:0.0024726233 8:0.00091105117 9:0.00091105117 10:0.98201376 11:0.5 12:0.0024726233 13:0.11920292 14:0.01798621 15:0.0024726233 16:0.006692851 17:0.01798621 18:0.0024726233 19:0.006692851 20:0.99752736 #
0.50000059384987294297530979747535 1:0.01798621 2:0.00091105117 3:0.00091105117 4:0.00091105117 5:0.006692851 6:0.0024726233 7:0.00091105117 8:0.00033535014 9:0.00091105117 10:0.99752736 11:0.5 12:0.00091105117 13:0.5 14:0.01798621 15:0.00091105117 16:0.0024726233 17:0.01798621 18:0.00091105117 19:0.006692851 20:0.99752736 #
-0.50000059384987294297530979747535 1:0.01798621 2:0.0024726233 3:0.0024726233 4:0.0024726233 5:0.01798621 6:0.006692851 7:0.0024726233 8:0.00091105117 9:0.0024726233 10:0.99752736 11:0.5 12:0.0024726233 13:0.5 14:0.047425874 15:0.0024726233 16:0.006692851 17:0.047425874 18:0.0024726233 19:0.01798621 20:0.99330717 #
0.50000059384987294297530979747535 1:0.5 2:0.006692851 3:0.006692851 4:0.006692851 5:0.11920292 6:0.006692851 7:0.01798621 8:0.26894143 9:0.006692851 10:0.99330717 11:0.7310586 12:0.006692851 13:0.26894143 14:0.7310586 15:0.047425874 16:0.11920292 17:0.11920292 18:0.11920292 19:0.047425874 20:0.95257413 #
-0.50000059384987294297530979747535 1:0.00091105117 2:0.00091105117 3:0.95257413 4:0.99966466 5:0.00012339458 6:0.0024726233 7:0.01798621 8:0.0024726233 9:0.0024726233 10:0.00012339458 11:0.00012339458 12:0.0024726233 13:0.00033535014 14:0.00012339458 15:0.00091105117 16:0.006692851 17:0.0024726233 18:4.5397868e-05 19:0.00033535014 20:0.00012339458 #
0.50000059384987294297530979747535 1:0.88079709 2:0.01798621 3:0.01798621 4:0.006692851 5:0.047425874 6:0.01798621 7:0.01798621 8:0.047425874 9:0.006692851 10:0.5 11:0.98201376 12:0.01798621 13:0.7310586 14:0.5 15:0.047425874 16:0.11920292 17:0.5 18:0.11920292 19:0.047425874 20:0.88079709 #
-0.22331489501395004881878492142278 1:0.006692851 2:0.00033535014 3:0.00033535014 4:0.00033535014 5:0.0024726233 6:0.00091105117 7:0.0024726233 8:0.00012339458 9:0.00033535014 10:0.88079709 11:0.01798621 12:0.00033535014 13:0.01798621 14:0.0024726233 15:0.00033535014 16:0.00091105117 17:0.006692851 18:0.00033535014 19:0.0024726233 20:0.99966466 #
0.50000059384987294297530979747535 1:0.047425874 2:0.01798621 3:0.01798621 4:0.01798621 5:0.11920292 6:0.26894143 7:0.01798621 8:0.006692851 9:0.11920292 10:0.95257413 11:0.95257413 12:0.01798621 13:0.7310586 14:0.88079709 15:0.006692851 16:0.01798621 17:0.26894143 18:0.047425874 19:0.7310586 20:0.95257413 #
0.50000059384987294297530979747535 1:0.11920292 2:0.01798621 3:0.0024726233 4:0.006692851 5:0.01798621 6:0.047425874 7:0.006692851 8:0.006692851 9:0.006692851 10:0.7310586 11:0.99330717 12:0.006692851 13:0.5 14:0.95257413 15:0.006692851 16:0.01798621 17:0.047425874 18:0.5 19:0.11920292 20:0.95257413 #
-0.50000059384987294297530979747535 1:0.5 2:0.11920292 3:0.047425874 4:0.01798621 5:0.047425874 6:0.047425874 7:0.047425874 8:0.047425874 9:0.01798621 10:0.88079709 11:0.95257413 12:0.047425874 13:0.5 14:0.95257413 15:0.11920292 16:0.11920292 17:0.11920292 18:0.26894143 19:0.11920292 20:0.88079709 #
-0.50000059384987294297530979747535 1:0.26894143 2:0.0024726233 3:0.0024726233 4:0.0024726233 5:0.006692851 6:0.0024726233 7:0.0024726233 8:0.0024726233 9:0.006692851 10:0.5 11:0.95257413 12:0.0024726233 13:0.5 14:0.99908894 15:0.047425874 16:0.006692851 17:0.26894143 18:0.01798621 19:0.11920292 20:0.7310586 #
-0.50000059384987294297530979747535 1:0.5 2:0.0024726233 3:0.00091105117 4:0.00091105117 5:0.006692851 6:0.0024726233 7:0.0024726233 8:0.0024726233 9:0.00091105117 10:0.99330717 11:0.7310586 12:0.0024726233 13:0.047425874 14:0.01798621 15:0.0024726233 16:0.01798621 17:0.047425874 18:0.0024726233 19:0.006692851 20:0.99330717 #
0.50000059384987294297530979747535 1:0.5 2:0.01798621 3:0.01798621 4:0.006692851 5:0.047425874 6:0.26894143 7:0.01798621 8:0.047425874 9:0.047425874 10:0.95257413 11:0.5 12:0.01798621 13:0.88079709 14:0.5 15:0.01798621 16:0.11920292 17:0.11920292 18:0.01798621 19:0.11920292 20:0.99330717 #
0.50000059384987294297530979747535 1:0.26894143 2:0.047425874 3:0.01798621 4:0.01798621 5:0.11920292 6:0.26894143 7:0.047425874 8:0.01798621 9:0.047425874 10:0.98201376 11:0.88079709 12:0.047425874 13:0.7310586 14:0.7310586 15:0.01798621 16:0.11920292 17:0.7310586 18:0.047425874 19:0.5 20:0.88079709 #
0.50000059384987294297530979747535 1:0.5 2:0.0024726233 3:0.0024726233 4:0.00091105117 5:0.01798621 6:0.006692851 7:0.0024726233 8:0.0024726233 9:0.0024726233 10:0.88079709 11:0.99330717 12:0.0024726233 13:0.26894143 14:0.047425874 15:0.0024726233 16:0.006692851 17:0.047425874 18:0.006692851 19:0.01798621 20:0.98201376 #
-0.17675551046300402857625044816814 1:0.26894143 2:0.11920292 3:0.5 4:0.047425874 5:0.01798621 6:0.88079709 7:0.047425874 8:0.11920292 9:0.01798621 10:0.7310586 11:0.7310586 12:0.047425874 13:0.88079709 14:0.047425874 15:0.88079709 16:0.7310586 17:0.88079709 18:0.01798621 19:0.11920292 20:0.5 #
-0.0079574305076798822200512262270422 1:0.5 2:0.26894143 3:0.88079709 4:0.95257413 5:0.11920292 6:0.5 7:0.7310586 8:0.5 9:0.26894143 10:0.11920292 11:0.11920292 12:0.5 13:0.11920292 14:0.26894143 15:0.26894143 16:0.7310586 17:0.5 18:0.26894143 19:0.26894143 20:0.26894143 #
-0.50000059384987294297530979747535 1:0.7310586 2:0.006692851 3:0.0024726233 4:0.006692851 5:0.01798621 6:0.006692851 7:0.006692851 8:0.006692851 9:0.0024726233 10:0.7310586 11:0.99330717 12:0.006692851 13:0.26894143 14:0.047425874 15:0.047425874 16:0.01798621 17:0.11920292 18:0.006692851 19:0.01798621 20:0.95257413 #
-0.50000059384987294297530979747535 1:0.7310586 2:0.01798621 3:0.047425874 4:0.047425874 5:0.047425874 6:0.11920292 7:0.047425874 8:0.26894143 9:0.01798621 10:0.88079709 11:0.88079709 12:0.11920292 13:0.5 14:0.11920292 15:0.01798621 16:0.11920292 17:0.11920292 18:0.01798621 19:0.11920292 20:0.98201376 #
-0.46791059265122658672453326289542 1:0.5 2:0.0024726233 3:0.006692851 4:0.0024726233 5:0.01798621 6:0.006692851 7:0.0024726233 8:0.01798621 9:0.01798621 10:0.7310586 11:0.88079709 12:0.006692851 13:0.5 14:0.01798621 15:0.0024726233 16:0.26894143 17:0.11920292 18:0.0024726233 19:0.006692851 20:0.99752736 #
0.50000059384987294297530979747535 1:0.006692851 2:0.00033535014 3:0.00012339458 4:0.00012339458 5:0.0024726233 6:0.00033535014 7:0.00033535014 8:0.00012339458 9:0.00012339458 10:0.95257413 11:0.047425874 12:0.00033535014 13:0.11920292 14:0.0024726233 15:0.00033535014 16:0.00091105117 17:0.0024726233 18:0.00033535014 19:0.00091105117 20:0.99966466 #
0.50000059384987294297530979747535 1:0.11920292 2:0.00091105117 3:0.00091105117 4:0.00091105117 5:0.006692851 6:0.0024726233 7:0.00091105117 8:0.00091105117 9:0.00091105117 10:0.88079709 11:0.047425874 12:0.00091105117 13:0.047425874 14:0.006692851 15:0.00091105117 16:0.006692851 17:0.01798621 18:0.00091105117 19:0.006692851 20:0.99908894 #
0.50000059384987294297530979747535 1:0.5 2:0.006692851 3:0.0024726233 4:0.0024726233 5:0.01798621 6:0.006692851 7:0.006692851 8:0.006692851 9:0.0024726233 10:0.95257413 11:0.7310586 12:0.006692851 13:0.11920292 14:0.11920292 15:0.006692851 16:0.01798621 17:0.047425874 18:0.0024726233 19:0.01798621 20:0.99752736 #
-0.064339637978388597439050045068143 1:0.047425874 2:0.01798621 3:0.7310586 4:0.88079709 5:0.0024726233 6:0.01798621 7:0.11920292 8:0.99908894 9:0.11920292 10:0.00091105117 11:0.0024726233 12:0.26894143 13:0.0024726233 14:0.00091105117 15:0.01798621 16:0.11920292 17:0.01798621 18:0.0024726233 19:0.0024726233 20:0.00091105117 #
-0.020346476845821560852645148997908 1:0.006692851 2:0.00091105117 3:0.00033535014 4:0.00033535014 5:0.0024726233 6:0.00091105117 7:0.00091105117 8:0.00033535014 9:0.00033535014 10:0.7310586 11:0.01798621 12:0.00091105117 13:0.01798621 14:0.0024726233 15:0.00091105117 16:0.0024726233 17:0.01798621 18:0.00033535014 19:0.0024726233 20:0.99966466 #
-0.31957850912918184249633668514434 1:0.0024726233 2:0.00033535014 3:0.00033535014 4:0.00033535014 5:0.0024726233 6:0.00033535014 7:0.00033535014 8:0.00012339458 9:0.00033535014 10:0.99908894 11:0.01798621 12:0.00033535014 13:0.047425874 14:0.006692851 15:0.00033535014 16:0.00091105117 17:0.006692851 18:0.00033535014 19:0.0024726233 20:0.99752736 #
-0.32098245298716204798594731073536 1:0.26894143 2:0.047425874 3:0.11920292 4:0.047425874 5:0.26894143 6:0.26894143 7:0.047425874 8:0.11920292 9:0.047425874 10:0.88079709 11:0.95257413 12:0.11920292 13:0.7310586 14:0.95257413 15:0.01798621 16:0.11920292 17:0.5 18:0.047425874 19:0.5 20:0.88079709 #
0.50000059384987294297530979747535 1:0.88079709 2:0.00091105117 3:0.00091105117 4:0.00091105117 5:0.006692851 6:0.0024726233 7:0.00091105117 8:0.047425874 9:0.00091105117 10:0.7310586 11:0.99330717 12:0.0024726233 13:0.26894143 14:0.11920292 15:0.00091105117 16:0.01798621 17:0.01798621 18:0.006692851 19:0.006692851 20:0.88079709 #
-0.12645245517220499165134128816135 1:0.26894143 2:0.5 3:0.88079709 4:0.7310586 5:0.01798621 6:0.26894143 7:0.5 8:0.98201376 9:0.11920292 10:0.047425874 11:0.11920292 12:0.5 13:0.11920292 14:0.047425874 15:0.7310586 16:0.5 17:0.26894143 18:0.01798621 19:0.26894143 20:0.01798621 #
0.50000059384987294297530979747535 1:0.98201376 2:0.006692851 3:0.006692851 4:0.0024726233 5:0.01798621 6:0.006692851 7:0.006692851 8:0.01798621 9:0.006692851 10:0.5 11:0.95257413 12:0.006692851 13:0.26894143 14:0.11920292 15:0.006692851 16:0.047425874 17:0.11920292 18:0.006692851 19:0.01798621 20:0.95257413 #
-0.50000059384987294297530979747535 1:0.88079709 2:0.01798621 3:0.01798621 4:0.11920292 5:0.01798621 6:0.01798621 7:0.047425874 8:0.11920292 9:0.006692851 10:0.88079709 11:0.95257413 12:0.01798621 13:0.11920292 14:0.01798621 15:0.047425874 16:0.11920292 17:0.11920292 18:0.006692851 19:0.01798621 20:0.95257413 #
-0.50000059384987294297530979747535 1:0.98201376 2:0.006692851 3:0.006692851 4:0.0024726233 5:0.01798621 6:0.006692851 7:0.006692851 8:0.01798621 9:0.0024726233 10:0.7310586 11:0.7310586 12:0.006692851 13:0.5 14:0.01798621 15:0.006692851 16:0.047425874 17:0.11920292 18:0.0024726233 19:0.01798621 20:0.99330717 #
-0.50000059384987294297530979747535 1:0.7310586 2:0.006692851 3:0.0024726233 4:0.0024726233 5:0.01798621 6:0.006692851 7:0.006692851 8:0.006692851 9:0.0024726233 10:0.88079709 11:0.88079709 12:0.006692851 13:0.26894143 14:0.01798621 15:0.006692851 16:0.01798621 17:0.26894143 18:0.0024726233 19:0.01798621 20:0.99752736 #
0.50000059384987294297530979747535 1:0.5 2:0.01798621 3:0.11920292 4:0.006692851 5:0.047425874 6:0.01798621 7:0.01798621 8:0.006692851 9:0.01798621 10:0.5 11:0.98201376 12:0.01798621 13:0.5 14:0.98201376 15:0.01798621 16:0.01798621 17:0.11920292 18:0.047425874 19:0.11920292 20:0.88079709 #
0.50000059384987294297530979747535 1:0.5 2:0.01798621 3:0.01798621 4:0.01798621 5:0.047425874 6:0.047425874 7:0.01798621 8:0.11920292 9:0.01798621 10:0.95257413 11:0.88079709 12:0.047425874 13:0.5 14:0.95257413 15:0.01798621 16:0.11920292 17:0.5 18:0.26894143 19:0.26894143 20:0.95257413 #
0.50000059384987294297530979747535 1:0.11920292 2:0.01798621 3:0.006692851 4:0.006692851 5:0.047425874 6:0.01798621 7:0.01798621 8:0.006692851 9:0.01798621 10:0.5 11:0.98201376 12:0.01798621 13:0.88079709 14:0.98201376 15:0.01798621 16:0.11920292 17:0.26894143 18:0.11920292 19:0.26894143 20:0.5 #
-0.14048391179027439057414028411586 1:0.047425874 2:0.01798621 3:0.01798621 4:0.01798621 5:0.01798621 6:0.01798621 7:0.006692851 8:0.0024726233 9:0.01798621 10:0.98201376 11:0.95257413 12:0.047425874 13:0.7310586 14:0.88079709 15:0.006692851 16:0.047425874 17:0.26894143 18:0.01798621 19:0.88079709 20:0.95257413 #
-0.37125066922557736770471592535614 1:0.047425874 2:0.01798621 3:0.0024726233 4:0.01798621 5:0.006692851 6:0.047425874 7:0.0024726233 8:0.01798621 9:0.047425874 10:0.7310586 11:0.95257413 12:0.0024726233 13:0.5 14:0.99908894 15:0.0024726233 16:0.047425874 17:0.047425874 18:0.01798621 19:0.5 20:0.5 #
-0.33253369960352280321203011226316 1:0.11920292 2:0.047425874 3:0.047425874 4:0.047425874 5:0.047425874 6:0.11920292 7:0.047425874 8:0.047425874 9:0.01798621 10:0.88079709 11:0.95257413 12:0.047425874 13:0.5 14:0.95257413 15:0.01798621 16:0.047425874 17:0.11920292 18:0.047425874 19:0.7310586 20:0.95257413 #
0.50000059384987294297530979747535 1:0.7310586 2:0.006692851 3:0.0024726233 4:0.0024726233 5:0.01798621 6:0.006692851 7:0.006692851 8:0.11920292 9:0.0024726233 10:0.95257413 11:0.88079709 12:0.006692851 13:0.26894143 14:0.047425874 15:0.006692851 16:0.01798621 17:0.26894143 18:0.006692851 19:0.01798621 20:0.99330717 #
0.50000059384987294297530979747535 1:0.7310586 2:0.006692851 3:0.006692851 4:0.006692851 5:0.047425874 6:0.01798621 7:0.006692851 8:0.26894143 9:0.006692851 10:0.98201376 11:0.7310586 12:0.01798621 13:0.26894143 14:0.047425874 15:0.01798621 16:0.26894143 17:0.26894143 18:0.006692851 19:0.01798621 20:0.98201376 #
0.50000059384987294297530979747535 1:0.98201376 2:0.006692851 3:0.0024726233 4:0.0024726233 5:0.01798621 6:0.006692851 7:0.006692851 8:0.11920292 9:0.0024726233 10:0.88079709 11:0.7310586 12:0.006692851 13:0.5 14:0.11920292 15:0.047425874 16:0.047425874 17:0.11920292 18:0.0024726233 19:0.006692851 20:0.98201376 #
-0.50000059384987294297530979747535 1:0.88079709 2:0.01798621 3:0.01798621 4:0.006692851 5:0.047425874 6:0.01798621 7:0.01798621 8:0.11920292 9:0.006692851 10:0.98201376 11:0.5 12:0.01798621 13:0.26894143 14:0.047425874 15:0.047425874 16:0.11920292 17:0.26894143 18:0.006692851 19:0.01798621 20:0.99330717 #
-0.50000059384987294297530979747535 1:0.98201376 2:0.01798621 3:0.01798621 4:0.01798621 5:0.047425874 6:0.047425874 7:0.01798621 8:0.11920292 9:0.01798621 10:0.88079709 11:0.7310586 12:0.047425874 13:0.26894143 14:0.26894143 15:0.11920292 16:0.11920292 17:0.5 18:0.01798621 19:0.11920292 20:0.95257413 #
-0.50000059384987294297530979747535 1:0.99752736 2:0.0024726233 3:0.0024726233 4:0.0024726233 5:0.006692851 6:0.006692851 7:0.0024726233 8:0.006692851 9:0.0024726233 10:0.98201376 11:0.7310586 12:0.006692851 13:0.26894143 14:0.01798621 15:0.006692851 16:0.01798621 17:0.01798621 18:0.0024726233 19:0.047425874 20:0.7310586 #
0.50000059384987294297530979747535 1:0.047425874 2:0.006692851 3:0.0024726233 4:0.0024726233 5:0.01798621 6:0.006692851 7:0.0024726233 8:0.0024726233 9:0.006692851 10:0.98201376 11:0.88079709 12:0.006692851 13:0.5 14:0.95257413 15:0.0024726233 16:0.006692851 17:0.11920292 18:0.11920292 19:0.95257413 20:0.98201376 #
0.50000059384987294297530979747535 1:0.01798621 2:0.006692851 3:0.0024726233 4:0.0024726233 5:0.01798621 6:0.006692851 7:0.006692851 8:0.006692851 9:0.006692851 10:0.95257413 11:0.98201376 12:0.006692851 13:0.5 14:0.98201376 15:0.006692851 16:0.006692851 17:0.01798621 18:0.047425874 19:0.7310586 20:0.7310586 #
0.50000059384987294297530979747535 1:0.11920292 2:0.047425874 3:0.047425874 4:0.047425874 5:0.11920292 6:0.047425874 7:0.047425874 8:0.047425874 9:0.047425874 10:0.7310586 11:0.95257413 12:0.047425874 13:0.5 14:0.98201376 15:0.047425874 16:0.11920292 17:0.26894143 18:0.11920292 19:0.88079709 20:0.7310586 #
-0.35929513670435636596423023547686 1:0.006692851 2:0.006692851 3:0.0024726233 4:0.0024726233 5:0.006692851 6:0.006692851 7:0.0024726233 8:0.0024726233 9:0.01798621 10:0.88079709 11:0.88079709 12:0.0024726233 13:0.5 14:0.99908894 15:0.0024726233 16:0.006692851 17:0.01798621 18:0.11920292 19:0.98201376 20:0.7310586 #
-0.32111236760381783872375649480091 1:0.11920292 2:0.01798621 3:0.01798621 4:0.006692851 5:0.01798621 6:0.047425874 7:0.006692851 8:0.006692851 9:0.047425874 10:0.88079709 11:0.95257413 12:0.01798621 13:0.5 14:0.99330717 15:0.01798621 16:0.047425874 17:0.11920292 18:0.26894143 19:0.98201376 20:0.7310586 #
-0.11114324735770457486250251122328 1:0.047425874 2:0.047425874 3:0.006692851 4:0.006692851 5:0.047425874 6:0.01798621 7:0.006692851 8:0.006692851 9:0.047425874 10:0.95257413 11:0.95257413 12:0.01798621 13:0.5 14:0.99330717 15:0.006692851 16:0.11920292 17:0.11920292 18:0.11920292 19:0.95257413 20:0.5 #
0.50000059384987294297530979747535 1:0.95257413 2:0.01798621 3:0.01798621 4:0.006692851 5:0.047425874 6:0.01798621 7:0.01798621 8:0.01798621 9:0.01798621 10:0.88079709 11:0.5 12:0.01798621 13:0.26894143 14:0.11920292 15:0.01798621 16:0.11920292 17:0.11920292 18:0.01798621 19:0.047425874 20:0.99330717 #
0.50000059384987294297530979747535 1:0.95257413 2:0.0024726233 3:0.0024726233 4:0.00091105117 5:0.01798621 6:0.0024726233 7:0.0024726233 8:0.11920292 9:0.0024726233 10:0.95257413 11:0.26894143 12:0.0024726233 13:0.11920292 14:0.01798621 15:0.0024726233 16:0.01798621 17:0.01798621 18:0.0024726233 19:0.006692851 20:0.99330717 #
0.50000059384987294297530979747535 1:0.047425874 2:0.0024726233 3:0.0024726233 4:0.00091105117 5:0.006692851 6:0.0024726233 7:0.0024726233 8:0.0024726233 9:0.006692851 10:0.5 11:0.95257413 12:0.0024726233 13:0.5 14:0.99966466 15:0.0024726233 16:0.006692851 17:0.006692851 18:0.047425874 19:0.7310586 20:0.26894143 #
-0.24405283255437074108051831444754 1:0.88079709 2:0.0024726233 3:0.0024726233 4:0.0024726233 5:0.01798621 6:0.006692851 7:0.006692851 8:0.006692851 9:0.0024726233 10:0.95257413 11:0.26894143 12:0.006692851 13:0.11920292 14:0.047425874 15:0.006692851 16:0.01798621 17:0.047425874 18:0.0024726233 19:0.01798621 20:0.99752736 #
-0.17701041048706961378300661635876 1:0.7310586 2:0.26894143 3:0.5 4:0.006692851 5:0.006692851 6:0.5 7:0.047425874 8:0.26894143 9:0.01798621 10:0.01798621 11:0.01798621 12:0.11920292 13:0.01798621 14:0.26894143 15:0.5 16:0.11920292 17:0.11920292 18:0.99995458 19:0.88079709 20:0.26894143 #
-0.31983813447368597548958746301651 1:0.95257413 2:0.0024726233 3:0.0024726233 4:0.00091105117 5:0.01798621 6:0.0024726233 7:0.0024726233 8:0.006692851 9:0.0024726233 10:0.7310586 11:0.26894143 12:0.0024726233 13:0.047425874 14:0.006692851 15:0.0024726233 16:0.01798621 17:0.01798621 18:0.0024726233 19:0.006692851 20:0.99752736 #
0.50000059384987294297530979747535 1:0.047425874 2:0.006692851 3:0.006692851 4:0.0024726233 5:0.11920292 6:0.006692851 7:0.006692851 8:0.26894143 9:0.01798621 10:0.7310586 11:0.98201376 12:0.006692851 13:0.5 14:0.99330717 15:0.006692851 16:0.01798621 17:0.11920292 18:0.11920292 19:0.95257413 20:0.5 #
0.50000059384987294297530979747535 1:0.26894143 2:0.006692851 3:0.0024726233 4:0.0024726233 5:0.006692851 6:0.01798621 7:0.0024726233 8:0.0024726233 9:0.01798621 10:0.95257413 11:0.88079709 12:0.006692851 13:0.88079709 14:0.98201376 15:0.0024726233 16:0.006692851 17:0.047425874 18:0.26894143 19:0.99752736 20:0.88079709 #
0.50000059384987294297530979747535 1:0.26894143 2:0.01798621 3:0.006692851 4:0.0024726233 5:0.006692851 6:0.006692851 7:0.0024726233 8:0.006692851 9:0.047425874 10:0.99330717 11:0.88079709 12:0.006692851 13:0.26894143 14:0.88079709 15:0.0024726233 16:0.047425874 17:0.047425874 18:0.5 19:0.99330717 20:0.88079709 #
-0.50000059384987294297530979747535 1:0.26894143 2:0.0024726233 3:0.0024726233 4:0.00091105117 5:0.006692851 6:0.0024726233 7:0.0024726233 8:0.0024726233 9:0.01798621 10:0.95257413 11:0.95257413 12:0.0024726233 13:0.11920292 14:0.88079709 15:0.006692851 16:0.006692851 17:0.047425874 18:0.26894143 19:0.88079709 20:0.99330717 #
-0.28112653092002998223009058165189 1:0.0024726233 2:0.00091105117 3:0.00091105117 4:0.00033535014 5:0.0024726233 6:0.00091105117 7:0.00091105117 8:0.00033535014 9:0.0024726233 10:0.5 11:0.88079709 12:0.00091105117 13:0.5 14:0.99987662 15:0.00033535014 16:0.00091105117 17:0.0024726233 18:0.01798621 19:0.5 20:0.11920292 #
-0.50000059384987294297530979747535 1:0.5 2:0.006692851 3:0.006692851 4:0.0024726233 5:0.01798621 6:0.01798621 7:0.006692851 8:0.006692851 9:0.01798621 10:0.88079709 11:0.7310586 12:0.006692851 13:0.88079709 14:0.98201376 15:0.006692851 16:0.01798621 17:0.047425874 18:0.11920292 19:0.98201376 20:0.98201376 #
0.50000059384987294297530979747535 1:0.99752736 2:0.01798621 3:0.01798621 4:0.01798621 5:0.047425874 6:0.01798621 7:0.01798621 8:0.11920292 9:0.01798621 10:0.5 11:0.11920292 12:0.01798621 13:0.047425874 14:0.01798621 15:0.01798621 16:0.11920292 17:0.11920292 18:0.006692851 19:0.01798621 20:0.7310586 #
0.50000059384987294297530979747535 1:0.01798621 2:0.01798621 3:0.006692851 4:0.006692851 5:0.006692851 6:0.0024726233 7:0.0024726233 8:0.00091105117 9:0.0024726233 10:0.99752736 11:0.5 12:0.01798621 13:0.26894143 14:0.99752736 15:0.00091105117 16:0.01798621 17:0.006692851 18:0.01798621 19:0.11920292 20:0.5 #
0.50000059384987294297530979747535 1:0.01798621 2:0.006692851 3:0.006692851 4:0.00091105117 5:0.0024726233 6:0.0024726233 7:0.00091105117 8:0.0024726233 9:0.00091105117 10:0.98201376 11:0.99330717 12:0.00091105117 13:0.5 14:0.95257413 15:0.5 16:0.006692851 17:0.26894143 18:0.01798621 19:0.006692851 20:0.7310586 #
-0.35385747393499888957535404188093 1:0.99752736 2:0.006692851 3:0.01798621 4:0.006692851 5:0.01798621 6:0.047425874 7:0.01798621 8:0.11920292 9:0.006692851 10:0.26894143 11:0.11920292 12:0.01798621 13:0.01798621 14:0.006692851 15:0.01798621 16:0.26894143 17:0.26894143 18:0.0024726233 19:0.006692851 20:0.88079709 #
-0.0088907459174273600205351542058452 1:0.99908894 2:0.0024726233 3:0.0024726233 4:0.0024726233 5:0.01798621 6:0.006692851 7:0.006692851 8:0.01798621 9:0.0024726233 10:0.26894143 11:0.01798621 12:0.006692851 13:0.11920292 14:0.0024726233 15:0.006692851 16:0.047425874 17:0.26894143 18:0.00091105117 19:0.0024726233 20:0.88079709 #
-0.50000059384987294297530979747535 1:0.11920292 2:0.26894143 3:0.01798621 4:0.01798621 5:0.01798621 6:0.01798621 7:0.006692851 8:0.006692851 9:0.01798621 10:0.88079709 11:0.98201376 12:0.01798621 13:0.88079709 14:0.95257413 15:0.047425874 16:0.01798621 17:0.11920292 18:0.11920292 19:0.11920292 20:0.88079709 #
0.50000059384987294297530979747535 1:0.26894143 2:0.006692851 3:0.047425874 4:0.11920292 5:0.01798621 6:0.01798621 7:0.01798621 8:0.047425874 9:0.047425874 10:0.95257413 11:0.98201376 12:0.01798621 13:0.11920292 14:0.7310586 15:0.11920292 16:0.047425874 17:0.11920292 18:0.11920292 19:0.88079709 20:0.88079709 #
0.50000059384987294297530979747535 1:0.5 2:0.0024726233 3:0.0024726233 4:0.00091105117 5:0.006692851 6:0.0024726233 7:0.0024726233 8:0.11920292 9:0.0024726233 10:0.98201376 11:0.95257413 12:0.0024726233 13:0.11920292 14:0.88079709 15:0.0024726233 16:0.006692851 17:0.01798621 18:0.26894143 19:0.7310586 20:0.95257413 #
0.50000059384987294297530979747535 1:0.5 2:0.006692851 3:0.006692851 4:0.0024726233 5:0.01798621 6:0.006692851 7:0.006692851 8:0.047425874 9:0.01798621 10:0.88079709 11:0.95257413 12:0.006692851 13:0.26894143 14:0.98201376 15:0.006692851 16:0.047425874 17:0.047425874 18:0.11920292 19:0.98201376 20:0.88079709 #
-0.50000059384987294297530979747535 1:0.5 2:0.006692851 3:0.006692851 4:0.0024726233 5:0.01798621 6:0.006692851 7:0.006692851 8:0.0024726233 9:0.006692851 10:0.95257413 11:0.95257413 12:0.006692851 13:0.26894143 14:0.7310586 15:0.006692851 16:0.01798621 17:0.047425874 18:0.01798621 19:0.95257413 20:0.98201376 #
-0.50000059384987294297530979747535 1:0.26894143 2:0.01798621 3:0.047425874 4:0.047425874 5:0.11920292 6:0.047425874 7:0.047425874 8:0.11920292 9:0.01798621 10:0.88079709 11:0.88079709 12:0.047425874 13:0.5 14:0.88079709 15:0.11920292 16:0.01798621 17:0.11920292 18:0.5 19:0.95257413 20:0.98201376 #
-0.49294665525482000978385599410103 1:0.047425874 2:0.006692851 3:0.006692851 4:0.0024726233 5:0.01798621 6:0.006692851 7:0.0024726233 8:0.0024726233 9:0.01798621 10:0.99330717 11:0.88079709 12:0.006692851 13:0.5 14:0.7310586 15:0.01798621 16:0.006692851 17:0.047425874 18:0.5 19:0.98201376 20:0.95257413 #
0.50000059384987294297530979747535 1:0.99752736 2:0.006692851 3:0.006692851 4:0.006692851 5:0.01798621 6:0.01798621 7:0.01798621 8:0.047425874 9:0.006692851 10:0.047425874 11:0.01798621 12:0.01798621 13:0.047425874 14:0.006692851 15:0.01798621 16:0.5 17:0.26894143 18:0.0024726233 19:0.006692851 20:0.88079709 #
0.50000059384987294297530979747535 1:0.99752736 2:0.01798621 3:0.01798621 4:0.01798621 5:0.047425874 6:0.01798621 7:0.01798621 8:0.047425874 9:0.01798621 10:0.11920292 11:0.26894143 12:0.01798621 13:0.047425874 14:0.047425874 15:0.047425874 16:0.5 17:0.5 18:0.006692851 19:0.01798621 20:0.7310586 #
0.50000059384987294297530979747535 1:0.99752736 2:0.006692851 3:0.006692851 4:0.006692851 5:0.01798621 6:0.01798621 7:0.01798621 8:0.26894143 9:0.006692851 10:0.047425874 11:0.26894143 12:0.01798621 13:0.26894143 14:0.006692851 15:0.01798621 16:0.11920292 17:0.047425874 18:0.0024726233 19:0.006692851 20:0.88079709 #
-0.38304519101970552208413778316753 1:0.99752736 2:0.006692851 3:0.01798621 4:0.0024726233 5:0.01798621 6:0.006692851 7:0.006692851 8:0.01798621 9:0.0024726233 10:0.01798621 11:0.006692851 12:0.006692851 13:0.006692851 14:0.0024726233 15:0.006692851 16:0.7310586 17:0.26894143 18:0.00091105117 19:0.0024726233 20:0.7310586 #
-0.26906274392162499164982136790059 1:0.99330717 2:0.006692851 3:0.006692851 4:0.006692851 5:0.01798621 6:0.01798621 7:0.01798621 8:0.047425874 9:0.006692851 10:0.26894143 11:0.26894143 12:0.01798621 13:0.047425874 14:0.006692851 15:0.01798621 16:0.7310586 17:0.5 18:0.0024726233 19:0.006692851 20:0.95257413 #
-0.14186873495097349073823522758175 1:0.99330717 2:0.047425874 3:0.01798621 4:0.047425874 5:0.01798621 6:0.047425874 7:0.11920292 8:0.11920292 9:0.006692851 10:0.047425874 11:0.5 12:0.01798621 13:0.047425874 14:0.047425874 15:0.047425874 16:0.7310586 17:0.5 18:0.006692851 19:0.047425874 20:0.88079709 #
0.50000059384987294297530979747535 1:0.11920292 2:0.006692851 3:0.006692851 4:0.0024726233 5:0.01798621 6:0.006692851 7:0.006692851 8:0.006692851 9:0.01798621 10:0.95257413 11:0.95257413 12:0.006692851 13:0.7310586 14:0.98201376 15:0.006692851 16:0.01798621 17:0.11920292 18:0.7310586 19:0.95257413 20:0.95257413 #
0.50000059384987294297530979747535 1:0.5 2:0.047425874 3:0.006692851 4:0.006692851 5:0.047425874 6:0.11920292 7:0.01798621 8:0.047425874 9:0.047425874 10:0.88079709 11:0.98201376 12:0.01798621 13:0.26894143 14:0.5 15:0.01798621 16:0.047425874 17:0.11920292 18:0.047425874 19:0.98201376 20:0.88079709 #
0.50000059384987294297530979747535 1:0.7310586 2:0.006692851 3:0.0024726233 4:0.0024726233 5:0.01798621 6:0.006692851 7:0.006692851 8:0.006692851 9:0.006692851 10:0.88079709 11:0.98201376 12:0.006692851 13:0.7310586 14:0.7310586 15:0.0024726233 16:0.01798621 17:0.047425874 18:0.047425874 19:0.98201376 20:0.95257413 #
-0.50000059384987294297530979747535 1:0.88079709 2:0.047425874 3:0.01798621 4:0.01798621 5:0.047425874 6:0.047425874 7:0.01798621 8:0.26894143 9:0.01798621 10:0.95257413 11:0.88079709 12:0.11920292 13:0.88079709 14:0.5 15:0.047425874 16:0.26894143 17:0.5 18:0.01798621 19:0.11920292 20:0.88079709 #
-0.50000059384987294297530979747535 1:0.95257413 2:0.01798621 3:0.006692851 4:0.006692851 5:0.047425874 6:0.01798621 7:0.006692851 8:0.01798621 9:0.006692851 10:0.95257413 11:0.98201376 12:0.01798621 13:0.5 14:0.7310586 15:0.047425874 16:0.047425874 17:0.047425874 18:0.01798621 19:0.26894143 20:0.7310586 #
-0.16438217080649647483525654934056 1:0.006692851 2:0.0024726233 3:0.0024726233 4:0.00091105117 5:0.006692851 6:0.0024726233 7:0.0024726233 8:0.00091105117 9:0.0024726233 10:0.99752736 11:0.5 12:0.0024726233 13:0.11920292 14:0.99752736 15:0.0024726233 16:0.0024726233 17:0.01798621 18:0.01798621 19:0.11920292 20:0.7310586 #
0.50000059384987294297530979747535 1:0.26894143 2:0.11920292 3:0.006692851 4:0.006692851 5:0.26894143 6:0.01798621 7:0.047425874 8:0.006692851 9:0.01798621 10:0.95257413 11:0.95257413 12:0.047425874 13:0.7310586 14:0.98201376 15:0.006692851 16:0.01798621 17:0.11920292 18:0.26894143 19:0.11920292 20:0.7310586 #
0.50000059384987294297530979747535 1:0.98201376 2:0.006692851 3:0.01798621 4:0.006692851 5:0.01798621 6:0.01798621 7:0.01798621 8:0.11920292 9:0.047425874 10:0.11920292 11:0.01798621 12:0.006692851 13:0.01798621 14:0.01798621 15:0.006692851 16:0.88079709 17:0.88079709 18:0.0024726233 19:0.01798621 20:0.98201376 #
