SVM-light Version V6.02
2 # kernel type
3 # kernel parameter -d 
1 # kernel parameter -g 
1 # kernel parameter -s 
1 # kernel parameter -r 
empty# kernel parameter -u 
20 # highest feature index 
14122 # number of training documents 
6373 # number of support vectors plus 1 
0.48114768 # threshold b, each following line is a SV (starting with alpha*y)
-0.29798133394568410148295356520975 1:0.26894143 2:0.006692851 3:0.0024726233 4:0.006692851 5:0.00091105117 6:0.5 7:0.01798621 8:0.0024726233 9:0.0024726233 10:0.00091105117 11:0.0024726233 12:0.01798621 13:0.0024726233 14:0.00091105117 15:0.99987662 16:0.047425874 17:0.006692851 18:0.00033535014 19:0.01798621 20:0.0024726233 #
-0.51942017585192112871794734019204 1:0.7310586 2:0.26894143 3:0.7310586 4:0.26894143 5:0.11920292 6:0.7310586 7:0.5 8:0.11920292 9:0.5 10:0.11920292 11:0.26894143 12:0.7310586 13:0.5 14:0.11920292 15:0.11920292 16:0.95257413 17:0.88079709 18:0.047425874 19:0.5 20:0.11920292 #
-0.51942017585192112871794734019204 1:0.26894143 2:0.5 3:0.11920292 4:0.047425874 5:0.047425874 6:0.11920292 7:0.26894143 8:0.01798621 9:0.99330717 10:0.5 11:0.11920292 12:0.26894143 13:0.11920292 14:0.88079709 15:0.01798621 16:0.11920292 17:0.5 18:0.98201376 19:0.99752736 20:0.11920292 #
0.51942017585192112871794734019204 1:0.26894143 2:0.26894143 3:0.5 4:0.11920292 5:0.01798621 6:0.98201376 7:0.047425874 8:0.11920292 9:0.047425874 10:0.11920292 11:0.26894143 12:0.047425874 13:0.99752736 14:0.7310586 15:0.01798621 16:0.88079709 17:0.5 18:0.006692851 19:0.047425874 20:0.26894143 #
-0.086522632501189605802593973749026 1:0.11920292 2:0.5 3:0.95257413 4:0.26894143 5:0.01798621 6:0.7310586 7:0.5 8:0.11920292 9:0.88079709 10:0.26894143 11:0.047425874 12:0.95257413 13:0.7310586 14:0.26894143 15:0.5 16:0.5 17:0.5 18:0.5 19:0.11920292 20:0.11920292 #
0.51942017585192112871794734019204 1:0.11920292 2:0.01798621 3:0.99330717 4:0.11920292 5:0.0024726233 6:0.01798621 7:0.01798621 8:0.006692851 9:0.047425874 10:0.006692851 11:0.0024726233 12:0.01798621 13:0.006692851 14:0.00091105117 15:0.99752736 16:0.5 17:0.98201376 18:0.00091105117 19:0.0024726233 20:0.006692851 #
0.51942017585192112871794734019204 1:0.99908894 2:0.006692851 3:0.006692851 4:0.0024726233 5:0.01798621 6:0.006692851 7:0.006692851 8:0.047425874 9:0.0024726233 10:0.01798621 11:0.006692851 12:0.006692851 13:0.5 14:0.0024726233 15:0.006692851 16:0.5 17:0.11920292 18:0.00091105117 19:0.0024726233 20:0.5 #
0.51942017585192112871794734019204 1:0.95257413 2:0.006692851 3:0.006692851 4:0.006692851 5:0.01798621 6:0.01798621 7:0.006692851 8:0.95257413 9:0.006692851 10:0.11920292 11:0.95257413 12:0.01798621 13:0.7310586 14:0.95257413 15:0.006692851 16:0.047425874 17:0.047425874 18:0.01798621 19:0.047425874 20:0.11920292 #
0.51942017585192112871794734019204 1:0.01798621 2:0.047425874 3:0.0024726233 4:0.0024726233 5:0.006692851 6:0.01798621 7:0.0024726233 8:0.0024726233 9:0.01798621 10:0.5 11:0.98201376 12:0.006692851 13:0.98201376 14:0.99330717 15:0.0024726233 16:0.01798621 17:0.26894143 18:0.88079709 19:0.5 20:0.11920292 #
0.51942017585192112871794734019204 1:0.11920292 2:0.006692851 3:0.006692851 4:0.0024726233 5:0.01798621 6:0.006692851 7:0.006692851 8:0.0024726233 9:0.006692851 10:0.7310586 11:0.99330717 12:0.006692851 13:0.95257413 14:0.5 15:0.006692851 16:0.26894143 17:0.5 18:0.006692851 19:0.01798621 20:0.88079709 #
-0.51942017585192112871794734019204 1:0.047425874 2:0.047425874 3:0.01798621 4:0.01798621 5:0.047425874 6:0.047425874 7:0.047425874 8:0.01798621 9:0.047425874 10:0.5 11:0.95257413 12:0.047425874 13:0.95257413 14:0.98201376 15:0.01798621 16:0.26894143 17:0.26894143 18:0.99908894 19:0.5 20:0.26894143 #
-0.51942017585192112871794734019204 1:0.11920292 2:0.047425874 3:0.7310586 4:0.01798621 5:0.006692851 6:0.047425874 7:0.047425874 8:0.11920292 9:0.11920292 10:0.0024726233 11:0.01798621 12:0.11920292 13:0.006692851 14:0.0024726233 15:0.99752736 16:0.88079709 17:0.88079709 18:0.11920292 19:0.006692851 20:0.006692851 #
-0.51942017585192112871794734019204 1:0.99908894 2:0.01798621 3:0.01798621 4:0.0024726233 5:0.006692851 6:0.047425874 7:0.01798621 8:0.11920292 9:0.047425874 10:0.01798621 11:0.0024726233 12:0.006692851 13:0.5 14:0.006692851 15:0.01798621 16:0.7310586 17:0.11920292 18:0.00091105117 19:0.047425874 20:0.047425874 #
0.51942017585192112871794734019204 1:0.5 2:0.5 3:0.88079709 4:0.26894143 5:0.26894143 6:0.7310586 7:0.26894143 8:0.26894143 9:0.5 10:0.26894143 11:0.11920292 12:0.7310586 13:0.26894143 14:0.11920292 15:0.047425874 16:0.88079709 17:0.88079709 18:0.01798621 19:0.26894143 20:0.26894143 #
0.51942017585192112871794734019204 1:0.5 2:0.5 3:0.7310586 4:0.11920292 5:0.047425874 6:0.7310586 7:0.11920292 8:0.047425874 9:0.7310586 10:0.11920292 11:0.047425874 12:0.5 13:0.7310586 14:0.047425874 15:0.5 16:0.7310586 17:0.99330717 18:0.047425874 19:0.5 20:0.11920292 #
0.51942017585192112871794734019204 1:0.26894143 2:0.7310586 3:0.11920292 4:0.047425874 5:0.047425874 6:0.11920292 7:0.11920292 8:0.047425874 9:0.98201376 10:0.26894143 11:0.11920292 12:0.11920292 13:0.11920292 14:0.95257413 15:0.047425874 16:0.26894143 17:0.11920292 18:0.88079709 19:0.99752736 20:0.11920292 #
-0.51942017585192112871794734019204 1:0.7310586 2:0.95257413 3:0.7310586 4:0.11920292 5:0.047425874 6:0.88079709 7:0.26894143 8:0.26894143 9:0.7310586 10:0.26894143 11:0.11920292 12:0.5 13:0.26894143 14:0.11920292 15:0.047425874 16:0.7310586 17:0.88079709 18:0.047425874 19:0.11920292 20:0.5 #
0.51942017585192112871794734019204 1:0.98201376 2:0.01798621 3:0.01798621 4:0.01798621 5:0.047425874 6:0.01798621 7:0.047425874 8:0.98201376 9:0.01798621 10:0.047425874 11:0.047425874 12:0.01798621 13:0.047425874 14:0.88079709 15:0.26894143 16:0.11920292 17:0.047425874 18:0.01798621 19:0.01798621 20:0.7310586 #
-0.51942017585192112871794734019204 1:0.5 2:0.88079709 3:0.95257413 4:0.11920292 5:0.01798621 6:0.7310586 7:0.11920292 8:0.26894143 9:0.7310586 10:0.047425874 11:0.11920292 12:0.7310586 13:0.11920292 14:0.01798621 15:0.01798621 16:0.95257413 17:0.7310586 18:0.006692851 19:0.047425874 20:0.11920292 #
0.51942017585192112871794734019204 1:0.006692851 2:0.01798621 3:0.00091105117 4:0.00091105117 5:0.006692851 6:0.01798621 7:0.0024726233 8:0.00091105117 9:0.00091105117 10:0.5 11:0.99752736 12:0.01798621 13:0.99330717 14:0.11920292 15:0.00091105117 16:0.01798621 17:0.047425874 18:0.0024726233 19:0.006692851 20:0.5 #
0.51942017585192112871794734019204 1:0.047425874 2:0.11920292 3:0.01798621 4:0.0024726233 5:0.01798621 6:0.047425874 7:0.006692851 8:0.01798621 9:0.006692851 10:0.5 11:0.95257413 12:0.01798621 13:0.99987662 14:0.11920292 15:0.006692851 16:0.01798621 17:0.11920292 18:0.01798621 19:0.11920292 20:0.26894143 #
0.51942017585192112871794734019204 1:0.01798621 2:0.0024726233 3:0.00091105117 4:0.00091105117 5:0.006692851 6:0.0024726233 7:0.0024726233 8:0.00091105117 9:0.0024726233 10:0.5 11:0.99752736 12:0.0024726233 13:0.7310586 14:0.26894143 15:0.0024726233 16:0.006692851 17:0.01798621 18:0.006692851 19:0.01798621 20:0.5 #
-0.12283578581133086649046504135185 1:0.5 2:0.7310586 3:0.5 4:0.7310586 5:0.047425874 6:0.7310586 7:0.5 8:0.5 9:0.88079709 10:0.5 11:0.26894143 12:0.5 13:0.5 14:0.5 15:0.047425874 16:0.5 17:0.5 18:0.88079709 19:0.5 20:0.11920292 #
-0.51942017585192112871794734019204 1:0.047425874 2:0.01798621 3:0.006692851 4:0.006692851 5:0.047425874 6:0.01798621 7:0.01798621 8:0.006692851 9:0.01798621 10:0.5 11:0.99752736 12:0.01798621 13:0.7310586 14:0.26894143 15:0.01798621 16:0.01798621 17:0.047425874 18:0.047425874 19:0.047425874 20:0.7310586 #
-0.10054533127472928266676888142683 1:0.00091105117 2:0.00033535014 3:0.00012339458 4:0.00012339458 5:0.00091105117 6:0.00033535014 7:0.00033535014 8:0.00012339458 9:0.00033535014 10:0.11920292 11:0.99908894 12:0.00033535014 13:0.047425874 14:0.01798621 15:0.00012339458 16:0.00033535014 17:0.00091105117 18:0.00091105117 19:0.00091105117 20:0.01798621 #
0.51942017585192112871794734019204 1:0.7310586 2:0.88079709 3:0.5 4:0.26894143 5:0.01798621 6:0.7310586 7:0.26894143 8:0.5 9:0.7310586 10:0.047425874 11:0.11920292 12:0.7310586 13:0.26894143 14:0.01798621 15:0.047425874 16:0.7310586 17:0.95257413 18:0.047425874 19:0.047425874 20:0.26894143 #
0.51942017585192112871794734019204 1:0.7310586 2:0.88079709 3:0.5 4:0.26894143 5:0.047425874 6:0.7310586 7:0.5 8:0.5 9:0.7310586 10:0.11920292 11:0.11920292 12:0.7310586 13:0.26894143 14:0.11920292 15:0.047425874 16:0.88079709 17:0.7310586 18:0.047425874 19:0.26894143 20:0.26894143 #
0.51942017585192112871794734019204 1:0.7310586 2:0.5 3:0.7310586 4:0.26894143 5:0.01798621 6:0.5 7:0.26894143 8:0.26894143 9:0.7310586 10:0.01798621 11:0.01798621 12:0.5 13:0.5 14:0.047425874 15:0.01798621 16:0.98201376 17:0.95257413 18:0.006692851 19:0.047425874 20:0.11920292 #
-0.51942017585192112871794734019204 1:0.7310586 2:0.7310586 3:0.26894143 4:0.26894143 5:0.11920292 6:0.5 7:0.11920292 8:0.7310586 9:0.7310586 10:0.11920292 11:0.11920292 12:0.5 13:0.11920292 14:0.047425874 15:0.11920292 16:0.88079709 17:0.95257413 18:0.11920292 19:0.047425874 20:0.26894143 #
0.51942017585192112871794734019204 1:0.26894143 2:0.88079709 3:0.26894143 4:0.88079709 5:0.01798621 6:0.5 7:0.7310586 8:0.047425874 9:0.01798621 10:0.11920292 11:0.047425874 12:0.26894143 13:0.11920292 14:0.01798621 15:0.01798621 16:0.7310586 17:0.98201376 18:0.006692851 19:0.01798621 20:0.26894143 #
-0.10584163144359856612020109878358 1:0.26894143 2:0.047425874 3:0.047425874 4:0.006692851 5:0.01798621 6:0.11920292 7:0.26894143 8:0.006692851 9:0.88079709 10:0.5 11:0.047425874 12:0.11920292 13:0.047425874 14:0.11920292 15:0.006692851 16:0.5 17:0.7310586 18:0.006692851 19:0.88079709 20:0.99330717 #
0.51942017585192112871794734019204 1:0.01798621 2:0.006692851 3:0.0024726233 4:0.0024726233 5:0.006692851 6:0.5 7:0.006692851 8:0.00091105117 9:0.0024726233 10:0.99330717 11:0.98201376 12:0.006692851 13:0.95257413 14:0.047425874 15:0.0024726233 16:0.006692851 17:0.047425874 18:0.006692851 19:0.01798621 20:0.7310586 #
0.51942017585192112871794734019204 1:0.01798621 2:0.006692851 3:0.0024726233 4:0.00091105117 5:0.01798621 6:0.006692851 7:0.0024726233 8:0.00091105117 9:0.0024726233 10:0.95257413 11:0.99752736 12:0.0024726233 13:0.7310586 14:0.11920292 15:0.0024726233 16:0.0024726233 17:0.01798621 18:0.01798621 19:0.01798621 20:0.5 #
0.51942017585192112871794734019204 1:0.006692851 2:0.00091105117 3:0.00033535014 4:0.00033535014 5:0.0024726233 6:0.00091105117 7:0.00091105117 8:0.00033535014 9:0.00091105117 10:0.99752736 11:0.98201376 12:0.00091105117 13:0.99752736 14:0.047425874 15:0.00091105117 16:0.00091105117 17:0.006692851 18:0.00091105117 19:0.006692851 20:0.88079709 #
-0.036531731282026941309837297922058 1:0.11920292 2:0.99330717 3:0.88079709 4:0.88079709 5:0.0024726233 6:0.7310586 7:0.5 8:0.01798621 9:0.88079709 10:0.01798621 11:0.006692851 12:0.88079709 13:0.047425874 14:0.047425874 15:0.047425874 16:0.26894143 17:0.26894143 18:0.88079709 19:0.26894143 20:0.26894143 #
-0.21258910877369821545990191680175 1:0.047425874 2:0.0024726233 3:0.00091105117 4:0.00091105117 5:0.006692851 6:0.01798621 7:0.0024726233 8:0.00091105117 9:0.0024726233 10:0.98201376 11:0.95257413 12:0.0024726233 13:0.88079709 14:0.047425874 15:0.0024726233 16:0.0024726233 17:0.047425874 18:0.0024726233 19:0.047425874 20:0.99330717 #
-0.51942017585192112871794734019204 1:0.11920292 2:0.006692851 3:0.0024726233 4:0.01798621 5:0.01798621 6:0.006692851 7:0.006692851 8:0.0024726233 9:0.0024726233 10:0.95257413 11:0.99330717 12:0.006692851 13:0.5 14:0.26894143 15:0.006692851 16:0.047425874 17:0.11920292 18:0.006692851 19:0.01798621 20:0.95257413 #
0.51942017585192112871794734019204 1:0.5 2:0.88079709 3:0.7310586 4:0.11920292 5:0.01798621 6:0.7310586 7:0.26894143 8:0.5 9:0.5 10:0.01798621 11:0.047425874 12:0.26894143 13:0.047425874 14:0.11920292 15:0.01798621 16:0.95257413 17:0.95257413 18:0.01798621 19:0.01798621 20:0.11920292 #
0.51942017585192112871794734019204 1:0.7310586 2:0.7310586 3:0.5 4:0.5 5:0.01798621 6:0.5 7:0.5 8:0.11920292 9:0.26894143 10:0.047425874 11:0.5 12:0.7310586 13:0.11920292 14:0.11920292 15:0.01798621 16:0.7310586 17:0.95257413 18:0.01798621 19:0.26894143 20:0.26894143 #
0.51942017585192112871794734019204 1:0.5 2:0.88079709 3:0.7310586 4:0.26894143 5:0.01798621 6:0.7310586 7:0.26894143 8:0.5 9:0.11920292 10:0.11920292 11:0.5 12:0.26894143 13:0.11920292 14:0.11920292 15:0.047425874 16:0.95257413 17:0.7310586 18:0.01798621 19:0.11920292 20:0.26894143 #
-0.51942017585192112871794734019204 1:0.5 2:0.95257413 3:0.88079709 4:0.5 5:0.006692851 6:0.95257413 7:0.26894143 8:0.5 9:0.047425874 10:0.047425874 11:0.047425874 12:0.5 13:0.047425874 14:0.006692851 15:0.01798621 16:0.88079709 17:0.95257413 18:0.006692851 19:0.047425874 20:0.047425874 #
-0.51942017585192112871794734019204 1:0.5 2:0.5 3:0.95257413 4:0.26894143 5:0.047425874 6:0.88079709 7:0.26894143 8:0.7310586 9:0.26894143 10:0.047425874 11:0.26894143 12:0.26894143 13:0.11920292 14:0.047425874 15:0.11920292 16:0.88079709 17:0.88079709 18:0.01798621 19:0.26894143 20:0.11920292 #
-0.51942017585192112871794734019204 1:0.11920292 2:0.95257413 3:0.7310586 4:0.5 5:0.01798621 6:0.7310586 7:0.26894143 8:0.5 9:0.26894143 10:0.047425874 11:0.11920292 12:0.5 13:0.26894143 14:0.01798621 15:0.047425874 16:0.88079709 17:0.95257413 18:0.006692851 19:0.047425874 20:0.047425874 #
0.51942017585192112871794734019204 1:0.11920292 2:0.006692851 3:0.0024726233 4:0.0024726233 5:0.01798621 6:0.006692851 7:0.0024726233 8:0.047425874 9:0.0024726233 10:0.95257413 11:0.98201376 12:0.006692851 13:0.95257413 14:0.11920292 15:0.0024726233 16:0.006692851 17:0.01798621 18:0.01798621 19:0.01798621 20:0.98201376 #
0.51942017585192112871794734019204 1:0.047425874 2:0.0024726233 3:0.0024726233 4:0.00091105117 5:0.01798621 6:0.006692851 7:0.0024726233 8:0.00091105117 9:0.0024726233 10:0.98201376 11:0.99330717 12:0.0024726233 13:0.88079709 14:0.11920292 15:0.0024726233 16:0.006692851 17:0.01798621 18:0.006692851 19:0.01798621 20:0.95257413 #
0.51942017585192112871794734019204 1:0.26894143 2:0.006692851 3:0.0024726233 4:0.0024726233 5:0.01798621 6:0.006692851 7:0.0024726233 8:0.0024726233 9:0.0024726233 10:0.98201376 11:0.88079709 12:0.006692851 13:0.98201376 14:0.11920292 15:0.006692851 16:0.006692851 17:0.047425874 18:0.006692851 19:0.01798621 20:0.99330717 #
-0.51942017585192112871794734019204 1:0.26894143 2:0.006692851 3:0.0024726233 4:0.0024726233 5:0.01798621 6:0.01798621 7:0.006692851 8:0.0024726233 9:0.0024726233 10:0.98201376 11:0.88079709 12:0.006692851 13:0.98201376 14:0.047425874 15:0.006692851 16:0.01798621 17:0.11920292 18:0.006692851 19:0.01798621 20:0.99330717 #
-0.51942017585192112871794734019204 1:0.047425874 2:0.006692851 3:0.047425874 4:0.0024726233 5:0.01798621 6:0.01798621 7:0.0024726233 8:0.0024726233 9:0.006692851 10:0.98201376 11:0.95257413 12:0.006692851 13:0.99330717 14:0.047425874 15:0.0024726233 16:0.01798621 17:0.047425874 18:0.01798621 19:0.047425874 20:0.98201376 #
-0.51942017585192112871794734019204 1:0.006692851 2:0.0024726233 3:0.00091105117 4:0.00091105117 5:0.006692851 6:0.0024726233 7:0.0024726233 8:0.00091105117 9:0.00091105117 10:0.99752736 11:0.88079709 12:0.0024726233 13:0.95257413 14:0.11920292 15:0.0024726233 16:0.0024726233 17:0.01798621 18:0.0024726233 19:0.006692851 20:0.98201376 #
0.51942017585192112871794734019204 1:0.26894143 2:0.98201376 3:0.7310586 4:0.5 5:0.006692851 6:0.88079709 7:0.11920292 8:0.5 9:0.26894143 10:0.01798621 11:0.047425874 12:0.88079709 13:0.01798621 14:0.006692851 15:0.01798621 16:0.88079709 17:0.7310586 18:0.006692851 19:0.047425874 20:0.01798621 #
0.51942017585192112871794734019204 1:0.11920292 2:0.99330717 3:0.88079709 4:0.26894143 5:0.006692851 6:0.88079709 7:0.26894143 8:0.26894143 9:0.11920292 10:0.006692851 11:0.01798621 12:0.5 13:0.01798621 14:0.006692851 15:0.01798621 16:0.95257413 17:0.7310586 18:0.047425874 19:0.01798621 20:0.047425874 #
0.51942017585192112871794734019204 1:0.26894143 2:0.7310586 3:0.95257413 4:0.26894143 5:0.006692851 6:0.7310586 7:0.11920292 8:0.99330717 9:0.11920292 10:0.0024726233 11:0.006692851 12:0.26894143 13:0.01798621 14:0.006692851 15:0.006692851 16:0.7310586 17:0.7310586 18:0.0024726233 19:0.047425874 20:0.006692851 #
-0.51942017585192112871794734019204 1:0.26894143 2:0.99330717 3:0.98201376 4:0.26894143 5:0.0024726233 6:0.88079709 7:0.047425874 8:0.26894143 9:0.047425874 10:0.006692851 11:0.047425874 12:0.26894143 13:0.006692851 14:0.01798621 15:0.006692851 16:0.7310586 17:0.5 18:0.0024726233 19:0.006692851 20:0.047425874 #
-0.51942017585192112871794734019204 1:0.26894143 2:0.88079709 3:0.5 4:0.11920292 5:0.01798621 6:0.88079709 7:0.5 8:0.26894143 9:0.11920292 10:0.047425874 11:0.11920292 12:0.99330717 13:0.047425874 14:0.006692851 15:0.047425874 16:0.7310586 17:0.5 18:0.006692851 19:0.01798621 20:0.047425874 #
-0.51942017585192112871794734019204 1:0.11920292 2:0.98201376 3:0.5 4:0.11920292 5:0.26894143 6:0.7310586 7:0.26894143 8:0.7310586 9:0.11920292 10:0.047425874 11:0.047425874 12:0.98201376 13:0.11920292 14:0.01798621 15:0.11920292 16:0.7310586 17:0.7310586 18:0.047425874 19:0.047425874 20:0.047425874 #
0.51942017585192112871794734019204 1:0.11920292 2:0.01798621 3:0.047425874 4:0.0024726233 5:0.01798621 6:0.11920292 7:0.006692851 8:0.0024726233 9:0.01798621 10:0.95257413 11:0.11920292 12:0.11920292 13:0.88079709 14:0.11920292 15:0.0024726233 16:0.11920292 17:0.26894143 18:0.26894143 19:0.26894143 20:0.99752736 #
0.51942017585192112871794734019204 1:0.11920292 2:0.00091105117 3:0.00091105117 4:0.00033535014 5:0.0024726233 6:0.00091105117 7:0.0024726233 8:0.26894143 9:0.00091105117 10:0.95257413 11:0.99330717 12:0.00091105117 13:0.88079709 14:0.047425874 15:0.00091105117 16:0.006692851 17:0.006692851 18:0.00091105117 19:0.0024726233 20:0.98201376 #
0.51942017585192112871794734019204 1:0.11920292 2:0.01798621 3:0.11920292 4:0.0024726233 5:0.01798621 6:0.006692851 7:0.006692851 8:0.01798621 9:0.01798621 10:0.98201376 11:0.98201376 12:0.047425874 13:0.88079709 14:0.26894143 15:0.11920292 16:0.01798621 17:0.047425874 18:0.006692851 19:0.047425874 20:0.88079709 #
-0.51942017585192112871794734019204 1:0.047425874 2:0.006692851 3:0.0024726233 4:0.0024726233 5:0.01798621 6:0.006692851 7:0.0024726233 8:0.0024726233 9:0.0024726233 10:0.99330717 11:0.88079709 12:0.006692851 13:0.7310586 14:0.26894143 15:0.006692851 16:0.006692851 17:0.047425874 18:0.01798621 19:0.01798621 20:0.99330717 #
-0.51942017585192112871794734019204 1:0.047425874 2:0.006692851 3:0.0024726233 4:0.0024726233 5:0.01798621 6:0.006692851 7:0.0024726233 8:0.0024726233 9:0.0024726233 10:0.98201376 11:0.98201376 12:0.006692851 13:0.88079709 14:0.5 15:0.01798621 16:0.01798621 17:0.11920292 18:0.006692851 19:0.01798621 20:0.95257413 #
-0.51942017585192112871794734019204 1:0.11920292 2:0.006692851 3:0.0024726233 4:0.0024726233 5:0.01798621 6:0.006692851 7:0.0024726233 8:0.0024726233 9:0.0024726233 10:0.98201376 11:0.95257413 12:0.006692851 13:0.7310586 14:0.5 15:0.01798621 16:0.006692851 17:0.11920292 18:0.047425874 19:0.11920292 20:0.98201376 #
0.51942017585192112871794734019204 1:0.26894143 2:0.88079709 3:0.26894143 4:0.11920292 5:0.01798621 6:0.88079709 7:0.26894143 8:0.26894143 9:0.11920292 10:0.01798621 11:0.01798621 12:0.99330717 13:0.047425874 14:0.01798621 15:0.047425874 16:0.88079709 17:0.5 18:0.01798621 19:0.047425874 20:0.047425874 #
0.51942017585192112871794734019204 1:0.5 2:0.98201376 3:0.5 4:0.11920292 5:0.006692851 6:0.88079709 7:0.26894143 8:0.5 9:0.5 10:0.047425874 11:0.11920292 12:0.95257413 13:0.11920292 14:0.01798621 15:0.26894143 16:0.5 17:0.5 18:0.006692851 19:0.047425874 20:0.047425874 #
0.51942017585192112871794734019204 1:0.26894143 2:0.99752736 3:0.26894143 4:0.11920292 5:0.0024726233 6:0.5 7:0.26894143 8:0.26894143 9:0.047425874 10:0.0024726233 11:0.01798621 12:0.95257413 13:0.047425874 14:0.01798621 15:0.006692851 16:0.7310586 17:0.26894143 18:0.047425874 19:0.047425874 20:0.047425874 #
-0.51942017585192112871794734019204 1:0.047425874 2:0.99752736 3:0.11920292 4:0.01798621 5:0.0024726233 6:0.88079709 7:0.11920292 8:0.006692851 9:0.047425874 10:0.006692851 11:0.01798621 12:0.98201376 13:0.006692851 14:0.0024726233 15:0.047425874 16:0.7310586 17:0.26894143 18:0.0024726233 19:0.006692851 20:0.0024726233 #
-0.51942017585192112871794734019204 1:0.26894143 2:0.98201376 3:0.11920292 4:0.047425874 5:0.006692851 6:0.5 7:0.5 8:0.26894143 9:0.11920292 10:0.01798621 11:0.047425874 12:0.99330717 13:0.01798621 14:0.006692851 15:0.01798621 16:0.5 17:0.5 18:0.006692851 19:0.26894143 20:0.047425874 #
-0.39475294367100965953198965507909 1:0.26894143 2:0.98201376 3:0.5 4:0.26894143 5:0.006692851 6:0.95257413 7:0.5 8:0.11920292 9:0.26894143 10:0.01798621 11:0.047425874 12:0.98201376 13:0.047425874 14:0.047425874 15:0.01798621 16:0.5 17:0.26894143 18:0.006692851 19:0.11920292 20:0.11920292 #
0.51942017585192112871794734019204 1:0.01798621 2:0.0024726233 3:0.0024726233 4:0.0024726233 5:0.01798621 6:0.0024726233 7:0.0024726233 8:0.00091105117 9:0.0024726233 10:0.99330717 11:0.88079709 12:0.0024726233 13:0.95257413 14:0.7310586 15:0.0024726233 16:0.006692851 17:0.047425874 18:0.006692851 19:0.01798621 20:0.98201376 #
0.51942017585192112871794734019204 1:0.047425874 2:0.006692851 3:0.0024726233 4:0.00091105117 5:0.01798621 6:0.006692851 7:0.0024726233 8:0.00091105117 9:0.0024726233 10:0.95257413 11:0.99330717 12:0.0024726233 13:0.88079709 14:0.7310586 15:0.0024726233 16:0.006692851 17:0.01798621 18:0.006692851 19:0.01798621 20:0.88079709 #
0.51942017585192112871794734019204 1:0.11920292 2:0.0024726233 3:0.00091105117 4:0.00091105117 5:0.006692851 6:0.0024726233 7:0.006692851 8:0.00091105117 9:0.00091105117 10:0.95257413 11:0.99330717 12:0.0024726233 13:0.7310586 14:0.5 15:0.01798621 16:0.006692851 17:0.11920292 18:0.047425874 19:0.006692851 20:0.95257413 #
-0.51942017585192112871794734019204 1:0.047425874 2:0.0024726233 3:0.0024726233 4:0.00091105117 5:0.01798621 6:0.006692851 7:0.0024726233 8:0.00091105117 9:0.0024726233 10:0.95257413 11:0.99330717 12:0.0024726233 13:0.88079709 14:0.5 15:0.0024726233 16:0.006692851 17:0.01798621 18:0.006692851 19:0.01798621 20:0.95257413 #
-0.51942017585192112871794734019204 1:0.047425874 2:0.01798621 3:0.01798621 4:0.006692851 5:0.01798621 6:0.047425874 7:0.006692851 8:0.01798621 9:0.006692851 10:0.98201376 11:0.95257413 12:0.047425874 13:0.98201376 14:0.95257413 15:0.047425874 16:0.047425874 17:0.11920292 18:0.01798621 19:0.047425874 20:0.7310586 #
-0.51942017585192112871794734019204 1:0.26894143 2:0.01798621 3:0.11920292 4:0.01798621 5:0.047425874 6:0.047425874 7:0.01798621 8:0.01798621 9:0.01798621 10:0.95257413 11:0.98201376 12:0.01798621 13:0.95257413 14:0.5 15:0.047425874 16:0.11920292 17:0.11920292 18:0.047425874 19:0.11920292 20:0.88079709 #
0.51942017585192112871794734019204 1:0.11920292 2:0.99752736 3:0.26894143 4:0.01798621 5:0.006692851 6:0.7310586 7:0.88079709 8:0.006692851 9:0.11920292 10:0.006692851 11:0.006692851 12:0.98201376 13:0.01798621 14:0.01798621 15:0.01798621 16:0.26894143 17:0.26894143 18:0.006692851 19:0.047425874 20:0.006692851 #
0.51942017585192112871794734019204 1:0.047425874 2:0.99752736 3:0.5 4:0.26894143 5:0.0024726233 6:0.98201376 7:0.7310586 8:0.01798621 9:0.11920292 10:0.006692851 11:0.006692851 12:0.88079709 13:0.01798621 14:0.01798621 15:0.01798621 16:0.7310586 17:0.26894143 18:0.006692851 19:0.01798621 20:0.006692851 #
0.51942017585192112871794734019204 1:0.01798621 2:0.99908894 3:0.11920292 4:0.01798621 5:0.00091105117 6:0.88079709 7:0.26894143 8:0.0024726233 9:0.047425874 10:0.0024726233 11:0.006692851 12:0.95257413 13:0.01798621 14:0.0024726233 15:0.006692851 16:0.26894143 17:0.047425874 18:0.0024726233 19:0.006692851 20:0.0024726233 #
-0.51942017585192112871794734019204 1:0.047425874 2:0.98201376 3:0.11920292 4:0.01798621 5:0.0024726233 6:0.7310586 7:0.7310586 8:0.006692851 9:0.01798621 10:0.047425874 11:0.006692851 12:0.99752736 13:0.01798621 14:0.0024726233 15:0.01798621 16:0.047425874 17:0.047425874 18:0.0024726233 19:0.006692851 20:0.006692851 #
-0.51942017585192112871794734019204 1:0.11920292 2:0.99330717 3:0.26894143 4:0.26894143 5:0.006692851 6:0.99330717 7:0.95257413 8:0.01798621 9:0.11920292 10:0.01798621 11:0.01798621 12:0.7310586 13:0.01798621 14:0.006692851 15:0.01798621 16:0.26894143 17:0.11920292 18:0.006692851 19:0.01798621 20:0.047425874 #
-0.51942017585192112871794734019204 1:0.047425874 2:0.99752736 3:0.11920292 4:0.01798621 5:0.0024726233 6:0.99330717 7:0.5 8:0.01798621 9:0.11920292 10:0.01798621 11:0.01798621 12:0.95257413 13:0.01798621 14:0.0024726233 15:0.047425874 16:0.047425874 17:0.047425874 18:0.0024726233 19:0.047425874 20:0.01798621 #
0.51942017585192112871794734019204 1:0.11920292 2:0.006692851 3:0.0024726233 4:0.0024726233 5:0.01798621 6:0.047425874 7:0.01798621 8:0.00091105117 9:0.006692851 10:0.88079709 11:0.99330717 12:0.006692851 13:0.95257413 14:0.7310586 15:0.0024726233 16:0.006692851 17:0.047425874 18:0.006692851 19:0.26894143 20:0.7310586 #
0.51942017585192112871794734019204 1:0.047425874 2:0.0024726233 3:0.00091105117 4:0.00091105117 5:0.006692851 6:0.0024726233 7:0.0024726233 8:0.00091105117 9:0.0024726233 10:0.98201376 11:0.98201376 12:0.0024726233 13:0.99752736 14:0.5 15:0.0024726233 16:0.0024726233 17:0.01798621 18:0.006692851 19:0.006692851 20:0.7310586 #
0.51942017585192112871794734019204 1:0.11920292 2:0.01798621 3:0.006692851 4:0.006692851 5:0.047425874 6:0.01798621 7:0.01798621 8:0.01798621 9:0.01798621 10:0.88079709 11:0.99330717 12:0.01798621 13:0.7310586 14:0.5 15:0.11920292 16:0.01798621 17:0.11920292 18:0.047425874 19:0.26894143 20:0.7310586 #
-0.51942017585192112871794734019204 1:0.047425874 2:0.006692851 3:0.006692851 4:0.0024726233 5:0.01798621 6:0.006692851 7:0.01798621 8:0.0024726233 9:0.006692851 10:0.7310586 11:0.99752736 12:0.006692851 13:0.7310586 14:0.7310586 15:0.006692851 16:0.006692851 17:0.11920292 18:0.11920292 19:0.01798621 20:0.7310586 #
-0.51942017585192112871794734019204 1:0.006692851 2:0.00091105117 3:0.00091105117 4:0.00091105117 5:0.006692851 6:0.0024726233 7:0.00091105117 8:0.0024726233 9:0.00091105117 10:0.99752736 11:0.98201376 12:0.00091105117 13:0.7310586 14:0.7310586 15:0.006692851 16:0.0024726233 17:0.006692851 18:0.0024726233 19:0.047425874 20:0.7310586 #
-0.51942017585192112871794734019204 1:0.01798621 2:0.0024726233 3:0.0024726233 4:0.0024726233 5:0.01798621 6:0.0024726233 7:0.0024726233 8:0.00091105117 9:0.0024726233 10:0.99908894 11:0.88079709 12:0.0024726233 13:0.88079709 14:0.7310586 15:0.0024726233 16:0.006692851 17:0.01798621 18:0.006692851 19:0.11920292 20:0.7310586 #
0.51942017585192112871794734019204 1:0.047425874 2:0.95257413 3:0.11920292 4:0.047425874 5:0.0024726233 6:0.7310586 7:0.7310586 8:0.006692851 9:0.26894143 10:0.01798621 11:0.01798621 12:0.99908894 13:0.047425874 14:0.0024726233 15:0.006692851 16:0.047425874 17:0.047425874 18:0.0024726233 19:0.006692851 20:0.047425874 #
0.51942017585192112871794734019204 1:0.11920292 2:0.99752736 3:0.26894143 4:0.11920292 5:0.01798621 6:0.98201376 7:0.5 8:0.047425874 9:0.26894143 10:0.01798621 11:0.047425874 12:0.7310586 13:0.11920292 14:0.01798621 15:0.047425874 16:0.11920292 17:0.11920292 18:0.01798621 19:0.047425874 20:0.047425874 #
0.51942017585192112871794734019204 1:0.047425874 2:0.99908894 3:0.11920292 4:0.047425874 5:0.006692851 6:0.7310586 7:0.5 8:0.01798621 9:0.11920292 10:0.006692851 11:0.01798621 12:0.7310586 13:0.047425874 14:0.006692851 15:0.01798621 16:0.047425874 17:0.26894143 18:0.006692851 19:0.01798621 20:0.006692851 #
-0.51942017585192112871794734019204 1:0.01798621 2:0.99330717 3:0.26894143 4:0.047425874 5:0.0024726233 6:0.7310586 7:0.11920292 8:0.11920292 9:0.26894143 10:0.0024726233 11:0.006692851 12:0.99752736 13:0.047425874 14:0.006692851 15:0.006692851 16:0.11920292 17:0.047425874 18:0.0024726233 19:0.047425874 20:0.006692851 #
-0.51942017585192112871794734019204 1:0.047425874 2:0.99908894 3:0.11920292 4:0.26894143 5:0.0024726233 6:0.7310586 7:0.26894143 8:0.047425874 9:0.5 10:0.006692851 11:0.01798621 12:0.5 13:0.11920292 14:0.01798621 15:0.01798621 16:0.11920292 17:0.047425874 18:0.0024726233 19:0.006692851 20:0.047425874 #
-0.51942017585192112871794734019204 1:0.047425874 2:0.99908894 3:0.26894143 4:0.01798621 5:0.0024726233 6:0.5 7:0.11920292 8:0.047425874 9:0.26894143 10:0.006692851 11:0.047425874 12:0.98201376 13:0.047425874 14:0.0024726233 15:0.01798621 16:0.11920292 17:0.047425874 18:0.0024726233 19:0.01798621 20:0.01798621 #
0.51942017585192112871794734019204 1:0.047425874 2:0.006692851 3:0.006692851 4:0.006692851 5:0.01798621 6:0.01798621 7:0.006692851 8:0.01798621 9:0.006692851 10:0.95257413 11:0.99330717 12:0.006692851 13:0.7310586 14:0.95257413 15:0.006692851 16:0.01798621 17:0.047425874 18:0.01798621 19:0.047425874 20:0.88079709 #
0.51942017585192112871794734019204 1:0.01798621 2:0.0024726233 3:0.0024726233 4:0.0024726233 5:0.01798621 6:0.006692851 7:0.0024726233 8:0.00091105117 9:0.0024726233 10:0.99330717 11:0.98201376 12:0.0024726233 13:0.5 14:0.95257413 15:0.0024726233 16:0.006692851 17:0.01798621 18:0.006692851 19:0.047425874 20:0.88079709 #
0.51942017585192112871794734019204 1:0.11920292 2:0.006692851 3:0.0024726233 4:0.0024726233 5:0.01798621 6:0.006692851 7:0.0024726233 8:0.0024726233 9:0.0024726233 10:0.88079709 11:0.99330717 12:0.006692851 13:0.7310586 14:0.95257413 15:0.0024726233 16:0.006692851 17:0.047425874 18:0.047425874 19:0.047425874 20:0.88079709 #
-0.51942017585192112871794734019204 1:0.11920292 2:0.006692851 3:0.0024726233 4:0.0024726233 5:0.01798621 6:0.006692851 7:0.0024726233 8:0.0024726233 9:0.006692851 10:0.88079709 11:0.99330717 12:0.006692851 13:0.7310586 14:0.95257413 15:0.006692851 16:0.006692851 17:0.01798621 18:0.11920292 19:0.047425874 20:0.95257413 #
-0.51942017585192112871794734019204 1:0.01798621 2:0.006692851 3:0.0024726233 4:0.0024726233 5:0.01798621 6:0.006692851 7:0.0024726233 8:0.0024726233 9:0.006692851 10:0.98201376 11:0.98201376 12:0.006692851 13:0.7310586 14:0.95257413 15:0.0024726233 16:0.006692851 17:0.01798621 18:0.01798621 19:0.11920292 20:0.95257413 #
-0.51942017585192112871794734019204 1:0.01798621 2:0.006692851 3:0.0024726233 4:0.0024726233 5:0.01798621 6:0.006692851 7:0.006692851 8:0.0024726233 9:0.006692851 10:0.99330717 11:0.98201376 12:0.006692851 13:0.7310586 14:0.95257413 15:0.006692851 16:0.006692851 17:0.047425874 18:0.01798621 19:0.11920292 20:0.88079709 #
0.51942017585192112871794734019204 1:0.01798621 2:0.99330717 3:0.26894143 4:0.26894143 5:0.00091105117 6:0.5 7:0.11920292 8:0.006692851 9:0.26894143 10:0.0024726233 11:0.0024726233 12:0.99752736 13:0.006692851 14:0.0024726233 15:0.006692851 16:0.11920292 17:0.047425874 18:0.0024726233 19:0.006692851 20:0.01798621 #
0.51942017585192112871794734019204 1:0.01798621 2:0.88079709 3:0.11920292 4:0.006692851 5:0.00091105117 6:0.5 7:0.047425874 8:0.0024726233 9:0.006692851 10:0.00091105117 11:0.0024726233 12:0.99966466 13:0.006692851 14:0.00091105117 15:0.01798621 16:0.047425874 17:0.047425874 18:0.00091105117 19:0.0024726233 20:0.0024726233 #
0.51942017585192112871794734019204 1:0.047425874 2:0.99908894 3:0.5 4:0.047425874 5:0.006692851 6:0.7310586 7:0.26894143 8:0.047425874 9:0.26894143 10:0.01798621 11:0.01798621 12:0.88079709 13:0.047425874 14:0.047425874 15:0.01798621 16:0.26894143 17:0.047425874 18:0.006692851 19:0.01798621 20:0.01798621 #
-0.51942017585192112871794734019204 1:0.047425874 2:0.95257413 3:0.11920292 4:0.047425874 5:0.006692851 6:0.5 7:0.11920292 8:0.01798621 9:0.047425874 10:0.006692851 11:0.01798621 12:0.99908894 13:0.01798621 14:0.11920292 15:0.047425874 16:0.11920292 17:0.11920292 18:0.006692851 19:0.01798621 20:0.006692851 #
0.51942017585192112871794734019204 1:0.01798621 2:0.006692851 3:0.0024726233 4:0.0024726233 5:0.01798621 6:0.006692851 7:0.0024726233 8:0.0024726233 9:0.0024726233 10:0.98201376 11:0.98201376 12:0.006692851 13:0.95257413 14:0.88079709 15:0.0024726233 16:0.006692851 17:0.01798621 18:0.01798621 19:0.047425874 20:0.95257413 #
-0.51942017585192112871794734019204 1:0.88079709 2:0.006692851 3:0.11920292 4:0.5 5:0.006692851 6:0.01798621 7:0.11920292 8:0.95257413 9:0.006692851 10:0.0024726233 11:0.006692851 12:0.01798621 13:0.01798621 14:0.0024726233 15:0.006692851 16:0.99330717 17:0.5 18:0.0024726233 19:0.0024726233 20:0.006692851 #
-0.51942017585192112871794734019204 1:0.047425874 2:0.99752736 3:0.26894143 4:0.047425874 5:0.006692851 6:0.7310586 7:0.047425874 8:0.01798621 9:0.11920292 10:0.01798621 11:0.01798621 12:0.98201376 13:0.047425874 14:0.01798621 15:0.047425874 16:0.047425874 17:0.11920292 18:0.006692851 19:0.047425874 20:0.047425874 #
0.51942017585192112871794734019204 1:0.047425874 2:0.006692851 3:0.0024726233 4:0.0024726233 5:0.01798621 6:0.006692851 7:0.0024726233 8:0.006692851 9:0.006692851 10:0.95257413 11:0.98201376 12:0.006692851 13:0.7310586 14:0.99330717 15:0.0024726233 16:0.006692851 17:0.01798621 18:0.047425874 19:0.26894143 20:0.88079709 #
0.51942017585192112871794734019204 1:0.11920292 2:0.0024726233 3:0.006692851 4:0.006692851 5:0.006692851 6:0.01798621 7:0.0024726233 8:0.006692851 9:0.0024726233 10:0.98201376 11:0.95257413 12:0.0024726233 13:0.7310586 14:0.98201376 15:0.006692851 16:0.006692851 17:0.01798621 18:0.01798621 19:0.11920292 20:0.88079709 #
-0.51286500882748653484810574809671 1:0.01798621 2:0.99908894 3:0.5 4:0.047425874 5:0.0024726233 6:0.5 7:0.7310586 8:0.006692851 9:0.26894143 10:0.01798621 11:0.006692851 12:0.88079709 13:0.01798621 14:0.0024726233 15:0.006692851 16:0.11920292 17:0.5 18:0.0024726233 19:0.006692851 20:0.006692851 #
-0.51942017585192112871794734019204 1:0.26894143 2:0.98201376 3:0.26894143 4:0.26894143 5:0.047425874 6:0.98201376 7:0.7310586 8:0.01798621 9:0.26894143 10:0.01798621 11:0.047425874 12:0.88079709 13:0.047425874 14:0.006692851 15:0.01798621 16:0.88079709 17:0.5 18:0.006692851 19:0.047425874 20:0.047425874 #
-0.51942017585192112871794734019204 1:0.11920292 2:0.7310586 3:0.26894143 4:0.11920292 5:0.01798621 6:0.7310586 7:0.5 8:0.047425874 9:0.11920292 10:0.047425874 11:0.26894143 12:0.99752736 13:0.11920292 14:0.01798621 15:0.11920292 16:0.7310586 17:0.26894143 18:0.01798621 19:0.047425874 20:0.047425874 #
0.51942017585192112871794734019204 1:0.7310586 2:0.5 3:0.7310586 4:0.5 5:0.26894143 6:0.26894143 7:0.5 8:0.7310586 9:0.26894143 10:0.5 11:0.26894143 12:0.5 13:0.26894143 14:0.11920292 15:0.26894143 16:0.7310586 17:0.88079709 18:0.047425874 19:0.26894143 20:0.5 #
0.51942017585192112871794734019204 1:0.26894143 2:0.7310586 3:0.88079709 4:0.5 5:0.047425874 6:0.7310586 7:0.7310586 8:0.26894143 9:0.88079709 10:0.5 11:0.26894143 12:0.5 13:0.26894143 14:0.11920292 15:0.11920292 16:0.5 17:0.7310586 18:0.047425874 19:0.11920292 20:0.7310586 #
0.51942017585192112871794734019204 1:0.11920292 2:0.006692851 3:0.0024726233 4:0.0024726233 5:0.5 6:0.006692851 7:0.0024726233 8:0.0024726233 9:0.006692851 10:0.98201376 11:0.98201376 12:0.006692851 13:0.7310586 14:0.95257413 15:0.0024726233 16:0.047425874 17:0.11920292 18:0.01798621 19:0.26894143 20:0.88079709 #
-0.51942017585192112871794734019204 1:0.11920292 2:0.006692851 3:0.01798621 4:0.0024726233 5:0.01798621 6:0.01798621 7:0.006692851 8:0.0024726233 9:0.006692851 10:0.98201376 11:0.99330717 12:0.01798621 13:0.7310586 14:0.88079709 15:0.006692851 16:0.01798621 17:0.047425874 18:0.01798621 19:0.26894143 20:0.7310586 #
0.51942017585192112871794734019204 1:0.26894143 2:0.99330717 3:0.11920292 4:0.01798621 5:0.01798621 6:0.5 7:0.26894143 8:0.047425874 9:0.26894143 10:0.0024726233 11:0.006692851 12:0.99330717 13:0.26894143 14:0.0024726233 15:0.26894143 16:0.26894143 17:0.26894143 18:0.0024726233 19:0.006692851 20:0.006692851 #
-0.51942017585192112871794734019204 1:0.11920292 2:0.006692851 3:0.11920292 4:0.0024726233 5:0.01798621 6:0.01798621 7:0.0024726233 8:0.006692851 9:0.006692851 10:0.95257413 11:0.98201376 12:0.006692851 13:0.95257413 14:0.95257413 15:0.0024726233 16:0.006692851 17:0.01798621 18:0.01798621 19:0.26894143 20:0.95257413 #
-0.51942017585192112871794734019204 1:0.11920292 2:0.006692851 3:0.0024726233 4:0.0024726233 5:0.047425874 6:0.006692851 7:0.0024726233 8:0.0024726233 9:0.006692851 10:0.88079709 11:0.99330717 12:0.0024726233 13:0.5 14:0.88079709 15:0.01798621 16:0.006692851 17:0.01798621 18:0.006692851 19:0.26894143 20:0.88079709 #
0.51942017585192112871794734019204 1:0.006692851 2:0.99908894 3:0.26894143 4:0.006692851 5:0.00091105117 6:0.5 7:0.11920292 8:0.11920292 9:0.26894143 10:0.00091105117 11:0.0024726233 12:0.88079709 13:0.0024726233 14:0.006692851 15:0.0024726233 16:0.5 17:0.047425874 18:0.00091105117 19:0.006692851 20:0.00091105117 #
0.51942017585192112871794734019204 1:0.26894143 2:0.95257413 3:0.047425874 4:0.01798621 5:0.0024726233 6:0.5 7:0.26894143 8:0.047425874 9:0.01798621 10:0.006692851 11:0.006692851 12:0.99908894 13:0.047425874 14:0.00091105117 15:0.006692851 16:0.11920292 17:0.047425874 18:0.0024726233 19:0.006692851 20:0.0024726233 #
-0.51942017585192112871794734019204 1:0.01798621 2:0.00091105117 3:0.00091105117 4:0.00033535014 5:0.0024726233 6:0.00091105117 7:0.00091105117 8:0.01798621 9:0.00091105117 10:0.7310586 11:0.99330717 12:0.00091105117 13:0.88079709 14:0.99330717 15:0.00091105117 16:0.0024726233 17:0.01798621 18:0.006692851 19:0.01798621 20:0.95257413 #
-0.51942017585192112871794734019204 1:0.11920292 2:0.01798621 3:0.01798621 4:0.006692851 5:0.01798621 6:0.047425874 7:0.006692851 8:0.01798621 9:0.006692851 10:0.95257413 11:0.95257413 12:0.006692851 13:0.7310586 14:0.95257413 15:0.11920292 16:0.26894143 17:0.26894143 18:0.11920292 19:0.11920292 20:0.95257413 #
-0.51942017585192112871794734019204 1:0.5 2:0.01798621 3:0.01798621 4:0.006692851 5:0.047425874 6:0.047425874 7:0.01798621 8:0.01798621 9:0.01798621 10:0.95257413 11:0.88079709 12:0.01798621 13:0.88079709 14:0.88079709 15:0.01798621 16:0.047425874 17:0.5 18:0.047425874 19:0.11920292 20:0.98201376 #
0.51942017585192112871794734019204 1:0.11920292 2:0.98201376 3:0.11920292 4:0.11920292 5:0.006692851 6:0.95257413 7:0.7310586 8:0.047425874 9:0.047425874 10:0.01798621 11:0.047425874 12:0.95257413 13:0.047425874 14:0.0024726233 15:0.01798621 16:0.95257413 17:0.5 18:0.0024726233 19:0.006692851 20:0.047425874 #
0.51942017585192112871794734019204 1:0.01798621 2:0.98201376 3:0.5 4:0.11920292 5:0.00091105117 6:0.7310586 7:0.047425874 8:0.047425874 9:0.11920292 10:0.006692851 11:0.0024726233 12:0.99752736 13:0.006692851 14:0.26894143 15:0.006692851 16:0.5 17:0.5 18:0.11920292 19:0.11920292 20:0.006692851 #
0.51942017585192112871794734019204 1:0.01798621 2:0.99752736 3:0.11920292 4:0.047425874 5:0.00091105117 6:0.99330717 7:0.26894143 8:0.11920292 9:0.26894143 10:0.0024726233 11:0.047425874 12:0.88079709 13:0.11920292 14:0.26894143 15:0.006692851 16:0.047425874 17:0.11920292 18:0.0024726233 19:0.01798621 20:0.01798621 #
-0.27928052877104136975106030149618 1:0.26894143 2:0.99330717 3:0.11920292 4:0.11920292 5:0.0024726233 6:0.99330717 7:0.26894143 8:0.047425874 9:0.11920292 10:0.01798621 11:0.01798621 12:0.95257413 13:0.047425874 14:0.0024726233 15:0.01798621 16:0.047425874 17:0.26894143 18:0.006692851 19:0.01798621 20:0.01798621 #
-0.51942017585192112871794734019204 1:0.01798621 2:0.99908894 3:0.5 4:0.01798621 5:0.006692851 6:0.95257413 7:0.047425874 8:0.006692851 9:0.11920292 10:0.01798621 11:0.006692851 12:0.88079709 13:0.01798621 14:0.0024726233 15:0.006692851 16:0.26894143 17:0.11920292 18:0.01798621 19:0.01798621 20:0.01798621 #
0.51942017585192112871794734019204 1:0.11920292 2:0.006692851 3:0.0024726233 4:0.0024726233 5:0.01798621 6:0.006692851 7:0.0024726233 8:0.0024726233 9:0.006692851 10:0.95257413 11:0.95257413 12:0.006692851 13:0.7310586 14:0.98201376 15:0.0024726233 16:0.006692851 17:0.047425874 18:0.11920292 19:0.26894143 20:0.95257413 #
0.51942017585192112871794734019204 1:0.11920292 2:0.006692851 3:0.0024726233 4:0.0024726233 5:0.01798621 6:0.006692851 7:0.006692851 8:0.01798621 9:0.006692851 10:0.95257413 11:0.95257413 12:0.006692851 13:0.88079709 14:0.88079709 15:0.006692851 16:0.01798621 17:0.047425874 18:0.047425874 19:0.26894143 20:0.99330717 #
-0.12647906035556569226407930273126 1:0.5 2:0.95257413 3:0.7310586 4:0.7310586 5:0.01798621 6:0.5 7:0.5 8:0.7310586 9:0.26894143 10:0.047425874 11:0.047425874 12:0.5 13:0.01798621 14:0.01798621 15:0.047425874 16:0.88079709 17:0.5 18:0.11920292 19:0.047425874 20:0.11920292 #
-0.51942017585192112871794734019204 1:0.11920292 2:0.95257413 3:0.5 4:0.047425874 5:0.006692851 6:0.98201376 7:0.11920292 8:0.01798621 9:0.047425874 10:0.047425874 11:0.01798621 12:0.99330717 13:0.047425874 14:0.0024726233 15:0.01798621 16:0.7310586 17:0.5 18:0.006692851 19:0.01798621 20:0.11920292 #
-0.37704144146488660638283363368828 1:0.5 2:0.95257413 3:0.88079709 4:0.26894143 5:0.11920292 6:0.7310586 7:0.26894143 8:0.5 9:0.5 10:0.047425874 11:0.11920292 12:0.7310586 13:0.11920292 14:0.047425874 15:0.11920292 16:0.88079709 17:0.5 18:0.047425874 19:0.11920292 20:0.11920292 #
0.51942017585192112871794734019204 1:0.11920292 2:0.047425874 3:0.006692851 4:0.006692851 5:0.01798621 6:0.01798621 7:0.006692851 8:0.01798621 9:0.006692851 10:0.7310586 11:0.99330717 12:0.006692851 13:0.88079709 14:0.7310586 15:0.006692851 16:0.047425874 17:0.11920292 18:0.047425874 19:0.047425874 20:0.88079709 #
0.51942017585192112871794734019204 1:0.26894143 2:0.006692851 3:0.047425874 4:0.047425874 5:0.01798621 6:0.11920292 7:0.01798621 8:0.006692851 9:0.006692851 10:0.95257413 11:0.95257413 12:0.01798621 13:0.7310586 14:0.88079709 15:0.11920292 16:0.11920292 17:0.26894143 18:0.01798621 19:0.11920292 20:0.95257413 #
0.51942017585192112871794734019204 1:0.11920292 2:0.01798621 3:0.006692851 4:0.006692851 5:0.047425874 6:0.01798621 7:0.006692851 8:0.047425874 9:0.01798621 10:0.7310586 11:0.98201376 12:0.01798621 13:0.88079709 14:0.98201376 15:0.006692851 16:0.047425874 17:0.047425874 18:0.047425874 19:0.11920292 20:0.88079709 #
-0.51942017585192112871794734019204 1:0.01798621 2:0.006692851 3:0.0024726233 4:0.0024726233 5:0.01798621 6:0.006692851 7:0.006692851 8:0.0024726233 9:0.006692851 10:0.98201376 11:0.99330717 12:0.006692851 13:0.7310586 14:0.88079709 15:0.006692851 16:0.006692851 17:0.01798621 18:0.01798621 19:0.047425874 20:0.88079709 #
-0.51942017585192112871794734019204 1:0.11920292 2:0.26894143 3:0.01798621 4:0.01798621 5:0.01798621 6:0.01798621 7:0.006692851 8:0.006692851 9:0.01798621 10:0.88079709 11:0.98201376 12:0.01798621 13:0.88079709 14:0.95257413 15:0.047425874 16:0.01798621 17:0.11920292 18:0.11920292 19:0.11920292 20:0.88079709 #
-0.51942017585192112871794734019204 1:0.047425874 2:0.01798621 3:0.006692851 4:0.0024726233 5:0.01798621 6:0.006692851 7:0.0024726233 8:0.0024726233 9:0.006692851 10:0.98201376 11:0.88079709 12:0.006692851 13:0.99752736 14:0.98201376 15:0.0024726233 16:0.006692851 17:0.01798621 18:0.01798621 19:0.047425874 20:0.88079709 #
0.51942017585192112871794734019204 1:0.5 2:0.99330717 3:0.5 4:0.11920292 5:0.006692851 6:0.88079709 7:0.11920292 8:0.11920292 9:0.5 10:0.006692851 11:0.047425874 12:0.88079709 13:0.047425874 14:0.0024726233 15:0.006692851 16:0.5 17:0.5 18:0.01798621 19:0.047425874 20:0.01798621 #
0.51942017585192112871794734019204 1:0.26894143 2:0.99330717 3:0.88079709 4:0.11920292 5:0.01798621 6:0.5 7:0.26894143 8:0.047425874 9:0.5 10:0.11920292 11:0.01798621 12:0.95257413 13:0.047425874 14:0.01798621 15:0.047425874 16:0.7310586 17:0.26894143 18:0.01798621 19:0.047425874 20:0.047425874 #
0.51942017585192112871794734019204 1:0.26894143 2:0.95257413 3:0.7310586 4:0.26894143 5:0.01798621 6:0.99330717 7:0.5 8:0.11920292 9:0.5 10:0.01798621 11:0.01798621 12:0.7310586 13:0.047425874 14:0.01798621 15:0.01798621 16:0.7310586 17:0.7310586 18:0.006692851 19:0.047425874 20:0.01798621 #
-0.51942017585192112871794734019204 1:0.5 2:0.99330717 3:0.5 4:0.047425874 5:0.006692851 6:0.5 7:0.047425874 8:0.01798621 9:0.7310586 10:0.01798621 11:0.047425874 12:0.95257413 13:0.047425874 14:0.006692851 15:0.01798621 16:0.88079709 17:0.7310586 18:0.01798621 19:0.01798621 20:0.047425874 #
0.51942017585192112871794734019204 1:0.01798621 2:0.0024726233 3:0.00091105117 4:0.00091105117 5:0.006692851 6:0.0024726233 7:0.00091105117 8:0.01798621 9:0.0024726233 10:0.99752736 11:0.95257413 12:0.0024726233 13:0.88079709 14:0.98201376 15:0.00091105117 16:0.0024726233 17:0.047425874 18:0.006692851 19:0.047425874 20:0.5 #
-0.10601137073310003267057055609257 1:0.26894143 2:0.5 3:0.11920292 4:0.26894143 5:0.0024726233 6:0.11920292 7:0.98201376 8:0.006692851 9:0.5 10:0.0024726233 11:0.047425874 12:0.047425874 13:0.26894143 14:0.0024726233 15:0.99752736 16:0.11920292 17:0.26894143 18:0.00091105117 19:0.01798621 20:0.006692851 #
0.51942017585192112871794734019204 1:0.98201376 2:0.11920292 3:0.11920292 4:0.047425874 5:0.5 6:0.01798621 7:0.01798621 8:0.95257413 9:0.01798621 10:0.11920292 11:0.26894143 12:0.5 13:0.5 14:0.5 15:0.01798621 16:0.5 17:0.26894143 18:0.95257413 19:0.26894143 20:0.5 #
0.51942017585192112871794734019204 1:0.11920292 2:0.006692851 3:0.0024726233 4:0.0024726233 5:0.01798621 6:0.006692851 7:0.0024726233 8:0.0024726233 9:0.0024726233 10:0.95257413 11:0.95257413 12:0.006692851 13:0.95257413 14:0.88079709 15:0.0024726233 16:0.006692851 17:0.11920292 18:0.006692851 19:0.047425874 20:0.99330717 #
-0.022074382611334097958888378343545 1:0.26894143 2:0.88079709 3:0.7310586 4:0.7310586 5:0.01798621 6:0.88079709 7:0.7310586 8:0.11920292 9:0.88079709 10:0.26894143 11:0.26894143 12:0.7310586 13:0.26894143 14:0.11920292 15:0.047425874 16:0.5 17:0.7310586 18:0.047425874 19:0.11920292 20:0.5 #
-0.51942017585192112871794734019204 1:0.01798621 2:0.88079709 3:0.26894143 4:0.5 5:0.0024726233 6:0.5 7:0.5 8:0.01798621 9:0.5 10:0.0024726233 11:0.006692851 12:0.99908894 13:0.01798621 14:0.0024726233 15:0.01798621 16:0.7310586 17:0.047425874 18:0.0024726233 19:0.006692851 20:0.006692851 #
-0.32238347197070416072506304772105 1:0.95257413 2:0.11920292 3:0.047425874 4:0.01798621 5:0.5 6:0.11920292 7:0.047425874 8:0.7310586 9:0.01798621 10:0.11920292 11:0.11920292 12:0.047425874 13:0.11920292 14:0.01798621 15:0.11920292 16:0.95257413 17:0.88079709 18:0.006692851 19:0.26894143 20:0.7310586 #
0.51942017585192112871794734019204 1:0.047425874 2:0.006692851 3:0.047425874 4:0.006692851 5:0.01798621 6:0.01798621 7:0.11920292 8:0.006692851 9:0.01798621 10:0.88079709 11:0.95257413 12:0.006692851 13:0.7310586 14:0.99752736 15:0.047425874 16:0.11920292 17:0.11920292 18:0.5 19:0.11920292 20:0.7310586 #
0.51942017585192112871794734019204 1:0.11920292 2:0.0024726233 3:0.0024726233 4:0.0024726233 5:0.01798621 6:0.01798621 7:0.0024726233 8:0.047425874 9:0.01798621 10:0.98201376 11:0.88079709 12:0.006692851 13:0.7310586 14:0.88079709 15:0.0024726233 16:0.01798621 17:0.047425874 18:0.047425874 19:0.26894143 20:0.99330717 #
0.51942017585192112871794734019204 1:0.11920292 2:0.006692851 3:0.006692851 4:0.006692851 5:0.01798621 6:0.01798621 7:0.006692851 8:0.01798621 9:0.006692851 10:0.95257413 11:0.95257413 12:0.006692851 13:0.95257413 14:0.88079709 15:0.006692851 16:0.01798621 17:0.11920292 18:0.5 19:0.26894143 20:0.95257413 #
-0.51942017585192112871794734019204 1:0.01798621 2:0.99966466 3:0.11920292 4:0.047425874 5:0.0024726233 6:0.7310586 7:0.047425874 8:0.047425874 9:0.047425874 10:0.01798621 11:0.047425874 12:0.7310586 13:0.01798621 14:0.006692851 15:0.006692851 16:0.047425874 17:0.01798621 18:0.006692851 19:0.006692851 20:0.006692851 #
0.51942017585192112871794734019204 1:0.047425874 2:0.006692851 3:0.0024726233 4:0.0024726233 5:0.01798621 6:0.006692851 7:0.0024726233 8:0.0024726233 9:0.0024726233 10:0.7310586 11:0.99752736 12:0.006692851 13:0.88079709 14:0.95257413 15:0.0024726233 16:0.006692851 17:0.01798621 18:0.01798621 19:0.047425874 20:0.7310586 #
-0.51942017585192112871794734019204 1:0.01798621 2:0.0024726233 3:0.0024726233 4:0.00091105117 5:0.047425874 6:0.006692851 7:0.0024726233 8:0.00091105117 9:0.0024726233 10:0.99330717 11:0.95257413 12:0.006692851 13:0.98201376 14:0.95257413 15:0.0024726233 16:0.006692851 17:0.047425874 18:0.5 19:0.26894143 20:0.95257413 #
-0.51942017585192112871794734019204 1:0.26894143 2:0.01798621 3:0.006692851 4:0.006692851 5:0.047425874 6:0.01798621 7:0.006692851 8:0.006692851 9:0.006692851 10:0.98201376 11:0.88079709 12:0.01798621 13:0.7310586 14:0.88079709 15:0.11920292 16:0.01798621 17:0.11920292 18:0.5 19:0.26894143 20:0.95257413 #
-0.51942017585192112871794734019204 1:0.047425874 2:0.0024726233 3:0.00091105117 4:0.00091105117 5:0.0024726233 6:0.0024726233 7:0.00091105117 8:0.0024726233 9:0.0024726233 10:0.88079709 11:0.7310586 12:0.00091105117 13:0.98201376 14:0.99966466 15:0.006692851 16:0.0024726233 17:0.047425874 18:0.26894143 19:0.26894143 20:0.7310586 #
0.51942017585192112871794734019204 1:0.26894143 2:0.88079709 3:0.7310586 4:0.7310586 5:0.047425874 6:0.88079709 7:0.5 8:0.11920292 9:0.99330717 10:0.11920292 11:0.11920292 12:0.88079709 13:0.11920292 14:0.11920292 15:0.11920292 16:0.5 17:0.26894143 18:0.047425874 19:0.26894143 20:0.26894143 #
0.51942017585192112871794734019204 1:0.26894143 2:0.95257413 3:0.26894143 4:0.11920292 5:0.01798621 6:0.5 7:0.26894143 8:0.11920292 9:0.7310586 10:0.01798621 11:0.047425874 12:0.99330717 13:0.047425874 14:0.01798621 15:0.047425874 16:0.5 17:0.5 18:0.01798621 19:0.11920292 20:0.047425874 #
0.51942017585192112871794734019204 1:0.5 2:0.95257413 3:0.7310586 4:0.5 5:0.01798621 6:0.98201376 7:0.5 8:0.11920292 9:0.5 10:0.047425874 11:0.26894143 12:0.7310586 13:0.11920292 14:0.11920292 15:0.047425874 16:0.7310586 17:0.5 18:0.01798621 19:0.047425874 20:0.11920292 #
-0.51942017585192112871794734019204 1:0.5 2:0.006692851 3:0.0024726233 4:0.00091105117 5:0.006692851 6:0.006692851 7:0.006692851 8:0.0024726233 9:0.006692851 10:0.5 11:0.99330717 12:0.0024726233 13:0.7310586 14:0.99330717 15:0.0024726233 16:0.006692851 17:0.047425874 18:0.01798621 19:0.047425874 20:0.5 #
-0.028988046486729892453615420322421 1:0.26894143 2:0.7310586 3:0.98201376 4:0.5 5:0.01798621 6:0.95257413 7:0.5 8:0.88079709 9:0.26894143 10:0.01798621 11:0.01798621 12:0.95257413 13:0.11920292 14:0.01798621 15:0.047425874 16:0.26894143 17:0.11920292 18:0.01798621 19:0.01798621 20:0.01798621 #
-0.51942017585192112871794734019204 1:0.26894143 2:0.0024726233 3:0.0024726233 4:0.00091105117 5:0.006692851 6:0.0024726233 7:0.0024726233 8:0.047425874 9:0.0024726233 10:0.98201376 11:0.99330717 12:0.0024726233 13:0.7310586 14:0.7310586 15:0.0024726233 16:0.047425874 17:0.047425874 18:0.01798621 19:0.01798621 20:0.5 #
0.51942017585192112871794734019204 1:0.047425874 2:0.99908894 3:0.5 4:0.047425874 5:0.006692851 6:0.95257413 7:0.11920292 8:0.01798621 9:0.11920292 10:0.01798621 11:0.11920292 12:0.5 13:0.047425874 14:0.01798621 15:0.01798621 16:0.047425874 17:0.047425874 18:0.01798621 19:0.01798621 20:0.01798621 #
0.51942017585192112871794734019204 1:0.01798621 2:0.99966466 3:0.01798621 4:0.006692851 5:0.00091105117 6:0.7310586 7:0.11920292 8:0.0024726233 9:0.01798621 10:0.00091105117 11:0.006692851 12:0.5 13:0.006692851 14:0.11920292 15:0.0024726233 16:0.11920292 17:0.047425874 18:0.00091105117 19:0.0024726233 20:0.0024726233 #
0.51942017585192112871794734019204 1:0.006692851 2:0.99966466 3:0.01798621 4:0.0024726233 5:0.00091105117 6:0.5 7:0.01798621 8:0.01798621 9:0.26894143 10:0.00091105117 11:0.0024726233 12:0.5 13:0.0024726233 14:0.00091105117 15:0.0024726233 16:0.01798621 17:0.006692851 18:0.00091105117 19:0.0024726233 20:0.00091105117 #
-0.51942017585192112871794734019204 1:0.006692851 2:0.99966466 3:0.11920292 4:0.006692851 5:0.00091105117 6:0.7310586 7:0.047425874 8:0.006692851 9:0.047425874 10:0.00091105117 11:0.0024726233 12:0.11920292 13:0.006692851 14:0.00091105117 15:0.0024726233 16:0.01798621 17:0.006692851 18:0.00091105117 19:0.0024726233 20:0.00091105117 #
0.51942017585192112871794734019204 1:0.5 2:0.047425874 3:0.047425874 4:0.01798621 5:0.047425874 6:0.01798621 7:0.01798621 8:0.047425874 9:0.01798621 10:0.7310586 11:0.99330717 12:0.047425874 13:0.7310586 14:0.7310586 15:0.01798621 16:0.11920292 17:0.26894143 18:0.01798621 19:0.11920292 20:0.5 #
-0.51942017585192112871794734019204 1:0.01798621 2:0.99966466 3:0.11920292 4:0.26894143 5:0.00091105117 6:0.5 7:0.11920292 8:0.01798621 9:0.11920292 10:0.01798621 11:0.01798621 12:0.5 13:0.01798621 14:0.0024726233 15:0.01798621 16:0.047425874 17:0.11920292 18:0.0024726233 19:0.01798621 20:0.01798621 #
-0.51942017585192112871794734019204 1:0.01798621 2:0.99966466 3:0.26894143 4:0.006692851 5:0.00091105117 6:0.7310586 7:0.01798621 8:0.0024726233 9:0.11920292 10:0.00091105117 11:0.006692851 12:0.5 13:0.006692851 14:0.0024726233 15:0.0024726233 16:0.01798621 17:0.01798621 18:0.047425874 19:0.01798621 20:0.0024726233 #
0.51942017585192112871794734019204 1:0.26894143 2:0.11920292 3:0.0024726233 4:0.01798621 5:0.006692851 6:0.006692851 7:0.006692851 8:0.0024726233 9:0.047425874 10:0.88079709 11:0.98201376 12:0.006692851 13:0.7310586 14:0.98201376 15:0.047425874 16:0.006692851 17:0.11920292 18:0.95257413 19:0.11920292 20:0.7310586 #
0.51942017585192112871794734019204 1:0.7310586 2:0.006692851 3:0.006692851 4:0.0024726233 5:0.047425874 6:0.006692851 7:0.006692851 8:0.01798621 9:0.006692851 10:0.7310586 11:0.98201376 12:0.006692851 13:0.5 14:0.95257413 15:0.006692851 16:0.11920292 17:0.5 18:0.01798621 19:0.047425874 20:0.7310586 #
-0.43253014767113479033255885042308 1:0.047425874 2:0.99908894 3:0.11920292 4:0.047425874 5:0.0024726233 6:0.26894143 7:0.26894143 8:0.047425874 9:0.11920292 10:0.01798621 11:0.01798621 12:0.5 13:0.006692851 14:0.047425874 15:0.26894143 16:0.047425874 17:0.11920292 18:0.0024726233 19:0.006692851 20:0.047425874 #
-0.51942017585192112871794734019204 1:0.00091105117 2:0.99987662 3:0.0024726233 4:0.00091105117 5:0.00012339458 6:0.01798621 7:0.006692851 8:0.00033535014 9:0.0024726233 10:0.00033535014 11:0.0024726233 12:0.5 13:0.00091105117 14:0.00033535014 15:0.01798621 16:0.0024726233 17:0.0024726233 18:0.00033535014 19:0.00091105117 20:0.00033535014 #
-0.51942017585192112871794734019204 1:0.11920292 2:0.006692851 3:0.047425874 4:0.006692851 5:0.006692851 6:0.01798621 7:0.01798621 8:0.5 9:0.01798621 10:0.7310586 11:0.95257413 12:0.006692851 13:0.98201376 14:0.7310586 15:0.01798621 16:0.11920292 17:0.26894143 18:0.26894143 19:0.11920292 20:0.98201376 #
0.51942017585192112871794734019204 1:0.5 2:0.95257413 3:0.95257413 4:0.11920292 5:0.01798621 6:0.7310586 7:0.26894143 8:0.26894143 9:0.7310586 10:0.01798621 11:0.01798621 12:0.95257413 13:0.047425874 14:0.01798621 15:0.7310586 16:0.7310586 17:0.26894143 18:0.01798621 19:0.5 20:0.01798621 #
0.51942017585192112871794734019204 1:0.26894143 2:0.5 3:0.7310586 4:0.26894143 5:0.047425874 6:0.7310586 7:0.26894143 8:0.95257413 9:0.7310586 10:0.01798621 11:0.01798621 12:0.88079709 13:0.047425874 14:0.01798621 15:0.11920292 16:0.88079709 17:0.5 18:0.01798621 19:0.047425874 20:0.047425874 #
0.51942017585192112871794734019204 1:0.26894143 2:0.7310586 3:0.88079709 4:0.26894143 5:0.01798621 6:0.95257413 7:0.11920292 8:0.5 9:0.26894143 10:0.047425874 11:0.01798621 12:0.26894143 13:0.047425874 14:0.006692851 15:0.88079709 16:0.98201376 17:0.88079709 18:0.006692851 19:0.01798621 20:0.01798621 #
-0.51942017585192112871794734019204 1:0.5 2:0.11920292 3:0.047425874 4:0.01798621 5:0.047425874 6:0.047425874 7:0.047425874 8:0.047425874 9:0.01798621 10:0.88079709 11:0.95257413 12:0.047425874 13:0.5 14:0.95257413 15:0.11920292 16:0.11920292 17:0.11920292 18:0.26894143 19:0.11920292 20:0.88079709 #
0.51942017585192112871794734019204 1:0.0024726233 2:0.99987662 3:0.01798621 4:0.0024726233 5:0.00033535014 6:0.047425874 7:0.006692851 8:0.00091105117 9:0.047425874 10:0.00033535014 11:0.00091105117 12:0.5 13:0.047425874 14:0.00033535014 15:0.00091105117 16:0.006692851 17:0.0024726233 18:0.00033535014 19:0.0024726233 20:0.00091105117 #
-0.34167671398356613821079008630477 1:0.88079709 2:0.5 3:0.7310586 4:0.88079709 5:0.01798621 6:0.7310586 7:0.7310586 8:0.26894143 9:0.11920292 10:0.01798621 11:0.01798621 12:0.7310586 13:0.047425874 14:0.88079709 15:0.01798621 16:0.88079709 17:0.5 18:0.006692851 19:0.047425874 20:0.01798621 #
0.51942017585192112871794734019204 1:0.006692851 2:0.99966466 3:0.5 4:0.01798621 5:0.11920292 6:0.5 7:0.047425874 8:0.0024726233 9:0.11920292 10:0.11920292 11:0.0024726233 12:0.26894143 13:0.006692851 14:0.0024726233 15:0.0024726233 16:0.01798621 17:0.006692851 18:0.0024726233 19:0.11920292 20:0.0024726233 #
-0.51942017585192112871794734019204 1:0.7310586 2:0.006692851 3:0.01798621 4:0.01798621 5:0.5 6:0.01798621 7:0.01798621 8:0.11920292 9:0.006692851 10:0.7310586 11:0.98201376 12:0.006692851 13:0.7310586 14:0.95257413 15:0.01798621 16:0.26894143 17:0.26894143 18:0.11920292 19:0.11920292 20:0.7310586 #
0.37704748281680899868462120139156 1:0.11920292 2:0.047425874 3:0.11920292 4:0.01798621 5:0.0024726233 6:0.01798621 7:0.006692851 8:0.006692851 9:0.99330717 10:0.5 11:0.11920292 12:0.01798621 13:0.11920292 14:0.99330717 15:0.0024726233 16:0.047425874 17:0.01798621 18:0.98201376 19:0.99908894 20:0.047425874 #
0.51942017585192112871794734019204 1:0.047425874 2:0.99966466 3:0.047425874 4:0.01798621 5:0.0024726233 6:0.26894143 7:0.11920292 8:0.11920292 9:0.047425874 10:0.006692851 11:0.01798621 12:0.7310586 13:0.01798621 14:0.006692851 15:0.01798621 16:0.047425874 17:0.047425874 18:0.006692851 19:0.01798621 20:0.11920292 #
0.51942017585192112871794734019204 1:0.00091105117 2:0.99987662 3:0.0024726233 4:0.00091105117 5:0.00012339458 6:0.5 7:0.0024726233 8:0.0024726233 9:0.0024726233 10:0.00012339458 11:0.00091105117 12:0.01798621 13:0.11920292 14:0.00033535014 15:0.00033535014 16:0.00091105117 17:0.00091105117 18:0.00033535014 19:0.00091105117 20:0.00033535014 #
-0.1781238556516727966627655632692 1:0.26894143 2:0.88079709 3:0.95257413 4:0.26894143 5:0.11920292 6:0.88079709 7:0.26894143 8:0.95257413 9:0.95257413 10:0.01798621 11:0.01798621 12:0.7310586 13:0.01798621 14:0.006692851 15:0.11920292 16:0.5 17:0.5 18:0.047425874 19:0.047425874 20:0.01798621 #
-0.51942017585192112871794734019204 1:0.95257413 2:0.01798621 3:0.01798621 4:0.006692851 5:0.26894143 6:0.01798621 7:0.01798621 8:0.26894143 9:0.01798621 10:0.7310586 11:0.95257413 12:0.01798621 13:0.7310586 14:0.7310586 15:0.01798621 16:0.5 17:0.7310586 18:0.01798621 19:0.11920292 20:0.7310586 #
-0.51942017585192112871794734019204 1:0.95257413 2:0.01798621 3:0.01798621 4:0.01798621 5:0.26894143 6:0.047425874 7:0.01798621 8:0.26894143 9:0.047425874 10:0.7310586 11:0.95257413 12:0.01798621 13:0.7310586 14:0.5 15:0.01798621 16:0.5 17:0.7310586 18:0.047425874 19:0.047425874 20:0.7310586 #
0.51942017585192112871794734019204 1:0.01798621 2:0.99966466 3:0.047425874 4:0.01798621 5:0.0024726233 6:0.26894143 7:0.11920292 8:0.006692851 9:0.047425874 10:0.006692851 11:0.006692851 12:0.88079709 13:0.01798621 14:0.006692851 15:0.01798621 16:0.047425874 17:0.047425874 18:0.006692851 19:0.01798621 20:0.006692851 #
0.51942017585192112871794734019204 1:0.006692851 2:0.99966466 3:0.01798621 4:0.006692851 5:0.0024726233 6:0.7310586 7:0.047425874 8:0.0024726233 9:0.5 10:0.00091105117 11:0.006692851 12:0.26894143 13:0.006692851 14:0.01798621 15:0.0024726233 16:0.006692851 17:0.006692851 18:0.00091105117 19:0.01798621 20:0.0024726233 #
0.51942017585192112871794734019204 1:0.047425874 2:0.99908894 3:0.5 4:0.047425874 5:0.0024726233 6:0.5 7:0.11920292 8:0.006692851 9:0.26894143 10:0.006692851 11:0.006692851 12:0.5 13:0.01798621 14:0.006692851 15:0.11920292 16:0.047425874 17:0.11920292 18:0.11920292 19:0.047425874 20:0.006692851 #
-0.51942017585192112871794734019204 1:0.006692851 2:0.99966466 3:0.01798621 4:0.0024726233 5:0.26894143 6:0.5 7:0.01798621 8:0.01798621 9:0.047425874 10:0.00091105117 11:0.006692851 12:0.11920292 13:0.01798621 14:0.00091105117 15:0.0024726233 16:0.01798621 17:0.047425874 18:0.00091105117 19:0.0024726233 20:0.0024726233 #
0.51942017585192112871794734019204 1:0.7310586 2:0.01798621 3:0.047425874 4:0.006692851 5:0.11920292 6:0.01798621 7:0.006692851 8:0.26894143 9:0.006692851 10:0.88079709 11:0.98201376 12:0.01798621 13:0.7310586 14:0.5 15:0.006692851 16:0.26894143 17:0.5 18:0.26894143 19:0.11920292 20:0.7310586 #
-0.51942017585192112871794734019204 1:0.11920292 2:0.99966466 3:0.5 4:0.0024726233 5:0.00033535014 6:0.047425874 7:0.01798621 8:0.01798621 9:0.006692851 10:0.01798621 11:0.00091105117 12:0.5 13:0.0024726233 14:0.00091105117 15:0.00091105117 16:0.01798621 17:0.01798621 18:0.00091105117 19:0.0024726233 20:0.00091105117 #
-0.51942017585192112871794734019204 1:0.11920292 2:0.99966466 3:0.11920292 4:0.0024726233 5:0.00033535014 6:0.047425874 7:0.006692851 8:0.0024726233 9:0.01798621 10:0.00033535014 11:0.00091105117 12:0.26894143 13:0.00091105117 14:0.00033535014 15:0.00091105117 16:0.11920292 17:0.0024726233 18:0.00033535014 19:0.00091105117 20:0.00033535014 #
0.51942017585192112871794734019204 1:0.95257413 2:0.006692851 3:0.01798621 4:0.006692851 5:0.01798621 6:0.01798621 7:0.01798621 8:0.26894143 9:0.006692851 10:0.7310586 11:0.88079709 12:0.01798621 13:0.88079709 14:0.7310586 15:0.006692851 16:0.5 17:0.7310586 18:0.006692851 19:0.01798621 20:0.88079709 #
0.51942017585192112871794734019204 1:0.7310586 2:0.047425874 3:0.01798621 4:0.01798621 5:0.5 6:0.047425874 7:0.047425874 8:0.26894143 9:0.01798621 10:0.88079709 11:0.7310586 12:0.047425874 13:0.7310586 14:0.5 15:0.047425874 16:0.26894143 17:0.5 18:0.01798621 19:0.11920292 20:0.98201376 #
-0.51942017585192112871794734019204 1:0.006692851 2:0.99908894 3:0.01798621 4:0.006692851 5:0.00091105117 6:0.11920292 7:0.01798621 8:0.006692851 9:0.11920292 10:0.00091105117 11:0.006692851 12:0.98201376 13:0.006692851 14:0.0024726233 15:0.006692851 16:0.01798621 17:0.01798621 18:0.0024726233 19:0.006692851 20:0.0024726233 #
-0.51942017585192112871794734019204 1:0.047425874 2:0.99908894 3:0.0024726233 4:0.00091105117 5:0.00012339458 6:0.01798621 7:0.006692851 8:0.00091105117 9:0.047425874 10:0.00033535014 11:0.00033535014 12:0.99752736 13:0.00091105117 14:0.00033535014 15:0.0024726233 16:0.01798621 17:0.0024726233 18:0.00033535014 19:0.00091105117 20:0.00091105117 #
-0.51942017585192112871794734019204 1:0.01798621 2:0.98201376 3:0.047425874 4:0.01798621 5:0.0024726233 6:0.26894143 7:0.11920292 8:0.11920292 9:0.047425874 10:0.0024726233 11:0.047425874 12:0.99908894 13:0.047425874 14:0.0024726233 15:0.006692851 16:0.047425874 17:0.11920292 18:0.0024726233 19:0.006692851 20:0.0024726233 #
0.51942017585192112871794734019204 1:0.88079709 2:0.01798621 3:0.01798621 4:0.006692851 5:0.5 6:0.01798621 7:0.01798621 8:0.26894143 9:0.006692851 10:0.7310586 11:0.95257413 12:0.047425874 13:0.7310586 14:0.88079709 15:0.01798621 16:0.11920292 17:0.88079709 18:0.26894143 19:0.047425874 20:0.7310586 #
0.51942017585192112871794734019204 1:0.7310586 2:0.26894143 3:0.047425874 4:0.047425874 5:0.7310586 6:0.11920292 7:0.047425874 8:0.26894143 9:0.047425874 10:0.7310586 11:0.88079709 12:0.047425874 13:0.88079709 14:0.88079709 15:0.26894143 16:0.26894143 17:0.26894143 18:0.11920292 19:0.5 20:0.7310586 #
0.51942017585192112871794734019204 1:0.88079709 2:0.047425874 3:0.047425874 4:0.01798621 5:0.11920292 6:0.047425874 7:0.047425874 8:0.11920292 9:0.047425874 10:0.7310586 11:0.88079709 12:0.047425874 13:0.7310586 14:0.88079709 15:0.047425874 16:0.26894143 17:0.7310586 18:0.047425874 19:0.26894143 20:0.88079709 #
-0.51942017585192112871794734019204 1:0.88079709 2:0.047425874 3:0.01798621 4:0.01798621 5:0.26894143 6:0.047425874 7:0.047425874 8:0.26894143 9:0.01798621 10:0.7310586 11:0.95257413 12:0.047425874 13:0.95257413 14:0.5 15:0.047425874 16:0.26894143 17:0.5 18:0.047425874 19:0.047425874 20:0.88079709 #
0.51942017585192112871794734019204 1:0.0024726233 2:0.99752736 3:0.006692851 4:0.0024726233 5:0.00033535014 6:0.047425874 7:0.006692851 8:0.00091105117 9:0.0024726233 10:0.006692851 11:0.01798621 12:0.99752736 13:0.047425874 14:0.00091105117 15:0.00091105117 16:0.01798621 17:0.047425874 18:0.00033535014 19:0.0024726233 20:0.0024726233 #
-0.51942017585192112871794734019204 1:0.95257413 2:0.006692851 3:0.006692851 4:0.0024726233 5:0.26894143 6:0.01798621 7:0.006692851 8:0.11920292 9:0.006692851 10:0.95257413 11:0.88079709 12:0.006692851 13:0.88079709 14:0.7310586 15:0.006692851 16:0.11920292 17:0.5 18:0.006692851 19:0.047425874 20:0.88079709 #
0.51942017585192112871794734019204 1:0.006692851 2:0.99966466 3:0.11920292 4:0.006692851 5:0.00091105117 6:0.047425874 7:0.01798621 8:0.006692851 9:0.047425874 10:0.01798621 11:0.01798621 12:0.26894143 13:0.006692851 14:0.0024726233 15:0.0024726233 16:0.01798621 17:0.006692851 18:0.11920292 19:0.006692851 20:0.0024726233 #
-0.51942017585192112871794734019204 1:0.88079709 2:0.11920292 3:0.047425874 4:0.01798621 5:0.26894143 6:0.047425874 7:0.047425874 8:0.5 9:0.047425874 10:0.7310586 11:0.88079709 12:0.047425874 13:0.88079709 14:0.88079709 15:0.047425874 16:0.26894143 17:0.7310586 18:0.047425874 19:0.11920292 20:0.5 #
-0.51942017585192112871794734019204 1:0.7310586 2:0.047425874 3:0.047425874 4:0.047425874 5:0.11920292 6:0.047425874 7:0.047425874 8:0.047425874 9:0.047425874 10:0.98201376 11:0.7310586 12:0.047425874 13:0.7310586 14:0.5 15:0.047425874 16:0.11920292 17:0.88079709 18:0.047425874 19:0.11920292 20:0.95257413 #
-0.51942017585192112871794734019204 1:0.88079709 2:0.047425874 3:0.047425874 4:0.047425874 5:0.26894143 6:0.26894143 7:0.047425874 8:0.26894143 9:0.11920292 10:0.5 11:0.88079709 12:0.047425874 13:0.7310586 14:0.95257413 15:0.11920292 16:0.26894143 17:0.5 18:0.047425874 19:0.26894143 20:0.7310586 #
0.51942017585192112871794734019204 1:0.0024726233 2:0.99966466 3:0.01798621 4:0.0024726233 5:0.00033535014 6:0.047425874 7:0.01798621 8:0.0024726233 9:0.01798621 10:0.00091105117 11:0.0024726233 12:0.11920292 13:0.006692851 14:0.00091105117 15:0.0024726233 16:0.006692851 17:0.006692851 18:0.00091105117 19:0.0024726233 20:0.00091105117 #
0.51942017585192112871794734019204 1:0.0024726233 2:0.99987662 3:0.01798621 4:0.01798621 5:4.5397868e-05 6:0.01798621 7:0.0024726233 8:0.00033535014 9:0.11920292 10:0.00033535014 11:0.00091105117 12:0.11920292 13:0.00033535014 14:0.0024726233 15:0.00012339458 16:0.006692851 17:0.11920292 18:4.5397868e-05 19:0.006692851 20:0.00033535014 #
0.51942017585192112871794734019204 1:0.00091105117 2:0.99966466 3:0.006692851 4:0.00091105117 5:0.00012339458 6:0.047425874 7:0.006692851 8:0.00033535014 9:0.01798621 10:0.00033535014 11:0.006692851 12:0.5 13:0.0024726233 14:0.047425874 15:0.00033535014 16:0.006692851 17:0.00091105117 18:0.00033535014 19:0.26894143 20:0.00091105117 #
-0.51942017585192112871794734019204 1:0.0024726233 2:0.99987662 3:0.006692851 4:0.0024726233 5:0.00033535014 6:0.047425874 7:0.006692851 8:0.00091105117 9:0.11920292 10:0.00033535014 11:0.00091105117 12:0.11920292 13:0.0024726233 14:0.00091105117 15:0.047425874 16:0.006692851 17:0.0024726233 18:0.00091105117 19:0.0024726233 20:0.00091105117 #
0.51942017585192112871794734019204 1:0.88079709 2:0.01798621 3:0.006692851 4:0.006692851 5:0.01798621 6:0.7310586 7:0.01798621 8:0.5 9:0.006692851 10:0.7310586 11:0.95257413 12:0.01798621 13:0.5 14:0.88079709 15:0.006692851 16:0.047425874 17:0.11920292 18:0.047425874 19:0.26894143 20:0.88079709 #
-0.51942017585192112871794734019204 1:0.0024726233 2:0.99987662 3:0.006692851 4:0.0024726233 5:0.00033535014 6:0.047425874 7:0.01798621 8:0.00091105117 9:0.01798621 10:0.00091105117 11:0.006692851 12:0.11920292 13:0.0024726233 14:0.00091105117 15:0.0024726233 16:0.006692851 17:0.006692851 18:0.00091105117 19:0.0024726233 20:0.00091105117 #
-0.51942017585192112871794734019204 1:0.0024726233 2:0.99987662 3:0.006692851 4:0.00091105117 5:0.00033535014 6:0.01798621 7:0.006692851 8:0.00091105117 9:0.006692851 10:0.00033535014 11:0.00091105117 12:0.11920292 13:0.0024726233 14:0.00033535014 15:0.00091105117 16:0.0024726233 17:0.0024726233 18:0.00033535014 19:0.00091105117 20:0.00033535014 #
0.51942017585192112871794734019204 1:0.7310586 2:0.5 3:0.11920292 4:0.26894143 5:0.11920292 6:0.11920292 7:0.11920292 8:0.88079709 9:0.11920292 10:0.5 11:0.7310586 12:0.26894143 13:0.98201376 14:0.5 15:0.047425874 16:0.26894143 17:0.5 18:0.11920292 19:0.5 20:0.26894143 #
-0.51942017585192112871794734019204 1:0.006692851 2:0.99966466 3:0.11920292 4:0.01798621 5:0.00091105117 6:0.11920292 7:0.01798621 8:0.01798621 9:0.5 10:0.006692851 11:0.006692851 12:0.11920292 13:0.006692851 14:0.01798621 15:0.006692851 16:0.01798621 17:0.11920292 18:0.0024726233 19:0.047425874 20:0.047425874 #
-0.51942017585192112871794734019204 1:0.0024726233 2:0.99987662 3:0.006692851 4:0.0024726233 5:0.00091105117 6:0.01798621 7:0.006692851 8:0.00091105117 9:0.006692851 10:0.00091105117 11:0.0024726233 12:0.11920292 13:0.0024726233 14:0.11920292 15:0.006692851 16:0.01798621 17:0.006692851 18:0.00091105117 19:0.0024726233 20:0.0024726233 #
-0.51942017585192112871794734019204 1:0.01798621 2:0.99987662 3:0.006692851 4:0.0024726233 5:0.00033535014 6:0.01798621 7:0.006692851 8:0.00091105117 9:0.006692851 10:0.00091105117 11:0.006692851 12:0.11920292 13:0.0024726233 14:0.00091105117 15:0.00091105117 16:0.006692851 17:0.0024726233 18:0.00091105117 19:0.0024726233 20:0.047425874 #
0.51942017585192112871794734019204 1:0.5 2:0.7310586 3:0.88079709 4:0.5 5:0.047425874 6:0.5 7:0.5 8:0.7310586 9:0.7310586 10:0.26894143 11:0.26894143 12:0.7310586 13:0.11920292 14:0.5 15:0.11920292 16:0.7310586 17:0.5 18:0.047425874 19:0.26894143 20:0.26894143 #
0.51942017585192112871794734019204 1:0.5 2:0.7310586 3:0.7310586 4:0.7310586 5:0.047425874 6:0.98201376 7:0.5 8:0.5 9:0.5 10:0.047425874 11:0.11920292 12:0.5 13:0.11920292 14:0.047425874 15:0.26894143 16:0.7310586 17:0.7310586 18:0.01798621 19:0.5 20:0.047425874 #
0.51942017585192112871794734019204 1:0.5 2:0.7310586 3:0.7310586 4:0.5 5:0.01798621 6:0.7310586 7:0.7310586 8:0.95257413 9:0.26894143 10:0.047425874 11:0.047425874 12:0.7310586 13:0.26894143 14:0.047425874 15:0.047425874 16:0.7310586 17:0.5 18:0.5 19:0.11920292 20:0.11920292 #
-0.15690172056030077252231080819911 1:0.7310586 2:0.5 3:0.88079709 4:0.7310586 5:0.11920292 6:0.7310586 7:0.5 8:0.7310586 9:0.26894143 10:0.11920292 11:0.11920292 12:0.5 13:0.26894143 14:0.11920292 15:0.047425874 16:0.7310586 17:0.7310586 18:0.01798621 19:0.26894143 20:0.11920292 #
-0.51942017585192112871794734019204 1:0.5 2:0.01798621 3:0.01798621 4:0.01798621 5:0.01798621 6:0.01798621 7:0.006692851 8:0.26894143 9:0.047425874 10:0.88079709 11:0.95257413 12:0.01798621 13:0.7310586 14:0.98201376 15:0.006692851 16:0.047425874 17:0.5 18:0.26894143 19:0.11920292 20:0.95257413 #
-0.18086162412069156646410306166217 1:0.5 2:0.7310586 3:0.7310586 4:0.7310586 5:0.047425874 6:0.7310586 7:0.7310586 8:0.5 9:0.95257413 10:0.26894143 11:0.26894143 12:0.5 13:0.11920292 14:0.5 15:0.047425874 16:0.7310586 17:0.5 18:0.047425874 19:0.7310586 20:0.26894143 #
-0.23259203127886371453847402790416 1:0.5 2:0.11920292 3:0.7310586 4:0.99330717 5:0.047425874 6:0.26894143 7:0.7310586 8:0.5 9:0.11920292 10:0.7310586 11:0.047425874 12:0.11920292 13:0.11920292 14:0.047425874 15:0.11920292 16:0.26894143 17:0.26894143 18:0.01798621 19:0.047425874 20:0.26894143 #
0.51942017585192112871794734019204 1:0.047425874 2:0.99966466 3:0.0024726233 4:0.00091105117 5:0.00033535014 6:0.047425874 7:0.0024726233 8:0.26894143 9:0.26894143 10:0.00033535014 11:0.0024726233 12:0.11920292 13:0.00091105117 14:0.00033535014 15:0.00091105117 16:0.006692851 17:0.006692851 18:0.00033535014 19:0.00091105117 20:0.00033535014 #
0.51942017585192112871794734019204 1:0.0024726233 2:0.99987662 3:0.01798621 4:0.0024726233 5:0.00033535014 6:0.047425874 7:0.01798621 8:0.00091105117 9:0.26894143 10:0.00091105117 11:0.00091105117 12:0.26894143 13:0.0024726233 14:0.00091105117 15:0.0024726233 16:0.01798621 17:0.006692851 18:0.00091105117 19:0.01798621 20:0.00091105117 #
-0.28590568173735508850086262100376 1:0.5 2:0.88079709 3:0.7310586 4:0.7310586 5:0.01798621 6:0.7310586 7:0.7310586 8:0.7310586 9:0.7310586 10:0.047425874 11:0.047425874 12:0.88079709 13:0.26894143 14:0.047425874 15:0.047425874 16:0.7310586 17:0.5 18:0.01798621 19:0.11920292 20:0.11920292 #
-0.51942017585192112871794734019204 1:0.11920292 2:0.047425874 3:0.11920292 4:0.11920292 5:0.047425874 6:0.11920292 7:0.11920292 8:0.88079709 9:0.047425874 10:0.5 11:0.95257413 12:0.047425874 13:0.95257413 14:0.26894143 15:0.26894143 16:0.11920292 17:0.26894143 18:0.7310586 19:0.5 20:0.5 #
-0.032124117682864709866219499190265 1:0.7310586 2:0.88079709 3:0.5 4:0.01798621 5:0.006692851 6:0.7310586 7:0.047425874 8:0.01798621 9:0.99752736 10:0.0024726233 11:0.0024726233 12:0.11920292 13:0.006692851 14:0.0024726233 15:0.006692851 16:0.99330717 17:0.88079709 18:0.0024726233 19:0.01798621 20:0.006692851 #
0.51942017585192112871794734019204 1:0.006692851 2:0.99966466 3:0.26894143 4:0.0024726233 5:0.00012339458 6:0.01798621 7:0.006692851 8:0.0024726233 9:0.01798621 10:0.00033535014 11:0.00033535014 12:0.11920292 13:0.00091105117 14:0.00033535014 15:0.5 16:0.01798621 17:0.11920292 18:0.00033535014 19:0.0024726233 20:0.00033535014 #
0.51942017585192112871794734019204 1:0.047425874 2:0.99966466 3:0.11920292 4:0.047425874 5:0.00091105117 6:0.047425874 7:0.5 8:0.0024726233 9:0.047425874 10:0.00091105117 11:0.0024726233 12:0.5 13:0.0024726233 14:0.00091105117 15:0.0024726233 16:0.047425874 17:0.047425874 18:0.00091105117 19:0.0024726233 20:0.00091105117 #
0.51942017585192112871794734019204 1:0.047425874 2:0.99908894 3:0.26894143 4:0.01798621 5:0.00091105117 6:0.26894143 7:0.047425874 8:0.047425874 9:0.5 10:0.047425874 11:0.11920292 12:0.11920292 13:0.11920292 14:0.047425874 15:0.0024726233 16:0.11920292 17:0.11920292 18:0.01798621 19:0.047425874 20:0.047425874 #
-0.51942017585192112871794734019204 1:0.047425874 2:0.99966466 3:0.11920292 4:0.047425874 5:0.0024726233 6:0.26894143 7:0.11920292 8:0.01798621 9:0.7310586 10:0.0024726233 11:0.01798621 12:0.5 13:0.01798621 14:0.0024726233 15:0.006692851 16:0.047425874 17:0.047425874 18:0.0024726233 19:0.11920292 20:0.0024726233 #
-0.51942017585192112871794734019204 1:0.047425874 2:0.99966466 3:0.047425874 4:0.006692851 5:0.00091105117 6:0.26894143 7:0.047425874 8:0.047425874 9:0.7310586 10:0.00091105117 11:0.0024726233 12:0.26894143 13:0.006692851 14:0.0024726233 15:0.047425874 16:0.047425874 17:0.047425874 18:0.0024726233 19:0.01798621 20:0.006692851 #
-0.51942017585192112871794734019204 1:0.006692851 2:0.99966466 3:0.006692851 4:0.0024726233 5:0.00091105117 6:0.11920292 7:0.01798621 8:0.0024726233 9:0.7310586 10:0.00091105117 11:0.0024726233 12:0.26894143 13:0.006692851 14:0.11920292 15:0.0024726233 16:0.047425874 17:0.01798621 18:0.00091105117 19:0.01798621 20:0.006692851 #
0.51942017585192112871794734019204 1:0.26894143 2:0.5 3:0.7310586 4:0.7310586 5:0.047425874 6:0.88079709 7:0.88079709 8:0.88079709 9:0.7310586 10:0.11920292 11:0.11920292 12:0.7310586 13:0.11920292 14:0.047425874 15:0.26894143 16:0.7310586 17:0.26894143 18:0.047425874 19:0.11920292 20:0.11920292 #
0.51942017585192112871794734019204 1:0.26894143 2:0.7310586 3:0.88079709 4:0.7310586 5:0.01798621 6:0.5 7:0.88079709 8:0.26894143 9:0.5 10:0.11920292 11:0.11920292 12:0.88079709 13:0.11920292 14:0.26894143 15:0.26894143 16:0.5 17:0.5 18:0.26894143 19:0.26894143 20:0.26894143 #
0.51942017585192112871794734019204 1:0.26894143 2:0.7310586 3:0.88079709 4:0.95257413 5:0.006692851 6:0.5 7:0.88079709 8:0.26894143 9:0.5 10:0.047425874 11:0.01798621 12:0.7310586 13:0.01798621 14:0.11920292 15:0.11920292 16:0.7310586 17:0.5 18:0.006692851 19:0.5 20:0.047425874 #
-0.059517801001262908566769027629562 1:0.047425874 2:0.99330717 3:0.98201376 4:0.7310586 5:0.006692851 6:0.26894143 7:0.26894143 8:0.26894143 9:0.26894143 10:0.006692851 11:0.006692851 12:0.95257413 13:0.01798621 14:0.047425874 15:0.01798621 16:0.5 17:0.11920292 18:0.047425874 19:0.01798621 20:0.01798621 #
0.51942017585192112871794734019204 1:0.006692851 2:0.99966466 3:0.01798621 4:0.006692851 5:0.006692851 6:0.047425874 7:0.01798621 8:0.0024726233 9:0.98201376 10:0.00091105117 11:0.0024726233 12:0.26894143 13:0.01798621 14:0.0024726233 15:0.0024726233 16:0.006692851 17:0.11920292 18:0.00091105117 19:0.01798621 20:0.0024726233 #
-0.51942017585192112871794734019204 1:0.98201376 2:0.006692851 3:0.006692851 4:0.006692851 5:0.01798621 6:0.01798621 7:0.006692851 8:0.11920292 9:0.006692851 10:0.88079709 11:0.7310586 12:0.01798621 13:0.5 14:0.7310586 15:0.006692851 16:0.11920292 17:0.26894143 18:0.01798621 19:0.01798621 20:0.98201376 #
-0.022653135921016843978836874384797 1:0.88079709 2:0.047425874 3:0.7310586 4:0.01798621 5:0.047425874 6:0.047425874 7:0.047425874 8:0.047425874 9:0.5 10:0.26894143 11:0.047425874 12:0.047425874 13:0.5 14:0.26894143 15:0.047425874 16:0.5 17:0.88079709 18:0.047425874 19:0.88079709 20:0.98201376 #
0.51942017585192112871794734019204 1:0.0024726233 2:0.99908894 3:0.01798621 4:0.0024726233 5:0.00033535014 6:0.11920292 7:0.01798621 8:0.0024726233 9:0.99908894 10:0.00091105117 11:0.00091105117 12:0.7310586 13:0.0024726233 14:0.0024726233 15:0.0024726233 16:0.006692851 17:0.006692851 18:0.00091105117 19:0.006692851 20:0.00091105117 #
-0.51942017585192112871794734019204 1:0.01798621 2:0.99966466 3:0.01798621 4:0.01798621 5:0.0024726233 6:0.88079709 7:0.5 8:0.01798621 9:0.26894143 10:0.01798621 11:0.006692851 12:0.26894143 13:0.01798621 14:0.0024726233 15:0.006692851 16:0.11920292 17:0.047425874 18:0.0024726233 19:0.006692851 20:0.006692851 #
-0.51942017585192112871794734019204 1:0.006692851 2:0.99966466 3:0.26894143 4:0.047425874 5:0.00091105117 6:0.11920292 7:0.01798621 8:0.0024726233 9:0.11920292 10:0.006692851 11:0.006692851 12:0.11920292 13:0.047425874 14:0.11920292 15:0.0024726233 16:0.006692851 17:0.006692851 18:0.0024726233 19:0.5 20:0.006692851 #
-0.51942017585192112871794734019204 1:0.88079709 2:0.01798621 3:0.01798621 4:0.01798621 5:0.047425874 6:0.047425874 7:0.11920292 8:0.5 9:0.01798621 10:0.88079709 11:0.7310586 12:0.047425874 13:0.5 14:0.26894143 15:0.047425874 16:0.11920292 17:0.11920292 18:0.01798621 19:0.26894143 20:0.98201376 #
0.51942017585192112871794734019204 1:0.5 2:0.7310586 3:0.5 4:0.5 5:0.047425874 6:0.7310586 7:0.7310586 8:0.7310586 9:0.7310586 10:0.26894143 11:0.11920292 12:0.5 13:0.5 14:0.5 15:0.11920292 16:0.88079709 17:0.5 18:0.047425874 19:0.7310586 20:0.11920292 #
0.51942017585192112871794734019204 1:0.26894143 2:0.88079709 3:0.7310586 4:0.5 5:0.01798621 6:0.7310586 7:0.5 8:0.95257413 9:0.7310586 10:0.26894143 11:0.11920292 12:0.7310586 13:0.5 14:0.01798621 15:0.047425874 16:0.5 17:0.26894143 18:0.01798621 19:0.047425874 20:0.047425874 #
0.51942017585192112871794734019204 1:0.5 2:0.5 3:0.7310586 4:0.5 5:0.11920292 6:0.5 7:0.26894143 8:0.88079709 9:0.7310586 10:0.26894143 11:0.5 12:0.26894143 13:0.5 14:0.5 15:0.26894143 16:0.5 17:0.5 18:0.5 19:0.5 20:0.26894143 #
-0.056815774874638264035908719051804 1:0.7310586 2:0.5 3:0.7310586 4:0.5 5:0.047425874 6:0.88079709 7:0.5 8:0.7310586 9:0.7310586 10:0.11920292 11:0.11920292 12:0.7310586 13:0.5 14:0.047425874 15:0.11920292 16:0.7310586 17:0.5 18:0.047425874 19:0.11920292 20:0.11920292 #
-0.51942017585192112871794734019204 1:0.11920292 2:0.26894143 3:0.99908894 4:0.26894143 5:0.006692851 6:0.047425874 7:0.047425874 8:0.7310586 9:0.11920292 10:0.047425874 11:0.006692851 12:0.047425874 13:0.006692851 14:0.006692851 15:0.11920292 16:0.7310586 17:0.26894143 18:0.047425874 19:0.01798621 20:0.01798621 #
-0.18180072664607083154919564549346 1:0.7310586 2:0.7310586 3:0.5 4:0.5 5:0.047425874 6:0.5 7:0.5 8:0.7310586 9:0.5 10:0.26894143 11:0.5 12:0.5 13:0.5 14:0.5 15:0.26894143 16:0.5 17:0.5 18:0.047425874 19:0.26894143 20:0.26894143 #
-0.51942017585192112871794734019204 1:0.95257413 2:0.047425874 3:0.11920292 4:0.26894143 5:0.01798621 6:0.047425874 7:0.11920292 8:0.5 9:0.01798621 10:0.5 11:0.7310586 12:0.047425874 13:0.047425874 14:0.26894143 15:0.047425874 16:0.5 17:0.88079709 18:0.006692851 19:0.047425874 20:0.7310586 #
0.51942017585192112871794734019204 1:0.047425874 2:0.88079709 3:0.26894143 4:0.7310586 5:0.00091105117 6:0.99752736 7:0.99330717 8:0.01798621 9:0.047425874 10:0.0024726233 11:0.01798621 12:0.26894143 13:0.047425874 14:0.0024726233 15:0.006692851 16:0.11920292 17:0.047425874 18:0.0024726233 19:0.006692851 20:0.0024726233 #
0.51942017585192112871794734019204 1:0.5 2:0.006692851 3:0.006692851 4:0.006692851 5:0.11920292 6:0.006692851 7:0.01798621 8:0.26894143 9:0.006692851 10:0.99330717 11:0.7310586 12:0.006692851 13:0.26894143 14:0.7310586 15:0.047425874 16:0.11920292 17:0.11920292 18:0.11920292 19:0.047425874 20:0.95257413 #
0.51942017585192112871794734019204 1:0.006692851 2:0.88079709 3:0.11920292 4:0.5 5:0.00033535014 6:0.7310586 7:0.99908894 8:0.00091105117 9:0.006692851 10:0.047425874 11:0.0024726233 12:0.11920292 13:0.047425874 14:0.006692851 15:0.0024726233 16:0.01798621 17:0.047425874 18:0.00091105117 19:0.006692851 20:0.0024726233 #
0.51942017585192112871794734019204 1:0.01798621 2:0.98201376 3:0.11920292 4:0.01798621 5:0.00091105117 6:0.26894143 7:0.047425874 8:0.0024726233 9:0.047425874 10:0.01798621 11:0.01798621 12:0.99908894 13:0.11920292 14:0.00091105117 15:0.006692851 16:0.11920292 17:0.11920292 18:0.00091105117 19:0.006692851 20:0.006692851 #
-0.51942017585192112871794734019204 1:0.047425874 2:0.26894143 3:0.26894143 4:0.7310586 5:0.00091105117 6:0.99966466 7:0.95257413 8:0.0024726233 9:0.047425874 10:0.0024726233 11:0.006692851 12:0.11920292 13:0.01798621 14:0.00091105117 15:0.006692851 16:0.11920292 17:0.26894143 18:0.0024726233 19:0.01798621 20:0.047425874 #
-0.51942017585192112871794734019204 1:0.01798621 2:0.11920292 3:0.11920292 4:0.99330717 5:0.00091105117 6:0.88079709 7:0.99752736 8:0.01798621 9:0.01798621 10:0.00091105117 11:0.0024726233 12:0.047425874 13:0.0024726233 14:0.00091105117 15:0.047425874 16:0.11920292 17:0.01798621 18:0.00091105117 19:0.0024726233 20:0.0024726233 #
-0.51942017585192112871794734019204 1:0.047425874 2:0.98201376 3:0.047425874 4:0.047425874 5:0.0024726233 6:0.99908894 7:0.7310586 8:0.5 9:0.047425874 10:0.006692851 11:0.047425874 12:0.26894143 13:0.047425874 14:0.0024726233 15:0.01798621 16:0.11920292 17:0.047425874 18:0.006692851 19:0.01798621 20:0.006692851 #
0.51942017585192112871794734019204 1:0.7310586 2:0.5 3:0.95257413 4:0.7310586 5:0.11920292 6:0.5 7:0.26894143 8:0.5 9:0.7310586 10:0.11920292 11:0.11920292 12:0.7310586 13:0.11920292 14:0.047425874 15:0.11920292 16:0.88079709 17:0.88079709 18:0.047425874 19:0.11920292 20:0.26894143 #
0.51942017585192112871794734019204 1:0.5 2:0.26894143 3:0.88079709 4:0.5 5:0.047425874 6:0.7310586 7:0.26894143 8:0.88079709 9:0.5 10:0.11920292 11:0.26894143 12:0.26894143 13:0.26894143 14:0.11920292 15:0.26894143 16:0.7310586 17:0.5 18:0.01798621 19:0.11920292 20:0.5 #
0.51942017585192112871794734019204 1:0.88079709 2:0.26894143 3:0.7310586 4:0.5 5:0.11920292 6:0.88079709 7:0.26894143 8:0.88079709 9:0.7310586 10:0.047425874 11:0.047425874 12:0.7310586 13:0.11920292 14:0.047425874 15:0.11920292 16:0.88079709 17:0.5 18:0.047425874 19:0.11920292 20:0.26894143 #
0.51942017585192112871794734019204 1:0.88079709 2:0.047425874 3:0.006692851 4:0.006692851 5:0.01798621 6:0.01798621 7:0.006692851 8:0.047425874 9:0.006692851 10:0.7310586 11:0.98201376 12:0.11920292 13:0.88079709 14:0.7310586 15:0.01798621 16:0.047425874 17:0.5 18:0.01798621 19:0.047425874 20:0.7310586 #
-0.51942017585192112871794734019204 1:0.11920292 2:0.88079709 3:0.11920292 4:0.01798621 5:0.0024726233 6:0.11920292 7:0.047425874 8:0.006692851 9:0.5 10:0.0024726233 11:0.0024726233 12:0.99908894 13:0.006692851 14:0.0024726233 15:0.01798621 16:0.11920292 17:0.26894143 18:0.0024726233 19:0.006692851 20:0.0024726233 #
-0.51942017585192112871794734019204 1:0.006692851 2:0.95257413 3:0.006692851 4:0.006692851 5:0.00033535014 6:0.047425874 7:0.11920292 8:0.0024726233 9:0.01798621 10:0.0024726233 11:0.0024726233 12:0.99966466 13:0.0024726233 14:0.00033535014 15:0.0024726233 16:0.006692851 17:0.006692851 18:0.01798621 19:0.006692851 20:0.006692851 #
-0.51942017585192112871794734019204 1:0.01798621 2:0.99908894 3:0.047425874 4:0.006692851 5:0.00091105117 6:0.11920292 7:0.11920292 8:0.0024726233 9:0.5 10:0.0024726233 11:0.006692851 12:0.98201376 13:0.01798621 14:0.0024726233 15:0.006692851 16:0.5 17:0.26894143 18:0.006692851 19:0.11920292 20:0.006692851 #
0.51942017585192112871794734019204 1:0.006692851 2:0.01798621 3:0.11920292 4:0.99752736 5:0.00091105117 6:0.95257413 7:0.99330717 8:0.006692851 9:0.01798621 10:0.0024726233 11:0.00091105117 12:0.047425874 13:0.0024726233 14:0.00091105117 15:0.006692851 16:0.01798621 17:0.01798621 18:0.00091105117 19:0.0024726233 20:0.0024726233 #
0.51942017585192112871794734019204 1:0.047425874 2:0.047425874 3:0.26894143 4:0.7310586 5:0.00033535014 6:0.88079709 7:0.99908894 8:0.11920292 9:0.006692851 10:0.0024726233 11:0.0024726233 12:0.047425874 13:0.0024726233 14:0.00091105117 15:0.0024726233 16:0.047425874 17:0.01798621 18:0.00091105117 19:0.11920292 20:0.00091105117 #
0.51942017585192112871794734019204 1:0.006692851 2:0.006692851 3:0.5 4:0.95257413 5:0.00033535014 6:0.99752736 7:0.99330717 8:0.006692851 9:0.26894143 10:0.00033535014 11:0.00091105117 12:0.01798621 13:0.01798621 14:0.00033535014 15:0.0024726233 16:0.26894143 17:0.047425874 18:0.00091105117 19:0.00091105117 20:0.00091105117 #
0.51942017585192112871794734019204 1:0.01798621 2:0.98201376 3:0.01798621 4:0.006692851 5:0.00091105117 6:0.047425874 7:0.11920292 8:0.0024726233 9:0.006692851 10:0.00091105117 11:0.0024726233 12:0.99908894 13:0.0024726233 14:0.00091105117 15:0.047425874 16:0.01798621 17:0.01798621 18:0.01798621 19:0.006692851 20:0.01798621 #
-0.37001494323421246779304283336387 1:0.11920292 2:0.006692851 3:0.26894143 4:0.98201376 5:0.00091105117 6:0.88079709 7:0.99752736 8:0.01798621 9:0.006692851 10:0.00091105117 11:0.0024726233 12:0.01798621 13:0.0024726233 14:0.00091105117 15:0.0024726233 16:0.26894143 17:0.01798621 18:0.00091105117 19:0.006692851 20:0.01798621 #
-0.51882789621451808059759969182778 1:0.11920292 2:0.11920292 3:0.5 4:0.99330717 5:0.00091105117 6:0.95257413 7:0.99330717 8:0.006692851 9:0.01798621 10:0.0024726233 11:0.01798621 12:0.11920292 13:0.047425874 14:0.00091105117 15:0.01798621 16:0.11920292 17:0.11920292 18:0.01798621 19:0.006692851 20:0.0024726233 #
-0.51942017585192112871794734019204 1:0.01798621 2:0.01798621 3:0.11920292 4:0.95257413 5:0.00033535014 6:0.7310586 7:0.99908894 8:0.0024726233 9:0.11920292 10:0.006692851 11:0.047425874 12:0.047425874 13:0.01798621 14:0.00091105117 15:0.006692851 16:0.01798621 17:0.006692851 18:0.00091105117 19:0.0024726233 20:0.006692851 #
0.51942017585192112871794734019204 1:0.01798621 2:0.99752736 3:0.11920292 4:0.01798621 5:0.0024726233 6:0.26894143 7:0.11920292 8:0.01798621 9:0.047425874 10:0.01798621 11:0.01798621 12:0.99330717 13:0.047425874 14:0.01798621 15:0.01798621 16:0.26894143 17:0.11920292 18:0.006692851 19:0.047425874 20:0.01798621 #
0.51942017585192112871794734019204 1:0.047425874 2:0.99908894 3:0.006692851 4:0.0024726233 5:0.047425874 6:0.26894143 7:0.047425874 8:0.01798621 9:0.11920292 10:0.11920292 11:0.006692851 12:0.99330717 13:0.11920292 14:0.0024726233 15:0.0024726233 16:0.01798621 17:0.047425874 18:0.00033535014 19:0.0024726233 20:0.01798621 #
0.51942017585192112871794734019204 1:0.047425874 2:0.99908894 3:0.047425874 4:0.01798621 5:0.0024726233 6:0.11920292 7:0.047425874 8:0.26894143 9:0.11920292 10:0.0024726233 11:0.01798621 12:0.7310586 13:0.006692851 14:0.11920292 15:0.006692851 16:0.26894143 17:0.26894143 18:0.0024726233 19:0.047425874 20:0.01798621 #
0.51942017585192112871794734019204 1:0.00091105117 2:0.99966466 3:0.01798621 4:0.00091105117 5:0.00012339458 6:0.11920292 7:0.006692851 8:0.0024726233 9:0.88079709 10:0.00033535014 11:0.00091105117 12:0.26894143 13:0.00091105117 14:0.0024726233 15:0.00091105117 16:0.01798621 17:0.0024726233 18:0.00033535014 19:0.0024726233 20:0.00033535014 #
-0.51942017585192112871794734019204 1:0.11920292 2:0.98201376 3:0.26894143 4:0.006692851 5:0.047425874 6:0.11920292 7:0.01798621 8:0.006692851 9:0.006692851 10:0.006692851 11:0.0024726233 12:0.99908894 13:0.5 14:0.00091105117 15:0.11920292 16:0.01798621 17:0.047425874 18:0.11920292 19:0.0024726233 20:0.006692851 #
-0.51942017585192112871794734019204 1:0.01798621 2:0.7310586 3:0.01798621 4:0.047425874 5:0.00033535014 6:0.26894143 7:0.047425874 8:0.047425874 9:0.0024726233 10:0.0024726233 11:0.01798621 12:0.99966466 13:0.0024726233 14:0.00033535014 15:0.11920292 16:0.11920292 17:0.01798621 18:0.00033535014 19:0.01798621 20:0.006692851 #
-0.28558594813412457869006289001845 1:0.047425874 2:0.95257413 3:0.11920292 4:0.047425874 5:0.006692851 6:0.26894143 7:0.26894143 8:0.01798621 9:0.047425874 10:0.11920292 11:0.01798621 12:0.99752736 13:0.047425874 14:0.006692851 15:0.047425874 16:0.11920292 17:0.047425874 18:0.006692851 19:0.01798621 20:0.5 #
0.51942017585192112871794734019204 1:0.11920292 2:0.047425874 3:0.5 4:0.99752736 5:0.006692851 6:0.5 7:0.98201376 8:0.11920292 9:0.26894143 10:0.006692851 11:0.006692851 12:0.11920292 13:0.01798621 14:0.006692851 15:0.047425874 16:0.26894143 17:0.047425874 18:0.006692851 19:0.01798621 20:0.006692851 #
0.51942017585192112871794734019204 1:0.047425874 2:0.11920292 3:0.26894143 4:0.88079709 5:0.0024726233 6:0.99908894 7:0.98201376 8:0.006692851 9:0.047425874 10:0.0024726233 11:0.006692851 12:0.047425874 13:0.01798621 14:0.0024726233 15:0.006692851 16:0.5 17:0.5 18:0.0024726233 19:0.006692851 20:0.01798621 #
0.51942017585192112871794734019204 1:0.047425874 2:0.11920292 3:0.11920292 4:0.95257413 5:0.0024726233 6:0.7310586 7:0.99752736 8:0.01798621 9:0.11920292 10:0.006692851 11:0.006692851 12:0.26894143 13:0.01798621 14:0.006692851 15:0.5 16:0.11920292 17:0.047425874 18:0.006692851 19:0.01798621 20:0.006692851 #
0.14178681538161452824198249800247 1:0.5 2:0.047425874 3:0.01798621 4:0.01798621 5:0.01798621 6:0.047425874 7:0.01798621 8:0.5 9:0.26894143 10:0.047425874 11:0.11920292 12:0.26894143 13:0.95257413 14:0.88079709 15:0.01798621 16:0.047425874 17:0.26894143 18:0.26894143 19:0.99966466 20:0.26894143 #
-0.51942017585192112871794734019204 1:0.5 2:0.26894143 3:0.88079709 4:0.7310586 5:0.047425874 6:0.7310586 7:0.26894143 8:0.95257413 9:0.5 10:0.01798621 11:0.01798621 12:0.11920292 13:0.047425874 14:0.01798621 15:0.047425874 16:0.95257413 17:0.5 18:0.01798621 19:0.047425874 20:0.047425874 #
-0.057246422501998933674016711847798 1:0.11920292 2:0.26894143 3:0.5 4:0.5 5:0.01798621 6:0.99752736 7:0.5 8:0.26894143 9:0.7310586 10:0.11920292 11:0.11920292 12:0.5 13:0.047425874 14:0.26894143 15:0.11920292 16:0.26894143 17:0.26894143 18:0.01798621 19:0.26894143 20:0.26894143 #
-0.51942017585192112871794734019204 1:0.26894143 2:0.01798621 3:0.047425874 4:0.01798621 5:0.01798621 6:0.5 7:0.11920292 8:0.11920292 9:0.01798621 10:0.95257413 11:0.98201376 12:0.047425874 13:0.26894143 14:0.5 15:0.01798621 16:0.11920292 17:0.11920292 18:0.006692851 19:0.11920292 20:0.88079709 #
0.51942017585192112871794734019204 1:0.11920292 2:0.88079709 3:0.11920292 4:0.11920292 5:0.00091105117 6:0.95257413 7:0.11920292 8:0.047425874 9:0.5 10:0.01798621 11:0.11920292 12:0.99752736 13:0.006692851 14:0.11920292 15:0.0024726233 16:0.11920292 17:0.11920292 18:0.00091105117 19:0.26894143 20:0.047425874 #
0.51942017585192112871794734019204 1:0.006692851 2:0.7310586 3:0.26894143 4:0.006692851 5:0.00091105117 6:0.047425874 7:0.047425874 8:0.01798621 9:0.11920292 10:0.00091105117 11:0.00091105117 12:0.99966466 13:0.0024726233 14:0.00091105117 15:0.006692851 16:0.01798621 17:0.01798621 18:0.00091105117 19:0.0024726233 20:0.00091105117 #
0.51942017585192112871794734019204 1:0.26894143 2:0.88079709 3:0.5 4:0.11920292 5:0.01798621 6:0.99752736 7:0.5 8:0.047425874 9:0.11920292 10:0.01798621 11:0.26894143 12:0.95257413 13:0.11920292 14:0.01798621 15:0.047425874 16:0.11920292 17:0.11920292 18:0.01798621 19:0.5 20:0.11920292 #
-0.51942017585192112871794734019204 1:0.006692851 2:0.99966466 3:0.5 4:0.006692851 5:0.00091105117 6:0.5 7:0.01798621 8:0.047425874 9:0.01798621 10:0.00091105117 11:0.0024726233 12:0.7310586 13:0.006692851 14:0.0024726233 15:0.0024726233 16:0.01798621 17:0.006692851 18:0.0024726233 19:0.006692851 20:0.0024726233 #
-0.51942017585192112871794734019204 1:0.047425874 2:0.99330717 3:0.26894143 4:0.26894143 5:0.006692851 6:0.95257413 7:0.5 8:0.006692851 9:0.5 10:0.01798621 11:0.047425874 12:0.98201376 13:0.11920292 14:0.26894143 15:0.01798621 16:0.11920292 17:0.11920292 18:0.01798621 19:0.26894143 20:0.01798621 #
-0.51942017585192112871794734019204 1:0.006692851 2:0.99966466 3:0.01798621 4:0.006692851 5:0.00091105117 6:0.26894143 7:0.047425874 8:0.0024726233 9:0.7310586 10:0.00091105117 11:0.01798621 12:0.95257413 13:0.006692851 14:0.0024726233 15:0.11920292 16:0.01798621 17:0.01798621 18:0.0024726233 19:0.006692851 20:0.0024726233 #
0.51942017585192112871794734019204 1:0.5 2:0.26894143 3:0.95257413 4:0.5 5:0.047425874 6:0.88079709 7:0.26894143 8:0.7310586 9:0.26894143 10:0.11920292 11:0.11920292 12:0.11920292 13:0.11920292 14:0.047425874 15:0.11920292 16:0.95257413 17:0.5 18:0.047425874 19:0.047425874 20:0.11920292 #
0.51942017585192112871794734019204 1:0.26894143 2:0.5 3:0.98201376 4:0.95257413 5:0.01798621 6:0.88079709 7:0.26894143 8:0.88079709 9:0.11920292 10:0.01798621 11:0.01798621 12:0.11920292 13:0.11920292 14:0.006692851 15:0.01798621 16:0.88079709 17:0.7310586 18:0.006692851 19:0.11920292 20:0.01798621 #
0.51942017585192112871794734019204 1:0.26894143 2:0.26894143 3:0.95257413 4:0.88079709 5:0.006692851 6:0.7310586 7:0.5 8:0.7310586 9:0.047425874 10:0.006692851 11:0.01798621 12:0.26894143 13:0.01798621 14:0.006692851 15:0.047425874 16:0.99330717 17:0.5 18:0.006692851 19:0.047425874 20:0.01798621 #
-0.51942017585192112871794734019204 1:0.5 2:0.26894143 3:0.95257413 4:0.88079709 5:0.01798621 6:0.7310586 7:0.5 8:0.95257413 9:0.26894143 10:0.01798621 11:0.01798621 12:0.26894143 13:0.11920292 14:0.047425874 15:0.11920292 16:0.95257413 17:0.5 18:0.01798621 19:0.01798621 20:0.047425874 #
-0.51942017585192112871794734019204 1:0.5 2:0.5 3:0.95257413 4:0.5 5:0.047425874 6:0.7310586 7:0.26894143 8:0.7310586 9:0.26894143 10:0.047425874 11:0.047425874 12:0.26894143 13:0.11920292 14:0.047425874 15:0.11920292 16:0.98201376 17:0.5 18:0.047425874 19:0.047425874 20:0.26894143 #
-0.25531895323621472959629841170681 1:0.26894143 2:0.11920292 3:0.88079709 4:0.7310586 5:0.006692851 6:0.7310586 7:0.5 8:0.99330717 9:0.11920292 10:0.006692851 11:0.01798621 12:0.26894143 13:0.047425874 14:0.006692851 15:0.11920292 16:0.7310586 17:0.26894143 18:0.006692851 19:0.006692851 20:0.01798621 #
0.51942017585192112871794734019204 1:0.006692851 2:0.99908894 3:0.01798621 4:0.006692851 5:0.0024726233 6:0.88079709 7:0.047425874 8:0.006692851 9:0.5 10:0.0024726233 11:0.047425874 12:0.95257413 13:0.01798621 14:0.0024726233 15:0.006692851 16:0.01798621 17:0.26894143 18:0.0024726233 19:0.006692851 20:0.0024726233 #
0.51942017585192112871794734019204 1:0.047425874 2:0.99752736 3:0.11920292 4:0.26894143 5:0.006692851 6:0.26894143 7:0.5 8:0.01798621 9:0.95257413 10:0.006692851 11:0.01798621 12:0.95257413 13:0.047425874 14:0.006692851 15:0.01798621 16:0.11920292 17:0.047425874 18:0.006692851 19:0.047425874 20:0.01798621 #
0.51942017585192112871794734019204 1:0.11920292 2:0.99908894 3:0.26894143 4:0.047425874 5:0.26894143 6:0.11920292 7:0.11920292 8:0.047425874 9:0.5 10:0.01798621 11:0.01798621 12:0.95257413 13:0.047425874 14:0.01798621 15:0.11920292 16:0.11920292 17:0.5 18:0.047425874 19:0.11920292 20:0.01798621 #
0.51942017585192112871794734019204 1:0.5 2:0.5 3:0.99330717 4:0.88079709 5:0.01798621 6:0.5 7:0.7310586 8:0.7310586 9:0.5 10:0.01798621 11:0.047425874 12:0.26894143 13:0.01798621 14:0.01798621 15:0.047425874 16:0.88079709 17:0.26894143 18:0.006692851 19:0.26894143 20:0.01798621 #
-0.51942017585192112871794734019204 1:0.047425874 2:0.99752736 3:0.11920292 4:0.01798621 5:0.0024726233 6:0.26894143 7:0.047425874 8:0.006692851 9:0.26894143 10:0.0024726233 11:0.006692851 12:0.99330717 13:0.047425874 14:0.0024726233 15:0.006692851 16:0.11920292 17:0.5 18:0.0024726233 19:0.047425874 20:0.006692851 #
-0.51942017585192112871794734019204 1:0.047425874 2:0.99752736 3:0.26894143 4:0.01798621 5:0.01798621 6:0.5 7:0.047425874 8:0.01798621 9:0.88079709 10:0.006692851 11:0.01798621 12:0.98201376 13:0.006692851 14:0.01798621 15:0.006692851 16:0.26894143 17:0.26894143 18:0.01798621 19:0.047425874 20:0.0024726233 #
0.51942017585192112871794734019204 1:0.26894143 2:0.11920292 3:0.95257413 4:0.5 5:0.11920292 6:0.7310586 7:0.26894143 8:0.95257413 9:0.5 10:0.11920292 11:0.11920292 12:0.26894143 13:0.11920292 14:0.047425874 15:0.047425874 16:0.7310586 17:0.5 18:0.01798621 19:0.11920292 20:0.047425874 #
-0.51942017585192112871794734019204 1:0.006692851 2:0.99966466 3:0.047425874 4:0.006692851 5:0.00091105117 6:0.11920292 7:0.01798621 8:0.0024726233 9:0.98201376 10:0.00091105117 11:0.0024726233 12:0.26894143 13:0.0024726233 14:0.00091105117 15:0.0024726233 16:0.11920292 17:0.047425874 18:0.00091105117 19:0.006692851 20:0.00091105117 #
-0.51942017585192112871794734019204 1:0.047425874 2:0.95257413 3:0.26894143 4:0.01798621 5:0.01798621 6:0.26894143 7:0.11920292 8:0.006692851 9:0.5 10:0.0024726233 11:0.047425874 12:0.99752736 13:0.006692851 14:0.047425874 15:0.11920292 16:0.26894143 17:0.26894143 18:0.0024726233 19:0.11920292 20:0.01798621 #
-0.11190737854421718699970966781621 1:0.26894143 2:0.26894143 3:0.95257413 4:0.98201376 5:0.006692851 6:0.5 7:0.11920292 8:0.26894143 9:0.88079709 10:0.11920292 11:0.11920292 12:0.5 13:0.11920292 14:0.047425874 15:0.7310586 16:0.11920292 17:0.26894143 18:0.26894143 19:0.5 20:0.26894143 #
0.51942017585192112871794734019204 1:0.7310586 2:0.26894143 3:0.7310586 4:0.88079709 5:0.047425874 6:0.5 7:0.5 8:0.7310586 9:0.11920292 10:0.26894143 11:0.11920292 12:0.26894143 13:0.26894143 14:0.11920292 15:0.11920292 16:0.88079709 17:0.7310586 18:0.047425874 19:0.11920292 20:0.26894143 #
0.51942017585192112871794734019204 1:0.7310586 2:0.5 3:0.98201376 4:0.7310586 5:0.01798621 6:0.7310586 7:0.7310586 8:0.88079709 9:0.11920292 10:0.01798621 11:0.006692851 12:0.26894143 13:0.047425874 14:0.006692851 15:0.047425874 16:0.88079709 17:0.5 18:0.006692851 19:0.01798621 20:0.047425874 #
0.51942017585192112871794734019204 1:0.5 2:0.5 3:0.7310586 4:0.88079709 5:0.047425874 6:0.5 7:0.88079709 8:0.88079709 9:0.26894143 10:0.26894143 11:0.11920292 12:0.5 13:0.11920292 14:0.26894143 15:0.047425874 16:0.7310586 17:0.7310586 18:0.047425874 19:0.26894143 20:0.11920292 #
-0.056509480600702696739823238658573 1:0.7310586 2:0.26894143 3:0.95257413 4:0.047425874 5:0.01798621 6:0.26894143 7:0.11920292 8:0.047425874 9:0.99908894 10:0.11920292 11:0.7310586 12:0.047425874 13:0.5 14:0.26894143 15:0.01798621 16:0.11920292 17:0.26894143 18:0.01798621 19:0.5 20:0.11920292 #
0.28494803819866681982020395480504 1:0.5 2:0.01798621 3:0.01798621 4:0.006692851 5:0.006692851 6:0.006692851 7:0.006692851 8:0.7310586 9:0.047425874 10:0.7310586 11:0.88079709 12:0.01798621 13:0.26894143 14:0.95257413 15:0.047425874 16:0.26894143 17:0.11920292 18:0.01798621 19:0.95257413 20:0.88079709 #
-0.51942017585192112871794734019204 1:0.7310586 2:0.5 3:0.7310586 4:0.7310586 5:0.01798621 6:0.5 7:0.5 8:0.95257413 9:0.047425874 10:0.11920292 11:0.047425874 12:0.26894143 13:0.11920292 14:0.047425874 15:0.11920292 16:0.88079709 17:0.5 18:0.006692851 19:0.01798621 20:0.11920292 #
0.51942017585192112871794734019204 1:0.047425874 2:0.99966466 3:0.11920292 4:0.11920292 5:0.00033535014 6:0.26894143 7:0.047425874 8:0.01798621 9:0.88079709 10:0.00091105117 11:0.0024726233 12:0.7310586 13:0.0024726233 14:0.00091105117 15:0.0024726233 16:0.11920292 17:0.11920292 18:0.11920292 19:0.0024726233 20:0.006692851 #
0.51942017585192112871794734019204 1:0.11920292 2:0.99908894 3:0.26894143 4:0.047425874 5:0.00091105117 6:0.5 7:0.047425874 8:0.047425874 9:0.7310586 10:0.01798621 11:0.006692851 12:0.5 13:0.006692851 14:0.00091105117 15:0.0024726233 16:0.26894143 17:0.5 18:0.00091105117 19:0.0024726233 20:0.047425874 #
