SVM-light Version V6.02
2 # kernel type
3 # kernel parameter -d 
1 # kernel parameter -g 
1 # kernel parameter -s 
1 # kernel parameter -r 
empty# kernel parameter -u 
20 # highest feature index 
14658 # number of training documents 
7116 # number of support vectors plus 1 
0.47122983 # threshold b, each following line is a SV (starting with alpha*y)
-0.19929489250091891872074256752967 1:0.047425874 2:0.006692851 3:0.0024726233 4:0.0024726233 5:0.01798621 6:0.11920292 7:0.006692851 8:0.0024726233 9:0.26894143 10:0.5 11:0.99752736 12:0.006692851 13:0.5 14:0.7310586 15:0.006692851 16:0.006692851 17:0.047425874 18:0.01798621 19:0.5 20:0.5 #
-0.52283070513909946086528179876041 1:0.7310586 2:0.26894143 3:0.7310586 4:0.26894143 5:0.11920292 6:0.7310586 7:0.5 8:0.11920292 9:0.5 10:0.11920292 11:0.26894143 12:0.7310586 13:0.5 14:0.11920292 15:0.11920292 16:0.95257413 17:0.88079709 18:0.047425874 19:0.5 20:0.11920292 #
-0.52283070513909946086528179876041 1:0.26894143 2:0.5 3:0.11920292 4:0.047425874 5:0.047425874 6:0.11920292 7:0.26894143 8:0.01798621 9:0.99330717 10:0.5 11:0.11920292 12:0.26894143 13:0.11920292 14:0.88079709 15:0.01798621 16:0.11920292 17:0.5 18:0.98201376 19:0.99752736 20:0.11920292 #
0.52283070513909946086528179876041 1:0.5 2:0.047425874 3:0.26894143 4:0.047425874 5:0.047425874 6:0.5 7:0.047425874 8:0.5 9:0.95257413 10:0.7310586 11:0.7310586 12:0.047425874 13:0.88079709 14:0.95257413 15:0.006692851 16:0.26894143 17:0.5 18:0.047425874 19:0.95257413 20:0.5 #
-0.11608086940836739864302273872454 1:0.11920292 2:0.5 3:0.95257413 4:0.26894143 5:0.01798621 6:0.7310586 7:0.5 8:0.11920292 9:0.88079709 10:0.26894143 11:0.047425874 12:0.95257413 13:0.7310586 14:0.26894143 15:0.5 16:0.5 17:0.5 18:0.5 19:0.11920292 20:0.11920292 #
0.52283070513909946086528179876041 1:0.11920292 2:0.01798621 3:0.99330717 4:0.11920292 5:0.0024726233 6:0.01798621 7:0.01798621 8:0.006692851 9:0.047425874 10:0.006692851 11:0.0024726233 12:0.01798621 13:0.006692851 14:0.00091105117 15:0.99752736 16:0.5 17:0.98201376 18:0.00091105117 19:0.0024726233 20:0.006692851 #
0.52283070513909946086528179876041 1:0.99908894 2:0.006692851 3:0.006692851 4:0.0024726233 5:0.01798621 6:0.006692851 7:0.006692851 8:0.047425874 9:0.0024726233 10:0.01798621 11:0.006692851 12:0.006692851 13:0.5 14:0.0024726233 15:0.006692851 16:0.5 17:0.11920292 18:0.00091105117 19:0.0024726233 20:0.5 #
0.52283070513909946086528179876041 1:0.95257413 2:0.006692851 3:0.006692851 4:0.006692851 5:0.01798621 6:0.01798621 7:0.006692851 8:0.95257413 9:0.006692851 10:0.11920292 11:0.95257413 12:0.01798621 13:0.7310586 14:0.95257413 15:0.006692851 16:0.047425874 17:0.047425874 18:0.01798621 19:0.047425874 20:0.11920292 #
0.52283070513909946086528179876041 1:0.01798621 2:0.047425874 3:0.0024726233 4:0.0024726233 5:0.006692851 6:0.01798621 7:0.0024726233 8:0.0024726233 9:0.01798621 10:0.5 11:0.98201376 12:0.006692851 13:0.98201376 14:0.99330717 15:0.0024726233 16:0.01798621 17:0.26894143 18:0.88079709 19:0.5 20:0.11920292 #
0.52283070513909946086528179876041 1:0.11920292 2:0.006692851 3:0.006692851 4:0.0024726233 5:0.01798621 6:0.006692851 7:0.006692851 8:0.0024726233 9:0.006692851 10:0.7310586 11:0.99330717 12:0.006692851 13:0.95257413 14:0.5 15:0.006692851 16:0.26894143 17:0.5 18:0.006692851 19:0.01798621 20:0.88079709 #
-0.52283070513909946086528179876041 1:0.11920292 2:0.047425874 3:0.7310586 4:0.01798621 5:0.006692851 6:0.047425874 7:0.047425874 8:0.11920292 9:0.11920292 10:0.0024726233 11:0.01798621 12:0.11920292 13:0.006692851 14:0.0024726233 15:0.99752736 16:0.88079709 17:0.88079709 18:0.11920292 19:0.006692851 20:0.006692851 #
-0.52283070513909946086528179876041 1:0.99908894 2:0.01798621 3:0.01798621 4:0.0024726233 5:0.006692851 6:0.047425874 7:0.01798621 8:0.11920292 9:0.047425874 10:0.01798621 11:0.0024726233 12:0.006692851 13:0.5 14:0.006692851 15:0.01798621 16:0.7310586 17:0.11920292 18:0.00091105117 19:0.047425874 20:0.047425874 #
-0.52283070513909946086528179876041 1:0.047425874 2:0.7310586 3:0.99330717 4:0.26894143 5:0.0024726233 6:0.26894143 7:0.5 8:0.11920292 9:0.88079709 10:0.006692851 11:0.0024726233 12:0.88079709 13:0.006692851 14:0.0024726233 15:0.01798621 16:0.88079709 17:0.88079709 18:0.00091105117 19:0.006692851 20:0.11920292 #
0.52283070513909946086528179876041 1:0.5 2:0.5 3:0.7310586 4:0.11920292 5:0.047425874 6:0.7310586 7:0.11920292 8:0.047425874 9:0.7310586 10:0.11920292 11:0.047425874 12:0.5 13:0.7310586 14:0.047425874 15:0.5 16:0.7310586 17:0.99330717 18:0.047425874 19:0.5 20:0.11920292 #
0.52283070513909946086528179876041 1:0.26894143 2:0.7310586 3:0.11920292 4:0.047425874 5:0.047425874 6:0.11920292 7:0.11920292 8:0.047425874 9:0.98201376 10:0.26894143 11:0.11920292 12:0.11920292 13:0.11920292 14:0.95257413 15:0.047425874 16:0.26894143 17:0.11920292 18:0.88079709 19:0.99752736 20:0.11920292 #
0.52283070513909946086528179876041 1:0.26894143 2:0.95257413 3:0.7310586 4:0.5 5:0.01798621 6:0.95257413 7:0.5 8:0.047425874 9:0.7310586 10:0.047425874 11:0.047425874 12:0.88079709 13:0.5 14:0.11920292 15:0.11920292 16:0.5 17:0.5 18:0.7310586 19:0.26894143 20:0.047425874 #
-0.083341551235150065912726802253019 1:0.047425874 2:0.006692851 3:0.01798621 4:0.006692851 5:0.006692851 6:0.006692851 7:0.006692851 8:0.006692851 9:0.01798621 10:0.11920292 11:0.88079709 12:0.01798621 13:0.95257413 14:0.99330717 15:0.0024726233 16:0.01798621 17:0.047425874 18:0.99995458 19:0.7310586 20:0.047425874 #
-0.42384471352850294767478089852375 1:0.01798621 2:0.0024726233 3:0.0024726233 4:0.00091105117 5:0.047425874 6:0.006692851 7:0.0024726233 8:0.0024726233 9:0.006692851 10:0.88079709 11:0.88079709 12:0.0024726233 13:0.99752736 14:0.99908894 15:0.0024726233 16:0.006692851 17:0.01798621 18:0.88079709 19:0.26894143 20:0.26894143 #
-0.52283070513909946086528179876041 1:0.11920292 2:0.01798621 3:0.047425874 4:0.006692851 5:0.01798621 6:0.01798621 7:0.006692851 8:0.006692851 9:0.11920292 10:0.88079709 11:0.95257413 12:0.047425874 13:0.88079709 14:0.99330717 15:0.047425874 16:0.01798621 17:0.11920292 18:0.99330717 19:0.5 20:0.5 #
0.52283070513909946086528179876041 1:0.99752736 2:0.047425874 3:0.11920292 4:0.11920292 5:0.11920292 6:0.047425874 7:0.11920292 8:0.26894143 9:0.01798621 10:0.047425874 11:0.11920292 12:0.047425874 13:0.5 14:0.01798621 15:0.047425874 16:0.5 17:0.11920292 18:0.01798621 19:0.01798621 20:0.26894143 #
0.52283070513909946086528179876041 1:0.99752736 2:0.006692851 3:0.006692851 4:0.0024726233 5:0.006692851 6:0.26894143 7:0.006692851 8:0.26894143 9:0.0024726233 10:0.006692851 11:0.006692851 12:0.01798621 13:0.95257413 14:0.0024726233 15:0.006692851 16:0.26894143 17:0.26894143 18:0.00091105117 19:0.0024726233 20:0.01798621 #
0.52283070513909946086528179876041 1:0.99908894 2:0.006692851 3:0.26894143 4:0.006692851 5:0.006692851 6:0.006692851 7:0.006692851 8:0.01798621 9:0.0024726233 10:0.0024726233 11:0.0024726233 12:0.006692851 13:0.006692851 14:0.0024726233 15:0.006692851 16:0.88079709 17:0.11920292 18:0.00091105117 19:0.0024726233 20:0.01798621 #
-0.071183189649818623401245076820487 1:0.7310586 2:0.11920292 3:0.5 4:0.11920292 5:0.11920292 6:0.95257413 7:0.047425874 8:0.5 9:0.11920292 10:0.01798621 11:0.047425874 12:0.11920292 13:0.11920292 14:0.11920292 15:0.26894143 16:0.98201376 17:0.5 18:0.0024726233 19:0.047425874 20:0.11920292 #
-0.4164086079283250141358507789846 1:0.99908894 2:0.0024726233 3:0.0024726233 4:0.0024726233 5:0.01798621 6:0.006692851 7:0.006692851 8:0.26894143 9:0.0024726233 10:0.006692851 11:0.006692851 12:0.006692851 13:0.047425874 14:0.00091105117 15:0.047425874 16:0.5 17:0.11920292 18:0.00091105117 19:0.0024726233 20:0.11920292 #
-0.52283070513909946086528179876041 1:0.11920292 2:0.01798621 3:0.7310586 4:0.11920292 5:0.01798621 6:0.047425874 7:0.047425874 8:0.01798621 9:0.26894143 10:0.7310586 11:0.26894143 12:0.047425874 13:0.26894143 14:0.11920292 15:0.01798621 16:0.7310586 17:0.99752736 18:0.006692851 19:0.01798621 20:0.11920292 #
0.52283070513909946086528179876041 1:0.047425874 2:0.01798621 3:0.006692851 4:0.006692851 5:0.047425874 6:0.01798621 7:0.01798621 8:0.047425874 9:0.01798621 10:0.7310586 11:0.95257413 12:0.01798621 13:0.88079709 14:0.99330717 15:0.006692851 16:0.01798621 17:0.047425874 18:0.7310586 19:0.5 20:0.7310586 #
0.52283070513909946086528179876041 1:0.047425874 2:0.01798621 3:0.047425874 4:0.006692851 5:0.01798621 6:0.01798621 7:0.006692851 8:0.11920292 9:0.01798621 10:0.7310586 11:0.7310586 12:0.006692851 13:0.88079709 14:0.99908894 15:0.006692851 16:0.26894143 17:0.047425874 18:0.88079709 19:0.5 20:0.11920292 #
0.52283070513909946086528179876041 1:0.11920292 2:0.01798621 3:0.01798621 4:0.006692851 5:0.047425874 6:0.047425874 7:0.01798621 8:0.047425874 9:0.01798621 10:0.7310586 11:0.98201376 12:0.01798621 13:0.95257413 14:0.95257413 15:0.01798621 16:0.047425874 17:0.26894143 18:0.7310586 19:0.5 20:0.5 #
-0.52283070513909946086528179876041 1:0.11920292 2:0.01798621 3:0.11920292 4:0.01798621 5:0.01798621 6:0.01798621 7:0.01798621 8:0.047425874 9:0.01798621 10:0.7310586 11:0.98201376 12:0.01798621 13:0.7310586 14:0.98201376 15:0.11920292 16:0.047425874 17:0.5 18:0.26894143 19:0.5 20:0.7310586 #
-0.52283070513909946086528179876041 1:0.11920292 2:0.047425874 3:0.047425874 4:0.01798621 5:0.11920292 6:0.047425874 7:0.047425874 8:0.01798621 9:0.11920292 10:0.7310586 11:0.95257413 12:0.047425874 13:0.7310586 14:0.98201376 15:0.047425874 16:0.047425874 17:0.11920292 18:0.5 19:0.7310586 20:0.5 #
-0.52283070513909946086528179876041 1:0.047425874 2:0.0024726233 3:0.0024726233 4:0.006692851 5:0.006692851 6:0.006692851 7:0.0024726233 8:0.0024726233 9:0.0024726233 10:0.95257413 11:0.95257413 12:0.0024726233 13:0.95257413 14:0.95257413 15:0.0024726233 16:0.01798621 17:0.7310586 18:0.26894143 19:0.26894143 20:0.95257413 #
0.52283070513909946086528179876041 1:0.99908894 2:0.00091105117 3:0.0024726233 4:0.00091105117 5:0.0024726233 6:0.0024726233 7:0.0024726233 8:0.006692851 9:0.00091105117 10:0.0024726233 11:0.00091105117 12:0.0024726233 13:0.00091105117 14:0.00033535014 15:0.0024726233 16:0.95257413 17:0.11920292 18:0.00033535014 19:0.00091105117 20:0.006692851 #
0.52283070513909946086528179876041 1:0.99752736 2:0.006692851 3:0.11920292 4:0.006692851 5:0.01798621 6:0.047425874 7:0.01798621 8:0.11920292 9:0.006692851 10:0.006692851 11:0.0024726233 12:0.01798621 13:0.006692851 14:0.0024726233 15:0.01798621 16:0.99330717 17:0.11920292 18:0.0024726233 19:0.006692851 20:0.01798621 #
0.52283070513909946086528179876041 1:0.99752736 2:0.006692851 3:0.01798621 4:0.006692851 5:0.006692851 6:0.006692851 7:0.006692851 8:0.26894143 9:0.006692851 10:0.0024726233 11:0.0024726233 12:0.006692851 13:0.006692851 14:0.0024726233 15:0.006692851 16:0.99330717 17:0.047425874 18:0.00091105117 19:0.0024726233 20:0.006692851 #
-0.52283070513909946086528179876041 1:0.95257413 2:0.006692851 3:0.006692851 4:0.0024726233 5:0.0024726233 6:0.006692851 7:0.006692851 8:0.006692851 9:0.0024726233 10:0.00091105117 11:0.00091105117 12:0.006692851 13:0.00091105117 14:0.00033535014 15:0.0024726233 16:0.99908894 17:0.01798621 18:0.00033535014 19:0.00091105117 20:0.0024726233 #
-0.10415594659734497828829091758962 1:0.98201376 2:0.006692851 3:0.01798621 4:0.006692851 5:0.006692851 6:0.01798621 7:0.01798621 8:0.01798621 9:0.006692851 10:0.01798621 11:0.0024726233 12:0.01798621 13:0.047425874 14:0.0024726233 15:0.006692851 16:0.99752736 17:0.047425874 18:0.00091105117 19:0.01798621 20:0.047425874 #
-0.50492312651167892134651538071921 1:0.99752736 2:0.006692851 3:0.01798621 4:0.006692851 5:0.01798621 6:0.01798621 7:0.047425874 8:0.11920292 9:0.006692851 10:0.006692851 11:0.0024726233 12:0.01798621 13:0.006692851 14:0.0024726233 15:0.006692851 16:0.95257413 17:0.11920292 18:0.0024726233 19:0.0024726233 20:0.01798621 #
0.52283070513909946086528179876041 1:0.11920292 2:0.01798621 3:0.11920292 4:0.11920292 5:0.047425874 6:0.01798621 7:0.01798621 8:0.047425874 9:0.26894143 10:0.7310586 11:0.98201376 12:0.01798621 13:0.7310586 14:0.95257413 15:0.01798621 16:0.11920292 17:0.5 18:0.047425874 19:0.7310586 20:0.7310586 #
0.52283070513909946086528179876041 1:0.047425874 2:0.01798621 3:0.01798621 4:0.01798621 5:0.11920292 6:0.26894143 7:0.01798621 8:0.006692851 9:0.11920292 10:0.95257413 11:0.95257413 12:0.01798621 13:0.7310586 14:0.88079709 15:0.006692851 16:0.01798621 17:0.26894143 18:0.047425874 19:0.7310586 20:0.95257413 #
0.52283070513909946086528179876041 1:0.11920292 2:0.047425874 3:0.047425874 4:0.047425874 5:0.11920292 6:0.047425874 7:0.047425874 8:0.047425874 9:0.047425874 10:0.7310586 11:0.95257413 12:0.047425874 13:0.5 14:0.98201376 15:0.047425874 16:0.11920292 17:0.26894143 18:0.11920292 19:0.88079709 20:0.7310586 #
-0.52283070513909946086528179876041 1:0.11920292 2:0.047425874 3:0.047425874 4:0.047425874 5:0.047425874 6:0.11920292 7:0.047425874 8:0.047425874 9:0.01798621 10:0.88079709 11:0.95257413 12:0.047425874 13:0.5 14:0.95257413 15:0.01798621 16:0.047425874 17:0.11920292 18:0.047425874 19:0.7310586 20:0.95257413 #
-0.52283070513909946086528179876041 1:0.11920292 2:0.006692851 3:0.047425874 4:0.006692851 5:0.01798621 6:0.01798621 7:0.006692851 8:0.006692851 9:0.047425874 10:0.95257413 11:0.88079709 12:0.006692851 13:0.7310586 14:0.99330717 15:0.047425874 16:0.047425874 17:0.11920292 18:0.047425874 19:0.95257413 20:0.88079709 #
-0.52283070513909946086528179876041 1:0.11920292 2:0.01798621 3:0.01798621 4:0.047425874 5:0.047425874 6:0.047425874 7:0.11920292 8:0.047425874 9:0.047425874 10:0.88079709 11:0.88079709 12:0.01798621 13:0.5 14:0.98201376 15:0.01798621 16:0.11920292 17:0.5 18:0.11920292 19:0.95257413 20:0.88079709 #
0.52283070513909946086528179876041 1:0.99752736 2:0.006692851 3:0.047425874 4:0.006692851 5:0.006692851 6:0.01798621 7:0.006692851 8:0.26894143 9:0.006692851 10:0.0024726233 11:0.0024726233 12:0.006692851 13:0.006692851 14:0.0024726233 15:0.006692851 16:0.99330717 17:0.047425874 18:0.00091105117 19:0.0024726233 20:0.006692851 #
0.52283070513909946086528179876041 1:0.5 2:0.047425874 3:0.01798621 4:0.01798621 5:0.006692851 6:0.11920292 7:0.01798621 8:0.01798621 9:0.006692851 10:0.0024726233 11:0.006692851 12:0.01798621 13:0.047425874 14:0.0024726233 15:0.006692851 16:0.99908894 17:0.26894143 18:0.00091105117 19:0.047425874 20:0.01798621 #
0.52283070513909946086528179876041 1:0.5 2:0.01798621 3:0.047425874 4:0.006692851 5:0.006692851 6:0.01798621 7:0.006692851 8:0.01798621 9:0.006692851 10:0.006692851 11:0.00091105117 12:0.006692851 13:0.01798621 14:0.00091105117 15:0.006692851 16:0.99908894 17:0.26894143 18:0.00091105117 19:0.0024726233 20:0.006692851 #
-0.20564446569786365426324437066796 1:0.26894143 2:0.00091105117 3:0.00091105117 4:0.0024726233 5:0.00033535014 6:0.0024726233 7:0.0024726233 8:0.00091105117 9:0.00091105117 10:0.00033535014 11:0.00033535014 12:0.0024726233 13:0.00091105117 14:0.00012339458 15:0.99987662 16:0.006692851 17:0.0024726233 18:0.00012339458 19:0.00033535014 20:0.006692851 #
0.52283070513909946086528179876041 1:0.047425874 2:0.006692851 3:0.0024726233 4:0.0024726233 5:0.01798621 6:0.006692851 7:0.0024726233 8:0.0024726233 9:0.006692851 10:0.98201376 11:0.88079709 12:0.006692851 13:0.5 14:0.95257413 15:0.0024726233 16:0.006692851 17:0.11920292 18:0.11920292 19:0.95257413 20:0.98201376 #
-0.52283070513909946086528179876041 1:0.26894143 2:0.0024726233 3:0.006692851 4:0.006692851 5:0.0024726233 6:0.006692851 7:0.006692851 8:0.047425874 9:0.0024726233 10:0.00033535014 11:0.00033535014 12:0.006692851 13:0.00091105117 14:0.00033535014 15:0.0024726233 16:0.99908894 17:0.11920292 18:0.00033535014 19:0.00091105117 20:0.00091105117 #
-0.52283070513909946086528179876041 1:0.5 2:0.006692851 3:0.01798621 4:0.006692851 5:0.006692851 6:0.006692851 7:0.006692851 8:0.01798621 9:0.006692851 10:0.00091105117 11:0.0024726233 12:0.006692851 13:0.0024726233 14:0.00091105117 15:0.01798621 16:0.99908894 17:0.5 18:0.00091105117 19:0.0024726233 20:0.0024726233 #
0.52283070513909946086528179876041 1:0.11920292 2:0.01798621 3:0.01798621 4:0.01798621 5:0.11920292 6:0.047425874 7:0.01798621 8:0.01798621 9:0.047425874 10:0.98201376 11:0.88079709 12:0.01798621 13:0.5 14:0.95257413 15:0.01798621 16:0.047425874 17:0.11920292 18:0.11920292 19:0.5 20:0.95257413 #
0.52283070513909946086528179876041 1:0.01798621 2:0.006692851 3:0.0024726233 4:0.0024726233 5:0.01798621 6:0.006692851 7:0.006692851 8:0.006692851 9:0.006692851 10:0.95257413 11:0.98201376 12:0.006692851 13:0.5 14:0.98201376 15:0.006692851 16:0.006692851 17:0.01798621 18:0.047425874 19:0.7310586 20:0.7310586 #
-0.52283070513909946086528179876041 1:0.98201376 2:0.006692851 3:0.01798621 4:0.01798621 5:0.01798621 6:0.01798621 7:0.006692851 8:0.99330717 9:0.006692851 10:0.01798621 11:0.7310586 12:0.01798621 13:0.95257413 14:0.006692851 15:0.006692851 16:0.26894143 17:0.26894143 18:0.006692851 19:0.006692851 20:0.11920292 #
-0.52283070513909946086528179876041 1:0.99330717 2:0.01798621 3:0.047425874 4:0.006692851 5:0.26894143 6:0.01798621 7:0.047425874 8:0.7310586 9:0.006692851 10:0.11920292 11:0.7310586 12:0.01798621 13:0.7310586 14:0.11920292 15:0.01798621 16:0.5 17:0.11920292 18:0.006692851 19:0.01798621 20:0.26894143 #
-0.52283070513909946086528179876041 1:0.11920292 2:0.006692851 3:0.047425874 4:0.01798621 5:0.006692851 6:0.01798621 7:0.11920292 8:0.26894143 9:0.006692851 10:0.00091105117 11:0.00091105117 12:0.006692851 13:0.0024726233 14:0.00091105117 15:0.006692851 16:0.99908894 17:0.26894143 18:0.00091105117 19:0.0024726233 20:0.0024726233 #
0.52283070513909946086528179876041 1:0.006692851 2:0.01798621 3:0.00091105117 4:0.00091105117 5:0.006692851 6:0.01798621 7:0.0024726233 8:0.00091105117 9:0.00091105117 10:0.5 11:0.99752736 12:0.01798621 13:0.99330717 14:0.11920292 15:0.00091105117 16:0.01798621 17:0.047425874 18:0.0024726233 19:0.006692851 20:0.5 #
0.52283070513909946086528179876041 1:0.047425874 2:0.11920292 3:0.01798621 4:0.0024726233 5:0.01798621 6:0.047425874 7:0.006692851 8:0.01798621 9:0.006692851 10:0.5 11:0.95257413 12:0.01798621 13:0.99987662 14:0.11920292 15:0.006692851 16:0.01798621 17:0.11920292 18:0.01798621 19:0.11920292 20:0.26894143 #
0.52283070513909946086528179876041 1:0.047425874 2:0.0024726233 3:0.0024726233 4:0.00091105117 5:0.006692851 6:0.0024726233 7:0.00091105117 8:0.006692851 9:0.00091105117 10:0.7310586 11:0.99752736 12:0.0024726233 13:0.98201376 14:0.047425874 15:0.00091105117 16:0.047425874 17:0.01798621 18:0.0024726233 19:0.006692851 20:0.5 #
-0.52283070513909946086528179876041 1:0.006692851 2:0.0024726233 3:0.00091105117 4:0.00091105117 5:0.006692851 6:0.0024726233 7:0.0024726233 8:0.00091105117 9:0.0024726233 10:0.95257413 11:0.99330717 12:0.0024726233 13:0.5 14:0.88079709 15:0.0024726233 16:0.0024726233 17:0.01798621 18:0.006692851 19:0.5 20:0.7310586 #
-0.10389592169812973676545908574553 1:0.11920292 2:0.88079709 3:0.7310586 4:0.7310586 5:0.047425874 6:0.26894143 7:0.26894143 8:0.95257413 9:0.26894143 10:0.047425874 11:0.047425874 12:0.7310586 13:0.11920292 14:0.11920292 15:0.95257413 16:0.11920292 17:0.11920292 18:0.98201376 19:0.01798621 20:0.047425874 #
0.52283070513909946086528179876041 1:0.5 2:0.26894143 3:0.11920292 4:0.047425874 5:0.11920292 6:0.11920292 7:0.047425874 8:0.7310586 9:0.047425874 10:0.88079709 11:0.7310586 12:0.11920292 13:0.88079709 14:0.88079709 15:0.047425874 16:0.26894143 17:0.88079709 18:0.5 19:0.26894143 20:0.7310586 #
0.52283070513909946086528179876041 1:0.11920292 2:0.0024726233 3:0.006692851 4:0.0024726233 5:0.0024726233 6:0.0024726233 7:0.0024726233 8:0.01798621 9:0.0024726233 10:0.00033535014 11:0.00033535014 12:0.0024726233 13:0.00091105117 14:0.00033535014 15:0.0024726233 16:0.99966466 17:0.11920292 18:0.00033535014 19:0.00091105117 20:0.00091105117 #
0.52283070513909946086528179876041 1:0.047425874 2:0.006692851 3:0.047425874 4:0.01798621 5:0.006692851 6:0.01798621 7:0.01798621 8:0.01798621 9:0.006692851 10:0.0024726233 11:0.00091105117 12:0.01798621 13:0.0024726233 14:0.0024726233 15:0.006692851 16:0.99908894 17:0.11920292 18:0.00091105117 19:0.0024726233 20:0.0024726233 #
0.52283070513909946086528179876041 1:0.047425874 2:0.006692851 3:0.01798621 4:0.01798621 5:0.006692851 6:0.01798621 7:0.01798621 8:0.11920292 9:0.006692851 10:0.00091105117 11:0.00091105117 12:0.01798621 13:0.0024726233 14:0.00091105117 15:0.006692851 16:0.99908894 17:0.047425874 18:0.00091105117 19:0.0024726233 20:0.0024726233 #
-0.52283070513909946086528179876041 1:0.01798621 2:0.0024726233 3:0.01798621 4:0.006692851 5:0.0024726233 6:0.0024726233 7:0.0024726233 8:0.01798621 9:0.0024726233 10:0.00033535014 11:0.00033535014 12:0.0024726233 13:0.00091105117 14:0.00033535014 15:0.0024726233 16:0.99966466 17:0.01798621 18:0.00033535014 19:0.00091105117 20:0.00091105117 #
-0.52283070513909946086528179876041 1:0.006692851 2:0.00091105117 3:0.0024726233 4:0.0024726233 5:0.00091105117 6:0.0024726233 7:0.0024726233 8:0.00091105117 9:0.00091105117 10:0.00012339458 11:0.00012339458 12:0.0024726233 13:0.00033535014 14:0.00012339458 15:0.00091105117 16:0.99966466 17:0.047425874 18:0.00012339458 19:0.00033535014 20:0.00033535014 #
-0.52283070513909946086528179876041 1:0.01798621 2:0.0024726233 3:0.006692851 4:0.0024726233 5:0.0024726233 6:0.047425874 7:0.047425874 8:0.006692851 9:0.0024726233 10:0.00091105117 11:0.00091105117 12:0.0024726233 13:0.00091105117 14:0.01798621 15:0.0024726233 16:0.99908894 17:0.01798621 18:0.00033535014 19:0.00091105117 20:0.00091105117 #
0.52283070513909946086528179876041 1:0.99752736 2:0.047425874 3:0.047425874 4:0.047425874 5:0.047425874 6:0.047425874 7:0.047425874 8:0.5 9:0.047425874 10:0.047425874 11:0.047425874 12:0.047425874 13:0.047425874 14:0.01798621 15:0.047425874 16:0.26894143 17:0.5 18:0.01798621 19:0.047425874 20:0.047425874 #
0.52283070513909946086528179876041 1:0.99908894 2:0.0024726233 3:0.0024726233 4:0.0024726233 5:0.006692851 6:0.006692851 7:0.006692851 8:0.26894143 9:0.0024726233 10:0.047425874 11:0.047425874 12:0.006692851 13:0.11920292 14:0.047425874 15:0.006692851 16:0.11920292 17:0.26894143 18:0.00091105117 19:0.0024726233 20:0.26894143 #
0.52283070513909946086528179876041 1:0.98201376 2:0.006692851 3:0.01798621 4:0.006692851 5:0.01798621 6:0.006692851 7:0.006692851 8:0.95257413 9:0.006692851 10:0.26894143 11:0.88079709 12:0.006692851 13:0.7310586 14:0.11920292 15:0.006692851 16:0.7310586 17:0.5 18:0.006692851 19:0.006692851 20:0.5 #
-0.52283070513909946086528179876041 1:0.95257413 2:0.0024726233 3:0.006692851 4:0.01798621 5:0.0024726233 6:0.01798621 7:0.01798621 8:0.99908894 9:0.0024726233 10:0.00091105117 11:0.00091105117 12:0.006692851 13:0.0024726233 14:0.00091105117 15:0.047425874 16:0.047425874 17:0.26894143 18:0.00091105117 19:0.00091105117 20:0.006692851 #
0.52283070513909946086528179876041 1:0.047425874 2:0.0024726233 3:0.01798621 4:0.006692851 5:0.0024726233 6:0.006692851 7:0.006692851 8:0.01798621 9:0.0024726233 10:0.00091105117 11:0.00091105117 12:0.006692851 13:0.0024726233 14:0.00091105117 15:0.0024726233 16:0.99966466 17:0.047425874 18:0.00033535014 19:0.00091105117 20:0.00091105117 #
-0.52283070513909946086528179876041 1:0.99752736 2:0.006692851 3:0.047425874 4:0.006692851 5:0.01798621 6:0.01798621 7:0.01798621 8:0.5 9:0.006692851 10:0.11920292 11:0.047425874 12:0.01798621 13:0.26894143 14:0.047425874 15:0.26894143 16:0.11920292 17:0.5 18:0.006692851 19:0.5 20:0.047425874 #
-0.52283070513909946086528179876041 1:0.95257413 2:0.0024726233 3:0.01798621 4:0.006692851 5:0.006692851 6:0.006692851 7:0.006692851 8:0.99752736 9:0.0024726233 10:0.0024726233 11:0.0024726233 12:0.006692851 13:0.11920292 14:0.0024726233 15:0.006692851 16:0.11920292 17:0.26894143 18:0.0024726233 19:0.0024726233 20:0.006692851 #
0.52283070513909946086528179876041 1:0.11920292 2:0.006692851 3:0.047425874 4:0.01798621 5:0.006692851 6:0.01798621 7:0.01798621 8:0.01798621 9:0.006692851 10:0.0024726233 11:0.0024726233 12:0.01798621 13:0.006692851 14:0.0024726233 15:0.006692851 16:0.99908894 17:0.7310586 18:0.00091105117 19:0.0024726233 20:0.006692851 #
0.52283070513909946086528179876041 1:0.26894143 2:0.01798621 3:0.047425874 4:0.006692851 5:0.006692851 6:0.01798621 7:0.006692851 8:0.006692851 9:0.006692851 10:0.0024726233 11:0.00091105117 12:0.01798621 13:0.0024726233 14:0.00091105117 15:0.006692851 16:0.99908894 17:0.95257413 18:0.00091105117 19:0.0024726233 20:0.0024726233 #
0.52283070513909946086528179876041 1:0.7310586 2:0.5 3:0.26894143 4:0.11920292 5:0.01798621 6:0.5 7:0.95257413 8:0.7310586 9:0.7310586 10:0.01798621 11:0.11920292 12:0.26894143 13:0.047425874 14:0.26894143 15:0.01798621 16:0.88079709 17:0.7310586 18:0.006692851 19:0.047425874 20:0.047425874 #
-0.52283070513909946086528179876041 1:0.26894143 2:0.5 3:0.11920292 4:0.5 5:0.047425874 6:0.95257413 7:0.88079709 8:0.26894143 9:0.11920292 10:0.26894143 11:0.26894143 12:0.5 13:0.11920292 14:0.26894143 15:0.11920292 16:0.88079709 17:0.7310586 18:0.047425874 19:0.5 20:0.26894143 #
-0.27564744003346969281054157363542 1:0.11920292 2:0.047425874 3:0.01798621 4:0.047425874 5:0.0024726233 6:0.11920292 7:0.01798621 8:0.006692851 9:0.26894143 10:0.26894143 11:0.7310586 12:0.006692851 13:0.26894143 14:0.95257413 15:0.88079709 16:0.26894143 17:0.5 18:0.99987662 19:0.98201376 20:0.11920292 #
0.52283070513909946086528179876041 1:0.006692851 2:0.00091105117 3:0.01798621 4:0.0024726233 5:0.00091105117 6:0.0024726233 7:0.0024726233 8:0.26894143 9:0.00091105117 10:0.00033535014 11:0.01798621 12:0.0024726233 13:0.01798621 14:0.00033535014 15:0.00091105117 16:0.99908894 17:0.95257413 18:0.00033535014 19:0.00091105117 20:0.00091105117 #
0.52283070513909946086528179876041 1:0.11920292 2:0.047425874 3:0.26894143 4:0.006692851 5:0.006692851 6:0.01798621 7:0.006692851 8:0.006692851 9:0.006692851 10:0.047425874 11:0.01798621 12:0.01798621 13:0.006692851 14:0.0024726233 15:0.006692851 16:0.88079709 17:0.99908894 18:0.00091105117 19:0.0024726233 20:0.01798621 #
-0.092508972617799542503824739014817 1:0.26894143 2:0.5 3:0.5 4:0.88079709 5:0.006692851 6:0.98201376 7:0.99330717 8:0.01798621 9:0.5 10:0.006692851 11:0.11920292 12:0.7310586 13:0.01798621 14:0.006692851 15:0.01798621 16:0.11920292 17:0.047425874 18:0.006692851 19:0.047425874 20:0.006692851 #
0.52283070513909946086528179876041 1:0.95257413 2:0.0024726233 3:0.01798621 4:0.0024726233 5:0.0024726233 6:0.0024726233 7:0.0024726233 8:0.99908894 9:0.0024726233 10:0.00091105117 11:0.0024726233 12:0.0024726233 13:0.0024726233 14:0.00091105117 15:0.0024726233 16:0.01798621 17:0.01798621 18:0.00091105117 19:0.00091105117 20:0.0024726233 #
-0.52283070513909946086528179876041 1:0.5 2:0.047425874 3:0.11920292 4:0.047425874 5:0.047425874 6:0.26894143 7:0.01798621 8:0.01798621 9:0.01798621 10:0.7310586 11:0.98201376 12:0.01798621 13:0.7310586 14:0.95257413 15:0.047425874 16:0.26894143 17:0.11920292 18:0.26894143 19:0.5 20:0.5 #
-0.27269968560724622275159845230519 1:0.047425874 2:0.006692851 3:0.01798621 4:0.006692851 5:0.006692851 6:0.006692851 7:0.006692851 8:0.006692851 9:0.006692851 10:0.0024726233 11:0.0024726233 12:0.01798621 13:0.006692851 14:0.00091105117 15:0.006692851 16:0.99752736 17:0.99330717 18:0.00091105117 19:0.0024726233 20:0.01798621 #
0.52283070513909946086528179876041 1:0.88079709 2:0.0024726233 3:0.006692851 4:0.006692851 5:0.0024726233 6:0.0024726233 7:0.0024726233 8:0.99908894 9:0.0024726233 10:0.00091105117 11:0.006692851 12:0.006692851 13:0.006692851 14:0.00091105117 15:0.0024726233 16:0.047425874 17:0.047425874 18:0.00091105117 19:0.00091105117 20:0.0024726233 #
0.52283070513909946086528179876041 1:0.88079709 2:0.0024726233 3:0.006692851 4:0.0024726233 5:0.0024726233 6:0.0024726233 7:0.0024726233 8:0.99908894 9:0.0024726233 10:0.00091105117 11:0.00091105117 12:0.0024726233 13:0.006692851 14:0.00091105117 15:0.0024726233 16:0.047425874 17:0.006692851 18:0.00091105117 19:0.00091105117 20:0.006692851 #
-0.043201789528796080697148340732383 1:0.047425874 2:0.01798621 3:0.26894143 4:0.11920292 5:0.01798621 6:0.047425874 7:0.5 8:0.01798621 9:0.01798621 10:0.7310586 11:0.11920292 12:0.047425874 13:0.047425874 14:0.01798621 15:0.006692851 16:0.7310586 17:0.99752736 18:0.0024726233 19:0.11920292 20:0.95257413 #
-0.1258972768304398304195501623326 1:0.5 2:0.006692851 3:0.01798621 4:0.006692851 5:0.006692851 6:0.01798621 7:0.006692851 8:0.006692851 9:0.006692851 10:0.047425874 11:0.006692851 12:0.01798621 13:0.006692851 14:0.26894143 15:0.006692851 16:0.98201376 17:0.99752736 18:0.0024726233 19:0.006692851 20:0.047425874 #
-0.52283070513909946086528179876041 1:0.047425874 2:0.01798621 3:0.01798621 4:0.0024726233 5:0.0024726233 6:0.0024726233 7:0.0024726233 8:0.0024726233 9:0.00091105117 10:0.0024726233 11:0.0024726233 12:0.01798621 13:0.0024726233 14:0.00091105117 15:0.0024726233 16:0.88079709 17:0.99966466 18:0.00033535014 19:0.00091105117 20:0.006692851 #
0.52283070513909946086528179876041 1:0.0024726233 2:0.00091105117 3:0.00033535014 4:0.00033535014 5:0.0024726233 6:0.0024726233 7:0.00091105117 8:0.00033535014 9:0.00091105117 10:0.95257413 11:0.99752736 12:0.00091105117 13:0.99330717 14:0.26894143 15:0.00091105117 16:0.00091105117 17:0.006692851 18:0.0024726233 19:0.006692851 20:0.11920292 #
0.52283070513909946086528179876041 1:0.006692851 2:0.00091105117 3:0.00091105117 4:0.00033535014 5:0.01798621 6:0.00091105117 7:0.00091105117 8:0.00091105117 9:0.01798621 10:0.5 11:0.99752736 12:0.0024726233 13:0.95257413 14:0.5 15:0.01798621 16:0.01798621 17:0.006692851 18:0.0024726233 19:0.047425874 20:0.047425874 #
0.52283070513909946086528179876041 1:0.006692851 2:0.0024726233 3:0.047425874 4:0.00091105117 5:0.006692851 6:0.0024726233 7:0.0024726233 8:0.00091105117 9:0.0024726233 10:0.99330717 11:0.98201376 12:0.01798621 13:0.95257413 14:0.26894143 15:0.0024726233 16:0.006692851 17:0.5 18:0.0024726233 19:0.047425874 20:0.26894143 #
0.52283070513909946086528179876041 1:0.01798621 2:0.006692851 3:0.047425874 4:0.006692851 5:0.006692851 6:0.01798621 7:0.006692851 8:0.006692851 9:0.01798621 10:0.006692851 11:0.006692851 12:0.01798621 13:0.006692851 14:0.0024726233 15:0.006692851 16:0.88079709 17:0.99966466 18:0.0024726233 19:0.0024726233 20:0.01798621 #
-0.52283070513909946086528179876041 1:0.99752736 2:0.0024726233 3:0.006692851 4:0.0024726233 5:0.006692851 6:0.006692851 7:0.006692851 8:0.98201376 9:0.0024726233 10:0.0024726233 11:0.0024726233 12:0.006692851 13:0.006692851 14:0.0024726233 15:0.006692851 16:0.047425874 17:0.01798621 18:0.0024726233 19:0.0024726233 20:0.01798621 #
0.52283070513909946086528179876041 1:0.047425874 2:0.006692851 3:0.047425874 4:0.006692851 5:0.006692851 6:0.047425874 7:0.006692851 8:0.006692851 9:0.0024726233 10:0.006692851 11:0.006692851 12:0.01798621 13:0.006692851 14:0.0024726233 15:0.006692851 16:0.7310586 17:0.99966466 18:0.0024726233 19:0.0024726233 20:0.01798621 #
-0.52283070513909946086528179876041 1:0.5 2:0.7310586 3:0.7310586 4:0.7310586 5:0.047425874 6:0.7310586 7:0.7310586 8:0.5 9:0.26894143 10:0.11920292 11:0.11920292 12:0.7310586 13:0.11920292 14:0.7310586 15:0.11920292 16:0.7310586 17:0.5 18:0.11920292 19:0.7310586 20:0.11920292 #
-0.15155653606697114255119629433466 1:0.26894143 2:0.26894143 3:0.88079709 4:0.95257413 5:0.006692851 6:0.5 7:0.95257413 8:0.7310586 9:0.26894143 10:0.006692851 11:0.006692851 12:0.5 13:0.01798621 14:0.0024726233 15:0.11920292 16:0.88079709 17:0.88079709 18:0.047425874 19:0.006692851 20:0.006692851 #
0.52283070513909946086528179876041 1:0.88079709 2:0.01798621 3:0.01798621 4:0.006692851 5:0.047425874 6:0.01798621 7:0.01798621 8:0.047425874 9:0.006692851 10:0.5 11:0.98201376 12:0.01798621 13:0.7310586 14:0.5 15:0.047425874 16:0.11920292 17:0.5 18:0.11920292 19:0.047425874 20:0.88079709 #
0.52283070513909946086528179876041 1:0.26894143 2:0.006692851 3:0.11920292 4:0.047425874 5:0.006692851 6:0.26894143 7:0.26894143 8:0.01798621 9:0.01798621 10:0.01798621 11:0.006692851 12:0.01798621 13:0.047425874 14:0.0024726233 15:0.006692851 16:0.88079709 17:0.99908894 18:0.0024726233 19:0.006692851 20:0.047425874 #
0.52283070513909946086528179876041 1:0.26894143 2:0.006692851 3:0.11920292 4:0.006692851 5:0.006692851 6:0.006692851 7:0.006692851 8:0.26894143 9:0.0024726233 10:0.006692851 11:0.006692851 12:0.006692851 13:0.01798621 14:0.0024726233 15:0.006692851 16:0.88079709 17:0.99908894 18:0.00091105117 19:0.0024726233 20:0.01798621 #
0.52283070513909946086528179876041 1:0.01798621 2:0.0024726233 3:0.01798621 4:0.006692851 5:0.006692851 6:0.006692851 7:0.006692851 8:0.0024726233 9:0.0024726233 10:0.006692851 11:0.0024726233 12:0.006692851 13:0.006692851 14:0.00091105117 15:0.0024726233 16:0.5 17:0.99966466 18:0.00091105117 19:0.0024726233 20:0.006692851 #
-0.32236848853771044032257009348541 1:0.26894143 2:0.88079709 3:0.047425874 4:0.11920292 5:0.047425874 6:0.11920292 7:0.047425874 8:0.11920292 9:0.047425874 10:0.88079709 11:0.88079709 12:0.26894143 13:0.7310586 14:0.26894143 15:0.047425874 16:0.26894143 17:0.5 18:0.98201376 19:0.7310586 20:0.88079709 #
-0.2892725500755621848014698116458 1:0.01798621 2:0.0024726233 3:0.01798621 4:0.006692851 5:0.006692851 6:0.006692851 7:0.006692851 8:0.0024726233 9:0.0024726233 10:0.006692851 11:0.0024726233 12:0.006692851 13:0.01798621 14:0.00091105117 15:0.0024726233 16:0.5 17:0.99966466 18:0.00091105117 19:0.0024726233 20:0.006692851 #
0.52283070513909946086528179876041 1:0.88079709 2:0.01798621 3:0.047425874 4:0.01798621 5:0.047425874 6:0.047425874 7:0.01798621 8:0.11920292 9:0.88079709 10:0.95257413 11:0.7310586 12:0.01798621 13:0.5 14:0.7310586 15:0.01798621 16:0.11920292 17:0.7310586 18:0.047425874 19:0.047425874 20:0.88079709 #
0.52283070513909946086528179876041 1:0.01798621 2:0.006692851 3:0.0024726233 4:0.00091105117 5:0.01798621 6:0.006692851 7:0.0024726233 8:0.00091105117 9:0.0024726233 10:0.95257413 11:0.99752736 12:0.0024726233 13:0.7310586 14:0.11920292 15:0.0024726233 16:0.0024726233 17:0.01798621 18:0.01798621 19:0.01798621 20:0.5 #
0.52283070513909946086528179876041 1:0.01798621 2:0.0024726233 3:0.00091105117 4:0.00091105117 5:0.006692851 6:0.0024726233 7:0.0024726233 8:0.00091105117 9:0.0024726233 10:0.5 11:0.99752736 12:0.0024726233 13:0.7310586 14:0.26894143 15:0.0024726233 16:0.006692851 17:0.01798621 18:0.006692851 19:0.01798621 20:0.5 #
0.52283070513909946086528179876041 1:0.0024726233 2:0.00033535014 3:0.00012339458 4:0.00012339458 5:0.00091105117 6:0.00033535014 7:0.00033535014 8:0.00012339458 9:0.00033535014 10:0.5 11:0.99908894 12:0.00033535014 13:0.5 14:0.11920292 15:0.00033535014 16:0.00033535014 17:0.0024726233 18:0.00091105117 19:0.0024726233 20:0.5 #
-0.52283070513909946086528179876041 1:0.98201376 2:0.0024726233 3:0.01798621 4:0.006692851 5:0.006692851 6:0.006692851 7:0.006692851 8:0.99752736 9:0.0024726233 10:0.0024726233 11:0.01798621 12:0.006692851 13:0.0024726233 14:0.047425874 15:0.006692851 16:0.047425874 17:0.01798621 18:0.047425874 19:0.0024726233 20:0.01798621 #
-0.52283070513909946086528179876041 1:0.99752736 2:0.006692851 3:0.006692851 4:0.0024726233 5:0.006692851 6:0.006692851 7:0.006692851 8:0.98201376 9:0.0024726233 10:0.01798621 11:0.0024726233 12:0.01798621 13:0.01798621 14:0.006692851 15:0.01798621 16:0.047425874 17:0.01798621 18:0.00091105117 19:0.0024726233 20:0.01798621 #
-0.52283070513909946086528179876041 1:0.01798621 2:0.0024726233 3:0.00091105117 4:0.00091105117 5:0.01798621 6:0.006692851 7:0.0024726233 8:0.00091105117 9:0.0024726233 10:0.7310586 11:0.99752736 12:0.0024726233 13:0.5 14:0.11920292 15:0.0024726233 16:0.0024726233 17:0.01798621 18:0.006692851 19:0.01798621 20:0.88079709 #
-0.52283070513909946086528179876041 1:0.047425874 2:0.006692851 3:0.0024726233 4:0.0024726233 5:0.01798621 6:0.006692851 7:0.006692851 8:0.0024726233 9:0.0024726233 10:0.7310586 11:0.99330717 12:0.006692851 13:0.26894143 14:0.26894143 15:0.006692851 16:0.01798621 17:0.047425874 18:0.006692851 19:0.01798621 20:0.98201376 #
-0.23311010242954532944992251941585 1:0.006692851 2:0.0024726233 3:0.00091105117 4:0.00091105117 5:0.006692851 6:0.0024726233 7:0.00091105117 8:0.006692851 9:0.00091105117 10:0.7310586 11:0.99752736 12:0.0024726233 13:0.26894143 14:0.047425874 15:0.00091105117 16:0.0024726233 17:0.006692851 18:0.0024726233 19:0.006692851 20:0.7310586 #
0.52283070513909946086528179876041 1:0.7310586 2:0.0024726233 3:0.01798621 4:0.006692851 5:0.006692851 6:0.006692851 7:0.006692851 8:0.006692851 9:0.0024726233 10:0.006692851 11:0.0024726233 12:0.006692851 13:0.006692851 14:0.00091105117 15:0.006692851 16:0.7310586 17:0.99966466 18:0.00091105117 19:0.0024726233 20:0.006692851 #
0.52283070513909946086528179876041 1:0.047425874 2:0.006692851 3:0.01798621 4:0.006692851 5:0.006692851 6:0.006692851 7:0.006692851 8:0.006692851 9:0.0024726233 10:0.5 11:0.006692851 12:0.006692851 13:0.047425874 14:0.0024726233 15:0.006692851 16:0.5 17:0.99966466 18:0.00091105117 19:0.0024726233 20:0.047425874 #
0.52283070513909946086528179876041 1:0.047425874 2:0.006692851 3:0.5 4:0.01798621 5:0.006692851 6:0.01798621 7:0.01798621 8:0.01798621 9:0.006692851 10:0.01798621 11:0.0024726233 12:0.01798621 13:0.006692851 14:0.0024726233 15:0.006692851 16:0.99908894 17:0.95257413 18:0.00091105117 19:0.0024726233 20:0.01798621 #
-0.52283070513909946086528179876041 1:0.26894143 2:0.047425874 3:0.5 4:0.11920292 5:0.006692851 6:0.01798621 7:0.01798621 8:0.26894143 9:0.047425874 10:0.01798621 11:0.0024726233 12:0.047425874 13:0.006692851 14:0.01798621 15:0.006692851 16:0.99752736 17:0.98201376 18:0.0024726233 19:0.006692851 20:0.006692851 #
0.52283070513909946086528179876041 1:0.047425874 2:0.0024726233 3:0.0024726233 4:0.00091105117 5:0.01798621 6:0.0024726233 7:0.0024726233 8:0.00091105117 9:0.00091105117 10:0.95257413 11:0.95257413 12:0.0024726233 13:0.26894143 14:0.01798621 15:0.0024726233 16:0.006692851 17:0.047425874 18:0.0024726233 19:0.006692851 20:0.99752736 #
-0.52283070513909946086528179876041 1:0.047425874 2:0.047425874 3:0.047425874 4:0.01798621 5:0.006692851 6:0.5 7:0.01798621 8:0.047425874 9:0.006692851 10:0.01798621 11:0.5 12:0.01798621 13:0.26894143 14:0.0024726233 15:0.01798621 16:0.88079709 17:0.99908894 18:0.0024726233 19:0.006692851 20:0.01798621 #
-0.52283070513909946086528179876041 1:0.5 2:0.01798621 3:0.11920292 4:0.01798621 5:0.01798621 6:0.01798621 7:0.047425874 8:0.26894143 9:0.01798621 10:0.006692851 11:0.006692851 12:0.047425874 13:0.01798621 14:0.006692851 15:0.01798621 16:0.99330717 17:0.99330717 18:0.006692851 19:0.006692851 20:0.01798621 #
0.52283070513909946086528179876041 1:0.047425874 2:0.0024726233 3:0.00091105117 4:0.00091105117 5:0.006692851 6:0.0024726233 7:0.0024726233 8:0.00091105117 9:0.00091105117 10:0.95257413 11:0.88079709 12:0.0024726233 13:0.11920292 14:0.11920292 15:0.0024726233 16:0.006692851 17:0.047425874 18:0.0024726233 19:0.006692851 20:0.99752736 #
0.52283070513909946086528179876041 1:0.047425874 2:0.0024726233 3:0.00091105117 4:0.00091105117 5:0.01798621 6:0.0024726233 7:0.0024726233 8:0.00091105117 9:0.00091105117 10:0.95257413 11:0.98201376 12:0.0024726233 13:0.11920292 14:0.047425874 15:0.0024726233 16:0.006692851 17:0.047425874 18:0.11920292 19:0.006692851 20:0.99330717 #
-0.3430179106783181608442134802317 1:0.01798621 2:0.99330717 3:0.26894143 4:0.11920292 5:0.00091105117 6:0.98201376 7:0.7310586 8:0.006692851 9:0.047425874 10:0.0024726233 11:0.0024726233 12:0.99330717 13:0.006692851 14:0.00091105117 15:0.006692851 16:0.047425874 17:0.11920292 18:0.0024726233 19:0.006692851 20:0.006692851 #
-0.024250033884057085181717994259998 1:0.11920292 2:0.006692851 3:0.01798621 4:0.006692851 5:0.01798621 6:0.01798621 7:0.01798621 8:0.006692851 9:0.006692851 10:0.26894143 11:0.006692851 12:0.01798621 13:0.01798621 14:0.006692851 15:0.006692851 16:0.7310586 17:0.99966466 18:0.0024726233 19:0.006692851 20:0.11920292 #
-0.49922313099190129825899475690676 1:0.047425874 2:0.26894143 3:0.95257413 4:0.88079709 5:0.006692851 6:0.26894143 7:0.26894143 8:0.01798621 9:0.99752736 10:0.047425874 11:0.047425874 12:0.5 13:0.047425874 14:0.7310586 15:0.01798621 16:0.11920292 17:0.7310586 18:0.047425874 19:0.98201376 20:0.11920292 #
0.52283070513909946086528179876041 1:0.98201376 2:0.01798621 3:0.01798621 4:0.006692851 5:0.006692851 6:0.01798621 7:0.006692851 8:0.99752736 9:0.006692851 10:0.006692851 11:0.047425874 12:0.01798621 13:0.006692851 14:0.006692851 15:0.01798621 16:0.11920292 17:0.047425874 18:0.006692851 19:0.01798621 20:0.11920292 #
0.52283070513909946086528179876041 1:0.98201376 2:0.006692851 3:0.01798621 4:0.006692851 5:0.006692851 6:0.006692851 7:0.006692851 8:0.99752736 9:0.006692851 10:0.0024726233 11:0.0024726233 12:0.006692851 13:0.006692851 14:0.0024726233 15:0.006692851 16:0.11920292 17:0.01798621 18:0.0024726233 19:0.0024726233 20:0.047425874 #
0.52283070513909946086528179876041 1:0.95257413 2:0.0024726233 3:0.01798621 4:0.006692851 5:0.0024726233 6:0.006692851 7:0.006692851 8:0.99908894 9:0.0024726233 10:0.00091105117 11:0.00091105117 12:0.006692851 13:0.0024726233 14:0.00091105117 15:0.006692851 16:0.11920292 17:0.006692851 18:0.0024726233 19:0.0024726233 20:0.0024726233 #
-0.0061244628839327783231816226816591 1:0.5 2:0.5 3:0.99752736 4:0.95257413 5:0.0024726233 6:0.95257413 7:0.26894143 8:0.11920292 9:0.7310586 10:0.006692851 11:0.0024726233 12:0.5 13:0.01798621 14:0.0024726233 15:0.006692851 16:0.11920292 17:0.047425874 18:0.5 19:0.047425874 20:0.0024726233 #
0.52283070513909946086528179876041 1:0.5 2:0.047425874 3:0.11920292 4:0.047425874 5:0.047425874 6:0.11920292 7:0.26894143 8:0.11920292 9:0.047425874 10:0.047425874 11:0.047425874 12:0.11920292 13:0.26894143 14:0.01798621 15:0.11920292 16:0.98201376 17:0.99752736 18:0.006692851 19:0.01798621 20:0.26894143 #
-0.52283070513909946086528179876041 1:0.88079709 2:0.0024726233 3:0.006692851 4:0.006692851 5:0.0024726233 6:0.0024726233 7:0.0024726233 8:0.99908894 9:0.0024726233 10:0.00091105117 11:0.00091105117 12:0.006692851 13:0.0024726233 14:0.00091105117 15:0.0024726233 16:0.11920292 17:0.006692851 18:0.00091105117 19:0.00091105117 20:0.00091105117 #
0.52283070513909946086528179876041 1:0.7310586 2:0.006692851 3:0.11920292 4:0.006692851 5:0.006692851 6:0.006692851 7:0.006692851 8:0.006692851 9:0.0024726233 10:0.006692851 11:0.006692851 12:0.006692851 13:0.006692851 14:0.0024726233 15:0.006692851 16:0.95257413 17:0.99908894 18:0.00091105117 19:0.0024726233 20:0.11920292 #
-0.52283070513909946086528179876041 1:0.98201376 2:0.006692851 3:0.006692851 4:0.01798621 5:0.0024726233 6:0.006692851 7:0.0024726233 8:0.99752736 9:0.0024726233 10:0.00091105117 11:0.00091105117 12:0.006692851 13:0.0024726233 14:0.00091105117 15:0.0024726233 16:0.11920292 17:0.006692851 18:0.00091105117 19:0.00091105117 20:0.006692851 #
0.52283070513909946086528179876041 1:0.047425874 2:0.01798621 3:0.11920292 4:0.0024726233 5:0.0024726233 6:0.0024726233 7:0.0024726233 8:0.0024726233 9:0.00091105117 10:0.11920292 11:0.0024726233 12:0.047425874 13:0.006692851 14:0.00091105117 15:0.0024726233 16:0.7310586 17:0.99908894 18:0.00033535014 19:0.00091105117 20:0.7310586 #
0.52283070513909946086528179876041 1:0.26894143 2:0.01798621 3:0.11920292 4:0.11920292 5:0.006692851 6:0.11920292 7:0.11920292 8:0.5 9:0.006692851 10:0.11920292 11:0.047425874 12:0.01798621 13:0.11920292 14:0.006692851 15:0.006692851 16:0.88079709 17:0.99752736 18:0.0024726233 19:0.01798621 20:0.11920292 #
-0.52283070513909946086528179876041 1:0.7310586 2:0.006692851 3:0.01798621 4:0.047425874 5:0.0024726233 6:0.006692851 7:0.006692851 8:0.99908894 9:0.0024726233 10:0.006692851 11:0.0024726233 12:0.006692851 13:0.01798621 14:0.00091105117 15:0.0024726233 16:0.047425874 17:0.006692851 18:0.0024726233 19:0.00091105117 20:0.26894143 #
-0.52283070513909946086528179876041 1:0.99330717 2:0.006692851 3:0.006692851 4:0.006692851 5:0.006692851 6:0.006692851 7:0.006692851 8:0.99330717 9:0.0024726233 10:0.11920292 11:0.01798621 12:0.006692851 13:0.01798621 14:0.0024726233 15:0.006692851 16:0.047425874 17:0.01798621 18:0.0024726233 19:0.0024726233 20:0.5 #
-0.52283070513909946086528179876041 1:0.99752736 2:0.0024726233 3:0.006692851 4:0.0024726233 5:0.006692851 6:0.006692851 7:0.0024726233 8:0.95257413 9:0.0024726233 10:0.0024726233 11:0.0024726233 12:0.006692851 13:0.0024726233 14:0.00091105117 15:0.0024726233 16:0.26894143 17:0.01798621 18:0.00091105117 19:0.00091105117 20:0.006692851 #
0.52283070513909946086528179876041 1:0.047425874 2:0.006692851 3:0.11920292 4:0.5 5:0.006692851 6:0.01798621 7:0.006692851 8:0.0024726233 9:0.0024726233 10:0.11920292 11:0.5 12:0.006692851 13:0.047425874 14:0.01798621 15:0.006692851 16:0.7310586 17:0.99908894 18:0.0024726233 19:0.11920292 20:0.26894143 #
0.52283070513909946086528179876041 1:0.11920292 2:0.01798621 3:0.5 4:0.047425874 5:0.01798621 6:0.26894143 7:0.047425874 8:0.5 9:0.047425874 10:0.01798621 11:0.006692851 12:0.047425874 13:0.01798621 14:0.006692851 15:0.01798621 16:0.99330717 17:0.98201376 18:0.0024726233 19:0.006692851 20:0.047425874 #
0.52283070513909946086528179876041 1:0.26894143 2:0.01798621 3:0.7310586 4:0.01798621 5:0.006692851 6:0.047425874 7:0.01798621 8:0.26894143 9:0.006692851 10:0.006692851 11:0.006692851 12:0.11920292 13:0.047425874 14:0.0024726233 15:0.006692851 16:0.98201376 17:0.99752736 18:0.0024726233 19:0.006692851 20:0.01798621 #
-0.19837171491215344065750514346291 1:0.5 2:0.047425874 3:0.5 4:0.01798621 5:0.006692851 6:0.01798621 7:0.01798621 8:0.01798621 9:0.006692851 10:0.01798621 11:0.006692851 12:0.01798621 13:0.01798621 14:0.0024726233 15:0.006692851 16:0.99752736 17:0.99330717 18:0.0024726233 19:0.006692851 20:0.5 #
0.52283070513909946086528179876041 1:0.95257413 2:0.0024726233 3:0.0024726233 4:0.00091105117 5:0.00091105117 6:0.00091105117 7:0.00091105117 8:0.99908894 9:0.00033535014 10:0.01798621 11:0.0024726233 12:0.00091105117 13:0.00091105117 14:0.0024726233 15:0.00091105117 16:0.01798621 17:0.0024726233 18:0.00033535014 19:0.00033535014 20:0.26894143 #
0.20783477559085869468269436310948 1:0.0024726233 2:0.006692851 3:0.01798621 4:0.0024726233 5:0.00091105117 6:0.95257413 7:0.01798621 8:0.00091105117 9:0.95257413 10:0.0024726233 11:0.006692851 12:0.006692851 13:0.006692851 14:0.7310586 15:0.00091105117 16:0.0024726233 17:0.0024726233 18:0.99995458 19:0.99908894 20:0.006692851 #
-0.52283070513909946086528179876041 1:0.7310586 2:0.006692851 3:0.01798621 4:0.047425874 5:0.006692851 6:0.01798621 7:0.01798621 8:0.26894143 9:0.006692851 10:0.0024726233 11:0.00091105117 12:0.01798621 13:0.0024726233 14:0.00091105117 15:0.006692851 16:0.99908894 17:0.7310586 18:0.00091105117 19:0.0024726233 20:0.0024726233 #
0.52283070513909946086528179876041 1:0.99330717 2:0.006692851 3:0.01798621 4:0.006692851 5:0.01798621 6:0.01798621 7:0.01798621 8:0.98201376 9:0.006692851 10:0.047425874 11:0.11920292 12:0.01798621 13:0.01798621 14:0.047425874 15:0.047425874 16:0.11920292 17:0.047425874 18:0.006692851 19:0.006692851 20:0.26894143 #
0.52283070513909946086528179876041 1:0.98201376 2:0.01798621 3:0.047425874 4:0.01798621 5:0.01798621 6:0.047425874 7:0.01798621 8:0.98201376 9:0.01798621 10:0.01798621 11:0.047425874 12:0.01798621 13:0.01798621 14:0.006692851 15:0.01798621 16:0.26894143 17:0.95257413 18:0.006692851 19:0.006692851 20:0.7310586 #
-0.14292546504452302569276866961445 1:0.01798621 2:0.006692851 3:0.006692851 4:0.01798621 5:0.006692851 6:0.01798621 7:0.006692851 8:0.00091105117 9:0.047425874 10:0.26894143 11:0.99752736 12:0.047425874 13:0.5 14:0.95257413 15:0.0024726233 16:0.006692851 17:0.26894143 18:0.006692851 19:0.01798621 20:0.26894143 #
-0.14006013681992940389520185817673 1:0.5 2:0.26894143 3:0.7310586 4:0.7310586 5:0.047425874 6:0.7310586 7:0.5 8:0.26894143 9:0.5 10:0.5 11:0.26894143 12:0.5 13:0.5 14:0.5 15:0.88079709 16:0.7310586 17:0.7310586 18:0.047425874 19:0.5 20:0.26894143 #
0.52283070513909946086528179876041 1:0.88079709 2:0.0024726233 3:0.01798621 4:0.006692851 5:0.0024726233 6:0.0024726233 7:0.0024726233 8:0.99908894 9:0.0024726233 10:0.00091105117 11:0.00091105117 12:0.006692851 13:0.0024726233 14:0.00091105117 15:0.0024726233 16:0.047425874 17:0.006692851 18:0.0024726233 19:0.00091105117 20:0.01798621 #
0.52283070513909946086528179876041 1:0.88079709 2:0.00091105117 3:0.047425874 4:0.006692851 5:0.01798621 6:0.0024726233 7:0.0024726233 8:0.99908894 9:0.00091105117 10:0.006692851 11:0.00091105117 12:0.0024726233 13:0.047425874 14:0.00091105117 15:0.0024726233 16:0.26894143 17:0.11920292 18:0.00091105117 19:0.00091105117 20:0.01798621 #
0.52283070513909946086528179876041 1:0.88079709 2:0.006692851 3:0.047425874 4:0.006692851 5:0.006692851 6:0.006692851 7:0.006692851 8:0.99908894 9:0.006692851 10:0.0024726233 11:0.006692851 12:0.006692851 13:0.0024726233 14:0.01798621 15:0.006692851 16:0.26894143 17:0.047425874 18:0.0024726233 19:0.0024726233 20:0.006692851 #
0.52283070513909946086528179876041 1:0.0024726233 2:0.00091105117 3:0.01798621 4:0.00033535014 5:0.0024726233 6:0.0024726233 7:0.00033535014 8:0.00012339458 9:0.00033535014 10:0.99908894 11:0.7310586 12:0.00091105117 13:0.26894143 14:0.01798621 15:0.00033535014 16:0.00091105117 17:0.01798621 18:0.00091105117 19:0.0024726233 20:0.98201376 #
-0.52283070513909946086528179876041 1:0.95257413 2:0.006692851 3:0.01798621 4:0.006692851 5:0.006692851 6:0.047425874 7:0.006692851 8:0.99752736 9:0.006692851 10:0.01798621 11:0.006692851 12:0.047425874 13:0.006692851 14:0.0024726233 15:0.006692851 16:0.26894143 17:0.047425874 18:0.0024726233 19:0.0024726233 20:0.047425874 #
-0.52283070513909946086528179876041 1:0.95257413 2:0.00091105117 3:0.047425874 4:0.0024726233 5:0.00091105117 6:0.0024726233 7:0.0024726233 8:0.99908894 9:0.047425874 10:0.006692851 11:0.00091105117 12:0.0024726233 13:0.00091105117 14:0.00091105117 15:0.0024726233 16:0.26894143 17:0.11920292 18:0.00091105117 19:0.00091105117 20:0.01798621 #
-0.52283070513909946086528179876041 1:0.99330717 2:0.006692851 3:0.11920292 4:0.047425874 5:0.006692851 6:0.01798621 7:0.01798621 8:0.99330717 9:0.006692851 10:0.047425874 11:0.01798621 12:0.047425874 13:0.006692851 14:0.0024726233 15:0.01798621 16:0.11920292 17:0.01798621 18:0.0024726233 19:0.0024726233 20:0.006692851 #
-0.52283070513909946086528179876041 1:0.88079709 2:0.0024726233 3:0.006692851 4:0.006692851 5:0.0024726233 6:0.0024726233 7:0.0024726233 8:0.99908894 9:0.0024726233 10:0.01798621 11:0.006692851 12:0.006692851 13:0.0024726233 14:0.00091105117 15:0.0024726233 16:0.047425874 17:0.047425874 18:0.0024726233 19:0.0024726233 20:0.0024726233 #
0.52283070513909946086528179876041 1:0.01798621 2:0.0024726233 3:0.00091105117 4:0.00091105117 5:0.006692851 6:0.0024726233 7:0.0024726233 8:0.00091105117 9:0.0024726233 10:0.88079709 11:0.99330717 12:0.0024726233 13:0.26894143 14:0.047425874 15:0.0024726233 16:0.006692851 17:0.26894143 18:0.0024726233 19:0.01798621 20:0.99330717 #
0.52283070513909946086528179876041 1:0.11920292 2:0.006692851 3:0.0024726233 4:0.0024726233 5:0.01798621 6:0.006692851 7:0.006692851 8:0.006692851 9:0.0024726233 10:0.88079709 11:0.7310586 12:0.006692851 13:0.11920292 14:0.01798621 15:0.006692851 16:0.01798621 17:0.26894143 18:0.0024726233 19:0.01798621 20:0.99752736 #
0.52283070513909946086528179876041 1:0.11920292 2:0.0024726233 3:0.00091105117 4:0.00033535014 5:0.006692851 6:0.0024726233 7:0.00091105117 8:0.0024726233 9:0.00091105117 10:0.98201376 11:0.99330717 12:0.00091105117 13:0.26894143 14:0.26894143 15:0.00091105117 16:0.006692851 17:0.01798621 18:0.0024726233 19:0.006692851 20:0.88079709 #
-0.17519658754515571308374433101562 1:0.26894143 2:0.01798621 3:0.047425874 4:0.01798621 5:0.01798621 6:0.047425874 7:0.26894143 8:0.006692851 9:0.01798621 10:0.7310586 11:0.98201376 12:0.11920292 13:0.98201376 14:0.047425874 15:0.01798621 16:0.047425874 17:0.047425874 18:0.006692851 19:0.01798621 20:0.95257413 #
-0.52283070513909946086528179876041 1:0.11920292 2:0.0024726233 3:0.0024726233 4:0.00091105117 5:0.01798621 6:0.006692851 7:0.0024726233 8:0.00091105117 9:0.0024726233 10:0.88079709 11:0.99330717 12:0.006692851 13:0.26894143 14:0.11920292 15:0.0024726233 16:0.006692851 17:0.047425874 18:0.006692851 19:0.01798621 20:0.99330717 #
0.52283070513909946086528179876041 1:0.7310586 2:0.0024726233 3:0.01798621 4:0.01798621 5:0.0024726233 6:0.0024726233 7:0.0024726233 8:0.99908894 9:0.0024726233 10:0.00091105117 11:0.0024726233 12:0.0024726233 13:0.01798621 14:0.00091105117 15:0.0024726233 16:0.047425874 17:0.01798621 18:0.00091105117 19:0.00091105117 20:0.00091105117 #
-0.51960474058940231412151433687541 1:0.26894143 2:0.0024726233 3:0.00091105117 4:0.00091105117 5:0.006692851 6:0.0024726233 7:0.0024726233 8:0.00091105117 9:0.00091105117 10:0.99330717 11:0.5 12:0.0024726233 13:0.11920292 14:0.5 15:0.0024726233 16:0.0024726233 17:0.01798621 18:0.0024726233 19:0.26894143 20:0.99752736 #
0.52283070513909946086528179876041 1:0.98201376 2:0.0024726233 3:0.01798621 4:0.006692851 5:0.006692851 6:0.006692851 7:0.006692851 8:0.99752736 9:0.0024726233 10:0.00091105117 11:0.00091105117 12:0.006692851 13:0.0024726233 14:0.00091105117 15:0.006692851 16:0.5 17:0.01798621 18:0.0024726233 19:0.0024726233 20:0.0024726233 #
0.52283070513909946086528179876041 1:0.99752736 2:0.01798621 3:0.26894143 4:0.01798621 5:0.01798621 6:0.01798621 7:0.01798621 8:0.7310586 9:0.01798621 10:0.01798621 11:0.006692851 12:0.01798621 13:0.01798621 14:0.006692851 15:0.01798621 16:0.26894143 17:0.047425874 18:0.006692851 19:0.006692851 20:0.01798621 #
-0.52283070513909946086528179876041 1:0.26894143 2:0.88079709 3:0.11920292 4:0.11920292 5:0.006692851 6:0.047425874 7:0.01798621 8:0.7310586 9:0.26894143 10:0.006692851 11:0.01798621 12:0.11920292 13:0.047425874 14:0.88079709 15:0.26894143 16:0.88079709 17:0.047425874 18:0.99987662 19:0.88079709 20:0.006692851 #
-0.52283070513909946086528179876041 1:0.01798621 2:0.01798621 3:0.00091105117 4:0.00091105117 5:0.006692851 6:0.006692851 7:0.0024726233 8:0.00091105117 9:0.0024726233 10:0.99330717 11:0.88079709 12:0.006692851 13:0.11920292 14:0.88079709 15:0.0024726233 16:0.0024726233 17:0.047425874 18:0.11920292 19:0.7310586 20:0.98201376 #
-0.52283070513909946086528179876041 1:0.7310586 2:0.5 3:0.5 4:0.5 5:0.047425874 6:0.26894143 7:0.26894143 8:0.88079709 9:0.26894143 10:0.5 11:0.26894143 12:0.11920292 13:0.26894143 14:0.5 15:0.11920292 16:0.7310586 17:0.7310586 18:0.11920292 19:0.88079709 20:0.5 #
0.52283070513909946086528179876041 1:0.99330717 2:0.006692851 3:0.01798621 4:0.047425874 5:0.26894143 6:0.01798621 7:0.01798621 8:0.98201376 9:0.006692851 10:0.006692851 11:0.006692851 12:0.01798621 13:0.01798621 14:0.006692851 15:0.01798621 16:0.26894143 17:0.5 18:0.006692851 19:0.006692851 20:0.01798621 #
0.52283070513909946086528179876041 1:0.95257413 2:0.047425874 3:0.047425874 4:0.047425874 5:0.047425874 6:0.047425874 7:0.11920292 8:0.98201376 9:0.047425874 10:0.26894143 11:0.11920292 12:0.26894143 13:0.047425874 14:0.26894143 15:0.047425874 16:0.5 17:0.26894143 18:0.01798621 19:0.26894143 20:0.26894143 #
-0.52283070513909946086528179876041 1:0.99330717 2:0.01798621 3:0.01798621 4:0.11920292 5:0.006692851 6:0.01798621 7:0.11920292 8:0.99330717 9:0.01798621 10:0.0024726233 11:0.0024726233 12:0.006692851 13:0.006692851 14:0.0024726233 15:0.006692851 16:0.5 17:0.11920292 18:0.0024726233 19:0.0024726233 20:0.047425874 #
0.52283070513909946086528179876041 1:0.006692851 2:0.00091105117 3:0.00091105117 4:0.00091105117 5:0.006692851 6:0.0024726233 7:0.00091105117 8:0.00091105117 9:0.00091105117 10:0.99908894 11:0.7310586 12:0.0024726233 13:0.5 14:0.11920292 15:0.00091105117 16:0.0024726233 17:0.01798621 18:0.0024726233 19:0.006692851 20:0.95257413 #
-0.52283070513909946086528179876041 1:0.95257413 2:0.11920292 3:0.11920292 4:0.047425874 5:0.11920292 6:0.047425874 7:0.01798621 8:0.99752736 9:0.01798621 10:0.01798621 11:0.01798621 12:0.26894143 13:0.01798621 14:0.11920292 15:0.11920292 16:0.26894143 17:0.11920292 18:0.006692851 19:0.047425874 20:0.11920292 #
0.52283070513909946086528179876041 1:0.01798621 2:0.0024726233 3:0.0024726233 4:0.00091105117 5:0.01798621 6:0.0024726233 7:0.0024726233 8:0.00091105117 9:0.0024726233 10:0.98201376 11:0.5 12:0.0024726233 13:0.11920292 14:0.11920292 15:0.0024726233 16:0.006692851 17:0.047425874 18:0.0024726233 19:0.01798621 20:0.99908894 #
-0.52283070513909946086528179876041 1:0.99330717 2:0.006692851 3:0.01798621 4:0.047425874 5:0.01798621 6:0.01798621 7:0.006692851 8:0.99330717 9:0.006692851 10:0.006692851 11:0.006692851 12:0.01798621 13:0.006692851 14:0.047425874 15:0.047425874 16:0.11920292 17:0.11920292 18:0.0024726233 19:0.006692851 20:0.047425874 #
-0.52283070513909946086528179876041 1:0.7310586 2:0.0024726233 3:0.26894143 4:0.047425874 5:0.0024726233 6:0.01798621 7:0.047425874 8:0.99752736 9:0.047425874 10:0.00091105117 11:0.00091105117 12:0.047425874 13:0.047425874 14:0.006692851 15:0.006692851 16:0.11920292 17:0.26894143 18:0.00091105117 19:0.11920292 20:0.047425874 #
-0.52283070513909946086528179876041 1:0.99752736 2:0.006692851 3:0.11920292 4:0.0024726233 5:0.006692851 6:0.01798621 7:0.006692851 8:0.88079709 9:0.0024726233 10:0.01798621 11:0.047425874 12:0.006692851 13:0.047425874 14:0.0024726233 15:0.006692851 16:0.5 17:0.26894143 18:0.00091105117 19:0.006692851 20:0.5 #
0.52283070513909946086528179876041 1:0.01798621 2:0.0024726233 3:0.0024726233 4:0.00091105117 5:0.01798621 6:0.0024726233 7:0.0024726233 8:0.00091105117 9:0.00091105117 10:0.99330717 11:0.7310586 12:0.0024726233 13:0.26894143 14:0.01798621 15:0.0024726233 16:0.006692851 17:0.7310586 18:0.0024726233 19:0.006692851 20:0.99752736 #
0.52283070513909946086528179876041 1:0.047425874 2:0.0024726233 3:0.00091105117 4:0.00091105117 5:0.006692851 6:0.0024726233 7:0.0024726233 8:0.0024726233 9:0.0024726233 10:0.88079709 11:0.99330717 12:0.0024726233 13:0.11920292 14:0.5 15:0.0024726233 16:0.047425874 17:0.5 18:0.047425874 19:0.11920292 20:0.88079709 #
0.52283070513909946086528179876041 1:0.26894143 2:0.006692851 3:0.006692851 4:0.006692851 5:0.047425874 6:0.01798621 7:0.006692851 8:0.006692851 9:0.006692851 10:0.95257413 11:0.7310586 12:0.006692851 13:0.26894143 14:0.26894143 15:0.006692851 16:0.11920292 17:0.88079709 18:0.006692851 19:0.01798621 20:0.99330717 #
0.52283070513909946086528179876041 1:0.88079709 2:0.006692851 3:0.01798621 4:0.006692851 5:0.006692851 6:0.006692851 7:0.006692851 8:0.99752736 9:0.006692851 10:0.0024726233 11:0.0024726233 12:0.006692851 13:0.006692851 14:0.0024726233 15:0.006692851 16:0.5 17:0.047425874 18:0.0024726233 19:0.0024726233 20:0.26894143 #
0.52283070513909946086528179876041 1:0.047425874 2:0.11920292 3:0.006692851 4:0.0024726233 5:0.006692851 6:0.01798621 7:0.006692851 8:0.006692851 9:0.047425874 10:0.95257413 11:0.26894143 12:0.7310586 13:0.7310586 14:0.95257413 15:0.006692851 16:0.01798621 17:0.26894143 18:0.99752736 19:0.99752736 20:0.5 #
-0.28183105050795037582744839710358 1:0.01798621 2:0.006692851 3:0.0024726233 4:0.00091105117 5:0.006692851 6:0.006692851 7:0.0024726233 8:0.00091105117 9:0.00091105117 10:0.88079709 11:0.98201376 12:0.0024726233 13:0.26894143 14:0.047425874 15:0.0024726233 16:0.01798621 17:0.7310586 18:0.0024726233 19:0.01798621 20:0.99330717 #
-0.52283070513909946086528179876041 1:0.006692851 2:0.01798621 3:0.00091105117 4:0.00091105117 5:0.0024726233 6:0.01798621 7:0.0024726233 8:0.00033535014 9:0.00091105117 10:0.95257413 11:0.98201376 12:0.0024726233 13:0.047425874 14:0.01798621 15:0.00091105117 16:0.0024726233 17:0.7310586 18:0.00091105117 19:0.006692851 20:0.99330717 #
0.52283070513909946086528179876041 1:0.7310586 2:0.0024726233 3:0.006692851 4:0.006692851 5:0.0024726233 6:0.0024726233 7:0.0024726233 8:0.99908894 9:0.0024726233 10:0.00091105117 11:0.006692851 12:0.0024726233 13:0.0024726233 14:0.0024726233 15:0.0024726233 16:0.01798621 17:0.01798621 18:0.00091105117 19:0.00091105117 20:0.006692851 #
0.52283070513909946086528179876041 1:0.99908894 2:0.0024726233 3:0.0024726233 4:0.0024726233 5:0.006692851 6:0.0024726233 7:0.0024726233 8:0.7310586 9:0.0024726233 10:0.0024726233 11:0.0024726233 12:0.006692851 13:0.0024726233 14:0.00091105117 15:0.0024726233 16:0.11920292 17:0.01798621 18:0.00091105117 19:0.00091105117 20:0.006692851 #
-0.52283070513909946086528179876041 1:0.88079709 2:0.01798621 3:0.01798621 4:0.01798621 5:0.047425874 6:0.01798621 7:0.01798621 8:0.26894143 9:0.006692851 10:0.5 11:0.88079709 12:0.01798621 13:0.11920292 14:0.11920292 15:0.26894143 16:0.5 17:0.95257413 18:0.006692851 19:0.047425874 20:0.95257413 #
-0.52283070513909946086528179876041 1:0.11920292 2:0.006692851 3:0.0024726233 4:0.01798621 5:0.01798621 6:0.006692851 7:0.006692851 8:0.0024726233 9:0.0024726233 10:0.95257413 11:0.99330717 12:0.006692851 13:0.5 14:0.26894143 15:0.006692851 16:0.047425874 17:0.11920292 18:0.006692851 19:0.01798621 20:0.95257413 #
-0.51485400977104700537267945037456 1:0.5 2:0.88079709 3:0.7310586 4:0.88079709 5:0.01798621 6:0.7310586 7:0.26894143 8:0.88079709 9:0.26894143 10:0.11920292 11:0.11920292 12:0.5 13:0.26894143 14:0.11920292 15:0.11920292 16:0.7310586 17:0.26894143 18:0.7310586 19:0.11920292 20:0.26894143 #
0.52283070513909946086528179876041 1:0.7310586 2:0.00091105117 3:0.01798621 4:0.5 5:0.00091105117 6:0.01798621 7:0.0024726233 8:0.99908894 9:0.00091105117 10:0.006692851 11:0.0024726233 12:0.00091105117 13:0.00091105117 14:0.00033535014 15:0.00091105117 16:0.11920292 17:0.26894143 18:0.047425874 19:0.00033535014 20:0.006692851 #
0.52283070513909946086528179876041 1:0.5 2:0.006692851 3:0.26894143 4:0.006692851 5:0.0024726233 6:0.11920292 7:0.0024726233 8:0.99908894 9:0.0024726233 10:0.00091105117 11:0.00091105117 12:0.01798621 13:0.006692851 14:0.00091105117 15:0.01798621 16:0.11920292 17:0.26894143 18:0.0024726233 19:0.01798621 20:0.0024726233 #
-0.52283070513909946086528179876041 1:0.5 2:0.0024726233 3:0.11920292 4:0.01798621 5:0.0024726233 6:0.0024726233 7:0.006692851 8:0.99908894 9:0.0024726233 10:0.00091105117 11:0.00091105117 12:0.0024726233 13:0.0024726233 14:0.00091105117 15:0.0024726233 16:0.047425874 17:0.01798621 18:0.0024726233 19:0.00091105117 20:0.00091105117 #
0.52283070513909946086528179876041 1:0.11920292 2:0.006692851 3:0.0024726233 4:0.0024726233 5:0.01798621 6:0.006692851 7:0.006692851 8:0.0024726233 9:0.0024726233 10:0.88079709 11:0.95257413 12:0.006692851 13:0.5 14:0.26894143 15:0.006692851 16:0.01798621 17:0.5 18:0.006692851 19:0.01798621 20:0.99752736 #
-0.52283070513909946086528179876041 1:0.7310586 2:0.0024726233 3:0.11920292 4:0.047425874 5:0.0024726233 6:0.0024726233 7:0.006692851 8:0.99908894 9:0.0024726233 10:0.00033535014 11:0.00033535014 12:0.0024726233 13:0.00091105117 14:0.00091105117 15:0.006692851 16:0.047425874 17:0.0024726233 18:0.00091105117 19:0.00091105117 20:0.00091105117 #
-0.52283070513909946086528179876041 1:0.5 2:0.01798621 3:0.0024726233 4:0.01798621 5:0.00033535014 6:0.00091105117 7:0.00091105117 8:0.99908894 9:0.00091105117 10:0.00012339458 11:0.00012339458 12:0.00091105117 13:0.00033535014 14:0.00033535014 15:0.006692851 16:0.01798621 17:0.006692851 18:0.00033535014 19:0.00033535014 20:0.00033535014 #
-0.52283070513909946086528179876041 1:0.5 2:0.00091105117 3:0.006692851 4:0.01798621 5:0.00091105117 6:0.0024726233 7:0.0024726233 8:0.99908894 9:0.00091105117 10:0.00033535014 11:0.00033535014 12:0.0024726233 13:0.00091105117 14:0.00033535014 15:0.00091105117 16:0.26894143 17:0.0024726233 18:0.00091105117 19:0.00033535014 20:0.00091105117 #
-0.52283070513909946086528179876041 1:0.7310586 2:0.0024726233 3:0.11920292 4:0.01798621 5:0.0024726233 6:0.006692851 7:0.047425874 8:0.99908894 9:0.01798621 10:0.00091105117 11:0.0024726233 12:0.01798621 13:0.0024726233 14:0.0024726233 15:0.0024726233 16:0.5 17:0.01798621 18:0.0024726233 19:0.01798621 20:0.0024726233 #
-0.52283070513909946086528179876041 1:0.5 2:0.0024726233 3:0.11920292 4:0.01798621 5:0.047425874 6:0.11920292 7:0.01798621 8:0.99908894 9:0.0024726233 10:0.00091105117 11:0.006692851 12:0.047425874 13:0.11920292 14:0.11920292 15:0.0024726233 16:0.047425874 17:0.01798621 18:0.00091105117 19:0.00091105117 20:0.01798621 #
0.52283070513909946086528179876041 1:0.26894143 2:0.006692851 3:0.0024726233 4:0.0024726233 5:0.01798621 6:0.006692851 7:0.006692851 8:0.006692851 9:0.0024726233 10:0.98201376 11:0.95257413 12:0.006692851 13:0.5 14:0.11920292 15:0.006692851 16:0.01798621 17:0.047425874 18:0.006692851 19:0.047425874 20:0.99330717 #
0.52283070513909946086528179876041 1:0.01798621 2:0.006692851 3:0.01798621 4:0.11920292 5:0.01798621 6:0.006692851 7:0.006692851 8:0.0024726233 9:0.006692851 10:0.98201376 11:0.98201376 12:0.006692851 13:0.26894143 14:0.26894143 15:0.11920292 16:0.01798621 17:0.047425874 18:0.006692851 19:0.01798621 20:0.88079709 #
0.52283070513909946086528179876041 1:0.047425874 2:0.0024726233 3:0.00091105117 4:0.00091105117 5:0.006692851 6:0.0024726233 7:0.0024726233 8:0.00091105117 9:0.0024726233 10:0.88079709 11:0.99752736 12:0.0024726233 13:0.26894143 14:0.26894143 15:0.0024726233 16:0.0024726233 17:0.006692851 18:0.006692851 19:0.047425874 20:0.88079709 #
-0.52283070513909946086528179876041 1:0.047425874 2:0.006692851 3:0.0024726233 4:0.0024726233 5:0.01798621 6:0.01798621 7:0.0024726233 8:0.0024726233 9:0.0024726233 10:0.95257413 11:0.99330717 12:0.006692851 13:0.5 14:0.26894143 15:0.0024726233 16:0.006692851 17:0.047425874 18:0.006692851 19:0.01798621 20:0.95257413 #
0.52283070513909946086528179876041 1:0.5 2:0.006692851 3:0.047425874 4:0.01798621 5:0.006692851 6:0.01798621 7:0.01798621 8:0.99908894 9:0.01798621 10:0.0024726233 11:0.0024726233 12:0.01798621 13:0.006692851 14:0.006692851 15:0.01798621 16:0.11920292 17:0.01798621 18:0.006692851 19:0.006692851 20:0.006692851 #
-0.52283070513909946086528179876041 1:0.006692851 2:0.0024726233 3:0.00091105117 4:0.00091105117 5:0.006692851 6:0.0024726233 7:0.00091105117 8:0.00033535014 9:0.00091105117 10:0.88079709 11:0.99752736 12:0.0024726233 13:0.26894143 14:0.26894143 15:0.00091105117 16:0.0024726233 17:0.006692851 18:0.0024726233 19:0.006692851 20:0.7310586 #
0.52283070513909946086528179876041 1:0.5 2:0.0024726233 3:0.26894143 4:0.006692851 5:0.0024726233 6:0.006692851 7:0.01798621 8:0.99908894 9:0.006692851 10:0.00091105117 11:0.00091105117 12:0.006692851 13:0.0024726233 14:0.00091105117 15:0.0024726233 16:0.047425874 17:0.01798621 18:0.0024726233 19:0.0024726233 20:0.0024726233 #
0.52283070513909946086528179876041 1:0.5 2:0.0024726233 3:0.006692851 4:0.006692851 5:0.0024726233 6:0.0024726233 7:0.0024726233 8:0.99908894 9:0.0024726233 10:0.00033535014 11:0.00033535014 12:0.0024726233 13:0.00091105117 14:0.00091105117 15:0.0024726233 16:0.26894143 17:0.006692851 18:0.00091105117 19:0.00091105117 20:0.00091105117 #
-0.52283070513909946086528179876041 1:0.047425874 2:0.0024726233 3:0.00091105117 4:0.00091105117 5:0.006692851 6:0.0024726233 7:0.0024726233 8:0.00091105117 9:0.00091105117 10:0.98201376 11:0.7310586 12:0.0024726233 13:0.11920292 14:0.5 15:0.0024726233 16:0.006692851 17:0.01798621 18:0.0024726233 19:0.006692851 20:0.99752736 #
-0.52283070513909946086528179876041 1:0.01798621 2:0.00091105117 3:0.006692851 4:0.0024726233 5:0.006692851 6:0.0024726233 7:0.00091105117 8:0.006692851 9:0.00091105117 10:0.99752736 11:0.88079709 12:0.00091105117 13:0.26894143 14:0.5 15:0.00091105117 16:0.047425874 17:0.047425874 18:0.00091105117 19:0.006692851 20:0.99330717 #
-0.52283070513909946086528179876041 1:0.01798621 2:0.0024726233 3:0.00091105117 4:0.00091105117 5:0.006692851 6:0.0024726233 7:0.00091105117 8:0.00091105117 9:0.00091105117 10:0.98201376 11:0.99752736 12:0.0024726233 13:0.11920292 14:0.26894143 15:0.0024726233 16:0.0024726233 17:0.006692851 18:0.006692851 19:0.006692851 20:0.7310586 #
0.52283070513909946086528179876041 1:0.5 2:0.047425874 3:0.26894143 4:0.11920292 5:0.01798621 6:0.01798621 7:0.11920292 8:0.99752736 9:0.01798621 10:0.047425874 11:0.006692851 12:0.047425874 13:0.01798621 14:0.006692851 15:0.01798621 16:0.26894143 17:0.11920292 18:0.006692851 19:0.006692851 20:0.006692851 #
0.52283070513909946086528179876041 1:0.5 2:0.0024726233 3:0.01798621 4:0.006692851 5:0.0024726233 6:0.0024726233 7:0.0024726233 8:0.99908894 9:0.0024726233 10:0.00091105117 11:0.00091105117 12:0.006692851 13:0.0024726233 14:0.00091105117 15:0.26894143 16:0.047425874 17:0.006692851 18:0.0024726233 19:0.00091105117 20:0.00091105117 #
-0.52283070513909946086528179876041 1:0.5 2:0.0024726233 3:0.11920292 4:0.047425874 5:0.00091105117 6:0.047425874 7:0.006692851 8:0.99908894 9:0.01798621 10:0.006692851 11:0.006692851 12:0.01798621 13:0.11920292 14:0.0024726233 15:0.0024726233 16:0.047425874 17:0.006692851 18:0.11920292 19:0.00091105117 20:0.01798621 #
0.52283070513909946086528179876041 1:0.11920292 2:0.0024726233 3:0.00091105117 4:0.00091105117 5:0.006692851 6:0.0024726233 7:0.00091105117 8:0.00091105117 9:0.00091105117 10:0.99752736 11:0.88079709 12:0.0024726233 13:0.26894143 14:0.5 15:0.0024726233 16:0.0024726233 17:0.01798621 18:0.0024726233 19:0.006692851 20:0.98201376 #
0.52283070513909946086528179876041 1:0.11920292 2:0.0024726233 3:0.0024726233 4:0.00091105117 5:0.01798621 6:0.006692851 7:0.0024726233 8:0.00091105117 9:0.0024726233 10:0.98201376 11:0.98201376 12:0.0024726233 13:0.26894143 14:0.5 15:0.0024726233 16:0.006692851 17:0.047425874 18:0.047425874 19:0.01798621 20:0.95257413 #
-0.52283070513909946086528179876041 1:0.26894143 2:0.00091105117 3:0.006692851 4:0.0024726233 5:0.00091105117 6:0.0024726233 7:0.047425874 8:0.99908894 9:0.0024726233 10:0.00033535014 11:0.00033535014 12:0.0024726233 13:0.00091105117 14:0.00033535014 15:0.047425874 16:0.047425874 17:0.047425874 18:0.00091105117 19:0.00091105117 20:0.00091105117 #
-0.52283070513909946086528179876041 1:0.26894143 2:0.00091105117 3:0.047425874 4:0.006692851 5:0.006692851 6:0.0024726233 7:0.0024726233 8:0.99908894 9:0.0024726233 10:0.00033535014 11:0.00033535014 12:0.0024726233 13:0.006692851 14:0.00033535014 15:0.00091105117 16:0.01798621 17:0.047425874 18:0.00091105117 19:0.00091105117 20:0.00091105117 #
0.52283070513909946086528179876041 1:0.047425874 2:0.006692851 3:0.0024726233 4:0.0024726233 5:0.01798621 6:0.006692851 7:0.0024726233 8:0.0024726233 9:0.0024726233 10:0.99752736 11:0.88079709 12:0.006692851 13:0.5 14:0.5 15:0.0024726233 16:0.006692851 17:0.047425874 18:0.006692851 19:0.26894143 20:0.98201376 #
0.52283070513909946086528179876041 1:0.047425874 2:0.006692851 3:0.0024726233 4:0.00091105117 5:0.01798621 6:0.006692851 7:0.0024726233 8:0.00091105117 9:0.0024726233 10:0.95257413 11:0.99330717 12:0.0024726233 13:0.5 14:0.5 15:0.0024726233 16:0.006692851 17:0.01798621 18:0.006692851 19:0.01798621 20:0.98201376 #
0.52283070513909946086528179876041 1:0.047425874 2:0.0024726233 3:0.00091105117 4:0.00091105117 5:0.006692851 6:0.0024726233 7:0.0024726233 8:0.00091105117 9:0.0024726233 10:0.98201376 11:0.95257413 12:0.0024726233 13:0.26894143 14:0.7310586 15:0.047425874 16:0.006692851 17:0.01798621 18:0.006692851 19:0.047425874 20:0.99330717 #
-0.52283070513909946086528179876041 1:0.01798621 2:0.006692851 3:0.00091105117 4:0.00091105117 5:0.006692851 6:0.01798621 7:0.0024726233 8:0.00091105117 9:0.01798621 10:0.88079709 11:0.99330717 12:0.0024726233 13:0.5 14:0.26894143 15:0.0024726233 16:0.0024726233 17:0.047425874 18:0.0024726233 19:0.01798621 20:0.98201376 #
-0.52283070513909946086528179876041 1:0.047425874 2:0.006692851 3:0.0024726233 4:0.0024726233 5:0.01798621 6:0.006692851 7:0.0024726233 8:0.0024726233 9:0.0024726233 10:0.99330717 11:0.98201376 12:0.006692851 13:0.5 14:0.5 15:0.006692851 16:0.006692851 17:0.047425874 18:0.047425874 19:0.047425874 20:0.95257413 #
-0.52283070513909946086528179876041 1:0.11920292 2:0.006692851 3:0.047425874 4:0.006692851 5:0.01798621 6:0.11920292 7:0.006692851 8:0.01798621 9:0.01798621 10:0.99330717 11:0.88079709 12:0.006692851 13:0.26894143 14:0.7310586 15:0.047425874 16:0.01798621 17:0.11920292 18:0.006692851 19:0.01798621 20:0.98201376 #
-0.52283070513909946086528179876041 1:0.047425874 2:0.11920292 3:0.01798621 4:0.047425874 5:0.01798621 6:0.047425874 7:0.01798621 8:0.01798621 9:0.006692851 10:0.99752736 11:0.88079709 12:0.01798621 13:0.5 14:0.7310586 15:0.006692851 16:0.01798621 17:0.047425874 18:0.006692851 19:0.047425874 20:0.95257413 #
0.52283070513909946086528179876041 1:0.26894143 2:0.0024726233 3:0.01798621 4:0.006692851 5:0.0024726233 6:0.0024726233 7:0.0024726233 8:0.99908894 9:0.0024726233 10:0.00091105117 11:0.00091105117 12:0.006692851 13:0.0024726233 14:0.00091105117 15:0.0024726233 16:0.047425874 17:0.006692851 18:0.0024726233 19:0.00091105117 20:0.0024726233 #
0.52283070513909946086528179876041 1:0.26894143 2:0.006692851 3:0.01798621 4:0.0024726233 5:0.00091105117 6:0.006692851 7:0.0024726233 8:0.99908894 9:0.0024726233 10:0.00091105117 11:0.006692851 12:0.006692851 13:0.00091105117 14:0.00091105117 15:0.0024726233 16:0.01798621 17:0.006692851 18:0.00091105117 19:0.00091105117 20:0.006692851 #
0.52283070513909946086528179876041 1:0.26894143 2:0.00091105117 3:0.006692851 4:0.0024726233 5:0.00091105117 6:0.0024726233 7:0.00091105117 8:0.99966466 9:0.00091105117 10:0.00033535014 11:0.00033535014 12:0.0024726233 13:0.00091105117 14:0.00033535014 15:0.00091105117 16:0.006692851 17:0.0024726233 18:0.00091105117 19:0.00033535014 20:0.00033535014 #
-0.52283070513909946086528179876041 1:0.26894143 2:0.00091105117 3:0.006692851 4:0.0024726233 5:0.00091105117 6:0.00091105117 7:0.00091105117 8:0.99966466 9:0.00091105117 10:0.00012339458 11:0.00012339458 12:0.00091105117 13:0.00033535014 14:0.00033535014 15:0.00091105117 16:0.006692851 17:0.00091105117 18:0.00033535014 19:0.00033535014 20:0.00033535014 #
-0.31617130184284503169322988469503 1:0.26894143 2:0.00091105117 3:0.26894143 4:0.11920292 5:0.00091105117 6:0.01798621 7:0.01798621 8:0.99908894 9:0.006692851 10:0.00033535014 11:0.01798621 12:0.0024726233 13:0.00091105117 14:0.0024726233 15:0.0024726233 16:0.047425874 17:0.0024726233 18:0.00091105117 19:0.00091105117 20:0.00091105117 #
0.52283070513909946086528179876041 1:0.047425874 2:0.0024726233 3:0.00091105117 4:0.00091105117 5:0.006692851 6:0.0024726233 7:0.0024726233 8:0.00091105117 9:0.0024726233 10:0.88079709 11:0.99752736 12:0.0024726233 13:0.5 14:0.5 15:0.0024726233 16:0.0024726233 17:0.01798621 18:0.006692851 19:0.01798621 20:0.88079709 #
-0.52283070513909946086528179876041 1:0.26894143 2:0.047425874 3:0.26894143 4:0.047425874 5:0.01798621 6:0.01798621 7:0.01798621 8:0.99908894 9:0.01798621 10:0.006692851 11:0.006692851 12:0.047425874 13:0.01798621 14:0.006692851 15:0.047425874 16:0.11920292 17:0.047425874 18:0.01798621 19:0.006692851 20:0.006692851 #
-0.52283070513909946086528179876041 1:0.11920292 2:0.0024726233 3:0.01798621 4:0.11920292 5:0.0024726233 6:0.0024726233 7:0.0024726233 8:0.99908894 9:0.0024726233 10:0.00033535014 11:0.00033535014 12:0.006692851 13:0.00091105117 14:0.00091105117 15:0.0024726233 16:0.11920292 17:0.006692851 18:0.0024726233 19:0.00091105117 20:0.00091105117 #
0.52283070513909946086528179876041 1:0.11920292 2:0.006692851 3:0.0024726233 4:0.0024726233 5:0.01798621 6:0.006692851 7:0.0024726233 8:0.0024726233 9:0.0024726233 10:0.98201376 11:0.99330717 12:0.006692851 13:0.5 14:0.5 15:0.0024726233 16:0.006692851 17:0.01798621 18:0.006692851 19:0.01798621 20:0.88079709 #
0.52283070513909946086528179876041 1:0.11920292 2:0.006692851 3:0.0024726233 4:0.0024726233 5:0.01798621 6:0.006692851 7:0.0024726233 8:0.0024726233 9:0.0024726233 10:0.88079709 11:0.99330717 12:0.006692851 13:0.5 14:0.5 15:0.0024726233 16:0.006692851 17:0.01798621 18:0.006692851 19:0.01798621 20:0.95257413 #
0.52283070513909946086528179876041 1:0.047425874 2:0.006692851 3:0.006692851 4:0.0024726233 5:0.01798621 6:0.11920292 7:0.006692851 8:0.0024726233 9:0.01798621 10:0.98201376 11:0.98201376 12:0.01798621 13:0.5 14:0.5 15:0.006692851 16:0.01798621 17:0.11920292 18:0.26894143 19:0.11920292 20:0.98201376 #
0.52283070513909946086528179876041 1:0.047425874 2:0.0024726233 3:0.11920292 4:0.0024726233 5:0.00091105117 6:0.0024726233 7:0.01798621 8:0.99908894 9:0.00091105117 10:0.00091105117 11:0.0024726233 12:0.11920292 13:0.00091105117 14:0.00033535014 15:0.00091105117 16:0.01798621 17:0.01798621 18:0.00091105117 19:0.00033535014 20:0.0024726233 #
-0.52283070513909946086528179876041 1:0.11920292 2:0.006692851 3:0.0024726233 4:0.0024726233 5:0.01798621 6:0.006692851 7:0.0024726233 8:0.0024726233 9:0.0024726233 10:0.98201376 11:0.95257413 12:0.006692851 13:0.7310586 14:0.5 15:0.01798621 16:0.006692851 17:0.11920292 18:0.047425874 19:0.11920292 20:0.98201376 #
-0.52283070513909946086528179876041 1:0.047425874 2:0.0024726233 3:0.0024726233 4:0.00091105117 5:0.01798621 6:0.006692851 7:0.0024726233 8:0.00091105117 9:0.0024726233 10:0.99330717 11:0.98201376 12:0.0024726233 13:0.5 14:0.5 15:0.0024726233 16:0.006692851 17:0.047425874 18:0.006692851 19:0.01798621 20:0.88079709 #
0.52283070513909946086528179876041 1:0.047425874 2:0.047425874 3:0.11920292 4:0.006692851 5:0.0024726233 6:0.047425874 7:0.047425874 8:0.99908894 9:0.006692851 10:0.00091105117 11:0.0024726233 12:0.006692851 13:0.0024726233 14:0.00091105117 15:0.0024726233 16:0.047425874 17:0.01798621 18:0.0024726233 19:0.00091105117 20:0.00091105117 #
-0.52283070513909946086528179876041 1:0.01798621 2:0.0024726233 3:0.00091105117 4:0.00091105117 5:0.006692851 6:0.0024726233 7:0.0024726233 8:0.00091105117 9:0.0024726233 10:0.95257413 11:0.99752736 12:0.0024726233 13:0.5 14:0.7310586 15:0.0024726233 16:0.0024726233 17:0.006692851 18:0.26894143 19:0.01798621 20:0.88079709 #
-0.52283070513909946086528179876041 1:0.26894143 2:0.006692851 3:0.0024726233 4:0.0024726233 5:0.01798621 6:0.11920292 7:0.006692851 8:0.0024726233 9:0.006692851 10:0.95257413 11:0.99330717 12:0.006692851 13:0.7310586 14:0.5 15:0.11920292 16:0.006692851 17:0.047425874 18:0.11920292 19:0.11920292 20:0.88079709 #
-0.52283070513909946086528179876041 1:0.5 2:0.01798621 3:0.006692851 4:0.006692851 5:0.047425874 6:0.01798621 7:0.01798621 8:0.006692851 9:0.006692851 10:0.88079709 11:0.98201376 12:0.01798621 13:0.7310586 14:0.5 15:0.01798621 16:0.01798621 17:0.11920292 18:0.01798621 19:0.11920292 20:0.95257413 #
0.52283070513909946086528179876041 1:0.006692851 2:0.00033535014 3:0.11920292 4:0.047425874 5:0.0024726233 6:0.00091105117 7:0.00091105117 8:0.99966466 9:0.00091105117 10:0.00012339458 11:0.00012339458 12:0.00091105117 13:0.00033535014 14:0.00012339458 15:0.00033535014 16:0.0024726233 17:0.00091105117 18:0.00033535014 19:0.00012339458 20:0.00012339458 #
0.52283070513909946086528179876041 1:0.11920292 2:0.006692851 3:0.047425874 4:0.01798621 5:0.006692851 6:0.01798621 7:0.01798621 8:0.99908894 9:0.01798621 10:0.0024726233 11:0.0024726233 12:0.01798621 13:0.006692851 14:0.006692851 15:0.01798621 16:0.11920292 17:0.01798621 18:0.006692851 19:0.006692851 20:0.006692851 #
0.52283070513909946086528179876041 1:0.047425874 2:0.0024726233 3:0.11920292 4:0.047425874 5:0.11920292 6:0.0024726233 7:0.0024726233 8:0.99908894 9:0.0024726233 10:0.00033535014 11:0.00033535014 12:0.006692851 13:0.00091105117 14:0.00091105117 15:0.0024726233 16:0.047425874 17:0.01798621 18:0.0024726233 19:0.00091105117 20:0.00091105117 #
-0.52283070513909946086528179876041 1:0.11920292 2:0.006692851 3:0.01798621 4:0.0024726233 5:0.0024726233 6:0.0024726233 7:0.0024726233 8:0.99908894 9:0.0024726233 10:0.006692851 11:0.00091105117 12:0.0024726233 13:0.00091105117 14:0.00091105117 15:0.006692851 16:0.047425874 17:0.0024726233 18:0.00091105117 19:0.00091105117 20:0.006692851 #
-0.52283070513909946086528179876041 1:0.01798621 2:0.0024726233 3:0.01798621 4:0.006692851 5:0.00091105117 6:0.006692851 7:0.0024726233 8:0.99966466 9:0.0024726233 10:0.00033535014 11:0.00033535014 12:0.0024726233 13:0.00091105117 14:0.00091105117 15:0.0024726233 16:0.047425874 17:0.01798621 18:0.00091105117 19:0.00091105117 20:0.00091105117 #
-0.52283070513909946086528179876041 1:0.01798621 2:0.0024726233 3:0.01798621 4:0.01798621 5:0.00091105117 6:0.0024726233 7:0.0024726233 8:0.99966466 9:0.0024726233 10:0.00033535014 11:0.00033535014 12:0.006692851 13:0.00091105117 14:0.00091105117 15:0.0024726233 16:0.01798621 17:0.0024726233 18:0.00091105117 19:0.00091105117 20:0.00091105117 #
-0.0095828061782435303150862182519631 1:0.11920292 2:0.047425874 3:0.5 4:0.5 5:0.006692851 6:0.01798621 7:0.01798621 8:0.99752736 9:0.88079709 10:0.0024726233 11:0.0024726233 12:0.047425874 13:0.006692851 14:0.11920292 15:0.006692851 16:0.7310586 17:0.11920292 18:0.5 19:0.11920292 20:0.01798621 #
0.52283070513909946086528179876041 1:0.047425874 2:0.0024726233 3:0.0024726233 4:0.00091105117 5:0.01798621 6:0.26894143 7:0.0024726233 8:0.00091105117 9:0.0024726233 10:0.99330717 11:0.95257413 12:0.0024726233 13:0.7310586 14:0.5 15:0.0024726233 16:0.006692851 17:0.01798621 18:0.11920292 19:0.047425874 20:0.99330717 #
0.52283070513909946086528179876041 1:0.26894143 2:0.01798621 3:0.006692851 4:0.006692851 5:0.047425874 6:0.01798621 7:0.006692851 8:0.006692851 9:0.006692851 10:0.95257413 11:0.99330717 12:0.01798621 13:0.7310586 14:0.5 15:0.01798621 16:0.01798621 17:0.11920292 18:0.01798621 19:0.047425874 20:0.88079709 #
0.52283070513909946086528179876041 1:0.11920292 2:0.0024726233 3:0.00091105117 4:0.00091105117 5:0.006692851 6:0.0024726233 7:0.006692851 8:0.00091105117 9:0.00091105117 10:0.95257413 11:0.99330717 12:0.0024726233 13:0.7310586 14:0.5 15:0.01798621 16:0.006692851 17:0.11920292 18:0.047425874 19:0.006692851 20:0.95257413 #
0.52283070513909946086528179876041 1:0.047425874 2:0.00091105117 3:0.0024726233 4:0.00091105117 5:0.00033535014 6:0.00091105117 7:0.00033535014 8:0.99966466 9:0.00033535014 10:0.00033535014 11:0.00033535014 12:0.006692851 13:0.01798621 14:0.00012339458 15:0.00033535014 16:0.006692851 17:0.0024726233 18:0.00033535014 19:0.00012339458 20:0.0024726233 #
-0.52283070513909946086528179876041 1:0.047425874 2:0.0024726233 3:0.0024726233 4:0.00091105117 5:0.01798621 6:0.006692851 7:0.0024726233 8:0.00091105117 9:0.0024726233 10:0.95257413 11:0.99330717 12:0.0024726233 13:0.88079709 14:0.5 15:0.0024726233 16:0.006692851 17:0.01798621 18:0.006692851 19:0.01798621 20:0.95257413 #
-0.52283070513909946086528179876041 1:0.01798621 2:0.006692851 3:0.0024726233 4:0.0024726233 5:0.01798621 6:0.006692851 7:0.0024726233 8:0.0024726233 9:0.0024726233 10:0.99330717 11:0.99330717 12:0.006692851 13:0.7310586 14:0.5 15:0.0024726233 16:0.006692851 17:0.01798621 18:0.006692851 19:0.11920292 20:0.88079709 #
0.52283070513909946086528179876041 1:0.047425874 2:0.0024726233 3:0.01798621 4:0.006692851 5:0.0024726233 6:0.006692851 7:0.0024726233 8:0.99908894 9:0.0024726233 10:0.00091105117 11:0.00091105117 12:0.006692851 13:0.0024726233 14:0.00091105117 15:0.0024726233 16:0.047425874 17:0.006692851 18:0.0024726233 19:0.0024726233 20:0.00091105117 #
-0.52283070513909946086528179876041 1:0.047425874 2:0.006692851 3:0.0024726233 4:0.0024726233 5:0.01798621 6:0.006692851 7:0.0024726233 8:0.0024726233 9:0.0024726233 10:0.98201376 11:0.98201376 12:0.006692851 13:0.88079709 14:0.5 15:0.01798621 16:0.01798621 17:0.11920292 18:0.006692851 19:0.01798621 20:0.95257413 #
-0.52283070513909946086528179876041 1:0.01798621 2:0.0024726233 3:0.00091105117 4:0.00091105117 5:0.01798621 6:0.0024726233 7:0.0024726233 8:0.00091105117 9:0.0024726233 10:0.95257413 11:0.98201376 12:0.0024726233 13:0.7310586 14:0.26894143 15:0.0024726233 16:0.006692851 17:0.01798621 18:0.0024726233 19:0.01798621 20:0.99330717 #
0.52283070513909946086528179876041 1:0.047425874 2:0.01798621 3:0.006692851 4:0.047425874 5:0.00091105117 6:0.0024726233 7:0.00091105117 8:0.99908894 9:0.00091105117 10:0.00033535014 11:0.0024726233 12:0.0024726233 13:0.01798621 14:0.00091105117 15:0.00091105117 16:0.11920292 17:0.01798621 18:0.00091105117 19:0.01798621 20:0.047425874 #
0.52283070513909946086528179876041 1:0.11920292 2:0.0024726233 3:0.01798621 4:0.006692851 5:0.0024726233 6:0.006692851 7:0.0024726233 8:0.99908894 9:0.006692851 10:0.00091105117 11:0.00091105117 12:0.006692851 13:0.0024726233 14:0.0024726233 15:0.0024726233 16:0.01798621 17:0.006692851 18:0.0024726233 19:0.047425874 20:0.11920292 #
0.52283070513909946086528179876041 1:0.047425874 2:0.0024726233 3:0.01798621 4:0.006692851 5:0.0024726233 6:0.0024726233 7:0.0024726233 8:0.99966466 9:0.006692851 10:0.00033535014 11:0.00033535014 12:0.006692851 13:0.00091105117 14:0.00091105117 15:0.0024726233 16:0.047425874 17:0.006692851 18:0.0024726233 19:0.00091105117 20:0.00091105117 #
-0.52283070513909946086528179876041 1:0.047425874 2:0.00091105117 3:0.006692851 4:0.0024726233 5:0.00091105117 6:0.0024726233 7:0.0024726233 8:0.99966466 9:0.0024726233 10:0.00033535014 11:0.00033535014 12:0.0024726233 13:0.00091105117 14:0.00091105117 15:0.006692851 16:0.047425874 17:0.0024726233 18:0.00091105117 19:0.00091105117 20:0.00091105117 #
0.52283070513909946086528179876041 1:0.11920292 2:0.01798621 3:0.11920292 4:0.0024726233 5:0.01798621 6:0.006692851 7:0.006692851 8:0.01798621 9:0.01798621 10:0.98201376 11:0.98201376 12:0.047425874 13:0.88079709 14:0.26894143 15:0.11920292 16:0.01798621 17:0.047425874 18:0.006692851 19:0.047425874 20:0.88079709 #
-0.52283070513909946086528179876041 1:0.047425874 2:0.0024726233 3:0.01798621 4:0.006692851 5:0.0024726233 6:0.0024726233 7:0.0024726233 8:0.99908894 9:0.0024726233 10:0.00033535014 11:0.00091105117 12:0.006692851 13:0.0024726233 14:0.00091105117 15:0.0024726233 16:0.047425874 17:0.006692851 18:0.0024726233 19:0.00091105117 20:0.00091105117 #
-0.52283070513909946086528179876041 1:0.047425874 2:0.00091105117 3:0.006692851 4:0.006692851 5:0.00091105117 6:0.0024726233 7:0.0024726233 8:0.99966466 9:0.0024726233 10:0.00033535014 11:0.00033535014 12:0.0024726233 13:0.00091105117 14:0.00091105117 15:0.0024726233 16:0.047425874 17:0.0024726233 18:0.00091105117 19:0.00091105117 20:0.00091105117 #
0.52283070513909946086528179876041 1:0.047425874 2:0.0024726233 3:0.00091105117 4:0.00091105117 5:0.006692851 6:0.0024726233 7:0.0024726233 8:0.00091105117 9:0.0024726233 10:0.98201376 11:0.98201376 12:0.0024726233 13:0.99752736 14:0.5 15:0.0024726233 16:0.0024726233 17:0.01798621 18:0.006692851 19:0.006692851 20:0.7310586 #
0.52283070513909946086528179876041 1:0.11920292 2:0.006692851 3:0.0024726233 4:0.0024726233 5:0.01798621 6:0.006692851 7:0.0024726233 8:0.006692851 9:0.0024726233 10:0.98201376 11:0.99330717 12:0.006692851 13:0.88079709 14:0.5 15:0.01798621 16:0.006692851 17:0.01798621 18:0.11920292 19:0.01798621 20:0.88079709 #
-0.52283070513909946086528179876041 1:0.11920292 2:0.00091105117 3:0.006692851 4:0.0024726233 5:0.00091105117 6:0.0024726233 7:0.00091105117 8:0.99966466 9:0.00091105117 10:0.00033535014 11:0.00033535014 12:0.0024726233 13:0.00091105117 14:0.00033535014 15:0.047425874 16:0.01798621 17:0.0024726233 18:0.00091105117 19:0.00033535014 20:0.00033535014 #
-0.52283070513909946086528179876041 1:0.11920292 2:0.00033535014 3:0.0024726233 4:0.00091105117 5:0.00033535014 6:0.00091105117 7:0.00091105117 8:0.99966466 9:0.00091105117 10:0.00012339458 11:0.00012339458 12:0.00091105117 13:0.00033535014 14:0.00033535014 15:0.00091105117 16:0.01798621 17:0.01798621 18:0.00033535014 19:0.00033535014 20:0.00033535014 #
0.52283070513909946086528179876041 1:0.01798621 2:0.0024726233 3:0.0024726233 4:0.0024726233 5:0.01798621 6:0.0024726233 7:0.0024726233 8:0.00091105117 9:0.0024726233 10:0.99330717 11:0.88079709 12:0.0024726233 13:0.95257413 14:0.7310586 15:0.0024726233 16:0.006692851 17:0.047425874 18:0.006692851 19:0.01798621 20:0.98201376 #
0.52283070513909946086528179876041 1:0.11920292 2:0.006692851 3:0.0024726233 4:0.0024726233 5:0.01798621 6:0.047425874 7:0.01798621 8:0.00091105117 9:0.006692851 10:0.88079709 11:0.99330717 12:0.006692851 13:0.95257413 14:0.7310586 15:0.0024726233 16:0.006692851 17:0.047425874 18:0.006692851 19:0.26894143 20:0.7310586 #
0.52283070513909946086528179876041 1:0.01798621 2:0.006692851 3:0.0024726233 4:0.0024726233 5:0.01798621 6:0.006692851 7:0.0024726233 8:0.0024726233 9:0.0024726233 10:0.98201376 11:0.98201376 12:0.006692851 13:0.95257413 14:0.88079709 15:0.0024726233 16:0.006692851 17:0.01798621 18:0.01798621 19:0.047425874 20:0.95257413 #
-0.52283070513909946086528179876041 1:0.047425874 2:0.006692851 3:0.006692851 4:0.0024726233 5:0.01798621 6:0.006692851 7:0.01798621 8:0.0024726233 9:0.006692851 10:0.7310586 11:0.99752736 12:0.006692851 13:0.7310586 14:0.7310586 15:0.006692851 16:0.006692851 17:0.11920292 18:0.11920292 19:0.01798621 20:0.7310586 #
0.52283070513909946086528179876041 1:0.11920292 2:0.0024726233 3:0.006692851 4:0.0024726233 5:0.00091105117 6:0.0024726233 7:0.0024726233 8:0.99966466 9:0.0024726233 10:0.00033535014 11:0.00033535014 12:0.0024726233 13:0.00091105117 14:0.00091105117 15:0.0024726233 16:0.01798621 17:0.0024726233 18:0.00091105117 19:0.00091105117 20:0.00091105117 #
-0.52283070513909946086528179876041 1:0.11920292 2:0.006692851 3:0.0024726233 4:0.0024726233 5:0.01798621 6:0.006692851 7:0.0024726233 8:0.0024726233 9:0.0024726233 10:0.95257413 11:0.99330717 12:0.006692851 13:0.98201376 14:0.5 15:0.0024726233 16:0.006692851 17:0.047425874 18:0.006692851 19:0.11920292 20:0.95257413 #
0.52283070513909946086528179876041 1:0.047425874 2:0.00091105117 3:0.006692851 4:0.0024726233 5:0.00091105117 6:0.0024726233 7:0.0024726233 8:0.99966466 9:0.00091105117 10:0.00033535014 11:0.00033535014 12:0.0024726233 13:0.00091105117 14:0.00033535014 15:0.00091105117 16:0.006692851 17:0.0024726233 18:0.00091105117 19:0.00033535014 20:0.00033535014 #
0.52283070513909946086528179876041 1:0.047425874 2:0.00091105117 3:0.01798621 4:0.0024726233 5:0.00091105117 6:0.0024726233 7:0.00091105117 8:0.99966466 9:0.00091105117 10:0.00033535014 11:0.00033535014 12:0.0024726233 13:0.00091105117 14:0.00033535014 15:0.00091105117 16:0.01798621 17:0.0024726233 18:0.00091105117 19:0.00033535014 20:0.00091105117 #
-0.52283070513909946086528179876041 1:0.26894143 2:0.01798621 3:0.11920292 4:0.01798621 5:0.047425874 6:0.047425874 7:0.01798621 8:0.01798621 9:0.01798621 10:0.95257413 11:0.98201376 12:0.01798621 13:0.95257413 14:0.5 15:0.047425874 16:0.11920292 17:0.11920292 18:0.047425874 19:0.11920292 20:0.88079709 #
-0.52283070513909946086528179876041 1:0.01798621 2:0.0024726233 3:0.0024726233 4:0.0024726233 5:0.01798621 6:0.0024726233 7:0.0024726233 8:0.00091105117 9:0.0024726233 10:0.99908894 11:0.88079709 12:0.0024726233 13:0.88079709 14:0.7310586 15:0.0024726233 16:0.006692851 17:0.01798621 18:0.006692851 19:0.11920292 20:0.7310586 #
0.52283070513909946086528179876041 1:0.006692851 2:0.00033535014 3:0.0024726233 4:0.00091105117 5:0.00012339458 6:0.00033535014 7:0.00033535014 8:0.99966466 9:0.00033535014 10:4.5397868e-05 11:4.5397868e-05 12:0.00033535014 13:0.00012339458 14:0.00012339458 15:0.00033535014 16:0.0024726233 17:0.00033535014 18:0.01798621 19:0.00012339458 20:0.00012339458 #
0.52283070513909946086528179876041 1:0.01798621 2:0.00012339458 3:0.00091105117 4:0.006692851 5:0.00012339458 6:0.00033535014 7:0.00012339458 8:0.99966466 9:0.00012339458 10:1.6701422e-05 11:4.5397868e-05 12:0.00033535014 13:0.00012339458 14:4.5397868e-05 15:0.00012339458 16:0.00091105117 17:0.00033535014 18:0.00012339458 19:4.5397868e-05 20:4.5397868e-05 #
-0.52283070513909946086528179876041 1:0.01798621 2:0.00091105117 3:0.006692851 4:0.0024726233 5:0.00091105117 6:0.00091105117 7:0.00091105117 8:0.99966466 9:0.00091105117 10:0.00012339458 11:0.00012339458 12:0.0024726233 13:0.00033535014 14:0.00033535014 15:0.00091105117 16:0.01798621 17:0.006692851 18:0.00091105117 19:0.00033535014 20:0.00033535014 #
-0.52283070513909946086528179876041 1:0.01798621 2:0.00091105117 3:0.006692851 4:0.0024726233 5:0.00091105117 6:0.0024726233 7:0.00091105117 8:0.99966466 9:0.00091105117 10:0.00033535014 11:0.00033535014 12:0.0024726233 13:0.00091105117 14:0.00033535014 15:0.0024726233 16:0.01798621 17:0.006692851 18:0.00091105117 19:0.00033535014 20:0.00033535014 #
0.52283070513909946086528179876041 1:0.047425874 2:0.006692851 3:0.0024726233 4:0.0024726233 5:0.01798621 6:0.006692851 7:0.006692851 8:0.006692851 9:0.006692851 10:0.88079709 11:0.99330717 12:0.006692851 13:0.7310586 14:0.7310586 15:0.047425874 16:0.01798621 17:0.01798621 18:0.11920292 19:0.26894143 20:0.7310586 #
-0.52283070513909946086528179876041 1:0.01798621 2:0.0024726233 3:0.11920292 4:0.047425874 5:0.0024726233 6:0.0024726233 7:0.0024726233 8:0.99908894 9:0.0024726233 10:0.00033535014 11:0.00033535014 12:0.006692851 13:0.00091105117 14:0.00091105117 15:0.047425874 16:0.11920292 17:0.006692851 18:0.0024726233 19:0.00091105117 20:0.00091105117 #
0.040513486445824246906521892697128 1:0.5 2:0.11920292 3:0.006692851 4:0.006692851 5:0.01798621 6:0.7310586 7:0.006692851 8:0.7310586 9:0.5 10:0.11920292 11:0.26894143 12:0.01798621 13:0.11920292 14:0.7310586 15:0.00091105117 16:0.047425874 17:0.047425874 18:0.99995458 19:0.95257413 20:0.047425874 #
-0.52283070513909946086528179876041 1:0.047425874 2:0.0024726233 3:0.01798621 4:0.006692851 5:0.0024726233 6:0.0024726233 7:0.0024726233 8:0.99966466 9:0.0024726233 10:0.00033535014 11:0.00033535014 12:0.006692851 13:0.00091105117 14:0.00091105117 15:0.0024726233 16:0.01798621 17:0.006692851 18:0.0024726233 19:0.00091105117 20:0.00091105117 #
0.52283070513909946086528179876041 1:0.26894143 2:0.0024726233 3:0.0024726233 4:0.0024726233 5:0.047425874 6:0.006692851 7:0.0024726233 8:0.0024726233 9:0.0024726233 10:0.99330717 11:0.95257413 12:0.006692851 13:0.7310586 14:0.7310586 15:0.0024726233 16:0.01798621 17:0.047425874 18:0.006692851 19:0.26894143 20:0.98201376 #
0.52283070513909946086528179876041 1:0.26894143 2:0.006692851 3:0.0024726233 4:0.0024726233 5:0.01798621 6:0.006692851 7:0.006692851 8:0.006692851 9:0.0024726233 10:0.95257413 11:0.7310586 12:0.006692851 13:0.7310586 14:0.7310586 15:0.006692851 16:0.01798621 17:0.26894143 18:0.006692851 19:0.047425874 20:0.99752736 #
-0.52283070513909946086528179876041 1:0.11920292 2:0.006692851 3:0.0024726233 4:0.0024726233 5:0.01798621 6:0.006692851 7:0.0024726233 8:0.0024726233 9:0.006692851 10:0.88079709 11:0.99330717 12:0.006692851 13:0.7310586 14:0.95257413 15:0.006692851 16:0.006692851 17:0.01798621 18:0.11920292 19:0.047425874 20:0.95257413 #
0.52283070513909946086528179876041 1:0.01798621 2:0.0024726233 3:0.01798621 4:0.006692851 5:0.0024726233 6:0.0024726233 7:0.0024726233 8:0.99966466 9:0.0024726233 10:0.00033535014 11:0.00033535014 12:0.0024726233 13:0.00091105117 14:0.00091105117 15:0.0024726233 16:0.01798621 17:0.0024726233 18:0.0024726233 19:0.00091105117 20:0.00091105117 #
0.52283070513909946086528179876041 1:0.01798621 2:0.0024726233 3:0.01798621 4:0.006692851 5:0.0024726233 6:0.0024726233 7:0.0024726233 8:0.99966466 9:0.0024726233 10:0.00033535014 11:0.00033535014 12:0.0024726233 13:0.00091105117 14:0.00091105117 15:0.0024726233 16:0.01798621 17:0.0024726233 18:0.0024726233 19:0.00091105117 20:0.00091105117 #
-0.52283070513909946086528179876041 1:0.11920292 2:0.006692851 3:0.01798621 4:0.0024726233 5:0.01798621 6:0.01798621 7:0.006692851 8:0.0024726233 9:0.006692851 10:0.98201376 11:0.99330717 12:0.01798621 13:0.7310586 14:0.88079709 15:0.006692851 16:0.01798621 17:0.047425874 18:0.01798621 19:0.26894143 20:0.7310586 #
-0.52283070513909946086528179876041 1:0.7310586 2:0.01798621 3:0.047425874 4:0.01798621 5:0.11920292 6:0.047425874 7:0.01798621 8:0.88079709 9:0.047425874 10:0.5 11:0.95257413 12:0.01798621 13:0.5 14:0.88079709 15:0.047425874 16:0.88079709 17:0.26894143 18:0.01798621 19:0.047425874 20:0.26894143 #
0.52283070513909946086528179876041 1:0.7310586 2:0.11920292 3:0.5 4:0.5 5:0.047425874 6:0.26894143 7:0.26894143 8:0.11920292 9:0.26894143 10:0.11920292 11:0.11920292 12:0.7310586 13:0.26894143 14:0.26894143 15:0.047425874 16:0.88079709 17:0.95257413 18:0.01798621 19:0.5 20:0.26894143 #
-0.15222324818267318757847306187614 1:0.11920292 2:0.98201376 3:0.5 4:0.5 5:0.01798621 6:0.88079709 7:0.7310586 8:0.047425874 9:0.98201376 10:0.047425874 11:0.11920292 12:0.7310586 13:0.11920292 14:0.11920292 15:0.047425874 16:0.5 17:0.5 18:0.98201376 19:0.26894143 20:0.047425874 #
-0.52283070513909946086528179876041 1:0.7310586 2:0.006692851 3:0.11920292 4:0.006692851 5:0.01798621 6:0.01798621 7:0.01798621 8:0.047425874 9:0.01798621 10:0.047425874 11:0.01798621 12:0.01798621 13:0.5 14:0.01798621 15:0.01798621 16:0.88079709 17:0.99908894 18:0.0024726233 19:0.006692851 20:0.5 #
0.52283070513909946086528179876041 1:0.88079709 2:0.0024726233 3:0.01798621 4:0.006692851 5:0.0024726233 6:0.006692851 7:0.006692851 8:0.99908894 9:0.006692851 10:0.006692851 11:0.01798621 12:0.006692851 13:0.88079709 14:0.047425874 15:0.006692851 16:0.047425874 17:0.047425874 18:0.0024726233 19:0.0024726233 20:0.01798621 #
0.076168323152256620089950445162685 1:0.99330717 2:0.006692851 3:0.01798621 4:0.006692851 5:0.01798621 6:0.006692851 7:0.006692851 8:0.88079709 9:0.006692851 10:0.26894143 11:0.26894143 12:0.006692851 13:0.7310586 14:0.047425874 15:0.11920292 16:0.5 17:0.5 18:0.0024726233 19:0.01798621 20:0.5 #
-0.23833383829864551728405785979703 1:0.047425874 2:0.99752736 3:0.11920292 4:0.047425874 5:0.0024726233 6:0.7310586 7:0.26894143 8:0.006692851 9:0.5 10:0.11920292 11:0.26894143 12:0.7310586 13:0.047425874 14:0.5 15:0.006692851 16:0.26894143 17:0.26894143 18:0.006692851 19:0.11920292 20:0.26894143 #
-0.52283070513909946086528179876041 1:0.98201376 2:0.11920292 3:0.047425874 4:0.01798621 5:0.01798621 6:0.01798621 7:0.01798621 8:0.047425874 9:0.047425874 10:0.11920292 11:0.047425874 12:0.01798621 13:0.5 14:0.01798621 15:0.01798621 16:0.7310586 17:0.99330717 18:0.0024726233 19:0.01798621 20:0.11920292 #
-0.52283070513909946086528179876041 1:0.99330717 2:0.01798621 3:0.11920292 4:0.01798621 5:0.01798621 6:0.01798621 7:0.01798621 8:0.047425874 9:0.006692851 10:0.11920292 11:0.047425874 12:0.01798621 13:0.7310586 14:0.01798621 15:0.11920292 16:0.88079709 17:0.95257413 18:0.0024726233 19:0.01798621 20:0.5 #
0.52283070513909946086528179876041 1:0.98201376 2:0.01798621 3:0.047425874 4:0.047425874 5:0.047425874 6:0.047425874 7:0.047425874 8:0.95257413 9:0.01798621 10:0.5 11:0.26894143 12:0.047425874 13:0.95257413 14:0.047425874 15:0.047425874 16:0.11920292 17:0.26894143 18:0.01798621 19:0.047425874 20:0.26894143 #
0.52283070513909946086528179876041 1:0.88079709 2:0.01798621 3:0.01798621 4:0.006692851 5:0.01798621 6:0.01798621 7:0.01798621 8:0.88079709 9:0.006692851 10:0.26894143 11:0.98201376 12:0.01798621 13:0.5 14:0.26894143 15:0.006692851 16:0.26894143 17:0.11920292 18:0.01798621 19:0.047425874 20:0.26894143 #
0.52283070513909946086528179876041 1:0.00091105117 2:0.00091105117 3:0.00012339458 4:0.00012339458 5:0.0024726233 6:0.00091105117 7:0.00033535014 8:0.00012339458 9:0.00033535014 10:0.95257413 11:0.99908894 12:0.00033535014 13:0.26894143 14:0.01798621 15:0.00033535014 16:0.00033535014 17:0.0024726233 18:0.00091105117 19:0.0024726233 20:0.11920292 #
-0.52283070513909946086528179876041 1:0.7310586 2:0.0024726233 3:0.01798621 4:0.006692851 5:0.0024726233 6:0.0024726233 7:0.0024726233 8:0.99908894 9:0.0024726233 10:0.0024726233 11:0.11920292 12:0.006692851 13:0.7310586 14:0.006692851 15:0.0024726233 16:0.11920292 17:0.047425874 18:0.01798621 19:0.00091105117 20:0.0024726233 #
0.52283070513909946086528179876041 1:0.7310586 2:0.01798621 3:0.26894143 4:0.047425874 5:0.01798621 6:0.047425874 7:0.01798621 8:0.047425874 9:0.006692851 10:0.11920292 11:0.047425874 12:0.01798621 13:0.88079709 14:0.006692851 15:0.01798621 16:0.88079709 17:0.99752736 18:0.0024726233 19:0.006692851 20:0.5 #
-0.52283070513909946086528179876041 1:0.26894143 2:0.006692851 3:0.01798621 4:0.01798621 5:0.006692851 6:0.01798621 7:0.006692851 8:0.98201376 9:0.047425874 10:0.5 11:0.98201376 12:0.01798621 13:0.5 14:0.5 15:0.01798621 16:0.11920292 17:0.047425874 18:0.006692851 19:0.01798621 20:0.26894143 #
0.52283070513909946086528179876041 1:0.95257413 2:0.01798621 3:0.047425874 4:0.01798621 5:0.01798621 6:0.11920292 7:0.01798621 8:0.11920292 9:0.006692851 10:0.01798621 11:0.01798621 12:0.01798621 13:0.26894143 14:0.006692851 15:0.01798621 16:0.98201376 17:0.99330717 18:0.0024726233 19:0.01798621 20:0.11920292 #
