SVM-light Version V6.02
1 # kernel type
3 # kernel parameter -d 
1 # kernel parameter -g 
1 # kernel parameter -s 
1 # kernel parameter -r 
empty# kernel parameter -u 
20 # highest feature index 
14658 # number of training documents 
6592 # number of support vectors plus 1 
1.0108641 # threshold b, each following line is a SV (starting with alpha*y)
-0.0074096347580902138796332678793988 1:0.26894143 2:0.26894143 3:0.5 4:0.11920292 5:0.11920292 6:0.26894143 7:0.26894143 8:0.26894143 9:0.26894143 10:0.26894143 11:0.5 12:0.26894143 13:0.5 14:0.5 15:0.11920292 16:0.26894143 17:0.26894143 18:0.5 19:0.99752736 20:0.7310586 #
-0.0073446047979017631268661148169485 1:0.7310586 2:0.26894143 3:0.7310586 4:0.26894143 5:0.11920292 6:0.7310586 7:0.5 8:0.11920292 9:0.5 10:0.11920292 11:0.26894143 12:0.7310586 13:0.5 14:0.11920292 15:0.11920292 16:0.95257413 17:0.88079709 18:0.047425874 19:0.5 20:0.11920292 #
-0.0074096347580902138796332678793988 1:0.26894143 2:0.5 3:0.11920292 4:0.047425874 5:0.047425874 6:0.11920292 7:0.26894143 8:0.01798621 9:0.99330717 10:0.5 11:0.11920292 12:0.26894143 13:0.11920292 14:0.88079709 15:0.01798621 16:0.11920292 17:0.5 18:0.98201376 19:0.99752736 20:0.11920292 #
-0.0074096347580902138796332678793988 1:0.5 2:0.047425874 3:0.7310586 4:0.5 5:0.047425874 6:0.26894143 7:0.11920292 8:0.95257413 9:0.5 10:0.11920292 11:0.11920292 12:0.26894143 13:0.26894143 14:0.5 15:0.11920292 16:0.95257413 17:0.7310586 18:0.5 19:0.26894143 20:0.11920292 #
-0.0074096347580902138796332678793988 1:0.01798621 2:0.0024726233 3:0.0024726233 4:0.00091105117 5:0.006692851 6:0.0024726233 7:0.0024726233 8:0.00091105117 9:0.0024726233 10:0.26894143 11:0.99752736 12:0.0024726233 13:0.5 14:0.95257413 15:0.11920292 16:0.006692851 17:0.006692851 18:0.01798621 19:0.01798621 20:0.26894143 #
0.0074096347580902138796332678793988 1:0.11920292 2:0.01798621 3:0.99330717 4:0.11920292 5:0.0024726233 6:0.01798621 7:0.01798621 8:0.006692851 9:0.047425874 10:0.006692851 11:0.0024726233 12:0.01798621 13:0.006692851 14:0.00091105117 15:0.99752736 16:0.5 17:0.98201376 18:0.00091105117 19:0.0024726233 20:0.006692851 #
0.0074096347580902138796332678793988 1:0.99908894 2:0.006692851 3:0.006692851 4:0.0024726233 5:0.01798621 6:0.006692851 7:0.006692851 8:0.047425874 9:0.0024726233 10:0.01798621 11:0.006692851 12:0.006692851 13:0.5 14:0.0024726233 15:0.006692851 16:0.5 17:0.11920292 18:0.00091105117 19:0.0024726233 20:0.5 #
0.0074096347580902138796332678793988 1:0.11920292 2:0.01798621 3:0.0024726233 4:0.006692851 5:0.01798621 6:0.047425874 7:0.006692851 8:0.006692851 9:0.006692851 10:0.7310586 11:0.99330717 12:0.006692851 13:0.5 14:0.95257413 15:0.006692851 16:0.01798621 17:0.047425874 18:0.5 19:0.11920292 20:0.95257413 #
0.0074096347580902138796332678793988 1:0.01798621 2:0.047425874 3:0.0024726233 4:0.0024726233 5:0.006692851 6:0.01798621 7:0.0024726233 8:0.0024726233 9:0.01798621 10:0.5 11:0.98201376 12:0.006692851 13:0.98201376 14:0.99330717 15:0.0024726233 16:0.01798621 17:0.26894143 18:0.88079709 19:0.5 20:0.11920292 #
0.0074096347580902138796332678793988 1:0.11920292 2:0.006692851 3:0.006692851 4:0.0024726233 5:0.01798621 6:0.006692851 7:0.006692851 8:0.0024726233 9:0.006692851 10:0.7310586 11:0.99330717 12:0.006692851 13:0.95257413 14:0.5 15:0.006692851 16:0.26894143 17:0.5 18:0.006692851 19:0.01798621 20:0.88079709 #
-0.0074096347580902138796332678793988 1:0.5 2:0.01798621 3:0.01798621 4:0.01798621 5:0.01798621 6:0.01798621 7:0.006692851 8:0.26894143 9:0.047425874 10:0.88079709 11:0.95257413 12:0.01798621 13:0.7310586 14:0.98201376 15:0.006692851 16:0.047425874 17:0.5 18:0.26894143 19:0.11920292 20:0.95257413 #
-0.0074096347580902138796332678793988 1:0.11920292 2:0.01798621 3:0.0024726233 4:0.006692851 5:0.01798621 6:0.01798621 7:0.0024726233 8:0.006692851 9:0.11920292 10:0.98201376 11:0.98201376 12:0.006692851 13:0.95257413 14:0.95257413 15:0.006692851 16:0.01798621 17:0.11920292 18:0.7310586 19:0.11920292 20:0.7310586 #
0.0074096347580902138796332678793988 1:0.7310586 2:0.7310586 3:0.7310586 4:0.7310586 5:0.01798621 6:0.5 7:0.7310586 8:0.26894143 9:0.88079709 10:0.047425874 11:0.047425874 12:0.7310586 13:0.11920292 14:0.5 15:0.01798621 16:0.7310586 17:0.7310586 18:0.7310586 19:0.7310586 20:0.11920292 #
0.0074096347580902138796332678793988 1:0.5 2:0.7310586 3:0.26894143 4:0.26894143 5:0.01798621 6:0.7310586 7:0.26894143 8:0.26894143 9:0.88079709 10:0.26894143 11:0.26894143 12:0.7310586 13:0.5 14:0.5 15:0.047425874 16:0.5 17:0.88079709 18:0.88079709 19:0.95257413 20:0.26894143 #
0.0074096347580902138796332678793988 1:0.047425874 2:0.95257413 3:0.7310586 4:0.11920292 5:0.006692851 6:0.88079709 7:0.047425874 8:0.26894143 9:0.95257413 10:0.11920292 11:0.047425874 12:0.88079709 13:0.26894143 14:0.5 15:0.006692851 16:0.5 17:0.5 18:0.95257413 19:0.99330717 20:0.047425874 #
-0.0074096347580902138796332678793988 1:0.5 2:0.88079709 3:0.26894143 4:0.26894143 5:0.01798621 6:0.5 7:0.26894143 8:0.7310586 9:0.7310586 10:0.11920292 11:0.11920292 12:0.88079709 13:0.26894143 14:0.7310586 15:0.047425874 16:0.88079709 17:0.26894143 18:0.95257413 19:0.88079709 20:0.047425874 #
-0.0074096347580902138796332678793988 1:0.11920292 2:0.88079709 3:0.26894143 4:0.7310586 5:0.006692851 6:0.95257413 7:0.5 8:0.26894143 9:0.95257413 10:0.01798621 11:0.01798621 12:0.7310586 13:0.01798621 14:0.26894143 15:0.01798621 16:0.5 17:0.5 18:0.99752736 19:0.95257413 20:0.047425874 #
0.0074096347580902138796332678793988 1:0.99330717 2:0.11920292 3:0.11920292 4:0.01798621 5:0.047425874 6:0.11920292 7:0.047425874 8:0.7310586 9:0.5 10:0.26894143 11:0.26894143 12:0.11920292 13:0.11920292 14:0.01798621 15:0.047425874 16:0.5 17:0.26894143 18:0.006692851 19:0.01798621 20:0.5 #
0.0074096347580902138796332678793988 1:0.26894143 2:0.006692851 3:0.0024726233 4:0.0024726233 5:0.88079709 6:0.006692851 7:0.0024726233 8:0.0024726233 9:0.006692851 10:0.88079709 11:0.99330717 12:0.006692851 13:0.95257413 14:0.88079709 15:0.0024726233 16:0.006692851 17:0.01798621 18:0.26894143 19:0.047425874 20:0.88079709 #
0.0074096347580902138796332678793988 1:0.26894143 2:0.5 3:0.95257413 4:0.7310586 5:0.047425874 6:0.26894143 7:0.11920292 8:0.88079709 9:0.5 10:0.11920292 11:0.047425874 12:0.26894143 13:0.11920292 14:0.5 15:0.11920292 16:0.7310586 17:0.7310586 18:0.26894143 19:0.88079709 20:0.11920292 #
-0.0074096347580902138796332678793988 1:0.5 2:0.01798621 3:0.047425874 4:0.006692851 5:0.5 6:0.01798621 7:0.006692851 8:0.7310586 9:0.01798621 10:0.26894143 11:0.95257413 12:0.047425874 13:0.99752736 14:0.95257413 15:0.006692851 16:0.01798621 17:0.11920292 18:0.01798621 19:0.5 20:0.26894143 #
0.0074096347580902138796332678793988 1:0.047425874 2:0.26894143 3:0.7310586 4:0.99908894 5:0.0024726233 6:0.047425874 7:0.7310586 8:0.047425874 9:0.26894143 10:0.01798621 11:0.0024726233 12:0.11920292 13:0.006692851 14:0.01798621 15:0.01798621 16:0.11920292 17:0.26894143 18:0.0024726233 19:0.26894143 20:0.01798621 #
-0.0074096347580902138796332678793988 1:0.047425874 2:0.006692851 3:0.01798621 4:0.006692851 5:0.006692851 6:0.006692851 7:0.006692851 8:0.006692851 9:0.01798621 10:0.11920292 11:0.88079709 12:0.01798621 13:0.95257413 14:0.99330717 15:0.0024726233 16:0.01798621 17:0.047425874 18:0.99995458 19:0.7310586 20:0.047425874 #
0.0074096347580902138796332678793988 1:0.5 2:0.88079709 3:0.88079709 4:0.7310586 5:0.01798621 6:0.88079709 7:0.88079709 8:0.5 9:0.7310586 10:0.047425874 11:0.047425874 12:0.5 13:0.88079709 14:0.01798621 15:0.047425874 16:0.7310586 17:0.5 18:0.26894143 19:0.047425874 20:0.047425874 #
0.0074096347580902138796332678793988 1:0.26894143 2:0.7310586 3:0.88079709 4:0.95257413 5:0.047425874 6:0.7310586 7:0.5 8:0.26894143 9:0.95257413 10:0.047425874 11:0.047425874 12:0.7310586 13:0.26894143 14:0.047425874 15:0.047425874 16:0.7310586 17:0.26894143 18:0.7310586 19:0.7310586 20:0.047425874 #
0.0074096347580902138796332678793988 1:0.5 2:0.5 3:0.7310586 4:0.5 5:0.047425874 6:0.7310586 7:0.5 8:0.5 9:0.88079709 10:0.11920292 11:0.26894143 12:0.5 13:0.7310586 14:0.11920292 15:0.7310586 16:0.5 17:0.5 18:0.95257413 19:0.7310586 20:0.26894143 #
-0.0074096347580902138796332678793988 1:0.11920292 2:0.01798621 3:0.99330717 4:0.98201376 5:0.01798621 6:0.11920292 7:0.047425874 8:0.26894143 9:0.01798621 10:0.006692851 11:0.0024726233 12:0.047425874 13:0.01798621 14:0.0024726233 15:0.01798621 16:0.99330717 17:0.11920292 18:0.0024726233 19:0.006692851 20:0.006692851 #
0.0074096347580902138796332678793988 1:0.26894143 2:0.006692851 3:0.0024726233 4:0.0024726233 5:0.01798621 6:0.047425874 7:0.006692851 8:0.01798621 9:0.006692851 10:0.88079709 11:0.99330717 12:0.006692851 13:0.5 14:0.95257413 15:0.006692851 16:0.006692851 17:0.047425874 18:0.26894143 19:0.11920292 20:0.88079709 #
0.0074096347580902138796332678793988 1:0.26894143 2:0.006692851 3:0.0024726233 4:0.0024726233 5:0.006692851 6:0.01798621 7:0.0024726233 8:0.0024726233 9:0.01798621 10:0.95257413 11:0.88079709 12:0.006692851 13:0.88079709 14:0.98201376 15:0.0024726233 16:0.006692851 17:0.047425874 18:0.26894143 19:0.99752736 20:0.88079709 #
0.0074096347580902138796332678793988 1:0.11920292 2:0.006692851 3:0.01798621 4:0.0024726233 5:0.006692851 6:0.047425874 7:0.006692851 8:0.01798621 9:0.5 10:0.98201376 11:0.88079709 12:0.006692851 13:0.88079709 14:0.95257413 15:0.0024726233 16:0.01798621 17:0.26894143 18:0.99752736 19:0.98201376 20:0.5 #
-0.0074096347580902138796332678793988 1:0.047425874 2:0.0024726233 3:0.0024726233 4:0.006692851 5:0.006692851 6:0.006692851 7:0.0024726233 8:0.0024726233 9:0.0024726233 10:0.95257413 11:0.95257413 12:0.0024726233 13:0.95257413 14:0.95257413 15:0.0024726233 16:0.01798621 17:0.7310586 18:0.26894143 19:0.26894143 20:0.95257413 #
-0.0074096347580902138796332678793988 1:0.26894143 2:0.047425874 3:0.01798621 4:0.006692851 5:0.01798621 6:0.26894143 7:0.01798621 8:0.01798621 9:0.047425874 10:0.7310586 11:0.7310586 12:0.01798621 13:0.88079709 14:0.88079709 15:0.88079709 16:0.26894143 17:0.7310586 18:0.7310586 19:0.99330717 20:0.88079709 #
-0.0074096347580902138796332678793988 1:0.5 2:0.01798621 3:0.26894143 4:0.11920292 5:0.5 6:0.047425874 7:0.11920292 8:0.047425874 9:0.047425874 10:0.88079709 11:0.88079709 12:0.047425874 13:0.7310586 14:0.7310586 15:0.11920292 16:0.11920292 17:0.26894143 18:0.88079709 19:0.95257413 20:0.95257413 #
0.0074096347580902138796332678793988 1:0.11920292 2:0.95257413 3:0.26894143 4:0.26894143 5:0.01798621 6:0.88079709 7:0.7310586 8:0.26894143 9:0.88079709 10:0.047425874 11:0.047425874 12:0.88079709 13:0.11920292 14:0.5 15:0.01798621 16:0.11920292 17:0.5 18:0.95257413 19:0.98201376 20:0.11920292 #
0.0074096347580902138796332678793988 1:0.26894143 2:0.88079709 3:0.7310586 4:0.88079709 5:0.01798621 6:0.88079709 7:0.7310586 8:0.11920292 9:0.7310586 10:0.11920292 11:0.26894143 12:0.7310586 13:0.11920292 14:0.11920292 15:0.11920292 16:0.5 17:0.7310586 18:0.88079709 19:0.26894143 20:0.11920292 #
0.0074096347580902138796332678793988 1:0.047425874 2:0.98201376 3:0.88079709 4:0.7310586 5:0.006692851 6:0.5 7:0.26894143 8:0.01798621 9:0.98201376 10:0.11920292 11:0.01798621 12:0.95257413 13:0.11920292 14:0.26894143 15:0.01798621 16:0.11920292 17:0.26894143 18:0.26894143 19:0.88079709 20:0.11920292 #
0.0074096347580902138796332678793988 1:0.88079709 2:0.006692851 3:0.5 4:0.01798621 5:0.0024726233 6:0.047425874 7:0.006692851 8:0.006692851 9:0.0024726233 10:0.01798621 11:0.006692851 12:0.01798621 13:0.0024726233 14:0.00091105117 15:0.99966466 16:0.01798621 17:0.047425874 18:0.00091105117 19:0.0024726233 20:0.26894143 #
-0.0074096347580902138796332678793988 1:0.88079709 2:0.047425874 3:0.26894143 4:0.01798621 5:0.01798621 6:0.01798621 7:0.01798621 8:0.26894143 9:0.006692851 10:0.01798621 11:0.006692851 12:0.01798621 13:0.01798621 14:0.006692851 15:0.047425874 16:0.98201376 17:0.99330717 18:0.0024726233 19:0.047425874 20:0.26894143 #
0.0074096347580902138796332678793988 1:0.5 2:0.11920292 3:0.11920292 4:0.047425874 5:0.95257413 6:0.11920292 7:0.11920292 8:0.5 9:0.11920292 10:0.7310586 11:0.5 12:0.11920292 13:0.88079709 14:0.7310586 15:0.7310586 16:0.5 17:0.7310586 18:0.11920292 19:0.88079709 20:0.7310586 #
0.0074096347580902138796332678793988 1:0.88079709 2:0.006692851 3:0.01798621 4:0.01798621 5:0.047425874 6:0.11920292 7:0.01798621 8:0.11920292 9:0.006692851 10:0.88079709 11:0.7310586 12:0.047425874 13:0.7310586 14:0.7310586 15:0.26894143 16:0.26894143 17:0.5 18:0.98201376 19:0.5 20:0.95257413 #
0.0074096347580902138796332678793988 1:0.11920292 2:0.5 3:0.88079709 4:0.7310586 5:0.0024726233 6:0.98201376 7:0.95257413 8:0.047425874 9:0.7310586 10:0.006692851 11:0.01798621 12:0.26894143 13:0.7310586 14:0.047425874 15:0.006692851 16:0.88079709 17:0.5 18:0.7310586 19:0.26894143 20:0.047425874 #
-0.0074096347580902138796332678793988 1:0.26894143 2:0.01798621 3:0.006692851 4:0.01798621 5:0.047425874 6:0.047425874 7:0.01798621 8:0.006692851 9:0.26894143 10:0.95257413 11:0.88079709 12:0.01798621 13:0.98201376 14:0.98201376 15:0.11920292 16:0.11920292 17:0.26894143 18:0.11920292 19:0.95257413 20:0.88079709 #
0.0074096347580902138796332678793988 1:0.01798621 2:0.047425874 3:0.11920292 4:0.95257413 5:0.00091105117 6:0.95257413 7:0.99908894 8:0.006692851 9:0.26894143 10:0.00091105117 11:0.0024726233 12:0.11920292 13:0.0024726233 14:0.00091105117 15:0.006692851 16:0.047425874 17:0.047425874 18:0.00091105117 19:0.0024726233 20:0.0024726233 #
0.0074096347580902138796332678793988 1:0.26894143 2:0.7310586 3:0.88079709 4:0.5 5:0.01798621 6:0.98201376 7:0.5 8:0.11920292 9:0.98201376 10:0.047425874 11:0.11920292 12:0.7310586 13:0.11920292 14:0.047425874 15:0.047425874 16:0.5 17:0.5 18:0.88079709 19:0.5 20:0.11920292 #
0.0074096347580902138796332678793988 1:0.11920292 2:0.006692851 3:0.047425874 4:0.01798621 5:0.006692851 6:0.01798621 7:0.01798621 8:0.01798621 9:0.006692851 10:0.0024726233 11:0.0024726233 12:0.01798621 13:0.006692851 14:0.0024726233 15:0.006692851 16:0.99908894 17:0.7310586 18:0.00091105117 19:0.0024726233 20:0.006692851 #
-0.0074096347580902138796332678793988 1:0.95257413 2:0.006692851 3:0.006692851 4:0.0024726233 5:0.01798621 6:0.006692851 7:0.006692851 8:0.01798621 9:0.0024726233 10:0.88079709 11:0.26894143 12:0.006692851 13:0.11920292 14:0.01798621 15:0.006692851 16:0.047425874 17:0.7310586 18:0.0024726233 19:0.006692851 20:0.99330717 #
0.0074096347580902138796332678793988 1:0.11920292 2:0.95257413 3:0.7310586 4:0.88079709 5:0.006692851 6:0.5 7:0.95257413 8:0.01798621 9:0.7310586 10:0.047425874 11:0.11920292 12:0.88079709 13:0.047425874 14:0.047425874 15:0.01798621 16:0.5 17:0.88079709 18:0.006692851 19:0.11920292 20:0.047425874 #
0.0074096347580902138796332678793988 1:0.26894143 2:0.047425874 3:0.047425874 4:0.01798621 5:0.11920292 6:0.047425874 7:0.047425874 8:0.047425874 9:0.047425874 10:0.88079709 11:0.95257413 12:0.047425874 13:0.95257413 14:0.95257413 15:0.047425874 16:0.11920292 17:0.11920292 18:0.88079709 19:0.7310586 20:0.88079709 #
-0.0074096347580902138796332678793988 1:0.5 2:0.01798621 3:0.01798621 4:0.006692851 5:0.88079709 6:0.047425874 7:0.01798621 8:0.047425874 9:0.11920292 10:0.88079709 11:0.95257413 12:0.047425874 13:0.7310586 14:0.88079709 15:0.047425874 16:0.26894143 17:0.11920292 18:0.88079709 19:0.5 20:0.88079709 #
0.0074096347580902138796332678793988 1:0.5 2:0.047425874 3:0.047425874 4:0.047425874 5:0.11920292 6:0.11920292 7:0.047425874 8:0.11920292 9:0.5 10:0.88079709 11:0.7310586 12:0.047425874 13:0.7310586 14:0.88079709 15:0.7310586 16:0.11920292 17:0.26894143 18:0.95257413 19:0.98201376 20:0.7310586 #
-0.0074096347580902138796332678793988 1:0.01798621 2:0.047425874 3:0.01798621 4:0.006692851 5:0.01798621 6:0.01798621 7:0.006692851 8:0.01798621 9:0.01798621 10:0.95257413 11:0.95257413 12:0.01798621 13:0.88079709 14:0.99752736 15:0.006692851 16:0.01798621 17:0.047425874 18:0.95257413 19:0.7310586 20:0.5 #
0.0074096347580902138796332678793988 1:0.11920292 2:0.7310586 3:0.7310586 4:0.7310586 5:0.006692851 6:0.95257413 7:0.7310586 8:0.5 9:0.5 10:0.01798621 11:0.047425874 12:0.88079709 13:0.047425874 14:0.01798621 15:0.88079709 16:0.7310586 17:0.5 18:0.006692851 19:0.26894143 20:0.01798621 #
0.0074096347580902138796332678793988 1:0.26894143 2:0.7310586 3:0.5 4:0.5 5:0.047425874 6:0.5 7:0.5 8:0.7310586 9:0.7310586 10:0.26894143 11:0.047425874 12:0.88079709 13:0.11920292 14:0.5 15:0.5 16:0.7310586 17:0.88079709 18:0.047425874 19:0.5 20:0.11920292 #
0.0074096347580902138796332678793988 1:0.26894143 2:0.88079709 3:0.26894143 4:0.26894143 5:0.01798621 6:0.95257413 7:0.5 8:0.88079709 9:0.7310586 10:0.01798621 11:0.047425874 12:0.7310586 13:0.11920292 14:0.01798621 15:0.01798621 16:0.7310586 17:0.88079709 18:0.7310586 19:0.047425874 20:0.11920292 #
-0.0074096347580902138796332678793988 1:0.26894143 2:0.5 3:0.11920292 4:0.11920292 5:0.11920292 6:0.11920292 7:0.11920292 8:0.5 9:0.11920292 10:0.5 11:0.5 12:0.26894143 13:0.7310586 14:0.88079709 15:0.11920292 16:0.5 17:0.88079709 18:0.99330717 19:0.88079709 20:0.7310586 #
-0.0074096347580902138796332678793988 1:0.01798621 2:0.0024726233 3:0.00091105117 4:0.00091105117 5:0.006692851 6:0.0024726233 7:0.0024726233 8:0.0024726233 9:0.0024726233 10:0.88079709 11:0.99752736 12:0.0024726233 13:0.5 14:0.7310586 15:0.0024726233 16:0.0024726233 17:0.01798621 18:0.26894143 19:0.047425874 20:0.7310586 #
0.0074096347580902138796332678793988 1:0.5 2:0.5 3:0.7310586 4:0.7310586 5:0.01798621 6:0.7310586 7:0.26894143 8:0.01798621 9:0.5 10:0.047425874 11:0.26894143 12:0.7310586 13:0.11920292 14:0.047425874 15:0.01798621 16:0.5 17:0.98201376 18:0.01798621 19:0.11920292 20:0.11920292 #
0.0074096347580902138796332678793988 1:0.11920292 2:0.26894143 3:0.006692851 4:0.006692851 5:0.006692851 6:0.11920292 7:0.11920292 8:0.11920292 9:0.01798621 10:0.7310586 11:0.88079709 12:0.01798621 13:0.7310586 14:0.99330717 15:0.7310586 16:0.047425874 17:0.01798621 18:0.98201376 19:0.88079709 20:0.5 #
-0.0074096347580902138796332678793988 1:0.11920292 2:0.047425874 3:0.047425874 4:0.047425874 5:0.047425874 6:0.047425874 7:0.047425874 8:0.047425874 9:0.11920292 10:0.88079709 11:0.7310586 12:0.047425874 13:0.7310586 14:0.98201376 15:0.7310586 16:0.047425874 17:0.11920292 18:0.98201376 19:0.88079709 20:0.7310586 #
-0.0074096347580902138796332678793988 1:0.26894143 2:0.26894143 3:0.11920292 4:0.047425874 5:0.01798621 6:0.11920292 7:0.047425874 8:0.01798621 9:0.11920292 10:0.88079709 11:0.88079709 12:0.047425874 13:0.7310586 14:0.98201376 15:0.01798621 16:0.047425874 17:0.26894143 18:0.88079709 19:0.95257413 20:0.7310586 #
0.0074096347580902138796332678793988 1:0.26894143 2:0.95257413 3:0.88079709 4:0.95257413 5:0.006692851 6:0.5 7:0.26894143 8:0.11920292 9:0.88079709 10:0.006692851 11:0.006692851 12:0.7310586 13:0.01798621 14:0.01798621 15:0.01798621 16:0.95257413 17:0.88079709 18:0.0024726233 19:0.047425874 20:0.01798621 #
0.0074096347580902138796332678793988 1:0.11920292 2:0.7310586 3:0.95257413 4:0.88079709 5:0.01798621 6:0.7310586 7:0.88079709 8:0.5 9:0.5 10:0.01798621 11:0.047425874 12:0.7310586 13:0.047425874 14:0.01798621 15:0.01798621 16:0.88079709 17:0.7310586 18:0.006692851 19:0.047425874 20:0.11920292 #
0.0074096347580902138796332678793988 1:0.11920292 2:0.006692851 3:0.01798621 4:0.0024726233 5:0.006692851 6:0.006692851 7:0.006692851 8:0.01798621 9:0.11920292 10:0.26894143 11:0.26894143 12:0.0024726233 13:0.01798621 14:0.99908894 15:0.0024726233 16:0.047425874 17:0.26894143 18:0.5 19:0.99752736 20:0.047425874 #
0.0074096347580902138796332678793988 1:0.5 2:0.88079709 3:0.5 4:0.7310586 5:0.047425874 6:0.5 7:0.5 8:0.5 9:0.7310586 10:0.047425874 11:0.26894143 12:0.5 13:0.047425874 14:0.047425874 15:0.11920292 16:0.88079709 17:0.95257413 18:0.7310586 19:0.01798621 20:0.047425874 #
-0.0053800198424202513858283225545165 1:0.7310586 2:0.95257413 3:0.95257413 4:0.5 5:0.006692851 6:0.88079709 7:0.88079709 8:0.047425874 9:0.26894143 10:0.01798621 11:0.01798621 12:0.5 13:0.047425874 14:0.01798621 15:0.01798621 16:0.7310586 17:0.26894143 18:0.01798621 19:0.01798621 20:0.047425874 #
0.0074096347580902138796332678793988 1:0.26894143 2:0.01798621 3:0.11920292 4:0.047425874 5:0.88079709 6:0.26894143 7:0.047425874 8:0.11920292 9:0.5 10:0.5 11:0.7310586 12:0.047425874 13:0.88079709 14:0.95257413 15:0.01798621 16:0.26894143 17:0.5 18:0.95257413 19:0.99330717 20:0.5 #
-0.0040257225454408433404362988028424 1:0.11920292 2:0.26894143 3:0.26894143 4:0.047425874 5:0.11920292 6:0.26894143 7:0.11920292 8:0.047425874 9:0.047425874 10:0.88079709 11:0.26894143 12:0.95257413 13:0.7310586 14:0.11920292 15:0.26894143 16:0.88079709 17:0.98201376 18:0.01798621 19:0.11920292 20:0.11920292 #
-0.0074096347580902138796332678793988 1:0.26894143 2:0.5 3:0.11920292 4:0.01798621 5:0.047425874 6:0.5 7:0.11920292 8:0.047425874 9:0.7310586 10:0.7310586 11:0.88079709 12:0.11920292 13:0.95257413 14:0.95257413 15:0.01798621 16:0.11920292 17:0.26894143 18:0.99330717 19:0.7310586 20:0.5 #
-0.0074096347580902138796332678793988 1:0.047425874 2:0.01798621 3:0.01798621 4:0.01798621 5:0.01798621 6:0.01798621 7:0.01798621 8:0.01798621 9:0.26894143 10:0.88079709 11:0.88079709 12:0.01798621 13:0.98201376 14:0.88079709 15:0.01798621 16:0.047425874 17:0.7310586 18:0.88079709 19:0.99330717 20:0.5 #
-0.0074096347580902138796332678793988 1:0.11920292 2:0.11920292 3:0.11920292 4:0.047425874 5:0.01798621 6:0.5 7:0.01798621 8:0.006692851 9:0.26894143 10:0.7310586 11:0.88079709 12:0.11920292 13:0.88079709 14:0.98201376 15:0.11920292 16:0.11920292 17:0.5 18:0.98201376 19:0.5 20:0.88079709 #
0.0074096347580902138796332678793988 1:0.26894143 2:0.95257413 3:0.88079709 4:0.5 5:0.006692851 6:0.88079709 7:0.7310586 8:0.11920292 9:0.95257413 10:0.047425874 11:0.01798621 12:0.7310586 13:0.01798621 14:0.006692851 15:0.006692851 16:0.7310586 17:0.7310586 18:0.047425874 19:0.11920292 20:0.047425874 #
0.0074096347580902138796332678793988 1:0.11920292 2:0.98201376 3:0.5 4:0.88079709 5:0.0024726233 6:0.88079709 7:0.88079709 8:0.01798621 9:0.7310586 10:0.01798621 11:0.01798621 12:0.88079709 13:0.01798621 14:0.01798621 15:0.006692851 16:0.26894143 17:0.88079709 18:0.0024726233 19:0.006692851 20:0.26894143 #
0.0074096347580902138796332678793988 1:0.047425874 2:0.047425874 3:0.5 4:0.11920292 5:0.006692851 6:0.01798621 7:0.006692851 8:0.047425874 9:0.01798621 10:0.26894143 11:0.88079709 12:0.01798621 13:0.11920292 14:0.7310586 15:0.006692851 16:0.26894143 17:0.99752736 18:0.26894143 19:0.047425874 20:0.11920292 #
-0.0074096347580902138796332678793988 1:0.7310586 2:0.047425874 3:0.7310586 4:0.26894143 5:0.047425874 6:0.047425874 7:0.047425874 8:0.11920292 9:0.26894143 10:0.7310586 11:0.95257413 12:0.047425874 13:0.5 14:0.26894143 15:0.26894143 16:0.26894143 17:0.26894143 18:0.5 19:0.26894143 20:0.7310586 #
0.0074096347580902138796332678793988 1:0.11920292 2:0.006692851 3:0.006692851 4:0.006692851 5:0.047425874 6:0.01798621 7:0.006692851 8:0.5 9:0.006692851 10:0.95257413 11:0.7310586 12:0.01798621 13:0.5 14:0.7310586 15:0.006692851 16:0.047425874 17:0.26894143 18:0.01798621 19:0.26894143 20:0.99330717 #
0.0074096347580902138796332678793988 1:0.11920292 2:0.26894143 3:0.047425874 4:0.006692851 5:0.01798621 6:0.047425874 7:0.01798621 8:0.006692851 9:0.047425874 10:0.88079709 11:0.88079709 12:0.01798621 13:0.7310586 14:0.88079709 15:0.006692851 16:0.11920292 17:0.7310586 18:0.88079709 19:0.99330717 20:0.88079709 #
0.0074096347580902138796332678793988 1:0.047425874 2:0.047425874 3:0.01798621 4:0.01798621 5:0.047425874 6:0.7310586 7:0.01798621 8:0.01798621 9:0.047425874 10:0.98201376 11:0.88079709 12:0.047425874 13:0.95257413 14:0.7310586 15:0.01798621 16:0.26894143 17:0.7310586 18:0.5 19:0.5 20:0.88079709 #
0.0074096347580902138796332678793988 1:0.5 2:0.88079709 3:0.7310586 4:0.7310586 5:0.01798621 6:0.95257413 7:0.88079709 8:0.047425874 9:0.88079709 10:0.047425874 11:0.047425874 12:0.88079709 13:0.5 14:0.047425874 15:0.26894143 16:0.5 17:0.26894143 18:0.01798621 19:0.047425874 20:0.047425874 #
0.0074096347580902138796332678793988 1:0.047425874 2:0.88079709 3:0.88079709 4:0.98201376 5:0.006692851 6:0.7310586 7:0.88079709 8:0.26894143 9:0.7310586 10:0.006692851 11:0.01798621 12:0.5 13:0.01798621 14:0.006692851 15:0.5 16:0.5 17:0.5 18:0.006692851 19:0.26894143 20:0.01798621 #
-0.0074096347580902138796332678793988 1:0.26894143 2:0.01798621 3:0.047425874 4:0.01798621 5:0.01798621 6:0.5 7:0.11920292 8:0.11920292 9:0.01798621 10:0.95257413 11:0.98201376 12:0.047425874 13:0.26894143 14:0.5 15:0.01798621 16:0.11920292 17:0.11920292 18:0.006692851 19:0.11920292 20:0.88079709 #
0.0074096347580902138796332678793988 1:0.95257413 2:0.047425874 3:0.047425874 4:0.006692851 5:0.0024726233 6:0.047425874 7:0.5 8:0.99330717 9:0.26894143 10:0.047425874 11:0.006692851 12:0.01798621 13:0.047425874 14:0.5 15:0.0024726233 16:0.26894143 17:0.5 18:0.0024726233 19:0.5 20:0.26894143 #
-0.0074096347580902138796332678793988 1:0.98201376 2:0.01798621 3:0.047425874 4:0.26894143 5:0.006692851 6:0.01798621 7:0.11920292 8:0.99330717 9:0.006692851 10:0.0024726233 11:0.0024726233 12:0.01798621 13:0.006692851 14:0.0024726233 15:0.006692851 16:0.88079709 17:0.11920292 18:0.0024726233 19:0.0024726233 20:0.006692851 #
0.0074096347580902138796332678793988 1:0.26894143 2:0.88079709 3:0.98201376 4:0.5 5:0.01798621 6:0.7310586 7:0.7310586 8:0.11920292 9:0.88079709 10:0.01798621 11:0.01798621 12:0.95257413 13:0.11920292 14:0.01798621 15:0.047425874 16:0.88079709 17:0.7310586 18:0.006692851 19:0.047425874 20:0.01798621 #
-0.0074096347580902138796332678793988 1:0.11920292 2:0.01798621 3:0.006692851 4:0.006692851 5:0.01798621 6:0.01798621 7:0.006692851 8:0.01798621 9:0.047425874 10:0.7310586 11:0.95257413 12:0.01798621 13:0.5 14:0.95257413 15:0.006692851 16:0.01798621 17:0.26894143 18:0.95257413 19:0.99330717 20:0.88079709 #
-0.0074096347580902138796332678793988 1:0.5 2:0.047425874 3:0.006692851 4:0.0024726233 5:0.01798621 6:0.006692851 7:0.006692851 8:0.01798621 9:0.01798621 10:0.7310586 11:0.95257413 12:0.01798621 13:0.7310586 14:0.98201376 15:0.006692851 16:0.11920292 17:0.5 18:0.88079709 19:0.5 20:0.88079709 #
0.0074096347580902138796332678793988 1:0.7310586 2:0.26894143 3:0.047425874 4:0.01798621 5:0.11920292 6:0.26894143 7:0.01798621 8:0.7310586 9:0.26894143 10:0.88079709 11:0.88079709 12:0.047425874 13:0.5 14:0.5 15:0.01798621 16:0.7310586 17:0.7310586 18:0.01798621 19:0.11920292 20:0.7310586 #
0.0074096347580902138796332678793988 1:0.26894143 2:0.88079709 3:0.95257413 4:0.7310586 5:0.01798621 6:0.5 7:0.26894143 8:0.7310586 9:0.26894143 10:0.01798621 11:0.047425874 12:0.7310586 13:0.047425874 14:0.11920292 15:0.01798621 16:0.7310586 17:0.88079709 18:0.88079709 19:0.047425874 20:0.047425874 #
0.0074096347580902138796332678793988 1:0.11920292 2:0.01798621 3:0.047425874 4:0.006692851 5:0.01798621 6:0.11920292 7:0.01798621 8:0.01798621 9:0.7310586 10:0.88079709 11:0.95257413 12:0.01798621 13:0.88079709 14:0.99330717 15:0.006692851 16:0.01798621 17:0.11920292 18:0.5 19:0.98201376 20:0.26894143 #
-0.0074096347580902138796332678793988 1:0.5 2:0.047425874 3:0.047425874 4:0.01798621 5:0.047425874 6:0.047425874 7:0.01798621 8:0.047425874 9:0.11920292 10:0.95257413 11:0.7310586 12:0.01798621 13:0.5 14:0.95257413 15:0.11920292 16:0.11920292 17:0.7310586 18:0.7310586 19:0.98201376 20:0.88079709 #
0.0074096347580902138796332678793988 1:0.26894143 2:0.7310586 3:0.88079709 4:0.95257413 5:0.006692851 6:0.5 7:0.88079709 8:0.26894143 9:0.5 10:0.047425874 11:0.01798621 12:0.7310586 13:0.01798621 14:0.11920292 15:0.11920292 16:0.7310586 17:0.5 18:0.006692851 19:0.5 20:0.047425874 #
0.0074096347580902138796332678793988 1:0.006692851 2:0.00091105117 3:0.00012339458 4:0.00091105117 5:0.00033535014 6:0.00091105117 7:0.00033535014 8:0.00033535014 9:0.01798621 10:0.0024726233 11:0.26894143 12:0.00033535014 13:0.047425874 14:0.7310586 15:0.006692851 16:0.00091105117 17:0.5 18:0.99999386 19:0.11920292 20:0.01798621 #
-0.0074096347580902138796332678793988 1:0.5 2:0.01798621 3:0.047425874 4:0.047425874 5:0.006692851 6:0.01798621 7:0.01798621 8:0.99752736 9:0.006692851 10:0.26894143 11:0.047425874 12:0.01798621 13:0.26894143 14:0.047425874 15:0.006692851 16:0.7310586 17:0.5 18:0.0024726233 19:0.047425874 20:0.5 #
0.0074096347580902138796332678793988 1:0.95257413 2:0.047425874 3:0.047425874 4:0.01798621 5:0.047425874 6:0.047425874 7:0.047425874 8:0.5 9:0.01798621 10:0.7310586 11:0.7310586 12:0.047425874 13:0.5 14:0.5 15:0.047425874 16:0.26894143 17:0.7310586 18:0.01798621 19:0.11920292 20:0.88079709 #
0.0074096347580902138796332678793988 1:0.047425874 2:0.11920292 3:0.006692851 4:0.006692851 5:0.01798621 6:0.11920292 7:0.01798621 8:0.11920292 9:0.01798621 10:0.88079709 11:0.88079709 12:0.5 13:0.88079709 14:0.99330717 15:0.006692851 16:0.047425874 17:0.26894143 18:0.99330717 19:0.88079709 20:0.5 #
-0.0074096347580902138796332678793988 1:0.006692851 2:0.0024726233 3:0.00091105117 4:0.00091105117 5:0.006692851 6:0.0024726233 7:0.0024726233 8:0.00091105117 9:0.0024726233 10:0.98201376 11:0.99330717 12:0.0024726233 13:0.99330717 14:0.88079709 15:0.0024726233 16:0.0024726233 17:0.01798621 18:0.95257413 19:0.7310586 20:0.5 #
-0.0074096347580902138796332678793988 1:0.99752736 2:0.0024726233 3:0.0024726233 4:0.0024726233 5:0.006692851 6:0.006692851 7:0.0024726233 8:0.006692851 9:0.0024726233 10:0.98201376 11:0.7310586 12:0.006692851 13:0.26894143 14:0.01798621 15:0.006692851 16:0.01798621 17:0.01798621 18:0.0024726233 19:0.047425874 20:0.7310586 #
-0.0074096347580902138796332678793988 1:0.11920292 2:0.7310586 3:0.88079709 4:0.26894143 5:0.01798621 6:0.95257413 7:0.7310586 8:0.7310586 9:0.95257413 10:0.01798621 11:0.047425874 12:0.88079709 13:0.047425874 14:0.11920292 15:0.047425874 16:0.5 17:0.7310586 18:0.01798621 19:0.047425874 20:0.047425874 #
0.0074096347580902138796332678793988 1:0.11920292 2:0.006692851 3:0.006692851 4:0.0024726233 5:0.01798621 6:0.006692851 7:0.006692851 8:0.006692851 9:0.01798621 10:0.95257413 11:0.95257413 12:0.006692851 13:0.7310586 14:0.98201376 15:0.006692851 16:0.01798621 17:0.11920292 18:0.7310586 19:0.95257413 20:0.95257413 #
0.0074096347580902138796332678793988 1:0.5 2:0.047425874 3:0.11920292 4:0.01798621 5:0.047425874 6:0.047425874 7:0.01798621 8:0.047425874 9:0.11920292 10:0.7310586 11:0.95257413 12:0.047425874 13:0.88079709 14:0.95257413 15:0.11920292 16:0.047425874 17:0.7310586 18:0.88079709 19:0.7310586 20:0.7310586 #
0.0074096347580902138796332678793988 1:0.11920292 2:0.047425874 3:0.26894143 4:0.047425874 5:0.11920292 6:0.047425874 7:0.047425874 8:0.26894143 9:0.047425874 10:0.88079709 11:0.88079709 12:0.26894143 13:0.7310586 14:0.95257413 15:0.047425874 16:0.5 17:0.26894143 18:0.88079709 19:0.7310586 20:0.88079709 #
0.0074096347580902138796332678793988 1:0.5 2:0.7310586 3:0.7310586 4:0.7310586 5:0.047425874 6:0.7310586 7:0.7310586 8:0.5 9:0.88079709 10:0.5 11:0.26894143 12:0.7310586 13:0.26894143 14:0.7310586 15:0.11920292 16:0.5 17:0.5 18:0.047425874 19:0.26894143 20:0.11920292 #
-0.0074096347580902138796332678793988 1:0.26894143 2:0.95257413 3:0.7310586 4:0.88079709 5:0.01798621 6:0.88079709 7:0.7310586 8:0.26894143 9:0.5 10:0.047425874 11:0.26894143 12:0.7310586 13:0.11920292 14:0.5 15:0.047425874 16:0.7310586 17:0.5 18:0.01798621 19:0.26894143 20:0.047425874 #
-0.003461159349244534444434151509995 1:0.88079709 2:0.047425874 3:0.88079709 4:0.01798621 5:0.006692851 6:0.98201376 7:0.047425874 8:0.047425874 9:0.5 10:0.006692851 11:0.01798621 12:0.047425874 13:0.5 14:0.11920292 15:0.95257413 16:0.88079709 17:0.5 18:0.006692851 19:0.11920292 20:0.047425874 #
-0.0043760368676166588874920648777334 1:0.95257413 2:0.047425874 3:0.047425874 4:0.047425874 5:0.26894143 6:0.11920292 7:0.11920292 8:0.11920292 9:0.047425874 10:0.95257413 11:0.7310586 12:0.11920292 13:0.5 14:0.26894143 15:0.11920292 16:0.26894143 17:0.26894143 18:0.047425874 19:0.11920292 20:0.95257413 #
0.0074096347580902138796332678793988 1:0.26894143 2:0.01798621 3:0.01798621 4:0.01798621 5:0.88079709 6:0.5 7:0.01798621 8:0.01798621 9:0.26894143 10:0.5 11:0.7310586 12:0.047425874 13:0.7310586 14:0.95257413 15:0.11920292 16:0.11920292 17:0.7310586 18:0.99908894 19:0.95257413 20:0.7310586 #
0.0074096347580902138796332678793988 1:0.26894143 2:0.98201376 3:0.95257413 4:0.7310586 5:0.01798621 6:0.88079709 7:0.5 8:0.047425874 9:0.88079709 10:0.006692851 11:0.006692851 12:0.88079709 13:0.047425874 14:0.047425874 15:0.006692851 16:0.11920292 17:0.5 18:0.11920292 19:0.88079709 20:0.01798621 #
-0.0074096347580902138796332678793988 1:0.7310586 2:0.01798621 3:0.047425874 4:0.01798621 5:0.7310586 6:0.11920292 7:0.047425874 8:0.11920292 9:0.047425874 10:0.7310586 11:0.88079709 12:0.01798621 13:0.88079709 14:0.95257413 15:0.01798621 16:0.11920292 17:0.5 18:0.95257413 19:0.26894143 20:0.7310586 #
0.0074096347580902138796332678793988 1:0.11920292 2:0.95257413 3:0.88079709 4:0.95257413 5:0.0024726233 6:0.95257413 7:0.88079709 8:0.01798621 9:0.5 10:0.01798621 11:0.006692851 12:0.7310586 13:0.006692851 14:0.047425874 15:0.006692851 16:0.26894143 17:0.5 18:0.0024726233 19:0.5 20:0.01798621 #
0.0074096347580902138796332678793988 1:0.047425874 2:0.88079709 3:0.88079709 4:0.88079709 5:0.006692851 6:0.7310586 7:0.7310586 8:0.047425874 9:0.11920292 10:0.01798621 11:0.01798621 12:0.95257413 13:0.01798621 14:0.006692851 15:0.01798621 16:0.88079709 17:0.88079709 18:0.0024726233 19:0.01798621 20:0.047425874 #
-0.0048973232125829888397583466996821 1:0.7310586 2:0.5 3:0.88079709 4:0.88079709 5:0.047425874 6:0.5 7:0.88079709 8:0.26894143 9:0.5 10:0.047425874 11:0.11920292 12:0.5 13:0.26894143 14:0.11920292 15:0.11920292 16:0.88079709 17:0.7310586 18:0.01798621 19:0.11920292 20:0.047425874 #
0.0074096347580902138796332678793988 1:0.5 2:0.047425874 3:0.5 4:0.047425874 5:0.11920292 6:0.11920292 7:0.047425874 8:0.047425874 9:0.047425874 10:0.88079709 11:0.88079709 12:0.047425874 13:0.7310586 14:0.88079709 15:0.047425874 16:0.26894143 17:0.5 18:0.95257413 19:0.26894143 20:0.88079709 #
0.0074096347580902138796332678793988 1:0.11920292 2:0.006692851 3:0.006692851 4:0.006692851 5:0.01798621 6:0.01798621 7:0.006692851 8:0.006692851 9:0.01798621 10:0.95257413 11:0.95257413 12:0.01798621 13:0.88079709 14:0.95257413 15:0.006692851 16:0.11920292 17:0.5 18:0.98201376 19:0.5 20:0.88079709 #
0.0074096347580902138796332678793988 1:0.5 2:0.047425874 3:0.047425874 4:0.11920292 5:0.01798621 6:0.26894143 7:0.01798621 8:0.047425874 9:0.26894143 10:0.88079709 11:0.88079709 12:0.01798621 13:0.98201376 14:0.7310586 15:0.5 16:0.11920292 17:0.26894143 18:0.88079709 19:0.26894143 20:0.88079709 #
-0.0074096347580902138796332678793988 1:0.88079709 2:0.047425874 3:0.047425874 4:0.01798621 5:0.047425874 6:0.26894143 7:0.047425874 8:0.7310586 9:0.11920292 10:0.7310586 11:0.88079709 12:0.047425874 13:0.7310586 14:0.7310586 15:0.01798621 16:0.26894143 17:0.26894143 18:0.7310586 19:0.5 20:0.7310586 #
-0.0074096347580902138796332678793988 1:0.5 2:0.11920292 3:0.26894143 4:0.26894143 5:0.047425874 6:0.26894143 7:0.047425874 8:0.7310586 9:0.26894143 10:0.7310586 11:0.88079709 12:0.26894143 13:0.95257413 14:0.95257413 15:0.01798621 16:0.11920292 17:0.11920292 18:0.88079709 19:0.26894143 20:0.7310586 #
-0.0074096347580902138796332678793988 1:0.7310586 2:0.047425874 3:0.047425874 4:0.01798621 5:0.047425874 6:0.11920292 7:0.047425874 8:0.11920292 9:0.047425874 10:0.7310586 11:0.88079709 12:0.047425874 13:0.95257413 14:0.7310586 15:0.01798621 16:0.26894143 17:0.7310586 18:0.99752736 19:0.5 20:0.5 #
0.0074096347580902138796332678793988 1:0.11920292 2:0.95257413 3:0.98201376 4:0.88079709 5:0.006692851 6:0.7310586 7:0.88079709 8:0.01798621 9:0.5 10:0.006692851 11:0.01798621 12:0.7310586 13:0.047425874 14:0.01798621 15:0.01798621 16:0.5 17:0.88079709 18:0.0024726233 19:0.047425874 20:0.047425874 #
0.0074096347580902138796332678793988 1:0.5 2:0.26894143 3:0.5 4:0.26894143 5:0.047425874 6:0.26894143 7:0.26894143 8:0.26894143 9:0.11920292 10:0.7310586 11:0.7310586 12:0.26894143 13:0.7310586 14:0.88079709 15:0.047425874 16:0.5 17:0.26894143 18:0.98201376 19:0.7310586 20:0.5 #
-0.0074096347580902138796332678793988 1:0.95257413 2:0.7310586 3:0.7310586 4:0.5 5:0.01798621 6:0.5 7:0.5 8:0.5 9:0.5 10:0.047425874 11:0.047425874 12:0.11920292 13:0.11920292 14:0.01798621 15:0.047425874 16:0.88079709 17:0.5 18:0.006692851 19:0.047425874 20:0.047425874 #
-0.0074096347580902138796332678793988 1:0.26894143 2:0.95257413 3:0.98201376 4:0.047425874 5:0.006692851 6:0.047425874 7:0.047425874 8:0.01798621 9:0.26894143 10:0.006692851 11:0.006692851 12:0.5 13:0.006692851 14:0.0024726233 15:0.006692851 16:0.95257413 17:0.98201376 18:0.0024726233 19:0.006692851 20:0.006692851 #
0.0074096347580902138796332678793988 1:0.01798621 2:0.01798621 3:0.047425874 4:0.88079709 5:0.006692851 6:0.047425874 7:0.5 8:0.006692851 9:0.7310586 10:0.047425874 11:0.11920292 12:0.01798621 13:0.047425874 14:0.99752736 15:0.006692851 16:0.11920292 17:0.11920292 18:0.98201376 19:0.99330717 20:0.047425874 #
0.0074096347580902138796332678793988 1:0.11920292 2:0.26894143 3:0.5 4:0.95257413 5:0.006692851 6:0.11920292 7:0.26894143 8:0.01798621 9:0.88079709 10:0.047425874 11:0.047425874 12:0.11920292 13:0.047425874 14:0.7310586 15:0.01798621 16:0.26894143 17:0.26894143 18:0.99752736 19:0.99752736 20:0.047425874 #
0.0074096347580902138796332678793988 1:0.01798621 2:0.047425874 3:0.7310586 4:0.95257413 5:0.0024726233 6:0.047425874 7:0.047425874 8:0.01798621 9:0.88079709 10:0.26894143 11:0.26894143 12:0.006692851 13:0.047425874 14:0.95257413 15:0.0024726233 16:0.11920292 17:0.047425874 18:0.99752736 19:0.99752736 20:0.047425874 #
-0.0074096347580902138796332678793988 1:0.006692851 2:0.0024726233 3:0.00091105117 4:0.00091105117 5:0.0024726233 6:0.00091105117 7:0.00091105117 8:0.00091105117 9:0.047425874 10:0.047425874 11:0.7310586 12:0.00091105117 13:0.11920292 14:0.99966466 15:0.01798621 16:0.0024726233 17:0.006692851 18:0.26894143 19:0.98201376 20:0.047425874 #
0.0074096347580902138796332678793988 1:0.95257413 2:0.11920292 3:0.5 4:0.11920292 5:0.01798621 6:0.26894143 7:0.5 8:0.88079709 9:0.5 10:0.047425874 11:0.26894143 12:0.11920292 13:0.11920292 14:0.26894143 15:0.047425874 16:0.5 17:0.26894143 18:0.11920292 19:0.11920292 20:0.7310586 #
0.0074096347580902138796332678793988 1:0.11920292 2:0.006692851 3:0.0024726233 4:0.0024726233 5:0.01798621 6:0.006692851 7:0.0024726233 8:0.0024726233 9:0.0024726233 10:0.88079709 11:0.99330717 12:0.006692851 13:0.5 14:0.5 15:0.0024726233 16:0.006692851 17:0.01798621 18:0.006692851 19:0.01798621 20:0.95257413 #
0.0074096347580902138796332678793988 1:0.7310586 2:0.047425874 3:0.11920292 4:0.047425874 5:0.047425874 6:0.047425874 7:0.047425874 8:0.88079709 9:0.01798621 10:0.88079709 11:0.7310586 12:0.047425874 13:0.5 14:0.7310586 15:0.7310586 16:0.26894143 17:0.88079709 18:0.01798621 19:0.11920292 20:0.7310586 #
0.0074096347580902138796332678793988 1:0.5 2:0.006692851 3:0.0024726233 4:0.0024726233 5:0.01798621 6:0.006692851 7:0.006692851 8:0.0024726233 9:0.0024726233 10:0.7310586 11:0.98201376 12:0.006692851 13:0.5 14:0.5 15:0.006692851 16:0.01798621 17:0.5 18:0.006692851 19:0.01798621 20:0.99330717 #
-0.0074096347580902138796332678793988 1:0.88079709 2:0.01798621 3:0.01798621 4:0.01798621 5:0.26894143 6:0.047425874 7:0.01798621 8:0.5 9:0.11920292 10:0.88079709 11:0.88079709 12:0.047425874 13:0.7310586 14:0.5 15:0.11920292 16:0.7310586 17:0.5 18:0.01798621 19:0.047425874 20:0.88079709 #
0.0074096347580902138796332678793988 1:0.5 2:0.26894143 3:0.95257413 4:0.88079709 5:0.01798621 6:0.5 7:0.5 8:0.7310586 9:0.88079709 10:0.047425874 11:0.11920292 12:0.5 13:0.5 14:0.047425874 15:0.7310586 16:0.5 17:0.5 18:0.88079709 19:0.7310586 20:0.047425874 #
0.0074096347580902138796332678793988 1:0.7310586 2:0.7310586 3:0.5 4:0.7310586 5:0.006692851 6:0.95257413 7:0.26894143 8:0.88079709 9:0.88079709 10:0.006692851 11:0.01798621 12:0.26894143 13:0.01798621 14:0.11920292 15:0.11920292 16:0.7310586 17:0.26894143 18:0.88079709 19:0.26894143 20:0.11920292 #
-0.0074096347580902138796332678793988 1:0.26894143 2:0.0024726233 3:0.00091105117 4:0.00033535014 5:0.00091105117 6:0.0024726233 7:0.00091105117 8:0.00091105117 9:0.047425874 10:0.26894143 11:0.01798621 12:0.00091105117 13:0.11920292 14:0.99330717 15:0.00091105117 16:0.0024726233 17:0.0024726233 18:0.5 19:0.99987662 20:0.26894143 #
0.0074096347580902138796332678793988 1:0.7310586 2:0.7310586 3:0.7310586 4:0.88079709 5:0.01798621 6:0.7310586 7:0.88079709 8:0.5 9:0.5 10:0.047425874 11:0.11920292 12:0.26894143 13:0.11920292 14:0.11920292 15:0.047425874 16:0.88079709 17:0.5 18:0.006692851 19:0.01798621 20:0.11920292 #
0.0074096347580902138796332678793988 1:0.7310586 2:0.01798621 3:0.01798621 4:0.11920292 5:0.047425874 6:0.01798621 7:0.01798621 8:0.11920292 9:0.01798621 10:0.88079709 11:0.95257413 12:0.01798621 13:0.88079709 14:0.7310586 15:0.01798621 16:0.11920292 17:0.5 18:0.047425874 19:0.7310586 20:0.95257413 #
0.0074096347580902138796332678793988 1:0.88079709 2:0.047425874 3:0.047425874 4:0.047425874 5:0.11920292 6:0.047425874 7:0.047425874 8:0.11920292 9:0.047425874 10:0.88079709 11:0.7310586 12:0.047425874 13:0.7310586 14:0.88079709 15:0.047425874 16:0.26894143 17:0.7310586 18:0.11920292 19:0.5 20:0.88079709 #
-0.0074096347580902138796332678793988 1:0.5 2:0.006692851 3:0.006692851 4:0.0024726233 5:0.01798621 6:0.01798621 7:0.006692851 8:0.006692851 9:0.01798621 10:0.88079709 11:0.7310586 12:0.006692851 13:0.88079709 14:0.98201376 15:0.006692851 16:0.01798621 17:0.047425874 18:0.11920292 19:0.98201376 20:0.98201376 #
-0.0074096347580902138796332678793988 1:0.11920292 2:0.88079709 3:0.88079709 4:0.7310586 5:0.01798621 6:0.7310586 7:0.88079709 8:0.26894143 9:0.11920292 10:0.047425874 11:0.5 12:0.7310586 13:0.11920292 14:0.047425874 15:0.11920292 16:0.88079709 17:0.26894143 18:0.11920292 19:0.11920292 20:0.047425874 #
0.0074096347580902138796332678793988 1:0.98201376 2:0.006692851 3:0.01798621 4:0.01798621 5:0.01798621 6:0.01798621 7:0.01798621 8:0.99330717 9:0.006692851 10:0.01798621 11:0.006692851 12:0.01798621 13:0.01798621 14:0.006692851 15:0.01798621 16:0.7310586 17:0.11920292 18:0.0024726233 19:0.006692851 20:0.11920292 #
0.0074096347580902138796332678793988 1:0.26894143 2:0.01798621 3:0.01798621 4:0.006692851 5:0.047425874 6:0.047425874 7:0.01798621 8:0.11920292 9:0.01798621 10:0.95257413 11:0.88079709 12:0.01798621 13:0.95257413 14:0.88079709 15:0.01798621 16:0.047425874 17:0.11920292 18:0.7310586 19:0.7310586 20:0.95257413 #
-0.0074096347580902138796332678793988 1:0.047425874 2:0.047425874 3:0.11920292 4:0.01798621 5:0.047425874 6:0.047425874 7:0.01798621 8:0.11920292 9:0.5 10:0.95257413 11:0.95257413 12:0.047425874 13:0.88079709 14:0.98201376 15:0.01798621 16:0.047425874 17:0.11920292 18:0.95257413 19:0.5 20:0.7310586 #
-0.0074096347580902138796332678793988 1:0.047425874 2:0.006692851 3:0.047425874 4:0.006692851 5:0.7310586 6:0.01798621 7:0.006692851 8:0.01798621 9:0.7310586 10:0.95257413 11:0.5 12:0.01798621 13:0.98201376 14:0.7310586 15:0.006692851 16:0.01798621 17:0.5 18:0.5 19:0.99752736 20:0.7310586 #
0.0074096347580902138796332678793988 1:0.26894143 2:0.5 3:0.88079709 4:0.88079709 5:0.01798621 6:0.88079709 7:0.7310586 8:0.7310586 9:0.26894143 10:0.11920292 11:0.11920292 12:0.26894143 13:0.11920292 14:0.047425874 15:0.047425874 16:0.88079709 17:0.7310586 18:0.95257413 19:0.047425874 20:0.11920292 #
-0.0074096347580902138796332678793988 1:0.047425874 2:0.26894143 3:0.26894143 4:0.01798621 5:0.01798621 6:0.26894143 7:0.11920292 8:0.26894143 9:0.5 10:0.7310586 11:0.88079709 12:0.047425874 13:0.26894143 14:0.99330717 15:0.006692851 16:0.047425874 17:0.11920292 18:0.88079709 19:0.95257413 20:0.7310586 #
0.0074096347580902138796332678793988 1:0.5 2:0.5 3:0.047425874 4:0.047425874 5:0.0024726233 6:0.11920292 7:0.11920292 8:0.7310586 9:0.047425874 10:0.006692851 11:0.01798621 12:0.006692851 13:0.01798621 14:0.99752736 15:0.0024726233 16:0.88079709 17:0.047425874 18:0.01798621 19:0.98201376 20:0.047425874 #
0.0074096347580902138796332678793988 1:0.5 2:0.006692851 3:0.0024726233 4:0.0024726233 5:0.01798621 6:0.006692851 7:0.0024726233 8:0.0024726233 9:0.0024726233 10:0.95257413 11:0.99330717 12:0.006692851 13:0.88079709 14:0.5 15:0.0024726233 16:0.01798621 17:0.26894143 18:0.7310586 19:0.01798621 20:0.88079709 #
0.0074096347580902138796332678793988 1:0.5 2:0.88079709 3:0.7310586 4:0.7310586 5:0.047425874 6:0.95257413 7:0.88079709 8:0.047425874 9:0.7310586 10:0.047425874 11:0.047425874 12:0.95257413 13:0.11920292 14:0.047425874 15:0.047425874 16:0.26894143 17:0.7310586 18:0.88079709 19:0.5 20:0.047425874 #
0.0074096347580902138796332678793988 1:0.00091105117 2:0.00033535014 3:0.006692851 4:0.00033535014 5:0.00091105117 6:0.00091105117 7:0.00033535014 8:0.00091105117 9:0.006692851 10:0.5 11:0.7310586 12:0.00033535014 13:0.26894143 14:0.99330717 15:0.00033535014 16:0.00091105117 17:0.01798621 18:0.99998331 19:0.95257413 20:0.5 #
-0.0074096347580902138796332678793988 1:0.26894143 2:0.006692851 3:0.006692851 4:0.0024726233 5:0.047425874 6:0.01798621 7:0.006692851 8:0.0024726233 9:0.5 10:0.5 11:0.98201376 12:0.006692851 13:0.88079709 14:0.7310586 15:0.11920292 16:0.01798621 17:0.047425874 18:0.7310586 19:0.98201376 20:0.88079709 #
-0.0074096347580902138796332678793988 1:0.95257413 2:0.006692851 3:0.006692851 4:0.0024726233 5:0.047425874 6:0.01798621 7:0.006692851 8:0.01798621 9:0.5 10:0.26894143 11:0.7310586 12:0.006692851 13:0.5 14:0.95257413 15:0.01798621 16:0.047425874 17:0.01798621 18:0.95257413 19:0.99752736 20:0.5 #
0.0074096347580902138796332678793988 1:0.7310586 2:0.006692851 3:0.006692851 4:0.0024726233 5:0.047425874 6:0.006692851 7:0.006692851 8:0.01798621 9:0.006692851 10:0.7310586 11:0.98201376 12:0.006692851 13:0.5 14:0.95257413 15:0.006692851 16:0.11920292 17:0.5 18:0.01798621 19:0.047425874 20:0.7310586 #
-0.0074096347580902138796332678793988 1:0.7310586 2:0.006692851 3:0.01798621 4:0.0024726233 5:0.01798621 6:0.006692851 7:0.006692851 8:0.0024726233 9:0.0024726233 10:0.88079709 11:0.26894143 12:0.006692851 13:0.5 14:0.01798621 15:0.006692851 16:0.01798621 17:0.88079709 18:0.0024726233 19:0.006692851 20:0.99752736 #
0.0074096347580902138796332678793988 1:0.98201376 2:0.006692851 3:0.006692851 4:0.0024726233 5:0.01798621 6:0.006692851 7:0.006692851 8:0.047425874 9:0.0024726233 10:0.5 11:0.7310586 12:0.006692851 13:0.047425874 14:0.01798621 15:0.006692851 16:0.047425874 17:0.7310586 18:0.88079709 19:0.01798621 20:0.98201376 #
0.0074096347580902138796332678793988 1:0.26894143 2:0.047425874 3:0.01798621 4:0.0024726233 5:0.006692851 6:0.047425874 7:0.006692851 8:0.26894143 9:0.11920292 10:0.26894143 11:0.88079709 12:0.006692851 13:0.7310586 14:0.88079709 15:0.0024726233 16:0.11920292 17:0.5 18:0.5 19:0.99908894 20:0.5 #
-0.0074096347580902138796332678793988 1:0.11920292 2:0.006692851 3:0.0024726233 4:0.0024726233 5:0.006692851 6:0.006692851 7:0.0024726233 8:0.006692851 9:0.006692851 10:0.95257413 11:0.95257413 12:0.0024726233 13:0.5 14:0.99330717 15:0.006692851 16:0.006692851 17:0.01798621 18:0.99908894 19:0.7310586 20:0.7310586 #
-0.0074096347580902138796332678793988 1:0.11920292 2:0.0024726233 3:0.006692851 4:0.00091105117 5:0.01798621 6:0.006692851 7:0.006692851 8:0.00091105117 9:0.047425874 10:0.7310586 11:0.95257413 12:0.006692851 13:0.5 14:0.88079709 15:0.00091105117 16:0.047425874 17:0.047425874 18:0.99908894 19:0.99752736 20:0.7310586 #
0.0074096347580902138796332678793988 1:0.11920292 2:0.88079709 3:0.5 4:0.88079709 5:0.01798621 6:0.7310586 7:0.95257413 8:0.047425874 9:0.7310586 10:0.047425874 11:0.047425874 12:0.5 13:0.047425874 14:0.047425874 15:0.26894143 16:0.5 17:0.7310586 18:0.047425874 19:0.7310586 20:0.047425874 #
0.0074096347580902138796332678793988 1:0.5 2:0.7310586 3:0.7310586 4:0.7310586 5:0.26894143 6:0.5 7:0.7310586 8:0.5 9:0.5 10:0.5 11:0.26894143 12:0.5 13:0.26894143 14:0.26894143 15:0.26894143 16:0.7310586 17:0.7310586 18:0.5 19:0.7310586 20:0.26894143 #
0.0074096347580902138796332678793988 1:0.26894143 2:0.26894143 3:0.88079709 4:0.95257413 5:0.01798621 6:0.88079709 7:0.95257413 8:0.047425874 9:0.7310586 10:0.047425874 11:0.047425874 12:0.7310586 13:0.11920292 14:0.01798621 15:0.047425874 16:0.26894143 17:0.26894143 18:0.01798621 19:0.7310586 20:0.5 #
-0.0074096347580902138796332678793988 1:0.11920292 2:0.0024726233 3:0.0024726233 4:0.00091105117 5:0.006692851 6:0.0024726233 7:0.01798621 8:0.0024726233 9:0.0024726233 10:0.26894143 11:0.99330717 12:0.0024726233 13:0.5 14:0.11920292 15:0.006692851 16:0.01798621 17:0.26894143 18:0.0024726233 19:0.01798621 20:0.99330717 #
0.0074096347580902138796332678793988 1:0.047425874 2:0.98201376 3:0.99908894 4:0.26894143 5:0.006692851 6:0.11920292 7:0.047425874 8:0.5 9:0.88079709 10:0.006692851 11:0.006692851 12:0.11920292 13:0.01798621 14:0.006692851 15:0.01798621 16:0.11920292 17:0.11920292 18:0.006692851 19:0.01798621 20:0.047425874 #
-0.0074096347580902138796332678793988 1:0.26894143 2:0.98201376 3:0.88079709 4:0.95257413 5:0.006692851 6:0.7310586 7:0.7310586 8:0.11920292 9:0.5 10:0.26894143 11:0.047425874 12:0.7310586 13:0.047425874 14:0.047425874 15:0.01798621 16:0.26894143 17:0.26894143 18:0.006692851 19:0.5 20:0.11920292 #
-0.0074096347580902138796332678793988 1:0.01798621 2:0.0024726233 3:0.047425874 4:0.006692851 5:0.0024726233 6:0.0024726233 7:0.0024726233 8:0.99966466 9:0.0024726233 10:0.01798621 11:0.00091105117 12:0.006692851 13:0.0024726233 14:0.00091105117 15:0.0024726233 16:0.01798621 17:0.006692851 18:0.0024726233 19:0.00091105117 20:0.00091105117 #
0.0074096347580902138796332678793988 1:0.26894143 2:0.26894143 3:0.98201376 4:0.88079709 5:0.006692851 6:0.5 7:0.26894143 8:0.26894143 9:0.26894143 10:0.006692851 11:0.01798621 12:0.26894143 13:0.047425874 14:0.01798621 15:0.01798621 16:0.98201376 17:0.7310586 18:0.0024726233 19:0.047425874 20:0.01798621 #
0.0074096347580902138796332678793988 1:0.006692851 2:0.006692851 3:0.0024726233 4:0.0024726233 5:0.006692851 6:0.006692851 7:0.006692851 8:0.0024726233 9:0.11920292 10:0.88079709 11:0.26894143 12:0.006692851 13:0.26894143 14:0.95257413 15:0.0024726233 16:0.006692851 17:0.01798621 18:0.98201376 19:0.99966466 20:0.7310586 #
-0.0074096347580902138796332678793988 1:0.047425874 2:0.006692851 3:0.01798621 4:0.0024726233 5:0.006692851 6:0.047425874 7:0.006692851 8:0.0024726233 9:0.047425874 10:0.7310586 11:0.88079709 12:0.006692851 13:0.7310586 14:0.99330717 15:0.047425874 16:0.006692851 17:0.01798621 18:0.98201376 19:0.99330717 20:0.7310586 #
-0.0074096347580902138796332678793988 1:0.01798621 2:0.0024726233 3:0.00091105117 4:0.00033535014 5:0.0024726233 6:0.0024726233 7:0.00091105117 8:0.00091105117 9:0.006692851 10:0.95257413 11:0.98201376 12:0.0024726233 13:0.5 14:0.98201376 15:0.00091105117 16:0.0024726233 17:0.006692851 18:0.99752736 19:0.7310586 20:0.7310586 #
0.0074096347580902138796332678793988 1:0.26894143 2:0.95257413 3:0.7310586 4:0.95257413 5:0.01798621 6:0.5 7:0.7310586 8:0.5 9:0.88079709 10:0.01798621 11:0.01798621 12:0.88079709 13:0.047425874 14:0.11920292 15:0.047425874 16:0.5 17:0.26894143 18:0.01798621 19:0.5 20:0.11920292 #
0.0074096347580902138796332678793988 1:0.047425874 2:0.0024726233 3:0.11920292 4:0.047425874 5:0.11920292 6:0.0024726233 7:0.0024726233 8:0.99908894 9:0.0024726233 10:0.00033535014 11:0.00033535014 12:0.006692851 13:0.00091105117 14:0.00091105117 15:0.0024726233 16:0.047425874 17:0.01798621 18:0.0024726233 19:0.00091105117 20:0.00091105117 #
0.0074096347580902138796332678793988 1:0.11920292 2:0.01798621 3:0.006692851 4:0.0024726233 5:0.01798621 6:0.01798621 7:0.006692851 8:0.006692851 9:0.01798621 10:0.88079709 11:0.95257413 12:0.11920292 13:0.7310586 14:0.98201376 15:0.5 16:0.01798621 17:0.01798621 18:0.99908894 19:0.5 20:0.5 #
0.0074096347580902138796332678793988 1:0.5 2:0.01798621 3:0.006692851 4:0.006692851 5:0.047425874 6:0.01798621 7:0.01798621 8:0.047425874 9:0.006692851 10:0.88079709 11:0.95257413 12:0.047425874 13:0.26894143 14:0.88079709 15:0.006692851 16:0.047425874 17:0.5 18:0.26894143 19:0.047425874 20:0.95257413 #
0.0074096347580902138796332678793988 1:0.26894143 2:0.7310586 3:0.88079709 4:0.7310586 5:0.01798621 6:0.88079709 7:0.88079709 8:0.11920292 9:0.26894143 10:0.11920292 11:0.11920292 12:0.7310586 13:0.26894143 14:0.047425874 15:0.26894143 16:0.7310586 17:0.88079709 18:0.006692851 19:0.11920292 20:0.26894143 #
0.0074096347580902138796332678793988 1:0.26894143 2:0.88079709 3:0.88079709 4:0.5 5:0.26894143 6:0.88079709 7:0.5 8:0.047425874 9:0.88079709 10:0.26894143 11:0.26894143 12:0.7310586 13:0.26894143 14:0.5 15:0.047425874 16:0.7310586 17:0.5 18:0.01798621 19:0.5 20:0.11920292 #
0.0074096347580902138796332678793988 1:0.26894143 2:0.26894143 3:0.047425874 4:0.01798621 5:0.11920292 6:0.047425874 7:0.047425874 8:0.01798621 9:0.11920292 10:0.7310586 11:0.88079709 12:0.047425874 13:0.95257413 14:0.95257413 15:0.047425874 16:0.11920292 17:0.5 18:0.95257413 19:0.88079709 20:0.95257413 #
0.0074096347580902138796332678793988 1:0.11920292 2:0.98201376 3:0.7310586 4:0.11920292 5:0.047425874 6:0.88079709 7:0.7310586 8:0.047425874 9:0.7310586 10:0.11920292 11:0.26894143 12:0.88079709 13:0.11920292 14:0.047425874 15:0.26894143 16:0.11920292 17:0.5 18:0.5 19:0.11920292 20:0.5 #
-0.0074096347580902138796332678793988 1:0.047425874 2:0.88079709 3:0.95257413 4:0.5 5:0.01798621 6:0.95257413 7:0.26894143 8:0.01798621 9:0.7310586 10:0.047425874 11:0.01798621 12:0.7310586 13:0.5 14:0.01798621 15:0.01798621 16:0.7310586 17:0.95257413 18:0.006692851 19:0.11920292 20:0.047425874 #
-0.0074096347580902138796332678793988 1:0.047425874 2:0.95257413 3:0.7310586 4:0.26894143 5:0.006692851 6:0.95257413 7:0.7310586 8:0.01798621 9:0.88079709 10:0.01798621 11:0.01798621 12:0.95257413 13:0.047425874 14:0.006692851 15:0.01798621 16:0.26894143 17:0.95257413 18:0.88079709 19:0.01798621 20:0.01798621 #
-0.0074096347580902138796332678793988 1:0.26894143 2:0.11920292 3:0.5 4:0.26894143 5:0.006692851 6:0.11920292 7:0.11920292 8:0.95257413 9:0.047425874 10:0.01798621 11:0.01798621 12:0.95257413 13:0.01798621 14:0.006692851 15:0.047425874 16:0.5 17:0.99330717 18:0.0024726233 19:0.01798621 20:0.047425874 #
-0.0074096347580902138796332678793988 1:0.26894143 2:0.047425874 3:0.047425874 4:0.11920292 5:0.11920292 6:0.047425874 7:0.047425874 8:0.11920292 9:0.047425874 10:0.95257413 11:0.5 12:0.047425874 13:0.7310586 14:0.95257413 15:0.047425874 16:0.11920292 17:0.5 18:0.88079709 19:0.7310586 20:0.95257413 #
0.0074096347580902138796332678793988 1:0.047425874 2:0.99330717 3:0.95257413 4:0.7310586 5:0.0024726233 6:0.7310586 7:0.88079709 8:0.047425874 9:0.88079709 10:0.01798621 11:0.047425874 12:0.7310586 13:0.11920292 14:0.01798621 15:0.006692851 16:0.26894143 17:0.5 18:0.0024726233 19:0.047425874 20:0.01798621 #
-0.0074096347580902138796332678793988 1:0.047425874 2:0.006692851 3:0.0024726233 4:0.0024726233 5:0.01798621 6:0.006692851 7:0.006692851 8:0.11920292 9:0.0024726233 10:0.7310586 11:0.99330717 12:0.006692851 13:0.7310586 14:0.26894143 15:0.006692851 16:0.01798621 17:0.11920292 18:0.006692851 19:0.01798621 20:0.88079709 #
0.0074096347580902138796332678793988 1:0.7310586 2:0.5 3:0.7310586 4:0.26894143 5:0.5 6:0.7310586 7:0.26894143 8:0.26894143 9:0.7310586 10:0.26894143 11:0.11920292 12:0.7310586 13:0.26894143 14:0.11920292 15:0.7310586 16:0.7310586 17:0.7310586 18:0.5 19:0.26894143 20:0.7310586 #
-0.0074096347580902138796332678793988 1:0.11920292 2:0.88079709 3:0.99752736 4:0.7310586 5:0.006692851 6:0.7310586 7:0.7310586 8:0.047425874 9:0.11920292 10:0.047425874 11:0.01798621 12:0.5 13:0.11920292 14:0.006692851 15:0.01798621 16:0.5 17:0.88079709 18:0.006692851 19:0.01798621 20:0.11920292 #
0.0074096347580902138796332678793988 1:0.11920292 2:0.88079709 3:0.88079709 4:0.98201376 5:0.006692851 6:0.98201376 7:0.7310586 8:0.11920292 9:0.5 10:0.006692851 11:0.01798621 12:0.7310586 13:0.047425874 14:0.0024726233 15:0.01798621 16:0.5 17:0.26894143 18:0.0024726233 19:0.006692851 20:0.006692851 #
0.0074096347580902138796332678793988 1:0.26894143 2:0.95257413 3:0.7310586 4:0.7310586 5:0.047425874 6:0.88079709 7:0.98201376 8:0.26894143 9:0.5 10:0.01798621 11:0.01798621 12:0.7310586 13:0.11920292 14:0.006692851 15:0.01798621 16:0.7310586 17:0.26894143 18:0.006692851 19:0.047425874 20:0.01798621 #
-0.0074096347580902138796332678793988 1:0.006692851 2:0.006692851 3:0.0024726233 4:0.00091105117 5:0.006692851 6:0.0024726233 7:0.0024726233 8:0.00091105117 9:0.047425874 10:0.047425874 11:0.5 12:0.0024726233 13:0.047425874 14:0.95257413 15:0.00091105117 16:0.006692851 17:0.11920292 18:0.26894143 19:0.99987662 20:0.5 #
-0.0074096347580902138796332678793988 1:0.047425874 2:0.01798621 3:0.01798621 4:0.006692851 5:0.047425874 6:0.01798621 7:0.01798621 8:0.01798621 9:0.11920292 10:0.26894143 11:0.7310586 12:0.01798621 13:0.26894143 14:0.99908894 15:0.006692851 16:0.047425874 17:0.047425874 18:0.5 19:0.88079709 20:0.11920292 #
-0.0074096347580902138796332678793988 1:0.11920292 2:0.26894143 3:0.047425874 4:0.01798621 5:0.047425874 6:0.26894143 7:0.047425874 8:0.006692851 9:0.98201376 10:0.88079709 11:0.88079709 12:0.047425874 13:0.5 14:0.95257413 15:0.01798621 16:0.047425874 17:0.5 18:0.26894143 19:0.95257413 20:0.88079709 #
-0.0074096347580902138796332678793988 1:0.5 2:0.047425874 3:0.11920292 4:0.11920292 5:0.01798621 6:0.01798621 7:0.047425874 8:0.047425874 9:0.01798621 10:0.7310586 11:0.95257413 12:0.01798621 13:0.88079709 14:0.7310586 15:0.26894143 16:0.26894143 17:0.7310586 18:0.99752736 19:0.5 20:0.7310586 #
0.0074096347580902138796332678793988 1:0.26894143 2:0.95257413 3:0.7310586 4:0.047425874 5:0.01798621 6:0.88079709 7:0.26894143 8:0.047425874 9:0.7310586 10:0.5 11:0.047425874 12:0.88079709 13:0.047425874 14:0.047425874 15:0.01798621 16:0.88079709 17:0.88079709 18:0.006692851 19:0.11920292 20:0.11920292 #
0.0074096347580902138796332678793988 1:0.11920292 2:0.88079709 3:0.98201376 4:0.11920292 5:0.006692851 6:0.88079709 7:0.11920292 8:0.047425874 9:0.88079709 10:0.0024726233 11:0.006692851 12:0.88079709 13:0.006692851 14:0.0024726233 15:0.01798621 16:0.98201376 17:0.11920292 18:0.0024726233 19:0.01798621 20:0.006692851 #
0.0074096347580902138796332678793988 1:0.5 2:0.88079709 3:0.88079709 4:0.7310586 5:0.047425874 6:0.88079709 7:0.26894143 8:0.5 9:0.5 10:0.01798621 11:0.047425874 12:0.7310586 13:0.26894143 14:0.01798621 15:0.047425874 16:0.95257413 17:0.5 18:0.01798621 19:0.047425874 20:0.047425874 #
0.0074096347580902138796332678793988 1:0.26894143 2:0.01798621 3:0.01798621 4:0.006692851 5:0.01798621 6:0.01798621 7:0.01798621 8:0.047425874 9:0.26894143 10:0.26894143 11:0.5 12:0.01798621 13:0.5 14:0.95257413 15:0.006692851 16:0.01798621 17:0.11920292 18:0.26894143 19:0.99966466 20:0.7310586 #
-0.0074096347580902138796332678793988 1:0.26894143 2:0.88079709 3:0.26894143 4:0.99330717 5:0.01798621 6:0.5 7:0.88079709 8:0.047425874 9:0.11920292 10:0.01798621 11:0.01798621 12:0.95257413 13:0.047425874 14:0.01798621 15:0.047425874 16:0.26894143 17:0.5 18:0.006692851 19:0.01798621 20:0.11920292 #
-0.0074096347580902138796332678793988 1:0.047425874 2:0.26894143 3:0.26894143 4:0.047425874 5:0.006692851 6:0.047425874 7:0.01798621 8:0.01798621 9:0.11920292 10:0.7310586 11:0.26894143 12:0.01798621 13:0.26894143 14:0.98201376 15:0.047425874 16:0.047425874 17:0.26894143 18:0.99995458 19:0.88079709 20:0.047425874 #
-0.0074096347580902138796332678793988 1:0.047425874 2:0.006692851 3:0.0024726233 4:0.0024726233 5:0.01798621 6:0.006692851 7:0.01798621 8:0.0024726233 9:0.006692851 10:0.5 11:0.99330717 12:0.01798621 13:0.26894143 14:0.98201376 15:0.0024726233 16:0.006692851 17:0.11920292 18:0.98201376 19:0.26894143 20:0.88079709 #
0.0074096347580902138796332678793988 1:0.11920292 2:0.95257413 3:0.88079709 4:0.7310586 5:0.0024726233 6:0.7310586 7:0.7310586 8:0.01798621 9:0.7310586 10:0.006692851 11:0.006692851 12:0.98201376 13:0.11920292 14:0.0024726233 15:0.006692851 16:0.7310586 17:0.88079709 18:0.01798621 19:0.11920292 20:0.047425874 #
-0.0074096347580902138796332678793988 1:0.26894143 2:0.11920292 3:0.047425874 4:0.047425874 5:0.11920292 6:0.11920292 7:0.11920292 8:0.047425874 9:0.11920292 10:0.88079709 11:0.7310586 12:0.11920292 13:0.88079709 14:0.88079709 15:0.11920292 16:0.26894143 17:0.26894143 18:0.7310586 19:0.99330717 20:0.7310586 #
-0.0071824374675458812003481234853552 1:0.11920292 2:0.26894143 3:0.01798621 4:0.26894143 5:0.01798621 6:0.047425874 7:0.01798621 8:0.047425874 9:0.26894143 10:0.5 11:0.98201376 12:0.5 13:0.7310586 14:0.7310586 15:0.26894143 16:0.11920292 17:0.26894143 18:0.01798621 19:0.26894143 20:0.7310586 #
-0.0051668036135547514703381111189628 1:0.11920292 2:0.26894143 3:0.99752736 4:0.047425874 5:0.7310586 6:0.01798621 7:0.01798621 8:0.047425874 9:0.047425874 10:0.006692851 11:0.0024726233 12:0.01798621 13:0.006692851 14:0.5 15:0.006692851 16:0.95257413 17:0.7310586 18:0.5 19:0.88079709 20:0.006692851 #
0.0074096347580902138796332678793988 1:0.5 2:0.5 3:0.26894143 4:0.26894143 5:0.7310586 6:0.26894143 7:0.11920292 8:0.5 9:0.11920292 10:0.7310586 11:0.7310586 12:0.26894143 13:0.88079709 14:0.7310586 15:0.047425874 16:0.26894143 17:0.26894143 18:0.88079709 19:0.7310586 20:0.7310586 #
0.0074096347580902138796332678793988 1:0.11920292 2:0.006692851 3:0.01798621 4:0.006692851 5:0.01798621 6:0.01798621 7:0.006692851 8:0.006692851 9:0.88079709 10:0.88079709 11:0.95257413 12:0.006692851 13:0.5 14:0.95257413 15:0.006692851 16:0.047425874 17:0.88079709 18:0.01798621 19:0.7310586 20:0.88079709 #
0.0074096347580902138796332678793988 1:0.11920292 2:0.7310586 3:0.5 4:0.7310586 5:0.006692851 6:0.88079709 7:0.5 8:0.11920292 9:0.11920292 10:0.047425874 11:0.047425874 12:0.88079709 13:0.047425874 14:0.11920292 15:0.98201376 16:0.26894143 17:0.26894143 18:0.01798621 19:0.95257413 20:0.01798621 #
0.0074096347580902138796332678793988 1:0.26894143 2:0.98201376 3:0.5 4:0.5 5:0.01798621 6:0.7310586 7:0.26894143 8:0.047425874 9:0.5 10:0.047425874 11:0.047425874 12:0.7310586 13:0.047425874 14:0.7310586 15:0.047425874 16:0.88079709 17:0.7310586 18:0.047425874 19:0.88079709 20:0.047425874 #
-0.0074096347580902138796332678793988 1:0.7310586 2:0.26894143 3:0.047425874 4:0.01798621 5:0.006692851 6:0.01798621 7:0.26894143 8:0.99752736 9:0.01798621 10:0.0024726233 11:0.0024726233 12:0.01798621 13:0.006692851 14:0.006692851 15:0.01798621 16:0.047425874 17:0.01798621 18:0.95257413 19:0.26894143 20:0.006692851 #
-0.0074096347580902138796332678793988 1:0.26894143 2:0.006692851 3:0.006692851 4:0.006692851 5:0.01798621 6:0.01798621 7:0.01798621 8:0.26894143 9:0.01798621 10:0.88079709 11:0.5 12:0.01798621 13:0.11920292 14:0.99752736 15:0.95257413 16:0.047425874 17:0.11920292 18:0.98201376 19:0.26894143 20:0.7310586 #
0.0074096347580902138796332678793988 1:0.5 2:0.5 3:0.5 4:0.11920292 5:0.047425874 6:0.7310586 7:0.5 8:0.5 9:0.88079709 10:0.5 11:0.5 12:0.26894143 13:0.7310586 14:0.7310586 15:0.047425874 16:0.5 17:0.5 18:0.98201376 19:0.7310586 20:0.5 #
-0.0074096347580902138796332678793988 1:0.7310586 2:0.047425874 3:0.5 4:0.88079709 5:0.01798621 6:0.26894143 7:0.7310586 8:0.95257413 9:0.88079709 10:0.11920292 11:0.11920292 12:0.047425874 13:0.047425874 14:0.26894143 15:0.11920292 16:0.7310586 17:0.26894143 18:0.5 19:0.26894143 20:0.11920292 #
-0.0074096347580902138796332678793988 1:0.7310586 2:0.006692851 3:0.0024726233 4:0.0024726233 5:0.01798621 6:0.006692851 7:0.006692851 8:0.0024726233 9:0.006692851 10:0.95257413 11:0.95257413 12:0.006692851 13:0.5 14:0.95257413 15:0.11920292 16:0.01798621 17:0.047425874 18:0.7310586 19:0.26894143 20:0.98201376 #
-0.0074096347580902138796332678793988 1:0.11920292 2:0.01798621 3:0.006692851 4:0.006692851 5:0.047425874 6:0.01798621 7:0.01798621 8:0.006692851 9:0.01798621 10:0.98201376 11:0.95257413 12:0.01798621 13:0.88079709 14:0.95257413 15:0.01798621 16:0.01798621 17:0.11920292 18:0.7310586 19:0.26894143 20:0.95257413 #
0.0074096347580902138796332678793988 1:0.5 2:0.5 3:0.7310586 4:0.5 5:0.01798621 6:0.95257413 7:0.5 8:0.5 9:0.5 10:0.047425874 11:0.11920292 12:0.7310586 13:0.11920292 14:0.11920292 15:0.047425874 16:0.7310586 17:0.88079709 18:0.5 19:0.7310586 20:0.047425874 #
-0.0074096347580902138796332678793988 1:0.11920292 2:0.11920292 3:0.26894143 4:0.11920292 5:0.01798621 6:0.26894143 7:0.047425874 8:0.11920292 9:0.88079709 10:0.5 11:0.88079709 12:0.26894143 13:0.7310586 14:0.98201376 15:0.5 16:0.26894143 17:0.7310586 18:0.95257413 19:0.7310586 20:0.26894143 #
-0.0074096347580902138796332678793988 1:0.26894143 2:0.7310586 3:0.88079709 4:0.88079709 5:0.01798621 6:0.7310586 7:0.7310586 8:0.11920292 9:0.11920292 10:0.11920292 11:0.047425874 12:0.5 13:0.047425874 14:0.047425874 15:0.047425874 16:0.88079709 17:0.95257413 18:0.006692851 19:0.047425874 20:0.5 #
-0.0074096347580902138796332678793988 1:0.95257413 2:0.047425874 3:0.11920292 4:0.11920292 5:0.26894143 6:0.5 7:0.11920292 8:0.5 9:0.047425874 10:0.26894143 11:0.7310586 12:0.11920292 13:0.88079709 14:0.5 15:0.26894143 16:0.5 17:0.5 18:0.047425874 19:0.11920292 20:0.7310586 #
-0.0074096347580902138796332678793988 1:0.11920292 2:0.00091105117 3:0.00091105117 4:0.00033535014 5:0.0024726233 6:0.0024726233 7:0.00091105117 8:0.00091105117 9:0.0024726233 10:0.98201376 11:0.88079709 12:0.00091105117 13:0.7310586 14:0.95257413 15:0.047425874 16:0.0024726233 17:0.047425874 18:0.99987662 19:0.26894143 20:0.88079709 #
-0.0074096347580902138796332678793988 1:0.5 2:0.01798621 3:0.0024726233 4:0.0024726233 5:0.01798621 6:0.006692851 7:0.006692851 8:0.11920292 9:0.047425874 10:0.95257413 11:0.98201376 12:0.006692851 13:0.5 14:0.5 15:0.047425874 16:0.01798621 17:0.047425874 18:0.98201376 19:0.7310586 20:0.88079709 #
0.0074096347580902138796332678793988 1:0.11920292 2:0.7310586 3:0.7310586 4:0.7310586 5:0.01798621 6:0.7310586 7:0.88079709 8:0.047425874 9:0.26894143 10:0.047425874 11:0.047425874 12:0.88079709 13:0.26894143 14:0.26894143 15:0.01798621 16:0.88079709 17:0.95257413 18:0.047425874 19:0.01798621 20:0.047425874 #
0.0074096347580902138796332678793988 1:0.5 2:0.5 3:0.88079709 4:0.88079709 5:0.006692851 6:0.88079709 7:0.7310586 8:0.5 9:0.5 10:0.006692851 11:0.01798621 12:0.11920292 13:0.01798621 14:0.006692851 15:0.01798621 16:0.98201376 17:0.88079709 18:0.0024726233 19:0.01798621 20:0.047425874 #
0.0074096347580902138796332678793988 1:0.11920292 2:0.11920292 3:0.88079709 4:0.11920292 5:0.01798621 6:0.7310586 7:0.7310586 8:0.26894143 9:0.5 10:0.26894143 11:0.95257413 12:0.5 13:0.26894143 14:0.5 15:0.01798621 16:0.26894143 17:0.7310586 18:0.047425874 19:0.047425874 20:0.11920292 #
0.0074096347580902138796332678793988 1:0.26894143 2:0.0024726233 3:0.01798621 4:0.0024726233 5:0.00091105117 6:0.00091105117 7:0.00091105117 8:0.99908894 9:0.006692851 10:0.006692851 11:0.006692851 12:0.0024726233 13:0.00091105117 14:0.00091105117 15:0.00091105117 16:0.047425874 17:0.01798621 18:0.88079709 19:0.0024726233 20:0.0024726233 #
0.0074096347580902138796332678793988 1:0.7310586 2:0.0024726233 3:0.0024726233 4:0.0024726233 5:0.01798621 6:0.006692851 7:0.0024726233 8:0.006692851 9:0.0024726233 10:0.7310586 11:0.7310586 12:0.006692851 13:0.7310586 14:0.5 15:0.0024726233 16:0.01798621 17:0.047425874 18:0.047425874 19:0.01798621 20:0.99752736 #
0.0074096347580902138796332678793988 1:0.047425874 2:0.01798621 3:0.01798621 4:0.006692851 5:0.01798621 6:0.01798621 7:0.01798621 8:0.006692851 9:0.01798621 10:0.7310586 11:0.95257413 12:0.01798621 13:0.7310586 14:0.99330717 15:0.047425874 16:0.01798621 17:0.26894143 18:0.88079709 19:0.88079709 20:0.7310586 #
0.0074096347580902138796332678793988 1:0.5 2:0.5 3:0.7310586 4:0.26894143 5:0.26894143 6:0.95257413 7:0.5 8:0.01798621 9:0.95257413 10:0.26894143 11:0.26894143 12:0.11920292 13:0.11920292 14:0.26894143 15:0.01798621 16:0.88079709 17:0.5 18:0.7310586 19:0.95257413 20:0.5 #
-0.0074096347580902138796332678793988 1:0.88079709 2:0.047425874 3:0.26894143 4:0.11920292 5:0.006692851 6:0.26894143 7:0.01798621 8:0.99330717 9:0.047425874 10:0.047425874 11:0.047425874 12:0.047425874 13:0.26894143 14:0.01798621 15:0.01798621 16:0.5 17:0.5 18:0.047425874 19:0.047425874 20:0.26894143 #
-0.0074096347580902138796332678793988 1:0.5 2:0.5 3:0.7310586 4:0.11920292 5:0.26894143 6:0.7310586 7:0.11920292 8:0.26894143 9:0.7310586 10:0.26894143 11:0.26894143 12:0.7310586 13:0.5 14:0.95257413 15:0.11920292 16:0.26894143 17:0.5 18:0.88079709 19:0.95257413 20:0.26894143 #
0.0074096347580902138796332678793988 1:0.11920292 2:0.0024726233 3:0.00091105117 4:0.00033535014 5:0.0024726233 6:0.00091105117 7:0.0024726233 8:0.00091105117 9:0.0024726233 10:0.7310586 11:0.99330717 12:0.00091105117 13:0.26894143 14:0.99752736 15:0.00091105117 16:0.006692851 17:0.006692851 18:0.11920292 19:0.11920292 20:0.5 #
0.0074096347580902138796332678793988 1:0.006692851 2:0.00091105117 3:0.00033535014 4:0.00033535014 5:0.0024726233 6:0.00091105117 7:0.00091105117 8:0.00033535014 9:0.00091105117 10:0.99752736 11:0.98201376 12:0.00091105117 13:0.99752736 14:0.047425874 15:0.00091105117 16:0.00091105117 17:0.006692851 18:0.00091105117 19:0.006692851 20:0.88079709 #
0.0074096347580902138796332678793988 1:0.26894143 2:0.01798621 3:0.01798621 4:0.01798621 5:0.01798621 6:0.01798621 7:0.01798621 8:0.01798621 9:0.01798621 10:0.88079709 11:0.88079709 12:0.01798621 13:0.88079709 14:0.5 15:0.99330717 16:0.047425874 17:0.7310586 18:0.26894143 19:0.11920292 20:0.88079709 #
-0.0074096347580902138796332678793988 1:0.7310586 2:0.0024726233 3:0.00091105117 4:0.00091105117 5:0.006692851 6:0.0024726233 7:0.0024726233 8:0.0024726233 9:0.0024726233 10:0.98201376 11:0.98201376 12:0.0024726233 13:0.98201376 14:0.26894143 15:0.0024726233 16:0.01798621 17:0.11920292 18:0.0024726233 19:0.006692851 20:0.95257413 #
0.0074096347580902138796332678793988 1:0.00091105117 2:0.00091105117 3:0.00091105117 4:0.00033535014 5:0.00091105117 6:0.0024726233 7:0.00091105117 8:0.00033535014 9:0.047425874 10:0.0024726233 11:0.0024726233 12:0.00091105117 13:0.0024726233 14:0.11920292 15:0.00033535014 16:0.00091105117 17:0.00091105117 18:0.95257413 19:0.99995458 20:0.0024726233 #
-0.0074096347580902138796332678793988 1:0.11920292 2:0.88079709 3:0.5 4:0.26894143 5:0.01798621 6:0.88079709 7:0.7310586 8:0.047425874 9:0.047425874 10:0.11920292 11:0.5 12:0.98201376 13:0.7310586 14:0.047425874 15:0.047425874 16:0.26894143 17:0.7310586 18:0.01798621 19:0.047425874 20:0.26894143 #
0.0074096347580902138796332678793988 1:0.26894143 2:0.5 3:0.5 4:0.5 5:0.88079709 6:0.5 7:0.5 8:0.26894143 9:0.88079709 10:0.5 11:0.26894143 12:0.5 13:0.88079709 14:0.7310586 15:0.5 16:0.26894143 17:0.5 18:0.98201376 19:0.7310586 20:0.26894143 #
0.0074096347580902138796332678793988 1:0.5 2:0.5 3:0.11920292 4:0.5 5:0.88079709 6:0.7310586 7:0.5 8:0.26894143 9:0.88079709 10:0.5 11:0.26894143 12:0.5 13:0.7310586 14:0.7310586 15:0.047425874 16:0.5 17:0.5 18:0.98201376 19:0.7310586 20:0.5 #
0.0074096347580902138796332678793988 1:0.5 2:0.5 3:0.5 4:0.5 5:0.047425874 6:0.7310586 7:0.5 8:0.5 9:0.88079709 10:0.5 11:0.26894143 12:0.5 13:0.7310586 14:0.7310586 15:0.047425874 16:0.5 17:0.5 18:0.95257413 19:0.7310586 20:0.5 #
0.0074096347580902138796332678793988 1:0.88079709 2:0.7310586 3:0.7310586 4:0.88079709 5:0.047425874 6:0.5 7:0.5 8:0.26894143 9:0.7310586 10:0.11920292 11:0.11920292 12:0.5 13:0.26894143 14:0.5 15:0.5 16:0.5 17:0.5 18:0.7310586 19:0.5 20:0.26894143 #
0.0074096347580902138796332678793988 1:0.95257413 2:0.006692851 3:0.006692851 4:0.006692851 5:0.01798621 6:0.01798621 7:0.006692851 8:0.047425874 9:0.006692851 10:0.95257413 11:0.88079709 12:0.01798621 13:0.5 14:0.11920292 15:0.006692851 16:0.047425874 17:0.88079709 18:0.006692851 19:0.01798621 20:0.95257413 #
0.0074096347580902138796332678793988 1:0.11920292 2:0.047425874 3:0.88079709 4:0.99908894 5:0.01798621 6:0.5 7:0.26894143 8:0.26894143 9:0.047425874 10:0.01798621 11:0.11920292 12:0.047425874 13:0.01798621 14:0.01798621 15:0.047425874 16:0.11920292 17:0.11920292 18:0.006692851 19:0.01798621 20:0.01798621 #
0.0074096347580902138796332678793988 1:0.11920292 2:0.006692851 3:0.0024726233 4:0.0024726233 5:0.5 6:0.006692851 7:0.0024726233 8:0.0024726233 9:0.006692851 10:0.98201376 11:0.98201376 12:0.006692851 13:0.7310586 14:0.95257413 15:0.0024726233 16:0.047425874 17:0.11920292 18:0.01798621 19:0.26894143 20:0.88079709 #
-0.0074096347580902138796332678793988 1:0.01798621 2:0.006692851 3:0.0024726233 4:0.0024726233 5:0.01798621 6:0.006692851 7:0.006692851 8:0.0024726233 9:0.006692851 10:0.99330717 11:0.98201376 12:0.006692851 13:0.7310586 14:0.95257413 15:0.006692851 16:0.006692851 17:0.047425874 18:0.01798621 19:0.11920292 20:0.88079709 #
0.0074096347580902138796332678793988 1:0.26894143 2:0.5 3:0.5 4:0.5 5:0.047425874 6:0.5 7:0.5 8:0.26894143 9:0.88079709 10:0.5 11:0.26894143 12:0.5 13:0.7310586 14:0.5 15:0.5 16:0.5 17:0.5 18:0.95257413 19:0.7310586 20:0.5 #
0.0074096347580902138796332678793988 1:0.26894143 2:0.7310586 3:0.5 4:0.26894143 5:0.5 6:0.5 7:0.7310586 8:0.11920292 9:0.7310586 10:0.5 11:0.5 12:0.7310586 13:0.7310586 14:0.7310586 15:0.26894143 16:0.5 17:0.5 18:0.88079709 19:0.5 20:0.26894143 #
-0.0031889347971230672454390209225039 1:0.5 2:0.5 3:0.5 4:0.5 5:0.047425874 6:0.7310586 7:0.5 8:0.5 9:0.88079709 10:0.5 11:0.26894143 12:0.5 13:0.7310586 14:0.11920292 15:0.5 16:0.5 17:0.5 18:0.95257413 19:0.7310586 20:0.5 #
0.0074096347580902138796332678793988 1:0.01798621 2:0.0024726233 3:0.0024726233 4:0.0024726233 5:0.01798621 6:0.0024726233 7:0.0024726233 8:0.00091105117 9:0.0024726233 10:0.99330717 11:0.88079709 12:0.0024726233 13:0.95257413 14:0.7310586 15:0.0024726233 16:0.006692851 17:0.047425874 18:0.006692851 19:0.01798621 20:0.98201376 #
-0.0056580452102905623087969466666891 1:0.5 2:0.5 3:0.5 4:0.5 5:0.047425874 6:0.7310586 7:0.5 8:0.5 9:0.88079709 10:0.5 11:0.26894143 12:0.5 13:0.7310586 14:0.11920292 15:0.5 16:0.5 17:0.5 18:0.95257413 19:0.7310586 20:0.5 #
-0.0074096347580902138796332678793988 1:0.01798621 2:0.006692851 3:0.0024726233 4:0.0024726233 5:0.01798621 6:0.006692851 7:0.0024726233 8:0.0024726233 9:0.006692851 10:0.98201376 11:0.98201376 12:0.006692851 13:0.7310586 14:0.95257413 15:0.0024726233 16:0.006692851 17:0.01798621 18:0.01798621 19:0.11920292 20:0.95257413 #
-0.0074096347580902138796332678793988 1:0.047425874 2:0.01798621 3:0.006692851 4:0.0024726233 5:0.01798621 6:0.006692851 7:0.0024726233 8:0.0024726233 9:0.006692851 10:0.98201376 11:0.88079709 12:0.006692851 13:0.99752736 14:0.98201376 15:0.0024726233 16:0.006692851 17:0.01798621 18:0.01798621 19:0.047425874 20:0.88079709 #
-0.0074096347580902138796332678793988 1:0.5 2:0.26894143 3:0.5 4:0.5 5:0.11920292 6:0.7310586 7:0.7310586 8:0.5 9:0.95257413 10:0.26894143 11:0.26894143 12:0.5 13:0.5 14:0.7310586 15:0.26894143 16:0.5 17:0.5 18:0.95257413 19:0.5 20:0.26894143 #
0.0074096347580902138796332678793988 1:0.01798621 2:0.006692851 3:0.0024726233 4:0.0024726233 5:0.01798621 6:0.006692851 7:0.006692851 8:0.0024726233 9:0.006692851 10:0.95257413 11:0.95257413 12:0.006692851 13:0.7310586 14:0.99330717 15:0.006692851 16:0.006692851 17:0.047425874 18:0.11920292 19:0.11920292 20:0.98201376 #
0.0074096347580902138796332678793988 1:0.11920292 2:0.006692851 3:0.0024726233 4:0.0024726233 5:0.01798621 6:0.006692851 7:0.0024726233 8:0.0024726233 9:0.006692851 10:0.95257413 11:0.95257413 12:0.006692851 13:0.7310586 14:0.98201376 15:0.0024726233 16:0.006692851 17:0.047425874 18:0.11920292 19:0.26894143 20:0.95257413 #
-0.0074096347580902138796332678793988 1:0.01798621 2:0.006692851 3:0.0024726233 4:0.006692851 5:0.006692851 6:0.006692851 7:0.0024726233 8:0.0024726233 9:0.01798621 10:0.98201376 11:0.98201376 12:0.006692851 13:0.7310586 14:0.98201376 15:0.0024726233 16:0.006692851 17:0.047425874 18:0.01798621 19:0.7310586 20:0.88079709 #
-0.0074096347580902138796332678793988 1:0.01798621 2:0.0024726233 3:0.0024726233 4:0.00091105117 5:0.047425874 6:0.006692851 7:0.0024726233 8:0.00091105117 9:0.0024726233 10:0.99330717 11:0.95257413 12:0.006692851 13:0.98201376 14:0.95257413 15:0.0024726233 16:0.006692851 17:0.047425874 18:0.5 19:0.26894143 20:0.95257413 #
-0.0014854724891902421849559923217043 1:0.26894143 2:0.5 3:0.5 4:0.5 5:0.88079709 6:0.5 7:0.5 8:0.26894143 9:0.88079709 10:0.5 11:0.26894143 12:0.5 13:0.88079709 14:0.7310586 15:0.5 16:0.26894143 17:0.5 18:0.98201376 19:0.7310586 20:0.26894143 #
0.0074096347580902138796332678793988 1:0.5 2:0.5 3:0.5 4:0.5 5:0.01798621 6:0.98201376 7:0.88079709 8:0.11920292 9:0.7310586 10:0.5 11:0.26894143 12:0.7310586 13:0.5 14:0.26894143 15:0.047425874 16:0.26894143 17:0.26894143 18:0.88079709 19:0.5 20:0.5 #
-0.0074096347580902138796332678793988 1:0.26894143 2:0.95257413 3:0.7310586 4:0.5 5:0.11920292 6:0.88079709 7:0.7310586 8:0.26894143 9:0.5 10:0.26894143 11:0.26894143 12:0.5 13:0.5 14:0.26894143 15:0.11920292 16:0.5 17:0.5 18:0.047425874 19:0.7310586 20:0.26894143 #
-0.0074096347580902138796332678793988 1:0.11920292 2:0.006692851 3:0.006692851 4:0.006692851 5:0.01798621 6:0.01798621 7:0.006692851 8:0.7310586 9:0.006692851 10:0.98201376 11:0.7310586 12:0.01798621 13:0.95257413 14:0.88079709 15:0.006692851 16:0.26894143 17:0.11920292 18:0.01798621 19:0.047425874 20:0.98201376 #
0.0074096347580902138796332678793988 1:0.5 2:0.5 3:0.5 4:0.5 5:0.047425874 6:0.5 7:0.5 8:0.5 9:0.88079709 10:0.5 11:0.26894143 12:0.11920292 13:0.7310586 14:0.7310586 15:0.5 16:0.5 17:0.5 18:0.95257413 19:0.7310586 20:0.5 #
0.0074096347580902138796332678793988 1:0.26894143 2:0.0024726233 3:0.0024726233 4:0.0024726233 5:0.11920292 6:0.006692851 7:0.0024726233 8:0.11920292 9:0.047425874 10:0.98201376 11:0.98201376 12:0.0024726233 13:0.88079709 14:0.95257413 15:0.01798621 16:0.006692851 17:0.047425874 18:0.006692851 19:0.26894143 20:0.88079709 #
0.0074096347580902138796332678793988 1:0.01798621 2:0.006692851 3:0.0024726233 4:0.0024726233 5:0.01798621 6:0.006692851 7:0.0024726233 8:0.0024726233 9:0.0024726233 10:0.98201376 11:0.98201376 12:0.006692851 13:0.95257413 14:0.88079709 15:0.0024726233 16:0.006692851 17:0.01798621 18:0.01798621 19:0.047425874 20:0.95257413 #
-0.0074096347580902138796332678793988 1:0.26894143 2:0.047425874 3:0.047425874 4:0.11920292 5:0.01798621 6:0.047425874 7:0.01798621 8:0.11920292 9:0.11920292 10:0.26894143 11:0.88079709 12:0.26894143 13:0.11920292 14:0.99908894 15:0.047425874 16:0.11920292 17:0.047425874 18:0.047425874 19:0.11920292 20:0.26894143 #
-0.0074096347580902138796332678793988 1:0.88079709 2:0.006692851 3:0.0024726233 4:0.0024726233 5:0.01798621 6:0.006692851 7:0.006692851 8:0.0024726233 9:0.0024726233 10:0.95257413 11:0.98201376 12:0.006692851 13:0.5 14:0.7310586 15:0.006692851 16:0.01798621 17:0.047425874 18:0.006692851 19:0.01798621 20:0.95257413 #
-0.0074096347580902138796332678793988 1:0.11920292 2:0.006692851 3:0.0024726233 4:0.0024726233 5:0.01798621 6:0.006692851 7:0.0024726233 8:0.0024726233 9:0.006692851 10:0.88079709 11:0.99330717 12:0.006692851 13:0.7310586 14:0.95257413 15:0.006692851 16:0.006692851 17:0.01798621 18:0.11920292 19:0.047425874 20:0.95257413 #
-0.0074096347580902138796332678793988 1:0.88079709 2:0.047425874 3:0.006692851 4:0.006692851 5:0.01798621 6:0.01798621 7:0.01798621 8:0.01798621 9:0.006692851 10:0.95257413 11:0.95257413 12:0.01798621 13:0.98201376 14:0.5 15:0.006692851 16:0.26894143 17:0.7310586 18:0.01798621 19:0.047425874 20:0.7310586 #
0.0074096347580902138796332678793988 1:0.5 2:0.11920292 3:0.5 4:0.5 5:0.047425874 6:0.26894143 7:0.5 8:0.5 9:0.88079709 10:0.5 11:0.26894143 12:0.5 13:0.7310586 14:0.7310586 15:0.7310586 16:0.5 17:0.5 18:0.95257413 19:0.7310586 20:0.5 #
0.0074096347580902138796332678793988 1:0.5 2:0.006692851 3:0.0024726233 4:0.0024726233 5:0.01798621 6:0.006692851 7:0.006692851 8:0.006692851 9:0.0024726233 10:0.95257413 11:0.7310586 12:0.006692851 13:0.11920292 14:0.11920292 15:0.006692851 16:0.01798621 17:0.047425874 18:0.0024726233 19:0.01798621 20:0.99752736 #
-0.0074096347580902138796332678793988 1:0.11920292 2:0.006692851 3:0.047425874 4:0.01798621 5:0.006692851 6:0.01798621 7:0.01798621 8:0.01798621 9:0.006692851 10:0.006692851 11:0.0024726233 12:0.01798621 13:0.006692851 14:0.0024726233 15:0.006692851 16:0.99908894 17:0.98201376 18:0.0024726233 19:0.006692851 20:0.006692851 #
-0.0074096347580902138796332678793988 1:0.01798621 2:0.00091105117 3:0.00091105117 4:0.00033535014 5:0.0024726233 6:0.00091105117 7:0.00091105117 8:0.01798621 9:0.00091105117 10:0.7310586 11:0.99330717 12:0.00091105117 13:0.88079709 14:0.99330717 15:0.00091105117 16:0.0024726233 17:0.01798621 18:0.006692851 19:0.01798621 20:0.95257413 #
0.0074096347580902138796332678793988 1:0.26894143 2:0.7310586 3:0.5 4:0.88079709 5:0.047425874 6:0.88079709 7:0.7310586 8:0.26894143 9:0.7310586 10:0.7310586 11:0.5 12:0.5 13:0.5 14:0.047425874 15:0.26894143 16:0.26894143 17:0.26894143 18:0.7310586 19:0.26894143 20:0.7310586 #
0.0074096347580902138796332678793988 1:0.047425874 2:0.006692851 3:0.0024726233 4:0.0024726233 5:0.01798621 6:0.006692851 7:0.0024726233 8:0.006692851 9:0.006692851 10:0.95257413 11:0.98201376 12:0.006692851 13:0.7310586 14:0.99330717 15:0.0024726233 16:0.006692851 17:0.01798621 18:0.047425874 19:0.26894143 20:0.88079709 #
0.0074096347580902138796332678793988 1:0.047425874 2:0.00091105117 3:0.00091105117 4:0.00033535014 5:0.0024726233 6:0.00091105117 7:0.00091105117 8:0.00091105117 9:0.00091105117 10:0.99752736 11:0.7310586 12:0.00091105117 13:0.98201376 14:0.98201376 15:0.00091105117 16:0.01798621 17:0.047425874 18:0.98201376 19:0.047425874 20:0.7310586 #
-0.0074096347580902138796332678793988 1:0.047425874 2:0.01798621 3:0.11920292 4:0.26894143 5:0.01798621 6:0.047425874 7:0.11920292 8:0.047425874 9:0.95257413 10:0.95257413 11:0.7310586 12:0.01798621 13:0.5 14:0.98201376 15:0.11920292 16:0.11920292 17:0.5 18:0.047425874 19:0.95257413 20:0.7310586 #
-0.0074096347580902138796332678793988 1:0.11920292 2:0.047425874 3:0.01798621 4:0.01798621 5:0.006692851 6:0.01798621 7:0.006692851 8:0.0024726233 9:0.88079709 10:0.88079709 11:0.7310586 12:0.006692851 13:0.26894143 14:0.88079709 15:0.01798621 16:0.11920292 17:0.5 18:0.5 19:0.99752736 20:0.88079709 #
0.0074096347580902138796332678793988 1:0.047425874 2:0.88079709 3:0.7310586 4:0.5 5:0.006692851 6:0.5 7:0.7310586 8:0.01798621 9:0.5 10:0.047425874 11:0.047425874 12:0.95257413 13:0.047425874 14:0.88079709 15:0.01798621 16:0.11920292 17:0.7310586 18:0.99330717 19:0.88079709 20:0.11920292 #
0.0074096347580902138796332678793988 1:0.26894143 2:0.7310586 3:0.7310586 4:0.7310586 5:0.047425874 6:0.5 7:0.7310586 8:0.11920292 9:0.26894143 10:0.11920292 11:0.047425874 12:0.98201376 13:0.11920292 14:0.5 15:0.047425874 16:0.26894143 17:0.5 18:0.98201376 19:0.7310586 20:0.11920292 #
-0.0074096347580902138796332678793988 1:0.7310586 2:0.0024726233 3:0.7310586 4:0.047425874 5:0.0024726233 6:0.006692851 7:0.006692851 8:0.006692851 9:0.0024726233 10:0.00091105117 11:0.00033535014 12:0.006692851 13:0.00091105117 14:0.00033535014 15:0.0024726233 16:0.99908894 17:0.047425874 18:0.00033535014 19:0.00091105117 20:0.00091105117 #
-0.0021530171278070341783772434496314 1:0.11920292 2:0.047425874 3:0.26894143 4:0.01798621 5:0.88079709 6:0.88079709 7:0.047425874 8:0.11920292 9:0.01798621 10:0.26894143 11:0.98201376 12:0.047425874 13:0.95257413 14:0.26894143 15:0.047425874 16:0.11920292 17:0.26894143 18:0.98201376 19:0.88079709 20:0.5 #
-0.00091968260161146995947806237481359 1:0.26894143 2:0.11920292 3:0.047425874 4:0.006692851 5:0.01798621 6:0.5 7:0.047425874 8:0.01798621 9:0.01798621 10:0.95257413 11:0.98201376 12:0.11920292 13:0.5 14:0.26894143 15:0.047425874 16:0.047425874 17:0.26894143 18:0.006692851 19:0.11920292 20:0.88079709 #
0.0074096347580902138796332678793988 1:0.7310586 2:0.7310586 3:0.5 4:0.5 5:0.047425874 6:0.7310586 7:0.5 8:0.26894143 9:0.26894143 10:0.26894143 11:0.5 12:0.5 13:0.88079709 14:0.11920292 15:0.047425874 16:0.88079709 17:0.5 18:0.047425874 19:0.26894143 20:0.26894143 #
0.0074096347580902138796332678793988 1:0.01798621 2:0.26894143 3:0.006692851 4:0.0024726233 5:0.006692851 6:0.047425874 7:0.01798621 8:0.0024726233 9:0.88079709 10:0.95257413 11:0.7310586 12:0.11920292 13:0.88079709 14:0.88079709 15:0.0024726233 16:0.01798621 17:0.26894143 18:0.5 19:0.99752736 20:0.5 #
-0.0074096347580902138796332678793988 1:0.26894143 2:0.7310586 3:0.047425874 4:0.047425874 5:0.11920292 6:0.11920292 7:0.11920292 8:0.047425874 9:0.88079709 10:0.7310586 11:0.88079709 12:0.26894143 13:0.7310586 14:0.95257413 15:0.047425874 16:0.11920292 17:0.26894143 18:0.11920292 19:0.5 20:0.7310586 #
-0.0074096347580902138796332678793988 1:0.7310586 2:0.26894143 3:0.01798621 4:0.01798621 5:0.047425874 6:0.047425874 7:0.047425874 8:0.26894143 9:0.11920292 10:0.88079709 11:0.88079709 12:0.26894143 13:0.7310586 14:0.95257413 15:0.01798621 16:0.047425874 17:0.11920292 18:0.7310586 19:0.5 20:0.7310586 #
0.0074096347580902138796332678793988 1:0.26894143 2:0.95257413 3:0.7310586 4:0.5 5:0.01798621 6:0.95257413 7:0.5 8:0.047425874 9:0.7310586 10:0.047425874 11:0.047425874 12:0.88079709 13:0.5 14:0.11920292 15:0.11920292 16:0.5 17:0.5 18:0.7310586 19:0.26894143 20:0.047425874 #
0.0074096347580902138796332678793988 1:0.88079709 2:0.88079709 3:0.7310586 4:0.7310586 5:0.01798621 6:0.95257413 7:0.7310586 8:0.26894143 9:0.5 10:0.047425874 11:0.047425874 12:0.5 13:0.11920292 14:0.047425874 15:0.26894143 16:0.26894143 17:0.26894143 18:0.95257413 19:0.11920292 20:0.11920292 #
0.0074096347580902138796332678793988 1:0.5 2:0.047425874 3:0.11920292 4:0.11920292 5:0.047425874 6:0.11920292 7:0.11920292 8:0.11920292 9:0.11920292 10:0.88079709 11:0.5 12:0.047425874 13:0.11920292 14:0.95257413 15:0.01798621 16:0.26894143 17:0.5 18:0.11920292 19:0.95257413 20:0.98201376 #
-0.0074096347580902138796332678793988 1:0.88079709 2:0.5 3:0.5 4:0.26894143 5:0.047425874 6:0.7310586 7:0.5 8:0.5 9:0.11920292 10:0.5 11:0.7310586 12:0.26894143 13:0.26894143 14:0.5 15:0.047425874 16:0.5 17:0.26894143 18:0.047425874 19:0.5 20:0.5 #
0.0074096347580902138796332678793988 1:0.5 2:0.7310586 3:0.047425874 4:0.006692851 5:0.047425874 6:0.01798621 7:0.01798621 8:0.047425874 9:0.26894143 10:0.7310586 11:0.95257413 12:0.047425874 13:0.7310586 14:0.95257413 15:0.01798621 16:0.11920292 17:0.26894143 18:0.047425874 19:0.7310586 20:0.88079709 #
-0.0074096347580902138796332678793988 1:0.5 2:0.047425874 3:0.047425874 4:0.047425874 5:0.11920292 6:0.11920292 7:0.047425874 8:0.26894143 9:0.11920292 10:0.95257413 11:0.88079709 12:0.11920292 13:0.5 14:0.7310586 15:0.26894143 16:0.11920292 17:0.26894143 18:0.7310586 19:0.7310586 20:0.95257413 #
-0.0074096347580902138796332678793988 1:0.5 2:0.7310586 3:0.11920292 4:0.047425874 5:0.01798621 6:0.26894143 7:0.11920292 8:0.047425874 9:0.11920292 10:0.7310586 11:0.7310586 12:0.26894143 13:0.5 14:0.7310586 15:0.01798621 16:0.5 17:0.5 18:0.95257413 19:0.98201376 20:0.7310586 #
-0.0074096347580902138796332678793988 1:0.5 2:0.5 3:0.11920292 4:0.11920292 5:0.047425874 6:0.11920292 7:0.11920292 8:0.5 9:0.26894143 10:0.7310586 11:0.7310586 12:0.047425874 13:0.5 14:0.7310586 15:0.11920292 16:0.5 17:0.5 18:0.5 19:0.95257413 20:0.88079709 #
-0.0074096347580902138796332678793988 1:0.11920292 2:0.98201376 3:0.98201376 4:0.26894143 5:0.11920292 6:0.7310586 7:0.26894143 8:0.01798621 9:0.7310586 10:0.047425874 11:0.006692851 12:0.88079709 13:0.01798621 14:0.0024726233 15:0.006692851 16:0.95257413 17:0.26894143 18:0.0024726233 19:0.006692851 20:0.01798621 #
0.0074096347580902138796332678793988 1:0.11920292 2:0.95257413 3:0.99752736 4:0.88079709 5:0.006692851 6:0.5 7:0.26894143 8:0.047425874 9:0.7310586 10:0.006692851 11:0.01798621 12:0.7310586 13:0.047425874 14:0.047425874 15:0.006692851 16:0.26894143 17:0.7310586 18:0.006692851 19:0.5 20:0.006692851 #
0.0074096347580902138796332678793988 1:0.5 2:0.95257413 3:0.5 4:0.5 5:0.01798621 6:0.88079709 7:0.5 8:0.7310586 9:0.7310586 10:0.01798621 11:0.01798621 12:0.5 13:0.047425874 14:0.006692851 15:0.01798621 16:0.5 17:0.95257413 18:0.006692851 19:0.047425874 20:0.047425874 #
0.0074096347580902138796332678793988 1:0.11920292 2:0.047425874 3:0.5 4:0.006692851 5:0.047425874 6:0.047425874 7:0.01798621 8:0.5 9:0.26894143 10:0.7310586 11:0.88079709 12:0.7310586 13:0.5 14:0.95257413 15:0.047425874 16:0.26894143 17:0.5 18:0.98201376 19:0.95257413 20:0.5 #
0.0074096347580902138796332678793988 1:0.5 2:0.11920292 3:0.26894143 4:0.11920292 5:0.047425874 6:0.26894143 7:0.26894143 8:0.5 9:0.26894143 10:0.7310586 11:0.7310586 12:0.11920292 13:0.7310586 14:0.88079709 15:0.5 16:0.5 17:0.5 18:0.88079709 19:0.7310586 20:0.7310586 #
-0.0074096347580902138796332678793988 1:0.26894143 2:0.047425874 3:0.26894143 4:0.01798621 5:0.047425874 6:0.26894143 7:0.047425874 8:0.01798621 9:0.047425874 10:0.88079709 11:0.88079709 12:0.047425874 13:0.7310586 14:0.98201376 15:0.26894143 16:0.5 17:0.26894143 18:0.95257413 19:0.7310586 20:0.7310586 #
-0.0074096347580902138796332678793988 1:0.5 2:0.26894143 3:0.26894143 4:0.11920292 5:0.11920292 6:0.5 7:0.26894143 8:0.26894143 9:0.5 10:0.7310586 11:0.7310586 12:0.5 13:0.7310586 14:0.7310586 15:0.047425874 16:0.5 17:0.5 18:0.88079709 19:0.88079709 20:0.7310586 #
0.0074096347580902138796332678793988 1:0.5 2:0.95257413 3:0.7310586 4:0.88079709 5:0.006692851 6:0.98201376 7:0.7310586 8:0.01798621 9:0.26894143 10:0.006692851 11:0.006692851 12:0.95257413 13:0.11920292 14:0.01798621 15:0.047425874 16:0.11920292 17:0.26894143 18:0.01798621 19:0.047425874 20:0.047425874 #
0.0074096347580902138796332678793988 1:0.5 2:0.88079709 3:0.7310586 4:0.98201376 5:0.01798621 6:0.95257413 7:0.5 8:0.5 9:0.7310586 10:0.11920292 11:0.11920292 12:0.88079709 13:0.047425874 14:0.01798621 15:0.01798621 16:0.26894143 17:0.047425874 18:0.01798621 19:0.26894143 20:0.11920292 #
0.0074096347580902138796332678793988 1:0.11920292 2:0.88079709 3:0.88079709 4:0.88079709 5:0.006692851 6:0.95257413 7:0.5 8:0.11920292 9:0.5 10:0.047425874 11:0.26894143 12:0.88079709 13:0.11920292 14:0.047425874 15:0.26894143 16:0.5 17:0.5 18:0.26894143 19:0.26894143 20:0.11920292 #
-0.0074096347580902138796332678793988 1:0.7310586 2:0.006692851 3:0.5 4:0.047425874 5:0.006692851 6:0.047425874 7:0.01798621 8:0.11920292 9:0.006692851 10:0.006692851 11:0.26894143 12:0.01798621 13:0.01798621 14:0.047425874 15:0.006692851 16:0.99330717 17:0.95257413 18:0.0024726233 19:0.11920292 20:0.047425874 #
-0.0074096347580902138796332678793988 1:0.7310586 2:0.01798621 3:0.98201376 4:0.26894143 5:0.006692851 6:0.01798621 7:0.047425874 8:0.98201376 9:0.01798621 10:0.01798621 11:0.047425874 12:0.01798621 13:0.01798621 14:0.006692851 15:0.01798621 16:0.88079709 17:0.26894143 18:0.0024726233 19:0.01798621 20:0.26894143 #
-0.0074096347580902138796332678793988 1:0.047425874 2:0.00091105117 3:0.00091105117 4:0.0024726233 5:0.00091105117 6:0.0024726233 7:0.0024726233 8:0.00091105117 9:0.00091105117 10:0.00091105117 11:0.01798621 12:0.0024726233 13:0.00091105117 14:0.00033535014 15:0.99987662 16:0.01798621 17:0.047425874 18:0.00033535014 19:0.006692851 20:0.00091105117 #
-0.0074096347580902138796332678793988 1:0.26894143 2:0.11920292 3:0.95257413 4:0.98201376 5:0.26894143 6:0.7310586 7:0.5 8:0.5 9:0.26894143 10:0.047425874 11:0.047425874 12:0.26894143 13:0.7310586 14:0.11920292 15:0.11920292 16:0.7310586 17:0.5 18:0.5 19:0.26894143 20:0.11920292 #
0.0074096347580902138796332678793988 1:0.11920292 2:0.01798621 3:0.047425874 4:0.01798621 5:0.01798621 6:0.11920292 7:0.01798621 8:0.01798621 9:0.26894143 10:0.7310586 11:0.95257413 12:0.047425874 13:0.88079709 14:0.88079709 15:0.01798621 16:0.5 17:0.88079709 18:0.99330717 19:0.26894143 20:0.7310586 #
-0.0074096347580902138796332678793988 1:0.26894143 2:0.047425874 3:0.7310586 4:0.047425874 5:0.047425874 6:0.047425874 7:0.047425874 8:0.11920292 9:0.047425874 10:0.7310586 11:0.7310586 12:0.047425874 13:0.7310586 14:0.95257413 15:0.01798621 16:0.11920292 17:0.5 18:0.99752736 19:0.5 20:0.88079709 #
-0.0074096347580902138796332678793988 1:0.88079709 2:0.047425874 3:0.11920292 4:0.01798621 5:0.01798621 6:0.047425874 7:0.01798621 8:0.5 9:0.5 10:0.5 11:0.26894143 12:0.01798621 13:0.7310586 14:0.7310586 15:0.047425874 16:0.7310586 17:0.88079709 18:0.95257413 19:0.26894143 20:0.88079709 #
0.0074096347580902138796332678793988 1:0.5 2:0.7310586 3:0.5 4:0.7310586 5:0.006692851 6:0.98201376 7:0.88079709 8:0.26894143 9:0.7310586 10:0.11920292 11:0.047425874 12:0.5 13:0.26894143 14:0.11920292 15:0.11920292 16:0.5 17:0.5 18:0.5 19:0.01798621 20:0.01798621 #
-0.00022727439545164925677189771136 1:0.26894143 2:0.5 3:0.98201376 4:0.7310586 5:0.006692851 6:0.26894143 7:0.7310586 8:0.95257413 9:0.26894143 10:0.047425874 11:0.01798621 12:0.11920292 13:0.01798621 14:0.047425874 15:0.11920292 16:0.88079709 17:0.11920292 18:0.26894143 19:0.26894143 20:0.01798621 #
-0.0074096347580902138796332678793988 1:0.047425874 2:0.95257413 3:0.88079709 4:0.88079709 5:0.006692851 6:0.7310586 7:0.88079709 8:0.01798621 9:0.26894143 10:0.047425874 11:0.5 12:0.5 13:0.11920292 14:0.26894143 15:0.01798621 16:0.5 17:0.7310586 18:0.26894143 19:0.5 20:0.047425874 #
-0.0074096347580902138796332678793988 1:0.006692851 2:0.006692851 3:0.006692851 4:0.0024726233 5:0.006692851 6:0.0024726233 7:0.0024726233 8:0.0024726233 9:0.01798621 10:0.11920292 11:0.11920292 12:0.006692851 13:0.11920292 14:0.99987662 15:0.0024726233 16:0.006692851 17:0.01798621 18:0.26894143 19:0.7310586 20:0.047425874 #
0.0074096347580902138796332678793988 1:0.26894143 2:0.88079709 3:0.7310586 4:0.7310586 5:0.006692851 6:0.98201376 7:0.88079709 8:0.11920292 9:0.5 10:0.006692851 11:0.01798621 12:0.88079709 13:0.5 14:0.006692851 15:0.047425874 16:0.7310586 17:0.5 18:0.047425874 19:0.26894143 20:0.006692851 #
-0.0074096347580902138796332678793988 1:0.26894143 2:0.047425874 3:0.047425874 4:0.047425874 5:0.047425874 6:0.047425874 7:0.01798621 8:0.01798621 9:0.01798621 10:0.88079709 11:0.98201376 12:0.047425874 13:0.7310586 14:0.7310586 15:0.7310586 16:0.11920292 17:0.11920292 18:0.95257413 19:0.11920292 20:0.88079709 #
-0.0030100655063445905246233280649903 1:0.26894143 2:0.98201376 3:0.26894143 4:0.7310586 5:0.006692851 6:0.88079709 7:0.88079709 8:0.047425874 9:0.7310586 10:0.047425874 11:0.01798621 12:0.95257413 13:0.047425874 14:0.11920292 15:0.01798621 16:0.26894143 17:0.88079709 18:0.006692851 19:0.26894143 20:0.047425874 #
-0.0074096347580902138796332678793988 1:0.26894143 2:0.88079709 3:0.88079709 4:0.7310586 5:0.01798621 6:0.88079709 7:0.7310586 8:0.11920292 9:0.11920292 10:0.01798621 11:0.047425874 12:0.88079709 13:0.047425874 14:0.01798621 15:0.047425874 16:0.95257413 17:0.5 18:0.006692851 19:0.11920292 20:0.047425874 #
0.0074096347580902138796332678793988 1:0.98201376 2:0.01798621 3:0.01798621 4:0.006692851 5:0.047425874 6:0.01798621 7:0.01798621 8:0.5 9:0.006692851 10:0.5 11:0.5 12:0.01798621 13:0.11920292 14:0.11920292 15:0.11920292 16:0.26894143 17:0.26894143 18:0.99330717 19:0.047425874 20:0.88079709 #
-0.0074096347580902138796332678793988 1:0.5 2:0.01798621 3:0.047425874 4:0.006692851 5:0.01798621 6:0.11920292 7:0.01798621 8:0.11920292 9:0.11920292 10:0.7310586 11:0.7310586 12:0.01798621 13:0.26894143 14:0.99330717 15:0.01798621 16:0.047425874 17:0.5 18:0.88079709 19:0.7310586 20:0.95257413 #
0.0074096347580902138796332678793988 1:0.047425874 2:0.7310586 3:0.99330717 4:0.7310586 5:0.0024726233 6:0.7310586 7:0.7310586 8:0.01798621 9:0.5 10:0.006692851 11:0.0024726233 12:0.5 13:0.047425874 14:0.01798621 15:0.006692851 16:0.88079709 17:0.88079709 18:0.00091105117 19:0.01798621 20:0.006692851 #
0.0074096347580902138796332678793988 1:0.7310586 2:0.11920292 3:0.98201376 4:0.7310586 5:0.006692851 6:0.88079709 7:0.7310586 8:0.11920292 9:0.5 10:0.01798621 11:0.11920292 12:0.7310586 13:0.047425874 14:0.01798621 15:0.11920292 16:0.5 17:0.88079709 18:0.0024726233 19:0.047425874 20:0.047425874 #
0.0074096347580902138796332678793988 1:0.5 2:0.95257413 3:0.5 4:0.11920292 5:0.0024726233 6:0.88079709 7:0.5 8:0.26894143 9:0.7310586 10:0.006692851 11:0.006692851 12:0.99330717 13:0.01798621 14:0.01798621 15:0.006692851 16:0.7310586 17:0.5 18:0.5 19:0.047425874 20:0.006692851 #
-0.0027212782655338108028786336944904 1:0.7310586 2:0.95257413 3:0.11920292 4:0.88079709 5:0.01798621 6:0.5 7:0.7310586 8:0.7310586 9:0.7310586 10:0.01798621 11:0.01798621 12:0.95257413 13:0.047425874 14:0.006692851 15:0.11920292 16:0.7310586 17:0.26894143 18:0.006692851 19:0.01798621 20:0.01798621 #
-0.0074096347580902138796332678793988 1:0.5 2:0.01798621 3:0.047425874 4:0.26894143 5:0.11920292 6:0.11920292 7:0.047425874 8:0.01798621 9:0.5 10:0.26894143 11:0.7310586 12:0.047425874 13:0.88079709 14:0.88079709 15:0.01798621 16:0.047425874 17:0.047425874 18:0.95257413 19:0.99908894 20:0.26894143 #
0.0074096347580902138796332678793988 1:0.11920292 2:0.047425874 3:0.99330717 4:0.5 5:0.047425874 6:0.5 7:0.26894143 8:0.01798621 9:0.98201376 10:0.047425874 11:0.006692851 12:0.11920292 13:0.01798621 14:0.01798621 15:0.006692851 16:0.95257413 17:0.88079709 18:0.01798621 19:0.88079709 20:0.11920292 #
0.0074096347580902138796332678793988 1:0.047425874 2:0.01798621 3:0.88079709 4:0.26894143 5:0.0024726233 6:0.99330717 7:0.7310586 8:0.047425874 9:0.98201376 10:0.006692851 11:0.01798621 12:0.01798621 13:0.11920292 14:0.047425874 15:0.047425874 16:0.88079709 17:0.88079709 18:0.0024726233 19:0.5 20:0.006692851 #
0.0074096347580902138796332678793988 1:0.11920292 2:0.26894143 3:0.88079709 4:0.26894143 5:0.01798621 6:0.5 7:0.5 8:0.047425874 9:0.95257413 10:0.01798621 11:0.047425874 12:0.7310586 13:0.047425874 14:0.01798621 15:0.01798621 16:0.99330717 17:0.7310586 18:0.01798621 19:0.7310586 20:0.01798621 #
-0.0074096347580902138796332678793988 1:0.95257413 2:0.006692851 3:0.26894143 4:0.01798621 5:0.006692851 6:0.006692851 7:0.006692851 8:0.99330717 9:0.006692851 10:0.0024726233 11:0.0024726233 12:0.006692851 13:0.006692851 14:0.26894143 15:0.006692851 16:0.88079709 17:0.01798621 18:0.0024726233 19:0.0024726233 20:0.006692851 #
-0.0013517672155567558509026149238252 1:0.11920292 2:0.7310586 3:0.26894143 4:0.7310586 5:0.01798621 6:0.99752736 7:0.5 8:0.01798621 9:0.26894143 10:0.047425874 11:0.047425874 12:0.88079709 13:0.047425874 14:0.01798621 15:0.047425874 16:0.11920292 17:0.88079709 18:0.01798621 19:0.11920292 20:0.047425874 #
0.0074096347580902138796332678793988 1:0.5 2:0.047425874 3:0.006692851 4:0.0024726233 5:0.006692851 6:0.5 7:0.006692851 8:0.11920292 9:0.01798621 10:0.5 11:0.98201376 12:0.006692851 13:0.88079709 14:0.99330717 15:0.0024726233 16:0.047425874 17:0.01798621 18:0.98201376 19:0.88079709 20:0.26894143 #
-0.0074096347580902138796332678793988 1:0.11920292 2:0.006692851 3:0.006692851 4:0.0024726233 5:0.006692851 6:0.047425874 7:0.0024726233 8:0.0024726233 9:0.047425874 10:0.7310586 11:0.95257413 12:0.006692851 13:0.99330717 14:0.95257413 15:0.0024726233 16:0.006692851 17:0.01798621 18:0.99908894 19:0.98201376 20:0.26894143 #
-0.0074096347580902138796332678793988 1:0.047425874 2:0.006692851 3:0.006692851 4:0.006692851 5:0.01798621 6:0.01798621 7:0.006692851 8:0.0024726233 9:0.11920292 10:0.5 11:0.95257413 12:0.006692851 13:0.88079709 14:0.98201376 15:0.0024726233 16:0.01798621 17:0.01798621 18:0.88079709 19:0.99752736 20:0.7310586 #
0.0074096347580902138796332678793988 1:0.7310586 2:0.5 3:0.7310586 4:0.7310586 5:0.047425874 6:0.88079709 7:0.88079709 8:0.26894143 9:0.11920292 10:0.11920292 11:0.047425874 12:0.5 13:0.047425874 14:0.11920292 15:0.11920292 16:0.88079709 17:0.7310586 18:0.01798621 19:0.26894143 20:0.26894143 #
0.0074096347580902138796332678793988 1:0.99908894 2:0.0024726233 3:0.0024726233 4:0.0024726233 5:0.006692851 6:0.0024726233 7:0.0024726233 8:0.7310586 9:0.0024726233 10:0.0024726233 11:0.0024726233 12:0.006692851 13:0.0024726233 14:0.00091105117 15:0.0024726233 16:0.11920292 17:0.01798621 18:0.00091105117 19:0.00091105117 20:0.006692851 #
-0.0074096347580902138796332678793988 1:0.26894143 2:0.11920292 3:0.26894143 4:0.047425874 5:0.01798621 6:0.26894143 7:0.11920292 8:0.01798621 9:0.047425874 10:0.95257413 11:0.88079709 12:0.047425874 13:0.5 14:0.99330717 15:0.11920292 16:0.047425874 17:0.047425874 18:0.98201376 19:0.95257413 20:0.5 #
0.0074096347580902138796332678793988 1:0.7310586 2:0.7310586 3:0.7310586 4:0.88079709 5:0.01798621 6:0.7310586 7:0.7310586 8:0.5 9:0.26894143 10:0.11920292 11:0.047425874 12:0.5 13:0.26894143 14:0.11920292 15:0.11920292 16:0.7310586 17:0.88079709 18:0.11920292 19:0.11920292 20:0.11920292 #
